#pragma GCC optimize("Ofast", "unroll-loops", "omit-frame-pointer", "inline")
#pragma GCC option("arch=native", "tune=native", "no-zero-upper")
#pragma GCC target("rdrnd", "popcnt", "avx", "bmi2")

#include <stdlib.h>
#include <stdio.h>
#include <stdint.h>
#include <stdbool.h>
#include <string.h>
#include <sys/time.h>
#include <emmintrin.h>
#include <smmintrin.h>



// START PARAMETERS
float hiddenWeights[190][256] = {{-0.098,-0.103,-0.038,0.089,-0.75,0.115,-0.89,-0.098,-0.131,-0.082,0.658,-0.042,0.042,0.055,0.12,0.057,0.065,0.181,0.184,-0.054,0.018,-0.302,0.019,0.117,-0.06,0.02,-0.001,-0.09,0.185,0.161,-0.046,-0.844,-0.135,0.016,-0.001,0.042,0.37,-1.491,-0.529,-0.021,0.043,0.03,0.086,0.083,-0.015,-0.013,0.268,-0.001,-0.175,0.007,0.053,0.005,0.058,0.007,0.123,-0.675,-0.486,-0.4,-0.856,-0.032,-0.462,-0.221,-0.008,-0.625,-0.54,0.126,0.539,0.034,0.098,0.086,0.011,0.107,0.016,0.017,0.851,0.137,-0.176,0.021,0.155,0.073,0.531,-0.101,0.422,0.023,-0.068,-0.062,0.109,1.083,0.035,-0.218,0.009,0.104,0.002,0.132,-0.609,-0.94,-1.614,0.127,0.028,0.116,-0.089,0.277,0.029,0.051,0.012,-0.085,-0.041,-0.065,-1.578,-1.492,-0.199,-0.136,0.089,-0.606,0.127,0.071,-0.025,-0.019,-0.351,1.169,0.058,0.009,0.187,-0.037,0.115,-0.44,-0.116,-1.438,0.05,-0.035,0.03,0.04,0.034,0.068,-1.452,-0.056,-0.06,0.029,0.106,0.1,0.075,0.08,0.011,0.154,0.847,-0.004,-0.053,0.46,-0.244,0.106,-1.552,-0.855,-0.049,0.129,0.092,0.248,-0.17,-0.131,0.033,-0.52,-0.894,-0.124,0.401,-0.098,-0.01,-0.006,0.05,-0.158,-0.417,-0.03,-0.023,-0.019,0.155,0.028,-0.687,-0.02,0.01,0.002,-0.458,-1.662,0.033,-0.166,-0.068,-0.083,-0.632,-1.294,-0.046,-0.076,0.064,0.232,0.017,0.049,0.075,-0.172,-0.695,-0.05,-0.056,-0.025,-0.043,-0.012,-0.09,-0.225,0.038,0.121,0.129,-0.032,0.053,0.169,-0.004,0.03,-0.002,-0.242,-0.024,0.132,-0.108,-0.423,-0.014,-0.242,-0.505,0.063,0.08,0.108,0.021,-0.067,0.111,0.079,-0.409,-0.232,-0.92,0.044,0.283,-0.137,0.135,0.094,-0.03,0.242,-0.349,0.074,0.048,0.027,-0.6,-0.066,0.731,-0.053,0.022,0.059,0.191,0.101,0.029,-0.221,0.108,0.272,0.094,-0.392,0.242,-0.155},
                                 {0.092,-0.085,0.065,0.153,-0.047,0.117,0.19,0.014,0.467,-0.206,-0.459,-0.818,0.131,0.153,0.202,-0.021,0.077,0.018,0.077,0.067,0.066,0.224,-0.123,-0.783,0.002,-0.012,0.132,-1.256,-0.949,0.24,-0.016,0.094,-0.067,0.062,-1.339,0.1,-0.353,-1.429,0.177,-0.059,0.024,-1.348,0.174,-0.839,-0.089,-0.047,0.342,-0.253,-0.186,-0.02,0.135,0.168,0.08,0.136,0.007,0.711,-0.097,0.293,0.147,-0.153,0.112,-0.307,0.058,0.148,-0.544,0.155,0.494,0.069,-0.94,0.031,-1.299,-0.012,-0.12,0.097,0.047,0.28,0.029,-0.167,0.14,0.131,0.156,0.19,0.191,-0.375,0.02,-0.892,0.137,-0.181,0.097,-0.07,-0.288,-0.072,0.139,0.38,-0.466,0.085,0.406,0.069,-0.16,-1.052,-0.275,0.259,0.147,0.035,0.038,0.032,-0.033,0.084,-0.026,0.054,0.117,-0.19,0.182,-0.368,0.017,0.086,-0.047,0.537,-0.265,-0.009,0.069,-0.027,0.178,0.07,-0.753,-0.024,0.059,0.101,0.159,-0.341,0.097,0.121,0.071,0.056,0.074,-0.19,0.004,-0.008,-0.583,0.123,0.093,0.024,0.015,0.112,-0.053,0.033,-0.193,0.024,0.091,0.056,-0.031,-0.2,0.069,2.511,-0.752,-0.059,0.012,0.034,0.235,0.042,0.116,-0.138,0.461,-0.079,0.06,-1.247,0.018,-0.176,-0.235,0.079,-0.003,-0.147,-0.97,-0.0,0.004,0.106,-0.097,0.135,-0.277,0.095,0.246,-0.037,0.165,0.036,-0.673,0.129,0.024,-0.116,-0.005,-0.163,-0.036,0.174,-0.202,-0.054,-0.421,0.1,-0.013,0.05,-1.237,0.02,0.087,-0.101,0.026,0.099,0.017,0.087,0.055,-0.194,-0.042,-0.003,0.092,-0.008,0.044,-0.067,0.03,-0.137,-1.208,0.05,-0.227,0.003,0.099,0.133,0.069,-0.072,-0.005,0.014,-0.254,0.12,0.2,0.036,-0.423,0.057,0.378,0.047,0.057,0.196,-0.561,0.036,0.074,0.097,-0.023,-0.215,0.841,-0.004,-0.07,0.089,0.028,0.037,0.092,0.188,0.005,0.473,0.05,-0.217,-0.086,-0.037},
                                 {0.049,0.164,-0.042,0.063,0.141,0.143,0.17,0.088,-0.335,0.139,-0.754,0.094,0.104,-0.1,-1.423,-0.026,-0.349,0.012,0.186,-1.449,-0.126,-0.408,0.005,0.139,0.128,0.014,-0.015,-0.049,0.19,-0.018,-0.145,0.055,0.078,0.09,-0.049,-0.11,-0.449,-1.421,0.058,0.123,0.078,0.048,-0.078,0.075,-0.171,0.025,-0.482,-0.01,-0.096,-0.049,0.092,-0.057,0.017,-0.015,0.092,-0.741,0.233,0.287,0.081,-0.067,0.25,-0.291,-0.278,-0.416,0.634,-0.862,-1.295,0.034,-0.432,0.099,-0.047,-0.062,0.104,-0.117,-0.015,-0.412,0.057,0.121,0.059,0.061,-0.051,0.634,0.594,0.192,-0.064,0.008,-0.77,-0.131,-1.467,-0.085,-0.519,-0.005,0.005,-0.082,-0.841,-0.081,0.393,0.115,0.019,0.182,-0.329,-1.532,0.048,0.868,0.005,0.107,-0.1,0.002,0.005,0.034,0.123,-0.055,-0.065,0.149,0.114,0.003,-0.062,0.085,-0.356,-0.055,-0.069,-0.094,-0.103,0.228,0.108,0.151,-0.074,0.014,0.037,-0.116,0.012,0.037,0.171,0.072,-0.064,1.118,-0.09,0.046,-0.136,-0.78,-0.596,0.064,-1.298,0.173,0.551,-0.047,0.125,0.1,-0.01,0.086,0.04,-0.132,-0.908,0.117,0.025,-0.064,0.059,0.043,-0.095,0.111,0.072,-0.057,0.352,-0.2,-0.684,0.034,0.004,-0.567,0.337,-1.307,0.042,-0.038,0.122,0.082,-0.067,-0.898,-0.137,0.039,0.447,0.032,0.086,0.131,0.109,0.241,-0.493,0.088,-0.004,-0.088,-0.135,-0.344,-0.048,0.024,0.057,-0.294,0.341,-0.989,-1.507,-0.069,0.074,-1.387,0.025,-0.275,0.038,0.134,0.01,0.016,0.045,0.068,0.044,0.127,-0.047,-0.15,-0.302,-0.046,0.035,-0.053,-0.028,-0.083,-0.138,-0.15,0.019,-0.021,-0.041,-0.054,-0.16,-0.033,-0.764,0.068,0.098,0.013,-0.558,-0.137,-0.186,0.181,0.001,0.112,0.054,-0.161,-0.113,0.253,0.192,-0.104,0.639,0.168,-0.762,-0.016,0.063,0.066,0.085,0.049,0.04,-0.105,0.071,0.178,-0.024,-0.022},
                                 {0.025,-0.01,0.002,0.043,0.13,0.134,0.104,0.093,-0.249,-0.277,0.685,-0.037,0.052,0.126,0.058,-0.031,0.047,-0.654,0.078,0.035,-0.038,-0.223,0.101,0.005,0.211,0.064,0.041,0.058,0.022,0.295,-0.174,0.076,1.91,0.047,0.076,-0.003,-0.39,0.141,-0.133,0.069,-0.016,0.052,-0.073,0.055,-0.028,0.061,0.179,0.028,-0.222,0.046,-0.027,-1.132,-0.0,0.031,1.103,-0.482,0.023,0.323,-0.195,0.002,0.024,-0.162,-0.062,0.116,-0.659,0.049,0.459,0.067,0.067,0.116,0.069,-0.017,0.009,0.052,0.105,0.204,0.015,0.132,0.104,-1.243,0.125,0.084,0.486,0.281,0.124,0.056,-0.183,-0.153,0.149,-0.051,-0.489,-0.65,-0.036,0.198,0.627,0.165,0.392,0.095,0.042,0.177,-0.285,0.219,0.078,0.063,-1.033,-0.202,-0.585,0.375,0.047,0.095,0.082,-0.182,-0.231,-0.341,0.027,0.101,-0.113,0.12,-0.218,-0.066,-0.003,0.128,0.344,-0.045,0.15,0.101,0.003,-0.036,-0.092,-0.188,-1.054,-0.097,0.082,0.112,0.023,-0.125,0.007,0.043,-0.047,0.044,0.011,-0.767,0.098,0.106,0.077,-1.023,-0.102,-0.616,0.097,-0.124,0.052,0.101,0.077,0.185,-0.044,0.232,0.564,-0.169,0.027,-0.095,0.136,-0.07,-0.3,-0.105,-0.019,0.056,0.105,-0.029,-0.251,0.011,0.045,0.034,-0.048,-0.113,0.113,-0.142,-0.646,0.132,-0.284,-0.004,0.39,0.064,-0.096,0.176,-0.517,-1.19,-0.181,0.026,-0.437,-0.268,0.023,0.08,0.114,-0.15,-0.452,0.098,0.1,0.049,0.032,0.137,-0.193,0.419,-0.0,0.126,0.16,0.339,-1.12,0.17,-0.181,0.12,0.076,-0.211,0.139,-0.338,-0.178,-0.072,0.063,0.034,0.629,0.076,0.017,-0.031,-1.234,0.122,-0.826,0.105,-0.248,-0.022,-0.023,0.048,-0.54,0.009,0.534,-0.028,-0.069,0.327,0.128,0.034,0.057,0.202,-0.107,-0.463,-0.556,-0.037,0.001,0.165,-1.263,0.136,0.088,0.112,0.196,-0.207,-0.036,-0.122,0.073,0.074},
                                 {-0.071,0.025,-0.109,-1.723,-0.008,-0.059,0.05,0.069,0.161,0.377,-0.663,0.086,0.318,0.027,0.3,0.085,-0.058,-0.121,0.197,0.039,0.026,0.233,-1.866,0.043,-0.155,-0.094,0.173,-0.069,-0.103,-0.259,-0.832,0.01,-0.083,-0.129,-0.053,0.097,0.642,0.261,0.246,-0.103,0.019,-0.039,-0.148,-0.699,-0.124,-0.006,0.246,-1.509,0.166,-0.072,0.045,0.038,-0.07,-0.118,-0.034,0.639,0.265,0.261,0.022,0.076,0.181,-0.173,-0.032,0.234,-0.529,0.084,-1.594,-0.037,0.157,0.068,-0.111,-0.122,-0.069,0.049,-0.203,-0.002,-0.19,0.17,-1.208,-1.586,0.215,0.074,0.563,0.448,0.012,0.145,0.009,0.523,0.021,-0.569,0.195,-0.081,-0.073,-0.335,0.503,0.066,-1.94,-0.379,2.586,-1.271,-0.185,-1.738,0.012,-0.224,0.126,0.052,0.061,-0.181,-0.002,0.02,-1.193,-0.223,0.04,0.218,-0.022,-0.127,-0.004,-0.087,-0.183,0.31,-0.102,-1.333,-0.862,0.12,0.245,-0.129,-0.546,-0.048,-1.657,-0.044,-0.045,-0.028,0.097,0.252,0.008,0.266,-0.523,-0.028,0.354,-0.229,0.044,0.127,-0.021,-1.135,0.123,-0.094,0.406,-0.404,-0.097,-0.03,-0.074,0.039,0.03,-0.057,0.123,-0.013,-0.08,0.006,-0.136,0.02,-0.245,0.799,-0.623,0.002,0.077,-0.894,-0.106,0.022,-0.313,-0.079,-0.082,0.076,-0.052,-0.001,-0.078,0.091,0.054,-0.042,-0.819,0.006,0.244,0.063,-1.553,0.049,-0.587,0.303,-1.423,-1.475,0.003,0.218,-0.093,0.064,-1.094,0.781,0.623,-0.046,-0.003,-0.084,-0.068,-0.046,-0.328,-0.075,-0.007,0.186,-0.048,-0.134,-0.007,0.012,-0.09,0.135,-0.093,0.151,-0.118,-0.068,-1.593,0.066,-0.045,-0.132,0.237,-0.155,-0.677,-0.061,-0.103,-0.069,0.022,-1.578,-0.609,0.095,-0.002,-0.033,0.396,0.045,0.21,-0.123,-0.082,0.383,0.156,0.036,-1.056,-0.1,0.251,0.009,-0.531,-0.059,-0.021,0.125,-0.802,0.009,-0.933,-0.222,-0.017,0.202,0.105,0.089,-0.367,0.051},
                                 {0.067,-0.55,-0.035,0.007,0.043,0.121,0.044,0.019,-0.295,-0.475,-0.515,-0.018,0.232,0.028,-1.452,0.071,0.122,0.007,0.094,0.046,0.088,-0.218,0.107,-0.023,-0.003,0.04,-0.054,0.05,0.012,0.284,-0.017,0.003,-0.059,-0.036,0.077,-0.009,-0.37,0.131,0.079,-0.668,0.123,0.118,-0.056,0.014,0.076,0.129,0.131,0.03,-0.233,-0.01,0.092,0.073,-1.248,0.001,-0.073,-0.555,0.105,-0.745,0.032,0.011,-0.367,-0.121,0.06,0.18,0.775,0.097,0.471,-0.235,0.09,-0.799,0.054,0.111,0.148,-0.046,-0.026,0.198,0.135,-0.219,-0.104,-1.408,0.166,0.199,0.39,0.263,0.08,0.027,-0.079,-0.069,0.081,-0.063,0.224,0.039,0.137,0.112,0.62,-0.119,0.412,-1.169,-0.134,0.14,-0.203,0.268,0.152,0.113,0.169,0.203,0.08,0.365,0.1,0.127,0.124,0.021,0.061,-0.283,0.049,0.164,-0.084,0.167,-0.199,-0.076,0.074,-0.088,0.122,0.062,0.194,-0.041,0.067,0.012,-0.095,-0.216,0.016,0.02,0.025,-0.236,0.058,-0.192,0.017,0.124,-0.142,0.124,-0.205,0.126,-0.065,0.105,-0.086,-0.023,-0.168,-0.484,0.073,-0.135,0.118,-0.02,0.042,0.103,-0.049,0.044,-0.132,-0.006,0.125,0.02,0.015,-0.038,-0.335,-0.056,0.066,0.115,0.065,0.072,-0.265,-0.031,0.074,0.079,-0.025,-0.07,0.005,0.178,0.801,0.083,0.439,0.151,0.348,-0.659,0.065,-0.01,-0.483,0.056,-0.275,0.053,0.078,-0.19,0.029,0.073,0.125,-0.119,-0.409,0.061,0.086,0.067,0.118,0.033,0.203,-0.309,0.064,0.141,2.543,0.122,0.007,0.02,0.056,-0.648,0.028,-0.05,0.043,0.151,0.119,-0.211,0.031,0.081,-1.139,-0.025,-0.004,-1.21,-0.019,0.092,0.05,0.151,-0.218,0.002,-0.12,-1.322,-0.422,0.038,0.11,-0.879,-0.738,0.285,0.091,-0.226,0.058,0.155,-0.138,-0.194,-0.533,0.164,0.115,-0.781,0.043,0.024,0.132,-0.11,-0.069,0.176,0.048,0.365,0.11,-0.551},
                                 {-0.051,0.095,0.009,-0.027,0.062,0.016,-0.142,-0.817,-0.037,0.182,0.601,-0.255,0.079,-0.005,0.099,-0.029,-0.017,0.211,0.154,-0.048,-0.407,-0.233,0.019,-0.218,-0.725,0.191,-0.018,-0.037,-0.005,-0.059,-0.103,-0.062,-0.028,0.064,-0.065,0.083,-0.423,0.089,0.123,-0.008,-0.244,0.05,-0.094,0.013,-0.397,0.001,0.471,-0.031,0.271,0.006,-0.338,-0.003,-0.021,-0.029,0.033,-0.63,0.167,-0.005,-0.251,-0.456,0.076,-0.145,-0.047,0.266,-0.604,-0.01,-1.238,0.081,0.163,-0.153,0.027,0.048,0.061,-1.172,0.023,-1.306,0.053,-0.153,0.09,0.106,0.127,0.366,0.468,-0.218,-0.05,0.028,0.045,-0.052,-0.053,-0.092,-0.213,0.121,-1.709,-0.355,-0.589,0.128,0.428,0.156,0.086,0.112,-0.266,-1.516,-1.66,0.055,-0.057,-0.2,0.077,0.029,0.054,-0.035,0.117,-0.073,0.143,0.273,0.081,0.118,-0.119,0.099,0.049,-0.198,-0.276,0.055,-0.324,-0.238,-0.081,0.008,-0.071,0.044,0.013,-0.189,-0.037,-1.331,0.069,0.122,0.02,-0.286,-0.079,-1.41,-0.008,-0.256,0.052,-0.087,0.05,0.098,-0.219,-0.059,-0.0,0.047,-0.024,-0.694,-0.048,0.114,0.032,0.033,0.037,-0.525,-0.023,-0.741,-0.279,0.256,0.066,0.008,-0.708,0.807,0.097,0.039,0.019,0.016,0.125,0.025,0.006,0.116,-0.05,0.076,0.107,0.027,-0.025,-0.022,-0.566,-0.03,0.176,-0.179,0.065,0.701,0.701,-1.377,-0.026,0.041,0.095,-0.429,-0.095,-0.082,0.014,-0.277,0.413,-0.006,0.081,-0.108,-0.039,0.005,-0.359,-0.055,-0.078,-1.332,-0.08,0.108,0.006,-0.867,0.08,-0.787,-0.093,0.064,-0.084,-0.013,-0.084,0.054,0.016,-0.076,-0.392,-0.709,0.16,-0.052,-0.037,-0.008,0.152,-0.012,0.437,-0.051,0.049,0.032,-0.58,0.098,-0.088,0.016,-0.022,0.236,0.137,0.076,-0.094,0.293,0.015,-0.043,-0.523,0.001,0.041,0.1,0.152,-0.74,0.133,-0.05,-0.788,0.189,1.897,-0.431,-0.536,0.023},
                                 {0.138,0.104,-0.257,-0.166,-0.193,0.242,-0.081,0.099,-0.882,-0.705,-0.546,0.102,0.154,-0.006,0.158,0.131,0.049,0.055,-0.062,0.114,-0.025,0.168,-0.102,0.08,0.056,-0.873,0.011,-0.012,-0.057,0.379,-0.183,-0.029,-0.012,0.065,-0.014,-0.694,-0.346,0.155,0.097,-0.036,-0.209,0.102,-0.855,0.024,0.073,0.637,0.27,-0.189,-0.228,-1.02,-0.062,0.098,0.059,0.083,0.148,0.735,0.302,0.271,0.01,0.142,0.244,-0.832,-0.071,0.04,-0.582,-0.112,0.49,-0.136,0.124,0.021,-0.021,-0.097,-0.053,0.076,-0.049,0.348,0.138,0.142,0.111,0.093,0.103,0.099,0.577,0.022,0.036,0.163,0.007,-0.16,0.033,-0.145,-0.232,0.006,0.073,-0.236,-0.44,0.016,0.405,0.072,-0.027,-1.069,-0.332,0.255,-0.088,0.051,0.077,0.1,-0.017,0.074,0.147,0.025,0.102,0.012,-0.063,-0.217,0.133,1.821,-0.138,0.039,-0.061,0.013,-0.009,0.055,0.299,-0.487,0.257,0.08,0.004,0.126,0.081,1.034,-0.039,0.085,0.05,-0.303,0.095,-0.174,-0.033,-0.134,-0.102,0.077,0.009,0.012,0.098,-0.044,0.269,0.008,-0.093,0.107,0.077,0.19,0.003,-0.008,0.054,0.071,0.142,0.217,-0.035,0.138,-0.025,-0.158,0.011,-0.129,-0.302,-0.098,-0.002,-1.333,-0.066,-0.007,-0.265,0.13,-1.07,0.154,0.088,0.16,0.07,0.043,-0.079,-0.002,-0.313,0.14,-0.33,-0.014,0.103,0.227,0.83,0.115,0.027,0.102,0.081,-0.286,-1.157,-1.113,0.025,-0.059,-0.24,0.07,0.113,0.064,-0.044,0.02,0.154,-0.112,0.058,-1.524,0.104,0.027,0.133,-0.057,-0.032,0.13,0.032,-0.145,0.123,0.097,0.001,-0.27,-0.001,0.08,-0.235,0.092,-1.278,0.037,0.058,-1.205,-0.035,-0.31,0.454,-0.815,0.03,0.04,-0.475,-0.91,0.011,0.033,0.048,0.312,0.101,0.09,0.067,0.416,-0.349,-0.103,-0.513,0.168,-0.13,0.019,0.081,-0.141,0.073,-0.201,0.093,0.448,-0.103,-0.132,0.49,-0.016},
                                 {-1.53,0.082,-0.028,-0.13,0.102,-1.541,0.085,-0.025,0.08,-0.6,-0.669,0.043,-0.16,-1.378,-1.283,-0.164,-0.08,0.049,-0.72,0.016,-0.055,-0.249,0.047,-0.115,-0.054,0.199,0.313,-0.017,0.058,0.063,-0.166,0.136,0.071,-0.99,-0.045,-0.082,0.439,0.141,0.099,0.199,-0.779,0.064,-0.052,-0.017,-0.159,0.166,-0.033,0.031,-0.192,-0.091,0.01,0.042,-0.0,-1.364,0.127,-0.695,0.298,0.33,0.069,0.171,0.227,-0.205,-0.014,0.32,0.756,-0.054,0.419,-0.025,0.089,0.018,-0.081,0.1,-0.917,-0.058,-0.011,0.273,-0.859,-0.01,0.019,0.116,-0.028,0.07,0.308,0.079,-1.361,0.015,0.058,-0.394,-0.031,-0.062,0.065,0.04,0.022,0.453,-0.647,0.045,-1.562,0.115,-0.098,0.173,-0.486,0.134,-0.027,-0.005,0.052,-0.506,-0.001,0.034,0.098,-0.065,-0.229,-0.203,0.028,-0.438,-0.868,0.426,1.166,0.042,0.178,0.463,-0.016,-0.095,0.166,1.062,0.155,-0.102,-0.153,0.055,0.037,-0.555,0.002,0.007,0.158,0.089,-0.047,-0.041,-0.002,0.041,0.051,0.127,-0.199,-0.141,-0.107,0.021,-0.214,0.03,0.027,-0.084,0.018,0.151,0.041,0.092,0.07,0.108,-0.246,0.162,0.013,0.121,0.05,-0.345,-0.239,-0.042,-0.548,-0.126,-0.022,0.068,-1.35,0.09,-0.337,0.031,-0.018,-0.845,0.019,-0.952,-0.042,0.175,-0.065,-1.606,0.492,0.05,0.203,0.191,0.092,0.036,0.656,0.165,0.038,0.037,0.103,0.351,-0.035,-0.021,0.089,-0.22,-0.423,-0.06,0.009,-0.322,0.042,0.006,0.314,-0.241,-0.697,-1.37,0.032,-0.004,0.036,0.087,0.392,0.169,-0.297,0.096,0.023,-0.192,0.085,0.218,0.01,-0.023,-0.07,0.085,0.154,-0.085,-0.025,-0.028,-0.161,-0.236,0.403,0.064,0.072,0.053,0.202,0.12,0.171,0.177,-0.01,0.217,0.061,-0.804,0.051,0.034,0.056,0.025,-0.578,-0.548,0.14,-0.023,0.114,-0.144,0.118,-0.055,-0.048,0.2,-0.007,0.06,0.05,0.075},
                                 {-0.049,0.076,0.007,0.014,-0.438,-0.054,-0.565,0.078,-0.019,-0.049,0.467,0.036,0.031,0.049,0.126,-0.045,-0.049,0.091,0.019,-0.015,-0.041,-0.077,-0.014,0.062,-0.074,-0.077,-0.016,0.016,0.047,0.132,0.025,-0.565,0.065,0.019,-0.005,-0.006,0.187,-0.013,0.384,0.007,0.006,0.082,-0.04,0.058,-0.022,0.003,-0.048,-0.022,-0.0,-0.024,0.045,-0.011,-0.001,0.051,0.022,-0.107,-0.051,0.012,1.233,0.022,-0.022,0.054,0.059,0.103,-0.053,0.005,0.059,-0.005,-0.042,-0.013,0.042,-0.004,-0.001,0.05,0.418,0.146,0.071,-0.002,0.009,0.101,0.296,0.111,0.087,0.084,-0.01,0.062,0.044,0.571,0.035,-0.04,-0.057,0.046,0.02,0.034,-0.08,-0.622,-0.236,-0.013,0.111,0.155,-0.019,0.148,0.059,-0.065,0.097,-0.033,0.006,-0.017,-0.785,0.178,0.049,0.021,0.077,-0.137,0.068,-0.009,-0.063,0.004,0.043,-0.115,0.052,-0.008,0.086,0.051,0.141,0.097,-0.082,0.217,0.005,-0.019,0.039,0.041,0.034,-0.024,0.191,-0.036,-0.042,0.05,0.033,0.036,-0.025,0.009,0.054,-0.021,-0.129,0.023,0.099,0.275,0.214,-0.003,0.214,1.264,0.013,0.132,-0.012,0.028,0.048,0.043,-0.001,-0.12,1.134,-0.063,0.285,-0.025,0.046,0.08,0.015,0.035,-0.023,0.023,-0.059,0.037,0.048,0.021,-0.591,0.022,0.044,-0.005,-0.066,-0.867,0.002,-0.035,0.052,0.054,-0.101,-0.103,0.014,-0.061,-0.008,0.317,-0.051,-0.035,0.036,-0.089,-0.101,0.014,0.028,0.001,-0.017,-0.001,0.003,-0.016,0.073,0.083,0.029,-0.013,-0.01,-0.024,-0.319,0.039,0.057,-0.061,0.031,0.075,-0.085,-0.1,0.034,-0.529,-0.073,0.006,-0.045,0.031,0.052,0.022,0.067,-0.001,-0.038,0.003,-0.593,0.033,0.308,-0.045,-0.402,-0.032,-0.023,0.119,0.237,-0.003,0.017,-0.036,0.158,0.14,0.334,0.342,0.03,-0.004,0.025,-0.025,0.034,0.557,0.02,0.073,0.053,0.034,-0.043,0.025},
                                 {-0.022,0.028,-0.052,0.045,0.718,-0.053,-0.277,0.075,0.07,-0.005,0.182,-0.125,0.01,-0.002,0.022,-0.007,-0.013,0.052,0.059,-0.001,-0.008,-0.029,-0.018,-0.046,-0.083,-0.064,-0.043,0.024,-0.054,0.065,0.059,-0.382,0.02,0.008,0.03,-0.05,0.122,-0.145,-0.062,0.017,-0.025,0.063,0.039,0.018,0.03,-0.026,-0.003,-0.03,-0.053,-0.015,0.09,-0.056,-0.012,0.035,0.082,-0.077,0.014,-0.05,-0.164,0.067,-0.034,0.052,-0.005,-0.058,-0.087,-0.039,0.124,-0.005,0.086,-0.01,-0.012,0.075,-0.009,-0.002,0.296,0.039,-0.008,0.016,-0.054,0.033,0.173,-0.025,0.03,-0.06,-0.034,-0.088,0.0,0.373,0.049,0.026,-0.004,-0.009,0.028,0.06,-0.067,-0.242,-0.193,0.02,0.047,0.039,-0.027,0.138,-0.002,-0.046,0.046,-0.02,0.007,-0.058,-1.441,0.224,-0.006,0.022,0.135,-0.112,0.019,0.021,-0.034,-0.099,0.066,-0.088,0.011,0.04,0.043,0.066,0.067,0.074,-0.011,0.249,0.043,0.024,0.0,0.036,0.018,-0.009,0.336,-0.016,0.01,-0.001,0.121,-0.008,-0.059,-0.02,0.027,-0.036,0.122,0.036,0.031,0.211,0.274,-0.02,-1.019,0.839,0.033,0.092,-0.134,-0.048,-0.005,0.04,-0.028,-0.055,-0.271,-0.046,0.206,-0.025,0.015,0.089,0.008,0.029,0.013,0.039,-0.01,0.041,-0.053,-0.009,0.552,-0.008,-0.05,0.007,-0.09,0.272,0.009,0.003,-0.016,0.087,-0.098,-0.142,-0.037,0.024,0.055,0.096,0.038,-0.069,0.062,-0.041,-0.118,0.047,0.019,0.006,-0.045,0.037,-0.042,0.052,0.007,0.117,0.062,0.007,-0.005,0.011,-0.044,0.011,0.021,0.105,0.011,0.057,-0.017,-0.041,0.055,0.349,-0.084,0.014,-0.038,0.014,0.029,0.034,0.037,-0.007,-0.09,-0.019,-0.255,0.014,0.159,-0.019,-0.132,-0.035,0.011,0.096,0.884,-0.031,-0.007,-0.067,-0.133,0.108,0.095,0.086,-0.023,-0.032,0.066,-0.031,0.017,-0.587,0.007,0.052,0.075,0.031,0.001,0.009},
                                 {-0.006,0.058,0.034,0.042,-0.22,-0.026,-0.243,0.077,-0.059,-0.019,0.265,0.008,-0.005,-0.036,0.029,0.018,-0.014,0.07,0.016,-0.042,-0.036,-0.002,-0.023,0.004,-0.084,-0.029,-0.022,0.008,0.036,0.084,0.027,0.666,0.026,0.019,-0.014,0.004,0.15,-0.18,0.168,0.019,-0.026,0.057,0.06,0.051,0.03,0.002,0.082,-0.046,-0.052,-0.018,-0.023,-0.031,-0.015,0.02,0.0,-0.082,0.012,-0.041,-0.261,0.052,0.147,0.091,0.063,-0.164,-0.045,-0.12,0.103,-0.024,-0.021,-0.035,0.012,0.09,-0.016,-0.01,0.395,0.044,0.012,0.059,-0.012,0.11,0.192,-0.046,0.064,0.042,-0.009,0.045,-0.12,0.512,0.018,-0.003,-0.035,0.044,-0.014,-0.013,-0.102,0.808,-0.227,-0.011,0.131,0.172,-0.016,0.118,-0.007,-0.094,0.053,-0.011,0.046,-0.003,-1.361,0.415,0.021,-0.016,0.082,-0.06,0.043,0.07,-0.021,-0.071,0.049,-0.106,-0.025,-0.013,0.109,0.094,0.106,-0.334,-0.032,0.411,0.007,-0.069,0.072,-0.02,0.021,-0.023,-1.136,0.026,-0.06,-0.012,0.101,-0.149,-0.141,0.037,-0.022,-0.003,-0.071,0.036,0.035,0.301,-0.87,-0.032,0.385,0.81,0.016,0.039,-0.043,0.12,-0.028,0.009,0.056,-0.139,-0.314,-0.048,0.276,-0.054,-0.111,0.175,0.049,-0.149,-0.137,0.028,-0.051,0.044,0.055,-0.037,-0.313,-0.152,-0.007,0.0,-0.123,0.355,0.017,-0.021,0.013,0.077,-0.1,-0.183,-0.029,-0.041,0.066,0.137,-0.005,-0.011,0.004,-0.105,-0.093,0.018,-0.05,0.083,-0.029,0.016,-0.028,0.053,-0.009,0.154,0.076,-0.022,-0.005,0.017,-0.139,0.019,0.06,0.054,-0.021,0.042,-0.068,-0.113,0.026,0.408,-0.06,0.067,-0.017,0.007,0.036,-0.003,0.042,-0.022,-0.085,-0.009,-0.286,0.014,0.162,-0.018,-0.162,-0.024,0.036,0.147,0.089,0.018,0.076,-0.046,-0.081,0.096,0.201,0.219,-0.155,-0.031,0.041,-0.001,0.09,-0.136,0.007,0.007,0.033,-0.106,0.04,-0.004},
                                 {0.0,0.095,-0.022,0.032,-0.317,-0.032,-0.252,0.031,-0.044,0.022,0.223,0.019,-0.016,0.008,0.027,0.0,-0.013,-0.073,0.004,-0.016,-0.036,-0.019,-0.019,0.002,-0.079,-0.068,-0.027,-0.032,-0.007,0.069,0.038,-0.276,-0.005,0.043,-0.017,-0.012,0.097,-0.191,0.363,-0.023,-0.025,0.019,-0.041,0.016,-0.013,0.0,0.078,-0.078,-0.058,0.02,-0.032,-0.115,-0.012,0.005,0.202,-0.169,0.003,-0.033,0.809,0.019,0.071,0.011,-0.002,-0.067,-0.017,-0.003,0.122,-0.009,-0.014,-0.012,0.016,0.081,-0.018,0.023,0.365,0.069,-0.016,-0.062,-0.053,-0.003,0.148,0.019,0.04,-0.03,-0.002,0.035,0.023,0.379,0.016,0.016,0.045,-0.046,-0.01,0.046,-0.096,-0.158,-0.212,0.019,0.038,0.064,0.112,0.162,0.026,-0.06,-0.077,0.005,-0.067,-0.052,0.234,0.241,0.003,0.027,-0.005,-0.095,0.008,0.028,0.006,0.01,0.08,-0.129,0.007,0.017,0.025,0.019,0.134,-0.179,-0.003,-1.107,0.017,-0.108,0.028,0.015,0.033,-0.012,0.259,0.049,0.017,0.007,-0.038,-0.016,-0.017,-0.092,0.053,-0.06,-0.008,0.008,0.067,0.219,0.25,-0.027,0.251,-0.202,-0.022,0.09,-0.004,0.061,-0.081,0.026,-0.015,-0.049,-0.278,0.003,0.143,-0.045,0.01,0.014,0.038,0.028,-0.019,0.011,-0.027,0.005,-0.002,-0.005,-0.146,0.008,0.028,0.027,-0.072,-1.447,0.031,-0.028,0.033,0.018,-0.119,-0.184,-0.041,-0.008,-0.006,0.098,0.012,-0.045,-0.009,-0.089,-0.161,-0.024,-0.002,0.047,-0.047,0.009,0.057,0.123,0.012,0.099,0.011,-0.014,-0.059,-0.053,-0.086,-0.012,0.056,0.063,0.012,0.013,-0.023,-0.08,-0.001,0.412,-0.025,-0.018,-0.0,0.041,0.03,0.007,-0.076,-0.065,-0.054,-0.003,0.909,0.005,0.164,-0.023,-0.147,-0.025,0.041,0.084,-0.014,-0.024,-0.034,-0.036,0.153,-0.09,0.112,0.139,-0.002,-0.05,0.074,-0.031,0.015,-1.015,-0.029,-0.007,0.034,-0.134,0.019,-0.025},
                                 {0.024,0.009,-0.001,0.025,0.94,-0.027,-0.777,0.098,-0.042,-0.061,0.222,0.031,0.023,0.019,0.086,0.074,-0.001,0.066,0.014,-0.008,-0.063,-0.082,-0.006,0.03,0.057,-0.05,-0.057,0.028,0.067,0.084,0.037,0.857,-0.014,0.018,0.028,-0.021,0.037,-0.301,0.038,0.02,0.04,0.036,0.025,0.047,0.026,-0.001,0.024,-0.2,-0.143,0.016,0.057,-0.01,-0.016,0.041,-0.001,-0.225,0.097,-0.04,-0.627,0.014,0.116,-0.102,0.03,0.013,-0.144,-0.01,0.079,-0.058,0.004,-0.04,0.003,0.012,0.012,-0.012,0.426,0.084,0.055,0.042,-0.077,-0.024,0.359,0.039,0.085,-0.047,0.007,0.043,0.032,0.594,0.028,0.007,-0.061,0.022,-0.007,0.003,-0.178,-0.724,-0.439,-0.013,0.088,0.094,0.038,0.061,0.03,-0.05,0.046,0.004,0.048,0.031,0.413,0.468,-0.092,-0.027,0.084,-0.223,0.111,0.082,-0.105,0.028,-0.082,-0.154,-0.016,0.057,0.045,0.095,0.067,0.043,-0.083,-1.014,0.006,-0.064,0.091,0.01,0.016,0.031,0.454,-0.011,-0.069,-0.028,-0.08,0.07,-0.011,-0.037,0.065,-0.088,-0.016,0.055,0.026,0.28,-0.808,0.021,-1.094,-0.596,0.004,0.077,-0.023,0.025,-0.005,0.029,-0.036,-0.122,0.865,-0.038,0.228,-0.005,0.063,-0.042,0.039,0.012,-0.019,-0.002,-0.086,0.057,0.032,-0.016,0.325,0.061,0.01,-0.002,-0.13,0.41,0.051,0.007,-0.158,0.079,-0.206,-0.336,-0.124,-0.005,0.008,0.293,0.046,-0.011,-0.131,-0.088,-0.179,-0.007,-0.009,-0.035,-0.016,0.041,-0.04,-0.048,0.066,0.1,0.059,0.009,-0.009,0.025,-0.289,0.003,-0.016,-0.048,-0.007,0.08,-0.08,-0.093,-0.023,-1.124,-0.081,0.056,-0.008,0.058,0.033,0.015,0.024,-0.115,-0.092,0.0,0.952,-0.007,0.288,-0.032,-0.205,-0.015,-0.003,0.192,-0.019,0.016,-0.044,-0.068,-0.108,-0.011,0.174,0.23,0.05,-0.027,-0.051,0.025,0.024,-0.064,0.04,0.072,0.092,-0.085,0.039,-0.005},
                                 {0.004,0.113,0.023,0.051,-0.316,-0.056,-0.273,0.023,-0.035,-0.011,0.171,0.046,0.002,-0.021,0.009,0.045,0.019,0.037,0.036,0.023,-0.011,-0.008,0.016,0.05,-0.042,-0.056,-0.009,0.048,0.028,0.123,0.001,-0.266,0.017,0.018,0.001,-0.043,0.111,-0.093,0.049,-0.076,-0.001,0.044,0.027,0.021,0.023,-0.017,0.035,-0.069,0.015,-0.022,0.073,0.018,0.043,0.035,0.029,-0.106,0.027,-0.151,-0.124,-0.006,-0.303,0.026,0.033,-0.013,-0.091,-0.035,0.102,-0.004,0.022,-0.104,-0.004,0.055,-0.006,-0.01,0.388,0.051,-0.013,-0.018,0.021,-0.02,0.162,0.079,0.014,0.022,0.021,0.019,0.003,0.339,0.013,0.056,-0.008,-0.008,0.0,0.044,-0.043,0.819,-0.258,0.058,0.041,0.085,0.089,0.095,0.029,-0.06,0.013,-0.003,-0.021,-0.006,0.237,0.231,-0.008,0.006,0.119,-0.077,0.062,0.06,-0.009,-0.039,0.077,-0.123,-0.021,0.058,-0.008,0.008,0.047,0.0,0.0,-1.12,0.004,-0.017,0.069,0.003,0.017,-0.005,-1.168,0.034,0.002,0.008,0.043,0.01,0.002,-0.032,0.038,-0.054,0.014,0.014,0.068,0.107,0.306,0.012,0.279,-0.21,0.011,0.087,-0.013,0.025,-0.02,0.01,-0.029,-0.046,-0.289,-0.046,0.161,-0.028,0.004,0.1,0.048,-0.003,-0.04,0.018,-0.074,0.031,0.039,0.047,-0.194,-0.009,-0.008,0.022,-0.047,0.206,-0.005,-0.1,0.003,0.05,-0.075,-0.146,-0.016,0.005,0.056,0.078,-0.007,-0.029,0.006,-0.051,-0.118,0.049,0.013,0.061,-0.019,0.031,-0.043,0.029,0.003,0.118,0.111,0.05,0.063,0.005,-0.115,0.056,0.024,0.074,0.023,0.12,-0.016,-0.132,0.037,0.317,-0.109,0.02,-0.016,0.025,0.032,0.074,0.023,-0.05,-0.051,-0.038,0.815,0.028,0.141,-0.053,-0.168,-0.12,-0.043,0.036,-0.006,0.0,-0.013,-0.045,-0.156,0.087,0.179,0.153,-0.004,-0.135,0.045,-0.01,0.005,-0.034,0.024,0.077,0.105,0.017,0.039,-0.113},
                                 {-0.016,0.041,-0.026,0.012,-0.418,-0.033,0.843,-0.089,0.0,-0.059,0.273,0.038,-0.053,-0.044,0.103,-0.013,0.031,0.065,0.037,-0.03,0.025,-0.045,-0.017,0.007,-0.064,-0.064,-0.014,0.033,0.039,0.033,-0.002,0.718,0.014,0.064,-0.034,-0.039,0.186,-0.208,0.078,0.022,-0.023,0.039,-0.106,0.036,0.129,0.005,0.026,-0.07,-0.179,-0.014,0.003,0.02,0.019,0.039,0.01,-0.16,0.011,-0.068,0.864,-0.151,-0.108,-0.036,0.012,-0.049,-0.039,-0.033,0.129,-0.021,0.041,0.014,0.027,0.053,-0.039,-0.007,0.395,0.068,-0.001,-0.058,-0.031,0.101,0.216,0.099,0.046,-0.074,-0.018,0.01,0.019,0.52,0.001,-0.01,0.126,0.049,-0.015,-0.049,-0.105,-0.325,-0.272,-0.004,0.112,0.101,0.07,0.078,0.014,-0.023,0.059,0.021,0.057,-0.009,0.361,-1.164,0.01,0.026,0.067,-0.153,0.049,0.058,0.003,0.01,0.007,-0.093,-0.03,-0.022,0.066,0.056,0.047,0.013,-0.014,0.407,0.027,-0.139,0.071,0.013,0.034,-0.001,0.401,0.031,-0.05,0.015,-0.08,0.042,-0.063,-0.014,0.02,-0.037,0.015,0.091,0.073,0.332,-0.995,-0.13,0.416,-0.377,0.006,0.106,-0.052,0.008,0.014,-0.136,-0.091,-0.057,-0.406,-0.042,0.201,-0.011,0.012,0.078,0.012,-0.008,-0.144,-0.008,-0.014,0.025,0.036,-0.043,0.145,0.04,-0.042,0.001,-0.114,-1.203,0.055,0.033,0.027,-0.02,-0.154,-0.204,-0.018,-0.034,0.031,0.127,-0.038,-0.043,0.009,-0.103,-0.086,-0.027,-0.022,0.063,-0.037,-0.031,0.083,0.046,0.011,-0.016,0.08,-0.104,0.014,-0.147,-0.133,-0.077,0.039,0.063,-0.021,0.04,-0.064,-0.122,-0.016,0.438,-0.121,-0.155,-0.048,-0.005,0.015,0.011,0.033,-0.036,-0.133,-0.013,-0.407,0.032,0.17,-0.028,-0.286,-0.022,-0.028,0.121,0.007,-0.065,0.055,-0.036,0.046,0.031,0.133,0.239,-0.01,-0.007,0.027,-0.123,0.029,-0.119,-0.105,0.044,0.172,-0.014,0.024,0.046},
                                 {0.019,0.008,0.044,0.054,0.671,-0.047,0.71,0.052,0.012,0.056,0.218,-0.017,-0.025,-0.008,0.105,0.011,-0.01,0.023,0.016,0.003,-0.008,-0.033,0.006,-0.016,0.018,-0.171,-0.029,0.028,0.032,0.052,0.019,-0.318,0.011,0.037,-0.019,-0.118,0.134,-0.109,-0.009,0.0,-0.001,0.046,0.012,0.025,0.029,0.041,0.043,-0.049,-0.08,-0.045,0.013,-0.031,0.005,0.068,0.065,-0.095,0.015,-0.088,-0.272,-0.027,0.034,-0.039,0.007,-0.082,-0.052,0.026,0.057,-0.026,0.019,-0.016,0.027,0.073,-0.028,0.029,0.342,0.074,-0.007,-0.016,-0.055,0.08,0.108,0.028,0.008,0.038,-0.012,0.001,0.005,0.317,0.015,0.027,-0.03,-0.014,0.0,-0.02,-0.107,-0.382,-0.238,0.009,0.081,0.034,0.11,0.105,0.024,-0.044,0.018,-0.021,-0.026,-0.014,0.204,-0.985,-0.003,0.057,0.053,-0.097,0.048,0.142,-0.023,-0.006,0.063,-0.111,0.038,0.051,0.062,-0.028,0.087,-0.975,-0.007,0.271,0.017,-0.101,0.034,0.047,0.027,0.029,0.259,0.013,0.017,0.027,0.043,0.031,-0.001,-0.003,0.045,-0.036,-0.015,0.06,0.019,0.216,0.25,-0.027,-1.08,-0.173,0.009,0.06,-0.031,0.11,-0.045,0.005,0.062,-0.041,-0.298,-0.031,0.172,-0.015,0.016,0.05,0.056,0.008,-0.014,0.036,-0.113,0.015,0.032,-0.008,0.446,-0.013,-0.042,0.004,-0.079,0.222,-0.024,-0.006,-0.008,0.021,-0.12,-0.096,-0.057,-0.008,0.008,0.093,-0.002,-0.122,0.018,-0.061,-0.19,0.005,0.02,0.044,-0.023,0.029,0.003,0.036,0.021,0.016,0.048,-0.003,-0.008,0.002,-0.086,0.001,0.041,0.011,0.022,0.068,0.001,-0.107,-0.01,0.317,-0.113,-0.007,0.013,-0.006,0.052,-0.047,0.045,-0.009,-0.042,-0.158,-0.354,0.02,0.149,-0.181,-0.197,-0.016,-0.028,0.082,0.033,-0.042,-0.019,-0.005,-0.004,0.061,0.135,0.146,0.011,-0.04,0.062,0.02,-0.025,0.062,0.006,0.038,0.045,-0.025,0.063,-0.005},
                                 {-0.036,0.033,-0.02,0.044,-0.496,-0.145,0.778,0.068,-0.053,0.062,0.222,0.028,0.012,-0.017,-0.04,0.035,0.016,0.073,0.009,0.003,-0.053,-0.008,0.043,0.033,-0.074,-0.066,-0.018,0.021,0.015,0.052,-0.015,-0.43,0.03,-0.015,-0.054,-0.064,0.051,-0.185,0.028,-0.015,-0.113,0.069,0.055,0.033,0.024,-0.022,0.034,-0.064,-0.09,-0.022,0.07,0.01,0.001,0.039,0.037,-0.116,-0.001,-0.073,-0.383,0.088,0.104,-0.114,0.061,0.029,-0.112,-0.013,0.164,-0.054,0.001,-0.046,-0.032,0.031,-0.146,0.044,0.444,0.085,-0.151,-0.013,0.014,0.071,0.394,0.014,0.066,-0.074,-0.066,0.036,-0.009,0.401,0.04,0.015,-0.044,0.022,0.004,0.148,-0.091,0.768,-0.319,0.006,0.058,0.098,-0.017,0.123,-0.023,-0.047,0.035,-0.143,0.025,0.045,0.344,-0.964,0.077,0.163,0.106,-0.151,0.043,-0.012,-0.082,-0.005,-0.064,-0.182,0.057,-0.038,0.037,0.015,0.07,0.111,-0.071,0.438,0.05,-0.116,0.037,0.022,0.04,0.032,-1.136,-0.033,-0.018,-0.018,0.03,0.046,0.007,-0.005,0.016,0.007,0.115,0.029,0.034,0.335,0.306,-0.051,0.366,-0.395,-0.037,0.082,0.007,-0.017,-0.026,0.025,0.05,-0.102,0.736,-0.086,0.208,-0.002,0.026,0.09,0.011,0.01,0.021,0.033,-0.057,-0.125,0.069,-0.122,0.021,0.023,0.021,-0.008,-0.089,0.353,0.041,-0.003,0.019,0.052,-0.147,-0.153,-0.022,-0.006,0.027,0.344,-0.036,-0.03,0.029,-0.132,-0.197,0.033,-0.024,0.048,-0.034,0.048,-0.08,0.063,-0.077,0.012,0.072,0.014,0.028,-0.027,0.04,0.063,0.02,-0.071,0.011,0.031,-0.033,-0.012,-0.013,-1.356,-0.081,0.01,-0.03,0.033,-0.011,-0.005,0.056,-0.028,-0.091,-0.045,-0.386,0.012,0.253,-0.032,-0.14,-0.012,0.017,0.081,0.028,-0.127,-0.006,-0.019,-0.014,-0.05,0.127,0.149,0.001,-0.057,0.03,0.009,0.053,-0.908,-0.003,0.016,0.044,-0.149,0.012,-0.001},
                                 {0.031,-0.004,0.031,0.05,-0.105,0.034,-0.078,-0.016,0.372,-0.008,-0.038,0.676,-0.004,0.04,0.151,-0.131,0.032,0.01,0.079,0.027,-0.007,0.051,-0.048,-0.229,-0.038,-0.023,0.034,-0.939,-0.295,0.059,-0.014,-0.054,0.024,0.02,0.332,0.029,-0.072,-0.176,0.032,0.013,-0.053,0.295,-0.115,-0.007,-0.01,-0.038,-0.016,0.061,0.042,0.005,0.111,0.045,0.038,0.017,0.055,0.27,0.115,0.027,-0.095,0.084,0.014,0.077,0.098,0.043,-0.173,0.002,0.08,-0.016,-0.012,-0.055,0.369,0.061,0.019,0.094,-0.121,-0.003,-0.022,0.089,-0.012,0.094,0.054,0.092,-0.003,-0.03,0.008,0.67,0.002,-0.039,0.043,-0.009,-0.069,-0.007,0.032,0.03,-0.054,-0.174,0.083,0.04,0.133,-0.135,-0.078,0.148,0.064,-0.032,-0.022,-0.022,-0.041,-0.005,-0.024,0.055,0.026,0.028,0.062,-0.108,-0.025,0.063,-0.079,0.493,0.082,-0.034,0.005,-0.003,0.02,0.095,0.048,-0.167,0.031,0.048,0.042,-0.142,0.001,0.036,-0.061,0.006,0.001,-0.019,0.024,0.003,-0.015,0.025,0.017,-0.056,0.03,-0.014,-0.029,0.003,-0.007,-0.019,0.043,-0.047,-0.046,-0.123,0.051,-0.296,-0.294,0.01,-0.017,-0.011,0.027,0.04,-0.15,-0.04,0.214,-0.013,-0.001,-0.189,-0.006,0.045,-0.005,0.037,0.026,0.032,-0.306,-0.051,-0.011,-0.027,-0.097,0.024,-0.068,0.046,0.083,-0.033,0.042,0.057,-0.065,-0.022,0.043,-0.018,0.009,-0.031,-0.038,0.029,0.018,-0.097,-0.1,0.019,0.043,0.032,-0.813,0.013,0.003,0.006,0.042,0.141,0.073,-0.02,-0.003,0.019,-0.024,0.086,0.032,-0.016,0.067,0.05,-0.017,-0.063,0.363,-0.008,-0.053,-0.044,-0.006,0.073,0.025,0.037,-0.039,-0.018,-0.062,0.086,-0.089,-0.004,-0.039,0.111,0.141,-0.035,-0.034,0.01,0.693,-0.04,0.019,-0.027,0.134,0.114,0.164,0.017,0.069,-0.028,-0.01,-0.048,0.051,0.095,-0.031,0.082,0.069,0.081,0.016,0.06},
                                 {0.031,-0.033,-0.044,0.07,0.042,-0.011,0.002,-0.052,0.206,-0.089,-0.05,-0.433,-0.029,0.015,-0.103,-0.081,0.017,-0.042,-0.079,0.001,-0.015,-0.029,-0.103,-0.389,-0.051,-0.001,0.018,-0.711,0.739,-0.211,0.05,-0.036,-0.002,0.027,0.02,0.011,-0.339,-0.11,-0.224,-0.028,-0.042,-0.061,0.051,-0.035,0.009,-0.043,-0.076,0.07,-0.021,0.048,0.009,-0.03,-0.024,0.033,-0.092,0.285,-0.018,0.087,-0.012,0.055,-0.047,0.089,0.034,-0.117,-0.032,-0.031,-0.023,-0.002,-0.026,-0.085,-0.041,0.026,-0.012,0.026,-0.051,-0.063,-0.079,-0.196,-0.066,0.114,-0.256,0.01,-0.004,-0.102,-0.033,0.821,-0.001,-0.124,0.032,0.074,-0.122,-0.058,0.031,-0.154,-0.038,-0.031,0.04,0.015,0.05,-0.127,0.005,0.076,0.009,-0.004,-0.039,0.024,-0.05,-0.057,-0.044,-0.008,-0.076,0.025,0.016,-0.078,-0.112,0.007,0.041,-0.025,-0.018,0.017,-0.01,0.031,-0.005,0.018,-0.031,0.072,0.065,0.03,-0.004,-0.087,0.005,0.059,-0.052,-0.131,0.025,-0.077,0.015,-0.027,0.209,0.013,-0.018,-0.038,0.028,-0.032,0.045,0.005,-0.089,-0.003,0.06,-0.08,-0.04,0.043,-0.019,-0.643,-0.474,-0.069,-0.096,-0.027,-0.031,0.045,-0.004,-0.017,0.182,0.052,-0.026,-0.079,-0.048,0.037,-0.007,0.038,0.087,0.023,-0.504,-0.079,-0.125,-0.042,-0.031,0.054,-0.061,0.034,0.115,-0.019,-0.015,0.042,-0.019,0.02,-0.02,-0.021,-0.123,-0.014,0.085,0.011,-0.01,-0.012,-0.209,0.005,0.033,0.006,0.018,0.001,-0.036,-0.024,-0.063,0.134,0.058,0.012,-0.056,0.007,0.054,0.05,0.058,0.107,0.014,0.046,0.055,-0.066,-0.823,0.004,-0.053,-0.04,-0.015,0.107,0.078,-0.092,-0.032,-0.021,-0.055,0.066,-0.008,-0.015,-0.115,-0.024,0.016,-0.049,-0.006,-0.132,0.105,-0.03,-0.009,-0.018,-0.086,0.061,0.125,-0.031,-0.03,-0.065,0.001,-0.044,0.006,0.022,-0.04,0.135,-0.002,-0.061,-0.06,-0.023},
                                 {0.108,0.02,0.03,0.084,0.033,0.013,0.018,-0.034,0.363,0.015,-0.039,-0.229,-0.036,0.034,-0.01,-0.07,-0.015,-0.011,0.036,0.016,-0.024,0.068,-0.068,-0.244,0.007,-0.001,0.012,-1.095,-0.271,-0.038,0.031,0.024,0.056,0.037,0.354,0.061,-0.066,-0.202,-0.009,0.018,-0.04,0.278,-0.017,-0.052,0.027,-0.077,0.079,0.101,0.064,-0.005,-0.061,0.025,0.049,0.037,-0.013,0.255,0.028,0.122,0.003,0.05,-0.012,0.086,0.172,-0.018,-0.104,-0.105,0.087,-0.052,0.053,-0.08,-0.875,0.089,0.055,0.021,-0.039,0.114,-0.037,0.105,0.016,0.132,-0.027,-0.003,-0.029,-0.059,0.046,0.66,-0.146,-0.099,0.037,-0.018,-0.037,0.007,0.0,0.002,-0.029,-0.01,0.145,0.037,0.095,-0.107,-0.021,0.078,0.026,-0.074,-0.019,-0.032,0.008,-0.033,0.021,0.046,0.007,-0.005,0.067,-0.058,-0.034,0.036,-0.042,0.42,-0.032,-0.05,-0.02,-0.012,0.104,0.083,0.016,0.115,0.046,0.024,0.033,-0.144,0.044,0.003,-0.071,-0.026,0.028,-0.033,-0.011,-0.029,0.061,-0.108,-0.097,-0.016,-0.037,0.008,0.055,0.01,-0.041,0.016,0.059,-0.06,0.025,0.047,0.068,-0.324,0.597,0.005,-0.006,-0.032,0.049,0.002,0.004,-0.04,0.215,-0.034,-0.148,-0.134,0.06,-0.123,-0.103,0.055,0.032,0.063,-0.279,-0.055,0.025,-0.165,-0.072,0.066,-0.094,0.081,0.134,-0.028,0.049,0.082,-0.026,0.13,0.036,0.006,0.045,-0.055,-0.009,0.036,0.031,-0.105,-0.025,-0.0,-0.046,0.079,0.34,-0.055,-0.02,0.048,-0.026,0.157,0.049,-0.004,-0.006,0.031,0.025,0.077,0.094,-0.034,0.027,0.0,0.04,-0.041,0.34,0.034,-0.06,0.027,-0.015,0.045,0.076,0.006,-0.059,0.012,-0.113,0.034,0.021,-0.0,-0.066,0.104,0.077,-0.039,0.031,0.03,0.08,0.026,0.082,-0.046,0.034,0.07,0.209,0.011,-0.112,-0.032,-0.006,-0.041,0.058,0.022,-0.034,0.104,0.088,0.036,0.063,0.015},
                                 {0.038,0.053,0.006,0.098,-0.0,0.06,0.026,-0.053,0.33,0.004,-0.028,0.711,-0.047,0.044,0.063,-0.02,0.054,-0.118,-0.011,-0.005,-0.023,0.006,-0.048,-0.215,0.019,-0.002,0.027,0.169,-0.258,0.104,0.027,0.023,0.042,0.047,0.186,0.026,-0.013,-0.141,0.098,-0.029,-0.016,-0.946,-0.045,-0.039,0.003,-0.06,0.025,0.051,0.051,0.053,0.078,-0.064,-0.015,0.029,0.011,0.111,0.059,0.161,0.026,-0.013,0.034,-0.006,0.036,-0.093,-0.04,-0.001,0.102,-0.013,-0.039,-0.072,0.217,0.03,0.035,0.043,-0.048,-0.004,-0.068,0.061,-0.038,0.015,-0.021,0.086,-0.042,0.002,0.045,-0.308,0.005,-0.017,0.016,-0.01,-0.057,-0.082,0.017,0.011,-0.016,0.002,0.111,0.054,0.061,-0.115,0.104,0.116,0.035,-0.051,-0.137,0.033,-0.118,-0.037,0.032,0.02,-0.007,0.002,0.134,-0.091,-0.073,0.004,-0.014,0.363,0.005,-0.042,0.015,0.058,0.01,0.026,0.009,-0.031,0.106,0.036,0.032,-0.149,0.001,0.006,-0.037,-0.014,0.043,0.032,0.054,-0.022,0.087,0.004,0.037,-0.139,0.054,-0.063,0.087,0.015,-0.028,-0.008,0.027,-0.062,0.032,0.004,-0.007,-0.168,-0.179,0.015,0.15,-0.02,-0.002,0.087,-0.024,-0.014,0.06,-0.009,-0.036,-0.141,0.041,0.037,0.015,0.013,0.053,0.012,0.617,-0.065,-0.0,-0.003,-0.034,0.061,-0.043,0.065,0.154,-0.028,0.031,0.079,-0.022,0.003,0.014,0.032,0.042,-0.073,0.029,0.008,-0.005,-0.057,-0.08,0.008,0.046,0.052,-0.81,0.017,0.033,0.136,-0.034,0.11,0.036,-0.079,-0.09,-0.017,0.049,0.05,0.071,0.008,0.072,-0.062,0.063,-0.052,0.209,0.082,0.026,-0.045,0.068,0.056,0.015,0.014,-0.169,-0.02,-0.109,0.073,0.007,0.005,-0.042,0.058,0.072,-0.066,0.03,0.014,0.046,-0.023,-0.016,-0.028,-0.026,-0.068,0.106,-0.038,0.002,-0.052,0.03,-0.055,-0.005,0.049,-0.053,0.053,0.087,-0.046,0.011,-0.025},
                                 {0.076,0.027,-0.005,0.069,0.083,0.018,0.044,-0.058,0.484,-0.118,-0.177,-0.388,0.027,0.032,0.086,-0.051,0.065,-0.034,0.016,0.016,0.007,0.06,-0.139,-0.41,0.033,-0.008,0.051,0.407,0.744,-0.065,0.025,0.083,0.045,0.007,0.441,0.015,-0.05,-0.295,-0.018,0.062,-0.004,-0.956,-0.016,-0.249,-0.011,-0.131,0.047,-0.085,-0.033,0.005,0.086,0.057,0.015,0.045,0.011,0.412,0.057,0.155,0.03,0.072,-0.021,-0.024,0.085,-0.045,-0.244,0.049,0.117,-0.029,-0.048,-0.101,0.42,0.092,0.1,-0.005,-0.112,0.124,-0.019,0.034,-0.13,0.03,-0.003,0.213,-0.046,0.036,-0.009,-0.445,0.017,-0.063,0.016,0.081,-0.176,0.033,0.027,0.113,-0.146,0.006,0.061,0.033,0.079,-0.304,0.04,0.006,0.043,-0.038,-0.038,-0.005,0.029,-0.034,-0.012,-0.011,-0.078,-0.061,0.102,-0.134,-0.03,0.016,-0.061,0.623,-0.144,0.017,-0.033,0.064,0.132,0.064,0.122,0.055,-0.012,0.041,-0.008,-0.136,0.025,0.069,-0.026,0.027,0.007,-0.057,-0.03,-0.05,-0.086,0.08,0.012,-0.056,0.016,-0.08,0.065,0.043,-0.054,0.086,0.03,-0.041,-0.032,0.038,0.068,-0.483,-0.456,-0.097,-0.059,-0.043,0.029,0.021,0.05,-0.068,0.287,-0.002,0.004,-0.313,0.003,0.052,-0.041,0.032,0.041,0.084,0.732,-0.057,0.069,0.038,-0.03,0.025,-0.142,0.045,0.078,-0.015,-0.114,0.084,-0.12,0.082,-0.086,-0.045,-0.006,-0.167,0.051,0.026,-0.069,-0.102,-0.135,-0.053,0.014,0.017,0.461,-0.042,0.061,0.016,0.009,0.198,0.066,-0.007,0.032,0.037,-0.03,0.082,-0.019,0.001,0.008,-0.028,0.023,-0.104,-0.918,-0.001,-0.088,0.006,0.069,0.091,0.057,0.007,-0.078,-0.132,-0.154,0.044,0.016,-0.024,-0.103,0.14,0.176,-0.041,0.021,0.076,0.004,-0.002,-0.031,-0.043,-0.022,0.013,0.145,-0.053,0.112,-0.02,0.023,-0.024,0.032,0.063,-0.021,0.188,0.149,0.003,-0.026,0.044},
                                 {0.023,-0.034,0.033,0.104,-0.005,-0.009,0.029,-0.065,0.331,0.011,-0.052,-0.132,-0.026,0.008,-0.001,-0.022,0.007,-0.052,0.05,0.049,0.009,0.016,-0.034,-0.194,0.037,-0.013,0.014,0.22,-0.229,0.128,-0.005,0.016,0.011,0.032,0.224,-0.019,-0.083,-0.086,0.006,-0.071,-0.026,-0.976,0.0,-0.048,0.066,-0.063,0.077,0.032,0.019,0.037,0.106,0.024,0.059,0.017,0.048,0.161,0.068,-0.046,0.028,-0.007,-0.07,-0.002,0.073,-0.074,-0.079,-0.016,0.117,0.002,-0.004,-0.161,-0.96,0.022,-0.001,0.031,-0.051,0.019,-0.059,0.088,0.007,-0.001,-0.016,0.087,-0.034,0.01,0.056,-0.237,0.018,-0.024,0.039,0.049,-0.01,-0.031,0.025,0.021,0.006,0.024,0.115,0.081,0.069,-0.039,0.09,0.054,0.031,-0.049,-0.058,0.002,-0.041,0.028,0.048,0.043,-0.024,-0.033,0.055,-0.093,-0.036,0.067,-0.013,0.315,-0.008,-0.028,-0.002,0.081,-0.062,0.021,-0.133,0.091,0.104,0.034,0.014,-0.058,0.035,0.032,-0.064,0.017,0.034,-0.011,0.069,-0.02,0.172,0.015,0.046,-0.045,-0.004,-0.051,0.063,0.003,-0.031,-0.016,0.066,-0.032,0.025,0.023,0.03,-0.191,0.627,-0.059,-0.062,-0.027,-0.018,0.062,-0.001,-0.048,0.082,-0.039,-0.001,-0.081,0.02,0.028,0.007,0.027,0.005,0.018,0.632,-0.015,0.069,-0.021,-0.068,0.049,-0.03,0.07,0.084,-0.121,0.017,0.036,0.008,0.052,0.019,0.013,-0.028,-0.048,0.024,0.009,0.021,-0.013,-0.123,0.037,0.052,0.037,0.263,0.033,-0.001,-0.021,-0.059,0.147,0.068,0.02,0.041,0.001,0.048,0.11,0.056,0.004,0.036,0.038,0.074,-0.096,0.233,0.064,-0.068,-0.023,0.054,0.056,0.034,0.059,-0.048,-0.045,-0.076,0.047,0.039,-0.005,-0.015,0.069,0.071,-0.117,-0.052,-0.01,0.038,-0.014,0.002,-0.052,-0.001,0.079,0.15,0.051,-0.003,-0.153,0.029,-0.027,-0.041,-0.004,-0.048,0.108,0.059,0.039,0.035,-0.08},
                                 {0.053,-0.029,-0.017,0.052,0.04,0.034,-0.009,-0.209,0.369,-0.066,-0.058,0.645,-0.087,0.023,0.093,-0.078,0.056,-0.003,0.021,-0.02,0.061,0.045,-0.07,0.575,-0.084,0.013,0.034,0.323,-0.397,-0.054,0.001,-0.014,0.036,0.057,-1.035,0.004,-0.065,-0.136,-0.011,0.024,-0.04,0.362,-0.059,-0.035,0.062,-0.11,0.018,0.03,-0.006,0.016,0.032,0.062,0.025,0.039,-0.001,0.202,0.009,0.097,0.043,-0.116,0.029,0.002,0.046,-0.075,-0.078,-0.019,0.033,-0.03,-0.016,-0.034,0.386,0.051,0.005,0.014,-0.058,0.148,-0.073,0.014,0.0,0.108,-0.071,0.151,-0.027,-0.108,0.03,-0.25,-0.04,-0.055,-0.02,-0.004,-0.099,0.028,0.029,-0.036,-0.075,-0.014,0.13,0.041,0.11,-0.178,0.091,0.045,0.035,-0.019,-0.033,-0.008,0.004,-0.048,0.014,0.021,0.01,0.013,0.053,-0.037,-0.068,0.048,-0.02,0.445,-0.081,-0.015,-0.014,-0.028,0.028,-0.094,-0.121,0.114,0.063,0.023,0.044,-0.149,0.027,0.057,-0.035,-0.005,0.027,-0.017,-0.022,-0.077,-0.019,0.03,-0.023,-0.041,0.018,-0.016,0.041,0.033,-0.0,-0.031,0.022,-0.195,0.042,-0.005,0.03,-0.345,-0.382,-0.09,-0.06,-0.156,0.023,0.08,0.005,-0.054,0.112,0.012,-0.013,-0.169,0.009,0.008,-0.07,0.017,0.067,0.015,-0.406,-0.095,0.002,-0.029,-0.149,0.019,-0.084,0.064,0.113,-0.011,0.027,0.034,-0.021,-0.012,0.043,-0.013,0.011,-0.068,-0.035,0.026,0.017,-0.107,-0.067,-0.014,0.044,0.027,-0.998,-0.033,0.087,-0.037,-0.058,0.04,0.108,-0.054,-0.005,-0.167,0.041,0.013,0.047,0.1,0.031,0.008,0.017,-0.058,0.284,0.045,-0.047,-0.198,-0.007,0.022,0.038,-0.001,-0.025,-0.017,-0.138,0.067,-0.019,0.002,-0.106,0.102,0.042,-0.018,0.016,-0.011,-0.005,-0.045,0.052,-0.026,-0.169,-0.014,0.13,0.001,0.022,-0.029,0.023,-0.139,0.068,0.017,-0.147,0.106,0.143,-0.024,-0.048,0.045},
                                 {0.064,0.001,0.013,0.088,0.06,0.033,0.056,-0.045,0.39,0.032,-0.038,-0.219,-0.047,0.032,0.096,-0.04,0.036,-0.05,-0.01,0.023,0.004,0.032,-0.03,0.651,-0.002,-0.133,0.01,0.211,0.656,0.109,0.006,0.03,0.037,0.061,-0.872,-0.082,-0.055,-0.086,-0.007,-0.011,-0.036,0.134,-0.084,-0.049,0.021,-0.037,0.02,0.059,0.006,-0.013,0.037,-0.018,0.047,0.088,0.034,0.214,0.008,0.127,0.003,0.015,0.002,-0.073,0.034,-0.082,-0.082,0.041,0.109,-0.046,-0.007,-0.053,0.207,0.036,0.033,0.05,-0.035,-0.044,-0.057,0.013,-0.049,0.111,0.019,0.074,-0.076,-0.038,0.031,-0.278,-0.003,-0.02,0.006,-0.0,-0.108,-0.031,0.016,-0.035,-0.074,-0.015,0.124,0.019,0.059,-0.145,0.121,0.074,0.044,-0.041,-0.062,-0.025,-0.068,-0.001,0.011,0.027,-0.024,0.026,0.039,-0.106,-0.028,0.137,0.005,0.391,-0.053,-0.023,0.007,0.067,-0.006,0.028,-0.066,0.096,0.106,0.029,0.066,-0.064,-0.011,0.051,-0.063,0.016,0.016,-0.043,0.066,0.007,0.187,0.033,0.018,-0.054,0.022,-0.032,0.013,0.04,-0.096,-0.012,0.047,-0.083,-0.03,0.025,0.034,-0.135,-0.228,0.013,-0.012,-0.048,0.03,0.055,0.031,-0.05,0.147,-0.011,0.004,-0.118,0.034,0.031,0.021,0.025,-0.023,0.005,-0.212,-0.067,-0.023,-0.029,-0.117,0.044,-0.084,0.05,0.062,-0.032,0.012,0.057,-0.047,0.07,-0.008,0.024,0.037,-0.023,0.034,-0.103,0.024,-0.055,-0.122,0.021,0.052,0.044,0.205,0.005,0.032,0.044,-0.031,0.043,0.055,-0.014,-0.004,0.025,0.044,0.045,0.05,-0.008,0.052,0.025,0.086,-0.067,-1.192,0.049,-0.113,-0.065,0.044,0.058,0.07,-0.005,-0.056,-0.001,-0.036,-0.101,-0.008,0.006,-0.05,-0.068,0.065,-0.032,-0.008,0.003,0.033,-0.035,-0.003,-0.02,-0.033,0.012,0.189,0.001,0.036,-0.045,0.014,-0.014,-0.028,0.047,-0.062,0.081,0.028,0.029,0.045,0.005},
                                 {0.03,-0.024,0.017,0.072,-0.001,-0.013,0.01,-0.063,0.392,0.001,-0.052,-0.371,-0.022,0.033,-0.035,-0.015,0.061,0.002,0.009,0.049,-0.011,0.056,-0.022,0.558,-0.018,-0.012,-0.017,0.308,-0.405,-0.013,0.012,0.016,0.065,-0.022,-1.0,-0.004,-0.066,-0.141,-0.045,0.016,-0.153,0.356,0.016,-0.039,0.046,-0.079,0.051,0.046,-0.003,0.016,0.06,0.053,0.019,0.043,0.038,0.217,0.04,0.149,0.008,0.101,-0.001,-0.022,0.086,-0.047,-0.142,0.022,0.11,-0.049,-0.03,-0.088,-1.093,0.052,-0.116,0.058,-0.056,0.037,-0.206,0.056,-0.006,0.133,-0.013,0.081,-0.018,-0.04,-0.041,-0.266,-0.007,-0.083,0.036,0.016,-0.072,0.002,0.047,0.081,-0.039,-0.03,0.021,0.05,0.066,-0.11,-0.02,0.061,-0.011,-0.028,-0.032,-0.092,-0.004,-0.046,0.026,0.025,0.055,0.043,0.023,-0.115,-0.142,0.039,-0.119,0.495,-0.135,-0.047,0.017,-0.015,0.043,0.095,0.046,0.065,0.022,0.034,0.051,-0.132,0.011,0.054,-0.052,-0.043,0.006,-0.055,0.019,-0.017,0.052,0.064,0.044,-0.048,0.005,0.009,0.041,0.015,-0.032,0.031,0.037,-0.099,-0.018,0.002,-0.006,-0.312,0.547,-0.009,-0.049,-0.03,0.06,0.026,0.037,-0.036,0.164,-0.023,-0.014,-0.185,-0.04,0.03,0.008,0.044,0.044,-0.157,-0.435,-0.177,0.039,-0.018,-0.103,0.03,-0.09,0.047,0.087,-0.012,0.025,-0.006,-0.083,0.117,0.011,0.003,-0.011,-0.014,-0.033,0.033,0.029,-0.106,-0.124,0.017,0.031,0.055,0.364,0.041,0.003,0.051,-0.138,0.064,0.07,-0.006,0.047,0.004,0.101,0.069,0.037,0.079,0.042,0.017,0.045,-0.038,0.274,-0.007,-0.012,-0.014,-0.005,0.083,0.037,0.042,-0.062,0.022,-0.118,0.051,-0.013,-0.012,-0.02,0.083,0.092,-0.024,0.015,-0.03,0.037,-0.164,0.012,0.006,-0.019,-0.007,0.109,-0.067,0.064,-0.06,0.053,-0.029,0.029,0.013,-0.068,0.067,0.063,-0.067,0.024,0.008},
                                 {-0.029,0.12,0.017,0.016,-0.092,-0.017,-0.102,0.006,-0.084,0.044,-0.208,0.034,-0.012,0.012,-0.143,-0.074,-0.289,0.003,0.036,-1.019,-0.083,-0.072,0.026,0.021,0.007,-0.01,0.015,0.038,0.018,0.143,-0.02,-0.09,0.077,-0.032,-0.03,0.043,-0.04,-0.238,0.114,-0.001,-0.034,0.05,0.011,0.047,-0.042,0.021,0.013,-0.003,-0.028,-0.05,0.036,0.031,-0.01,-0.025,0.073,-0.192,-0.027,-0.006,-0.154,0.019,0.12,0.061,-0.255,-0.408,0.159,-0.321,-0.208,0.024,0.107,-0.003,0.032,-0.002,-0.028,0.046,-0.111,0.073,0.049,-0.001,0.013,0.12,0.072,-0.338,0.064,0.087,-0.01,0.056,-0.264,0.087,0.39,-0.035,-0.004,0.026,0.031,0.003,-0.23,-0.176,0.109,0.016,0.122,0.123,-0.126,-0.225,0.059,0.451,-0.03,0.016,-0.012,-0.036,-0.049,0.038,0.07,0.043,0.069,0.124,0.01,0.024,-0.123,-0.028,0.109,0.077,-0.004,-0.013,0.049,0.065,-0.057,0.155,-0.024,0.021,0.028,-0.096,0.029,0.028,-0.044,0.013,-0.055,0.53,0.003,0.039,0.108,-0.466,-0.266,-0.031,0.276,-0.012,-0.018,0.004,0.088,0.017,-0.062,0.004,0.014,-0.134,0.273,0.043,0.023,0.219,-0.045,-0.003,0.043,0.048,-0.178,-0.047,0.25,-0.132,0.727,0.104,-0.074,0.788,0.056,0.359,0.002,0.024,-0.005,-0.028,-0.091,0.855,-0.044,-0.003,0.197,0.017,-0.005,-0.015,0.012,0.144,-0.165,0.049,0.01,-0.036,0.014,-0.071,-0.035,-0.011,0.025,-0.154,0.179,-0.906,-1.398,-0.029,0.067,0.361,-0.275,-0.079,0.022,0.102,0.044,0.009,0.028,-0.016,-0.037,0.047,-0.053,0.146,0.422,0.025,0.011,-0.021,0.051,-0.049,-0.09,-0.031,-0.001,-0.002,0.008,0.014,0.01,0.014,-0.129,-0.025,-0.076,0.007,-0.165,-0.007,-0.096,0.011,-0.008,0.098,0.071,-0.034,-0.015,0.015,0.013,0.031,0.167,0.027,-0.349,0.069,0.004,-0.014,0.049,0.032,0.035,-0.04,0.056,0.144,0.048,0.022},
                                 {-0.005,0.057,-0.059,0.012,-0.043,0.022,-0.029,0.01,-0.014,0.0,-0.146,-0.073,-0.042,-0.026,-0.195,-0.006,-0.029,-0.027,0.038,0.37,-0.067,-0.042,-0.003,-0.078,0.045,-0.007,-0.014,0.016,-0.036,0.005,0.009,0.033,0.071,0.013,0.005,-0.014,-0.078,-0.185,0.042,-0.006,-0.064,0.052,0.11,0.039,0.022,-0.024,0.205,0.011,-0.0,-0.041,0.079,-0.05,-0.012,-0.006,0.045,-0.139,0.065,0.006,-0.049,0.036,0.034,0.041,-0.492,-0.025,0.077,-0.201,-0.147,0.012,-0.832,-0.004,-0.027,0.05,-0.013,0.003,-0.066,-0.073,-0.011,0.111,0.004,0.078,0.001,-0.286,0.031,0.042,-0.023,-0.081,-0.297,0.017,0.271,0.034,-0.141,0.0,0.052,-0.06,-0.18,-0.015,0.147,0.004,0.062,0.011,-0.082,-0.228,0.002,0.347,-0.02,-0.008,-0.006,-0.047,-0.014,0.034,0.007,0.042,0.045,0.092,-0.055,0.013,-0.065,-0.065,0.077,0.035,-0.023,0.012,0.053,0.083,0.029,0.001,0.02,0.005,0.027,0.021,0.01,0.014,-0.034,0.024,0.03,0.341,-0.012,0.05,0.176,-0.305,-0.153,-0.027,0.229,-0.037,0.13,0.01,0.028,-0.057,-0.0,-0.016,0.042,0.051,0.168,0.039,-0.109,0.091,0.082,-0.011,-0.013,0.037,-0.032,-0.043,0.163,-0.091,-0.256,0.089,-0.042,0.806,0.081,0.248,0.053,0.004,-0.102,-0.048,0.015,-0.246,-0.047,0.006,0.12,0.046,-0.008,0.013,-0.033,0.154,-0.111,0.101,-0.012,0.018,0.02,-0.065,0.051,-0.06,0.041,-0.043,0.158,0.256,-1.309,-0.033,0.045,-1.035,-0.196,-0.075,-0.065,0.142,0.043,-0.053,-0.012,0.026,0.077,0.009,-0.016,0.156,0.351,-0.014,0.052,0.02,0.068,-0.003,-0.099,-0.003,-0.001,0.021,0.037,0.018,-0.005,0.028,-0.151,-0.08,0.004,0.063,-0.127,-0.016,-0.037,-0.002,0.017,0.101,0.086,-0.024,-0.008,-0.018,-0.049,0.036,0.081,-0.056,0.88,0.036,0.02,-0.016,0.01,-0.006,0.055,-0.028,0.068,0.061,0.015,0.004},
                                 {0.028,0.078,0.008,0.04,-0.023,-0.03,-0.003,0.033,-0.075,0.154,-0.141,0.039,0.001,-0.012,-0.061,0.023,-0.478,-0.027,-0.058,0.241,-0.056,-0.06,-0.006,0.019,-0.029,-0.024,0.03,-0.022,0.035,0.116,0.002,0.056,0.03,0.01,0.008,0.061,0.002,-0.055,-0.007,-0.008,-0.072,0.064,0.095,0.033,0.039,0.019,-0.19,0.027,0.032,-0.062,-0.034,-0.019,0.029,-0.001,0.043,-0.154,0.001,-0.003,-0.037,0.081,0.03,0.032,0.681,0.066,0.311,-0.465,-0.196,-0.009,0.081,0.01,0.014,0.025,-0.031,0.02,-0.055,0.038,0.023,0.065,0.046,0.161,0.114,-0.614,0.053,0.036,-0.019,0.042,-0.5,0.014,0.227,-0.061,-0.065,0.03,0.057,0.086,-0.143,0.009,0.172,-0.002,0.14,0.157,-0.073,-0.178,0.075,0.322,-0.019,0.042,0.029,-0.049,-0.002,0.037,0.044,0.014,0.079,0.386,-0.094,0.045,-0.067,-0.006,-0.028,0.079,0.007,-0.039,0.064,0.006,0.091,-0.018,-0.018,0.02,0.016,0.007,0.081,0.035,-0.029,-0.019,-0.03,0.582,-0.038,0.043,0.001,1.128,1.218,0.024,-0.661,-0.017,-0.06,-0.012,-0.008,0.096,-0.031,0.024,0.031,0.061,-0.354,0.097,0.028,0.333,-0.076,-0.008,0.023,0.026,-0.008,-0.067,0.292,-0.152,-0.509,0.139,0.003,1.162,0.131,0.238,0.003,0.003,0.037,-0.041,0.012,-0.494,-0.022,0.024,0.225,0.049,0.021,0.023,-0.015,0.176,-0.115,0.166,0.021,-0.039,0.077,-0.061,-0.01,-0.034,0.015,-0.076,0.116,0.254,-0.655,0.034,0.045,0.224,0.02,0.02,-0.063,0.231,0.029,-0.056,-0.017,0.012,0.024,0.052,0.002,0.121,-0.655,-0.008,0.031,0.024,0.039,0.011,0.018,0.071,-0.008,0.013,0.033,-0.045,0.015,0.029,-0.056,-0.059,0.041,0.038,-0.196,0.001,0.026,0.038,0.011,0.198,0.014,0.043,0.043,-0.077,-0.048,0.008,0.325,-0.031,-0.452,0.083,-0.004,0.036,0.05,0.026,0.048,-0.046,0.144,0.207,0.069,-0.015},
                                 {0.005,0.081,-0.018,0.043,-0.014,0.085,0.004,-0.011,-0.095,0.0,-0.194,0.028,-0.045,0.036,-0.109,0.016,-0.397,-0.138,-0.06,-0.998,-0.11,-0.017,0.027,-0.008,0.068,-0.018,0.002,-0.007,0.009,0.045,0.021,0.034,0.162,0.022,0.008,0.022,-0.096,-0.16,0.07,-0.023,-0.04,0.023,0.076,0.039,-0.01,0.005,-0.019,-0.007,0.055,0.006,0.017,-0.161,-0.002,-0.012,-0.03,-0.224,0.106,0.093,0.006,-0.058,0.046,0.001,-0.186,0.0,0.102,-0.297,-0.223,0.021,-0.026,0.018,0.023,0.009,-0.014,0.038,-0.023,0.054,-0.018,0.108,-0.007,0.023,0.023,-0.225,0.018,0.078,0.026,0.007,0.813,0.011,0.213,-0.029,0.043,-0.06,0.02,-0.041,-0.216,0.002,0.126,0.009,0.058,0.063,0.059,-0.183,0.06,0.316,-0.132,-0.044,-0.113,-0.039,-0.02,0.024,0.026,0.035,-0.002,0.093,0.027,0.029,-0.053,-0.008,0.014,0.039,-0.013,0.003,0.031,0.025,0.042,-0.036,0.042,0.006,0.027,-0.059,0.075,0.02,-0.017,-0.019,0.009,0.417,0.011,0.053,0.035,-0.33,-0.161,-0.106,0.221,-0.041,0.031,0.014,0.046,-0.056,-0.061,0.016,0.066,0.014,0.051,0.044,0.015,0.156,0.15,-0.005,0.027,0.107,-0.02,-0.051,0.126,-0.105,-0.298,0.064,0.017,-0.256,0.063,-1.041,0.021,-0.037,-0.01,-0.018,0.034,0.84,-0.003,0.054,0.162,0.037,-0.017,0.002,0.005,0.199,-0.131,0.057,-0.005,0.006,0.137,-0.102,0.028,-0.024,0.006,-0.067,0.162,0.258,0.198,0.012,0.009,0.207,-0.008,-0.027,-0.053,0.12,0.006,-0.179,-0.074,-0.012,0.03,-0.017,0.036,0.041,0.272,-0.065,0.022,-0.014,0.042,0.026,0.06,-0.018,0.029,0.022,-0.035,-0.013,-0.146,0.001,-0.112,-0.036,0.01,0.048,-0.136,-0.037,-0.033,0.015,0.043,0.033,-0.013,-0.029,-0.038,-0.004,0.038,-0.073,0.109,-0.039,-0.297,0.026,0.046,-0.01,-0.002,0.051,0.006,-0.101,0.009,0.079,0.068,-0.037},
                                 {-0.011,0.061,-0.008,0.002,-0.006,0.005,0.03,-0.023,-0.034,0.168,-0.306,0.031,0.049,0.007,-0.211,-0.026,-0.259,-0.051,0.064,0.415,-0.027,-0.135,0.043,0.022,0.115,-0.009,0.005,0.015,0.075,0.062,-0.011,0.056,0.036,-0.058,0.026,0.009,-0.167,-0.325,0.007,0.012,-0.019,-0.019,0.01,0.004,-0.001,-0.031,0.028,-0.178,0.032,-0.049,0.089,-0.001,-0.018,-0.009,0.119,-0.303,-0.067,0.1,-0.0,-0.02,0.12,-0.117,-0.34,0.031,0.14,-0.909,-0.335,-0.018,0.107,0.012,0.003,0.005,0.007,-0.015,-0.06,0.124,0.1,0.112,-0.108,0.007,-0.029,-0.322,0.111,0.152,-0.014,0.021,0.892,-0.067,0.406,-0.007,-0.082,-0.007,0.052,0.006,-0.312,0.024,0.109,-0.069,-0.006,0.025,-0.022,-0.349,0.055,0.433,0.001,0.035,0.025,0.024,-0.003,0.016,-0.111,0.007,0.01,0.379,-0.012,0.094,-0.069,0.05,0.033,0.093,-0.058,0.013,-0.284,0.063,-0.033,0.03,-0.007,-0.029,0.052,-0.067,0.087,0.023,-0.009,0.002,-0.021,0.551,-0.015,0.017,-0.026,0.899,-0.784,-0.015,0.35,-0.082,-0.013,0.044,-0.063,-0.002,-0.066,0.015,0.003,0.026,0.31,0.031,0.022,0.276,-0.003,-0.001,0.011,0.065,0.054,-0.007,0.198,-0.127,0.81,-0.026,-0.028,-0.597,-0.096,-0.983,-0.01,0.012,0.029,-0.02,0.08,-0.737,0.075,0.02,0.171,0.061,-0.017,0.027,-0.14,0.118,-0.282,0.062,-0.138,-0.002,0.07,-0.218,0.047,0.004,-0.122,-0.072,0.086,-0.806,0.393,-0.045,0.053,-1.081,0.27,-0.118,0.048,0.092,0.076,0.048,0.005,-0.015,0.05,-0.045,-0.055,-0.093,-1.113,0.024,0.01,-0.039,-0.017,-0.043,-0.078,-0.001,0.041,0.024,0.027,-0.006,0.001,-0.102,-0.174,-0.055,0.04,-0.022,-0.159,-0.01,-0.038,0.078,0.059,0.218,0.029,-0.01,-0.093,0.003,0.024,-0.002,0.167,-0.029,0.879,0.066,-0.037,0.041,-0.003,-0.036,0.074,0.012,0.149,0.219,-0.089,-0.014},
                                 {-0.016,0.066,0.019,0.04,-0.009,-0.007,-0.006,-0.022,-0.037,-0.004,-0.169,0.044,-0.044,-0.007,-0.135,0.03,-0.226,-0.059,0.039,0.266,-0.094,-0.042,0.019,-0.003,0.032,-0.004,-0.024,0.011,0.019,0.12,-0.024,0.002,0.014,-0.01,-0.015,0.005,-0.133,-0.137,0.018,-0.083,-0.037,-0.004,0.116,-0.001,0.048,-0.006,-0.022,-0.039,0.003,0.0,0.012,0.012,0.055,-0.003,0.068,-0.136,0.033,-0.1,-0.026,-0.013,0.018,0.0,-0.35,-0.149,0.101,-0.241,-0.203,0.003,0.012,-0.126,0.006,0.015,-0.024,0.009,-0.012,-0.025,-0.007,0.077,0.061,0.03,-0.048,-0.287,0.03,0.042,0.037,0.036,0.837,-0.002,0.286,0.039,0.038,-0.041,0.017,-0.005,-0.141,0.017,0.167,0.076,0.046,0.058,0.057,-0.194,0.03,0.269,-0.073,-0.002,-0.014,-0.06,0.019,0.02,0.016,0.007,0.003,0.136,0.001,0.069,-0.051,-0.02,0.131,0.043,-0.052,0.073,0.011,0.1,-0.009,-0.021,0.051,-0.008,-0.0,0.053,0.101,0.02,-0.055,0.037,0.016,0.388,0.001,0.026,0.058,-0.315,0.8,-0.081,-1.355,-0.079,0.012,-0.013,0.044,-0.068,-0.018,0.014,0.058,0.015,-0.506,0.088,0.033,0.117,-0.084,-0.033,-0.035,0.054,-0.002,-0.061,0.103,-0.143,-0.262,0.097,-0.02,-0.169,0.08,-0.912,-0.035,0.012,-0.003,0.013,0.029,-0.214,-0.007,0.02,0.191,0.021,-0.008,-0.098,-0.037,0.143,-0.085,0.12,0.009,-0.021,0.041,-0.057,0.01,-0.036,0.021,-0.061,0.104,0.262,0.274,0.025,0.008,0.244,-0.307,-0.041,-0.039,0.124,0.095,0.01,0.043,-0.036,0.045,0.079,-0.014,0.007,0.338,-0.039,0.01,-0.043,0.031,0.024,-0.046,-0.006,0.01,0.005,0.023,0.02,0.009,-0.013,-0.07,-0.076,0.023,0.061,-0.14,-0.006,-0.078,-0.098,-0.082,0.094,0.001,0.027,-0.009,-0.028,-0.061,0.036,0.168,0.047,-0.249,-0.105,0.01,-0.011,-0.04,0.017,0.029,-0.046,0.018,0.052,0.026,-0.12},
                                 {0.016,0.041,-0.043,-0.013,-0.044,-0.023,0.003,-0.13,-0.071,0.18,-0.221,0.074,-0.064,-0.045,-0.134,-0.034,-0.299,0.003,0.039,-1.054,-0.02,-0.061,0.032,-0.003,0.033,-0.003,0.005,-0.011,0.039,0.055,-0.075,0.024,-0.006,0.008,-0.035,0.022,-0.131,-0.223,0.014,0.017,-0.026,0.034,-0.025,0.058,0.071,0.01,0.088,-0.038,0.034,-0.057,-0.02,0.017,0.019,0.015,0.093,-0.197,0.029,0.009,0.016,-0.148,0.095,-0.082,-0.591,0.002,0.18,0.885,-0.304,0.034,0.009,0.034,-0.0,0.001,-0.034,-0.032,-0.015,-0.462,0.02,0.074,0.032,0.102,-0.035,-0.24,0.085,0.047,-0.033,0.035,-0.454,0.004,-1.178,-0.011,-0.005,0.022,0.019,-0.063,-0.268,0.028,0.163,-0.002,0.077,0.107,-0.0,-0.23,0.027,0.484,-0.006,0.034,0.043,-0.032,-0.005,0.032,0.031,0.027,0.019,0.367,-0.046,0.04,-0.023,0.003,-0.015,0.042,-0.086,-0.012,-0.017,0.076,0.016,0.056,0.038,-0.029,0.05,-0.123,0.096,0.031,-0.019,0.022,-0.0,0.417,-0.04,0.014,0.039,0.823,-0.422,-0.022,0.252,-0.037,0.074,0.052,-0.055,-0.016,-0.045,-0.091,0.045,0.011,0.271,0.072,0.006,0.183,-0.034,-0.118,0.036,0.192,0.006,-0.072,0.181,-0.09,-0.45,0.123,-0.019,-0.413,-0.168,0.353,0.028,-0.0,0.017,-0.018,0.07,0.861,-0.043,0.019,0.193,0.063,0.014,0.022,-0.022,0.062,-0.139,0.009,-0.0,-0.018,0.075,-0.121,-0.026,-0.022,0.016,-0.157,0.129,0.27,0.347,0.002,-0.0,0.372,0.283,-0.112,-0.013,-0.012,0.074,-0.02,-0.007,-0.154,0.091,0.011,0.018,0.024,-1.277,0.037,-0.005,-0.011,-0.009,-0.004,-0.064,-0.17,-0.055,-0.019,-0.021,-0.026,0.016,-0.015,-0.192,-0.054,0.031,0.024,-0.203,0.011,-0.02,0.04,0.022,0.072,0.004,-0.038,0.049,0.039,0.013,-0.025,0.115,-0.05,-0.321,0.069,0.006,-0.095,0.012,0.002,-0.066,-0.014,0.078,0.068,-0.064,0.015},
                                 {0.018,0.026,0.028,0.047,0.025,0.026,0.015,0.014,-0.031,0.007,-0.15,0.033,-0.055,-0.012,-0.11,0.008,-1.058,-0.039,0.004,0.266,-0.081,-0.063,0.024,-0.018,0.003,-0.113,-0.013,0.01,0.031,0.083,-0.013,0.011,0.051,0.023,0.0,-0.112,-0.127,-0.123,-0.053,0.001,-0.023,0.007,0.05,0.026,0.007,0.002,-0.032,-0.022,-0.01,-0.088,0.043,-0.041,0.019,0.042,0.013,-0.173,0.02,-0.003,-0.038,-0.012,0.059,-0.02,-0.135,-0.195,0.119,0.87,-0.188,-0.002,0.131,0.019,0.038,0.024,-0.005,0.039,0.001,0.088,0.023,0.004,-0.039,0.109,0.019,-0.271,0.001,0.12,-0.014,0.002,-0.38,-0.003,-1.05,0.016,-0.048,-0.015,0.022,-0.011,-0.208,-0.035,0.159,0.026,0.075,-0.012,0.071,-0.238,0.036,0.353,-0.047,0.008,-0.056,-0.062,0.003,0.053,-0.005,0.091,0.008,0.125,-0.014,0.073,-0.064,-0.006,0.024,0.07,0.021,0.009,-0.007,-0.047,0.011,0.027,0.047,-0.0,0.014,-0.088,0.035,0.05,-0.026,0.026,-0.012,0.411,0.029,0.057,0.117,-0.362,-0.233,-0.014,0.194,-0.044,0.048,0.02,0.001,-0.0,0.004,0.006,-0.007,0.02,0.144,0.019,-0.014,0.199,-0.017,-0.035,0.058,0.082,0.003,-0.063,0.151,-0.119,-0.339,0.029,0.026,-0.193,0.1,0.242,-0.101,-0.002,0.001,-0.012,-0.004,-0.323,0.005,0.043,0.149,0.05,-0.079,0.017,-0.035,0.15,-0.149,0.148,-0.041,-0.008,-0.016,-0.045,0.024,-0.13,0.02,-0.049,0.178,0.324,0.242,0.013,0.027,-1.039,-0.142,-0.039,-0.038,0.003,0.074,-0.066,-0.01,0.021,0.032,0.018,0.003,0.082,0.296,-0.013,0.057,-0.008,0.003,0.019,-0.04,-0.031,0.045,0.003,0.043,-0.089,-0.027,0.069,-0.096,-0.178,0.012,0.021,-0.144,-0.139,-0.065,0.015,0.042,0.046,0.009,-0.026,-0.026,0.048,-0.007,-0.02,0.147,0.062,0.746,0.024,0.036,0.034,-0.02,0.051,-0.005,-0.048,0.044,0.058,0.093,-0.004},
                                 {0.001,0.033,-0.012,0.03,-0.032,0.006,-0.013,-0.014,-0.046,0.036,-0.187,0.012,-0.032,-0.039,-0.187,0.018,-0.237,0.012,0.166,0.38,-0.084,-0.052,0.061,-0.009,0.027,-0.028,-0.028,0.022,0.005,0.056,-0.009,0.033,0.113,-0.07,-0.033,-0.015,-0.106,-0.196,0.016,-0.014,-0.181,0.068,0.07,0.047,0.056,0.011,-0.067,-0.022,0.019,-0.027,0.08,0.013,0.024,0.016,0.017,-0.217,0.052,0.06,-0.024,0.049,-0.034,-0.087,-0.326,-0.013,0.162,0.915,-0.221,-0.037,0.0,-0.01,-0.02,0.033,-0.157,0.046,-0.051,0.093,-0.156,0.146,0.049,0.178,-0.008,-0.34,0.047,0.047,-0.053,0.014,-0.402,-0.019,-1.164,0.008,-0.091,0.01,0.044,0.041,-0.184,-0.019,0.123,0.011,0.051,0.084,-0.079,-0.276,-0.011,0.354,-0.028,-0.121,0.003,-0.01,-0.012,0.024,0.068,0.122,-0.008,0.114,-0.054,0.069,-0.106,0.015,0.146,0.023,0.017,-0.029,0.054,0.084,-0.006,0.037,-0.009,-0.012,0.057,-0.065,0.03,0.03,-0.044,0.007,-0.042,0.519,0.002,0.027,0.017,-0.361,0.781,-0.022,-1.242,0.001,-0.01,0.005,0.045,0.025,-0.067,-0.032,-0.022,-0.009,-0.633,0.081,0.029,0.204,0.035,-0.027,0.029,0.038,0.054,-0.058,0.206,-0.13,0.662,0.119,-0.043,-0.368,0.075,0.345,0.016,-0.177,0.015,-0.147,0.013,-0.328,-0.034,-0.013,0.222,0.01,-0.007,0.006,-0.031,0.165,-0.136,0.18,-0.013,-0.006,0.015,-0.075,-0.03,-0.029,0.02,-0.115,0.194,-0.816,0.353,-0.008,0.011,0.365,-0.341,-0.044,-0.129,0.04,0.032,-0.03,0.014,-0.022,0.076,0.065,-0.022,0.066,0.343,0.008,0.026,-0.035,0.018,-0.027,-0.005,-0.008,-0.009,0.024,0.02,-0.006,0.024,0.016,-0.171,-0.098,0.023,0.019,-0.163,-0.016,0.038,0.032,0.036,0.082,0.014,-0.193,-0.019,0.016,-0.033,-0.027,0.166,-0.081,-0.223,0.038,0.031,0.008,0.007,-0.007,0.044,-0.027,0.043,0.093,0.001,0.004},
                                 {-0.022,0.086,0.058,0.02,-0.016,0.013,-0.133,0.01,0.021,-0.004,0.313,0.006,-0.048,0.075,0.132,-0.077,0.02,-0.404,-0.002,0.051,-0.003,-0.07,0.034,-0.021,-0.016,-0.013,0.023,0.036,-0.065,0.096,-0.039,-0.078,-0.12,0.023,0.044,-0.017,-0.063,0.086,0.594,0.014,-0.048,0.045,-0.05,0.026,0.013,-0.018,-0.06,0.006,-0.018,0.031,0.075,0.057,0.029,-0.008,-0.037,-0.077,0.117,0.05,-0.106,-0.011,0.102,0.05,0.066,0.082,-0.032,-0.014,0.087,0.048,0.005,0.053,0.087,0.055,-0.071,0.037,-0.06,0.049,-0.029,0.098,-0.01,-0.136,0.103,0.017,-0.022,0.064,0.048,-0.024,0.025,-0.023,0.07,-0.03,-0.062,-0.327,0.041,0.07,0.267,-0.084,0.136,-0.013,0.127,0.101,-0.067,0.168,0.108,0.072,0.703,0.036,0.537,-0.031,0.047,0.058,0.005,0.028,0.106,-0.108,-0.029,0.029,-0.075,0.004,0.057,-0.11,0.07,0.041,0.01,0.033,-0.016,-0.058,-0.037,-0.05,0.006,0.001,0.316,0.021,0.036,0.045,0.053,-0.104,0.044,0.042,0.056,-0.015,-0.021,-0.319,0.074,-0.017,0.036,-0.935,0.044,-0.088,0.058,0.086,0.041,-0.071,0.041,0.094,-0.065,0.093,0.186,0.051,0.036,-0.026,-0.119,-0.032,-0.043,-0.079,-0.007,0.041,0.041,0.01,-0.048,0.021,0.042,-0.042,-0.011,0.015,-0.084,0.02,0.016,0.033,-0.08,-0.044,0.005,0.042,0.066,0.004,-0.088,-0.168,0.038,0.011,0.251,-0.025,-0.023,-0.001,0.019,-0.074,-0.123,0.053,0.076,0.021,0.029,0.054,0.074,-0.015,0.02,0.098,0.08,0.532,0.117,0.008,-0.019,0.002,0.036,0.096,0.074,-0.88,-0.068,-0.043,0.057,0.0,0.353,-0.017,0.002,0.019,0.315,0.052,-0.318,0.033,-0.036,0.024,-0.081,0.045,-0.023,-0.056,0.178,0.018,-0.019,-0.043,0.016,-0.059,-0.002,0.031,-0.002,0.009,-0.071,0.014,-0.027,0.049,-0.002,-0.024,0.01,0.157,0.032,-0.244,0.049,-0.038,0.069,0.071},
                                 {0.0,0.049,-0.003,0.06,0.074,0.034,-0.002,-0.01,0.02,-0.037,0.171,-0.116,-0.035,0.051,0.067,0.001,-0.002,-0.315,0.003,0.036,0.001,-0.032,0.011,-0.075,-0.002,-0.041,-0.007,0.066,-0.107,-0.011,0.034,-0.03,-0.076,0.067,0.036,-0.036,-0.053,0.084,0.044,0.003,-0.05,0.003,0.189,0.006,0.059,-0.026,0.011,0.019,-0.051,0.024,0.053,0.151,0.02,0.011,0.027,-0.01,0.062,0.04,0.01,0.022,-0.051,0.017,-0.024,-0.038,-0.001,-0.031,0.12,0.037,0.066,0.05,0.046,0.015,-0.031,0.022,-0.06,-0.026,-0.073,0.043,-0.037,-0.057,0.001,-0.027,-0.057,0.019,0.047,-0.136,0.009,-0.025,0.031,0.04,0.042,0.542,0.048,0.031,0.214,0.035,0.141,0.012,0.057,0.002,-0.05,0.12,0.03,0.04,-0.309,0.023,0.509,-0.047,0.028,0.041,-0.05,0.054,-1.171,-0.094,-0.029,0.026,-0.051,0.018,0.003,-0.046,0.045,0.076,0.006,0.059,0.096,0.03,0.062,0.031,0.019,0.007,0.234,0.05,0.035,0.023,0.071,-0.127,0.046,0.036,0.062,-0.019,-0.053,-0.183,0.038,-0.033,0.055,0.219,-0.054,-0.064,0.05,0.039,0.065,0.057,0.024,0.087,-0.139,-0.057,0.076,0.037,-0.016,0.031,-0.007,-0.052,0.018,-0.05,-0.04,0.097,0.053,-0.011,-0.017,0.029,0.05,-0.014,-0.104,0.029,-0.006,-0.037,-0.075,0.08,-0.099,0.023,0.074,0.029,-0.014,0.054,-0.039,-0.103,0.005,0.062,0.287,-0.065,0.051,-0.029,0.015,0.014,-0.081,0.033,0.028,0.023,-0.023,0.019,0.047,-0.058,-0.029,0.133,0.085,0.355,-0.123,0.045,0.069,0.017,0.078,0.125,0.008,0.078,0.01,0.022,0.054,0.022,0.31,-0.002,0.014,0.027,0.221,0.022,-0.241,0.018,-0.077,-0.011,0.029,0.106,-0.049,-0.053,0.094,0.011,0.015,0.004,0.023,-0.023,-0.007,-0.032,0.002,-0.181,-0.098,-0.055,-0.052,0.018,0.062,-0.002,-0.024,0.046,0.032,-0.169,0.052,0.046,0.027,0.014},
                                 {0.025,0.05,0.043,0.049,0.072,0.02,-0.011,0.015,-0.034,0.032,0.221,-0.004,-0.028,0.046,0.079,0.011,0.026,-0.415,-0.018,-0.02,-0.038,-0.022,0.002,-0.048,0.032,-0.018,0.0,0.001,-0.081,0.002,-0.005,-0.013,-0.203,0.038,0.06,0.035,-0.124,0.071,0.115,-0.002,-0.046,0.035,0.099,0.002,0.009,-0.014,0.067,0.034,-0.028,0.04,-0.034,-0.05,0.055,-0.001,0.008,-0.039,0.051,0.083,0.021,-0.057,-0.007,0.052,0.014,0.017,0.015,-0.14,0.055,0.046,-0.022,0.033,0.053,0.09,-0.07,-0.015,-0.063,0.014,-0.059,0.068,-0.026,-0.082,0.019,-0.063,-0.063,0.043,0.088,-0.047,-0.168,0.014,0.015,-0.02,-0.05,-0.318,0.029,0.004,0.288,0.048,0.173,-0.007,0.094,0.139,0.019,0.084,0.017,-0.02,-0.346,-0.009,0.557,-0.038,0.063,0.096,-0.007,-0.007,0.077,-0.019,0.044,0.061,-0.052,-0.027,0.052,-0.028,0.022,0.045,0.011,0.063,0.003,0.054,0.014,0.031,-0.001,-0.047,0.364,-0.006,0.02,0.006,0.041,-0.064,0.003,0.027,0.002,-0.175,-0.154,-0.251,0.019,-0.024,0.012,0.329,-0.009,-0.086,0.036,0.065,0.038,0.054,0.049,0.061,-0.052,0.102,0.097,0.023,0.023,-0.07,0.033,-0.021,-0.033,-0.08,-0.162,0.106,0.087,-0.154,-0.121,-0.013,0.048,-0.036,0.017,0.012,-0.002,-0.163,0.009,0.073,-0.076,0.045,0.042,0.046,0.031,0.068,-0.064,-0.106,0.035,0.023,-0.162,-0.064,0.012,0.002,-0.007,-0.072,-0.086,0.046,0.033,0.056,0.002,0.029,-0.027,0.101,-0.06,0.179,0.062,0.498,0.219,0.023,0.053,-0.01,0.09,-0.048,0.005,-0.111,-0.004,-0.023,0.009,0.054,0.321,0.026,0.002,0.012,-1.022,0.001,0.643,0.057,-0.022,0.009,0.086,0.056,-0.048,-0.044,-0.005,0.021,0.012,-0.021,0.027,0.003,0.041,-0.032,-0.044,-0.424,-0.083,0.018,-0.177,0.041,-0.018,-0.01,0.007,0.038,-0.011,-0.281,0.008,-0.052,0.029,0.008},
                                 {-0.084,0.01,0.028,0.06,0.058,-0.023,0.0,-0.052,-0.126,-0.098,0.205,-0.008,-0.028,0.066,0.05,0.04,0.022,0.668,-0.129,-0.033,-0.046,-0.07,0.025,-0.001,0.012,-0.026,-0.005,-0.014,-0.071,-0.193,0.022,-0.023,-0.28,0.032,0.01,-0.001,-0.402,0.062,-0.008,0.01,-0.025,-0.036,0.103,-0.004,-0.029,-0.018,-0.146,-0.009,-0.077,0.075,0.032,-0.016,-0.032,-0.067,-0.367,-0.105,-0.057,0.13,0.031,-0.043,-0.135,-0.002,-0.017,0.005,-0.123,-0.017,-0.06,0.008,-0.039,0.105,0.056,0.016,-0.051,0.003,-0.016,-0.085,-0.08,-0.053,-0.03,-0.021,-0.211,-0.071,-0.05,0.073,0.062,-0.061,0.014,-0.123,-0.004,-0.025,0.122,-0.391,-0.016,-0.111,0.351,0.01,0.054,0.023,0.014,0.093,0.046,0.088,0.038,0.001,0.597,0.052,-0.3,-0.072,0.022,0.028,-0.06,0.075,-0.17,-0.046,-0.072,-0.079,0.034,0.051,-0.035,0.003,0.059,0.096,-0.127,-0.035,-0.086,-0.091,0.074,-0.014,0.004,-0.086,0.0,-0.01,0.069,-0.179,0.036,-0.16,0.045,0.047,-0.08,-0.044,-0.031,-0.443,0.056,-0.043,-0.081,-0.727,-0.036,-0.091,0.027,0.015,0.063,0.012,-0.059,0.019,-0.033,0.015,-0.105,0.026,0.013,0.026,-0.036,0.005,-0.098,-0.03,-0.057,0.002,0.05,-0.027,-0.029,-0.056,0.036,-0.068,-0.062,-0.007,-0.035,-0.034,-0.012,0.069,-0.055,-0.02,0.123,-0.07,-0.058,-0.016,-0.071,-0.157,0.006,0.077,-0.331,-0.071,0.015,-0.014,0.004,-0.029,-0.274,0.012,0.029,0.018,-0.053,0.027,0.071,-0.067,-0.017,0.067,0.002,0.07,0.27,0.013,0.029,-0.066,0.097,-0.018,0.026,0.189,-0.047,-0.098,0.021,0.049,0.209,-0.042,-0.033,0.074,0.05,0.013,-0.517,-0.043,-0.078,-0.052,-0.032,0.1,-0.047,-0.016,-0.13,-0.006,0.013,-0.233,-0.119,-0.032,-0.058,-0.057,-0.061,0.003,-0.114,-0.03,-0.07,0.037,0.017,-0.044,-0.028,0.087,-0.026,-0.467,0.012,-0.021,-0.07,0.037},
                                 {-0.037,0.068,0.017,0.005,0.094,0.056,0.047,0.059,-0.085,-0.099,0.291,0.01,0.038,0.062,0.185,-0.039,0.032,0.691,-0.069,0.026,-0.073,-0.068,0.014,-0.038,0.048,-0.003,0.023,0.047,-0.033,-0.04,-0.086,0.055,-0.472,0.022,0.063,-0.037,-0.076,0.131,-0.0,-0.024,0.005,0.002,0.067,0.037,0.009,-0.047,-0.001,-0.128,-0.063,0.093,-0.008,-0.08,0.001,-0.017,-0.073,-0.188,0.104,0.083,0.05,-0.038,0.095,-0.027,-0.002,-0.019,-0.081,-0.014,0.126,0.012,-0.01,0.037,0.076,0.118,-0.037,-0.021,-0.092,0.04,0.02,0.057,-0.12,-0.345,0.122,0.08,-0.09,0.064,0.065,-0.034,0.076,0.006,0.032,0.033,-0.087,0.643,0.029,0.06,0.398,0.07,0.09,-0.057,0.099,0.079,-0.022,0.016,0.013,0.013,-0.232,0.025,-0.08,0.052,0.034,0.038,-0.09,-0.038,-0.179,-0.151,0.065,0.088,-0.101,0.049,-0.079,-0.035,0.035,0.093,-0.074,0.101,-0.043,0.067,-0.032,-0.035,-0.064,-0.07,0.376,-0.007,0.033,-0.005,0.002,-0.119,-0.027,-0.006,-0.08,0.031,-0.017,-0.373,0.081,-0.044,-0.001,0.414,0.027,-0.165,0.001,0.136,0.02,0.068,0.061,0.083,-0.047,0.053,0.315,0.036,0.048,-0.06,0.101,-0.056,-0.075,-0.101,0.008,-0.044,0.054,-0.001,-0.001,0.0,0.071,-0.027,0.027,0.056,0.06,0.081,-0.238,0.059,-0.09,-0.012,0.041,0.093,-0.16,0.137,-0.15,-0.408,-0.075,0.009,-0.156,-0.173,0.055,0.018,-0.092,-0.233,-0.122,0.058,0.077,-0.01,0.036,0.058,0.041,0.091,0.016,0.094,0.082,0.608,-0.042,0.059,0.091,0.047,-0.013,-0.07,0.02,-0.008,-0.069,-0.012,0.032,-0.008,0.391,0.038,0.048,0.002,0.476,0.032,-0.396,-0.129,-0.114,0.063,0.106,0.001,-0.128,-0.035,0.172,0.026,0.086,0.086,0.004,-0.026,-0.057,0.045,-0.003,0.108,-0.171,-0.1,0.01,0.049,-0.008,0.009,-0.006,0.085,0.06,-0.394,0.029,-0.078,0.024,0.011},
                                 {0.003,-0.002,0.044,0.057,0.046,-0.011,-0.011,-0.053,-0.027,0.009,0.226,0.017,-0.065,0.023,0.078,0.028,0.008,0.585,-0.031,0.074,-0.014,-0.023,0.087,-0.019,0.053,-0.011,0.028,0.054,-0.054,0.12,-0.004,-0.015,-0.087,0.04,0.064,-0.026,-0.148,0.144,0.071,-0.084,-0.037,0.02,0.091,-0.001,0.011,-0.028,0.051,-0.032,0.034,0.061,0.032,0.24,0.06,0.025,0.044,-0.068,0.054,-0.061,0.04,-0.088,0.011,-0.032,0.033,-0.003,-0.016,-0.063,0.132,0.025,0.003,-0.058,0.031,-0.012,-0.037,0.007,-0.018,0.02,-0.058,0.022,0.003,-0.14,-0.034,0.043,-0.058,0.117,0.094,-0.036,0.001,0.001,0.015,0.087,0.0,-0.177,0.042,0.048,0.26,0.064,0.151,0.045,-0.003,0.095,0.043,0.099,0.039,0.013,-0.227,0.022,-0.097,-0.015,0.056,0.077,-0.043,-0.026,-0.077,-0.071,-0.022,0.034,0.015,-0.005,0.049,-0.016,0.057,0.096,-0.057,-0.005,0.006,0.026,0.079,0.018,0.002,0.037,0.166,0.002,0.022,0.08,0.037,-0.064,0.059,0.047,0.075,-0.035,-0.016,-0.219,0.016,-0.06,-0.049,0.262,-0.042,-0.079,0.06,0.069,0.076,0.04,0.031,0.058,-0.026,-0.004,0.051,0.025,-0.015,-0.012,0.024,-0.042,-0.052,-0.083,-0.023,0.109,0.063,-0.025,-0.025,0.036,-0.01,-0.035,0.014,0.045,0.031,-0.048,0.023,0.065,-0.027,0.025,0.018,-0.071,-0.005,0.142,-0.014,-0.11,0.025,0.062,-0.034,-0.055,0.017,-0.009,0.0,-0.025,-0.043,0.063,0.053,0.053,0.003,0.049,0.024,0.015,-0.054,0.09,0.053,0.262,0.238,0.018,0.05,0.079,0.058,0.132,0.033,-0.399,-0.004,-0.07,0.064,0.049,0.248,-0.01,0.019,0.032,-0.908,0.06,0.712,-0.008,-0.039,-0.006,0.057,0.091,-0.037,-0.034,0.128,-0.094,-0.096,-0.082,-0.041,-0.01,-0.033,-0.059,-0.003,0.012,-0.039,0.014,-0.081,-0.12,0.043,-0.018,-0.045,0.1,0.035,-0.177,-0.022,0.031,0.066,-0.059},
                                 {0.018,0.04,0.008,-0.009,0.067,0.029,-0.016,-0.125,-0.011,-0.015,0.323,0.04,-0.102,0.028,0.109,-0.032,0.019,-0.447,-0.011,-0.002,0.03,-0.024,0.024,-0.011,-0.031,-0.005,0.018,0.029,-0.048,-0.073,-0.02,-0.031,-0.069,0.093,0.051,-0.022,-0.093,0.193,0.039,0.012,-0.023,0.063,0.002,0.008,0.084,-0.064,0.047,-0.014,-0.067,0.034,-0.088,0.215,0.05,0.018,0.052,-0.106,-0.059,0.045,0.055,-0.163,0.03,-0.022,-0.014,-0.006,-0.013,-0.032,0.11,0.043,0.018,0.079,0.075,0.062,-0.055,0.014,-0.015,-0.023,-0.053,0.021,-0.02,-0.157,-0.007,0.113,-0.072,0.031,0.075,-0.041,0.005,-0.048,-0.017,0.006,0.068,-0.232,0.006,0.03,0.258,0.045,0.201,-0.0,0.121,0.049,-0.002,0.081,0.05,0.04,0.754,0.052,-0.238,-0.073,0.087,0.05,-0.045,0.022,-0.26,-0.066,0.01,0.1,-0.02,0.047,-0.042,-0.092,0.02,0.018,-0.041,0.037,0.075,0.049,0.019,0.018,0.021,-0.074,-0.797,-0.024,0.05,0.021,0.052,-0.074,0.002,0.042,-0.053,0.001,-0.079,0.677,0.035,-0.008,-0.086,-0.901,0.027,-0.104,0.066,-0.081,0.064,0.012,0.025,0.085,-0.066,-0.041,0.117,-0.095,-0.03,0.018,0.013,-0.029,-0.032,-0.099,-0.029,0.065,0.067,-0.027,-0.133,-0.014,0.063,-0.039,-0.001,0.005,-0.001,0.013,-0.009,0.054,-0.087,0.059,0.113,0.08,0.01,0.008,-0.089,-0.213,0.025,0.012,-0.081,-0.082,-0.015,0.023,0.032,-0.075,-0.066,0.019,0.035,0.033,-0.031,0.008,0.184,-0.057,-0.045,-0.008,0.09,0.485,0.016,-0.104,0.092,0.001,0.085,0.148,0.015,-0.108,-0.052,-0.005,0.034,0.054,0.404,-0.137,0.006,-0.006,0.338,0.017,-0.326,-0.029,-0.113,0.014,0.071,0.101,-0.054,-0.043,0.074,0.029,-0.004,0.024,-0.019,-0.069,0.029,-0.004,-0.025,0.219,-0.152,-0.025,-0.052,0.046,0.061,-0.116,-0.023,0.05,-0.076,-0.289,0.038,-0.107,0.026,0.058},
                                 {0.028,-0.006,0.034,0.058,0.084,0.009,0.007,-0.025,-0.047,0.045,0.167,-0.028,-0.041,0.065,0.165,0.016,0.014,-0.35,-0.02,0.008,-0.01,-0.043,0.029,-0.055,0.015,-0.096,-0.006,0.019,-0.074,0.061,0.007,0.031,-0.071,0.036,-0.016,-0.091,-0.092,0.118,0.038,-0.005,-0.044,0.007,-0.043,-0.003,-0.025,0.018,-0.008,-0.01,-0.028,0.015,-0.005,0.051,0.012,0.048,-0.022,-0.022,0.007,0.047,0.014,-0.037,0.054,-0.055,-0.015,-0.005,0.011,0.003,0.074,0.005,0.003,0.048,0.043,0.054,-0.076,0.035,-0.027,-0.016,-0.062,0.051,-0.047,-0.081,0.043,-0.044,-0.082,0.047,0.064,-0.073,0.006,0.004,-0.005,0.041,0.054,0.496,0.019,0.026,0.125,0.028,0.196,-0.019,0.046,0.019,0.066,0.086,0.048,0.006,-0.25,-0.023,-0.138,-0.014,0.064,0.089,-0.032,0.061,0.037,-0.087,-0.002,0.089,-0.028,0.037,0.024,-0.047,0.053,0.105,-0.061,-0.007,-0.06,0.021,0.084,0.034,-0.015,0.05,-0.865,0.036,0.028,0.101,0.054,-0.073,0.077,0.055,0.012,-0.008,-0.036,0.682,0.056,-0.06,0.019,0.217,-0.072,-0.081,0.069,0.044,0.008,0.056,0.018,0.049,-0.061,0.089,0.002,0.009,0.03,0.015,0.041,-0.03,-0.055,-0.087,-0.023,0.05,0.058,-0.015,-0.025,0.031,-0.035,-0.046,-0.048,-0.016,-0.029,-0.029,-0.047,0.049,-0.082,0.024,-0.009,0.035,-0.015,0.064,-0.072,-0.09,-0.01,0.068,-0.291,-0.057,0.025,-0.092,0.009,-0.019,-0.099,0.043,0.075,0.043,-0.018,0.03,0.095,0.106,-0.056,-0.003,0.067,0.324,0.124,0.037,0.062,-0.0,0.088,0.065,0.055,-1.056,0.024,-0.011,-0.017,0.054,0.244,-0.045,0.039,0.009,0.215,-0.031,-0.225,0.058,-0.008,-0.125,0.022,0.071,-0.017,-0.158,0.033,0.018,-0.011,-0.032,-0.015,-0.048,-0.012,-0.026,0.037,0.07,-0.034,0.038,-0.042,0.014,0.032,0.017,-0.052,0.1,-0.006,-0.206,0.02,0.084,0.057,0.021},
                                 {-0.052,-0.001,0.041,0.054,0.044,-0.028,-0.025,-0.019,-0.01,0.008,0.218,-0.021,-0.005,0.052,0.047,0.045,0.017,-0.48,-0.057,0.054,-0.001,-0.021,0.053,-0.025,-0.006,-0.016,-0.032,0.042,-0.067,-0.014,-0.017,0.007,-0.117,0.026,0.022,-0.07,-0.097,0.178,0.07,0.007,-0.163,0.044,0.104,0.019,0.076,-0.033,-0.031,-0.003,-0.015,0.087,0.074,0.183,0.049,-0.014,-0.077,-0.092,0.046,0.098,0.022,0.015,-0.005,-0.05,0.04,-0.019,-0.045,-0.009,0.106,0.013,-0.027,0.05,0.024,0.03,-0.179,0.022,-0.044,0.033,-0.215,0.058,-0.004,-0.09,0.041,-0.001,-0.074,-0.044,0.053,-0.051,0.003,-0.032,0.029,0.053,-0.003,-0.365,0.045,0.096,0.271,0.026,0.112,-0.015,0.094,0.059,-0.054,0.095,0.001,0.038,-0.287,-0.149,-0.212,-0.024,0.044,0.069,0.031,0.07,-0.194,-0.12,-0.026,0.042,-0.113,0.017,-0.002,-0.072,0.047,0.013,-0.024,0.012,-0.013,0.024,0.008,-0.008,0.023,-0.099,-0.976,0.02,0.025,0.04,0.013,-0.073,0.033,0.019,-0.028,-0.023,-0.007,0.622,0.039,-0.004,0.084,0.331,0.025,-0.032,0.046,0.028,0.022,0.006,-0.033,0.087,-0.029,0.055,0.09,0.011,0.073,0.003,0.061,-0.047,-0.028,-0.104,-0.044,0.086,0.062,-0.024,-0.044,0.008,0.037,-0.197,0.025,-0.095,-0.001,0.016,0.007,0.053,-0.073,0.007,0.03,0.048,0.021,0.003,-0.058,-0.065,0.021,0.023,-0.253,-0.024,-0.018,-0.006,0.03,-0.067,-0.154,0.045,0.036,0.056,-0.011,0.044,-0.044,0.041,-0.139,0.005,0.069,0.454,0.069,0.021,0.093,0.038,0.061,0.026,0.057,0.055,-0.006,-0.016,0.012,-0.017,0.365,0.004,0.03,0.046,-1.075,0.014,0.646,0.018,-0.087,-0.021,0.051,0.047,0.002,-0.034,0.127,0.038,0.033,-0.037,-0.016,-0.155,0.012,0.009,0.038,0.093,-0.107,-0.09,-0.044,0.026,0.029,-0.008,-0.011,0.032,0.005,-0.277,0.053,-0.062,0.003,0.02},
                                 {-0.013,0.076,0.047,0.523,-0.085,-0.06,-0.155,0.019,-0.05,0.03,-0.138,-0.013,0.143,-0.011,0.162,0.571,-0.014,0.057,-0.052,0.001,-0.058,0.187,0.428,-0.007,-0.031,-0.009,0.107,-0.006,-0.002,0.046,0.092,-0.079,0.017,-0.032,0.009,0.001,0.092,0.033,0.087,0.032,-0.022,-0.033,-0.102,0.176,-0.044,-0.03,0.082,-0.311,-0.041,0.028,-0.066,-0.039,-0.065,-0.052,0.015,0.27,0.006,-0.027,-0.123,-0.054,0.073,0.069,0.017,0.096,-0.122,-0.038,-0.262,0.022,0.009,-0.009,0.045,-0.075,0.027,0.028,-0.079,0.014,0.035,0.04,-0.455,-0.196,0.02,0.1,-0.046,0.08,-0.013,0.02,0.033,0.082,0.058,-0.188,0.036,0.064,-0.001,0.088,0.207,-0.169,-0.248,-0.046,-0.074,-0.292,-0.062,-0.132,0.006,-0.039,-0.012,-0.076,-0.011,-0.03,-0.049,-0.038,0.775,0.017,-0.047,0.151,0.017,-0.021,-0.145,-0.006,-0.013,0.089,-0.079,0.511,0.011,0.216,0.023,0.06,-1.484,-0.061,0.447,0.073,0.02,0.007,0.155,-0.03,-0.036,0.063,0.322,-0.023,-0.084,-0.016,-0.035,-0.019,0.012,-0.352,-0.021,-0.019,-0.311,-0.092,-0.033,0.021,-0.061,-0.126,-0.0,-0.04,-0.009,-0.136,-0.029,0.013,0.014,-0.01,-0.17,0.955,-0.075,-0.01,0.005,-0.043,-0.079,-0.027,0.017,-0.032,-0.062,-0.025,0.021,0.023,-0.104,-0.027,0.023,-0.041,-0.067,-0.051,-0.127,-0.011,1.022,0.113,-0.096,0.069,-0.351,-0.966,-0.044,0.316,-0.021,0.001,0.752,0.541,0.111,-0.044,0.023,-0.077,0.064,-0.058,-0.037,0.206,0.094,0.064,-0.03,-0.066,-0.041,0.003,-0.287,0.025,-0.106,-0.055,-0.055,-0.036,-1.238,0.019,-0.045,-0.075,0.038,-0.025,-0.167,0.043,0.021,0.036,-0.028,-0.432,-0.07,0.047,-0.108,-0.069,0.218,0.017,-0.017,0.023,-0.091,0.047,0.104,-0.016,-0.254,0.034,0.105,0.031,-0.066,-0.047,0.013,0.047,0.3,-0.036,0.558,0.06,-0.032,-0.102,0.011,-0.0,-0.102,0.045},
                                 {0.028,0.002,-0.017,0.29,0.005,-0.042,-0.092,-0.008,0.034,-0.15,-0.07,-0.118,0.216,-0.021,0.024,0.125,0.01,0.081,-0.028,-0.022,-0.057,0.127,-1.522,-0.106,0.031,0.006,0.241,0.009,-0.074,0.019,-0.102,-0.005,0.018,0.003,-0.017,-0.069,0.117,0.022,-0.084,0.072,-0.072,-0.128,-0.039,-0.775,0.034,-0.137,-0.005,1.137,-0.021,-0.02,0.057,-0.117,-0.086,-0.024,0.039,0.264,-0.004,-0.065,-0.041,-0.042,-0.091,-0.068,-0.053,-0.029,-0.063,-0.081,-0.142,-0.004,0.08,-0.02,-0.008,0.084,0.038,-0.01,-0.022,-0.056,-0.036,0.045,-0.219,-0.184,-0.044,0.115,-0.039,-0.075,-0.002,-0.098,0.005,0.022,0.023,-0.221,-0.023,0.051,-0.024,-0.222,0.151,-0.067,-0.236,-0.031,-0.278,-0.254,0.014,-0.099,-0.032,-0.03,-0.001,-0.088,-0.012,-0.047,-0.074,-0.071,-0.296,0.062,-0.011,0.144,0.019,0.15,0.027,-0.139,0.01,0.031,-0.059,0.273,0.426,-0.081,-0.077,0.032,0.493,-0.093,0.515,-0.019,-0.032,0.032,-0.016,-0.047,-0.002,-0.047,0.368,-0.011,0.241,-0.042,-0.076,-0.051,-0.015,-0.362,0.193,-0.042,-0.443,-0.149,-0.058,0.005,-0.051,-0.02,-0.044,-0.07,-0.12,-0.115,0.037,-0.021,-0.02,-0.03,-0.035,0.612,-0.045,0.022,-0.013,0.017,-0.051,-0.031,-0.006,-0.024,-0.006,-0.038,-0.1,0.003,-0.005,-0.077,-0.101,-0.008,-0.05,-0.026,-0.181,0.022,-0.456,0.05,-0.021,0.052,-0.372,-1.288,0.033,0.126,-0.021,-0.056,0.886,0.492,0.176,-0.057,-0.006,-0.061,0.03,-0.035,-0.046,-0.134,-0.003,0.175,0.015,-0.022,-0.049,0.001,-0.073,-0.009,-0.048,-0.101,-0.026,0.08,0.364,0.052,-0.048,-0.062,-0.057,-0.037,0.068,0.025,-0.035,-0.016,-0.025,-0.295,-0.032,-0.026,0.019,-0.007,0.088,-0.091,0.053,0.069,-0.043,0.081,0.055,-0.025,-0.258,0.144,-0.127,0.106,-0.079,-0.071,-0.015,0.025,-0.116,-0.041,0.44,0.004,-0.012,-0.118,0.007,-0.179,0.098,0.032},
                                 {0.024,0.002,0.041,0.45,-0.023,-0.093,-0.055,0.009,-0.057,0.176,-0.078,-0.02,-0.178,-0.035,0.062,0.126,-0.011,0.028,-0.032,-0.007,-0.057,0.195,0.352,-0.019,0.007,0.002,0.242,-0.023,0.018,0.005,-0.174,0.003,0.022,0.001,0.035,0.038,0.06,0.035,-0.014,0.021,-0.035,-0.01,-0.0,0.169,0.019,-0.055,-0.071,-0.206,0.027,0.014,-0.17,-0.108,-0.057,-0.079,0.045,0.244,-0.004,-0.044,-0.012,-0.047,0.019,0.052,0.085,0.017,-0.131,-0.149,-0.384,-0.011,-0.018,-0.017,0.022,-0.099,0.003,0.019,-0.04,0.033,-0.009,0.015,0.874,-0.138,-0.055,-0.095,-0.046,0.033,-0.008,0.01,-0.152,0.099,0.003,-0.115,0.054,0.083,-0.035,0.11,0.204,-0.046,-0.301,0.217,-0.114,-0.232,0.0,-0.088,-0.036,-0.118,-0.019,-0.093,0.042,0.006,-0.018,0.025,-0.187,-0.062,-0.0,0.363,0.029,-0.012,0.042,-0.102,-0.058,0.076,-0.101,-1.117,-0.199,0.082,0.044,-0.027,0.314,-0.05,0.355,0.051,0.032,-0.038,-0.186,-0.028,0.03,0.021,-1.332,0.013,0.028,-0.168,-0.128,0.053,-0.046,-0.363,-0.097,-0.022,-0.377,0.001,-0.017,0.031,-0.018,-0.021,-0.012,-0.01,-0.008,-0.105,0.011,-0.012,-0.001,-0.016,-0.029,0.621,-0.063,-0.079,-0.105,0.014,-0.056,-0.161,-0.147,-0.024,-0.076,-0.06,0.069,-0.016,0.019,-0.156,-0.066,-0.018,-0.077,-0.016,-0.138,-0.047,-0.461,-0.001,-0.077,0.165,-0.215,-1.226,0.079,0.091,0.008,-0.0,0.816,0.455,0.112,-0.016,-0.024,-0.022,0.032,-0.008,-0.032,-0.356,-0.009,0.139,0.012,-0.01,-0.063,0.019,-0.088,0.013,-0.058,-0.045,-0.019,-0.036,0.461,-0.023,-0.025,-0.076,0.111,0.051,-0.147,0.039,0.012,0.021,-0.007,-0.512,-0.063,0.029,0.025,-0.055,0.11,-0.005,0.01,0.007,-0.006,-0.043,-0.002,0.028,0.519,0.493,0.021,0.012,-0.062,-0.092,-0.151,0.031,-0.241,-0.011,0.293,-0.018,-0.027,-0.108,0.023,-0.023,-0.002,0.021},
                                 {0.017,-0.001,0.033,0.348,-0.05,0.001,-0.098,-0.007,-0.027,-0.081,-0.056,0.009,0.245,-0.042,0.199,0.13,0.015,-0.124,-0.083,-0.031,-0.081,0.196,0.517,-0.015,0.091,0.017,0.227,-0.067,0.023,0.018,0.096,0.013,0.028,0.032,-0.017,0.027,0.045,0.082,0.049,0.066,-0.036,-0.11,-0.034,-0.103,-0.032,-0.067,0.037,-0.302,0.056,0.043,0.003,-0.172,-0.022,-0.068,-0.153,0.218,0.07,-0.112,-0.022,-0.168,-0.012,-0.004,0.018,-0.05,-0.051,-0.006,-0.126,-0.019,-0.001,-0.004,-0.024,0.05,0.031,0.004,0.011,-0.02,-0.012,0.056,-0.437,-0.182,-0.082,0.053,-0.057,-0.019,0.031,0.003,0.017,-0.01,0.006,-0.356,0.284,-0.043,-0.046,-0.117,0.213,-0.066,-0.24,0.19,-0.27,-0.277,0.04,-0.175,-0.021,-0.054,-0.097,-0.066,-0.105,-0.094,-0.037,-0.036,-0.296,0.022,0.063,0.17,0.008,0.03,-0.006,-0.057,-0.047,0.081,-0.031,0.315,-0.235,0.088,0.098,-0.059,0.447,-0.059,-1.169,-0.093,-0.011,-0.061,0.259,-0.026,0.043,0.05,0.373,-0.036,0.015,-0.045,-0.041,-0.13,-0.014,-0.145,0.068,-0.041,-0.431,-0.111,-0.07,0.037,0.006,-0.066,-0.071,0.012,0.021,-0.184,-0.104,-0.026,0.024,-0.007,-0.091,0.661,-0.08,-0.013,0.006,-0.062,-0.013,-0.03,-0.048,-0.057,-0.054,-0.081,0.04,-0.0,0.059,-0.022,-0.154,0.001,-0.04,-0.027,-0.082,-0.013,1.074,0.121,-0.078,0.092,1.073,0.328,-0.062,0.109,-0.01,0.019,-0.513,0.629,0.154,-0.05,-0.015,-0.05,-0.002,-0.049,-0.059,-0.729,0.011,0.058,0.027,-0.033,-0.169,-0.017,-0.078,-0.012,-0.055,-0.183,-0.064,-0.032,-1.463,0.046,-0.069,-0.028,0.057,-0.044,-0.181,0.026,-0.047,-0.039,-0.168,-0.488,-0.101,0.042,0.013,-0.024,0.097,-0.024,0.032,0.038,-0.007,0.09,-0.02,-0.023,-0.271,0.196,0.057,-0.2,-0.063,-0.065,0.002,-0.001,-1.096,-0.047,0.355,0.046,-0.066,-0.124,0.018,-0.169,-0.003,0.011},
                                 {-0.361,-0.364,0.066,-0.183,-0.43,-0.225,-0.466,-0.455,-0.473,-0.547,-0.84,-0.369,0.082,-0.633,-0.488,0.119,0.016,-0.425,-0.549,-0.376,-0.338,-0.033,-1.277,-0.282,-0.332,-0.441,0.01,-0.434,-0.424,-0.657,-0.124,-0.383,-0.465,-0.327,-0.351,-0.323,-0.38,-0.543,-0.677,-0.233,-0.58,-0.502,-0.377,-0.162,-0.257,-0.593,-0.752,0.277,-0.121,-0.252,-0.5,-0.212,-0.385,-0.456,-0.558,-0.37,-0.645,-0.296,-0.635,-0.439,-0.283,0.063,-0.44,0.002,-0.82,-0.531,-0.756,0.033,-0.359,-0.388,-0.398,-0.148,-0.457,-0.322,-0.573,-0.394,-0.596,-0.407,-1.366,-0.777,-0.395,-0.56,0.14,-0.384,-0.341,-0.478,-0.444,-0.592,-0.44,-0.311,-0.362,-0.249,-0.715,-0.615,-0.277,-0.449,-0.792,-0.315,-1.34,-0.829,-0.033,-0.621,-0.673,-0.553,-0.489,-0.43,-0.277,-0.442,-0.568,-0.361,0.472,-0.399,-0.271,-0.106,-0.358,-0.571,-0.7,-0.491,-0.003,0.098,-0.641,0.072,-0.483,-0.516,-0.411,-0.351,-1.64,-0.448,-1.241,-0.335,-0.256,-0.409,0.427,-0.676,-0.383,-0.566,-1.388,-0.417,-0.519,-0.649,-0.64,-0.277,-0.438,-1.017,-0.441,-0.35,0.015,-0.458,-0.489,-0.429,-0.424,-0.653,-0.591,-0.553,-0.388,-0.293,-0.346,-0.668,-0.382,-0.063,-0.572,-0.315,-0.524,-0.848,-0.366,-0.361,-0.456,-0.646,-0.065,-0.493,-0.136,-0.523,-0.33,-0.48,-0.239,-0.418,-0.5,-0.725,-0.476,-0.705,-0.432,-0.296,-1.227,-0.449,-0.805,-0.511,0.368,-0.043,-0.492,-0.124,-0.284,-0.547,-1.193,0.149,-0.315,-0.48,-0.708,-0.469,-0.412,-0.553,-0.073,-0.226,-0.294,-0.499,-0.553,-0.451,-0.313,-0.568,-0.575,-0.296,-0.786,-0.532,-0.873,-0.319,-0.174,-0.363,-0.455,-0.8,-0.321,-0.541,-0.214,-0.369,-0.33,-0.373,-0.402,-1.18,-0.511,-0.283,-0.469,-0.504,-0.296,-0.386,-0.4,-0.431,-0.195,-0.632,-0.716,-0.669,0.51,0.261,-0.402,-0.184,-0.826,-0.265,-0.457,-0.401,-0.307,-0.632,-1.169,-0.373,-0.533,-0.29,-0.577,-0.459,-0.733,-0.283},
                                 {-0.017,0.016,0.069,0.353,-0.009,-0.093,-0.039,-0.029,-0.041,0.043,-0.066,-0.003,0.212,-0.051,0.033,0.213,0.013,0.031,-0.056,-0.021,-0.047,0.167,0.574,-0.006,0.034,0.069,0.039,-0.016,0.077,0.081,-0.633,0.027,0.074,-0.024,0.003,-0.028,0.085,0.063,-0.09,-0.074,-0.038,-0.065,-0.049,-0.041,-0.028,-0.083,0.002,-0.281,0.059,0.035,0.046,-0.024,-0.086,-0.058,0.03,0.208,-0.003,-0.056,-0.013,-0.093,-0.049,-0.024,-0.004,0.004,-0.096,-0.072,-0.148,0.041,0.025,-0.146,-0.034,0.078,0.018,0.001,-0.001,-0.078,-0.05,0.094,1.086,-0.153,-0.009,0.077,-0.018,0.009,0.002,0.031,-0.031,0.096,-0.022,0.16,0.036,0.067,-0.022,-0.012,0.199,-0.016,-0.205,-0.89,-0.317,-0.256,0.051,-0.067,-0.011,-0.104,-0.056,-0.121,-0.017,0.026,-0.009,-0.026,-0.251,-0.025,-0.057,0.109,0.017,0.018,-0.027,-0.133,0.019,0.094,-0.097,-1.172,0.482,-0.063,0.025,-0.009,0.598,-0.052,-1.528,-0.023,0.004,-0.024,-0.126,-0.025,0.044,0.043,0.339,0.022,-0.045,-0.059,-0.028,-0.062,-0.058,-0.059,-0.011,-0.096,-0.416,-0.095,-0.023,0.018,-0.014,-0.04,-0.016,0.006,0.013,-0.162,-0.074,-0.058,-0.032,-0.018,-0.011,0.622,-0.056,-0.029,0.008,-0.029,-0.071,-0.073,-0.07,-0.047,-0.083,-0.076,0.076,0.032,0.052,-0.056,-0.113,-0.022,-0.059,-0.031,-0.142,-0.12,-0.312,0.067,-0.02,0.135,1.096,0.269,0.016,0.125,-0.03,0.026,-0.177,0.406,0.064,-0.026,-0.028,-0.053,-0.006,-0.025,-0.091,0.165,0.013,0.069,-0.03,-0.093,-0.029,-0.015,-0.14,0.093,-0.056,-0.071,-0.02,-0.029,0.287,-0.035,-0.046,-0.037,-0.001,-0.025,-0.125,-0.024,-0.024,0.032,-0.032,-0.634,-0.033,-0.007,0.035,-0.094,0.115,-0.041,-0.013,-0.12,-0.145,0.049,-0.021,-0.019,-0.259,0.318,-0.056,0.053,-0.04,-0.012,-0.021,-0.079,0.064,-0.023,-0.354,0.071,-0.0,-0.104,-0.022,0.009,0.017,-0.079},
                                 {-0.002,0.005,-0.031,-0.951,0.015,-0.052,-0.067,-0.129,0.056,0.065,-0.098,0.039,0.633,-0.038,0.112,0.032,0.014,0.06,-0.068,-0.061,0.018,0.181,0.353,0.044,-0.131,0.026,0.068,-0.02,0.029,-0.004,0.084,-0.004,-0.02,0.04,-0.031,-0.011,0.114,0.106,-0.086,0.052,-0.042,-0.057,-0.184,-0.186,0.102,-0.075,-0.052,-0.356,-0.031,0.05,0.068,-0.007,-0.045,-0.063,0.063,0.183,0.056,-0.034,0.02,-0.123,0.001,0.022,-0.029,-0.047,-0.066,-0.02,-0.421,0.032,0.025,0.008,0.008,-0.138,-0.017,0.032,0.019,-0.003,-0.025,0.04,-0.46,-0.169,-0.143,0.057,-0.066,0.09,0.043,0.023,0.014,0.039,-0.021,-0.352,0.184,0.103,-0.015,0.387,0.14,-0.031,-0.268,-0.101,-0.125,-0.292,0.072,-0.113,-0.019,-0.088,-0.013,-0.12,0.046,0.017,-0.028,-0.035,-0.325,-0.036,-0.013,0.303,0.032,0.086,0.06,-0.075,-0.006,0.047,-0.05,0.449,0.773,0.073,0.049,0.023,0.314,-0.104,0.388,-0.039,0.015,-0.031,0.283,-0.024,0.042,0.023,-1.249,-0.031,-0.074,0.027,-0.043,-0.017,-0.011,0.629,0.076,0.01,-0.452,-0.105,-0.012,-0.12,-0.034,-0.051,-0.01,-0.005,0.015,-0.175,-0.057,-0.129,0.105,0.051,-0.013,0.683,-0.093,-0.045,0.006,-0.024,-0.047,-0.018,-0.132,-0.048,-0.007,-0.058,0.054,-0.018,-0.015,-0.007,-0.056,-0.027,-0.095,-0.011,-0.093,0.04,1.012,0.02,-0.108,0.082,-0.392,0.455,0.091,0.121,-0.042,0.018,-0.345,0.466,0.128,-0.05,-0.001,-0.041,-0.008,-0.052,0.046,0.117,0.033,0.054,0.025,-0.034,-0.039,-0.138,-0.035,0.064,-0.08,-0.205,-0.068,-0.001,-0.866,-0.044,-0.066,-0.093,0.038,-0.13,0.127,-0.012,0.019,0.054,-0.014,0.794,-0.068,0.028,0.023,-0.028,0.128,-0.039,0.006,0.024,-0.089,0.014,-0.005,-0.059,0.671,-0.19,0.04,0.042,-0.176,-0.094,0.007,0.051,0.235,-0.117,-0.082,-0.032,-0.124,-0.079,-0.004,-0.128,0.575,0.069},
                                 {0.008,0.048,0.059,-1.463,0.022,-0.061,-0.047,-0.007,-0.03,0.117,-0.099,-0.028,0.221,-0.048,0.112,0.242,-0.005,0.028,-0.034,0.025,-0.052,0.169,-1.394,-0.048,0.064,-0.107,0.187,-0.043,0.034,0.03,-0.232,0.054,0.044,0.023,-0.015,-0.112,0.038,0.15,-0.068,0.06,-0.056,-0.042,-0.133,0.15,-0.024,-0.024,0.02,1.057,0.02,-0.017,0.002,-0.146,-0.073,-0.022,0.004,0.261,0.045,0.004,-0.029,-0.125,-0.019,0.162,-0.013,-0.036,-0.079,0.01,-0.207,0.021,-0.016,0.012,0.013,0.05,0.001,-0.011,-0.02,-0.041,-0.056,-0.017,-0.316,-0.175,0.051,0.064,0.066,0.014,-0.009,-0.061,0.008,0.113,0.004,-0.041,0.031,0.065,-0.025,0.092,0.177,-0.043,-0.202,-0.075,-0.273,-0.337,0.018,-0.152,-0.032,-0.066,-0.018,-0.123,-0.037,-0.043,-0.049,-0.01,-0.307,0.026,0.021,0.128,0.054,-0.135,-0.033,-0.122,-0.085,0.111,-0.024,0.354,-0.353,-0.021,0.019,-0.022,0.547,-0.052,0.465,-0.038,-0.025,-0.024,0.04,0.013,0.01,0.059,0.376,-0.045,-0.049,-0.027,-0.051,-0.009,-0.034,0.697,-0.005,-0.048,-0.412,-0.046,-0.002,-0.017,-0.037,-0.039,-0.031,-0.022,-0.043,-0.158,-0.063,-0.057,0.033,-0.026,0.007,0.697,-0.06,-0.023,0.033,-0.026,-0.069,-0.047,-0.034,-0.006,-0.085,-0.093,0.072,-0.019,-0.014,-0.023,-0.173,-0.003,-0.101,-0.023,-0.096,0.011,-0.324,0.111,0.009,0.097,-0.361,0.397,0.02,0.14,0.003,-0.056,-0.352,0.548,0.072,-0.005,-0.016,-0.055,0.029,-0.025,-0.089,-0.347,0.028,0.025,-0.012,-0.035,-0.093,0.013,-0.135,-0.013,-0.061,-0.079,-0.071,0.038,0.425,-0.044,-0.011,-0.051,-0.013,-0.037,-1.355,0.009,-0.026,-0.03,-0.017,0.904,-0.056,-0.127,0.04,-0.091,0.091,-0.155,0.056,0.061,-0.1,0.109,-0.011,-0.051,-0.265,0.266,0.021,-0.13,-0.082,-0.094,0.013,0.034,-0.025,0.001,-0.315,0.09,-0.031,-0.097,0.016,0.052,-0.136,0.041},
                                 {-0.032,0.003,0.002,-1.222,-0.04,-0.004,-0.069,0.005,0.082,-0.036,-0.106,-0.013,0.106,-0.007,0.038,-0.263,0.005,0.019,0.223,0.006,-0.089,0.185,0.459,0.021,0.022,0.009,0.771,0.001,0.004,-0.032,-0.255,0.047,0.04,-0.038,-0.002,-0.052,0.024,0.107,-0.012,0.022,-0.151,-0.047,-0.121,-0.083,0.004,-0.052,0.074,-0.339,-0.011,0.081,-0.019,-0.069,-0.036,-0.064,0.049,0.235,-0.013,0.001,-0.005,-0.051,0.006,-0.113,0.015,0.027,-0.091,-0.029,-0.214,-0.035,0.027,-0.035,-0.021,-0.037,-0.139,0.026,-0.098,0.007,-0.14,0.14,0.835,-0.212,-0.298,0.094,0.017,-0.006,-0.033,-0.014,0.008,0.052,0.046,0.077,-0.061,0.079,0.002,-0.297,0.234,-0.033,-0.298,0.162,-0.146,-0.301,-0.094,-0.117,-0.052,-0.024,0.003,-0.112,0.011,0.031,-0.02,0.009,0.735,0.066,-0.004,0.148,-0.12,0.093,-0.004,-0.048,-0.068,0.063,-0.04,-1.002,-0.002,0.188,-0.059,0.008,-1.475,-0.058,0.448,-0.055,0.033,-0.042,-0.166,0.021,-0.023,0.021,0.314,-0.037,-0.081,-0.01,0.004,-0.001,-0.005,0.683,0.157,-0.036,-0.361,-0.005,-0.034,-0.001,-0.044,-0.041,-0.046,-0.04,0.025,-0.194,0.007,-0.024,0.076,-0.056,0.054,0.933,-0.081,-0.03,0.008,-0.02,-0.092,-0.047,-0.019,-0.064,-0.052,-0.186,0.079,-0.129,0.041,-0.038,-0.062,-0.035,-0.099,0.006,-0.138,-0.056,-0.447,0.116,-0.121,0.153,-0.295,0.501,0.031,0.296,-0.015,-0.027,-0.495,0.441,0.182,-0.014,0.007,-0.055,0.038,-0.012,-0.07,-0.088,-0.089,0.057,0.001,0.021,-0.079,-0.017,-0.013,0.013,-0.01,0.011,-0.076,-0.014,0.499,0.056,-0.033,-0.112,0.101,-0.034,0.217,0.063,-0.016,0.047,0.016,0.824,-0.105,-0.041,0.01,-0.038,0.322,-0.056,0.06,0.016,-0.005,-0.01,0.021,-0.141,-0.197,0.176,-0.044,-0.023,-0.097,-0.089,0.019,0.007,-0.076,0.009,-0.266,-0.062,-0.046,-0.117,0.025,-0.085,0.053,0.024},
                                 {-0.011,-0.111,0.03,0.007,-0.135,-0.016,-0.145,-0.04,-0.106,-0.006,-0.064,-0.054,-0.036,0.04,-0.055,-0.086,0.051,0.027,0.035,0.014,-0.01,-0.054,0.034,-0.02,-0.018,-0.021,0.009,0.022,-0.039,0.028,0.025,-0.125,0.034,0.0,0.018,0.015,-0.047,0.062,0.104,-0.537,-0.018,0.014,-0.039,0.033,-0.037,-0.016,0.042,0.013,-0.023,0.0,-0.012,0.011,0.213,-0.012,0.098,-0.118,0.032,-0.108,-0.166,-0.064,-0.137,0.057,0.066,0.05,0.162,0.016,0.027,-0.059,-0.001,-0.367,0.015,0.073,0.0,0.047,-0.066,-0.006,0.029,0.295,0.051,-0.129,0.156,0.134,0.034,0.139,0.018,-0.034,0.07,-0.053,0.033,0.058,0.222,0.029,0.052,0.076,0.258,-0.145,0.021,-0.032,0.079,0.119,-0.066,0.149,0.077,-0.053,-0.0,-0.019,0.005,0.433,0.041,0.042,0.035,0.096,0.02,-0.125,0.026,0.048,-0.094,-0.06,0.112,0.005,0.061,0.0,0.014,0.064,0.044,-0.04,-0.006,-0.013,-0.041,-0.128,-0.015,0.025,-0.021,0.009,-0.1,-0.019,0.059,0.077,0.029,0.026,0.016,0.066,-0.023,-0.035,0.092,-0.01,0.016,0.025,0.02,0.022,0.048,-0.162,0.057,0.068,-0.01,-0.033,-0.056,-0.025,0.076,0.01,-0.199,-0.039,-0.056,-0.054,0.008,0.077,-0.0,0.01,0.047,0.005,0.015,-0.01,0.004,0.053,-0.1,-0.024,0.359,-0.0,0.169,0.035,0.026,0.533,0.007,0.018,-0.05,0.032,0.061,0.013,0.012,-0.02,0.017,-0.041,0.008,-0.092,-0.063,-0.029,0.041,-0.02,0.052,-0.002,0.083,-0.043,0.067,0.093,-0.349,-0.019,0.023,-0.053,-0.067,0.005,-0.025,0.204,0.055,0.061,0.013,-0.07,0.047,0.004,-0.006,-0.039,0.024,0.414,-0.036,0.052,0.065,-0.004,-0.023,0.004,-0.095,0.258,-0.077,-0.035,0.096,-0.246,0.349,-0.005,0.013,-0.001,0.001,-0.061,0.078,-0.021,-0.051,0.095,0.045,-0.213,-0.006,-0.049,-0.021,-0.047,0.014,0.073,0.047,0.105,0.006,0.503},
                                 {0.046,0.03,-0.03,0.047,-0.068,0.022,-0.052,-0.048,0.016,-0.001,-0.044,-0.126,-0.02,0.026,-0.093,-0.022,0.049,-0.002,0.04,0.043,-0.002,-0.055,0.008,-0.089,0.013,-0.046,-0.007,0.063,-0.096,0.004,0.075,-0.046,0.036,0.034,0.052,-0.035,-0.027,0.059,-0.012,0.536,-0.018,0.005,0.104,-0.004,-0.036,-0.027,0.052,0.014,-0.027,0.019,0.039,-0.037,0.188,0.017,0.077,-0.056,0.107,-0.129,-0.056,-0.035,0.023,0.033,0.021,-0.077,0.123,0.001,0.044,-1.03,0.108,-0.095,-0.013,0.034,0.022,-0.013,0.007,0.01,0.012,-0.734,-0.007,-0.058,0.143,0.1,-0.051,-0.062,0.01,-0.127,0.04,-0.028,0.042,0.072,0.112,0.002,0.077,0.051,0.181,0.006,0.095,-0.029,0.073,-0.004,-0.018,0.105,0.039,-0.032,-0.008,0.008,0.008,0.211,0.035,0.049,-0.009,0.093,0.055,-0.111,-0.019,0.016,-0.073,-0.012,0.067,0.031,0.005,0.017,-0.042,0.04,0.026,0.059,0.067,0.037,-0.024,-0.006,0.004,0.03,-0.023,0.024,0.017,-0.08,0.052,0.055,0.049,0.006,-0.004,0.037,-0.03,-0.044,-0.01,0.01,-0.05,-0.091,0.049,-0.007,0.054,-0.005,0.043,0.087,-0.114,-0.103,0.018,-0.021,-0.012,0.024,-0.051,-0.039,0.007,-0.04,0.028,0.082,0.034,0.029,0.014,0.016,0.006,0.021,-0.13,0.032,-0.03,-0.024,0.364,0.066,0.085,0.062,0.095,-0.255,-0.053,0.041,-0.042,0.098,0.021,0.042,0.081,-0.048,0.091,-0.032,0.005,0.014,-0.068,0.023,0.032,-0.001,0.065,0.014,-0.039,0.027,-0.013,0.094,-0.15,-0.031,0.031,-0.01,0.024,-0.047,0.036,0.204,0.029,0.018,0.092,-0.039,0.048,0.05,-0.076,-0.043,0.048,0.289,-0.007,0.05,0.03,-0.008,-0.057,-0.016,-0.009,-0.918,-0.069,-0.029,0.046,-0.149,0.109,0.048,0.016,0.03,0.008,-0.066,0.039,0.083,-0.095,0.005,0.035,-0.26,0.071,-0.031,-0.026,0.044,0.011,0.059,0.015,-0.03,-0.078,0.459},
                                 {0.043,0.252,0.043,0.045,-0.079,0.028,-0.04,-0.02,-0.107,0.012,-0.064,-0.075,-0.003,0.004,-0.147,-0.014,0.01,0.013,0.054,0.02,-0.047,-0.035,0.017,-0.047,0.025,0.002,-0.023,0.024,-0.033,0.009,0.037,-0.04,0.056,0.018,0.048,0.057,0.02,0.054,0.049,-0.396,-0.023,0.007,0.052,0.026,-0.023,-0.032,0.167,0.018,-0.015,0.019,-0.071,-0.021,0.422,-0.016,0.023,-0.079,-0.035,-0.156,-0.062,-0.065,0.172,0.039,0.114,0.025,0.185,-0.113,0.081,0.342,-0.001,-0.308,-0.01,0.138,0.017,-0.027,0.018,0.055,0.059,0.124,0.056,-0.134,0.026,0.096,0.049,0.236,0.06,-0.035,-0.089,-0.048,0.018,-0.052,0.246,0.048,0.031,0.048,0.241,0.059,0.132,-0.046,0.087,0.109,-0.049,0.1,0.034,-0.072,0.018,0.008,0.059,0.555,0.066,0.095,0.017,0.062,0.051,-0.025,0.031,0.034,-0.077,-0.098,-0.05,0.047,0.013,-0.034,0.077,0.129,0.049,0.012,0.009,0.064,-0.061,-0.08,0.042,-0.021,-0.003,0.032,0.011,-0.036,-0.006,0.031,0.002,-0.148,-0.114,0.097,-0.097,-0.013,0.083,-0.024,-0.017,-0.138,0.043,0.008,0.063,-0.009,-0.004,0.03,0.015,0.019,0.019,-0.055,0.095,-0.06,-0.017,0.007,-0.036,-0.044,-0.149,0.096,0.055,-0.13,-0.151,-0.062,-0.004,0.022,-0.002,0.063,0.015,-0.149,0.422,0.056,0.223,0.082,0.066,-0.284,-0.01,0.11,-0.065,0.152,0.048,-0.031,0.095,-0.065,0.047,-0.01,0.018,-0.084,0.006,0.009,-0.012,0.049,0.027,0.031,-0.071,-0.002,-0.009,0.152,-0.36,-0.074,0.001,-0.04,0.014,0.096,0.059,0.248,-0.009,0.053,0.022,-0.098,0.029,0.086,-0.062,0.021,0.019,0.313,0.009,0.031,0.088,0.039,-0.047,-0.02,0.069,0.257,-0.07,-0.021,0.097,-0.378,-0.389,0.062,0.019,0.083,0.036,-0.065,-0.016,0.049,-0.05,0.063,-0.113,0.621,-0.022,-0.016,0.003,0.009,0.011,0.052,0.046,0.123,0.008,0.436},
                                 {0.002,0.003,0.001,0.054,-0.057,0.018,-0.053,-0.076,-0.103,0.032,-0.054,-0.032,-0.001,0.052,-0.022,-0.005,0.086,-0.148,0.01,0.004,-0.038,-0.036,0.074,-0.03,0.011,-0.015,0.038,0.004,-0.042,0.015,0.063,-0.037,-0.003,0.023,0.035,0.005,-0.09,0.085,0.059,-0.205,0.002,-0.024,0.034,0.018,-0.051,-0.005,0.056,-0.013,-0.01,0.039,0.024,-0.128,-1.256,-0.007,0.139,-0.146,0.063,-0.171,-0.037,-0.077,0.028,-0.019,0.02,-0.025,0.218,0.015,0.116,-0.001,0.029,-0.145,-0.018,0.018,0.022,0.002,0.013,0.016,0.027,-0.14,0.017,-0.138,0.158,0.184,-0.058,0.104,0.057,-0.045,0.047,-0.059,0.016,0.026,0.17,-0.065,0.058,0.081,0.213,0.003,0.073,-0.001,0.016,0.09,0.065,0.132,0.067,-0.069,-0.12,0.039,-0.068,0.222,0.03,0.035,-0.01,0.075,0.052,-0.099,-0.001,0.031,-0.02,-0.033,0.017,0.041,0.025,0.029,-0.014,-0.013,0.044,-0.023,0.067,0.041,-0.028,-0.182,0.009,-0.002,0.002,0.018,0.013,0.019,0.058,0.067,0.031,-0.003,0.025,-0.065,-0.037,-0.064,0.039,0.013,-0.009,-0.025,0.01,0.003,0.082,-0.039,0.023,0.102,-0.012,-0.077,0.205,-0.038,0.04,0.043,-0.058,-0.006,-0.061,-0.03,-0.018,0.062,0.063,0.01,0.02,-0.036,-0.008,-0.018,-0.045,0.038,-0.031,0.005,0.453,0.064,0.176,0.047,0.076,0.702,-0.038,0.113,-0.052,0.063,0.035,0.044,0.055,-0.095,0.071,-0.027,-0.012,-0.018,-0.111,-0.012,0.023,0.025,-0.01,-0.012,0.056,0.046,0.0,0.085,-0.096,-0.062,-0.066,-0.057,-0.022,0.033,0.079,0.099,0.041,0.04,0.068,-0.073,0.036,0.104,0.02,-0.048,0.057,0.229,-0.046,0.018,-0.119,-0.009,-0.058,0.017,-0.001,0.13,-0.081,-0.01,0.043,0.636,-0.162,0.037,-0.021,0.035,-0.039,-0.073,-0.05,-0.063,-0.077,0.047,0.007,-0.157,0.028,-0.042,-0.02,0.034,-0.028,0.028,-0.01,-0.069,-0.012,-0.13},
                                 {-0.007,0.076,0.029,0.0,-0.042,-0.027,-0.004,-0.047,-0.068,-0.005,-0.152,-0.056,0.02,0.019,-0.245,-0.012,0.075,-0.033,0.013,0.023,-0.029,-0.102,0.019,-0.037,0.088,-0.006,-0.04,0.026,-0.016,0.081,0.11,-0.011,0.031,0.024,0.073,0.034,-0.081,0.122,-0.041,0.6,0.019,-0.041,0.084,0.056,-0.012,0.0,0.094,-0.129,-0.084,0.063,0.112,-0.008,-0.619,-0.04,0.019,-0.254,0.005,-0.236,-0.045,-0.09,0.057,-0.022,0.038,-0.029,0.145,0.026,0.079,-0.451,-0.007,-0.363,0.035,0.1,0.038,-0.026,-0.005,0.073,0.076,-0.015,-0.106,-0.272,0.056,0.201,0.003,0.323,0.039,-0.06,0.074,-0.11,0.038,0.007,0.211,0.015,0.053,0.083,0.355,0.066,0.04,-0.065,0.032,0.095,0.061,0.04,0.034,-0.073,-0.027,0.03,0.031,0.619,0.066,0.112,-0.094,0.054,0.058,-0.227,0.012,0.067,-0.025,0.017,-0.035,0.086,-0.007,-0.051,0.083,0.136,0.048,-0.041,-0.035,0.009,-0.133,-0.177,-0.034,0.004,0.012,-0.056,-0.012,-0.012,-0.009,0.068,-0.017,0.06,0.02,0.048,-0.01,-0.055,-0.024,0.014,-0.034,-0.054,0.058,0.054,0.062,-0.015,0.046,0.132,0.058,-0.085,-0.055,-0.061,0.018,-0.002,0.012,-0.063,-0.091,-0.038,0.03,-0.006,0.046,0.008,0.021,-0.028,0.012,0.012,0.011,0.105,-0.053,0.029,0.341,0.041,0.2,0.051,0.081,-0.626,-0.19,0.039,-0.157,0.175,-0.104,0.002,0.047,-0.17,0.107,0.005,-0.119,-0.063,-0.127,-0.007,0.007,-0.052,0.043,-0.013,0.136,-0.103,0.092,0.043,-0.419,-0.061,-0.009,-0.021,0.06,0.017,-0.004,0.114,-0.022,0.01,0.047,-0.142,0.059,0.023,-0.16,0.016,0.059,0.393,-0.049,0.057,0.072,-0.118,-0.109,-0.004,0.06,-0.845,-0.169,-0.038,0.091,0.734,-0.165,0.128,-0.017,0.045,-0.057,-0.049,0.068,-0.125,-0.229,0.067,0.062,-0.532,-0.061,-0.008,-0.018,0.012,0.044,0.038,0.069,0.229,-0.028,-0.14},
