#ifndef UTTT2_PARAMETERS_H
#define UTTT2_PARAMETERS_H

float hiddenWeights[128][190] = {{-0.06855016201734543f,-0.09389990568161011f,-0.03808002918958664f,-0.044590193778276443f,-0.8231074213981628f,0.23557493090629578f,-0.1534445881843567f,-0.07652641087770462f,-0.1257266402244568f,-0.116477370262146f,0.05553572252392769f,0.04450136795639992f,0.0036803411785513163f,-0.10570205003023148f,0.01919468492269516f,0.02736809104681015f,0.03751707449555397f,-0.02671670913696289f,0.022252842783927917f,-0.010957260616123676f,0.06616631895303726f,0.005605896003544331f,0.00022136415645945817f,0.03180740401148796f,0.056440968066453934f,0.07059367001056671f,0.03558001667261124f,-0.03851018473505974f,-0.057979729026556015f,0.08392699807882309f,0.002993231173604727f,-0.07904105633497238f,-0.09075326472520828f,-0.03909224644303322f,0.07222861051559448f,0.09562265872955322f,-0.0693579688668251f,0.03479916974902153f,0.07241884618997574f,0.03665154054760933f,-0.12098828703165054f,-0.11638439446687698f,-0.03017914853990078f,0.007335698697715998f,-0.013068311847746372f,-0.1571751981973648f,-0.09664759039878845f,0.06252266466617584f,0.13585731387138367f,-0.6131647825241089f,-0.19130663573741913f,-0.05234681814908981f,-0.16380058228969574f,-0.07909338921308517f,0.2590743601322174f,0.24666371941566467f,0.4257776737213135f,0.27644264698028564f,0.3825784921646118f,-0.1691155582666397f,0.38111943006515503f,0.280685693025589f,0.37830084562301636f,-0.0008597889682278037f,0.004664321430027485f,0.1296786516904831f,0.09171441942453384f,-0.05000181868672371f,-0.012775735929608345f,0.008032634854316711f,0.00033507298212498426f,0.03140897676348686f,-0.034047603607177734f,0.031041614711284637f,0.03108198195695877f,-0.043682973831892014f,-0.07107855379581451f,-0.05080540478229523f,0.003578729694709182f,-0.04285663738846779f,0.029997145757079124f,-0.14027652144432068f,0.0020034874323755503f,0.07023970782756805f,-0.04198791831731796f,-0.22271670401096344f,-0.16047517955303192f,-0.175983726978302f,-0.03770711272954941f,-0.0036442396230995655f,0.3411533534526825f,0.28847309947013855f,0.15974895656108856f,0.2330246865749359f,0.18398207426071167f,2.576411247253418f,0.07297280430793762f,0.260341078042984f,0.22954203188419342f,0.010867404751479626f,0.029320964589715004f,0.052885401993989944f,-0.01088701467961073f,0.16312959790229797f,0.14368335902690887f,0.12351197004318237f,0.0904635563492775f,0.08462421596050262f,0.0734284520149231f,-0.1461581140756607f,-0.010551800951361656f,-0.06297791749238968f,0.03672219440340996f,0.04621534049510956f,-0.0317012183368206f,0.018195997923612595f,-0.030682573094964027f,0.025799164548516273f,0.006411627866327763f,0.036792270839214325f,-0.12165853381156921f,-0.0054943859577178955f,-0.022062042728066444f,0.0026528455782681704f,0.05018015578389168f,0.07130792737007141f,0.1175386905670166f,0.02289281226694584f,0.0019131931476294994f,0.030197322368621826f,0.029001804068684578f,0.013457787223160267f,0.07462077587842941f,0.0666915699839592f,0.11188241094350815f,0.1323642134666443f,0.11870981752872467f,0.1146734356880188f,0.1415635496377945f,-0.45791733264923096f,0.11905001848936081f,0.1907012164592743f,0.1691773682832718f,0.13797767460346222f,-0.23324884474277496f,-0.18036754429340363f,-0.19567444920539856f,-0.2092239260673523f,-0.4149755537509918f,-0.5205122232437134f,-0.22911337018013f,-0.16398952901363373f,-0.24064500629901886f,0.12478369474411011f,0.042103540152311325f,0.05196702107787132f,-0.05610679090023041f,0.15521235764026642f,0.13163790106773376f,-0.0678393617272377f,0.09414317458868027f,0.036218058317899704f,0.02092125080525875f,-0.020179791375994682f,-0.022728990763425827f,-0.08453712612390518f,0.06050056219100952f,0.0454140231013298f,-0.05923759192228317f,-0.046242766082286835f,-0.0040891217067837715f,0.1865912675857544f,0.1125309020280838f,0.07824454456567764f,0.01895170845091343f,0.08797896653413773f,0.03721773996949196f,0.10142426192760468f,0.11463015526533127f,0.13294926285743713f,-0.18902336061000824f,-0.10098600387573242f,-0.06753488630056381f,-0.138344869017601f,-0.04686358571052551f,-0.06023159995675087f,-0.07722046226263046f,-0.14472682774066925f,-0.09647441655397415f,-0.08999896049499512f},
{0.0224794652312994f,0.5269885659217834f,-0.08557255566120148f,-0.045910097658634186f,0.3055107891559601f,-0.08411110192537308f,0.13691414892673492f,0.6355217099189758f,0.01975153759121895f,-0.10126547515392303f,-0.08820830285549164f,0.026345252990722656f,0.023467788472771645f,-0.07623692601919174f,0.05903079733252525f,0.08600854873657227f,-0.05301128327846527f,0.08905094116926193f,0.26178428530693054f,0.1707368791103363f,0.33919015526771545f,0.12294605374336243f,0.4014333188533783f,0.14017744362354279f,0.3098912239074707f,0.09750471264123917f,0.3312154710292816f,-0.04063539206981659f,-0.21670201420783997f,-0.08235038071870804f,-0.008034669794142246f,-0.1521708071231842f,-0.013389749452471733f,0.03653090447187424f,-0.06266297399997711f,0.016333000734448433f,-0.038502518087625504f,-0.15931390225887299f,-0.04669797420501709f,-0.0989195927977562f,-0.2045888751745224f,-0.03951181098818779f,0.0011699425522238016f,-0.16415858268737793f,-0.07176358997821808f,0.1583542376756668f,0.12993967533111572f,0.22727340459823608f,0.22475776076316833f,-0.25584375858306885f,0.17422157526016235f,0.27337679266929626f,0.1994190216064453f,0.3231884241104126f,-0.06256817281246185f,-0.09186091274023056f,-0.04004521667957306f,-0.07013072818517685f,-0.14388135075569153f,-0.07624832540750504f,-0.03530384972691536f,-0.14741456508636475f,-0.023476293310523033f,-0.01252834778279066f,-0.020537735894322395f,0.06472698599100113f,-0.010619164444506168f,-0.08197525888681412f,0.05204153433442116f,-0.08408893644809723f,-0.12157320231199265f,0.06632934510707855f,0.1747833490371704f,0.031187670305371284f,0.22636176645755768f,0.1437152922153473f,0.4164181053638458f,0.09098201245069504f,0.26311224699020386f,0.06367240846157074f,0.2293231040239334f,-0.05557214468717575f,-0.052621591836214066f,-0.0650685578584671f,-0.08030234277248383f,-0.1518498808145523f,-0.0451095886528492f,-0.021531661972403526f,-0.21345610916614532f,-0.1410149335861206f,0.18981599807739258f,-1.5871105194091797f,0.23423035442829132f,0.2441786676645279f,-1.0220249891281128f,0.265453964471817f,0.0748806744813919f,-1.6459730863571167f,0.2565191686153412f,-0.011277375742793083f,0.08754311501979828f,0.1285298764705658f,0.12986044585704803f,0.1198546290397644f,0.1551547646522522f,0.08059613406658173f,0.19404341280460358f,0.18289196491241455f,-0.1980527937412262f,0.15302324295043945f,-0.172870472073555f,0.025680629536509514f,-0.03376734256744385f,0.029511447995901108f,-0.3104987144470215f,0.07448192685842514f,-0.09709175676107407f,0.06852708011865616f,0.0676625594496727f,0.003311955137178302f,0.0798330008983612f,0.09365903586149216f,0.11006995290517807f,0.06366614252328873f,0.07675071805715561f,0.08337533473968506f,0.005187273025512695f,0.07659942656755447f,0.07133929431438446f,0.05973620340228081f,0.09132441133260727f,0.08973921090364456f,-0.009437772445380688f,0.13286273181438446f,0.10319335758686066f,-0.2096678465604782f,-0.16703170537948608f,-0.14229369163513184f,-0.15956686437129974f,-0.8294062614440918f,-0.17347818613052368f,-0.22847643494606018f,-0.06767702102661133f,-0.10758885741233826f,-0.007901430130004883f,0.038905300199985504f,0.01691928505897522f,0.050279729068279266f,0.024375606328248978f,-0.036255061626434326f,0.06651042401790619f,0.09605489671230316f,0.06803318113088608f,0.07971850037574768f,0.04725394770503044f,0.15055792033672333f,0.165085569024086f,0.12205900251865387f,0.1253211498260498f,-0.07392802834510803f,0.18938149511814117f,0.10083752870559692f,-0.1298445165157318f,-0.0364588238298893f,-0.10840148478746414f,0.006271813530474901f,-0.09232694655656815f,-0.04205876961350441f,-0.18068967759609222f,0.15738914906978607f,-0.012339325621724129f,0.04913776367902756f,0.058870650827884674f,0.0874406024813652f,0.13772274553775787f,0.06898345053195953f,0.11616168916225433f,0.05778094753623009f,0.16222956776618958f,-0.006562578026205301f,-0.2730618715286255f,0.3065592348575592f,-0.3688145875930786f,-0.3880346417427063f,0.3083345293998718f,-0.41200122237205505f,-0.3304733633995056f,0.2437662035226822f,-0.384286493062973f,0.1809234619140625f},
{0.10465504229068756f,-0.09033149480819702f,-0.023279039189219475f,-0.05446784570813179f,0.4797596335411072f,-0.02661506086587906f,0.004171760752797127f,-0.02976417914032936f,0.12304316461086273f,0.1298651248216629f,0.005074488930404186f,0.09501168131828308f,0.00390665652230382f,0.009427368640899658f,0.04421481490135193f,0.05514279007911682f,0.06778157502412796f,0.10684771090745926f,0.030977562069892883f,-0.015010946430265903f,0.00032104208366945386f,-0.047788556665182114f,-0.09865553677082062f,-0.017218200489878654f,-0.004488642793148756f,-0.021556982770562172f,0.08031031489372253f,-0.017413105815649033f,-0.0644199401140213f,-0.0053335982374846935f,-0.05730228126049042f,-0.11026622354984283f,-0.03656834736466408f,-0.03418859839439392f,-0.02951952815055847f,0.019548481330275536f,0.06074608489871025f,0.009519824758172035f,0.051023632287979126f,0.0033659853506833315f,-0.05284576863050461f,0.01936667039990425f,0.016429102048277855f,0.0026244509499520063f,0.11691422015428543f,-1.1108207702636719f,0.24925346672534943f,-0.03315167501568794f,0.22530852258205414f,0.0562664158642292f,0.26807233691215515f,-0.10789081454277039f,0.2407839149236679f,-1.0752720832824707f,0.051410794258117676f,-0.022081617265939713f,0.005557154305279255f,-0.04581185057759285f,-0.06804528832435608f,0.006844169460237026f,0.006949852220714092f,-0.0094121303409338f,0.08688759803771973f,-0.009675020352005959f,-0.03773776814341545f,0.020697638392448425f,-0.06228132173418999f,-0.08657888323068619f,-0.02899923548102379f,-0.03816128149628639f,-0.05334973707795143f,0.03741355612874031f,0.08486199378967285f,-0.028807807713747025f,0.0251026451587677f,-0.01658526249229908f,-0.08465109765529633f,0.005232927855104208f,-0.0036048581823706627f,0.02768922969698906f,0.08087359368801117f,0.06045209616422653f,-0.011454083025455475f,0.050792109221220016f,-0.02540755271911621f,-0.008944181725382805f,0.0011397120542824268f,0.019789624959230423f,-0.010793051682412624f,0.1406141072511673f,-0.07180401682853699f,0.07793515920639038f,0.2256460040807724f,0.0469188317656517f,-0.513188898563385f,0.008031737059354782f,0.19659002125263214f,0.013977546244859695f,-0.041851531714200974f,-0.10086450725793839f,-0.06931238621473312f,-0.08518269658088684f,-0.10339581221342087f,-0.10240903496742249f,-0.07584396749734879f,-0.07549108564853668f,-0.08348813652992249f,-0.10008522868156433f,-0.016459275037050247f,0.04502413794398308f,0.030558520928025246f,0.005038050003349781f,0.041552476584911346f,0.031011145561933517f,0.024822289124131203f,0.013856731355190277f,0.018782667815685272f,-0.025884289294481277f,-0.009605309925973415f,0.023258747532963753f,-0.026680540293455124f,0.019111664965748787f,-0.0009512832039035857f,0.004755518864840269f,-0.04011651501059532f,-0.008290257304906845f,-0.010047237388789654f,0.010552328079938889f,0.01753677986562252f,0.011567730456590652f,0.028883857652544975f,0.03671157360076904f,0.03876745328307152f,-0.0047622001729905605f,0.009468105621635914f,0.7087198495864868f,-0.28569287061691284f,0.13340313732624054f,-0.22059708833694458f,-0.42491602897644043f,-0.28157883882522583f,0.18381230533123016f,-0.22463802993297577f,0.755594789981842f,-0.040898945182561874f,0.009569275192916393f,0.014332250691950321f,-0.0046603064984083176f,0.006692929193377495f,0.02538295090198517f,0.009581482037901878f,-0.012268882244825363f,-0.007502018008381128f,-0.018254969269037247f,-0.00022763184097129852f,0.0010592072503641248f,-0.02879743091762066f,0.054533280432224274f,-0.0045450651086866856f,0.04109390452504158f,-0.01471152063459158f,0.002751532243564725f,-0.04305793344974518f,0.0026984980795532465f,-0.007265023421496153f,-0.02776309661567211f,0.006835028994828463f,-0.004589882679283619f,0.015080941841006279f,0.01985754258930683f,-0.0034262409899383783f,-0.1415788233280182f,-0.09625526517629623f,-0.12887336313724518f,-0.13253666460514069f,-0.11994434148073196f,-0.12309253960847855f,-0.13209564983844757f,-0.11640964448451996f,-0.10839163511991501f,-0.11335817724466324f,-0.1961694210767746f,-0.22002559900283813f,-0.16281315684318542f,0.698922336101532f,-0.1891040802001953f,-0.22222104668617249f,-0.1897421032190323f,-0.1498330533504486f,0.12062585353851318f},
{-0.07816506922245026f,0.02335995063185692f,0.2236032634973526f,0.039751194417476654f,-0.353305846452713f,-0.006263216957449913f,0.07740937918424606f,-0.04875001683831215f,-0.09158100187778473f,-0.02704629860818386f,-0.08339010924100876f,-0.017589669674634933f,0.011831789277493954f,-0.054988037794828415f,0.005995375104248524f,0.011276163160800934f,-0.014727109111845493f,-0.08848066627979279f,-0.01853857934474945f,-0.03282191604375839f,0.036269161850214005f,0.027765780687332153f,0.013926737941801548f,0.026741215959191322f,0.03920513764023781f,0.013981123454868793f,-0.034632597118616104f,0.0013093455927446485f,-0.012040977366268635f,0.018646981567144394f,0.03451664745807648f,0.04178010672330856f,0.07226893305778503f,0.07056981325149536f,0.017749549821019173f,-0.03770821541547775f,0.012267895974218845f,0.030388835817575455f,0.06755910068750381f,0.07243464887142181f,0.03923175111413002f,0.09438736736774445f,0.05687543377280235f,0.039244815707206726f,-0.009753677062690258f,0.22300870716571808f,0.1970912516117096f,-1.0726512670516968f,0.24229657649993896f,-1.1601415872573853f,0.26611438393592834f,-1.0939948558807373f,0.22704806923866272f,0.18856266140937805f,-0.01715872995555401f,-0.03555704280734062f,0.021719736978411674f,0.01306571438908577f,-0.01871274597942829f,0.009890972636640072f,0.03428960591554642f,0.000518163840752095f,-0.06347106397151947f,0.06016342714428902f,-0.008838686160743237f,0.03958156704902649f,0.08012088388204575f,0.0041180020198225975f,0.08876803517341614f,0.03973480314016342f,0.04238574206829071f,0.018886415287852287f,0.013635583221912384f,-0.016394231468439102f,0.05140792950987816f,0.035197917371988297f,0.024432865902781487f,0.05679813027381897f,0.06891030818223953f,0.030785731971263885f,-0.025616183876991272f,-0.07275272905826569f,-0.053481023758649826f,-0.020570877939462662f,0.005030098371207714f,-0.08069518953561783f,0.0119670070707798f,0.004790213890373707f,-0.01775386370718479f,-0.11890549957752228f,0.045502614229917526f,0.19128429889678955f,-0.1363222599029541f,0.06216510385274887f,-0.037265826016664505f,0.09694741666316986f,-0.11329066753387451f,0.13157103955745697f,0.11244194209575653f,0.04240615293383598f,0.04480466619133949f,0.05280632898211479f,-0.025121957063674927f,-0.04521332308650017f,0.03499231114983559f,0.05136517435312271f,0.017720451578497887f,0.04168526828289032f,0.037685491144657135f,0.02904195338487625f,0.061244964599609375f,-0.006154760718345642f,-0.04060865193605423f,0.04381072148680687f,0.054837290197610855f,0.010014638304710388f,0.034344468265771866f,-0.06044785678386688f,-0.04445881024003029f,-0.06937500834465027f,-0.10390986502170563f,-0.1741848886013031f,-0.03722069784998894f,-0.023607121780514717f,-0.05779199302196503f,-0.017593907192349434f,-0.0191851444542408f,-0.006591928191483021f,-0.003923102747648954f,-0.06251933425664902f,-0.08254483342170715f,0.000505600415635854f,0.006246495991945267f,-0.046864960342645645f,0.0032012148294597864f,-0.22711649537086487f,-0.1277390420436859f,0.4250339865684509f,-0.2231420874595642f,0.5864220261573792f,-0.09827017784118652f,0.396501362323761f,-0.17383161187171936f,-0.24790145456790924f,-0.06705014407634735f,-0.03379298374056816f,-0.014363225549459457f,-0.07136806100606918f,-0.12319640815258026f,-0.04130103811621666f,-0.0182455163449049f,-0.06886888295412064f,0.009173600003123283f,-0.05133914202451706f,-0.04149523377418518f,-0.005114433355629444f,-0.07077138870954514f,-0.12872016429901123f,-0.019630316644906998f,-0.08969460427761078f,-0.041068241000175476f,-0.01703682169318199f,-0.025885408744215965f,0.014477351680397987f,0.02224564738571644f,-0.035357605665922165f,-0.057552486658096313f,0.022038403898477554f,0.012978719547390938f,-0.03542754799127579f,0.030211875215172768f,0.055730774998664856f,0.06558540463447571f,0.14762139320373535f,0.01266446802765131f,0.03547356277704239f,0.0795634388923645f,0.13050240278244019f,0.027045834809541702f,0.07396526634693146f,-0.11950565129518509f,-0.07604844868183136f,-0.050561871379613876f,-0.04494748264551163f,0.0946354940533638f,-0.09205067902803421f,-0.0531151108443737f,-0.04797455668449402f,-0.11228501796722412f,-0.11343958973884583f},
{0.004606003873050213f,0.004845084622502327f,-0.1660073697566986f,0.04043196514248848f,-0.02001466229557991f,-0.6053560972213745f,0.028594976291060448f,-0.08568838238716125f,-0.12140221893787384f,-0.035050228238105774f,0.029512247070670128f,0.03164779394865036f,0.02033441886305809f,0.04787508770823479f,0.07389163225889206f,0.033746059983968735f,0.06648332625627518f,-0.011939319781959057f,-0.06349523365497589f,0.02861608937382698f,-0.010084088891744614f,-0.011483106762170792f,-0.04439206421375275f,0.01774727925658226f,-0.05769244581460953f,0.051669586449861526f,-0.031317342072725296f,-0.08001513034105301f,-0.028673205524683f,-0.01922481693327427f,-0.024745794013142586f,-0.10082323849201202f,-0.02265842631459236f,-0.045550115406513214f,-0.027295272797346115f,-0.031202200800180435f,0.003004052210599184f,-0.005290700122714043f,-0.0008719789911992848f,-0.06456366181373596f,0.07901901006698608f,0.05298366770148277f,0.0032382565550506115f,0.013847257941961288f,0.007413011509925127f,-0.02550392784178257f,-0.005619119852781296f,-0.0051307049579918385f,0.10913245379924774f,-0.3263700604438782f,0.009708112105727196f,-0.0012366852024570107f,0.019995104521512985f,-0.01662425510585308f,0.23238706588745117f,0.2414814829826355f,0.5601403117179871f,-0.597322404384613f,-0.41295620799064636f,-0.6464399695396423f,0.174631267786026f,0.23585405945777893f,0.45445236563682556f,-0.0020867919083684683f,0.03500112518668175f,0.015325267799198627f,0.00042789196595549583f,-0.028919965028762817f,0.045569900423288345f,0.006789263803511858f,0.001524768304079771f,0.0075745610520243645f,0.016903415322303772f,0.04830551519989967f,0.022503184154629707f,0.029019728302955627f,0.05367356911301613f,0.07030220329761505f,0.048272136598825455f,0.04071487858891487f,0.01519869826734066f,-0.07104222476482391f,0.01822463795542717f,-0.008924233727157116f,0.026179945096373558f,-0.052183326333761215f,0.02098037675023079f,-0.03870271146297455f,0.01853160560131073f,0.029028980061411858f,0.016431283205747604f,0.10546305775642395f,0.29356569051742554f,-0.09379809349775314f,-0.23780027031898499f,0.011772191151976585f,-0.06511159241199493f,0.05074467882514f,0.12927299737930298f,-0.0040925475768744946f,0.039480239152908325f,0.08586565405130386f,0.06799936294555664f,-0.0321245975792408f,-0.05456933751702309f,0.031528279185295105f,0.00974628422409296f,0.03571797162294388f,-0.04410382732748985f,0.03026910312473774f,-0.015039811842143536f,-0.05866069346666336f,-0.037851590663194656f,-0.11396883428096771f,-0.07540298998355865f,-0.026291705667972565f,0.015117798000574112f,0.04178725183010101f,0.1286502629518509f,0.10288555175065994f,0.02512320876121521f,0.015155882574617863f,-0.03997133672237396f,-0.038535088300704956f,0.019048338755965233f,0.08513229340314865f,-0.041018296033144f,-0.022043537348508835f,-0.041817981749773026f,-0.09521757066249847f,-0.09271439909934998f,-0.17972412705421448f,-0.03072248585522175f,-0.04343242198228836f,-0.016920268535614014f,0.02594243362545967f,0.07911016792058945f,0.06334438920021057f,0.06875316798686981f,-0.2963370382785797f,-0.0823807492852211f,0.07325191050767899f,0.01792282797396183f,-0.00765657564625144f,0.004033212549984455f,-0.15013213455677032f,-0.5912984609603882f,0.3498002290725708f,0.4011666774749756f,0.22566206753253937f,0.05170978233218193f,-0.16191314160823822f,-0.5153181552886963f,0.017399847507476807f,-0.03360222652554512f,0.022220980376005173f,0.03657373785972595f,-0.04255062714219093f,-0.10226520150899887f,0.03749219328165054f,-0.0163368321955204f,0.007929912768304348f,-0.0025398966390639544f,-0.006335526239126921f,-0.03798338398337364f,-0.08525007963180542f,-0.06367326527833939f,-0.0915076732635498f,-0.05977649241685867f,-0.04903920739889145f,-0.022963574156165123f,0.05050232633948326f,0.029093990102410316f,0.08141093701124191f,0.01409707497805357f,0.030333902686834335f,-0.032316796481609344f,0.060965023934841156f,0.06800151616334915f,0.08888906985521317f,-0.056366708129644394f,-0.06469666957855225f,-0.07696253061294556f,-0.005308272782713175f,0.0039825341664254665f,-0.21654172241687775f,-0.030762795358896255f,-0.012166881002485752f,-0.0743638277053833f,0.030119141563773155f},
{0.12330906093120575f,0.07354235649108887f,0.24737560749053955f,0.12210258841514587f,-0.14986103773117065f,0.15925122797489166f,0.2718099355697632f,0.026213277131319046f,0.017902785912156105f,-0.018162405118346214f,-0.029189208522439003f,-0.018385693430900574f,-0.014979631640017033f,0.018085522577166557f,0.004588917829096317f,-0.01851169392466545f,0.01769344136118889f,-0.009165878407657146f,-0.04404526948928833f,-0.09559109061956406f,-0.042559996247291565f,-0.09218420833349228f,-0.04762395843863487f,-0.0441904291510582f,-0.052230339497327805f,-0.04333509877324104f,-0.03209090232849121f,-0.013398622162640095f,-0.031623970717191696f,-0.014746183529496193f,-0.017542432993650436f,0.022412847727537155f,0.01679280400276184f,0.02163487859070301f,0.008092716336250305f,-0.00315600773319602f,0.0017220654990524054f,-0.005452441982924938f,-0.02622167393565178f,-0.05913036689162254f,-0.018707089126110077f,-0.002483976539224386f,-0.007049103733152151f,-0.022017644718289375f,0.0024504056200385094f,-0.39978745579719543f,-0.29258430004119873f,-0.2871432304382324f,-0.061507698148489f,-1.082809567451477f,-0.05415480583906174f,0.5951160192489624f,0.7160264253616333f,0.7570774555206299f,0.05660849064588547f,0.03800251707434654f,0.05235039442777634f,0.0384325236082077f,0.09398726373910904f,0.05943667143583298f,0.07055001705884933f,0.08670025318861008f,0.08936183154582977f,-0.006022565066814423f,-0.022767620161175728f,-0.003192607779055834f,-0.016506291925907135f,0.026747584342956543f,0.004408374894410372f,-0.050917092710733414f,0.012462356127798557f,0.010342096909880638f,-0.035159215331077576f,-0.043894827365875244f,-0.04815514013171196f,-0.049403730779886246f,-0.050168219953775406f,-0.00935483817011118f,-0.036888014525175095f,-0.0252509918063879f,-0.013676341623067856f,0.05674587935209274f,0.01036913599818945f,0.03487486019730568f,0.004763460718095303f,0.05885656177997589f,0.028084013611078262f,0.03219212591648102f,0.03983800858259201f,0.00044214376248419285f,0.061761703342199326f,0.06702078133821487f,0.04674111306667328f,0.0004521111841313541f,-1.037280797958374f,-0.027731625363230705f,-0.05759800598025322f,-0.12237247079610825f,-0.1396222561597824f,0.021265337243676186f,0.07528083026409149f,0.026396511122584343f,0.045794229954481125f,0.04685268923640251f,-0.027518872171640396f,0.033002257347106934f,0.08225136250257492f,0.013600917533040047f,0.03621729463338852f,0.08349744230508804f,0.03164718300104141f,0.07692946493625641f,0.056400980800390244f,0.0073270369321107864f,0.07817858457565308f,0.10777828842401505f,0.055139463394880295f,0.022195549681782722f,0.06486368179321289f,0.02289516106247902f,0.05698910728096962f,0.03250204399228096f,-0.033441610634326935f,0.03675692901015282f,0.06548242270946503f,0.021859385073184967f,0.01872706599533558f,0.09342846274375916f,0.04408108815550804f,0.04325985163450241f,0.030332423746585846f,-0.01709170639514923f,0.059211380779743195f,0.09937317669391632f,0.04706370458006859f,0.4091956615447998f,0.3609110713005066f,0.22793687880039215f,0.1891770213842392f,0.08772358298301697f,0.08838437497615814f,-1.0855196714401245f,-1.2776086330413818f,-1.1929638385772705f,0.011558819562196732f,0.04823441803455353f,-0.015598057769238949f,0.018998920917510986f,-0.00199098396115005f,-0.05758735164999962f,0.015654223039746284f,0.04805846884846687f,-0.013409171253442764f,0.023686746135354042f,0.04181447997689247f,0.01667139306664467f,0.03289816528558731f,0.02009754627943039f,-0.040615469217300415f,-0.020465442910790443f,0.08315162360668182f,0.013733145780861378f,-0.016848502680659294f,0.018550623208284378f,-0.025228040292859077f,-0.00525133591145277f,-0.019076570868492126f,-0.07726984471082687f,-0.0008009838056750596f,0.02490478940308094f,-0.03379187732934952f,0.004481537267565727f,0.07883506268262863f,0.0005389380967244506f,0.053890250623226166f,0.012432525865733624f,-0.07203591614961624f,-0.014135063625872135f,0.05810290202498436f,-0.03580011427402496f,-0.1326381266117096f,-0.20000840723514557f,-0.13704709708690643f,-0.14049312472343445f,0.1900281310081482f,-0.0634010061621666f,-0.1068442165851593f,-0.16069024801254272f,-0.09334046393632889f,0.0025714891962707043f},
{0.12417689710855484f,0.16517527401447296f,0.21838541328907013f,-0.36512190103530884f,-0.7998679280281067f,0.22076915204524994f,0.1475726217031479f,0.1661318838596344f,0.22747719287872314f,-0.006446146406233311f,0.04138454049825668f,0.1291424185037613f,0.11664443463087082f,-0.12557752430438995f,0.013103957287967205f,0.09256267547607422f,-0.02901153452694416f,0.09114254266023636f,0.009678486734628677f,-0.059054549783468246f,0.09937888383865356f,0.11148018389940262f,-0.188697949051857f,0.024081028997898102f,0.03700478374958038f,-0.005850179586559534f,0.0712236687541008f,0.02386314980685711f,-0.06366807222366333f,0.0634538009762764f,0.07682473212480545f,-0.06393396854400635f,-0.02872898243367672f,0.03433423861861229f,-0.04533754289150238f,-0.00022720423294231296f,0.046670276671648026f,0.05750499293208122f,0.14235718548297882f,-0.05891865864396095f,-0.3943158984184265f,-0.03297489508986473f,0.051934462040662766f,-0.009431813843548298f,0.07788017392158508f,0.9406970739364624f,-0.33646756410598755f,-0.5847728252410889f,0.9958416223526001f,-1.0672510862350464f,-0.3751259446144104f,1.0650501251220703f,-0.2237265557050705f,-0.4662076234817505f,-0.04437504708766937f,-0.0761810690164566f,0.030412621796131134f,-0.04642264172434807f,-0.10479682683944702f,-0.1644713133573532f,-0.058069661259651184f,-0.15360799431800842f,-0.02867479808628559f,0.08149601519107819f,0.08491682261228561f,0.12201748043298721f,0.0947732999920845f,-0.12276460230350494f,0.0671110525727272f,-0.007131324615329504f,0.02671407163143158f,0.02034900151193142f,0.04541126266121864f,-0.024220291525125504f,0.045311301946640015f,-0.04533685743808746f,-0.1549149453639984f,-0.03826932981610298f,-0.002404896542429924f,-0.20248839259147644f,-0.004886174574494362f,0.019390501081943512f,-0.07047364115715027f,0.07240094989538193f,0.018765196204185486f,-0.20164474844932556f,-0.031937189400196075f,0.03096400387585163f,-0.1304415613412857f,-0.01281340979039669f,-0.23660026490688324f,0.0299390722066164f,-0.024572834372520447f,-0.29317519068717957f,-1.4298642873764038f,0.11047808080911636f,-0.11127553135156631f,-0.05211877450346947f,0.09782824665307999f,-0.06258029490709305f,-0.006964494939893484f,-0.05567258968949318f,0.05400318279862404f,-0.060845907777547836f,0.07237686961889267f,-0.08574563264846802f,0.02358820289373398f,0.016728583723306656f,-0.002376081421971321f,-0.09579090774059296f,0.021907588467001915f,0.12791357934474945f,-0.01359651144593954f,0.09460659325122833f,0.05503762140870094f,0.11816461384296417f,-0.0014840171206742525f,-0.053939882665872574f,-0.01607877016067505f,-0.08427829295396805f,-0.0053711868822574615f,-0.08417175710201263f,0.018667062744498253f,-0.008058026432991028f,-0.02871062606573105f,0.00016430261894129217f,-0.058089591562747955f,-0.03565029054880142f,0.017367318272590637f,-0.15608206391334534f,-0.1119641438126564f,0.025277959182858467f,-0.07570388913154602f,0.05661576986312866f,0.01709687151014805f,-1.3382378816604614f,0.315502405166626f,0.4086584448814392f,-1.4950021505355835f,-0.4736781120300293f,0.37680017948150635f,-0.7116581201553345f,0.44877779483795166f,0.5147260427474976f,0.0961148738861084f,0.07632208615541458f,0.10899879038333893f,0.1264382004737854f,0.035235900431871414f,0.027876751497387886f,0.07469747215509415f,0.15828987956047058f,0.1403486728668213f,-0.03232568874955177f,-0.055895932018756866f,0.024005834013223648f,0.014071240089833736f,-0.1056419163942337f,0.036900367587804794f,-0.23723530769348145f,-0.042394958436489105f,0.012538772076368332f,0.08274933695793152f,0.12288682162761688f,0.07003257423639297f,0.1459619104862213f,0.058225881308317184f,0.1704498529434204f,0.0811862200498581f,0.013709399849176407f,0.14607951045036316f,-0.02428302727639675f,0.0020983293652534485f,0.029436500743031502f,0.08530142158269882f,-0.03294731304049492f,0.07418487966060638f,-0.01478428766131401f,0.09447277337312698f,-0.010318082757294178f,-0.32755425572395325f,-0.20144206285476685f,-0.3523174226284027f,-0.5576705932617188f,0.6147802472114563f,-0.3849765956401825f,-0.1117662638425827f,-0.4172087013721466f,-0.3926905393600464f,0.4463275372982025f},
{0.02578338235616684f,0.12263578176498413f,0.7184184789657593f,0.6097745895385742f,0.12448838353157043f,0.20442363619804382f,0.46957170963287354f,0.451168417930603f,0.03897922858595848f,-0.03861164674162865f,-0.017509369179606438f,0.054019246250391006f,0.1616014689207077f,0.025998227298259735f,0.11864758282899857f,0.04451417550444603f,0.1703583300113678f,0.06263355165719986f,0.05108419805765152f,-0.1984149068593979f,0.20425216853618622f,0.029095172882080078f,0.10002106428146362f,0.14708539843559265f,0.0991581380367279f,0.09382658451795578f,0.1779613494873047f,-0.33575037121772766f,-0.3334335684776306f,-0.6003431677818298f,-0.34530583024024963f,-0.4478567838668823f,-0.19415341317653656f,-0.38804545998573303f,-0.3273165225982666f,-0.47711434960365295f,0.011118601076304913f,0.03562881797552109f,0.10912427306175232f,-0.2591317892074585f,-0.035981543362140656f,0.2107435166835785f,0.05701316520571709f,0.15283440053462982f,0.004469009581953287f,0.25904425978660583f,0.08907407522201538f,0.17332662642002106f,0.14507001638412476f,-0.8292236328125f,0.2290588915348053f,0.03240365907549858f,0.25750622153282166f,0.19109955430030823f,0.0026881047524511814f,0.05258031561970711f,0.1271473467350006f,0.10632241517305374f,0.17702774703502655f,-0.12638472020626068f,0.13583491742610931f,0.07899976521730423f,0.04071167856454849f,0.1789119690656662f,0.12963591516017914f,0.1844247728586197f,0.17843833565711975f,0.3163209855556488f,0.1943804770708084f,-0.07422409951686859f,0.2783137857913971f,0.133175790309906f,-0.008251959457993507f,0.01571734994649887f,0.18550042808055878f,0.16949348151683807f,-0.031300321221351624f,0.06378301233053207f,0.12990917265415192f,-0.17614218592643738f,0.1348678022623062f,0.003925133030861616f,0.11110672354698181f,0.11452175676822662f,0.0019405073253437877f,0.10300478339195251f,0.10992909967899323f,0.06964726746082306f,0.10919264703989029f,-0.09203051775693893f,0.03984532505273819f,-0.42747846245765686f,0.6966947913169861f,0.08813870698213577f,0.25528863072395325f,-0.31270405650138855f,-0.0490291453897953f,-0.0724046602845192f,0.14333008229732513f,-0.0757117047905922f,0.04170713201165199f,-0.1394604742527008f,-0.05930902436375618f,-0.042677294462919235f,0.10996410995721817f,0.015463543124496937f,-0.0604996457695961f,-0.020754391327500343f,-0.09203430265188217f,-0.24680863320827484f,-0.07049872726202011f,-0.09741920232772827f,-0.11311003565788269f,-0.03092203289270401f,0.017543122172355652f,-0.016452716663479805f,-0.07774559408426285f,0.8336178660392761f,0.5912556052207947f,0.3811870217323303f,0.4402366876602173f,0.7855657935142517f,0.5354769229888916f,0.7025018930435181f,0.540010929107666f,0.8283969163894653f,0.12542366981506348f,0.0963427722454071f,-0.003768342547118664f,-0.3256436586380005f,0.03668874129652977f,0.12665586173534393f,-0.11280947923660278f,0.08625946193933487f,0.1430516242980957f,0.014012113213539124f,0.10465943813323975f,-0.04416356235742569f,-0.10045446455478668f,-0.7634459733963013f,-0.03860088065266609f,-0.04890153557062149f,-0.036095403134822845f,-0.0121822040528059f,-0.07438169419765472f,-0.023611752316355705f,-0.14528724551200867f,-0.1648019552230835f,-0.3338688015937805f,-0.36958521604537964f,-0.17955294251441956f,-0.21190327405929565f,-0.21680507063865662f,-0.11830729991197586f,0.15805907547473907f,0.07493167370557785f,-0.1273627132177353f,-0.025236202403903008f,-0.1296234279870987f,-0.20937107503414154f,-0.006553275045007467f,-0.0773201435804367f,0.04412563517689705f,0.02235778234899044f,-0.12636299431324005f,-0.038054149597883224f,-0.04400056600570679f,0.0138314263895154f,-0.03971114382147789f,-0.3503565192222595f,0.006358511745929718f,-0.05132007226347923f,-0.05189068242907524f,-0.14177194237709045f,-0.035128701478242874f,-0.13008345663547516f,0.046633828431367874f,-0.2478441745042801f,0.06857132166624069f,-0.17780238389968872f,-0.2751012444496155f,0.02587112970650196f,-0.9557139873504639f,0.00802717637270689f,-0.1590208262205124f,0.07655970752239227f,0.06278279423713684f,-0.08873986452817917f,-0.17120803892612457f,-0.34908977150917053f},
{0.1240873783826828f,0.028163567185401917f,-0.14904087781906128f,-0.021623609587550163f,-0.018580958247184753f,-0.1478954255580902f,0.035473812371492386f,0.05066392198204994f,-0.30368945002555847f,0.02099822834134102f,0.024222593754529953f,-0.013922126963734627f,0.04298754781484604f,0.05947622284293175f,-0.005784978624433279f,0.011289093643426895f,0.06620291620492935f,-0.11311815679073334f,-0.01887069083750248f,-0.07239122688770294f,-0.0662514716386795f,-0.020869581028819084f,-0.009970143437385559f,-0.06931871920824051f,-0.03915635123848915f,-0.019361957907676697f,-0.172098308801651f,-0.031833261251449585f,-0.016414334997534752f,-0.04871094971895218f,0.009070014581084251f,0.00409017875790596f,-0.03295532613992691f,-0.03151262551546097f,0.01913096010684967f,-0.16753412783145905f,0.015072688460350037f,0.03519365191459656f,0.010140761733055115f,0.03622125834226608f,0.06710305064916611f,0.01649221032857895f,0.033471159636974335f,0.055351294577121735f,-0.1222740113735199f,0.1259930580854416f,0.0661439299583435f,0.055803146213293076f,0.052541960030794144f,-0.502961277961731f,0.03517846018075943f,0.0587659552693367f,0.07709532231092453f,-0.09359070658683777f,-0.024655204266309738f,-0.01676146499812603f,-0.022139225155115128f,0.005279943346977234f,0.003046770114451647f,-0.04395037144422531f,-0.03217470645904541f,0.010661623440682888f,-0.21611225605010986f,0.021680165082216263f,0.06447888165712357f,0.04070669412612915f,0.04078299179673195f,0.07422305643558502f,0.02235778234899044f,0.03389507904648781f,0.08405975252389908f,-0.11072812229394913f,-0.004657363519072533f,0.04680202156305313f,-0.003796487348154187f,0.05927601829171181f,0.0505867674946785f,-0.00797545351088047f,0.02527010068297386f,0.029888734221458435f,-0.1654312014579773f,-0.42159590125083923f,-0.244667649269104f,0.83174729347229f,-0.2748246192932129f,-0.5825541615486145f,0.8766770958900452f,-0.24672657251358032f,-0.20162111520767212f,0.8421657681465149f,0.03169949725270271f,0.1089913621544838f,0.03153608366847038f,0.06865686178207397f,-0.03783322870731354f,0.07894731312990189f,0.04754965379834175f,0.04840012267231941f,-0.8776178359985352f,-0.013756158761680126f,0.026094820350408554f,-0.0009911805391311646f,-0.05254610627889633f,-0.0499638095498085f,0.016076495870947838f,-0.05330245941877365f,-0.0053287106566131115f,0.12393707036972046f,0.026684405282139778f,0.01814115233719349f,0.05449296161532402f,-0.01736585795879364f,-0.04053768143057823f,0.04299777001142502f,-0.004263840150088072f,0.017398344352841377f,0.14535540342330933f,0.045912016183137894f,0.07822339236736298f,0.04217778891324997f,0.02094271592795849f,0.006460519973188639f,0.0875670313835144f,0.025761688128113747f,0.04642190411686897f,0.17347228527069092f,-0.0012578606838360429f,0.032115526497364044f,0.025765398517251015f,-0.07019229978322983f,-0.02657601237297058f,0.014564963057637215f,-0.03284643962979317f,-0.01911872625350952f,0.12137703597545624f,-0.024484673514962196f,-0.000668393331579864f,-0.014212705194950104f,-0.0671483725309372f,-0.5994476675987244f,-0.002599013037979603f,-0.04879000037908554f,0.007617895025759935f,0.085728220641613f,0.046403225511312485f,0.07981587946414948f,0.06465110182762146f,-0.004945959430187941f,-0.017701754346489906f,0.03806672245264053f,0.01683495007455349f,0.04628833755850792f,0.14424055814743042f,-0.0034336051903665066f,0.05423467606306076f,0.025916799902915955f,-0.01175790186971426f,-0.03808814659714699f,0.05870499089360237f,-0.013228695839643478f,0.0215704794973135f,0.12839004397392273f,-0.018373074010014534f,-3.050364512091619e-06f,-0.003097260370850563f,-0.03993985056877136f,-0.06123513728380203f,-0.0117740323767066f,-0.02858208678662777f,-0.04796144366264343f,0.09205690026283264f,0.2996210753917694f,0.25359997153282166f,-1.2648818492889404f,0.14175087213516235f,0.3522072732448578f,-1.3819801807403564f,0.2663506269454956f,0.3128756582736969f,-1.0458413362503052f,-0.1493796706199646f,-0.23246876895427704f,-0.20969665050506592f,-0.17368027567863464f,-0.1133425161242485f,-0.1996764987707138f,-0.1400122344493866f,-0.15949949622154236f,0.3345857262611389f,-0.044276271015405655f},
{-0.06059456616640091f,0.0676361545920372f,-0.13261160254478455f,-0.0014833719469606876f,-0.4358954429626465f,-0.01773969829082489f,0.004562262911349535f,-0.11222784221172333f,-0.006130825262516737f,0.2322007715702057f,0.057532742619514465f,0.13340413570404053f,0.0625641867518425f,0.16921639442443848f,0.1061137467622757f,0.2038164734840393f,0.1071091741323471f,0.13181518018245697f,0.02417999505996704f,-0.07024458050727844f,-0.00873999111354351f,0.005893426481634378f,0.11140698194503784f,0.0013851887779310346f,0.016169769689440727f,-0.025986377149820328f,0.022663241252303123f,0.05487499386072159f,0.07045011222362518f,0.05820797011256218f,-0.006911654956638813f,0.11153697222471237f,0.05569257214665413f,0.09636133909225464f,0.03461224213242531f,0.08200400322675705f,0.09135041385889053f,0.07870420813560486f,0.0653696060180664f,0.0999007374048233f,0.13552230596542358f,0.011636709794402122f,0.060388531535863876f,0.06908373534679413f,0.006360573694109917f,0.10994530469179153f,0.15306761860847473f,0.012916764244437218f,0.14815741777420044f,0.05993044003844261f,0.14025983214378357f,0.12798461318016052f,0.13423089683055878f,0.12992258369922638f,0.09671540558338165f,0.041619330644607544f,0.015825916081666946f,0.020511707291007042f,0.069109246134758f,0.1040523573756218f,0.13206617534160614f,0.07327058911323547f,0.06126444414258003f,0.08960594981908798f,0.0735347718000412f,0.052895043045282364f,0.0526173934340477f,0.08016285300254822f,0.04161432385444641f,0.05712799355387688f,0.06382113695144653f,0.07543075829744339f,0.1322719007730484f,0.0721995010972023f,0.043400175869464874f,0.045092787593603134f,0.029278872534632683f,-0.03195957839488983f,0.07792380452156067f,0.01208806224167347f,-0.025069672614336014f,0.05267923325300217f,0.0035638154949992895f,0.029459288343787193f,0.044227711856365204f,0.04707919433712959f,0.01282164454460144f,0.05759397894144058f,-0.017785271629691124f,0.09242356568574905f,0.06662335246801376f,-0.03589155897498131f,0.05803943797945976f,0.0736205130815506f,-1.4242149591445923f,0.17126651108264923f,0.04260646551847458f,-0.10857857018709183f,0.0344044491648674f,0.1627386063337326f,0.10805632174015045f,0.10699708014726639f,0.04089551046490669f,-0.10300588607788086f,0.07420776784420013f,0.0679745003581047f,0.0789443701505661f,-0.02903856337070465f,0.08332044631242752f,0.16243614256381989f,0.13720548152923584f,0.10582046210765839f,0.01907774619758129f,0.13126884400844574f,0.08476198464632034f,0.16905389726161957f,0.14341019093990326f,0.050829000771045685f,0.14358191192150116f,0.08678334951400757f,0.05744308978319168f,0.021503161638975143f,0.09275316447019577f,0.015610739588737488f,0.13858962059020996f,0.08358831703662872f,0.06973545253276825f,0.1598544716835022f,0.07524796575307846f,0.12879379093647003f,0.015065126121044159f,0.1395963877439499f,0.10464568436145782f,0.12104655802249908f,0.10224810987710953f,-0.033787038177251816f,0.005412698723375797f,0.0610513836145401f,-0.1550523340702057f,-1.7259812355041504f,-0.049583159387111664f,0.04653879627585411f,-0.10362660139799118f,0.014808881096541882f,0.0684266984462738f,0.1531776785850525f,0.13826467096805573f,0.12095637619495392f,0.024011164903640747f,0.15356101095676422f,0.07823222875595093f,0.13188253343105316f,0.06153590604662895f,0.014107284136116505f,0.10166941583156586f,0.06555386632680893f,0.023189997300505638f,-0.045204926282167435f,0.06046706810593605f,0.0552455335855484f,0.05045817792415619f,0.07145322859287262f,0.09055867046117783f,0.16728916764259338f,0.1433517187833786f,0.040342576801776886f,-0.012494591996073723f,0.11148495227098465f,0.08801718801259995f,-0.02960662543773651f,0.1388961672782898f,0.030251938849687576f,0.10410157591104507f,0.07529011368751526f,0.035359423607587814f,0.0024704865645617247f,0.022667551413178444f,0.041514407843351364f,0.08949656784534454f,0.1341978758573532f,-0.02988971583545208f,-0.1540670543909073f,-0.0852896049618721f,-0.05856845900416374f,-0.2800152003765106f,-0.13981828093528748f,-0.11901248246431351f,-0.13359752297401428f,-0.1974405199289322f,-0.48369207978248596f},
{-0.05069034919142723f,-0.07178425043821335f,0.21383008360862732f,-0.06149476766586304f,0.024609191343188286f,-0.010870075784623623f,0.5725524425506592f,-0.09690273553133011f,0.002578250365331769f,0.009093190543353558f,-0.011649532243609428f,0.024525772780179977f,0.04451609402894974f,-0.08969125151634216f,0.06062065064907074f,0.11695714294910431f,0.10915835946798325f,-0.029279401525855064f,0.02397642470896244f,-0.021108707413077354f,-0.007545745000243187f,0.03757096454501152f,-0.016421161592006683f,0.07638715207576752f,0.10451729595661163f,0.0908801257610321f,0.03236359357833862f,0.027398355305194855f,-0.03316695988178253f,-0.018392523750662804f,0.05035078153014183f,-0.005706452298909426f,-0.006663287058472633f,0.15391452610492706f,0.07519606500864029f,0.013834426179528236f,0.031061651185154915f,-0.010039395652711391f,0.004242924973368645f,-0.004305066540837288f,0.006502471398562193f,0.055429089814424515f,0.13705305755138397f,0.07488249242305756f,0.0663011446595192f,-0.004932161420583725f,-0.053261592984199524f,-0.002640086691826582f,-0.016750041395425797f,-0.5390369892120361f,0.022456571459770203f,0.14583110809326172f,-0.007025972008705139f,-0.010894320905208588f,0.05263705551624298f,-0.03604825586080551f,-0.015293178148567677f,0.01743023842573166f,-0.0915483683347702f,0.02211778610944748f,0.0923948884010315f,0.04197511821985245f,0.004354123491793871f,0.5067383050918579f,0.37467730045318604f,-1.2777698040008545f,0.5375529527664185f,-0.7730420231819153f,0.4192313253879547f,-1.4475888013839722f,0.5951768755912781f,0.5018870234489441f,0.02688206173479557f,-0.03404688090085983f,-0.04310404136776924f,0.02107575163245201f,-0.056396909058094025f,0.05237916111946106f,0.09666561335325241f,0.014586684294044971f,-0.04338765889406204f,-0.04404151439666748f,-0.011203082278370857f,-0.04819317162036896f,0.019709568470716476f,-0.12814536690711975f,-0.010314653627574444f,0.07910708338022232f,0.03943369537591934f,-0.02015671133995056f,0.1797766089439392f,0.14183244109153748f,0.07387411594390869f,0.07132384926080704f,-0.06577104330062866f,-0.005371264182031155f,-0.48808619379997253f,0.11991574615240097f,0.17116865515708923f,0.0033701166976243258f,0.0018539258744567633f,0.03323206678032875f,0.01282225176692009f,0.12121932953596115f,0.017541153356432915f,-0.18038402497768402f,0.045298829674720764f,0.029382850974798203f,0.01248455885797739f,-0.00306266313418746f,0.057305559515953064f,0.026509027928113937f,0.0017199339345097542f,0.02457086555659771f,-0.15001657605171204f,0.03590935841202736f,0.05235463008284569f,0.0003511290706228465f,-0.002762929070740938f,0.023871861398220062f,0.00987547542899847f,0.026157794520258904f,0.0063618547283113f,-0.20070089399814606f,0.00501347566023469f,-0.005824241787195206f,0.03390613570809364f,-0.01909068413078785f,0.009003566578030586f,-0.06287974119186401f,0.020146062597632408f,-0.012861729599535465f,-0.19264547526836395f,0.03550006076693535f,0.0510835237801075f,-0.025187751278281212f,0.0579034797847271f,0.06980378180742264f,0.03881850466132164f,-0.5143746733665466f,0.0765077993273735f,-0.0718155950307846f,0.04456517472863197f,-0.02046477422118187f,-0.07392235845327377f,-0.042203500866889954f,-0.012328359298408031f,-0.025253936648368835f,0.008003545925021172f,-0.03478728607296944f,-0.20259711146354675f,0.002472036285325885f,-0.05528876930475235f,-0.2325286567211151f,-0.23330500721931458f,0.45120155811309814f,-0.23484821617603302f,0.8976318836212158f,-0.2848670184612274f,0.48974767327308655f,-0.2948884665966034f,-0.2796529531478882f,0.0019314992241561413f,-0.044217661023139954f,0.011880806647241116f,-0.01340681966394186f,-0.0026623369194567204f,-0.03278603404760361f,-0.19798198342323303f,-0.03623193874955177f,-0.007086555939167738f,0.06158339977264404f,0.01223819237202406f,0.07732927799224854f,0.02351866476237774f,0.10842032730579376f,0.06567259877920151f,-0.0840541422367096f,0.06547489762306213f,0.04706983268260956f,-0.11818841844797134f,-0.10310221463441849f,-0.12366331368684769f,-0.10983866453170776f,-0.15598627924919128f,-0.11578179895877838f,0.2881808280944824f,-0.14985273778438568f,-0.14387008547782898f,-0.25026935338974f},
{0.652739405632019f,0.4594174325466156f,0.5489283800125122f,0.2709408104419708f,-0.15847907960414886f,0.2222832888364792f,0.027214257046580315f,0.34594693779945374f,0.05511622875928879f,0.3332975506782532f,0.15861232578754425f,0.2712092399597168f,0.22494441270828247f,0.45337915420532227f,0.10819218307733536f,0.33766913414001465f,0.20890940725803375f,0.30029746890068054f,0.08081159740686417f,-0.3298961818218231f,0.2932927906513214f,0.070998415350914f,0.27979469299316406f,0.10622557997703552f,0.18805459141731262f,0.14422747492790222f,0.19349947571754456f,0.19758714735507965f,-0.0016725828172639012f,0.13209418952465057f,0.20745813846588135f,0.27734264731407166f,0.014796159230172634f,0.10700790584087372f,0.23860692977905273f,0.3897787630558014f,-0.2291737198829651f,0.0619545541703701f,-0.14655029773712158f,-0.2747866213321686f,-0.07261107116937637f,0.09742838144302368f,0.10401545464992523f,-0.03885769098997116f,0.18527275323867798f,-0.561241865158081f,-0.36843177676200867f,-0.3974131643772125f,0.05407410115003586f,-0.9325271844863892f,-0.05447863042354584f,-0.2226036936044693f,-0.1433551162481308f,-0.07064612954854965f,0.0024824836291372776f,-0.011731100268661976f,0.11035285145044327f,0.07854915410280228f,0.20778848230838776f,-0.11300475895404816f,-0.05116793513298035f,0.07245291024446487f,0.19729824364185333f,-0.3459901213645935f,-0.006397965829819441f,-0.09737998247146606f,0.005483652465045452f,0.17213250696659088f,0.05165155231952667f,-0.13930454850196838f,0.03647340461611748f,0.01700541004538536f,-0.09860378503799438f,-0.12437348067760468f,0.15452086925506592f,0.13087211549282074f,0.132579043507576f,0.041762251406908035f,-0.11795949190855026f,-0.15985262393951416f,0.19673585891723633f,-0.17733465135097504f,-0.033777568489313126f,-0.09934460371732712f,0.02595718577504158f,-0.3482884466648102f,0.0703502669930458f,-0.024633733555674553f,-0.058452755212783813f,-0.07598280161619186f,-1.436939001083374f,-0.8121927380561829f,-0.6118690371513367f,0.2813797891139984f,0.18937735259532928f,-0.759570300579071f,-0.05635937303304672f,0.06809037923812866f,0.21213117241859436f,0.04333574324846268f,0.07842373847961426f,0.06606350839138031f,-0.15552692115306854f,-0.19392217695713043f,-0.060272056609392166f,-0.14869220554828644f,0.0375855378806591f,-0.061239324510097504f,-0.0747651681303978f,-0.08954824507236481f,-0.0895053967833519f,-0.07178524136543274f,-0.2563236653804779f,-0.008416649885475636f,-0.24264197051525116f,-0.022657688707113266f,-0.1065501868724823f,-0.060082465410232544f,-0.003194986842572689f,-0.18008506298065186f,0.0007192151970230043f,-0.11126117408275604f,-0.1319187581539154f,-0.1734498143196106f,-0.12185787409543991f,-0.18890216946601868f,0.24767597019672394f,0.1755952388048172f,0.2701752483844757f,-0.302910178899765f,0.44622987508773804f,0.07549683749675751f,0.30185624957084656f,0.08829906582832336f,0.24422132968902588f,-0.055152565240859985f,0.18549062311649323f,0.23271027207374573f,0.08557054400444031f,-0.34280598163604736f,0.19214701652526855f,0.14684604108333588f,0.04672764986753464f,0.10274296998977661f,0.040868159383535385f,0.015262006781995296f,-0.05622992292046547f,-0.12257756292819977f,-0.13606467843055725f,-0.24022585153579712f,0.0771537646651268f,-0.06409940868616104f,-0.26199254393577576f,0.1301700323820114f,0.05615394935011864f,-0.03689532354474068f,-0.0359511598944664f,0.05383342504501343f,0.08183562010526657f,-0.16396719217300415f,-0.08397923409938812f,0.04577326774597168f,0.04580780118703842f,0.014643248170614243f,0.20525546371936798f,0.04775313287973404f,-0.03627373278141022f,0.003889490617439151f,0.07628855854272842f,-0.16396327316761017f,0.07093243300914764f,0.15153557062149048f,0.17465846240520477f,0.23925480246543884f,0.012014963664114475f,0.1472531408071518f,0.1760956346988678f,0.2944124937057495f,0.15801569819450378f,-0.13142672181129456f,0.31792473793029785f,0.1097526028752327f,0.08723887801170349f,-0.38972043991088867f,-0.5928924679756165f,0.011196632869541645f,-0.33485153317451477f,-0.1639602780342102f,-0.5607396364212036f,0.12706993520259857f},
{-0.09163455665111542f,0.04642927274107933f,-0.03976801037788391f,0.06652379781007767f,-0.21149979531764984f,0.05760592222213745f,0.01520445290952921f,0.0978614091873169f,-0.3596341013908386f,-0.056194767355918884f,-0.0077057271264493465f,-0.08053787052631378f,0.006170104257762432f,-0.07219327986240387f,-0.06254885345697403f,-0.09030060470104218f,-0.06499646604061127f,-0.1586718112230301f,0.028541989624500275f,-0.012452924624085426f,-0.02439153753221035f,-0.00581709761172533f,-0.0046515315771102905f,-0.049442365765571594f,-0.0039686900563538074f,-0.02432922273874283f,-0.07905210554599762f,0.0801943764090538f,0.06665410846471786f,0.02713823691010475f,0.028768058866262436f,0.07196033000946045f,0.00864050816744566f,0.05332907661795616f,0.024743525311350822f,-0.05175308510661125f,0.023807687684893608f,-0.02600661851465702f,-0.027764199301600456f,-0.03052433952689171f,0.0011411616578698158f,-0.04347158223390579f,0.014964410103857517f,-0.031131040304899216f,-0.07662065327167511f,0.05018686503171921f,-0.02905883640050888f,-0.023966457694768906f,0.01176187489181757f,-0.25991320610046387f,-0.03639993816614151f,-0.018653472885489464f,-0.0636400356888771f,-0.09584508091211319f,0.023998254910111427f,0.0008840736700221896f,-0.01900031976401806f,0.00430146511644125f,-0.010632283054292202f,-0.026262976229190826f,0.039575546979904175f,-0.001487312256358564f,-0.06984560936689377f,0.09879922866821289f,0.01795521378517151f,0.06467580795288086f,0.07667333632707596f,0.10686776787042618f,0.0531071312725544f,0.07089905440807343f,0.04632754251360893f,-0.027548082172870636f,0.07275603711605072f,0.039699848741292953f,0.047903161495923996f,0.06713163107633591f,0.07689962536096573f,0.0021789425518363714f,0.05473097786307335f,0.001675993436947465f,-0.06116010993719101f,0.3439008593559265f,-0.15613988041877747f,-0.12003811448812485f,-0.36124539375305176f,0.37709787487983704f,-0.10661002993583679f,-0.3224002718925476f,-0.18975889682769775f,0.2617364525794983f,0.17285792529582977f,-0.02373427338898182f,0.04943637177348137f,0.011945814825594425f,0.025000283494591713f,0.039062775671482086f,-0.1545412540435791f,-0.08587495982646942f,-0.003136810613796115f,0.028112970292568207f,0.02818879298865795f,-0.013766970485448837f,0.017686976119875908f,0.05265074968338013f,0.05183351784944534f,-0.025854820385575294f,-0.012430361472070217f,0.08572126179933548f,0.03152446076273918f,-0.0009123216150328517f,-0.008409942500293255f,0.000494839099701494f,0.04402162507176399f,0.036753639578819275f,-0.030796129256486893f,0.012600943446159363f,0.061908915638923645f,0.01128418743610382f,0.011098386719822884f,-0.03985593840479851f,0.012528395280241966f,-0.0032027780544012785f,0.05447089672088623f,-0.065589539706707f,-0.0020812894217669964f,0.07160725444555283f,-0.0013564670225605369f,0.000924346677493304f,-0.01119927130639553f,-0.03567088022828102f,-0.00838481541723013f,0.02019941620528698f,-0.02507098950445652f,-0.016835879534482956f,0.07086396217346191f,0.05611703172326088f,0.039577312767505646f,-0.008271961472928524f,0.03728470206260681f,-0.28669455647468567f,0.08937863260507584f,-0.02875617705285549f,0.045452848076820374f,0.1303398609161377f,0.009571797214448452f,0.0029783402569592f,-0.012220625765621662f,0.03069760650396347f,0.03444137051701546f,0.04173515737056732f,-0.005250670947134495f,-0.012152217328548431f,0.06911854445934296f,-0.013107109814882278f,-0.025872956961393356f,-0.07873799651861191f,-0.02010411024093628f,-0.043486714363098145f,0.008438734337687492f,-0.07684774696826935f,-0.0043983859941363335f,0.053528036922216415f,0.015112675726413727f,0.007895560935139656f,-0.008536378853023052f,0.030770491808652878f,0.04173297435045242f,0.0378439798951149f,0.008037470281124115f,-0.01651453599333763f,0.09982985258102417f,-0.8805234432220459f,0.23877044022083282f,0.33605724573135376f,0.2659520208835602f,-0.8117053508758545f,0.34939709305763245f,0.3280049264431f,0.3398706316947937f,-0.6234407424926758f,-0.10881925374269485f,-0.09433092176914215f,-0.026392333209514618f,-0.08384861797094345f,-0.27068576216697693f,-0.06965075433254242f,0.01839456334710121f,-0.03714730963110924f,0.041872333735227585f,0.004058063495904207f},
{-0.23489591479301453f,0.2920224964618683f,0.62932288646698f,1.1101384162902832f,0.08059216290712357f,0.27387306094169617f,-0.2771165072917938f,0.27592769265174866f,0.20931942760944366f,0.0179598405957222f,0.022593596950173378f,0.09016915410757065f,0.12952612340450287f,0.1638089418411255f,0.05150735005736351f,-0.024848343804478645f,0.11589677631855011f,0.10744044184684753f,0.021927930414676666f,-0.10980729013681412f,-0.011975484900176525f,0.05710358917713165f,0.05438157171010971f,-0.04543933644890785f,-0.1290878802537918f,-0.09263492375612259f,-0.08235368877649307f,0.03669196739792824f,0.07561840116977692f,-0.06091562286019325f,0.0754033774137497f,0.10854429006576538f,-0.03362296521663666f,-0.01440796721726656f,-0.07097255438566208f,0.08154279738664627f,-0.3167755901813507f,-0.12948934733867645f,-0.027133209630846977f,-0.32830092310905457f,0.06907240301370621f,-0.24069617688655853f,-0.5881162285804749f,-0.11984723806381226f,-0.13720187544822693f,-0.08317629247903824f,0.038929879665374756f,0.06740035116672516f,0.114203542470932f,-0.537754476070404f,-0.11917753517627716f,-0.1969708949327469f,-0.0020097303204238415f,0.03501484543085098f,0.07606666535139084f,0.0676252543926239f,0.13980387151241302f,0.19110865890979767f,0.16776952147483826f,-0.11250929534435272f,0.07468389719724655f,0.05338037386536598f,0.0854625478386879f,0.006710474845021963f,0.07969438284635544f,0.17784835398197174f,0.07084523141384125f,0.18881770968437195f,0.05779499560594559f,0.09780294448137283f,-0.07730298489332199f,0.21232517063617706f,0.05825021117925644f,0.07347740232944489f,-0.005608065985143185f,0.0843701958656311f,0.15591710805892944f,0.10908427834510803f,0.0862375795841217f,-0.05080273747444153f,0.04615626111626625f,0.13668499886989594f,-0.05726206675171852f,0.13739484548568726f,0.23892194032669067f,0.23582349717617035f,0.20821161568164825f,0.10442986339330673f,0.03861866891384125f,-0.11105026304721832f,-0.4025026559829712f,0.11518926173448563f,0.0008599054999649525f,0.304988831281662f,-0.140925332903862f,-0.20892511308193207f,-0.8659307956695557f,-0.12202667444944382f,0.0313500240445137f,-0.00030379867530427873f,-0.0014048860175535083f,-0.09796812385320663f,-0.11384178698062897f,-0.14711055159568787f,0.007279287092387676f,-0.21060946583747864f,-0.04715173318982124f,-0.1393631398677826f,0.0999913364648819f,-0.026631902903318405f,0.04251273721456528f,-0.04545915499329567f,-0.019534626975655556f,0.13921254873275757f,0.023040981963276863f,0.042665962129831314f,-0.046567950397729874f,0.07538832724094391f,0.12366614490747452f,-0.024465613067150116f,0.03342718631029129f,0.018819235265254974f,0.15167444944381714f,0.11253377795219421f,0.11859080195426941f,0.0816090777516365f,0.3481573462486267f,0.2765299379825592f,0.38046810030937195f,-0.03759139031171799f,0.5266495943069458f,0.1983487755060196f,0.5131216645240784f,0.36846357583999634f,0.3574385344982147f,-0.0043927445076406f,0.0027928827330470085f,-0.1949300616979599f,0.05157037824392319f,-0.39985883235931396f,-0.07204931974411011f,-0.020700881257653236f,0.0499269925057888f,-0.09445835649967194f,0.0063497344963252544f,-0.013308010995388031f,0.007898318581283092f,-0.06705748289823532f,0.0935729593038559f,-0.1744275987148285f,-0.09667224436998367f,-0.04577883705496788f,-0.09601657092571259f,-0.2616584002971649f,-0.006878177635371685f,-0.1795269101858139f,-0.2181110978126526f,-0.2468944936990738f,-0.004105487838387489f,0.012775546871125698f,-0.008352095261216164f,-0.17642098665237427f,-0.04547172784805298f,0.06168604642152786f,-0.02894469164311886f,-0.007600945420563221f,0.03700873628258705f,0.06885615736246109f,-0.07148301601409912f,-0.14990989863872528f,-0.027973102405667305f,0.00895898137241602f,0.17539216578006744f,0.01611039787530899f,0.014398553408682346f,-0.011410925537347794f,0.05645539611577988f,0.03275544196367264f,0.11862849444150925f,-0.18297439813613892f,0.06009288504719734f,0.022556498646736145f,-0.006029785610735416f,-0.7515842318534851f,-0.1595798134803772f,0.07363072037696838f,-0.015456018969416618f,0.1246168315410614f,0.11746028810739517f,-0.43121445178985596f},
{0.15702739357948303f,0.022190198302268982f,0.14861129224300385f,0.16450229287147522f,-0.2515808045864105f,0.14618612825870514f,0.19852307438850403f,0.05854064226150513f,0.11423542350530624f,-0.06156085059046745f,0.0066233971156179905f,0.057566750794649124f,0.04236811026930809f,-0.00967395305633545f,0.012427561916410923f,0.062416478991508484f,0.022000430151820183f,0.08268329501152039f,-0.02886560931801796f,-0.10090990364551544f,0.024347564205527306f,0.009679224342107773f,-0.04424860328435898f,-0.01947656087577343f,0.0813629999756813f,0.0014494062634184957f,0.056071940809488297f,-0.03311154246330261f,-0.0628160908818245f,-0.07708506286144257f,-0.003543862607330084f,-0.02406720630824566f,-0.03437252342700958f,0.05891534313559532f,-0.0045280857011675835f,0.01945832185447216f,0.00894954428076744f,0.01159475464373827f,0.0747564435005188f,0.024488277733325958f,0.03336099907755852f,0.02323026768863201f,0.1001833900809288f,0.06840426474809647f,0.08878502249717712f,0.8028886318206787f,0.7707415223121643f,0.8062006831169128f,-0.21356387436389923f,-1.2736955881118774f,0.04462708532810211f,-0.4417826235294342f,-0.4448537528514862f,-0.5122162699699402f,-0.023751532658934593f,-0.024076374247670174f,0.03659994527697563f,0.0030591231770813465f,-0.018821075558662415f,-0.042065829038619995f,0.06172826513648033f,0.0169601459056139f,0.044393520802259445f,-0.021656397730112076f,-0.0007273186929523945f,0.0694054514169693f,0.030513614416122437f,0.04166989028453827f,0.03738555312156677f,0.029052045196294785f,0.011431272141635418f,0.058191172778606415f,-0.07206319272518158f,-0.08512186259031296f,-0.01207959558814764f,-0.033236321061849594f,-0.07666780799627304f,-0.07701121270656586f,-0.017099523916840553f,-0.06028568372130394f,-0.008026247844099998f,-0.07517491281032562f,-0.10232602804899216f,-0.05496292933821678f,-0.060423851013183594f,-0.07433059811592102f,-0.12290970981121063f,-0.04176269844174385f,-0.11112915724515915f,-0.0710618868470192f,-0.055232081562280655f,-0.11694593727588654f,-0.04959125444293022f,0.027962950989603996f,-1.2190369367599487f,0.06211724504828453f,-0.009410008788108826f,0.20228542387485504f,0.051401812583208084f,-0.00012576390872709453f,0.08633054047822952f,0.07805203646421432f,0.002571648685261607f,-0.07877173274755478f,0.05511600151658058f,0.018513232469558716f,0.10687199980020523f,0.13693104684352875f,0.05307973548769951f,0.014558196999132633f,0.08437768369913101f,0.01734529808163643f,-0.09907367080450058f,0.04512189328670502f,0.02018432319164276f,0.09267248213291168f,0.12705424427986145f,-0.031627628952264786f,0.0399579256772995f,-0.03897795453667641f,-0.043040212243795395f,-0.11005109548568726f,-0.004924105945974588f,0.0074125248938798904f,0.06987250596284866f,0.05855080857872963f,-0.0016603663098067045f,0.027644934132695198f,0.04450628533959389f,-0.06182952597737312f,-0.149776890873909f,0.004698826000094414f,-0.05234687030315399f,0.03444886952638626f,0.07596432417631149f,-1.431379795074463f,-1.581233263015747f,-1.2119282484054565f,0.19407127797603607f,0.14843589067459106f,0.19328118860721588f,0.3553128242492676f,0.4297615885734558f,0.5776000618934631f,0.052153509110212326f,0.07059618085622787f,0.05055371671915054f,-0.0007167148869484663f,-0.11243794113397598f,0.021336346864700317f,-0.0020719277672469616f,0.09122484177350998f,0.09427244961261749f,0.010979712009429932f,0.01932268589735031f,0.036482758820056915f,-0.06354494392871857f,-0.15670368075370789f,-0.01425880566239357f,-0.07702695578336716f,0.03554622456431389f,0.06758812069892883f,0.007446091156452894f,0.055923376232385635f,0.06570683419704437f,-0.010716767981648445f,-0.14452588558197021f,0.01825076900422573f,-0.025125140324234962f,0.0550784170627594f,0.09557740390300751f,-0.0057696569710969925f,0.037665076553821564f,0.03843981772661209f,-0.03968751057982445f,-0.15035688877105713f,-0.0073494515381753445f,-0.04359129071235657f,0.03718392550945282f,0.0414828397333622f,-0.17403171956539154f,-0.19161982834339142f,-0.21794196963310242f,-0.15556731820106506f,0.43545642495155334f,-0.20465178787708282f,-0.19008584320545197f,-0.2713744640350342f,-0.2931232750415802f,0.24323010444641113f},
{0.28694552183151245f,-0.018311016261577606f,-0.12324173003435135f,-0.1666499525308609f,-0.11188524961471558f,-0.005914911162108183f,-0.2539624571800232f,-0.06703312695026398f,0.08280031383037567f,0.385683536529541f,0.5145239233970642f,0.604907214641571f,0.47856101393699646f,0.7285293936729431f,0.35260146856307983f,0.5515487194061279f,0.3943271040916443f,0.6720091104507446f,-0.22940854728221893f,-0.02749994583427906f,-0.013941948302090168f,-0.03759077936410904f,-0.0415523536503315f,-0.04088839888572693f,-0.09719827771186829f,-0.04162309691309929f,-0.056024644523859024f,-0.14556464552879333f,-0.03206133842468262f,-0.007574325893074274f,0.010866665281355381f,-0.058253802359104156f,-0.06152480095624924f,-0.1124267503619194f,0.006676525808870792f,-0.014392330311238766f,-0.17121896147727966f,0.010756541974842548f,-0.01119934394955635f,-0.04902968183159828f,0.09332433342933655f,0.005119831766933203f,0.022491173818707466f,-0.0498233437538147f,-0.004459954332560301f,-0.16310785710811615f,-0.07306551188230515f,-0.06251351535320282f,-0.09935376048088074f,-0.5537293553352356f,-0.09858930110931396f,-0.09282277524471283f,-0.11356905102729797f,0.05563037097454071f,-0.15392924845218658f,-0.010876263491809368f,-0.00866346899420023f,-0.0010599592933431268f,-0.010444626212120056f,-0.056673500686883926f,-0.12916269898414612f,-0.017908567562699318f,-0.05441957712173462f,-0.21855303645133972f,-0.007799070328474045f,-0.04229070618748665f,-0.009965024888515472f,-0.08259081095457077f,-0.0440131351351738f,-0.008458117954432964f,-0.0822487398982048f,-0.058372970670461655f,-0.12541379034519196f,-0.02985052391886711f,-0.0019351235823705792f,0.01444211881607771f,0.0456220842897892f,-0.0036181474570184946f,-0.05582456663250923f,-0.011062807403504848f,0.02432706579566002f,-0.11670979112386703f,0.020673556253314018f,0.06466495990753174f,0.04258919507265091f,-0.05334315821528435f,0.058024223893880844f,0.01114758662879467f,0.036867257207632065f,0.03279968723654747f,2.248070001602173f,0.02282954379916191f,0.009676226414740086f,-0.03472769632935524f,0.09615197777748108f,-0.054597582668066025f,-0.00012854461965616792f,0.11802887916564941f,0.1315213292837143f,-0.3027610182762146f,-0.20779235661029816f,-0.35509729385375977f,-0.12926092743873596f,-0.24553869664669037f,-0.10151150077581406f,-0.3474358916282654f,-0.15514132380485535f,-0.14791297912597656f,0.11509408056735992f,0.03849993646144867f,0.053622547537088394f,0.057751111686229706f,0.15342509746551514f,0.028758607804775238f,0.08425585180521011f,0.045054856687784195f,0.04292185604572296f,0.08420366793870926f,-0.006458037067204714f,0.06622175127267838f,0.0374322235584259f,0.10641060024499893f,0.06274386495351791f,0.04169362783432007f,0.005454490892589092f,0.024528201669454575f,0.1233396977186203f,0.09385689347982407f,-0.01273791678249836f,0.0177272018045187f,0.09775498509407043f,0.040725503116846085f,0.04605158418416977f,0.05532513186335564f,0.02576284669339657f,0.13544818758964539f,0.04486367478966713f,0.05945818871259689f,0.011295055039227009f,-0.48029112815856934f,0.06440969556570053f,0.10007418692111969f,0.029259882867336273f,-0.02421528846025467f,0.12673351168632507f,0.006039191968739033f,0.03857303410768509f,0.03891348838806152f,0.11658593267202377f,0.0257987342774868f,0.07891447842121124f,0.012269808910787106f,0.03881416842341423f,0.09371897578239441f,0.03408614546060562f,0.0952392965555191f,0.024520497769117355f,0.09128393232822418f,0.12548945844173431f,0.1343516707420349f,-0.016551349312067032f,0.036534152925014496f,0.08389215171337128f,0.02406163699924946f,-0.026368731632828712f,0.007974446751177311f,0.08423491567373276f,0.05009370669722557f,0.08966273814439774f,0.02257261611521244f,0.021015333011746407f,0.13104349374771118f,0.03774699196219444f,0.046058930456638336f,0.03896307200193405f,0.09182670712471008f,0.061432238668203354f,0.03959915414452553f,0.03390626609325409f,0.003671149490401149f,0.2615519165992737f,-0.17237535119056702f,-0.16751621663570404f,-0.0879456177353859f,-0.15152740478515625f,-0.14509320259094238f,-0.1199343129992485f,-0.12659941613674164f,-0.06767216324806213f,-0.09547172486782074f},
{0.12754972279071808f,0.12409627437591553f,0.2107798308134079f,0.10523617267608643f,-0.368632048368454f,-0.07617785036563873f,0.30467697978019714f,0.043195921927690506f,0.13264022767543793f,-0.02258305437862873f,-0.03640197962522507f,-0.01671125367283821f,-0.03860853239893913f,0.005606972612440586f,-0.017490852624177933f,-0.022068973630666733f,0.02340918406844139f,0.043280355632305145f,0.07674632966518402f,0.014761577360332012f,0.038444261997938156f,0.03331408649682999f,0.06976300477981567f,0.015668677166104317f,0.03802619129419327f,0.0738002210855484f,0.07837375998497009f,0.013078255578875542f,0.0011300657643005252f,-0.07735009491443634f,-0.013482335023581982f,0.02115810103714466f,-0.03760214149951935f,0.02522711269557476f,0.057113830000162125f,0.04715365171432495f,-0.015428952872753143f,-0.08625487238168716f,-0.07723557204008102f,-0.11854461580514908f,-0.07082606852054596f,-0.08408814668655396f,-0.051360923796892166f,-0.00918301660567522f,-0.004548189230263233f,-0.41641756892204285f,-0.07561106234788895f,0.7235340476036072f,-0.40768688917160034f,-1.1712642908096313f,0.7194981575012207f,-0.5771391987800598f,-0.2654017508029938f,0.791853666305542f,-0.018963580951094627f,-0.04488110542297363f,-0.016858279705047607f,-0.07959474623203278f,-0.035716716200113297f,-0.1328270435333252f,-0.02482426166534424f,0.0008780097705312073f,0.021952934563159943f,-0.022921187803149223f,-0.023136137053370476f,-0.014999366365373135f,-0.07359764724969864f,0.011626020073890686f,-0.04956527799367905f,-0.11328843981027603f,0.03045828826725483f,-0.008645632304251194f,0.09344887733459473f,0.07668578624725342f,0.0589604414999485f,0.04993867129087448f,0.09199606627225876f,0.06533423811197281f,0.0765102282166481f,0.07700017094612122f,0.10688292980194092f,0.05381516367197037f,-0.01837495155632496f,0.021104726940393448f,-0.03256672993302345f,0.006250468082726002f,-0.02366149052977562f,-0.032458581030368805f,0.010642391629517078f,-0.02603992074728012f,0.09181179851293564f,0.008752125315368176f,-0.07088475674390793f,0.09864729642868042f,-1.106232762336731f,-0.07230999320745468f,0.08389030396938324f,0.045033667236566544f,-0.09108913689851761f,-0.007170892786234617f,-0.028551854193210602f,0.02014477737247944f,0.0534866526722908f,-0.05109855532646179f,0.039757225662469864f,0.006537544075399637f,-0.04123792052268982f,0.01709612086415291f,0.03621917963027954f,-0.03995821252465248f,0.02554570510983467f,0.08491626381874084f,-0.026215145364403725f,0.1101161316037178f,0.03371373191475868f,-0.041059140115976334f,0.07582523673772812f,0.019295699894428253f,-0.04219831898808479f,-0.04626661539077759f,0.05568685755133629f,0.01250829454511404f,0.09313002228736877f,0.0856756791472435f,-0.046442847698926926f,0.05702582746744156f,0.06436973065137863f,0.02854270301759243f,0.12521976232528687f,0.0765659362077713f,-0.0026970470789819956f,0.12295430153608322f,0.04519730433821678f,-0.02257838100194931f,0.08625177294015884f,0.511859655380249f,0.10677491873502731f,-1.1333749294281006f,0.3963102102279663f,0.07343258708715439f,-1.3713531494140625f,0.3849760890007019f,0.14734315872192383f,-1.2747125625610352f,0.05387772247195244f,-0.013176827691495419f,0.04968349635601044f,0.10079582035541534f,-0.01946154795587063f,0.05394035950303078f,0.030562924221158028f,-0.03317851200699806f,0.07935220748186111f,0.10920692980289459f,-0.0026886940468102694f,0.07266511768102646f,0.11075596511363983f,-0.01836855709552765f,0.10900905728340149f,0.023209623992443085f,-0.0027560447342693806f,0.09084479510784149f,0.009452847763895988f,-0.07173745334148407f,-0.013236848637461662f,0.02435057982802391f,-0.07718398422002792f,0.04706057533621788f,0.013446176424622536f,-0.12108706682920456f,0.007356888148933649f,-0.0019294200465083122f,-0.0754094123840332f,-0.015389948152005672f,0.06725556403398514f,-0.05074295774102211f,0.047249190509319305f,-0.021431149914860725f,-0.07206612825393677f,-0.03174504265189171f,-0.2229636311531067f,-0.1490635871887207f,-0.18408113718032837f,-0.26659053564071655f,0.35058677196502686f,-0.2265019714832306f,-0.23272819817066193f,-0.14158378541469574f,-0.18163888156414032f,0.20580898225307465f},
{0.39893093705177307f,-0.8620858788490295f,-0.07178160548210144f,-0.29516053199768066f,-0.5929980874061584f,0.1189153864979744f,0.1069885864853859f,-1.1425457000732422f,-0.4417819380760193f,-0.1988302320241928f,0.1525789201259613f,0.39341121912002563f,-0.014467828907072544f,0.3415011167526245f,0.3683403432369232f,0.1545686572790146f,0.2200160026550293f,0.22755292057991028f,0.1462600976228714f,-0.38529977202415466f,0.060864005237817764f,0.010752955451607704f,0.019601406529545784f,0.3033694922924042f,0.05320693179965019f,-0.05846453458070755f,0.029986554756760597f,0.15378528833389282f,0.10571689903736115f,0.04106779024004936f,0.21346387267112732f,0.2330213040113449f,0.15324059128761292f,0.11234600841999054f,-0.054477401077747345f,0.09060152620077133f,0.2394345998764038f,0.0440913625061512f,0.0786241963505745f,-0.3668857216835022f,0.02290485054254532f,0.05513323098421097f,0.0509108267724514f,0.09359122812747955f,-0.12068674713373184f,-0.19892652332782745f,-0.09860356897115707f,0.04587605968117714f,-0.011624285951256752f,-1.1581634283065796f,-0.1961183100938797f,-0.22502799332141876f,-0.2029571235179901f,-0.1611618548631668f,0.049033600836992264f,0.16316284239292145f,0.4263328015804291f,0.1937769055366516f,0.08236648887395859f,-0.3234706521034241f,0.20727673172950745f,0.06501341611146927f,0.26082658767700195f,-0.09597887098789215f,0.11891258507966995f,0.11431863158941269f,-0.003318363567814231f,0.010121118277311325f,0.029661795124411583f,-0.07833782583475113f,0.043640684336423874f,0.10978977382183075f,0.06456097960472107f,0.037762247025966644f,-0.07986420392990112f,0.13639138638973236f,-0.10246551781892776f,0.10853312909603119f,0.02609405107796192f,-0.46444621682167053f,0.0767190158367157f,0.04663088545203209f,0.07636746019124985f,-0.033024948090314865f,0.07562088221311569f,-0.2589957118034363f,0.14233246445655823f,0.053948115557432175f,0.030670994892716408f,0.06789916008710861f,0.6238327026367188f,0.4219706952571869f,-0.23298697173595428f,-0.24607253074645996f,0.21602673828601837f,-0.2780117690563202f,0.37895405292510986f,1.1306687593460083f,0.19672393798828125f,-0.2598741948604584f,-0.23004469275474548f,-0.014817078597843647f,-0.12382424622774124f,-0.3967001438140869f,-0.06567555665969849f,-0.24857097864151f,0.1229688972234726f,-0.07910208404064178f,0.24128061532974243f,-0.09812223166227341f,0.25662198662757874f,0.30878305435180664f,0.2850944995880127f,0.08059325814247131f,0.12270645052194595f,0.08653318136930466f,0.1135551705956459f,0.1169375330209732f,-0.12777259945869446f,-0.1003541424870491f,0.06115368753671646f,0.07053282856941223f,0.19587816298007965f,0.13413973152637482f,0.023236913606524467f,0.0005882185068912804f,0.25687143206596375f,-0.09907843917608261f,0.038932379335165024f,-0.4898410141468048f,-0.10700542479753494f,-0.13242419064044952f,0.012211590074002743f,0.08234425634145737f,-0.0835946649312973f,0.4824508726596832f,0.021525317803025246f,0.26227065920829773f,0.27888432145118713f,-0.48013168573379517f,0.33802300691604614f,0.08171943575143814f,0.2660537660121918f,0.2407858967781067f,0.09603570401668549f,-0.13720104098320007f,0.16212302446365356f,0.14766943454742432f,-0.3675873279571533f,-0.46702924370765686f,0.022459033876657486f,0.092145174741745f,-0.05157855525612831f,0.20238260924816132f,-0.08893786370754242f,0.21418353915214539f,0.10240975767374039f,0.006793955806642771f,-0.10122945159673691f,-0.1837538778781891f,-0.18531829118728638f,0.023326801136136055f,0.3409188985824585f,-0.01302463747560978f,0.21119970083236694f,-0.029234202578663826f,0.11751123517751694f,0.027164964005351067f,0.3073936998844147f,-0.451041042804718f,0.19972752034664154f,0.24928085505962372f,-0.017031250521540642f,0.18920636177062988f,0.0012360751861706376f,-0.4523255228996277f,0.274189293384552f,0.11604635417461395f,0.014039775356650352f,0.07937020808458328f,0.1274935007095337f,-0.3709465563297272f,0.17785689234733582f,-0.06650339066982269f,-0.41484054923057556f,0.26890039443969727f,-0.2559497356414795f,-0.6936348080635071f,-0.04736166074872017f,-0.3725148141384125f},
{0.04155055060982704f,-0.10572249442338943f,0.0962810069322586f,0.08018922805786133f,0.5830176472663879f,0.04969837889075279f,0.051600515842437744f,-0.082025907933712f,0.08208225667476654f,-0.034422654658555984f,0.013420681469142437f,0.026264464482665062f,0.021352075040340424f,0.008866284042596817f,0.010932063683867455f,0.0360746905207634f,0.026616724207997322f,-0.007540127728134394f,-0.031189631670713425f,0.008850081823766232f,0.008929469622671604f,-0.0006907798233442008f,-0.002898706588894129f,0.006771313492208719f,0.015914637595415115f,0.024200325831770897f,-0.01782245747745037f,-0.053561851382255554f,-0.003594417590647936f,-0.03490446135401726f,0.009234711527824402f,-0.0018819862743839622f,-0.008786872029304504f,0.02502448484301567f,0.032459110021591187f,-0.021767351776361465f,0.08490103483200073f,0.10450617223978043f,0.10592116415500641f,0.10780608654022217f,0.11030621826648712f,0.07665147632360458f,0.13987307250499725f,0.11846964061260223f,0.08507737517356873f,0.2122773975133896f,0.22253243625164032f,0.04042108356952667f,-1.2242132425308228f,0.05546889081597328f,-1.2164788246154785f,-0.06887247413396835f,0.23102213442325592f,0.18594610691070557f,0.07952450960874557f,0.0715729147195816f,0.08102203905582428f,0.07075154781341553f,0.10434848070144653f,0.08263681083917618f,0.17310234904289246f,0.08790072798728943f,0.07327042520046234f,-0.00883227214217186f,0.01869805157184601f,-0.00814445223659277f,0.003264882368966937f,-0.00573002127930522f,0.029606668278574944f,0.034487877041101456f,0.047166451811790466f,-0.03300406038761139f,-0.032923623919487f,0.023907875642180443f,0.02190222591161728f,0.012092010118067265f,0.02765468694269657f,0.025242935866117477f,0.09050863981246948f,0.033162977546453476f,0.008610703982412815f,0.004197556059807539f,0.05295613408088684f,0.036555659025907516f,0.039424654096364975f,0.027347249910235405f,0.02124173566699028f,0.08264520764350891f,0.05069708451628685f,0.03531523421406746f,0.05964834615588188f,0.0722220316529274f,0.07786537706851959f,-0.03185233101248741f,-1.2307087182998657f,-0.05142492428421974f,0.057904202491045f,0.07167144119739532f,0.05152245610952377f,0.04593775421380997f,0.07114657014608383f,0.05158587172627449f,-0.034451186656951904f,0.006019494496285915f,-0.009833821095526218f,0.054229672998189926f,0.026885773986577988f,0.013452300801873207f,-0.03272346034646034f,-0.001955104758962989f,-0.003815540811046958f,-0.10229483991861343f,-0.05101306736469269f,-0.05107278376817703f,-0.006319824140518904f,-0.010961011052131653f,-0.059433214366436005f,0.023538773879408836f,0.03664400056004524f,0.018440842628479004f,-0.05682044103741646f,-0.007887947373092175f,-0.025678545236587524f,0.04603810980916023f,0.012042137794196606f,-0.010231210850179195f,-0.030666882172226906f,-0.0037777035031467676f,-0.003615913912653923f,-0.0802827775478363f,-0.05311782658100128f,-0.040809858590364456f,-0.016675466671586037f,-0.017734769731760025f,-0.0529007725417614f,0.12389609217643738f,-0.5184043645858765f,0.11392999440431595f,0.9659974575042725f,-1.0322829484939575f,1.0160578489303589f,0.1103811264038086f,-0.47731322050094604f,0.08482431620359421f,-0.011564834974706173f,0.005808825138956308f,-0.00855987798422575f,-0.08822067826986313f,-0.05101018026471138f,-0.048723235726356506f,-0.02807014435529709f,-0.016935715451836586f,-0.06948570907115936f,-0.039655327796936035f,-0.015536732040345669f,-0.01779131405055523f,-0.10990709066390991f,-0.04755676910281181f,-0.0776098296046257f,-0.00956367701292038f,-0.04466841742396355f,-0.07367253303527832f,-0.023840617388486862f,-0.0021357943769544363f,0.0007510603172704577f,-0.10796734690666199f,-0.04941418766975403f,-0.06669779121875763f,-0.006160097662359476f,-0.02966737188398838f,-0.05555887147784233f,0.023793889209628105f,0.0241178460419178f,0.0161823071539402f,-0.06897753477096558f,-0.0018603518838062882f,-0.03975518047809601f,0.00616413913667202f,0.029012229293584824f,0.013848484493792057f,-0.21612000465393066f,-0.23762348294258118f,-0.25074252486228943f,-0.129068985581398f,0.7058314681053162f,-0.157956063747406f,-0.24590465426445007f,-0.21579162776470184f,-0.2007012665271759f,-0.13588371872901917f},
{-0.2601081132888794f,-0.04387470707297325f,0.7884423136711121f,-0.10326658934354782f,0.01849902607500553f,-0.025811782106757164f,-0.004483342170715332f,-0.03296050429344177f,-0.14651374518871307f,-0.060415152460336685f,0.008662519045174122f,-0.008372357115149498f,-0.02982761524617672f,-0.06181655079126358f,0.06710278242826462f,-0.04308800771832466f,-0.02786003053188324f,0.07429734617471695f,0.04689251258969307f,0.01598602719604969f,0.01632642187178135f,0.02073444239795208f,-0.08191652595996857f,0.1139540746808052f,-0.004049916751682758f,0.042588844895362854f,0.19331414997577667f,0.382946640253067f,0.4200846552848816f,-0.9285069704055786f,0.23722729086875916f,-1.0664331912994385f,0.4329510033130646f,-0.7390759587287903f,0.3009582757949829f,0.4685839116573334f,0.09092085063457489f,0.09917481243610382f,0.005567706190049648f,0.00841149128973484f,0.046653181314468384f,0.12425611913204193f,-0.025688879191875458f,0.05461420491337776f,0.08666161447763443f,-0.020003264769911766f,-0.02603568695485592f,0.044282373040914536f,-0.07696119695901871f,-0.732279896736145f,0.002431802684441209f,-0.124213308095932f,-0.10384664684534073f,0.03905043378472328f,0.01678881235420704f,-0.03578701242804527f,-0.016838937997817993f,0.05368660017848015f,-0.0219302736222744f,-0.04909801483154297f,-0.08498027920722961f,0.1043858602643013f,0.0789080336689949f,0.0954376831650734f,0.045417316257953644f,0.038789618760347366f,-0.03669673949480057f,0.0240626223385334f,0.07977096736431122f,-0.10045992583036423f,0.022143099457025528f,0.19531552493572235f,0.07454656809568405f,-0.042779892683029175f,0.009202399291098118f,0.00819865707308054f,0.08135654777288437f,0.1074739396572113f,0.04543393477797508f,0.01568765752017498f,0.0796894058585167f,-0.017623497173190117f,-0.006086273118853569f,-0.10296151787042618f,-0.02480413019657135f,-0.1250629872083664f,0.011960452422499657f,-0.008657315745949745f,0.027861203998327255f,0.07808583229780197f,0.12786294519901276f,0.17639455199241638f,-0.6135435700416565f,0.12211766839027405f,-0.0398707389831543f,0.09033168107271194f,-0.01579391583800316f,0.12207161635160446f,0.1454489380121231f,-0.05868414789438248f,-0.02692757174372673f,-0.06359736621379852f,0.00027434222283773124f,-0.02109973505139351f,0.006045335903763771f,0.10377231985330582f,0.019980628043413162f,0.08296976238489151f,0.07055120170116425f,0.004196550697088242f,-0.09493418037891388f,0.04221794009208679f,0.03697510063648224f,0.025085197761654854f,0.058219801634550095f,0.013883211649954319f,0.04918241873383522f,-0.3538913428783417f,-0.32574012875556946f,0.5297155380249023f,-0.21720878779888153f,0.589595377445221f,-0.4675079882144928f,0.5376254320144653f,-0.3384535014629364f,-0.3351271450519562f,0.043486665934324265f,-0.0050461022183299065f,-0.056539226323366165f,-0.09924840927124023f,0.05259106308221817f,-0.008714035153388977f,0.13229572772979736f,0.0012010028585791588f,-0.0002653242845553905f,0.06392966955900192f,-0.012356878258287907f,-0.17048557102680206f,0.063996322453022f,-0.3401874303817749f,0.07009898871183395f,0.18985308706760406f,0.09458965063095093f,0.006126319989562035f,-0.015543337911367416f,-0.0016704504378139973f,-0.17586134374141693f,0.0147846769541502f,0.02955774776637554f,-0.10112827271223068f,0.08338064700365067f,-0.010132676921784878f,-0.009194807149469852f,0.04455834627151489f,0.01682155765593052f,-0.05605991184711456f,0.03792303055524826f,0.05839446932077408f,0.14774401485919952f,0.006197152193635702f,-0.025764133781194687f,0.10550196468830109f,0.027675408869981766f,-0.033820491284132004f,-0.059171415865421295f,-0.059176623821258545f,-0.06332222372293472f,0.049505654722452164f,0.049651142209768295f,-0.11388246715068817f,0.02000519447028637f,-0.07648485153913498f,-0.10253559052944183f,-0.10489246249198914f,-0.03880029544234276f,0.027904709801077843f,-0.06034712493419647f,0.03842732682824135f,-0.06262410432100296f,-0.006654356140643358f,-0.16867804527282715f,-0.07549436390399933f,0.13498394191265106f,-0.09984614700078964f,-0.10949795693159103f,-0.10369708389043808f,-0.13731414079666138f,-0.14078208804130554f,-0.17654886841773987f,-0.2775926887989044f},
{-0.2976042926311493f,-0.17850109934806824f,0.7021774649620056f,-0.12350399047136307f,-0.5501241087913513f,0.8158931732177734f,-0.13191600143909454f,-0.22675026953220367f,0.747779369354248f,-0.16311001777648926f,0.02031099796295166f,-0.12131868302822113f,0.02900945208966732f,-0.04589647799730301f,-0.21361108124256134f,-0.05486328899860382f,-0.026880500838160515f,-0.19000424444675446f,0.10874633491039276f,-0.259615957736969f,0.016179747879505157f,-0.1401415467262268f,-0.15493737161159515f,-0.03639143705368042f,-0.08688738942146301f,0.010915049351751804f,-0.13406993448734283f,0.3600560426712036f,0.19644871354103088f,0.16181179881095886f,0.22226972877979279f,0.2708190083503723f,0.10221073031425476f,0.18954934179782867f,0.21868804097175598f,0.06429407745599747f,0.059563327580690384f,0.10161010175943375f,-0.09138161689043045f,-0.24439382553100586f,0.08966290950775146f,-0.055701762437820435f,0.09398839622735977f,0.03279240056872368f,-0.3162378668785095f,0.005726526957005262f,-0.039662573486566544f,-0.20149236917495728f,-0.050465505570173264f,-0.8057061433792114f,-0.05068773031234741f,-0.030748968943953514f,0.009445019997656345f,-0.2781384289264679f,0.087735116481781f,0.24653759598731995f,0.27708691358566284f,0.09714026004076004f,0.20731934905052185f,-0.1037280261516571f,0.1040986031293869f,0.003352027153596282f,0.1688806414604187f,0.08743956685066223f,-0.08189792186021805f,-0.1454993486404419f,0.005409933160990477f,-0.020831439644098282f,-0.16985154151916504f,-0.43300971388816833f,-0.017173809930682182f,-0.1767081618309021f,0.09645108133554459f,-0.0812234953045845f,0.006728447042405605f,0.05346594750881195f,0.15795348584651947f,0.04332616925239563f,-0.04914260283112526f,-0.2135743945837021f,-0.21379530429840088f,0.23546423017978668f,0.3413647413253784f,0.18379540741443634f,0.21096675097942352f,0.20708604156970978f,0.04088086634874344f,0.20382219552993774f,0.1425306797027588f,-0.06195901706814766f,0.13988439738750458f,0.0954570546746254f,-1.3082561492919922f,0.06471399962902069f,0.017753049731254578f,-1.2603981494903564f,-0.07671206444501877f,0.15320108830928802f,-1.075868844985962f,-0.06397892534732819f,0.09798215329647064f,0.025144727900624275f,0.06541383266448975f,0.2939196527004242f,0.0983472615480423f,0.15561038255691528f,0.09686605632305145f,0.19463783502578735f,0.03369729965925217f,-0.17263130843639374f,-0.049862589687108994f,-0.11768843233585358f,0.05069250985980034f,0.035866282880306244f,0.08093074709177017f,0.0976746529340744f,-0.024143941700458527f,-0.18857616186141968f,-0.014725469052791595f,-0.3049863576889038f,-0.2135758250951767f,-0.02098262682557106f,-0.14533977210521698f,-0.32511335611343384f,-0.13188032805919647f,-0.3167056143283844f,0.11586577445268631f,0.0814824253320694f,0.1659346967935562f,-0.2348059117794037f,0.06774987280368805f,0.09591558575630188f,0.0935916155576706f,0.16472798585891724f,0.04929282143712044f,0.23434415459632874f,0.008258704096078873f,0.1711311638355255f,0.15324091911315918f,-0.4397100806236267f,0.08714285492897034f,0.3028687834739685f,0.05131999030709267f,0.05860770493745804f,-0.09370481222867966f,0.012038914486765862f,-0.0971926599740982f,-0.08946257829666138f,-0.5165533423423767f,-0.3098314106464386f,-0.24057361483573914f,-0.08657181262969971f,-0.2425682544708252f,0.12903903424739838f,0.21230576932430267f,0.10692963004112244f,0.2751510739326477f,0.13698305189609528f,0.14331260323524475f,-0.1002722904086113f,0.10351358354091644f,0.13548286259174347f,0.14582140743732452f,0.01064961589872837f,0.06027254834771156f,0.1467580795288086f,0.3424074649810791f,-0.09232746064662933f,0.06384479254484177f,-0.12032876163721085f,0.17157939076423645f,0.0872703567147255f,-0.042059265077114105f,-0.3963932693004608f,-0.008992424234747887f,-0.18328900635242462f,-0.06103438884019852f,-0.40856361389160156f,-0.26088792085647583f,-0.12349562346935272f,-0.5780676007270813f,-0.35166311264038086f,0.3283063471317291f,-0.01190795749425888f,-1.0462214946746826f,0.5251237154006958f,-0.4708724915981293f,-0.34108468890190125f,0.38991209864616394f,0.32253244519233704f},
{0.35687991976737976f,0.14594478905200958f,0.44288313388824463f,0.3001783490180969f,-0.21749724447727203f,0.374065101146698f,-0.005947324447333813f,0.3784802556037903f,-0.0004196547670289874f,0.04131482541561127f,-0.011185222305357456f,0.06744664907455444f,0.09511551260948181f,0.06420456618070602f,0.10471027344465256f,-0.033685874193906784f,0.07908391952514648f,0.10681317746639252f,0.09846422076225281f,0.02585572935640812f,0.10572542995214462f,0.08296605199575424f,0.07122877240180969f,0.11025607585906982f,0.10659981518983841f,0.09461013972759247f,0.06478393077850342f,0.11007477343082428f,0.06331251561641693f,0.00981383677572012f,0.08455272018909454f,0.11260578036308289f,0.14650800824165344f,0.16621547937393188f,0.06027969345450401f,0.059324752539396286f,0.022273235023021698f,0.055316727608442307f,-0.016471538692712784f,0.025729956105351448f,0.08439192175865173f,0.07775957882404327f,0.11601325869560242f,0.020935803651809692f,0.06393761187791824f,-0.020070116966962814f,-0.1933392435312271f,-0.08695510774850845f,0.023827994242310524f,-0.5300117135047913f,0.02919207327067852f,-0.053829483687877655f,0.09010973572731018f,-0.09588855504989624f,0.028421955183148384f,0.027758896350860596f,-0.0023994683288037777f,0.07934225350618362f,0.014195473864674568f,0.11294037848711014f,0.10759340226650238f,0.010156841017305851f,0.09000790864229202f,0.08925066888332367f,0.010598424822092056f,0.0741424411535263f,0.0937914103269577f,0.0731072872877121f,0.09370248764753342f,0.011530661955475807f,0.04992057755589485f,-0.06904274970293045f,-0.34534752368927f,-0.3221603035926819f,-0.3744981288909912f,-0.23616796731948853f,-0.6448336839675903f,-0.237966850399971f,-0.27936118841171265f,-0.2982763946056366f,-0.24539068341255188f,0.16478601098060608f,0.013932999223470688f,0.09744436293840408f,0.11483920365571976f,0.17055188119411469f,0.14771601557731628f,0.04608315974473953f,0.09567498415708542f,0.021483343094587326f,-0.053503867238759995f,-0.6060349345207214f,0.1283889263868332f,0.04570458084344864f,-0.05480078607797623f,0.08911891281604767f,-0.25789541006088257f,1.0239397287368774f,-0.5930401086807251f,-0.031089967116713524f,0.09827278554439545f,-0.04383128881454468f,0.005335604306310415f,-0.017357774078845978f,-0.026829101145267487f,0.05449886620044708f,-0.21648651361465454f,-0.059000227600336075f,-0.1134972870349884f,-0.08240938931703568f,-0.09191237390041351f,-0.08651391416788101f,0.014416806399822235f,-0.051429618149995804f,-0.07957261800765991f,-0.2156108170747757f,-0.09176414459943771f,0.07677436619997025f,0.15178506076335907f,-0.04558366537094116f,0.1084461361169815f,0.18696042895317078f,0.09545442461967468f,0.10462275892496109f,-0.14135606586933136f,0.06493785232305527f,-0.0008337775361724198f,-0.017272422090172768f,-0.027287162840366364f,-0.07076025754213333f,-0.002654400886967778f,0.02735300548374653f,-0.026257116347551346f,-0.18520569801330566f,-0.06139387562870979f,0.005199090577661991f,-0.12171199172735214f,-0.08415259420871735f,-0.03966259956359863f,-0.4189141094684601f,-0.02896144986152649f,-0.04628375172615051f,-0.2382962554693222f,0.02229011058807373f,-0.032359521836042404f,-0.01227363757789135f,-0.08877361565828323f,-0.0049979062750935555f,-0.018665647134184837f,-0.03272232040762901f,-0.046493202447891235f,-0.17951461672782898f,-0.06086265668272972f,-0.06771257519721985f,-0.035949643701314926f,-0.08108923584222794f,-0.020619550719857216f,0.04887211695313454f,-0.053968410938978195f,0.016690513119101524f,-0.24557122588157654f,-0.11249303817749023f,0.4366508722305298f,0.1765875518321991f,0.3736344575881958f,0.3307401239871979f,0.7164906859397888f,0.3533587157726288f,0.42804619669914246f,-0.045029837638139725f,0.4014132022857666f,-0.12744836509227753f,-0.010691928677260876f,-0.1044476255774498f,-0.040114421397447586f,-0.0025226164143532515f,-0.027084622532129288f,-0.045896753668785095f,-0.1924474835395813f,-0.07514075934886932f,0.04753623157739639f,0.04391204193234444f,0.029182959347963333f,0.06071324273943901f,-0.12433614581823349f,0.04096614196896553f,0.010460211895406246f,-0.497517853975296f,-0.014122904278337955f,-0.39369022846221924f},
{-0.3316209614276886f,-0.1896945834159851f,-0.374600350856781f,-0.29385533928871155f,-0.6484283208847046f,-0.3235597014427185f,-0.31054940819740295f,-0.46730345487594604f,-0.18519029021263123f,0.029367942363023758f,-0.004728682339191437f,-0.06475464999675751f,-0.1310502141714096f,-0.18222272396087646f,0.016357187181711197f,-0.06175011023879051f,-0.18881258368492126f,-0.06035768985748291f,-0.06545889377593994f,0.0844430923461914f,-0.04385877773165703f,0.1136636734008789f,-0.11182009428739548f,0.07600299268960953f,0.02993251197040081f,0.14528755843639374f,0.04711712896823883f,-0.005869313143193722f,-0.008115681819617748f,-0.02210650034248829f,0.02061043493449688f,-0.15120157599449158f,-0.03285830467939377f,-0.06683162599802017f,0.055369459092617035f,-0.05670570209622383f,-0.025775332003831863f,0.09991040080785751f,0.14685462415218353f,0.0867285504937172f,-0.08831889927387238f,0.1040022224187851f,-0.11460477113723755f,0.11083897203207016f,0.08619969338178635f,-0.21093398332595825f,-0.18630316853523254f,-0.0004907392431050539f,-0.16988836228847504f,-0.19349384307861328f,-0.17586849629878998f,-0.0997280701994896f,-0.11997395008802414f,-0.24648457765579224f,0.09373997151851654f,0.07962920516729355f,0.044043876230716705f,0.06773515045642853f,-0.11236505210399628f,0.05604236572980881f,0.023604612797498703f,0.09624587744474411f,-0.021002966910600662f,-0.04389921948313713f,-0.02257581427693367f,-0.018664810806512833f,0.030478283762931824f,-0.08101622760295868f,-0.08208872377872467f,-0.023088011890649796f,0.056212250143289566f,-0.06431619077920914f,0.1056000292301178f,0.08310703933238983f,0.1211739256978035f,0.10760831087827682f,-0.08056987076997757f,0.08339808881282806f,-0.014549928717315197f,0.050089508295059204f,0.025476306676864624f,0.06258486211299896f,0.06685955822467804f,0.03158333897590637f,0.04565205052495003f,-0.12146743386983871f,0.016037529334425926f,-0.049637630581855774f,0.07032810896635056f,-0.06761280447244644f,0.21432578563690186f,0.6060975790023804f,0.4235649108886719f,0.1284054070711136f,0.06054111197590828f,0.13215777277946472f,0.3055533766746521f,0.29384276270866394f,0.32381555438041687f,0.008019537664949894f,-0.18707917630672455f,0.01853581704199314f,-0.025966407731175423f,-0.0033099674619734287f,-0.07899357378482819f,0.006387758534401655f,-0.15857648849487305f,-0.004875926300883293f,-0.05161364749073982f,-0.11448413133621216f,0.027925977483391762f,-0.05875246971845627f,-0.05387180671095848f,-0.08831898868083954f,0.004549976903945208f,-0.07599540799856186f,-0.06857991963624954f,-0.013374919071793556f,-0.1054714173078537f,0.015812527388334274f,-0.06429090350866318f,0.08649256825447083f,-0.11839281022548676f,0.1252182424068451f,-0.10248145461082458f,0.012156609445810318f,0.06156580150127411f,-0.09980808198451996f,-0.06562838703393936f,-0.07434021681547165f,-0.014659849926829338f,-0.1438208669424057f,0.10318940132856369f,-0.08542758226394653f,-0.05947456508874893f,0.2395692616701126f,0.19876115024089813f,-0.18738530576229095f,0.13309551775455475f,0.3595827519893646f,0.1748252660036087f,-0.030223343521356583f,0.09068158268928528f,0.2551736533641815f,-0.011727683246135712f,-0.08635319769382477f,0.06880638748407364f,0.0023873448371887207f,-0.05337690934538841f,-0.0707508996129036f,0.07147090137004852f,-0.05774962902069092f,0.03133391961455345f,0.010347886942327023f,-0.11254408210515976f,0.15416309237480164f,-0.021036479622125626f,0.23145407438278198f,-0.05582856014370918f,0.08469247072935104f,-0.08558384329080582f,0.019578276202082634f,-0.05589144304394722f,-0.08992282301187515f,0.02136598341166973f,-0.10096032172441483f,-0.08359796553850174f,-0.13546022772789001f,0.04339471086859703f,-0.11041755974292755f,-0.041183557361364365f,-0.001431758631952107f,-0.03819156810641289f,0.06622008234262466f,0.024265490472316742f,0.010108704678714275f,-0.03977365791797638f,0.05029767379164696f,-0.02866753749549389f,0.00803963653743267f,-0.056946270167827606f,0.14106298983097076f,0.07982966303825378f,0.03245024010539055f,-0.010862643830478191f,0.11951326578855515f,0.0775628313422203f,0.13097037374973297f,0.09597545862197876f,-0.6738201379776001f},
{-0.17643049359321594f,0.11227286607027054f,0.05779976397752762f,0.06483791768550873f,0.004218090325593948f,-0.1855889856815338f,-0.10167156904935837f,-0.10960865765810013f,0.049912676215171814f,0.10730412602424622f,-0.7615890502929688f,-0.2538333833217621f,-0.9697999954223633f,-0.1444750875234604f,0.19712653756141663f,-0.49907776713371277f,0.3104575276374817f,-0.8537296056747437f,0.0038982518017292023f,0.08041945844888687f,0.025558974593877792f,0.019090570509433746f,-0.014326740987598896f,0.021765772253274918f,0.012146632187068462f,0.05604182928800583f,0.046663615852594376f,-0.026108739897608757f,0.09034215658903122f,-0.07118143141269684f,0.0566168911755085f,-0.0432913675904274f,0.02972729690372944f,0.006964364089071751f,0.01760001853108406f,0.05546186864376068f,-0.008629625663161278f,0.10691913217306137f,0.053662486374378204f,0.08511721342802048f,0.034694526344537735f,0.04667491838335991f,0.056800536811351776f,0.059880319982767105f,0.09841837733983994f,-0.05807929113507271f,0.03483076021075249f,-0.0726013332605362f,-0.007220638915896416f,-0.04863820970058441f,-0.011778566986322403f,-0.10120157897472382f,-0.009191053919494152f,-0.0318010039627552f,-0.05504193156957626f,0.07057158648967743f,0.014333987608551979f,0.05548432841897011f,-0.029720772057771683f,0.019708385691046715f,0.007244379259645939f,0.04020107910037041f,0.04711863026022911f,-0.0654124990105629f,0.09196509420871735f,-0.027769939973950386f,0.02995450422167778f,-0.06337166577577591f,0.007799484767019749f,0.0048351227305829525f,0.0008867337601259351f,0.012065159156918526f,0.0036684772931039333f,0.11038815975189209f,0.04080250859260559f,0.06669746339321136f,0.020183084532618523f,0.040852710604667664f,0.02566489577293396f,0.058587558567523956f,0.07077591121196747f,-0.0572393499314785f,0.07633086293935776f,0.00444163428619504f,0.0534757599234581f,-0.07187697291374207f,-0.011707834899425507f,-0.03386768326163292f,0.0012206307146698236f,-0.02360815368592739f,-0.32090461254119873f,0.10419228672981262f,-0.013859977945685387f,0.2586562931537628f,-0.06180913373827934f,0.20689204335212708f,-0.006385854911059141f,0.2137051820755005f,0.12458474934101105f,-0.22594565153121948f,0.11977297067642212f,-0.037787821143865585f,0.024990176782011986f,0.07966248691082001f,-0.059623949229717255f,-0.03793182224035263f,0.0204008761793375f,0.1354808658361435f,-0.2549861669540405f,-0.08969581872224808f,0.013822467066347599f,-0.1273091733455658f,-0.03632175922393799f,-0.08611953258514404f,-0.06810680031776428f,-0.12985475361347198f,-0.01870928332209587f,-0.19611480832099915f,0.033367518335580826f,-0.02325618825852871f,-0.01629454270005226f,0.08401696383953094f,0.0037514769937843084f,0.042128290981054306f,-0.014125943183898926f,0.06687261909246445f,-0.19630999863147736f,-0.034008316695690155f,0.02683117985725403f,-0.07344777137041092f,0.005418261978775263f,-0.06559719145298004f,0.01680131070315838f,-0.0839829221367836f,0.022157855331897736f,-0.09328772872686386f,0.04211502522230148f,0.09530070424079895f,0.0198280718177557f,0.019371630623936653f,0.03326399251818657f,0.04813787341117859f,-0.0030789899174124002f,0.1270175576210022f,-0.19686448574066162f,0.007746737450361252f,0.06214727461338043f,-0.020441126078367233f,0.03394521027803421f,0.0052359504625201225f,0.032131388783454895f,-0.04902109131217003f,0.08094856888055801f,-0.17980536818504333f,0.027126552537083626f,0.08327101916074753f,-0.0166656281799078f,0.043733756989240646f,0.012080439366400242f,0.02074938267469406f,-0.03397317975759506f,0.0690896213054657f,-0.21113279461860657f,0.003469662507995963f,0.07018502801656723f,-0.058097586035728455f,0.0218800138682127f,-0.03520588204264641f,0.004496272187680006f,-0.05427933856844902f,0.048336613923311234f,-0.20740507543087006f,-0.017942721024155617f,0.03383168578147888f,-0.031169291585683823f,0.028889022767543793f,-0.023099584504961967f,0.012885388918220997f,-0.09163357317447662f,-0.021898912265896797f,0.5739961862564087f,-0.04847659170627594f,-0.13487988710403442f,-0.04728034511208534f,-0.1411522477865219f,-0.09310107678174973f,-0.07351065427064896f,-0.05706389248371124f,-0.15243224799633026f,0.12315388023853302f},
