#ifndef UTTT2_PARAMETERS_H
#define UTTT2_PARAMETERS_H

float hiddenWeights[128][190] = {{0.09215712547302246f,-0.07119841128587723f,0.0496835894882679f,0.7180410623550415f,-0.0010369280353188515f,-0.003399771638214588f,0.16840150952339172f,0.5381045937538147f,0.2913491129875183f,0.03161163628101349f,-0.16824716329574585f,-0.08809210360050201f,-0.005395352374762297f,0.006777344271540642f,0.23086827993392944f,0.34654054045677185f,-0.006683701649308205f,0.12372811883687973f,-0.18360289931297302f,-0.15113885700702667f,-0.20994649827480316f,-0.1446782946586609f,-0.0699678286910057f,-0.02099756710231304f,0.4008512794971466f,0.22136378288269043f,-0.09557139128446579f,-0.240371435880661f,-0.17469656467437744f,-0.25671181082725525f,0.2187446802854538f,0.19585660099983215f,0.3953835368156433f,-0.40886780619621277f,-0.19196034967899323f,-0.16741624474525452f,-0.0616697296500206f,0.2633740305900574f,0.20491281151771545f,-0.47327950596809387f,-0.1913253515958786f,-0.06753260642290115f,0.23021458089351654f,0.2109285444021225f,0.24207334220409393f,-0.0028088614344596863f,0.00822790153324604f,-0.05878140404820442f,0.1500292867422104f,-0.47436580061912537f,0.0426286943256855f,-0.24557916820049286f,0.6167801022529602f,0.08340351283550262f,0.080997534096241f,0.06422356516122818f,0.13731737434864044f,0.11116161942481995f,-0.33433160185813904f,-0.14058656990528107f,0.06490383297204971f,0.26530736684799194f,0.023946113884449005f,0.19018052518367767f,-0.3498084545135498f,0.041041262447834015f,0.19154831767082214f,0.11445588618516922f,0.014499058946967125f,-0.299187570810318f,-0.020589906722307205f,-0.2808055281639099f,-0.09868809580802917f,0.03776590898633003f,0.32122212648391724f,-0.46203431487083435f,0.08997929841279984f,-0.09865923225879669f,0.026832228526473045f,-0.158491849899292f,-0.19603852927684784f,0.10861718654632568f,0.14433050155639648f,0.2196044623851776f,0.0919954851269722f,-0.36665454506874084f,0.09688205271959305f,0.006463403347879648f,0.40622255206108093f,-0.2966558337211609f,0.1496882438659668f,-0.35783225297927856f,-0.14929507672786713f,-0.3231162130832672f,-0.5257243514060974f,0.3010860085487366f,-0.3540891706943512f,0.2974276840686798f,0.20791922509670258f,-0.26436948776245117f,-0.0925920158624649f,-0.07969328761100769f,0.23747190833091736f,0.3882688283920288f,0.2580168843269348f,-0.10853086411952972f,-0.061266835778951645f,0.4599877893924713f,0.3378995656967163f,0.025068167597055435f,0.2207459807395935f,0.1572222262620926f,-0.35757195949554443f,0.09253133088350296f,-0.2366475909948349f,-0.11227081716060638f,-0.25064486265182495f,-0.5118780732154846f,0.4124259650707245f,-0.041137855499982834f,0.17790023982524872f,-0.1992289274930954f,0.19394785165786743f,0.07804697751998901f,-0.12367643415927887f,0.24263744056224823f,0.10318145900964737f,-0.12884268164634705f,-0.16724558174610138f,-0.11232822388410568f,-0.02503160759806633f,0.284657746553421f,-0.2882128357887268f,0.23570096492767334f,-0.09931112080812454f,-0.3565293252468109f,-0.053469087928533554f,0.16916638612747192f,0.1096237525343895f,-0.3730236887931824f,-0.3381187915802002f,-0.23623605072498322f,-0.343646377325058f,-0.44336795806884766f,0.29475411772727966f,-0.045386843383312225f,-0.14443479478359222f,-0.23841841518878937f,0.23321352899074554f,-0.45601579546928406f,0.15536469221115112f,0.08493383228778839f,0.25226157903671265f,0.127582386136055f,0.303024560213089f,-0.10806792974472046f,0.45895659923553467f,-0.5610506534576416f,0.022578168660402298f,-0.3745410740375519f,0.11179027706384659f,-0.7266571521759033f,0.24294321238994598f,-0.16086064279079437f,0.057546015828847885f,0.1801365166902542f,0.005728254094719887f,-0.3223440945148468f,-0.1032993271946907f,-0.24847659468650818f,0.3616297245025635f,-0.13395223021507263f,-0.2618972063064575f,-0.1099046841263771f,0.2419799417257309f,0.1273026317358017f,0.25387313961982727f,0.5341098308563232f,0.2804674804210663f,-0.16851530969142914f,-0.2815493047237396f,-0.0009671845473349094f,-0.17263710498809814f,-0.24690939486026764f,-0.07919882982969284f,-0.22428402304649353f,-0.13970845937728882f,-0.15576738119125366f,-0.06529996544122696f,0.5454668998718262f},
{0.19405031204223633f,0.10125648975372314f,0.05480046197772026f,0.38682714104652405f,0.05608072876930237f,0.020006045699119568f,0.10683460533618927f,0.31586459279060364f,0.11410734802484512f,-0.005239651072770357f,0.09606088697910309f,0.08128900080919266f,-0.05220585688948631f,-0.10471458733081818f,-0.08448982983827591f,-0.1190899908542633f,-0.07828293740749359f,0.07282562553882599f,0.09937894344329834f,-0.1366061419248581f,0.04340128228068352f,0.13172830641269684f,0.21473394334316254f,0.09560516476631165f,-0.03309065103530884f,-0.16307896375656128f,-0.10533097386360168f,-0.02177446149289608f,0.04612842947244644f,-0.11756495386362076f,0.002411742229014635f,0.0018529336666688323f,-0.03893529996275902f,0.02198885940015316f,-0.15799809992313385f,0.18894553184509277f,-0.05031221732497215f,-0.06351684778928757f,0.10884371399879456f,-0.056751277297735214f,0.03567557409405708f,0.17234453558921814f,0.08038582652807236f,-0.06409259885549545f,0.15478204190731049f,-0.20615196228027344f,-0.10180971771478653f,0.1442900151014328f,0.26158565282821655f,-0.0447048544883728f,0.22064730525016785f,0.09628590196371078f,-0.1477632373571396f,-0.22542765736579895f,-0.13013499975204468f,-0.13537044823169708f,-0.016215020790696144f,0.17540302872657776f,-0.0835791528224945f,-0.08260132372379303f,0.15775908529758453f,-0.1471341997385025f,-0.09106764942407608f,0.03289655223488808f,0.08419863879680634f,0.1110503077507019f,-0.03002343326807022f,-0.1896226853132248f,-0.18527720868587494f,0.009283053688704967f,0.23051297664642334f,-0.07440043985843658f,-0.06462548673152924f,0.14139248430728912f,-0.0836113914847374f,-0.11598259210586548f,0.06346313655376434f,-0.0655575841665268f,-0.3953242897987366f,0.05187535285949707f,-0.06095021218061447f,0.09928713738918304f,-0.1257534623146057f,-0.30199262499809265f,-0.25117236375808716f,0.18026016652584076f,0.13370518386363983f,0.1781439632177353f,0.13613101840019226f,0.06099597364664078f,0.26417791843414307f,0.026652777567505836f,0.03692259639501572f,-0.13730676472187042f,-0.10178158432245255f,-0.03517237305641174f,-0.2356245219707489f,-0.2617093324661255f,0.07105192542076111f,-0.2128436118364334f,0.07511249929666519f,0.011770653538405895f,0.11195027083158493f,0.07715122401714325f,0.013403385877609253f,-0.007141856011003256f,-0.029229922220110893f,-0.0021317172795534134f,-0.26394981145858765f,-0.20692914724349976f,-0.005988240707665682f,0.0948292687535286f,0.07287615537643433f,-0.253156840801239f,-0.2539304196834564f,0.019874759018421173f,0.05068163201212883f,0.21655961871147156f,-0.12856228649616241f,-0.01916699856519699f,0.166748508810997f,-0.170750692486763f,0.20041584968566895f,0.009645098820328712f,-0.059055913239717484f,0.12038272619247437f,0.15046127140522003f,0.0861101970076561f,0.10884208232164383f,-0.04818228632211685f,0.15642109513282776f,-0.14555203914642334f,-0.01903734728693962f,-0.009365820325911045f,-0.05597374588251114f,0.17355813086032867f,0.24118615686893463f,-0.1607958823442459f,-0.05275170877575874f,-0.40528005361557007f,-0.164601132273674f,-0.20826900005340576f,0.06083497405052185f,0.1448187530040741f,0.20509015023708344f,-0.045020945370197296f,-0.1211026981472969f,0.005481885280460119f,-0.05939522758126259f,-0.08136672526597977f,-0.007055504247546196f,-0.05832996219396591f,-0.03701050952076912f,0.07066051661968231f,0.16327472031116486f,0.1872708648443222f,0.12404824048280716f,0.028094831854104996f,0.20539981126785278f,-0.058635856956243515f,0.049577172845602036f,-0.051735471934080124f,-0.0794883444905281f,-0.00021460607240442187f,-0.141983762383461f,0.0957249104976654f,-0.35887792706489563f,-0.14476825296878815f,0.12542946636676788f,-0.20364311337471008f,-0.04643833264708519f,-0.042983528226614f,0.019294455647468567f,0.08028700202703476f,0.06245521456003189f,-0.1237802729010582f,0.09023415297269821f,-0.10558249801397324f,0.06294116377830505f,-0.30618712306022644f,0.06014343723654747f,-0.08489620685577393f,-0.020008904859423637f,0.22913867235183716f,-0.3567541241645813f,0.020045612007379532f,-0.2592063546180725f,0.14737385511398315f,-0.01719575934112072f,0.03805680200457573f},
{0.00916421227157116f,0.24183332920074463f,-0.0021326723508536816f,-0.11577236652374268f,-0.464154988527298f,-0.03072243556380272f,-0.23047102987766266f,-0.07530765235424042f,0.24023084342479706f,-0.12567709386348724f,0.012819995172321796f,0.003002346958965063f,0.07443369179964066f,-0.046504151076078415f,-0.21934236586093903f,0.2416238635778427f,-0.025799816474318504f,-0.056780580431222916f,-0.22165769338607788f,-0.14174784719944f,0.03823602944612503f,-0.1568884253501892f,0.01632053218781948f,-0.0777539610862732f,-0.18431878089904785f,0.12713202834129333f,-0.0452791266143322f,0.03502018377184868f,0.23326630890369415f,-0.230848029255867f,0.12156755477190018f,-0.03842785954475403f,0.12942087650299072f,-0.021653877571225166f,-0.019911034032702446f,0.1071050763130188f,0.10771883279085159f,-0.25748410820961f,-0.07354016602039337f,-0.2995336651802063f,0.0620669424533844f,-0.06960687041282654f,0.2316783219575882f,0.13592691719532013f,0.11460470408201218f,-0.016197238117456436f,0.34144309163093567f,-0.28350040316581726f,0.09424720704555511f,-0.41364723443984985f,-0.09144988656044006f,-0.09773824363946915f,0.4082982540130615f,-0.29898735880851746f,0.24602819979190826f,0.012742839753627777f,0.1327553540468216f,0.1058138832449913f,-0.21797224879264832f,-0.04755712300539017f,-0.33652612566947937f,0.12773777544498444f,0.2604219913482666f,0.08015986531972885f,-0.11727122217416763f,-0.20616057515144348f,0.002243153052404523f,0.03007175773382187f,0.007542130537331104f,-0.2278318554162979f,0.09082961082458496f,-0.03471532464027405f,-0.012881080619990826f,0.29099521040916443f,0.03265742212533951f,0.20369501411914825f,0.278690367937088f,-0.008295639418065548f,0.004339319188147783f,-0.14184001088142395f,-0.01305865403264761f,0.07367367297410965f,-0.1645003855228424f,0.17163626849651337f,-0.15289384126663208f,0.03107105754315853f,0.13125069439411163f,-0.2490086406469345f,-0.09546547383069992f,0.013375087641179562f,0.4002028703689575f,0.3799601197242737f,0.23322494328022003f,-0.14841295778751373f,-0.16501252353191376f,-0.3711061179637909f,0.16318045556545258f,0.2773469388484955f,0.29702651500701904f,-0.10675805062055588f,0.031165987253189087f,-0.2250639647245407f,-0.053220007568597794f,0.1982617974281311f,-0.17755155265331268f,0.1149832159280777f,0.09041973203420639f,-0.07922068983316422f,0.2480798363685608f,-0.0892852395772934f,-0.09133606404066086f,-0.2662731111049652f,0.2314898520708084f,0.18944352865219116f,0.1270638257265091f,0.3330013155937195f,-0.18128961324691772f,0.1345350742340088f,-0.17347633838653564f,-0.1323791742324829f,-0.05514742061495781f,-0.20541611313819885f,-0.1931527704000473f,0.03157412260770798f,0.15730786323547363f,0.0748278871178627f,0.18025043606758118f,-0.16830165684223175f,0.08024665713310242f,0.014555186033248901f,-0.017218437045812607f,-0.1453196406364441f,-0.3115238845348358f,-0.051680441945791245f,-0.16169536113739014f,-0.11980633437633514f,-0.19358736276626587f,0.33080247044563293f,-0.28162553906440735f,-0.061247047036886215f,-0.010620961897075176f,0.0036866446025669575f,-0.09512567520141602f,0.15604962408542633f,0.18602102994918823f,0.045343413949012756f,0.07975886017084122f,-0.051973775029182434f,-0.18612270057201385f,-0.05940251424908638f,0.09384474158287048f,0.13578040897846222f,0.041562873870134354f,0.17031720280647278f,-0.09196968376636505f,-0.012622907757759094f,0.11474212259054184f,0.004283438436686993f,0.11846017837524414f,-0.17708274722099304f,0.02007593959569931f,-0.2140820473432541f,-0.20511338114738464f,-0.18234920501708984f,0.18016009032726288f,0.06661374121904373f,0.1215921938419342f,0.059189390391111374f,-0.08623014390468597f,-0.20381900668144226f,-0.020276054739952087f,0.055480483919382095f,-0.1919306516647339f,-0.08338920772075653f,0.28639352321624756f,-0.03473161160945892f,-0.026130152866244316f,0.19422222673892975f,-0.10939332097768784f,-0.12969249486923218f,-0.10609705001115799f,0.0021543081384152174f,0.0058328029699623585f,0.15544982254505157f,-0.0912962257862091f,-0.35060834884643555f,0.11756826937198639f,0.11297039687633514f,-0.10746032744646072f,-0.30430448055267334f},
{-0.09773840010166168f,0.15381154417991638f,0.5221295356750488f,-0.04943915084004402f,0.9689194560050964f,-0.004493769258260727f,0.35165438055992126f,0.11986000090837479f,-0.37109947204589844f,0.12121666967868805f,-0.09928559511899948f,-0.12232810258865356f,0.044672273099422455f,0.10616309195756912f,-0.1317419707775116f,-0.04348403960466385f,-0.18608930706977844f,0.05862169340252876f,-0.15492631494998932f,-0.026103045791387558f,0.08955077081918716f,0.08144287019968033f,0.03684108704328537f,0.10979368537664413f,0.056571073830127716f,-0.15009841322898865f,0.06629915535449982f,-0.005474071484059095f,-0.02127990685403347f,0.06140418350696564f,-0.14346657693386078f,0.12284072488546371f,0.014283450320363045f,-0.08456993848085403f,0.10838373005390167f,0.10017397999763489f,-0.15097467601299286f,0.03746155649423599f,-0.028143972158432007f,-0.014698943123221397f,0.30042803287506104f,-0.10803079605102539f,-0.21177972853183746f,-0.13694342970848083f,-0.19199347496032715f,0.01523861475288868f,-0.13170373439788818f,-0.24012653529644012f,0.4238467812538147f,-0.3270018696784973f,0.06098529323935509f,0.298717737197876f,0.21332891285419464f,-0.08238212764263153f,-0.0002886065049096942f,-0.010855917818844318f,-0.11524789035320282f,-0.0723760798573494f,-0.05851488932967186f,0.0721176490187645f,0.03302844613790512f,-0.1085246130824089f,0.04402987286448479f,0.017289498820900917f,0.006877630017697811f,-0.04541841149330139f,0.08934664726257324f,0.10626409947872162f,0.05372404679656029f,0.16379284858703613f,-0.07798206061124802f,-0.12120700627565384f,0.07771836221218109f,-0.06902983784675598f,-0.03715162351727486f,-0.012453683651983738f,0.000382308557163924f,0.05762714520096779f,0.1650158166885376f,-0.08687747269868851f,-0.020610377192497253f,0.08055096864700317f,-0.04840954765677452f,0.002409788081422448f,0.03469991683959961f,0.07232733070850372f,0.0773405134677887f,-0.033660389482975006f,-0.1411243975162506f,-0.03221632167696953f,0.14463850855827332f,-0.07910723984241486f,0.04128691554069519f,-0.18744686245918274f,-0.39092960953712463f,-0.1828569769859314f,-0.356967568397522f,0.1652028113603592f,-0.036710891872644424f,0.1681700348854065f,0.09326274693012238f,0.034293778240680695f,0.1463174670934677f,0.008031101897358894f,0.008865096606314182f,-0.051335494965314865f,-0.14118346571922302f,-0.17386572062969208f,-0.031187303364276886f,0.05797729268670082f,-0.03393125906586647f,-0.03678237274289131f,0.2133093774318695f,0.07673870027065277f,-0.088385209441185f,-0.008429878391325474f,-0.15202251076698303f,-0.22098365426063538f,-0.19395209848880768f,-0.23747381567955017f,0.04742061719298363f,0.14265157282352448f,-0.03395330533385277f,-0.08986299484968185f,-0.3458176851272583f,0.10909881442785263f,0.09459138661623001f,-0.03728646785020828f,-0.08380011469125748f,0.09603064507246017f,0.0756991058588028f,0.014236907474696636f,-0.005606160033494234f,-0.15671269595623016f,-0.13078638911247253f,0.09068337827920914f,0.066545769572258f,-0.018224645406007767f,-0.04893769696354866f,-0.44175422191619873f,-0.22877013683319092f,-0.08488704264163971f,0.20923474431037903f,-0.04966459050774574f,-0.06355640292167664f,-0.017858603969216347f,-0.05681106820702553f,-0.07758580148220062f,0.08184606581926346f,0.14021068811416626f,-0.1032382994890213f,-0.13989172875881195f,-0.14334680140018463f,-0.08468931168317795f,-0.13933393359184265f,0.11433063447475433f,-0.12241104990243912f,0.2069428414106369f,0.017341090366244316f,-0.07219064235687256f,-0.08283849060535431f,0.0002639878948684782f,-0.04665003716945648f,-0.02296665869653225f,0.08526589721441269f,0.11167852580547333f,0.1617584079504013f,0.18964192271232605f,0.1925433725118637f,0.06490278989076614f,0.07258566468954086f,-0.09018819779157639f,0.02094847708940506f,-0.039580315351486206f,0.02620510756969452f,0.0200527161359787f,0.007813449949026108f,-0.006162709556519985f,-0.03603837266564369f,0.07421602308750153f,-0.25985047221183777f,-0.020427752286195755f,-0.14289486408233643f,-0.027484262362122536f,0.8861186504364014f,-0.09485337883234024f,-0.1638343334197998f,-0.19079621136188507f,-0.34650033712387085f,-0.31990793347358704f},
{0.07671059668064117f,0.015149848535656929f,0.08343037962913513f,0.4323062300682068f,0.2892165780067444f,0.15531037747859955f,0.16262078285217285f,-0.13184355199337006f,0.1426229625940323f,0.14823056757450104f,0.19090312719345093f,0.14584694802761078f,-0.05616661533713341f,0.009993602521717548f,0.18183843791484833f,-0.019586239010095596f,-0.009069261141121387f,0.16821055114269257f,-0.11802040785551071f,-0.03000079281628132f,-0.03326675668358803f,-0.0004052672884427011f,-0.4433039426803589f,0.05659490451216698f,-0.24252019822597504f,-0.06369920819997787f,-0.029676048085093498f,0.1659313440322876f,0.11156061291694641f,0.2368260622024536f,0.1173161119222641f,0.25555941462516785f,-0.03650236502289772f,0.21503879129886627f,-0.14687834680080414f,-0.21943724155426025f,0.0198226198554039f,-0.13114210963249207f,-0.022195732221007347f,-0.1195542961359024f,0.03137586638331413f,0.006902121007442474f,0.03954734653234482f,0.0285246130079031f,-0.12155997008085251f,-0.08877747505903244f,0.19527284801006317f,-0.2811448276042938f,0.11974554508924484f,-0.2800786793231964f,0.1404045820236206f,-0.11682191491127014f,0.2359033077955246f,-0.1993379294872284f,-0.13431057333946228f,-0.06915551424026489f,-0.0906246155500412f,0.0033771211747080088f,0.15146803855895996f,0.05451664328575134f,-0.025349648669362068f,-0.06310019642114639f,0.02501879446208477f,-0.10658833384513855f,-0.3258615732192993f,-0.010442563332617283f,0.13294923305511475f,0.08891543000936508f,-0.12159836292266846f,0.09678269922733307f,0.06748154014348984f,0.2249000072479248f,-0.01902817375957966f,0.01691391132771969f,-0.1554909199476242f,-0.11645897477865219f,0.0012076878920197487f,-0.15835611522197723f,-0.04171231389045715f,0.03545813634991646f,0.07729744911193848f,0.06318153440952301f,-0.0694991871714592f,0.06341597437858582f,-0.06410450488328934f,0.2309233397245407f,0.1179523691534996f,0.16030746698379517f,0.1417027711868286f,0.18349817395210266f,-0.6846621632575989f,0.2517063617706299f,-0.15550163388252258f,-0.08538436144590378f,-0.41250595450401306f,0.06913954764604568f,-0.2011973112821579f,-0.0941571518778801f,-0.3800433278083801f,-0.14682359993457794f,-0.24516133964061737f,-0.03888075798749924f,0.08645713329315186f,0.24920505285263062f,-0.056339576840400696f,0.06291976571083069f,-0.04803001135587692f,0.020548759028315544f,0.013222665525972843f,-0.021093735471367836f,-0.05430230870842934f,0.01614815928041935f,-0.026438508182764053f,0.034797947853803635f,0.03636380657553673f,0.00781418476253748f,0.11699764430522919f,-0.14705292880535126f,0.027243323624134064f,0.14127565920352936f,-0.13561083376407623f,0.03913766145706177f,-0.005528693087399006f,-0.10190902650356293f,0.095771424472332f,-0.016166826710104942f,0.09852535277605057f,0.2434273362159729f,-0.018057961016893387f,-0.011936290189623833f,0.008911480195820332f,0.03683260455727577f,0.20920994877815247f,0.18779049813747406f,0.03772904723882675f,-0.006508981809020042f,-0.31517475843429565f,-0.002943541621789336f,-0.12247214466333389f,-0.3460691273212433f,-0.01734587922692299f,0.04604713246226311f,-0.10696150362491608f,0.09282053261995316f,-0.048322681337594986f,-0.08490952104330063f,0.06782173365354538f,0.07657656818628311f,-0.04539695009589195f,-0.13230670988559723f,-0.05426550656557083f,0.13343259692192078f,0.09752137213945389f,-0.04227161779999733f,-0.045397769659757614f,0.08449336141347885f,-0.06780698895454407f,0.04265077784657478f,-0.018891464918851852f,-0.10427673161029816f,-0.1785140484571457f,-0.15295115113258362f,0.11564502865076065f,0.09458716958761215f,0.09556188434362411f,-0.00724236574023962f,0.024423550814390182f,0.25491493940353394f,-0.07555649429559708f,0.1336720883846283f,0.07819298654794693f,-0.04040105640888214f,-0.010207629762589931f,-0.03349628672003746f,0.016582900658249855f,0.0030380203388631344f,0.13662397861480713f,-0.03018954209983349f,0.043409187346696854f,-0.10871261358261108f,-0.14925812184810638f,-0.2613908052444458f,0.04550529643893242f,-0.4268159866333008f,0.1911969929933548f,-0.06317555159330368f,0.0919291079044342f,-0.18627293407917023f,0.08876751363277435f,0.05065290257334709f},
{-0.632806658744812f,-0.2547900378704071f,-0.130940243601799f,-0.554576575756073f,0.024365702643990517f,0.14832906424999237f,-0.17500849068164825f,-0.47533881664276123f,0.14685775339603424f,-0.25045064091682434f,-0.09314784407615662f,-0.4268339276313782f,0.33855774998664856f,0.0018791289767250419f,0.33787328004837036f,-0.24166321754455566f,0.447471022605896f,-0.49281084537506104f,0.24169833958148956f,-0.48468467593193054f,-0.09534790366888046f,0.14112234115600586f,0.254314661026001f,-0.023216359317302704f,-0.28864356875419617f,0.43820393085479736f,0.14521488547325134f,-0.13752739131450653f,0.32374611496925354f,-0.3579550087451935f,0.19149790704250336f,-0.23580093681812286f,-0.35043832659721375f,0.02326534502208233f,0.20413067936897278f,-0.025123637169599533f,-0.29335737228393555f,0.48785683512687683f,-0.024331536144018173f,-0.09738991409540176f,-0.18123170733451843f,0.22558864951133728f,-0.26164260506629944f,-0.0758882388472557f,-0.0883278101682663f,-0.250322550535202f,0.318203330039978f,-0.3945845663547516f,-0.20780709385871887f,-0.4042736887931824f,-0.17917902767658234f,-0.17110076546669006f,0.11205025017261505f,0.132958322763443f,0.3462564945220947f,0.3048540949821472f,0.3820708394050598f,-0.03679550066590309f,0.08733980357646942f,-0.12128110975027084f,-0.04103880375623703f,0.1537349671125412f,0.33434510231018066f,0.07521524280309677f,-0.08199742436408997f,0.05219856649637222f,0.11303502321243286f,-0.36960116028785706f,-0.028430286794900894f,-0.38461270928382874f,0.23034465312957764f,-0.19083280861377716f,0.2551442086696625f,0.20451290905475616f,-0.18623042106628418f,0.005515973083674908f,0.12482151389122009f,0.08332771807909012f,-0.012352028861641884f,0.1353294998407364f,-0.021049555391073227f,0.05918389558792114f,0.15145407617092133f,-0.2097327709197998f,0.37168511748313904f,0.19539213180541992f,-0.28621038794517517f,-0.05127885937690735f,-0.05167502909898758f,-0.4405580759048462f,0.5304201245307922f,0.42053088545799255f,-0.14437651634216309f,1.087814450263977f,0.12652218341827393f,0.4612399637699127f,0.5437846779823303f,0.26493212580680847f,0.5176340341567993f,0.10458169877529144f,0.012556063942611217f,0.08000154048204422f,-0.19992388784885406f,0.31019923090934753f,0.08156951516866684f,-0.3501625955104828f,0.032803624868392944f,0.05022980645298958f,-0.16312196850776672f,-0.36791831254959106f,-0.2176956683397293f,-0.24194449186325073f,-0.3975447118282318f,-0.09887126833200455f,-0.0611841045320034f,-0.1064695343375206f,0.21927772462368011f,-0.13279226422309875f,-0.18583747744560242f,-0.11944600939750671f,-0.04992713779211044f,-0.02872144803404808f,0.11624826490879059f,0.2923819422721863f,0.20358410477638245f,-0.09317147731781006f,-0.10787473618984222f,0.4039400815963745f,-0.12524957954883575f,-0.17708604037761688f,-0.11185058206319809f,0.03842876851558685f,-0.019342390820384026f,0.02730388753116131f,-0.06335096806287766f,0.4902571737766266f,0.3504987955093384f,0.25497379899024963f,-0.28352347016334534f,-0.37733519077301025f,0.10662105679512024f,0.17531026899814606f,-0.29635900259017944f,0.15846861898899078f,0.054701369255781174f,0.08606678992509842f,-0.23320861160755157f,0.07317624241113663f,-0.08025465905666351f,-0.2578057646751404f,-0.1412171870470047f,-0.1728070080280304f,-0.28743216395378113f,0.09596753865480423f,0.12396959215402603f,-0.10988343507051468f,0.21260280907154083f,0.34816163778305054f,0.17686764895915985f,-0.26443979144096375f,0.37627387046813965f,0.3048055171966553f,-0.49847909808158875f,0.10049775242805481f,0.24326857924461365f,-0.12954583764076233f,0.1534956991672516f,0.042025960981845856f,0.22451207041740417f,-0.01850912906229496f,0.10521963238716125f,-0.2835073173046112f,-0.3364495038986206f,0.2016611546278f,0.028709737583994865f,0.1670568883419037f,0.16869057714939117f,0.08135440945625305f,0.04390151426196098f,-0.3082779347896576f,0.13644401729106903f,0.1726483553647995f,-0.1861085444688797f,-0.09968482702970505f,0.091005839407444f,0.027594348415732384f,-0.34560129046440125f,0.11507057398557663f,-0.14134672284126282f,-0.5667715072631836f},
{-0.22844232618808746f,-0.25505751371383667f,-0.220048189163208f,0.06574007123708725f,-0.47813379764556885f,-0.5476611256599426f,-0.1501314342021942f,0.06131238490343094f,0.5523660778999329f,-0.35836124420166016f,0.1602964848279953f,-0.002639145590364933f,-0.014086519367992878f,0.25061675906181335f,-0.26856449246406555f,-0.16232755780220032f,-0.06552521884441376f,-0.07707978039979935f,-0.027763769030570984f,-0.2514302730560303f,0.15976998209953308f,0.0860765278339386f,-0.13590122759342194f,0.2849887013435364f,-0.17419704794883728f,0.17058870196342468f,0.018888404592871666f,0.17787866294384003f,0.3377082645893097f,-0.0033723153173923492f,-0.3807401657104492f,-0.002845251001417637f,-0.07232167571783066f,0.15916265547275543f,-0.03191103786230087f,0.01056757103651762f,0.08763910830020905f,-0.018758276477456093f,0.14186808466911316f,-0.4574906527996063f,-0.10245652496814728f,-0.21411579847335815f,0.12452644854784012f,0.08303005248308182f,0.0017889573937281966f,0.18885305523872375f,0.022966813296079636f,-0.12730638682842255f,-0.3958033323287964f,-0.6176915168762207f,-0.04083188995718956f,-0.19229109585285187f,0.1900574266910553f,0.17826224863529205f,-0.026877490803599358f,0.4416196644306183f,0.03725426271557808f,-0.1176832988858223f,-0.02918313629925251f,0.018959078937768936f,0.032137513160705566f,0.07518457621335983f,-0.1465105265378952f,0.14291417598724365f,0.002320737112313509f,-0.23349089920520782f,0.2843584716320038f,-0.46383383870124817f,0.03777686133980751f,-0.23006771504878998f,-0.18340136110782623f,-0.3402825593948364f,0.24148300290107727f,0.004275353159755468f,0.18439637124538422f,0.02484528347849846f,0.06015755236148834f,-0.3248836398124695f,0.11374951899051666f,-0.3147002160549164f,-0.023964423686265945f,0.13184377551078796f,0.2505125105381012f,0.3384457528591156f,0.28188228607177734f,0.19384412467479706f,-0.039759211242198944f,0.2652817666530609f,0.209757998585701f,-0.563978910446167f,1.030096173286438f,0.13504573702812195f,-0.01474997028708458f,0.05845123901963234f,0.24265402555465698f,0.39000204205513f,0.07027167081832886f,0.4148809313774109f,-0.21234820783138275f,-0.31962260603904724f,0.06290429830551147f,-0.07062055170536041f,0.08225172758102417f,-0.11910734325647354f,0.047230541706085205f,-0.292634516954422f,0.12774856388568878f,0.26047930121421814f,0.027599215507507324f,-0.322913259267807f,0.07059281319379807f,-0.15332753956317902f,-0.12473126500844955f,-0.48697224259376526f,0.09610966593027115f,-0.2300519496202469f,-0.05624855309724808f,-0.07882709056138992f,-0.09264335036277771f,-0.08044805377721786f,-0.36054888367652893f,0.11720093339681625f,0.09994718432426453f,-0.2869480550289154f,0.25567400455474854f,0.31167879700660706f,0.057113513350486755f,0.19061031937599182f,0.2751457989215851f,-0.12331095337867737f,0.37852486968040466f,0.03693404793739319f,-0.2469584345817566f,0.4168679416179657f,0.30324649810791016f,0.15372350811958313f,0.1640535593032837f,0.06619292497634888f,0.024051589891314507f,-0.24595357477664948f,-0.0428968220949173f,-0.2925463616847992f,0.11384005099534988f,0.23598186671733856f,-0.0019877084996551275f,0.06990157067775726f,0.11384283751249313f,0.08565216511487961f,0.22810272872447968f,-0.272826611995697f,-0.17545440793037415f,0.3153674304485321f,-0.21333590149879456f,-0.04504109546542168f,-0.3268055021762848f,0.24302707612514496f,-0.4260474741458893f,-0.28876709938049316f,0.19949091970920563f,-0.32166287302970886f,0.07099059224128723f,-0.1743922084569931f,0.35593730211257935f,0.19338859617710114f,-0.1181512176990509f,-0.06847409904003143f,0.0658482015132904f,-0.02556307427585125f,-0.04363095387816429f,-0.2891744375228882f,0.5385022759437561f,-0.4811764359474182f,0.19508250057697296f,0.011875549331307411f,-0.32476806640625f,-0.060049768537282944f,-0.26582321524620056f,0.22099173069000244f,-0.11816148459911346f,-0.020708465948700905f,0.055843960493803024f,0.11223981529474258f,-0.36062824726104736f,-0.6099461317062378f,0.2810768783092499f,-0.23257844150066376f,-0.638839602470398f,0.13214492797851562f,0.280326247215271f,0.32396745681762695f},
{-0.13689708709716797f,-0.24345731735229492f,0.276475191116333f,-0.4238917827606201f,-0.013114136643707752f,-0.10320194065570831f,-0.0965740755200386f,-0.38264885544776917f,0.246228888630867f,-0.2776546776294708f,-0.11394809931516647f,-0.3242795467376709f,0.08693427592515945f,-0.20485790073871613f,0.01657482050359249f,0.06598152965307236f,-0.013645348139107227f,-0.29321277141571045f,0.11747891455888748f,0.2643945813179016f,0.16424140334129333f,0.058519452810287476f,-0.39406830072402954f,0.023199787363409996f,0.21832625567913055f,-0.22371789813041687f,-0.03622695431113243f,0.15391236543655396f,0.13835598528385162f,-0.2765100300312042f,-0.13976982235908508f,-0.22953027486801147f,0.2429136037826538f,0.0894697830080986f,0.1781964749097824f,0.45854687690734863f,0.01095187570899725f,0.3405682146549225f,0.06203652545809746f,-0.1790979504585266f,0.12287184596061707f,0.22116127610206604f,0.1637548953294754f,0.05465356260538101f,0.33347082138061523f,-0.09851346909999847f,-0.07523055374622345f,0.37636032700538635f,-0.17335766553878784f,-0.5189670920372009f,-0.20565541088581085f,-0.09539154171943665f,-0.1205100491642952f,-0.012265603058040142f,0.13660992681980133f,0.18935368955135345f,0.25504428148269653f,0.15814818441867828f,-0.5507512092590332f,-0.16123135387897491f,0.0139326686039567f,-0.01574285514652729f,0.33243292570114136f,0.08329816907644272f,0.07345442473888397f,-0.031191393733024597f,-0.051065001636743546f,0.08502285927534103f,-0.21480703353881836f,-0.3178079426288605f,0.22514548897743225f,-0.18379612267017365f,0.048811882734298706f,0.06236527860164642f,-0.007728098426014185f,-0.13477301597595215f,-0.37379610538482666f,0.0861336812376976f,0.17843826115131378f,-0.04279119893908501f,0.22502507269382477f,0.012882999144494534f,-0.3697585165500641f,-0.14296838641166687f,-0.02759554237127304f,-0.2575010061264038f,0.23095448315143585f,-0.394629567861557f,-0.1774357259273529f,0.038289278745651245f,0.5080358386039734f,-0.07437662035226822f,0.5745424628257751f,0.5352606773376465f,0.5830696225166321f,0.4038989841938019f,0.39630019664764404f,0.4794336259365082f,0.08573278039693832f,-0.05470319837331772f,0.06665200740098953f,-0.002497192705050111f,0.26723936200141907f,0.3966098427772522f,-0.043584056198596954f,-0.362686425447464f,0.011602068319916725f,-0.10719103366136551f,-0.28019821643829346f,-0.35449954867362976f,0.03013494424521923f,-0.06883598864078522f,0.4211876392364502f,-0.2298630177974701f,0.046693991869688034f,-0.06376270204782486f,0.008442603051662445f,0.10774209350347519f,0.03682146593928337f,-0.34694966673851013f,0.12318940460681915f,0.09227817505598068f,-0.15580026805400848f,-0.2238161265850067f,-0.06977163255214691f,-0.09187717735767365f,0.3379366397857666f,-0.12849773466587067f,0.3043655753135681f,-0.2895124852657318f,-0.2955973148345947f,-0.1118060052394867f,-0.1253173053264618f,0.020024733617901802f,0.23817375302314758f,-0.27553269267082214f,0.13629098236560822f,-0.02061600424349308f,0.0010320873698219657f,-0.4085858464241028f,0.2415478527545929f,0.14263224601745605f,-0.02049083076417446f,-0.029288914054632187f,0.005258061457425356f,-0.24025054275989532f,-0.3301212191581726f,-0.16691911220550537f,0.17792659997940063f,-0.25450125336647034f,0.22315475344657898f,0.41582900285720825f,-0.16512103378772736f,-0.6424810886383057f,0.14390414953231812f,0.05558955669403076f,0.23929980397224426f,0.17361734807491302f,0.6021404266357422f,-0.12427286058664322f,-0.14626982808113098f,0.23857340216636658f,-0.12418084591627121f,0.07270996272563934f,0.30232974886894226f,-0.08713849633932114f,-0.2480679303407669f,-0.3063458204269409f,-0.40628740191459656f,-0.007903735153377056f,0.07156624644994736f,0.12601782381534576f,-0.16111458837985992f,0.12277095019817352f,-0.18882113695144653f,-0.13171173632144928f,0.01928192935883999f,0.08398739248514175f,0.09045818448066711f,-0.43445447087287903f,-0.3455089330673218f,-0.5074245929718018f,0.3863159716129303f,0.07768756151199341f,-0.12280583381652832f,-0.3502201735973358f,-0.03519413247704506f,-0.3516026735305786f,0.34648627042770386f,-0.03360012173652649f},
{-0.33094522356987f,-0.0344143882393837f,-0.053369343280792236f,-0.0982976034283638f,0.44508272409439087f,0.14197282493114471f,0.18565194308757782f,-0.5570836067199707f,-0.12601126730442047f,0.07320227473974228f,0.27164795994758606f,0.4515971541404724f,-0.08306136727333069f,-0.47952017188072205f,0.14570343494415283f,0.12377936393022537f,-0.08382540941238403f,0.10403595119714737f,0.06106310337781906f,-0.20697875320911407f,-0.014323151670396328f,0.06150439754128456f,0.19985146820545197f,0.009508787654340267f,-0.17260770499706268f,0.24375580251216888f,0.08904721587896347f,0.05777600780129433f,0.1282825469970703f,-0.3101908266544342f,0.21114999055862427f,-0.24358543753623962f,0.10734491050243378f,-0.3554403781890869f,0.4257156252861023f,0.009123905561864376f,0.21972309052944183f,-0.017177576199173927f,0.2214881330728531f,-0.03562178090214729f,0.10954609513282776f,0.1481761783361435f,-0.20201712846755981f,0.0044157132506370544f,-0.007036208640784025f,0.07642875611782074f,-0.2049788236618042f,0.21905788779258728f,-0.12323585897684097f,-0.6231431365013123f,-0.21979323029518127f,-0.039726123213768005f,0.2272665947675705f,0.030025437474250793f,-0.2510661780834198f,-0.10058613866567612f,0.163234144449234f,0.26152098178863525f,0.07565642148256302f,-0.15390132367610931f,0.2880408763885498f,-0.04690396785736084f,-0.17942528426647186f,0.24654434621334076f,0.2690592110157013f,0.33777058124542236f,0.11002538353204727f,-0.3410686254501343f,0.07561226934194565f,-0.2869793772697449f,-0.023078424856066704f,0.29350486397743225f,0.30612263083457947f,-0.12194911390542984f,0.04933762550354004f,0.24335512518882751f,-0.652022123336792f,0.02399148792028427f,-0.00040970349800772965f,-0.035151056945323944f,-0.11997802555561066f,0.09937651455402374f,-0.3494000732898712f,-0.602576494216919f,-0.18699896335601807f,-0.04476244002580643f,-0.23975683748722076f,0.16376878321170807f,0.07784036546945572f,-0.2848338782787323f,0.5748717188835144f,0.5125337839126587f,0.6217457056045532f,0.3573271334171295f,0.5595324635505676f,0.2778763175010681f,0.5316144227981567f,0.10810910165309906f,0.018715612590312958f,-0.3516693115234375f,-0.024990415200591087f,0.3096109926700592f,0.06930465251207352f,0.13511794805526733f,0.18560409545898438f,-0.08375370502471924f,-0.27822524309158325f,-0.6088935732841492f,0.051992498338222504f,-0.1685323715209961f,-0.14036822319030762f,-0.03529057279229164f,0.037990301847457886f,-0.019766516983509064f,0.07442088425159454f,-0.009582767263054848f,-0.4258146584033966f,0.3001635670661926f,-0.24744361639022827f,-0.1976940929889679f,-0.02955055423080921f,0.4139821231365204f,0.18265675008296967f,-0.39489036798477173f,-0.11636611074209213f,0.12207736819982529f,-0.5020992159843445f,-0.15336279571056366f,0.04373256862163544f,-0.17288467288017273f,0.2671486735343933f,-0.14223752915859222f,-0.0647641271352768f,0.22791606187820435f,-0.009612519294023514f,0.3387978971004486f,0.031147919595241547f,0.26025301218032837f,-0.1574937105178833f,-0.3270654082298279f,0.17626090347766876f,0.0027844214346259832f,-0.2540873885154724f,0.35361117124557495f,0.11788409948348999f,0.16305573284626007f,0.07202121615409851f,-0.12271328270435333f,0.10287404805421829f,-0.39055684208869934f,0.15307718515396118f,0.11064662039279938f,-0.39597731828689575f,0.1455938220024109f,0.06990189105272293f,-0.2881796061992645f,0.3051856756210327f,0.5773505568504333f,-0.08239073306322098f,-0.4017309248447418f,0.43546056747436523f,0.01642085239291191f,-0.2537398040294647f,-0.10104593634605408f,0.004950831178575754f,0.09296350181102753f,0.08633290231227875f,0.10700979828834534f,0.04109148308634758f,-0.2264745533466339f,0.12814398109912872f,-0.05457498878240585f,-0.33654144406318665f,0.34719687700271606f,-0.047231148928403854f,-0.05227280408143997f,0.1943148523569107f,0.32528969645500183f,-0.2660553455352783f,-0.3207416832447052f,0.010220975615084171f,0.09435920417308807f,0.17169950902462006f,0.03123723343014717f,-0.05642890930175781f,0.031956322491168976f,0.048793353140354156f,-0.04702100530266762f,-0.882020890712738f,-0.2674194574356079f},
{-0.1006416529417038f,0.4642602801322937f,-0.5344910621643066f,0.04997614771127701f,-0.32765015959739685f,-0.21569699048995972f,0.021970875561237335f,0.1407976746559143f,-0.2300279438495636f,-0.12764178216457367f,0.27289673686027527f,0.04969143867492676f,0.1516573578119278f,-0.09969892352819443f,0.023214424028992653f,-0.12550917267799377f,0.035059068351984024f,0.029149165377020836f,0.16706106066703796f,-0.1693602353334427f,0.11259400844573975f,-0.004468676168471575f,-0.1108914464712143f,-0.06726528704166412f,-0.2222798764705658f,0.2256237417459488f,0.10601446032524109f,0.19840116798877716f,0.029941704124212265f,0.05651409551501274f,-0.33422213792800903f,0.07933133095502853f,-0.2867317497730255f,0.2596189081668854f,0.15312303602695465f,-0.037455424666404724f,-0.3940732479095459f,-0.022025790065526962f,-0.10058446228504181f,-0.29837045073509216f,0.14925068616867065f,0.25996947288513184f,-0.12021966278553009f,0.036909591406583786f,-0.16576378047466278f,0.30943092703819275f,-0.16043952107429504f,-0.24759772419929504f,-0.18956822156906128f,-0.24694867432117462f,-0.5076811909675598f,0.12814247608184814f,0.2184094488620758f,-0.02617715671658516f,-0.3562004864215851f,0.024309460073709488f,-0.05537194386124611f,0.05406748503446579f,-0.2273835837841034f,0.16530415415763855f,0.13243629038333893f,-0.012408378534018993f,-0.03692055493593216f,0.15561556816101074f,0.057357002049684525f,0.10159911960363388f,0.05281442776322365f,0.11486294120550156f,0.11710208654403687f,-0.18332722783088684f,-0.3532676696777344f,0.06287702918052673f,0.00432670209556818f,-0.029616523534059525f,0.14021863043308258f,0.05362110212445259f,0.0764174610376358f,-0.1415240466594696f,0.0374111570417881f,-0.2131112515926361f,-0.15364970266819f,0.06672883778810501f,0.0823730081319809f,-0.008931952528655529f,0.27443888783454895f,-0.03282561153173447f,-0.031119149178266525f,0.327763170003891f,0.2787335216999054f,-0.2399044632911682f,-0.1606467366218567f,0.09467213600873947f,-0.1569375991821289f,0.10271149128675461f,0.447727769613266f,-0.07742267102003098f,0.11706643551588058f,0.3133719265460968f,-0.06341073662042618f,-0.13563993573188782f,-0.012788175605237484f,0.28269609808921814f,-0.006527424789965153f,-0.16177646815776825f,-0.14623723924160004f,0.08584222942590714f,-0.15439900755882263f,-0.056952428072690964f,0.10863491147756577f,0.1679190695285797f,0.03284255787730217f,-0.19417855143547058f,0.0214080773293972f,-0.15312105417251587f,0.02366754785180092f,0.12040374428033829f,0.02287355251610279f,0.06572400033473969f,-0.11419430375099182f,-0.2237301915884018f,-0.07086972892284393f,-0.10741589218378067f,-0.09161904454231262f,0.05192079767584801f,0.11629187315702438f,0.12716449797153473f,0.24893620610237122f,-0.06020344793796539f,0.15948386490345f,-0.13632965087890625f,-0.008444186300039291f,-0.18622265756130219f,-0.03854529559612274f,-0.2772081196308136f,0.10509222000837326f,0.20303520560264587f,0.2525281608104706f,-0.020968837663531303f,0.4003497064113617f,-0.25825080275535583f,0.009691029787063599f,0.04542425274848938f,-0.007596397772431374f,0.13738414645195007f,0.014546309597790241f,-0.01947483979165554f,0.11037987470626831f,0.046426352113485336f,-0.23581361770629883f,-0.020316390320658684f,0.10032103210687637f,-0.44135168194770813f,0.18282146751880646f,-0.21784302592277527f,-0.05243310704827309f,-0.3135012984275818f,0.15576568245887756f,-0.22905617952346802f,0.0599839873611927f,-0.23271726071834564f,-0.11090228706598282f,0.11516941338777542f,0.0750059187412262f,-0.042853813618421555f,-0.1546410173177719f,0.10796786099672318f,-0.05006301775574684f,-0.052887070924043655f,0.17126232385635376f,-0.02997690625488758f,-0.04232431575655937f,-0.07216183841228485f,-0.37211406230926514f,-0.08895823359489441f,-0.15821585059165955f,0.018154378980398178f,-0.14604981243610382f,0.07820438593626022f,0.0013295324752107263f,-0.03136659413576126f,-0.20537295937538147f,0.04931601881980896f,0.18462076783180237f,-0.10779104381799698f,-0.4264512360095978f,0.029149815440177917f,-0.16648057103157043f,0.05707881227135658f,0.08608107268810272f,-0.1798282265663147f},
{0.41702568531036377f,-0.1363411843776703f,-0.0694834440946579f,0.4784746468067169f,-0.29841741919517517f,0.2861036956310272f,0.01773166097700596f,-0.03353473171591759f,0.23181749880313873f,0.10982447117567062f,0.085092693567276f,-0.2710115909576416f,0.0635213851928711f,0.03230925649404526f,-0.07920797169208527f,-0.04779177904129028f,0.24649375677108765f,0.08780542761087418f,-0.17995841801166534f,-0.3336164355278015f,-0.08857091516256332f,0.09682916104793549f,0.05186866968870163f,0.01505905669182539f,-0.22953449189662933f,0.1619601547718048f,0.02533085271716118f,-0.0015574728604406118f,0.0770963579416275f,-0.1260354220867157f,-0.4843144416809082f,-0.6300966739654541f,-0.05107882246375084f,-0.35780033469200134f,-0.27397045493125916f,-0.09861869364976883f,0.1893024444580078f,0.08894018083810806f,0.49365729093551636f,-0.11198385059833527f,-0.15891194343566895f,0.02724493108689785f,0.08346306532621384f,0.026224462315440178f,0.07402484863996506f,0.07179496437311172f,-0.15581564605236053f,0.020044881850481033f,-0.1822003573179245f,-0.40729063749313354f,-0.1706623136997223f,-0.22966058552265167f,-0.7202538251876831f,-0.19531886279582977f,-0.08712025731801987f,0.1141241192817688f,0.2714717984199524f,0.3157457113265991f,-0.010772867128252983f,-0.21567583084106445f,0.3054707944393158f,0.24626481533050537f,0.07397640496492386f,0.4581378400325775f,-0.06234992295503616f,0.28801602125167847f,-0.16720208525657654f,-0.12066085636615753f,-0.32809025049209595f,-0.2614263594150543f,-0.24364562332630157f,-0.2931501865386963f,0.1440517157316208f,0.4490196406841278f,0.1284957379102707f,0.09575255215167999f,-0.24477535486221313f,0.22855132818222046f,0.11779991537332535f,-0.07816524058580399f,-0.05748537555336952f,0.0904608741402626f,-0.3746553659439087f,-0.13223768770694733f,0.05923653766512871f,0.17871364951133728f,0.03281306475400925f,0.0399252213537693f,-0.07986325025558472f,-0.2824383080005646f,-0.19266343116760254f,0.23442412912845612f,-0.5055233240127563f,0.6488254070281982f,0.4101495146751404f,0.4200581908226013f,0.3028348684310913f,-0.1417345255613327f,-0.1905614733695984f,-0.3737393021583557f,0.05038168653845787f,0.20919591188430786f,0.1324680745601654f,-0.025451360270380974f,0.0884491503238678f,-0.30505451560020447f,-0.006867926102131605f,0.047439251095056534f,0.1443389654159546f,-0.14919911324977875f,-0.24211247265338898f,-0.021801846101880074f,-0.23827825486660004f,0.16787861287593842f,-0.11315283924341202f,-0.08296429365873337f,0.13866443932056427f,0.14930209517478943f,-0.005434041377156973f,-0.19373609125614166f,-0.10658112168312073f,-0.09515763074159622f,0.04558325558900833f,0.09470706433057785f,-0.05297890678048134f,-0.17583002150058746f,0.3073829114437103f,-0.2531231939792633f,0.06107984110713005f,-0.16396388411521912f,-0.01867249421775341f,-0.08194223791360855f,0.04445011913776398f,-0.06771095842123032f,-0.5668361186981201f,-0.03176558390259743f,-0.06516239047050476f,-0.3277835249900818f,-0.009850548580288887f,-0.26322633028030396f,0.4401322305202484f,-0.027717439457774162f,-0.11210763454437256f,0.2930828034877777f,0.2530897855758667f,0.25438544154167175f,-0.19461989402770996f,-0.17616847157478333f,0.2146667093038559f,-0.248157799243927f,-0.13279275596141815f,-0.056973375380039215f,-0.06788326799869537f,-0.25762471556663513f,-0.040708962827920914f,-0.449552446603775f,0.33381980657577515f,0.4247448146343231f,-0.1345195472240448f,-0.3276219367980957f,0.0004969044821336865f,0.18031737208366394f,0.08673644065856934f,0.16021114587783813f,0.05744193121790886f,0.28837472200393677f,-0.37840235233306885f,-0.13978233933448792f,0.14288689196109772f,-0.25278377532958984f,-0.03355482220649719f,-0.489636093378067f,-0.30706700682640076f,-0.008701649494469166f,0.01902419701218605f,-0.14451132714748383f,0.1874493807554245f,-0.12109802663326263f,0.5581904053688049f,-0.2969362437725067f,0.22923855483531952f,0.10887257754802704f,-0.28490230441093445f,-0.17032906413078308f,-0.33899229764938354f,0.12424324452877045f,-0.22215703129768372f,0.09990860521793365f,-0.3577803671360016f,0.04102609306573868f},
{-0.040298718959093094f,-0.2464766949415207f,0.12826871871948242f,-0.029340151697397232f,0.054075468331575394f,-0.011800107546150684f,-0.11702976375818253f,-0.09329553693532944f,0.10760394483804703f,-0.03453091159462929f,0.10593484342098236f,0.1323852688074112f,0.13114476203918457f,-0.036541860550642014f,0.005186618305742741f,0.10012120753526688f,-0.08524515479803085f,0.024330828338861465f,0.1682019829750061f,0.04058237001299858f,0.12485221773386002f,-0.2661704123020172f,-0.1290944367647171f,0.20546916127204895f,0.19661065936088562f,0.03984085097908974f,-0.04518928751349449f,-0.11755846440792084f,-0.023809049278497696f,0.02086831070482731f,0.1820136457681656f,-0.1330951750278473f,-0.1146528497338295f,-0.17598941922187805f,-0.11331205815076828f,0.19994518160820007f,0.06393543630838394f,-0.006557070650160313f,-0.0870436429977417f,-0.029788557440042496f,0.10618739575147629f,0.016470633447170258f,-0.03833766281604767f,-0.07774804532527924f,-0.0075986022129654884f,0.06574955582618713f,-0.20031329989433289f,-0.11860984563827515f,0.11332077533006668f,-0.0906878113746643f,0.018542788922786713f,-0.03972199186682701f,-0.0005085605080239475f,-0.04642896354198456f,-0.019989602267742157f,-0.001656616572290659f,-0.1144404485821724f,-0.08465718477964401f,0.0015722920652478933f,0.025743119418621063f,0.04252340644598007f,-0.13029710948467255f,-0.06226150318980217f,-0.047972071915864944f,-0.06490827351808548f,-0.05999122932553291f,-0.18592484295368195f,-0.2280733734369278f,0.07288271188735962f,-0.11835227906703949f,0.08924452215433121f,0.22897547483444214f,-0.05393329635262489f,0.08319580554962158f,-0.07771019637584686f,0.034539349377155304f,-0.15339572727680206f,0.012501711025834084f,0.03642628341913223f,-0.06262040138244629f,0.013140191324055195f,0.013689164072275162f,0.03162064775824547f,-0.05071152374148369f,0.01455893088132143f,0.1841471791267395f,-0.07755089551210403f,-0.2518121004104614f,-0.11779788136482239f,0.018510829657316208f,-0.047471873462200165f,0.0006078705191612244f,-0.1436775177717209f,-0.0018475985853001475f,0.10777532309293747f,0.014539588242769241f,0.031018579378724098f,0.06306124478578568f,0.076080322265625f,-0.0019189075101166964f,-0.16765667498111725f,-0.05803227797150612f,-0.0002531639183871448f,0.16103246808052063f,-0.04467501863837242f,0.03148724511265755f,-0.02219734899699688f,-0.10020938515663147f,-0.04664883390069008f,-0.09907308965921402f,0.003615268273279071f,-0.07044670730829239f,0.13359828293323517f,-0.08114077150821686f,0.056262630969285965f,0.1280956119298935f,-0.09512684494256973f,0.057864993810653687f,-0.010983549058437347f,0.03493986278772354f,-0.09735704213380814f,-0.09574393182992935f,0.0851292535662651f,-0.025156181305646896f,-0.15266312658786774f,-0.05378631129860878f,-0.01701783761382103f,0.06269311159849167f,0.06061921268701553f,-0.012943187728524208f,0.04881266877055168f,0.058131054043769836f,-0.09128713607788086f,0.09782541543245316f,-0.055619046092033386f,0.042703475803136826f,0.10876770317554474f,0.05717277526855469f,-0.050017353147268295f,-0.034886762499809265f,-0.07402276992797852f,-0.08100796490907669f,-0.10994284600019455f,-0.1883675903081894f,-0.11895285546779633f,-0.07521983236074448f,-0.14819587767124176f,-0.0010085698449984193f,0.1594693809747696f,0.017207331955432892f,-0.15735024213790894f,-0.1318010538816452f,-0.0819835290312767f,0.12835080921649933f,-0.2039766162633896f,0.04177117720246315f,-0.04348398372530937f,-0.08075600862503052f,-0.013802788220345974f,-0.05898261070251465f,0.03932701423764229f,-0.08357994258403778f,0.05159895867109299f,-0.005740470252931118f,-0.07448115944862366f,-0.06464879959821701f,-0.011550098657608032f,0.05565503239631653f,-0.1836790293455124f,0.05750454589724541f,0.018595542758703232f,0.08876512199640274f,0.010470699518918991f,0.14791736006736755f,-0.16496799886226654f,-0.04816135764122009f,-0.13057835400104523f,0.03377214074134827f,0.04580787941813469f,0.014727596193552017f,-0.11205068230628967f,-0.02799777314066887f,-0.004611924756318331f,0.007780835032463074f,-0.06815291196107864f,0.045262690633535385f,0.12310237437486649f,0.030076278373599052f,-0.017046881839632988f,0.007696348708122969f},
{-0.1181529313325882f,0.0929524302482605f,0.11327166855335236f,-0.12369253486394882f,-0.05409242585301399f,0.019189108163118362f,-0.08588190376758575f,-0.23513564467430115f,0.10417729616165161f,-0.16536428034305573f,-0.12665152549743652f,-0.2700658440589905f,0.005711284000426531f,0.11709587275981903f,0.09482219070196152f,-0.16650788486003876f,0.15476861596107483f,0.22492697834968567f,0.10302948951721191f,-0.13048537075519562f,0.3918192684650421f,0.07961267977952957f,-0.09837963432073593f,0.0053595006465911865f,-0.11281056702136993f,-0.04989076405763626f,0.2648315727710724f,0.04644451290369034f,0.11219576001167297f,-0.09596922248601913f,0.12303219735622406f,-0.08833704143762589f,-0.10818962752819061f,-0.15796807408332825f,-0.12121029198169708f,-0.350575715303421f,0.20397590100765228f,-0.1967514604330063f,0.02545972354710102f,-0.05731233209371567f,-0.1740071028470993f,0.12570099532604218f,0.2536557614803314f,0.06312526762485504f,0.21416106820106506f,0.03482693061232567f,-0.056322015821933746f,0.030914954841136932f,-0.2596147656440735f,-0.2357698231935501f,-0.21314845979213715f,-0.16837750375270844f,0.0604417510330677f,0.08442719280719757f,0.07409550249576569f,0.1211857721209526f,-0.042548321187496185f,0.14682267606258392f,-0.02690042182803154f,-0.07855022698640823f,-0.006285534705966711f,-0.0021410291083157063f,-0.016867931932210922f,-0.11202367395162582f,-0.17072710394859314f,0.2767063081264496f,-0.061065852642059326f,0.18382419645786285f,0.15731844305992126f,-0.3020874261856079f,0.2679886221885681f,-0.0769086703658104f,-0.12639352679252625f,0.0520407035946846f,-0.07549973577260971f,-0.028325306251645088f,0.026164382696151733f,-0.19841933250427246f,0.12940222024917603f,-0.022519228979945183f,0.10086027532815933f,-0.05114307254552841f,0.04493812099099159f,-0.09759590029716492f,-0.054973047226667404f,-0.045174285769462585f,0.026576923206448555f,0.013701940886676311f,0.03779241442680359f,-0.2788911759853363f,0.10612021386623383f,-0.106047622859478f,0.14362916350364685f,-0.0039390879683196545f,0.21166984736919403f,0.10486955940723419f,0.10274652391672134f,0.09568378329277039f,0.2997761368751526f,0.06803612411022186f,0.34184926748275757f,0.10923866182565689f,0.11569982022047043f,-0.12789414823055267f,0.27441349625587463f,-0.12783215939998627f,-0.32306697964668274f,-0.29662397503852844f,-0.2789452373981476f,-0.195465549826622f,-0.34272441267967224f,-0.12046460062265396f,0.09646287560462952f,-0.2036314308643341f,0.31592297554016113f,0.05987963825464249f,0.1262204349040985f,-0.14442722499370575f,0.20913344621658325f,-0.13223198056221008f,-0.005068409722298384f,-0.255720853805542f,0.011565630324184895f,0.12761127948760986f,-0.09267111867666245f,-0.13677693903446198f,-0.2239544689655304f,0.13311493396759033f,0.030523596331477165f,-0.1357850730419159f,0.2984475791454315f,-0.2546861171722412f,-0.09941250085830688f,0.174448624253273f,-0.14424414932727814f,-0.1763531118631363f,-0.1612738072872162f,-0.05732453614473343f,0.058420319110155106f,-0.21298609673976898f,0.06643163412809372f,0.16324689984321594f,0.07357584685087204f,0.06948798894882202f,0.06751043349504471f,0.14297950267791748f,0.01904018595814705f,-0.04576682299375534f,-0.1105942651629448f,-0.16918091475963593f,-0.22820836305618286f,-0.015012337826192379f,-0.014096127822995186f,0.052033424377441406f,-0.08889342844486237f,0.08875057846307755f,-0.06604429334402084f,-0.2743309736251831f,0.001684857183136046f,-0.08157994598150253f,-0.13389217853546143f,0.08861034363508224f,0.12823018431663513f,-0.13013161718845367f,0.13257156312465668f,0.12339305877685547f,0.006388365291059017f,-0.0014553327346220613f,0.16228961944580078f,-0.045686207711696625f,0.005705457646399736f,-0.28350356221199036f,-0.2453906536102295f,-0.009334839880466461f,0.092624232172966f,-0.10057790577411652f,0.04884986951947212f,0.21522894501686096f,0.12449999153614044f,0.09405738860368729f,-0.387192040681839f,-0.271060585975647f,0.11760325729846954f,-0.1646120846271515f,0.019123490899801254f,0.18889681994915009f,0.07144828140735626f,0.11557988822460175f,-0.05587650462985039f,-0.16016244888305664f},
{-0.4878983795642853f,-0.36521095037460327f,-0.41114312410354614f,-0.08674833923578262f,-0.5847560167312622f,-0.40922364592552185f,-0.29697906970977783f,-0.19436775147914886f,-0.2349158525466919f,-0.031224753707647324f,-0.07541105151176453f,-0.019559700042009354f,-0.09682466834783554f,-0.11831057071685791f,-0.019265588372945786f,-0.17735524475574493f,-0.14303596317768097f,-0.19950070977210999f,0.15061600506305695f,0.19322533905506134f,0.024275103583931923f,0.08715824037790298f,0.14990468323230743f,0.15653499960899353f,0.12221045047044754f,0.05135699734091759f,0.10444574058055878f,-0.04961178079247475f,-0.02648497000336647f,-0.010177797637879848f,-0.15441744029521942f,-0.10133659839630127f,-0.009556668810546398f,0.04031313583254814f,-0.1382097601890564f,-0.10757056623697281f,-0.04142317175865173f,0.009485623799264431f,0.05864939093589783f,0.024224190041422844f,-0.11643090099096298f,0.037342995405197144f,-0.030786709859967232f,-0.011320379562675953f,0.11517231911420822f,-0.29500094056129456f,0.07248283177614212f,-0.05784109607338905f,-0.2053123414516449f,-0.2655196785926819f,-0.04321688041090965f,-0.0976489931344986f,-0.09252604842185974f,-0.26711833477020264f,0.009315584786236286f,0.04054250940680504f,0.016222212463617325f,0.04090528562664986f,0.07031019777059555f,0.15112309157848358f,0.11452358961105347f,-0.038175445050001144f,0.10922117531299591f,-0.08400662988424301f,-0.027536462992429733f,-0.04603917524218559f,-0.15391026437282562f,-0.09202902764081955f,-0.1448241025209427f,-0.044826749712228775f,-0.2566569745540619f,-0.06749752163887024f,0.19483795762062073f,0.14192280173301697f,0.16050134599208832f,0.12621359527111053f,0.013339797966182232f,0.18988603353500366f,0.02542361430823803f,0.09579450637102127f,0.03612013906240463f,-0.04305453598499298f,0.16732408106327057f,-0.14965873956680298f,-0.034941818565130234f,-0.099456287920475f,-0.02524237148463726f,0.08615492284297943f,0.03156872093677521f,-0.12586268782615662f,0.4597800076007843f,0.5167636275291443f,0.5347091555595398f,0.22859430313110352f,0.4707728922367096f,0.530863344669342f,0.3768552839756012f,0.4446394741535187f,0.5285198092460632f,0.13741877675056458f,-0.012315180152654648f,-0.057179681956768036f,-0.08663683384656906f,0.1173986867070198f,-0.10376480966806412f,0.07948998361825943f,-0.03933139145374298f,0.0729345753788948f,0.06824064999818802f,-0.09399159997701645f,-0.09157302230596542f,-0.08165454119443893f,-0.15223224461078644f,-0.1849604696035385f,-0.03228532522916794f,-0.1738835722208023f,-0.11900439113378525f,-0.04310804605484009f,0.014129389077425003f,0.17262998223304749f,-0.11483802646398544f,0.20526224374771118f,-0.0033878979738801718f,-0.03198541700839996f,0.04495774954557419f,0.11333030462265015f,0.037470851093530655f,-0.0411214604973793f,-0.04132682457566261f,0.030466174706816673f,-0.08149892836809158f,-0.05381437763571739f,0.0711594894528389f,-0.09894083440303802f,-0.013868961483240128f,0.009254748933017254f,-0.09655597060918808f,-0.06327030062675476f,0.1375812143087387f,0.23386481404304504f,0.15480934083461761f,0.12833473086357117f,0.005840642843395472f,0.112335205078125f,-0.14800165593624115f,-0.22649364173412323f,-0.11028067767620087f,-0.07483169436454773f,-0.041229236871004105f,-0.005820329766720533f,-0.04410997033119202f,-0.13890188932418823f,-0.1118243932723999f,0.12820766866207123f,-0.17134268581867218f,0.021684203296899796f,0.006813539192080498f,0.06646040081977844f,-0.043673038482666016f,0.16085076332092285f,-0.23017019033432007f,0.19559246301651f,0.08291648328304291f,-0.008786328136920929f,-0.09487996250391006f,-0.0063550123013556f,-0.07275077700614929f,0.024276748299598694f,0.06802826374769211f,-0.05975748971104622f,0.012464329600334167f,0.06701134145259857f,-0.05740930885076523f,0.10049571841955185f,-0.08512260019779205f,0.03632230684161186f,0.02008150704205036f,0.037859153002500534f,-0.07907461374998093f,-0.0045841168612241745f,-0.03379879146814346f,0.182203471660614f,0.02680051699280739f,0.11286867409944534f,-0.34956860542297363f,0.1092149168252945f,-0.05450320988893509f,0.21147489547729492f,0.07248898595571518f,-0.4093272387981415f},
{-0.33458980917930603f,0.019204644486308098f,-0.3020423948764801f,-0.3603772521018982f,-0.48536598682403564f,-0.002596271224319935f,-0.18775586783885956f,-0.07151957601308823f,-0.25096023082733154f,-0.04688870534300804f,0.081123486161232f,-0.006200372241437435f,-0.14625181257724762f,-0.04191242530941963f,-0.04027996584773064f,0.038743939250707626f,0.043756116181612015f,-0.05205157771706581f,-0.19562779366970062f,-0.1013290286064148f,0.022793758660554886f,0.007307649124413729f,0.12510870397090912f,-0.058762457221746445f,0.024685628712177277f,0.13500356674194336f,0.08086346089839935f,-0.2344004362821579f,0.048171162605285645f,-0.06528986245393753f,-0.022572193294763565f,-0.19750159978866577f,-0.2540808618068695f,-0.11808716505765915f,0.023806406185030937f,0.07659132033586502f,-0.13698258996009827f,0.13278837502002716f,-0.02318674512207508f,-0.006547017488628626f,0.10090695321559906f,-0.0238475501537323f,-0.1694296896457672f,0.09482088685035706f,0.13800883293151855f,0.6690118908882141f,0.36705273389816284f,0.033317528665065765f,0.34939295053482056f,-0.11884231865406036f,-0.0010495125316083431f,-0.22781309485435486f,-0.6883276700973511f,-0.4391233026981354f,0.018252631649374962f,0.10926776379346848f,-0.018153203651309013f,0.11784625798463821f,-0.10877685248851776f,-0.020219217985868454f,0.15261021256446838f,0.041985541582107544f,0.13001485168933868f,-0.2184736430644989f,-0.06099678575992584f,0.11252044886350632f,-0.1612439602613449f,-0.043189506977796555f,-0.010667147114872932f,-0.039176762104034424f,-0.22026146948337555f,0.08137901872396469f,-0.024570636451244354f,0.08074972033500671f,-0.07625897973775864f,0.030914608389139175f,-0.007042041514068842f,-0.13390298187732697f,-0.004305697046220303f,0.07507834583520889f,0.04642868414521217f,-0.11033693701028824f,0.02757354825735092f,-0.06540152430534363f,0.09406726062297821f,0.07753338664770126f,-0.03873533010482788f,-0.197869211435318f,0.029736554250121117f,0.017010826617479324f,0.026860244572162628f,0.19999416172504425f,0.18985842168331146f,0.360403448343277f,0.3095748722553253f,0.12920325994491577f,0.031911298632621765f,0.1379876434803009f,-0.17203500866889954f,0.03616425395011902f,0.038613397628068924f,0.08607030659914017f,0.025713209062814713f,0.14460638165473938f,0.05368196964263916f,0.03352999687194824f,0.044711049646139145f,0.10558450222015381f,0.03491615131497383f,-0.08776266872882843f,-0.013443320989608765f,-0.0545620322227478f,-0.07417262345552444f,0.02610732801258564f,-0.23406776785850525f,-0.05184900760650635f,-0.15975908935070038f,-0.08229226619005203f,0.06122058257460594f,0.11962709575891495f,0.05799800530076027f,0.13742391765117645f,0.07556454092264175f,-0.12887577712535858f,-0.285555899143219f,0.07496903836727142f,0.11094270646572113f,-0.08238483965396881f,-0.09807516634464264f,0.04401683434844017f,0.008551785722374916f,-0.0666097104549408f,0.13237473368644714f,0.006362940184772015f,-0.04497254639863968f,-0.31265053153038025f,-0.18179064989089966f,-0.07067952305078506f,-0.4496995508670807f,-0.6363664269447327f,0.1750129610300064f,0.3183957040309906f,0.5185348987579346f,0.4954068660736084f,0.019687822088599205f,0.12518735229969025f,-0.07617627829313278f,0.04160550609230995f,0.00695474399253726f,-0.032004162669181824f,-0.15102306008338928f,-0.08682332187891006f,-0.07204624265432358f,0.033642902970314026f,0.09808909893035889f,-0.014661524444818497f,-0.0782410204410553f,0.04375854507088661f,0.07987391948699951f,-0.33597907423973083f,-0.006396694574505091f,-0.06102953478693962f,-0.053877316415309906f,-0.04929943010210991f,-0.04302910715341568f,-0.10994479060173035f,-0.07261141389608383f,-0.06978261470794678f,-0.04131656512618065f,-0.14176853001117706f,-0.042820367962121964f,0.040928568691015244f,-0.06905755400657654f,-0.09626809507608414f,0.06073899194598198f,0.020944656804203987f,-0.032219093292951584f,-0.027406347915530205f,-0.0650586262345314f,-0.08202513307332993f,0.08151256293058395f,-0.04796949401497841f,-0.12787562608718872f,-0.032450661063194275f,-0.37915584444999695f,0.07268613576889038f,-0.1431298553943634f,0.047493867576122284f,0.022222165018320084f,-0.20783481001853943f},
{-0.013959602452814579f,-0.0035640993155539036f,0.21313616633415222f,0.02936858870089054f,0.0769486129283905f,0.18035128712654114f,-0.23275309801101685f,-0.3363291025161743f,0.3551737070083618f,-0.1134551465511322f,0.36201855540275574f,-0.3589237630367279f,0.10083179920911789f,0.28364911675453186f,-0.14781728386878967f,-0.0013568387366831303f,-0.07635877281427383f,-0.14923647046089172f,-0.21523523330688477f,-0.03930903598666191f,-0.3791939318180084f,-0.22060367465019226f,0.09548897296190262f,-0.041442759335041046f,-0.199794203042984f,0.13204585015773773f,-0.012716682627797127f,0.01939309760928154f,-0.13362079858779907f,-0.009549771435558796f,0.046612441539764404f,-0.3291512429714203f,-0.032286934554576874f,-0.02490556612610817f,-0.37685996294021606f,0.19001638889312744f,0.2870272696018219f,-0.1958235204219818f,0.25731319189071655f,0.006798964459449053f,-0.03318416699767113f,0.014945211820304394f,0.06636249274015427f,0.03970687836408615f,-0.04981089010834694f,0.20156826078891754f,-0.14777977764606476f,-0.03017401322722435f,-0.34873825311660767f,-0.24105314910411835f,0.0007603529375046492f,0.08768235146999359f,-0.19079726934432983f,0.22259321808815002f,0.1652633398771286f,-0.10746821016073227f,0.01596793159842491f,0.14843328297138214f,0.3515205383300781f,-0.06526507437229156f,0.27939489483833313f,0.08817275613546371f,0.12903165817260742f,0.0952523946762085f,-0.03057359904050827f,-0.02469174563884735f,0.10144639015197754f,0.46981167793273926f,0.039641816169023514f,-0.15719197690486908f,0.18442359566688538f,-0.2811782956123352f,-0.09894450753927231f,0.0696062222123146f,-0.2030327320098877f,-0.20256641507148743f,-0.38598689436912537f,-0.009558115154504776f,-0.07447569072246552f,-0.13688631355762482f,-0.018254540860652924f,0.2094980925321579f,-0.02377450466156006f,-0.38742783665657043f,0.3096739947795868f,0.18758989870548248f,-0.039378728717565536f,0.0020808670669794083f,-0.06874866038560867f,0.02561175264418125f,0.01634223759174347f,0.23848050832748413f,-0.24429655075073242f,-0.277818888425827f,0.06251924484968185f,0.11326312273740768f,0.2737977206707001f,-0.44272691011428833f,-0.2634977102279663f,-0.17687831819057465f,-0.011936529539525509f,0.16360612213611603f,0.05172568932175636f,0.1202545166015625f,-0.051353104412555695f,0.24208737909793854f,0.041924405843019485f,0.0011407251004129648f,0.16562415659427643f,-0.012243128381669521f,0.23839183151721954f,0.010868344455957413f,-0.05021632835268974f,0.2425263375043869f,0.007928485050797462f,0.06115090847015381f,0.055124811828136444f,-0.2901802361011505f,0.0497584231197834f,-0.5986989736557007f,0.22101321816444397f,0.04757026955485344f,-0.09552524983882904f,-0.05813663825392723f,-0.3116198480129242f,0.09240198135375977f,-0.1255960464477539f,0.09146241098642349f,0.12355829775333405f,-0.0585346445441246f,0.05210845172405243f,0.041536055505275726f,-0.04325220733880997f,0.03067435510456562f,-0.22991694509983063f,0.16977839171886444f,-0.027499902993440628f,0.0787307471036911f,-0.11477359384298325f,-0.3428947925567627f,-0.08852287381887436f,-0.18672700226306915f,-0.46831604838371277f,0.02492358162999153f,0.07544327527284622f,-0.049056559801101685f,0.1551562249660492f,0.03854392468929291f,-0.41655516624450684f,0.006606703158468008f,-0.15330453217029572f,-0.1784346103668213f,0.11656345427036285f,-0.07013113051652908f,-0.4319632053375244f,0.1822170466184616f,-0.08037975430488586f,-0.1578970104455948f,0.036460235714912415f,-0.19127602875232697f,0.035295918583869934f,0.12392667680978775f,-0.004855654202401638f,0.17582029104232788f,0.18037790060043335f,0.19843776524066925f,-0.060292840003967285f,0.07775747776031494f,-0.03169025108218193f,0.002616078360006213f,0.009403565898537636f,-0.08100012689828873f,0.14749345183372498f,0.3475475013256073f,0.09746678173542023f,-0.2728273272514343f,0.030198417603969574f,-0.01946120150387287f,0.1801837533712387f,-0.11643999069929123f,-0.23173728585243225f,-0.21800456941127777f,0.12611573934555054f,-0.14991332590579987f,0.00934542529284954f,0.029859503731131554f,-0.12922658026218414f,-0.2605917751789093f,0.05145995691418648f,0.20297043025493622f},
{0.04070769250392914f,-0.08378057181835175f,-0.14037024974822998f,-0.05320798605680466f,-0.17118819057941437f,-0.09960196912288666f,0.13563762605190277f,-0.03405245766043663f,0.23948632180690765f,-0.2897292673587799f,-0.044810812920331955f,0.17608430981636047f,0.14568102359771729f,0.17567501962184906f,-0.19637759029865265f,0.01860133185982704f,0.16725702583789825f,-0.3669986128807068f,0.07788348942995071f,-0.379812628030777f,0.454521119594574f,-0.010495826601982117f,-0.33474093675613403f,0.17363335192203522f,-0.209585502743721f,-0.0551447793841362f,-0.2597813904285431f,-0.46643903851509094f,-0.20742537081241608f,0.07764788717031479f,0.01299331709742546f,0.09484206885099411f,0.04388422146439552f,0.03878442943096161f,-0.005627414211630821f,-0.4734147787094116f,0.3872004747390747f,0.0376831479370594f,0.12957671284675598f,-0.18793685734272003f,0.8020414113998413f,0.009361986070871353f,0.32543978095054626f,0.14114885032176971f,0.23817959427833557f,-0.21940968930721283f,-0.1415383517742157f,0.30940884351730347f,-0.4496670067310333f,-0.4991588294506073f,-0.4279152452945709f,-0.16217778623104095f,0.09773951768875122f,-0.2560955286026001f,-0.15265654027462006f,0.13298949599266052f,-0.10661137104034424f,0.16810621321201324f,0.13350225985050201f,-0.2723831832408905f,0.30956199765205383f,-0.058814726769924164f,-0.2234497368335724f,-0.4510626792907715f,0.6913943290710449f,0.01535081211477518f,0.08980987221002579f,-0.2183956503868103f,0.024811124429106712f,-0.1742478311061859f,-0.022554807364940643f,-0.010687610134482384f,0.32493099570274353f,0.15975643694400787f,-0.004958210047334433f,0.09996926784515381f,0.14024510979652405f,-0.18345792591571808f,-0.1836143583059311f,-0.4330326020717621f,0.24030224978923798f,0.2871966063976288f,0.13700076937675476f,0.039634522050619125f,-0.14994482696056366f,0.10266861319541931f,0.21429237723350525f,0.2874068021774292f,0.18692786991596222f,-0.45701321959495544f,0.2415129691362381f,0.43502286076545715f,0.294376939535141f,0.8386279940605164f,-0.23991701006889343f,0.3375805616378784f,0.7642524838447571f,0.30342888832092285f,0.2877524793148041f,-0.219565749168396f,0.06416593492031097f,0.27238351106643677f,-0.18390150368213654f,0.10538837313652039f,-0.27852505445480347f,0.28687548637390137f,0.515439510345459f,-0.21783410012722015f,-0.17337089776992798f,-0.02824873849749565f,-0.5401077270507812f,-0.021522248163819313f,0.004543571267277002f,0.1455126255750656f,-0.23403236269950867f,0.525075376033783f,0.1972588300704956f,-0.464923232793808f,0.5043612122535706f,0.01897650957107544f,-0.20635458827018738f,0.5635986924171448f,0.04188656806945801f,-0.42205774784088135f,0.44507163763046265f,0.20008929073810577f,0.1707228422164917f,-0.3614169955253601f,0.4102867543697357f,-0.29112157225608826f,0.12269242852926254f,-0.019459998235106468f,-0.11213342100381851f,0.06180350109934807f,-0.08031701296567917f,-0.02543569728732109f,0.26092010736465454f,0.042998384684324265f,-0.06903263181447983f,-0.49081459641456604f,-0.08126027882099152f,0.21421830356121063f,-0.33686575293540955f,-0.09874894469976425f,0.16103634238243103f,-0.18208444118499756f,0.3998054563999176f,-0.2812573313713074f,0.5002774596214294f,-0.27701711654663086f,-0.03686069697141647f,-0.16618402302265167f,-0.15133103728294373f,0.08799191564321518f,-0.08069859445095062f,-0.31510698795318604f,-0.10562996566295624f,0.100449338555336f,0.019358498975634575f,-0.345109224319458f,-0.17415401339530945f,0.17494507133960724f,-0.3007659912109375f,0.007218273356556892f,0.0588948018848896f,0.09735628217458725f,-0.003843886312097311f,0.4066372513771057f,-0.0765608698129654f,-0.35574638843536377f,0.08825438469648361f,0.09566730260848999f,-0.24515119194984436f,0.06920298933982849f,-0.020227210596203804f,-0.355715811252594f,-0.00839211791753769f,0.12950000166893005f,-0.051314860582351685f,-0.2121230959892273f,0.2514468729496002f,0.33026638627052307f,0.17817239463329315f,-0.4674851596355438f,-0.19824762642383575f,-0.43175047636032104f,0.2907971143722534f,-0.011852293275296688f,-0.28767627477645874f,-0.5223044753074646f},
{0.3903903365135193f,-0.07707802206277847f,-0.47504982352256775f,-0.10950818657875061f,0.36273056268692017f,0.5300403237342834f,0.4579848647117615f,0.4689716398715973f,-0.2377804070711136f,-0.061698973178863525f,0.1993757039308548f,-0.012063584290444851f,-0.10482001304626465f,0.3938497304916382f,-0.19551628828048706f,-0.23804695904254913f,0.10808667540550232f,0.4084421396255493f,-0.16658689081668854f,-0.18488749861717224f,0.21568667888641357f,-0.06963618099689484f,0.30787423253059387f,-0.3859720528125763f,0.047516725957393646f,-0.3367050290107727f,-0.28676092624664307f,0.1130068302154541f,0.25708863139152527f,-0.19632403552532196f,-0.3398509919643402f,0.15997900068759918f,0.2150944322347641f,0.2996855080127716f,0.26054951548576355f,-0.5413348078727722f,0.1455574482679367f,0.026691123843193054f,0.01917521469295025f,-0.17950581014156342f,0.24833819270133972f,-0.0005146039766259491f,0.21947656571865082f,0.23260289430618286f,-0.2268182933330536f,0.22135663032531738f,-0.2712585926055908f,-0.15679772198200226f,-0.16819943487644196f,-0.4690568149089813f,-0.21844899654388428f,0.2048623114824295f,0.19476744532585144f,0.297824889421463f,0.2642212510108948f,0.13630682229995728f,-0.15999528765678406f,0.004662405699491501f,0.14471328258514404f,-0.10909248143434525f,-0.13267424702644348f,0.1215013638138771f,-0.0022866115905344486f,-0.0014129914343357086f,0.24316781759262085f,0.018153777346014977f,-0.19418953359127045f,0.30232423543930054f,0.1794813722372055f,-0.2864731252193451f,0.007129323203116655f,0.12273197621107101f,-0.15865811705589294f,-0.183473140001297f,0.19952185451984406f,0.05614786595106125f,0.5615677833557129f,0.12080897390842438f,-0.30626922845840454f,-0.09521335363388062f,0.30275654792785645f,0.16961215436458588f,-0.09591339528560638f,0.4726966321468353f,-0.376188725233078f,-0.12324505299329758f,0.011223236098885536f,-0.23943457007408142f,0.12695078551769257f,-0.3797801434993744f,-0.1820986270904541f,0.34359556436538696f,-0.2674129605293274f,-0.4747087061405182f,0.206631600856781f,-0.31960707902908325f,-0.39974600076675415f,0.3705485165119171f,0.23547124862670898f,-0.30309993028640747f,0.04077989608049393f,0.5494303703308105f,0.10356470942497253f,-0.02034856379032135f,0.08546718955039978f,-0.11348788440227509f,-0.40005427598953247f,-0.17632140219211578f,-0.17109495401382446f,0.01772105135023594f,0.20937199890613556f,0.16436217725276947f,-0.08023995906114578f,0.3644346296787262f,0.15362951159477234f,0.12874771654605865f,0.18437537550926208f,0.046382028609514236f,0.09962653368711472f,-0.18377065658569336f,0.18237148225307465f,0.2729250192642212f,-0.015315133146941662f,0.11292889714241028f,0.09080140292644501f,0.08478335291147232f,-0.35803526639938354f,-0.6142112016677856f,0.017340032383799553f,-0.07001679390668869f,0.10570809990167618f,0.43176326155662537f,-0.02685314044356346f,0.04169153422117233f,-0.18235602974891663f,-0.19794714450836182f,-0.017079146578907967f,-0.04730205610394478f,-0.06624940782785416f,-0.35698965191841125f,-0.12236065417528152f,-0.19749899208545685f,-0.0928860530257225f,-0.8050088286399841f,0.14908745884895325f,0.14844629168510437f,-0.08643297106027603f,0.508615255355835f,0.2008126825094223f,-0.5588278770446777f,0.18812228739261627f,-0.1341027170419693f,-0.14215365052223206f,-0.023920124396681786f,-0.11029399931430817f,-0.1084180474281311f,0.10627248138189316f,-0.3367604911327362f,0.26408466696739197f,-0.2970951795578003f,-0.04978813976049423f,0.037918299436569214f,0.1527353674173355f,0.5084264874458313f,0.2280781865119934f,0.011387328617274761f,-0.011303667910397053f,0.15477657318115234f,0.28144752979278564f,-0.31780579686164856f,-0.2184506356716156f,-0.01926264353096485f,0.09566070884466171f,-0.2412382811307907f,0.41689005494117737f,0.11209819465875626f,0.18326793611049652f,-0.13966499269008636f,0.040546368807554245f,-0.08553916960954666f,-0.2963288426399231f,-0.08600401133298874f,-0.3561587333679199f,0.33110639452934265f,0.19052591919898987f,-0.051357701420784f,0.0932534709572792f,-0.5085631608963013f,-0.011324793100357056f,-0.24731670320034027f},
{-0.19614329934120178f,-0.17974726855754852f,0.19411174952983856f,-0.32534757256507874f,-0.43811365962028503f,-0.03134763240814209f,-0.0043123457580804825f,0.2223474383354187f,-0.3531944155693054f,-0.05620529130101204f,-0.23050211369991302f,0.0378030389547348f,0.06135238707065582f,-0.24511578679084778f,9.47045482462272e-05f,0.1251422017812729f,0.3176893889904022f,0.011090208776295185f,0.16562560200691223f,-0.08657585829496384f,0.07277810573577881f,-0.0071699912659823895f,-0.08442872017621994f,0.029219267889857292f,0.27427154779434204f,-0.04108942672610283f,0.03473258763551712f,-0.02126903645694256f,0.216515451669693f,0.008709617890417576f,-0.02261965535581112f,0.24737872183322906f,0.04842601343989372f,0.08351530134677887f,0.02383241429924965f,0.01119206752628088f,-0.13767601549625397f,0.24078349769115448f,-0.04608602821826935f,0.005955441389232874f,0.1904628872871399f,0.07030656188726425f,0.09381411969661713f,-0.21764229238033295f,-0.14946521818637848f,0.14284180104732513f,0.1421462893486023f,-0.27770429849624634f,-0.1773720234632492f,-0.3526349663734436f,0.07499784231185913f,-0.33408641815185547f,-0.12793786823749542f,0.32177191972732544f,0.0724545419216156f,-0.028170209378004074f,0.1323094367980957f,0.11733697354793549f,-0.10432341694831848f,-0.11521951109170914f,0.06726130843162537f,0.10178838670253754f,0.029003353789448738f,-0.296789288520813f,-0.04270847141742706f,0.12344278395175934f,-0.18244421482086182f,0.2225540280342102f,0.044249922037124634f,-0.023619404062628746f,0.17306125164031982f,0.1276957243680954f,-0.02172643505036831f,-0.016722049564123154f,-0.1823006123304367f,0.18384243547916412f,0.13327257335186005f,0.08325475454330444f,0.07347805798053741f,0.043618954718112946f,0.26217904686927795f,-0.0656614676117897f,-0.010896489024162292f,0.13111761212348938f,-0.08688744157552719f,-0.00014720896433573216f,0.08933264017105103f,0.019279060885310173f,0.03623511269688606f,-0.14957840740680695f,0.46531563997268677f,0.05365370213985443f,0.38640454411506653f,0.282818078994751f,-0.18817651271820068f,-0.17447982728481293f,0.37723881006240845f,-0.3086717426776886f,0.09621118754148483f,-0.0300741083920002f,-0.0017722874181345105f,-0.1777784824371338f,0.16067476570606232f,0.06045448035001755f,0.09839408099651337f,0.16698971390724182f,0.04616956040263176f,0.18286098539829254f,-0.10895882546901703f,-0.09504438936710358f,-0.08075995743274689f,0.03836270049214363f,0.017402492463588715f,0.028720321133732796f,0.062362972646951675f,0.10910854488611221f,0.1409299522638321f,0.12100653350353241f,0.12531894445419312f,-0.0001698510313872248f,-0.03242635354399681f,-0.2734169661998749f,-0.049836788326501846f,0.08189567178487778f,-0.19221904873847961f,0.15898530185222626f,0.17405416071414948f,-0.01736375503242016f,0.11120767891407013f,-0.002708110958337784f,0.16593047976493835f,0.05710739269852638f,-0.05082240700721741f,-0.07907067984342575f,0.14715245366096497f,-0.1782240867614746f,-0.11915165930986404f,0.4513223469257355f,-0.13591986894607544f,-0.1938481479883194f,0.2051468938589096f,0.022726040333509445f,-0.006900873966515064f,-0.2201211154460907f,0.04668152704834938f,0.03102424554526806f,-0.1291196197271347f,0.0866122767329216f,-0.0195523239672184f,-0.007617100607603788f,-0.036413513123989105f,-0.03767101466655731f,-0.04950045049190521f,0.129277303814888f,-0.010265546850860119f,0.1968824416399002f,0.05409062281250954f,-0.23464855551719666f,0.037604834884405136f,-0.03074135072529316f,-0.031511832028627396f,0.12629194557666779f,0.10352157056331635f,0.17288412153720856f,-0.015079380944371223f,-0.10801251977682114f,0.07562201470136642f,-0.13245823979377747f,-0.25507524609565735f,-0.06443900614976883f,-0.13482524454593658f,-0.31955063343048096f,0.054166171699762344f,-0.056133072823286057f,-0.027062823995947838f,0.09861831367015839f,0.1436414122581482f,-0.0018894015811383724f,0.06385373324155807f,-0.16680791974067688f,0.09627575427293777f,-0.22663614153862f,-0.2525925040245056f,-0.35309919714927673f,0.19110433757305145f,0.01043796818703413f,0.19215568900108337f,-0.11709021031856537f,0.1126309409737587f,-0.4827600419521332f},
{-0.02359837479889393f,-0.3019130527973175f,-0.06902173906564713f,-0.014508094638586044f,0.1804097443819046f,0.3209761083126068f,0.7866189479827881f,0.5322787761688232f,0.3842259347438812f,-0.3263784646987915f,0.0820494219660759f,0.4668949842453003f,-0.01902609132230282f,0.10245441645383835f,-0.1987687051296234f,-0.3236892819404602f,-0.04357665777206421f,-0.3887743651866913f,0.09654299169778824f,-0.3025367856025696f,0.10413651913404465f,-0.11361699551343918f,-0.17345906794071198f,-0.32960736751556396f,0.10150135308504105f,-0.06450726836919785f,-0.004109751898795366f,0.4166209399700165f,0.038208261132240295f,-0.027887022122740746f,-0.20057959854602814f,0.3608005940914154f,0.034243471920490265f,0.061854492872953415f,-0.48466697335243225f,-0.5018715858459473f,0.05526630952954292f,-0.012217600829899311f,-0.21311283111572266f,-0.08375560492277145f,-0.5855753421783447f,0.19660907983779907f,-0.2651265859603882f,0.18943700194358826f,0.16209331154823303f,0.25206640362739563f,0.13405193388462067f,-0.18761113286018372f,-0.03178491070866585f,-0.40722936391830444f,0.08387521654367447f,-0.06858615577220917f,-0.08863972872495651f,0.3011262118816376f,-0.0493382029235363f,-0.02324160933494568f,-0.11100852489471436f,0.32051435112953186f,0.042118195444345474f,-0.34979695081710815f,-0.13241925835609436f,-0.1270008534193039f,-0.2014770358800888f,0.19971393048763275f,-0.18347474932670593f,0.2545104920864105f,-0.15383471548557281f,0.20998965203762054f,-0.0195479579269886f,-0.3259725272655487f,0.4942052662372589f,-0.08363858610391617f,-0.12256734818220139f,0.12234426289796829f,0.44352757930755615f,0.150492325425148f,0.1856437474489212f,0.16353866457939148f,0.6024695038795471f,-0.4033237397670746f,-0.24002645909786224f,-0.05473703145980835f,-0.5023147463798523f,0.26275327801704407f,0.28830817341804504f,-0.2195090353488922f,-0.20598582923412323f,0.07914818078279495f,0.1465541273355484f,-0.16163450479507446f,-0.012009880505502224f,-0.41276252269744873f,0.44870105385780334f,0.33907225728034973f,0.42299404740333557f,0.05652539059519768f,-0.3892963230609894f,-1.044603705406189f,-0.05408890172839165f,-0.4221389591693878f,-0.2805550992488861f,0.2691858112812042f,0.02213866263628006f,-0.07512933015823364f,0.5213102698326111f,0.40391555428504944f,0.0594668909907341f,0.2519840598106384f,-0.4972074627876282f,0.10355886071920395f,-0.09961581975221634f,-0.03630658611655235f,-0.49793440103530884f,-0.015753204002976418f,-0.17574241757392883f,0.1933557093143463f,0.19693957269191742f,-0.11934931576251984f,-0.08487576246261597f,-0.1029076874256134f,0.3269632160663605f,-0.13310447335243225f,-0.029532764106988907f,-0.04878595471382141f,0.18987523019313812f,0.270518034696579f,0.15289445221424103f,-0.07391089200973511f,-0.17925621569156647f,-0.3356284499168396f,-0.14458067715168f,0.1198594868183136f,0.13026486337184906f,0.3184289336204529f,0.24362300336360931f,0.23890773952007294f,-0.05756913125514984f,0.11537155508995056f,-0.13929912447929382f,-0.48489296436309814f,0.02222518064081669f,-0.027039438486099243f,0.02232333831489086f,-0.002724539255723357f,0.0762130618095398f,0.06296252459287643f,-0.2225237935781479f,0.2149333357810974f,0.320815771818161f,-0.35406404733657837f,0.40909048914909363f,-0.004697803407907486f,-0.2523711919784546f,-0.30895373225212097f,-0.02841874212026596f,0.0975809097290039f,-0.048306941986083984f,-0.29305264353752136f,-0.6124085187911987f,-0.37896978855133057f,0.18324075639247894f,-0.24178411066532135f,0.43957287073135376f,0.07039753347635269f,-0.6922193169593811f,0.36523306369781494f,-0.6921664476394653f,-0.08748134225606918f,-0.2686115801334381f,-0.11479654908180237f,0.2341691106557846f,0.010740959085524082f,-0.4834953248500824f,-0.03658926859498024f,0.19260306656360626f,-0.08833383023738861f,-0.06554272025823593f,0.3028879761695862f,-0.6322770714759827f,-0.3249308466911316f,-0.09877141565084457f,-0.2624755799770355f,-0.3506988286972046f,-0.06387040764093399f,-0.4148602783679962f,-0.24420896172523499f,-0.1661912351846695f,-0.23817898333072662f,-0.11830399930477142f,1.0326300859451294f},
{0.4085659980773926f,-0.029466751962900162f,0.4645359516143799f,-0.14799071848392487f,0.1415690779685974f,-0.3133164346218109f,-0.07936856895685196f,-0.050605352967977524f,0.16630204021930695f,-0.18721304833889008f,0.09310556203126907f,-0.1328618973493576f,0.1095372885465622f,0.10588540881872177f,0.04402058199048042f,-0.09540840983390808f,0.026646267622709274f,0.019633816555142403f,0.23156464099884033f,-0.06862635910511017f,-0.2248031347990036f,-0.06923925131559372f,0.23871977627277374f,0.05409611016511917f,0.31604692339897156f,0.14649340510368347f,-0.023403463885188103f,-0.1455455720424652f,0.08670166879892349f,0.07410085946321487f,0.011202890425920486f,0.19331616163253784f,0.23104026913642883f,0.10073573887348175f,0.1332312971353531f,0.03091396577656269f,0.4834635853767395f,-0.12012191861867905f,0.11597172170877457f,0.011457812041044235f,-0.02504945546388626f,0.07117238640785217f,0.08142749220132828f,0.08702079206705093f,-0.140606090426445f,-0.23980268836021423f,-0.42641565203666687f,0.034850433468818665f,0.26458635926246643f,-0.07002745568752289f,-0.4875258207321167f,0.26880505681037903f,-0.029112650081515312f,0.3870820105075836f,-0.13230910897254944f,-0.1546579897403717f,0.043207742273807526f,-0.0011930146720260382f,0.1968577355146408f,-0.13516703248023987f,-0.4017900228500366f,0.03194712474942207f,-0.07120763510465622f,0.12181563675403595f,-0.08544551581144333f,0.00032950739841908216f,0.06986070424318314f,-0.015555002726614475f,0.08370885252952576f,0.08637454360723495f,0.059150371700525284f,-0.04862057417631149f,-0.3560456335544586f,-0.20443683862686157f,-0.02046651765704155f,0.10464614629745483f,0.1968318074941635f,0.09268300235271454f,0.15700708329677582f,-0.0897611752152443f,-0.18169602751731873f,-0.015107505023479462f,-0.18207360804080963f,0.040446728467941284f,-0.1365984082221985f,-0.2121279537677765f,0.09496200084686279f,-0.16877400875091553f,0.1172843649983406f,0.1232738345861435f,-0.17974582314491272f,0.2088651806116104f,-0.48548445105552673f,0.29881036281585693f,-0.589544951915741f,0.1819024682044983f,-0.23774570226669312f,0.1863023042678833f,-0.12732979655265808f,-0.14009933173656464f,0.2320280373096466f,-0.23791615664958954f,0.05963100492954254f,-0.29782798886299133f,-0.0862286165356636f,-0.0006389704649336636f,-0.12333608418703079f,-0.2149665653705597f,-0.025351429358124733f,0.17981861531734467f,0.19182626903057098f,-0.16011469066143036f,-0.056749552488327026f,-0.0541650615632534f,-0.07156109809875488f,0.030417848378419876f,0.14788110554218292f,0.1217031478881836f,0.2003893256187439f,-0.01764739863574505f,-0.07063239812850952f,-0.32504794001579285f,0.20146112143993378f,0.07523668557405472f,0.03803901746869087f,-0.09859879314899445f,0.20550905168056488f,0.045082688331604004f,0.0002288120158482343f,0.0817742794752121f,0.26555827260017395f,-0.07802843302488327f,0.09758980572223663f,0.10523980855941772f,0.31818944215774536f,-0.24832920730113983f,0.2617260813713074f,-0.008125062100589275f,0.3489265739917755f,-0.6067537069320679f,0.08786531537771225f,-0.16178655624389648f,0.25661182403564453f,-0.11400311440229416f,-0.012572011910378933f,0.173846036195755f,0.045520756393671036f,0.15293185412883759f,-0.09550940990447998f,-0.13795733451843262f,-0.18776752054691315f,-0.20337903499603271f,0.2039150893688202f,0.2534416913986206f,0.0984642431139946f,-0.056119199842214584f,-0.1420404464006424f,-0.27140700817108154f,-0.09837215393781662f,-0.18331214785575867f,0.011073981411755085f,-0.052046939730644226f,-0.07661754637956619f,0.005170042626559734f,0.22765707969665527f,-0.03159108757972717f,0.3312540054321289f,0.11157042533159256f,-0.05091416835784912f,-0.16851943731307983f,0.06287194043397903f,-0.11692164838314056f,-0.1165085881948471f,0.011317495256662369f,-0.09720644354820251f,0.03910893201828003f,0.12501804530620575f,-0.45677343010902405f,0.010525963269174099f,-0.08724456280469894f,0.009505613707005978f,-0.1998443752527237f,-0.08539493381977081f,-0.2663774788379669f,0.07400897890329361f,0.05775841698050499f,-0.05051988363265991f,-0.2819675803184509f,-0.0653047189116478f,0.07630779594182968f},
{0.20313312113285065f,-0.2843121588230133f,0.0021979440934956074f,0.523996114730835f,0.018046922981739044f,0.2789020240306854f,-0.13340164721012115f,0.16664902865886688f,-0.15360510349273682f,0.06419673562049866f,-0.055776651948690414f,0.07567853480577469f,0.01108346227556467f,0.1028059795498848f,-0.08341425657272339f,-0.12435226887464523f,0.023789696395397186f,-0.002671454567462206f,-0.08017323911190033f,-0.0697595626115799f,-0.0033672319259494543f,0.005307244136929512f,-0.13249239325523376f,-0.02900472655892372f,-0.04456222057342529f,-0.04426909238100052f,-0.021113436669111252f,-0.09473710507154465f,-0.05080856382846832f,-0.07635273039340973f,0.1031702384352684f,-0.07823612540960312f,0.09978280961513519f,0.04233818128705025f,-0.09778930246829987f,-0.15666475892066956f,-0.009842576459050179f,0.02727777697145939f,-0.040334343910217285f,0.05941328406333923f,0.059585537761449814f,0.07756547629833221f,-0.009673514403402805f,-0.003601917065680027f,0.0802784413099289f,0.2874965965747833f,0.05148640275001526f,-0.06405358016490936f,-0.576793909072876f,0.138688862323761f,-0.510626494884491f,0.16839954257011414f,0.3350048065185547f,0.3077317476272583f,-0.02990911155939102f,0.06360910087823868f,-0.08999405801296234f,0.07190269976854324f,0.012159169651567936f,-0.006273187696933746f,0.11821355670690536f,0.10625068098306656f,0.0009258295176550746f,-0.02222779206931591f,-0.0032334132120013237f,-0.015897423028945923f,-0.05458381399512291f,0.030771400779485703f,0.010276277549564838f,-0.011443832889199257f,0.052853524684906006f,0.1534663736820221f,-0.17351263761520386f,0.02849467471241951f,-0.09330205619335175f,-0.024379268288612366f,0.00950632058084011f,-0.0860111266374588f,-0.024082569405436516f,0.018304836004972458f,-0.17291425168514252f,0.015066361054778099f,-0.08927595615386963f,-0.12297724187374115f,0.08879897743463516f,0.08731845021247864f,0.15713006258010864f,-0.0029038027860224247f,-0.10128282755613327f,0.04301092028617859f,-0.3852400779724121f,0.23130589723587036f,-0.029257873073220253f,-0.023431509733200073f,-0.4252042770385742f,-0.4652491807937622f,-0.30932244658470154f,0.10058215260505676f,-0.42567187547683716f,-0.0028819446451961994f,-0.2557278573513031f,-0.07016605138778687f,-0.19293098151683807f,-0.29632726311683655f,-0.11183493584394455f,-0.05671120434999466f,-0.05860736593604088f,-0.01261216402053833f,0.10769679397344589f,0.04658538103103638f,0.05117002874612808f,0.047695498913526535f,-0.0747683048248291f,-0.07185682654380798f,0.07334685325622559f,-0.09188494086265564f,0.15651598572731018f,-0.04083533212542534f,0.09152277559041977f,0.10263357311487198f,0.016104428097605705f,-0.044067565351724625f,0.08829089999198914f,0.1382235735654831f,0.02681841515004635f,0.10456663370132446f,0.060835469514131546f,0.061935700476169586f,0.0839395821094513f,-0.09832161664962769f,-0.04568038135766983f,0.0006809919141232967f,0.010118153877556324f,-0.04003499820828438f,-0.04453669488430023f,-0.6841290593147278f,-0.003320998977869749f,0.12077081203460693f,0.22281205654144287f,-0.45952707529067993f,0.32697242498397827f,0.3151913583278656f,0.1333102136850357f,-0.1070951372385025f,0.013845378533005714f,0.02570652775466442f,0.005442334339022636f,0.03704506531357765f,-0.07086312770843506f,-0.09022732079029083f,-0.009620103985071182f,0.03511028736829758f,-0.010696341283619404f,0.03990441933274269f,0.03389484062790871f,-0.1595357358455658f,-0.03500770404934883f,-0.02868114784359932f,0.024101223796606064f,-0.11681341379880905f,-0.14840248227119446f,0.07285067439079285f,0.08598224818706512f,0.05562331900000572f,0.10534811019897461f,0.06418302655220032f,0.0030813163612037897f,-0.038097988814115524f,0.0688387081027031f,-0.10229620337486267f,0.11844316869974136f,0.023257238790392876f,-0.03675537183880806f,-0.20391444861888885f,-0.1568794697523117f,-0.07097914814949036f,-0.1433008909225464f,-0.01021356787532568f,-0.026337163522839546f,-0.029343290254473686f,-0.022314392030239105f,-0.17140386998653412f,-0.18106965720653534f,0.03909115865826607f,0.01995076797902584f,-0.050634369254112244f,0.0477600134909153f,-0.041600968688726425f,0.03407362103462219f,0.013376585207879543f},
{0.5951592922210693f,-0.13577468693256378f,-0.33339735865592957f,-0.32011812925338745f,0.5815953016281128f,-0.4988114535808563f,0.13783109188079834f,0.13863298296928406f,0.2947917878627777f,0.03535522148013115f,0.17860586941242218f,0.04790164530277252f,-0.08642251789569855f,0.3787161111831665f,-0.31268882751464844f,-0.4993005096912384f,0.08434039354324341f,-0.05740218982100487f,0.011859273537993431f,-0.2027081400156021f,-0.22883090376853943f,-0.061528924852609634f,-0.34485766291618347f,0.03839924931526184f,0.22746095061302185f,0.14900456368923187f,0.16124607622623444f,0.2778555750846863f,-0.22707809507846832f,-0.1264742910861969f,0.0034988143015652895f,0.0842156782746315f,0.02889835648238659f,0.0758611187338829f,-0.1923081874847412f,0.22669506072998047f,0.19148960709571838f,0.07725857198238373f,0.2287517488002777f,-0.09455545991659164f,-0.10723096877336502f,0.23959621787071228f,-0.0879117026925087f,-0.24629910290241241f,-0.00946205947548151f,0.10467487573623657f,-0.03692573308944702f,-0.18669404089450836f,0.010231340304017067f,-0.35850802063941956f,-0.31600579619407654f,0.08885374665260315f,-0.11433926224708557f,0.05686065927147865f,-0.028996292501688004f,0.0021283298265188932f,-0.05391731113195419f,-0.07590055465698242f,0.17657555639743805f,-0.11925854533910751f,-0.45532748103141785f,-0.1522170454263687f,0.14812903106212616f,-0.31494468450546265f,-0.13202700018882751f,-0.07154920697212219f,0.2628140449523926f,0.1796061098575592f,0.0684155821800232f,-0.21565024554729462f,0.2492171674966812f,0.12843377888202667f,-0.07169031351804733f,-0.09898748248815536f,0.3607455790042877f,-0.02566954307258129f,0.33025044202804565f,0.21338817477226257f,0.06324148178100586f,-0.012286701239645481f,0.08436911553144455f,0.07312142848968506f,0.07683538645505905f,0.08948635309934616f,0.045742202550172806f,0.09515788406133652f,0.2988625764846802f,0.07632503658533096f,0.14569400250911713f,-0.01690495014190674f,-0.351986825466156f,0.17106574773788452f,0.08631514757871628f,-0.0669521614909172f,-0.20567040145397186f,-0.4414033889770508f,0.12222029268741608f,-0.36694690585136414f,-0.11095026135444641f,0.06821513175964355f,0.08235132694244385f,0.1367519199848175f,-0.05194061994552612f,-0.19104546308517456f,0.27251002192497253f,0.10613131523132324f,0.3107104003429413f,-0.17921629548072815f,0.04194803163409233f,0.2829412817955017f,-0.12210047245025635f,0.061608366668224335f,-0.20044365525245667f,0.19537518918514252f,0.3505350649356842f,0.1981249749660492f,-0.0384606309235096f,0.27944639325141907f,0.026448888704180717f,-0.2159189134836197f,0.14611105620861053f,-0.2172788828611374f,-0.1464313417673111f,-0.5211109519004822f,0.0633358433842659f,-0.255084753036499f,0.03601714223623276f,-0.11293180286884308f,-0.08325214684009552f,-0.1350533813238144f,-0.19375008344650269f,0.17673353850841522f,0.16994628310203552f,0.289711594581604f,0.09029731899499893f,-0.3013147711753845f,0.22153756022453308f,-0.048721425235271454f,-0.11125615239143372f,-0.36601996421813965f,0.05519229546189308f,0.0007544313557446003f,0.3260999321937561f,0.3171194791793823f,-0.07505206018686295f,0.11084885895252228f,0.10384754836559296f,0.026713049039244652f,-0.009165925905108452f,-0.18990468978881836f,-0.22432482242584229f,0.1591583639383316f,0.05314616858959198f,-0.3174804747104645f,-0.051947761327028275f,0.1434856802225113f,-0.3788932263851166f,0.15444183349609375f,0.0982838049530983f,-0.28728702664375305f,-0.15985265374183655f,-0.15732058882713318f,0.022081710398197174f,-0.37619996070861816f,0.046684909611940384f,0.014288629405200481f,-0.11768943071365356f,0.005888013169169426f,-0.07337885349988937f,0.2114853411912918f,0.1324176788330078f,0.1124587282538414f,0.14909927546977997f,-0.1318267285823822f,0.2696528136730194f,0.28381943702697754f,0.08478779345750809f,-0.08570823073387146f,-0.0679810419678688f,-0.07064904272556305f,0.05802842974662781f,-0.348029226064682f,-0.024141419678926468f,-0.33262431621551514f,0.13127774000167847f,-0.2046983689069748f,-0.20545029640197754f,0.1933341920375824f,-0.1775817573070526f,0.23441541194915771f},
{-0.0066241975873708725f,-0.3864496350288391f,-0.19874131679534912f,-0.03702288120985031f,-0.10248582065105438f,0.1242685541510582f,-0.014143960550427437f,0.05686098709702492f,-0.06662943214178085f,-0.12240704894065857f,0.26449835300445557f,0.07847602665424347f,-0.006405391730368137f,-0.018634017556905746f,0.42210426926612854f,-0.14654546976089478f,0.20489534735679626f,0.007782802451401949f,-0.0278438962996006f,-0.028094204142689705f,-0.1255936473608017f,0.15484555065631866f,0.15338024497032166f,-0.022334370762109756f,-0.00043152723810635507f,0.10549181699752808f,0.09742246568202972f,0.07996805012226105f,-0.4131196141242981f,-0.2429201751947403f,0.20749877393245697f,0.3788670599460602f,-0.1834409385919571f,0.07815811038017273f,-0.015251644887030125f,-0.14770734310150146f,-0.004368697293102741f,0.11778540164232254f,0.11607824265956879f,-0.06667084991931915f,-0.11081072688102722f,0.13221697509288788f,-0.1350238174200058f,0.3065735697746277f,0.009862899780273438f,-0.07557124644517899f,0.04098209738731384f,-0.04466100409626961f,-0.15286526083946228f,-0.3164399266242981f,-0.2587517201900482f,-0.041800111532211304f,-0.41177916526794434f,-0.09746577590703964f,0.16134367883205414f,0.21897727251052856f,-0.03604789450764656f,-0.2443096786737442f,-0.06908853352069855f,-0.11190482974052429f,0.10317452251911163f,0.001508180284872651f,0.1161370724439621f,0.016775459051132202f,-0.05213804915547371f,-0.2614802122116089f,-0.14562666416168213f,0.0397624596953392f,-0.02559555694460869f,-0.1593562513589859f,0.09779279679059982f,-0.0005213146796450019f,-0.13154686987400055f,0.13384896516799927f,0.21116852760314941f,-0.12720513343811035f,-0.22219064831733704f,0.2138577699661255f,0.02341756410896778f,0.0946555808186531f,-0.0252199899405241f,-0.14615103602409363f,-0.04381951689720154f,0.04238792136311531f,0.16707520186901093f,-0.0722929835319519f,0.19342492520809174f,0.05194620043039322f,-0.05415793135762215f,-0.08123885840177536f,0.2090238779783249f,-0.2075618952512741f,0.5684106349945068f,0.47302427887916565f,-0.20075204968452454f,-0.25344082713127136f,0.40759339928627014f,-0.21202334761619568f,0.3711654245853424f,-0.252507746219635f,-0.0019626873545348644f,-0.17049016058444977f,-0.018146948888897896f,0.11506357789039612f,-0.0975775495171547f,-0.09632934629917145f,0.19629566371440887f,0.09774479269981384f,-0.12288034707307816f,-0.10718493163585663f,-0.2536890506744385f,0.058881573379039764f,-0.06018180772662163f,-0.09512625634670258f,-0.06349002569913864f,-0.06222956255078316f,0.034067366272211075f,0.34869006276130676f,0.0012858567060902715f,0.061460260301828384f,-0.16625025868415833f,0.037420012056827545f,0.34214523434638977f,0.2051069140434265f,0.05962773412466049f,0.12266993522644043f,-0.02498800866305828f,0.1146233007311821f,0.0027707580011337996f,-0.29701974987983704f,-0.048495449125766754f,-0.3418740928173065f,-0.3433273136615753f,0.07229474931955338f,0.102553591132164f,-0.11116410791873932f,0.122409887611866f,-0.23494498431682587f,0.16331222653388977f,-0.17960192263126373f,-0.12179118394851685f,-0.028993362560868263f,0.010030683130025864f,0.041944194585084915f,0.10020843148231506f,0.1777295023202896f,0.13895924389362335f,-0.026243781670928f,-0.1943049430847168f,-0.2505515515804291f,0.05448199063539505f,0.1486852616071701f,0.005115658976137638f,0.3723122179508209f,-0.015140430070459843f,0.10636615008115768f,0.45202088356018066f,-0.16169829666614532f,-0.22061043977737427f,0.2948877513408661f,0.03972262144088745f,0.08835109323263168f,0.06705702841281891f,-0.3408743739128113f,0.06973327696323395f,0.018962252885103226f,-0.008366796188056469f,0.09549438208341599f,-0.009524417109787464f,-0.1795000284910202f,0.1142340898513794f,-0.07672469317913055f,-0.1847638338804245f,0.13983161747455597f,0.16876071691513062f,0.10751456767320633f,0.07208094000816345f,-0.000723599165212363f,-0.07697661966085434f,-0.06311686336994171f,0.01523600798100233f,-0.04529587924480438f,-0.17835073173046112f,0.07189883291721344f,0.06124226003885269f,0.1386515498161316f,-0.09375569969415665f,-0.16076961159706116f,-0.031046589836478233f,-0.435870885848999f},
