#ifndef UTTT2_PARAMETERS_H
#define UTTT2_PARAMETERS_H

float hiddenWeights[128][190] = {{0.07850529253482819f,-0.01036012265831232f,0.007118394132703543f,0.053866706788539886f,0.07557984441518784f,0.05270082876086235f,0.043164659291505814f,0.09739179164171219f,0.08574390411376953f,-0.0022186969872564077f,0.021501410752534866f,-0.0024152949918061495f,-0.009372851811349392f,-0.0013702971627935767f,-0.042135946452617645f,-0.04343678802251816f,0.00392195675522089f,0.02179323509335518f,0.06727319955825806f,-0.0071253422647714615f,-0.07666356861591339f,0.007855824194848537f,0.056128695607185364f,0.0008928744937293231f,0.02264581434428692f,0.011053130030632019f,0.012477206066250801f,-0.08939740806818008f,0.014622550457715988f,-0.06078743934631348f,0.015619654208421707f,0.03850376233458519f,-0.013850483112037182f,-0.05925257131457329f,0.0019576854538172483f,-0.03034345433115959f,0.015083633363246918f,0.00423202570527792f,-0.033764712512493134f,-0.015198320150375366f,0.008389221504330635f,0.0044409106485545635f,0.028888661414384842f,0.034838322550058365f,-0.0004175577196292579f,0.014263174496591091f,-0.008055685088038445f,-0.0043196468614041805f,0.01853185147047043f,-0.06775641441345215f,0.0236753411591053f,0.003654215484857559f,-0.03116336464881897f,-0.01875186339020729f,-0.054336123168468475f,-0.08555088192224503f,0.0006240824004635215f,0.011446214281022549f,0.04706774279475212f,0.018781863152980804f,0.054052624851465225f,-0.03101079724729061f,0.01365393865853548f,0.08090797066688538f,0.0024179769679903984f,-0.021173642948269844f,-0.03772919252514839f,0.010939767584204674f,-0.006585382856428623f,-0.013770750723779202f,0.033750347793102264f,-0.017037823796272278f,0.057447802275419235f,0.010426501743495464f,0.013433903455734253f,0.009334638714790344f,0.0036503588780760765f,0.07946132123470306f,-0.009985792450606823f,-0.054594457149505615f,-0.018356041982769966f,0.013184195384383202f,0.036035362631082535f,0.05852065980434418f,0.020808087661862373f,-0.06616973131895065f,0.040645044296979904f,-0.008687335066497326f,0.008923499844968319f,-0.010726877488195896f,0.011202219873666763f,-0.10369868576526642f,-0.0020876906346529722f,0.04460323229432106f,-0.00747282849624753f,-0.02295311912894249f,0.030557388439774513f,-0.0080696577206254f,-0.029204582795500755f,-0.05808737501502037f,0.009265878237783909f,-0.004184809513390064f,0.01453110296279192f,-0.030444500967860222f,0.003916972782462835f,-0.0255171749740839f,0.002356230281293392f,0.019442914053797722f,0.031068317592144012f,0.01086436863988638f,0.07367256283760071f,0.07559517025947571f,-0.09803082048892975f,0.06131172925233841f,0.026189036667346954f,0.03678862750530243f,-0.005010006949305534f,-0.025941580533981323f,0.009640933945775032f,0.001712431781925261f,0.03316415473818779f,-0.044089578092098236f,0.031514693051576614f,0.024360839277505875f,0.02007938362658024f,-0.019823450595140457f,0.004696474876254797f,0.01625867560505867f,0.03987332433462143f,-0.0007542265811935067f,-0.03207840770483017f,0.02060404047369957f,-0.053255438804626465f,0.0019459177274256945f,0.021361660212278366f,-0.0029596996027976274f,-0.036726851016283035f,0.031140292063355446f,-0.00587821938097477f,-0.05036836862564087f,-0.002781538525596261f,-0.020874369889497757f,0.0012782495468854904f,-0.057777851819992065f,0.02132166363298893f,0.0168951116502285f,-0.05487590283155441f,-0.028995336964726448f,0.004102429840713739f,-0.025988232344388962f,0.03786047548055649f,0.009260457009077072f,-0.018614405766129494f,-0.018616333603858948f,0.01133065763860941f,-0.0036628611851483583f,-0.04946019873023033f,-0.012900708243250847f,0.01090698316693306f,-0.03909038379788399f,-0.014694305136799812f,-0.08094140887260437f,0.032616131007671356f,0.017162688076496124f,0.001168111921288073f,0.028102092444896698f,0.009973342530429363f,0.011812087148427963f,0.046308133751153946f,-0.018094457685947418f,0.03318385034799576f,-0.033473096787929535f,0.01288864016532898f,-0.022821476683020592f,-0.009198595769703388f,0.013939046300947666f,-0.010424774140119553f,0.014880412258207798f,0.012593439780175686f,0.02138393558561802f,-0.09218236058950424f,-0.10495951026678085f,-0.02338690683245659f,0.020851755514740944f,-0.005171729251742363f,0.08673727512359619f,0.05791014805436134f,-0.03297407552599907f,-0.011065112426877022f,-0.013884192332625389f},
{0.01644466072320938f,-0.07171902805566788f,0.0538560152053833f,0.09991765022277832f,-0.025390392169356346f,0.03338516876101494f,0.09450064599514008f,-0.017135949805378914f,-0.014996460638940334f,-0.04980701953172684f,0.016657011583447456f,0.05678725987672806f,0.07429173588752747f,0.05102049186825752f,0.01975099928677082f,0.010651645250618458f,-0.022075816988945007f,-0.009116948582231998f,0.021776925772428513f,-0.054807499051094055f,-0.01513748336583376f,0.022272033616900444f,-0.010454265400767326f,-0.052203916013240814f,0.0018081259913742542f,0.0436440072953701f,0.013819961808621883f,-0.003260758239775896f,-0.010965731926262379f,-0.00048790668370202184f,-0.018037868663668633f,-0.03396407514810562f,-0.03894118592143059f,0.05016171932220459f,0.023057088255882263f,0.02507263608276844f,-0.005367987789213657f,0.01711777225136757f,0.04381992295384407f,-0.036740273237228394f,0.005344061180949211f,0.006604338530451059f,0.07645432651042938f,0.037081897258758545f,0.05911659449338913f,-0.04426361247897148f,-0.060371797531843185f,0.012464136816561222f,0.009971029125154018f,-0.08657173812389374f,-0.02444913238286972f,-0.05989854037761688f,-0.0015179022448137403f,0.05107441172003746f,-0.0029964412096887827f,0.008250094950199127f,0.03488781303167343f,0.03292413055896759f,-0.07231540232896805f,-0.006995583884418011f,-0.03055977262556553f,0.04044155776500702f,-0.010301433503627777f,0.007235582917928696f,0.03766873478889465f,-0.03960618004202843f,-0.03445213660597801f,0.03250996768474579f,0.04015582799911499f,-0.029734952375292778f,-0.07327564060688019f,-1.9513487131916918e-05f,-0.012200690805912018f,-0.02867722138762474f,0.0153511893004179f,-0.011374336667358875f,-0.061952557414770126f,0.004361974541097879f,-0.06594434380531311f,0.01033646147698164f,-0.04128235951066017f,-0.0019376514246687293f,0.07204244285821915f,0.05551151558756828f,-0.032052069902420044f,0.04100915044546127f,0.008277076296508312f,-0.019262006506323814f,0.011842031963169575f,-0.04599091038107872f,0.0456283763051033f,-0.03409391641616821f,0.03855471685528755f,0.015130899846553802f,-0.03136569634079933f,0.023591939359903336f,-0.02837507426738739f,0.05095508694648743f,0.03244006633758545f,-0.00308973272331059f,-0.10475694388151169f,0.05416625738143921f,-0.017115876078605652f,0.021451901644468307f,0.025855792686343193f,0.05367486551403999f,0.03230857476592064f,0.02037321776151657f,0.040743984282016754f,0.002697540447115898f,-0.00035011518048122525f,-0.04181550443172455f,-0.0015488013159483671f,0.006061022635549307f,-0.0211991835385561f,0.01508555468171835f,0.018164342269301414f,-0.02154342271387577f,0.04785546660423279f,0.003486264729872346f,-0.014925708062946796f,0.003632413921877742f,-0.010017896071076393f,0.0276354793459177f,0.011413177475333214f,-0.018336329609155655f,0.049856215715408325f,-0.033142805099487305f,-0.029681967571377754f,-0.02386888675391674f,-0.03735532611608505f,0.039403799921274185f,0.0280804093927145f,0.004625465255230665f,0.0019160212250426412f,-0.0171037670224905f,-0.0009523777407594025f,-0.0391368642449379f,0.03634743392467499f,-0.038841258734464645f,-0.02564276196062565f,-0.06716619431972504f,-0.025429749861359596f,-0.07190579175949097f,-0.023985324427485466f,0.02332654967904091f,-0.04733928665518761f,0.016290951520204544f,0.051161035895347595f,-0.07450231909751892f,0.02845097705721855f,0.026692280545830727f,-0.01620481163263321f,0.019848493859171867f,-0.07084310054779053f,0.01575852930545807f,-0.010742193087935448f,-0.05797922611236572f,0.0053477114997804165f,-0.03129377216100693f,-0.036643724888563156f,-0.038269396871328354f,-0.03519359976053238f,0.11082674562931061f,-0.046870045363903046f,0.006006838753819466f,0.03471368923783302f,0.01919068954885006f,0.0040694307535886765f,-0.08343958109617233f,-0.05250497907400131f,0.02401614934206009f,0.010287060402333736f,0.0452091209590435f,0.07387221604585648f,0.026064710691571236f,0.07276220619678497f,0.005086819175630808f,0.06903989613056183f,-0.037705156952142715f,-0.0954940989613533f,-0.04039599373936653f,-0.06114109233021736f,-0.02965191751718521f,0.08438420295715332f,0.02239317260682583f,0.05185260623693466f,-0.04020553082227707f,-0.10480138659477234f,0.08755701035261154f},
{0.03354985639452934f,0.041677460074424744f,0.003799179568886757f,0.001252073678188026f,-0.09186746925115585f,0.009555261582136154f,-0.03746626153588295f,-0.04280131682753563f,-0.01623227819800377f,0.001524662715382874f,0.001018968760035932f,-0.012654936872422695f,-0.039157457649707794f,-0.0020392481237649918f,-0.032905690371990204f,0.004935075994580984f,-0.0025607584975659847f,0.03168788552284241f,-0.03581327199935913f,0.01738046295940876f,0.018925590440630913f,-0.018691018223762512f,-0.010814711451530457f,0.016197439283132553f,0.006762394681572914f,-0.003157063154503703f,0.01779984124004841f,0.01831073686480522f,-0.007375323213636875f,-0.0019102762453258038f,0.020549830049276352f,-0.0022910297848284245f,0.009995128959417343f,0.016363242641091347f,0.016247034072875977f,-0.035617049783468246f,0.008336546830832958f,0.02608167938888073f,0.0185047909617424f,-0.014914117753505707f,0.01931840181350708f,0.006642419844865799f,-0.010382629930973053f,0.030120864510536194f,0.010920458473265171f,-0.02706640586256981f,-0.0857509896159172f,-0.018078066408634186f,0.06842393428087234f,-0.10023728013038635f,0.07872610539197922f,0.06906382739543915f,-0.056701984256505966f,0.047781143337488174f,0.02320983074605465f,0.013169605284929276f,-0.017161820083856583f,-0.024023542180657387f,-0.012569921091198921f,0.013286059722304344f,-5.758728366345167e-05f,0.012508964166045189f,3.455623664194718e-05f,-0.020666157826781273f,-0.01433058176189661f,0.05566736310720444f,-0.012309103272855282f,0.018909107893705368f,-0.03171192482113838f,-0.04982757195830345f,-0.009535280987620354f,-0.030735362321138382f,-0.006996858399361372f,0.01766817830502987f,0.0001397337910020724f,0.026001686230301857f,-0.0027978222351521254f,0.018796710297465324f,-0.0010849100071936846f,0.004792447201907635f,0.020899219438433647f,-0.005220791790634394f,0.002269414719194174f,-0.012751154601573944f,-0.02459818683564663f,0.019746508449316025f,-0.022122850641608238f,-0.004493343643844128f,0.007117020897567272f,-0.026611559092998505f,0.007879680953919888f,-0.04377620294690132f,0.08426851779222488f,0.02220284380018711f,0.05145152658224106f,0.09827309846878052f,-0.005557309836149216f,0.06702809780836105f,0.00028156599728390574f,-0.003708864329382777f,-0.021323006600141525f,-0.004919133614748716f,-0.0015562674961984158f,0.03332427889108658f,0.00898407120257616f,-0.009267255663871765f,0.015962116420269012f,-0.023247329518198967f,-0.02191857621073723f,-0.02559938095510006f,-0.022410258650779724f,0.010533744469285011f,0.029468685388565063f,-0.014091083779931068f,0.01736130565404892f,-0.033804889768362045f,-0.004021669737994671f,-0.039463602006435394f,0.011952296830713749f,-0.01331237144768238f,0.004162403289228678f,0.010603554546833038f,-0.006273356266319752f,-0.002396232448518276f,-0.01073106937110424f,0.004437902942299843f,0.002938156947493553f,-0.01478911004960537f,0.02943015657365322f,-0.0006125082145445049f,-0.0010088549461215734f,0.00899597816169262f,-0.005403669085353613f,-0.0007383314077742398f,0.047878447920084f,0.06265981495380402f,0.06561408191919327f,0.024257974699139595f,-0.07823120802640915f,-0.009083988144993782f,-0.039908066391944885f,-0.05218231678009033f,0.13091324269771576f,-0.0780268982052803f,-0.02130088396370411f,-0.03388884663581848f,-0.013831887394189835f,0.005609647836536169f,0.02380545437335968f,-0.004310607444494963f,0.020121218636631966f,-0.008451330475509167f,-0.005876293871551752f,-0.024109011515975f,0.021455489099025726f,0.019243255257606506f,0.030544666573405266f,-0.007014622911810875f,0.03051936998963356f,-0.004122814163565636f,0.02920680306851864f,0.01827271468937397f,-0.01791362836956978f,-0.020668866112828255f,-0.007811568211764097f,-0.001956241438165307f,-0.0012077746214345098f,-0.028981344774365425f,-0.0010323195019736886f,-0.03820847347378731f,-0.015668608248233795f,0.02227945439517498f,-0.0012744535924866796f,0.010151316411793232f,-0.019118687137961388f,0.008920718915760517f,0.02590286172926426f,0.0008157744305208325f,0.0040590399876236916f,0.0034224032424390316f,-0.008588803000748158f,0.022974245250225067f,-0.006675079930573702f,-0.019398311153054237f,-0.05357254669070244f,-0.01834089495241642f,-0.009175577200949192f,0.015709131956100464f,-0.010572414845228195f,-0.021679207682609558f},
{0.050590820610523224f,0.048438332974910736f,-0.016781674697995186f,0.04517124965786934f,0.041950441896915436f,0.0853157490491867f,0.018487779423594475f,0.0035816754680126905f,0.01816498301923275f,0.01847606711089611f,0.028536969795823097f,-0.00439643207937479f,0.01996282860636711f,0.003128595417365432f,0.025685636326670647f,0.032319601625204086f,-0.01746799424290657f,-0.012131107039749622f,0.0007784877088852227f,-0.0016722027212381363f,0.017898285761475563f,0.016712920740246773f,0.007882011123001575f,0.011768890544772148f,-0.001539500430226326f,-0.024283455684781075f,-0.009952242486178875f,-0.010578383691608906f,-0.004872010555118322f,-0.009550642222166061f,0.029281046241521835f,0.0364992655813694f,0.003920075949281454f,0.017649522051215172f,-0.03916285187005997f,-0.002622057683765888f,0.01454231794923544f,0.0014049438759684563f,-0.011521419510245323f,-0.005193134769797325f,0.025308510288596153f,-0.011658071540296078f,0.008438586257398129f,-0.03787197917699814f,-0.05363289266824722f,-0.13597196340560913f,-0.07025283575057983f,0.004148903302848339f,-0.10762897878885269f,-0.13388782739639282f,0.06199953705072403f,0.036361999809741974f,0.04338826611638069f,0.1352190375328064f,0.012508961372077465f,-0.007114786189049482f,-0.004080943297594786f,0.007012184243649244f,-0.004519459791481495f,-0.016988279297947884f,0.031894996762275696f,-0.01521274447441101f,-0.002292684279382229f,0.0008626319468021393f,0.02274004928767681f,-0.011174824088811874f,0.0013277641264721751f,-0.002897389931604266f,-0.005393437575548887f,-0.039656780660152435f,-0.019816651940345764f,-0.021106021478772163f,0.04291355609893799f,0.0043352157808840275f,0.008365679532289505f,-0.019483719021081924f,-0.0367262102663517f,-0.004560442641377449f,0.004721255041658878f,-0.036211591213941574f,0.0037469989620149136f,0.01349683478474617f,0.012422719039022923f,-0.0025541936047375202f,0.037763599306344986f,0.012745145708322525f,0.008583908900618553f,0.04677300155162811f,0.0003314194909762591f,0.004632416181266308f,0.021692758426070213f,-0.019039001315832138f,-0.029997123405337334f,-0.04170094057917595f,-0.06971055269241333f,-0.03988375514745712f,-0.009406803175807f,0.013906517066061497f,-0.036401715129613876f,-0.02398429997265339f,-0.03607108071446419f,0.00375539343804121f,-0.00011553229705896229f,0.027433685958385468f,-0.0005042148404754698f,0.009877740405499935f,0.018683427944779396f,-0.00862331036478281f,-0.006881148088723421f,0.004564066417515278f,-0.03265674039721489f,0.004312500357627869f,0.047473642975091934f,-0.01073367428034544f,0.01355671789497137f,0.03724902495741844f,-0.02789611555635929f,-0.008432962000370026f,0.02671397291123867f,-0.00014170976646710187f,-0.015375878661870956f,0.004047243855893612f,-0.003438746090978384f,0.021046452224254608f,0.022211769595742226f,0.0136753274127841f,-0.02999347634613514f,0.024194292724132538f,0.01489196065813303f,-0.008373699150979519f,0.02043001912534237f,-0.002815987216308713f,-0.0017578653059899807f,0.02662600763142109f,0.01263132318854332f,0.0877009779214859f,0.015695421025156975f,-0.046601079404354095f,0.07575488090515137f,0.027114534750580788f,-0.08477877080440521f,-0.05794119834899902f,-0.1847914159297943f,-0.12564942240715027f,-0.014146794565021992f,0.017137082293629646f,0.0020124621223658323f,0.0183943472802639f,0.012756595388054848f,0.0037923131603747606f,0.04201383516192436f,0.023307673633098602f,0.0011511831544339657f,-0.01704171858727932f,-0.0423893965780735f,0.020682523027062416f,0.004161380231380463f,0.03373169153928757f,0.008730615489184856f,-0.01755424775183201f,-0.06876225769519806f,-0.014089863747358322f,-0.0007380773895420134f,0.024975229054689407f,0.0033689383417367935f,0.010814144276082516f,0.024437161162495613f,0.013610784895718098f,0.006055822595953941f,0.023035433143377304f,0.0011822234373539686f,-0.0023355514276772738f,0.028491439297795296f,0.0008500883122906089f,-0.014431932009756565f,-0.022110624238848686f,-8.945676381699741e-05f,-0.0074441866017878056f,0.0255449041724205f,-0.021196462213993073f,-0.01094091311097145f,-0.013081823475658894f,-0.022594446316361427f,-0.03084573894739151f,0.026231799274683f,-0.011728416197001934f,-0.003179338527843356f,-0.016404947265982628f,0.007589796092361212f,-0.03181590139865875f},
{-0.06656930595636368f,0.050702545791864395f,0.059973523020744324f,0.042688969522714615f,-0.07019245624542236f,0.05365431681275368f,0.030967509374022484f,0.11098232120275497f,-0.01757124438881874f,0.00038450901047326624f,-0.005069767590612173f,-0.020876038819551468f,-0.023774078115820885f,-0.019383201375603676f,-0.014236225746572018f,-0.08542770892381668f,-0.045884229242801666f,0.01348006073385477f,0.027873724699020386f,-0.016477808356285095f,-0.004651609808206558f,0.011515690945088863f,0.03722964599728584f,0.033897098153829575f,-0.002844377886503935f,0.060050543397665024f,0.03601435571908951f,0.024944020435214043f,0.03504728525876999f,-0.030495835468173027f,0.038995806127786636f,0.017043082043528557f,0.012698057107627392f,-0.00827291700989008f,0.011901702731847763f,0.04147341474890709f,0.033604368567466736f,-0.04961331561207771f,-0.005647649057209492f,-0.05435120314359665f,-0.030611373484134674f,0.005903904791921377f,0.011059246025979519f,-0.031235354021191597f,0.03683048486709595f,0.0346483439207077f,-0.029265616089105606f,-0.0844702422618866f,-0.00829071830958128f,-0.06514501571655273f,-0.04182622581720352f,0.003974457271397114f,-0.043889619410037994f,0.006060892716050148f,0.02956789918243885f,0.014694759622216225f,0.007360042072832584f,-0.01866578683257103f,-0.022813808172941208f,-0.0263289175927639f,0.025624509900808334f,-0.002824189141392708f,-0.00839498732239008f,0.05147769674658775f,0.023912368342280388f,-0.010076943784952164f,-0.015427290461957455f,-0.009054908528923988f,0.004251244477927685f,-0.07208336144685745f,0.050505515187978745f,0.04376857355237007f,-0.022373942658305168f,-0.00803383905440569f,0.012746760621666908f,0.007705992087721825f,0.03421059995889664f,-0.02414572797715664f,0.06319766491651535f,-0.009101483039557934f,0.027998600155115128f,-0.05838273465633392f,-0.01900574378669262f,-0.06399160623550415f,0.004244853742420673f,0.04126904532313347f,-0.037229713052511215f,-0.0455409400165081f,-0.024778245016932487f,-0.01758994162082672f,0.029935237020254135f,-0.03674442321062088f,-0.06979087740182877f,-0.10381422191858292f,0.051691051572561264f,-0.040436312556266785f,-0.02336764521896839f,-0.062294043600559235f,0.05781695246696472f,-0.05421813204884529f,0.016595808789134026f,0.03599020093679428f,0.012315355241298676f,0.03258476033806801f,0.04449011757969856f,0.045040927827358246f,0.008231077343225479f,0.03807559236884117f,-0.016660312190651894f,-0.03070700354874134f,0.022473059594631195f,-0.056269846856594086f,-0.004858269821852446f,-0.04838208109140396f,0.02726588025689125f,0.003794560208916664f,-0.0166306309401989f,-0.06034129485487938f,0.01445847749710083f,0.0006768457242287695f,0.0006524529308080673f,-0.053114037960767746f,-0.025853749364614487f,0.027387328445911407f,-0.04968202859163284f,-0.06630833446979523f,-0.03728604316711426f,0.005401056259870529f,0.001611379673704505f,0.008732324466109276f,-0.016494113951921463f,0.01630452834069729f,0.030530717223882675f,0.02719184383749962f,-0.05964791029691696f,-0.0034173906315118074f,0.07677147537469864f,0.04082261770963669f,0.0038945903070271015f,-0.04326065629720688f,-0.021015945822000504f,-0.015716662630438805f,-0.009979082271456718f,-0.008324835449457169f,-0.06912913173437119f,0.013120562769472599f,0.03549975901842117f,0.005468376446515322f,-0.05336347594857216f,-0.00634794170036912f,0.026187699288129807f,-0.0182049460709095f,0.021122241392731667f,-0.027858145534992218f,0.03579724207520485f,-0.013162764720618725f,-0.024834290146827698f,-0.03127501904964447f,0.007490548770874739f,-0.05190323293209076f,0.004339161794632673f,0.008322871290147305f,-0.014474701136350632f,0.023129111155867577f,-0.03201938793063164f,0.04390237480401993f,-0.07179617881774902f,0.00767669640481472f,-0.001212754170410335f,-0.0325249545276165f,-0.002427272032946348f,0.0022486383095383644f,0.03891191631555557f,0.04377046972513199f,0.017422901466488838f,-0.001137453131377697f,-0.007173221092671156f,-0.0012713138712570071f,-0.010495157912373543f,-0.010546845383942127f,-0.15035182237625122f,-0.006194723770022392f,0.09388772398233414f,-0.024076618254184723f,-0.09282046556472778f,0.025015590712428093f,0.07509978860616684f,0.08865112066268921f,-0.04208826273679733f,-0.07554948329925537f},
{0.012399415485560894f,-0.011687438935041428f,0.024451564997434616f,-0.04489431157708168f,-0.010690136812627316f,-0.049926020205020905f,0.024120738729834557f,-0.0913553312420845f,-0.05096318572759628f,-0.02154720202088356f,0.024432165548205376f,0.010266074910759926f,0.001389285083860159f,-0.023173440247774124f,0.011557439342141151f,0.009714338928461075f,0.008722453378140926f,0.01115256454795599f,0.03707994148135185f,0.022919192910194397f,0.0037022933829575777f,0.008583937771618366f,-0.01567068323493004f,0.021029843017458916f,0.02163630910217762f,0.03163938224315643f,-0.006555249448865652f,-0.012058327905833721f,0.004658491350710392f,-0.007841500453650951f,-0.023167388513684273f,-0.02582714706659317f,-0.0122481444850564f,-0.041511282324790955f,-0.004685679916292429f,-0.026746481657028198f,-0.0037970521952956915f,0.007901819422841072f,-0.016881292685866356f,-0.006073360797017813f,-0.01050577126443386f,0.002126917941495776f,-0.009050088003277779f,0.0012194287264719605f,-0.021801378577947617f,0.06417772173881531f,0.0505451001226902f,0.0467209666967392f,0.06534300744533539f,-0.008924332447350025f,0.07854895293712616f,0.041356105357408524f,0.10417306423187256f,0.01952255330979824f,-0.04048161581158638f,-0.03290483355522156f,0.0076256864704191685f,0.008103491738438606f,-0.04396427795290947f,-0.005671583116054535f,-0.040721822530031204f,0.002942923689261079f,-0.012700703926384449f,-0.04393917694687843f,0.010855020023882389f,0.004510961472988129f,0.017673972994089127f,0.0011803319212049246f,0.016822174191474915f,-0.03191722556948662f,0.014229880645871162f,-0.006841639056801796f,-0.04527400806546211f,-0.0132021214812994f,-0.012026917189359665f,0.004851135890930891f,-0.02425464615225792f,-0.011410663835704327f,-0.024445196613669395f,0.015111596323549747f,-0.030413465574383736f,0.006016809493303299f,-0.018164141103625298f,-0.036855727434158325f,0.002258284017443657f,-0.009448054246604443f,0.025425326079130173f,-0.02697174623608589f,-0.007359758485108614f,-0.017441172152757645f,0.05482394993305206f,0.01138418447226286f,-0.05603805184364319f,0.03474094718694687f,0.355267196893692f,-0.019315659999847412f,0.04233955964446068f,-0.008301319554448128f,-0.009183640591800213f,0.005194560158997774f,-0.0028225143905729055f,0.01996646635234356f,-0.014006768353283405f,0.06585995107889175f,-0.014017232693731785f,-0.011521176435053349f,0.006590843200683594f,0.013210764154791832f,-0.0299072302877903f,-0.015847381204366684f,0.005911649204790592f,-0.00952812097966671f,0.05782802030444145f,-0.007331992033869028f,0.015858357772231102f,0.00045697606401517987f,-0.02131200209259987f,-0.010486213490366936f,-0.010820009745657444f,0.02647288143634796f,0.003925518598407507f,0.06621254235506058f,0.02766937017440796f,-0.005918519105762243f,-0.01881791278719902f,0.002142099430784583f,-0.014036581851541996f,-0.0015370487235486507f,-0.006233663763850927f,-0.010848530568182468f,0.03898976370692253f,0.022931687533855438f,-0.018731797114014626f,0.01073978841304779f,0.00920210499316454f,-0.01975369080901146f,-0.054533690214157104f,-0.01185625046491623f,-0.044637344777584076f,-0.10619507730007172f,0.007006768602877855f,-0.028064576908946037f,-0.03683214634656906f,-0.052591387182474136f,0.005609701853245497f,-0.03385103493928909f,-0.007776977028697729f,-0.02356274425983429f,0.043091464787721634f,0.0006936484132893384f,-0.03730194270610809f,-0.02016107179224491f,0.008232638239860535f,-0.007962859235703945f,0.0035937977954745293f,-0.013247786089777946f,0.00686501432210207f,0.06757031381130219f,-0.030694611370563507f,-0.001046578399837017f,0.01976619102060795f,0.011168137192726135f,-0.0008988291956484318f,-0.04622487723827362f,-0.002889506286010146f,-0.013289354741573334f,0.031435295939445496f,0.005505871959030628f,0.005413783714175224f,0.004623278044164181f,-0.021545616909861565f,0.030230658128857613f,0.0015404722653329372f,-0.01833091489970684f,0.004498529247939587f,0.07218858599662781f,-0.0029484168626368046f,0.013992593623697758f,0.010582915507256985f,0.014210101217031479f,-0.02021174132823944f,0.005462717730551958f,-0.022785214707255363f,-0.005932501517236233f,0.013219301588833332f,-0.03427979722619057f,-0.006779134273529053f,-0.042598988860845566f,-0.0017967427847906947f,0.0005826553679071367f},
{0.06778278201818466f,0.0032926411367952824f,-0.03285660222172737f,-0.043320100754499435f,0.04415401071310043f,0.05345620587468147f,0.09367559850215912f,0.023824676871299744f,0.021052014082670212f,0.011280314065515995f,0.059264350682497025f,-0.012131297960877419f,-0.019525650888681412f,0.013196387328207493f,-0.03734991326928139f,-0.001490755588747561f,0.01433342695236206f,0.009952940046787262f,-0.05840049684047699f,-0.024098524823784828f,-0.0027425496373325586f,-0.0006452116067521274f,0.012655746191740036f,-0.03895191848278046f,0.05017007514834404f,0.0011529234470799565f,0.01398502103984356f,-0.03409448266029358f,0.05630285292863846f,-0.030630236491560936f,-0.05030953884124756f,0.062273818999528885f,0.045949600636959076f,0.052441272884607315f,0.006730270572006702f,-0.0766465812921524f,0.032920364290475845f,-0.06373924016952515f,0.004380758851766586f,-0.025347864255309105f,0.04100661352276802f,-0.005176755134016275f,0.07415056228637695f,0.049572765827178955f,-0.021197274327278137f,-0.04113878682255745f,-0.03778752312064171f,-0.003450692631304264f,0.012413098476827145f,-0.053606417030096054f,-0.022813260555267334f,-0.04520179331302643f,0.02732999250292778f,-0.004032231867313385f,-0.0026256272103637457f,0.0025424552150070667f,0.043402038514614105f,0.03718172386288643f,-0.030368302017450333f,-0.04286598041653633f,0.014231591485440731f,-0.02745678275823593f,0.023596515879034996f,-0.09372667968273163f,0.0463620163500309f,-0.005225829314440489f,0.029239390045404434f,0.026636386290192604f,0.09542811661958694f,-0.04856620728969574f,0.002235467778518796f,-0.02339254319667816f,0.017989132553339005f,-0.046217743307352066f,-0.05180586129426956f,-0.031834039837121964f,0.04613877832889557f,-0.04811057820916176f,-0.005430583842098713f,-0.025678807869553566f,0.07000677287578583f,0.07188120484352112f,0.017471471801400185f,0.06274063140153885f,0.02240545116364956f,-0.021656131371855736f,-0.0433579720556736f,0.0004700413264799863f,-0.024120433256030083f,-0.05990229919552803f,-0.03055170178413391f,0.13490413129329681f,-0.015138601884245872f,-0.019914722070097923f,0.04737360030412674f,-0.051490072160959244f,0.015780730172991753f,0.05950339138507843f,0.008715523406863213f,-0.045567385852336884f,-0.05348821356892586f,0.0645037442445755f,-0.028020011261105537f,-0.030113913118839264f,-0.0752185732126236f,-0.028302108868956566f,-0.0638100802898407f,-0.04974110424518585f,0.028408028185367584f,-0.0023309867829084396f,0.030601803213357925f,0.004901147913187742f,-0.011382410302758217f,0.07498978078365326f,0.02668001316487789f,-0.009598338045179844f,-0.001820115139707923f,0.015220209956169128f,0.010881702415645123f,-0.03612259030342102f,-0.08725257962942123f,-0.05140034109354019f,0.002293993951752782f,0.014637677930295467f,-0.00830623134970665f,0.037933528423309326f,0.08280131965875626f,-0.035465531051158905f,0.039802633225917816f,-0.008879236876964569f,0.014834719710052013f,0.01353697944432497f,-0.005976689048111439f,0.030844461172819138f,-0.02820190042257309f,-0.0593259334564209f,0.023527896031737328f,0.04855916276574135f,-0.012123719789087772f,-0.06322860717773438f,-0.012274776585400105f,-0.028341274708509445f,-0.004206497222185135f,-0.0099684102460742f,-0.04991787672042847f,0.024212218821048737f,-0.03705279901623726f,0.021332887932658195f,0.0022687383461743593f,0.01131410151720047f,-0.021609798073768616f,-0.08087549358606339f,-0.003561177058145404f,0.08836048096418381f,0.01347071211785078f,-0.03198671340942383f,0.06352107226848602f,-0.002324810717254877f,-0.012207461521029472f,-0.07538425922393799f,0.03320396691560745f,-0.006149194668978453f,0.06466586142778397f,0.026951566338539124f,-0.01016946416348219f,0.010772399604320526f,0.042641427367925644f,0.0330578051507473f,0.03364253044128418f,-0.04975679889321327f,-0.023949947208166122f,-0.05842957645654678f,0.0008481205441057682f,-0.019010482355952263f,0.028795965015888214f,-0.01415166910737753f,0.05515884608030319f,0.044725336134433746f,0.05346420034766197f,0.004958274774253368f,0.0051778084598481655f,0.014199620112776756f,0.005664402153342962f,0.056171927601099014f,-0.08833727985620499f,-0.05978129431605339f,-0.03275906294584274f,-0.009604080580174923f,0.017717553302645683f,-0.025238530710339546f},
{0.0012664101086556911f,0.05280681699514389f,0.005724494345486164f,0.06323452293872833f,0.04891418665647507f,0.05974426493048668f,0.04003675654530525f,-0.017496678978204727f,-0.010654381476342678f,0.005556691903620958f,-0.005095651838928461f,0.0481744185090065f,0.0005113347433507442f,0.056638121604919434f,0.06550119817256927f,-0.019934894517064095f,-0.0017674347618594766f,0.025118039920926094f,0.0017803078517317772f,-0.03905331715941429f,0.032815366983413696f,-0.002303817542269826f,-0.001385226845741272f,-0.058416906744241714f,-0.01674487814307213f,-0.032795898616313934f,-0.027063637971878052f,-0.04286498203873634f,0.016789788380265236f,-0.04561061039566994f,9.251909796148539e-05f,0.03206465020775795f,-0.0015508773503825068f,-0.008156701922416687f,0.07959358394145966f,-0.07039973139762878f,0.00861960370093584f,0.03721509128808975f,-0.010155114345252514f,-0.02484806440770626f,-0.027272915467619896f,0.016661440953612328f,0.0021275386679917574f,0.0026410978753119707f,-0.010284422896802425f,0.008859345689415932f,-0.020335599780082703f,0.00761497113853693f,0.00019413391419220716f,-0.020010806620121002f,0.02615395374596119f,0.02089884504675865f,-0.044733792543411255f,0.03151506930589676f,0.017563121393322945f,-0.004317357204854488f,-0.019205821678042412f,-0.007584705017507076f,-0.0084913969039917f,-0.011573132127523422f,-0.0019483420765027404f,0.03415808081626892f,0.009658075869083405f,-0.00717252166941762f,0.00764912273734808f,-0.01446408499032259f,0.023522403091192245f,-0.013373325578868389f,-0.035077497363090515f,-0.007626935839653015f,0.008527619764208794f,-0.08205992728471756f,0.013428924605250359f,-0.002840209286659956f,0.05235922336578369f,0.004092459566891193f,-0.02112169750034809f,-0.0046851858496665955f,0.02782629430294037f,-0.0015834835357964039f,-0.044275566935539246f,-0.029686730355024338f,0.02191024273633957f,-0.026652473956346512f,0.028040412813425064f,0.09605906903743744f,0.04446997866034508f,0.027454975992441177f,-0.023227443918585777f,-0.023400111123919487f,-0.058498840779066086f,0.08991888910531998f,-0.07867775857448578f,0.07716424763202667f,-0.033174239099025726f,0.0037423649337142706f,-0.07101082801818848f,-0.08262119442224503f,0.029373714700341225f,-0.013414528220891953f,0.00935745146125555f,-0.010385475121438503f,0.0368192084133625f,-0.03040613979101181f,-0.02086685597896576f,0.02319144457578659f,0.01133456639945507f,0.015685036778450012f,0.02661890722811222f,-0.027543287724256516f,0.024964679032564163f,0.030708802863955498f,0.04938444867730141f,0.046067629009485245f,0.04590875655412674f,0.0631728246808052f,0.05300787836313248f,-0.005859808064997196f,-0.040299855172634125f,-0.053952258080244064f,-0.07362426072359085f,-0.013465036638081074f,-0.029528411105275154f,0.005736438557505608f,-0.011222071945667267f,-0.0019707900937646627f,0.014230480417609215f,0.030042391270399094f,-0.007758449297398329f,-0.035428453236818314f,-0.023066921159625053f,0.01469493005424738f,0.03747548907995224f,0.026136085391044617f,0.023560158908367157f,-0.00033131756936199963f,-0.06192893534898758f,-0.0015290980227291584f,-0.06654722988605499f,-0.051068395376205444f,-0.04527021199464798f,-0.04360770434141159f,-0.011947440914809704f,-0.014492961578071117f,-0.029240582138299942f,0.01515465322881937f,0.04392147809267044f,0.02725127525627613f,-0.025797277688980103f,-0.03288924694061279f,-0.03409430384635925f,-0.05899995565414429f,0.04472251608967781f,-0.050262920558452606f,0.006718493532389402f,0.05616869777441025f,0.01651494763791561f,-0.04038689285516739f,0.02748040482401848f,-0.01805785484611988f,0.04595109447836876f,0.04903567582368851f,-0.04283960536122322f,-0.006824973504990339f,-0.009708164259791374f,-0.029311981052160263f,-0.015886306762695312f,0.04137175902724266f,0.006173541769385338f,0.0033867356833070517f,-0.013718271628022194f,0.012463115155696869f,-0.00988080631941557f,0.07044659554958344f,0.004313237499445677f,0.00868590734899044f,0.03975807502865791f,0.03031192719936371f,-0.002770206658169627f,-0.05010700970888138f,-0.007159899920225143f,-0.09027127176523209f,-0.04648612439632416f,-0.07831016927957535f,0.033482566475868225f,0.012255473993718624f,0.055048868060112f,-0.029254194349050522f,0.01587233692407608f,0.06186455488204956f},
{0.08543848246335983f,-0.07320664823055267f,-0.03827916085720062f,0.07235292345285416f,0.0326014868915081f,0.021521447226405144f,0.10139060020446777f,0.058824166655540466f,-0.05522043630480766f,0.020893404260277748f,-0.0051940917037427425f,0.02623833902180195f,0.016854217275977135f,0.08205761015415192f,-0.03520051762461662f,-0.011991789564490318f,0.013756174594163895f,0.028312981128692627f,0.012758173048496246f,-0.03353402391076088f,-0.006645187735557556f,-0.014738555997610092f,0.022884933277964592f,-0.07477458566427231f,-0.07506854087114334f,-0.01999817043542862f,-0.033150821924209595f,-0.027778131887316704f,-0.05020897835493088f,0.008761275559663773f,-0.02294154278934002f,0.023893877863883972f,0.004574551712721586f,-0.039810534566640854f,0.009549406357109547f,-0.05294404551386833f,0.014659642241895199f,0.011445604264736176f,0.052064601331949234f,-0.0075040170922875404f,0.09739640355110168f,0.01437295787036419f,-0.03862858936190605f,0.010059787891805172f,-0.006089001893997192f,-0.02667524293065071f,0.009781939908862114f,-0.022862672805786133f,-0.009442177601158619f,-0.05718458443880081f,-0.030092567205429077f,0.008818334899842739f,0.016610192134976387f,-0.018588023260235786f,-0.008828345686197281f,0.00949712935835123f,-0.013174900785088539f,-0.003911568317562342f,-0.0009548859088681638f,-0.05746641755104065f,-0.011299951002001762f,0.05362481251358986f,-0.05542777106165886f,0.013325134292244911f,0.01901838555932045f,-0.0020673994440585375f,0.011277809739112854f,0.04746483638882637f,-0.034092195332050323f,0.026113038882613182f,0.0798344686627388f,0.0750136524438858f,-0.012723044492304325f,-0.05602604150772095f,0.03403366357088089f,-0.011425412259995937f,0.03630536422133446f,0.01206379383802414f,0.015260104089975357f,-0.012624592520296574f,0.0035188423935323954f,0.008836559019982815f,-0.004423199221491814f,0.007313164882361889f,0.026439331471920013f,0.014810689724981785f,-0.007391265593469143f,-0.04663228616118431f,-0.0011136570246890187f,-0.03430674970149994f,-0.0870462954044342f,0.06876955926418304f,0.010556667111814022f,-0.04660482704639435f,0.03268995136022568f,0.0218932144343853f,-0.07049298286437988f,-0.09205843508243561f,0.05683781951665878f,-0.03149094432592392f,0.0011751498095691204f,-0.026923079043626785f,0.04723380133509636f,-0.06502999365329742f,0.039922818541526794f,0.006585647352039814f,-0.00618449691683054f,-0.04155486077070236f,0.012485465034842491f,-0.01838809996843338f,-0.016154037788510323f,0.047005545347929f,-0.022196311503648758f,-0.013780847191810608f,0.019816823303699493f,0.052491866052150726f,0.026178548112511635f,0.05497380718588829f,0.018219269812107086f,-0.050210755318403244f,0.060951508581638336f,0.0045805564150214195f,0.0405319444835186f,0.003491440322250128f,0.06780482083559036f,0.02361905388534069f,0.06261825561523438f,0.04225720092654228f,-0.022776305675506592f,-0.022828614339232445f,-0.008042452856898308f,-0.0034203818067908287f,-0.005721560679376125f,0.021785655990242958f,-0.05831294134259224f,-0.013385634869337082f,-0.002482630545273423f,-0.014042968861758709f,0.0022295338567346334f,-0.06235866621136665f,0.034505169838666916f,-0.005593049805611372f,0.025578569620847702f,0.04748586565256119f,0.03006722964346409f,-0.024949247017502785f,-0.004453469067811966f,0.0391075536608696f,-0.07747605443000793f,0.00014641076268162578f,-0.015664035454392433f,-0.02445659600198269f,-0.00918797217309475f,-0.02273060940206051f,0.041109055280685425f,-0.07257269322872162f,0.03348615765571594f,-0.0737551674246788f,0.03601328283548355f,-0.04794567450881004f,-0.06342124193906784f,-0.057541463524103165f,0.04131437465548515f,-0.0420851893723011f,-0.003119527595117688f,0.016371099278330803f,-0.028431588783860207f,-0.015120930038392544f,-0.011116583831608295f,-0.007069927174597979f,-0.03975612670183182f,0.005734091158956289f,-0.0009482994792051613f,-0.00893091969192028f,0.043688468635082245f,-0.07322182506322861f,0.03994353115558624f,-0.016573306173086166f,0.01231433916836977f,-0.009226687252521515f,0.059636190533638f,-0.02671729400753975f,-0.06245804578065872f,0.0774993896484375f,-0.09852727502584457f,-0.03267371281981468f,0.04668741673231125f,-0.007531264331191778f,-0.054911188781261444f,-0.020559951663017273f},
{0.005401862319558859f,-0.032379746437072754f,0.09891735762357712f,-0.03674741089344025f,-0.013379577547311783f,-0.025233132764697075f,0.042246587574481964f,-0.06507932394742966f,0.09738615155220032f,-0.037565141916275024f,-0.02038877084851265f,0.021674972027540207f,-0.034533705562353134f,-0.06633839756250381f,0.009081161580979824f,0.012410273775458336f,-0.0198383592069149f,0.01212953869253397f,0.019869115203619003f,-0.0008061006083153188f,-0.003984187263995409f,0.06918550282716751f,-0.002697746967896819f,0.048842351883649826f,0.009931291453540325f,0.007220041006803513f,-0.006976699456572533f,0.014622258022427559f,0.038253579288721085f,-0.004271162673830986f,0.032445695251226425f,0.009617257863283157f,0.004542938899248838f,-0.04680580645799637f,0.009520676918327808f,0.05249011889100075f,-0.0357104055583477f,0.011168037541210651f,0.09341596812009811f,-0.056088145822286606f,0.07999424636363983f,-0.04020490124821663f,0.023149168118834496f,0.02247118577361107f,-0.02237533964216709f,0.03469954803586006f,-0.030075978487730026f,-0.012271847575902939f,0.009523789398372173f,-0.0750536322593689f,0.025683023035526276f,-0.05225595459342003f,-0.030966054648160934f,-0.006823769770562649f,0.019437389448285103f,0.05243586748838425f,-0.052979372441768646f,-0.008649756200611591f,0.04449039697647095f,-0.045550379902124405f,0.012585748918354511f,0.02149328589439392f,0.056543152779340744f,0.06501909345388412f,-0.0041662659496068954f,0.025413934141397476f,-0.051936469972133636f,-0.009129754267632961f,0.03774985671043396f,-0.053074151277542114f,-0.02214730903506279f,0.024698371067643166f,-0.03325534239411354f,0.010553325526416302f,-0.0006519209709949791f,-0.023088768124580383f,0.02483946457505226f,0.008698481135070324f,0.007472814526408911f,-0.0661265030503273f,0.027013404294848442f,-0.08102316409349442f,0.027786005288362503f,-0.027335233986377716f,-0.02251458168029785f,-0.010368124581873417f,0.012465253472328186f,0.022888638079166412f,0.009283958934247494f,-0.04131750762462616f,0.039519302546978f,-0.06602793186903f,0.011359404772520065f,0.017347212880849838f,0.06329638510942459f,-0.031268682330846786f,0.01260212529450655f,-0.029709739610552788f,0.020364336669445038f,-0.0035583176650106907f,-0.003159087849780917f,-0.028108416125178337f,-0.07702547311782837f,-0.039281703531742096f,-0.005957935471087694f,-0.03753633424639702f,-0.007912392728030682f,0.04964985325932503f,-0.006489592604339123f,-0.09219678491353989f,-0.0013560197548940778f,-0.04257162660360336f,-0.040324170142412186f,0.026174699887633324f,0.030287552624940872f,0.01062428392469883f,-0.02616371400654316f,-0.07144100219011307f,-0.0856642872095108f,-0.037864070385694504f,-0.04512743279337883f,0.04427598416805267f,-0.06075727939605713f,0.030489761382341385f,0.002194811124354601f,-0.01314019039273262f,0.036279648542404175f,0.061559922993183136f,0.03218189999461174f,-0.023856643587350845f,0.04479276016354561f,0.09475929290056229f,-0.07998701184988022f,0.07885526865720749f,0.03548840433359146f,0.061889227479696274f,-0.009942321106791496f,-0.055665023624897f,0.022059183567762375f,-0.05115896463394165f,-0.06749607622623444f,-0.008242941461503506f,-0.03366081044077873f,-0.011011204682290554f,0.033426433801651f,0.01535755768418312f,0.08553383499383926f,0.00945239793509245f,-0.056421998888254166f,-0.08749588578939438f,0.013054382055997849f,0.041654717177152634f,-0.011008819565176964f,-0.04564053565263748f,0.019378021359443665f,0.05221543833613396f,0.036816149950027466f,0.0522056482732296f,0.044900134205818176f,-0.004168925806879997f,-0.02223541960120201f,0.014719058759510517f,-0.004628085996955633f,0.03599383309483528f,-0.002610062249004841f,-0.04597841203212738f,0.034048549830913544f,-0.027341196313500404f,0.10368523001670837f,0.021287180483341217f,0.09555003046989441f,0.036423489451408386f,0.0047284518368542194f,0.018526243045926094f,-0.01171685941517353f,0.005110832862555981f,-0.02965645305812359f,0.009833158925175667f,-0.050467055290937424f,-0.007126037962734699f,0.054368648678064346f,-0.08590947836637497f,0.06694919615983963f,-0.13622719049453735f,-0.05611458048224449f,-0.07174915820360184f,0.017357055097818375f,-0.04173200577497482f,0.04245365411043167f,0.08428432792425156f},
{-0.0710400640964508f,0.07008999586105347f,0.03194975107908249f,0.12842898070812225f,0.024128325283527374f,0.06694880872964859f,0.015284040942788124f,-0.014947082847356796f,0.04819709435105324f,0.010254891589283943f,-0.021392224356532097f,0.005063276272267103f,-0.0906575620174408f,-0.03076300211250782f,0.028012217953801155f,0.0017885112902149558f,-0.032778505235910416f,-4.22680786869023e-05f,0.05083202198147774f,-0.04572468250989914f,4.254604937159456e-05f,-0.01799505576491356f,-0.045677244663238525f,-0.01424013264477253f,-0.04544186219573021f,0.010830698534846306f,0.015471013262867928f,0.038413308560848236f,0.02299436740577221f,0.014946768060326576f,-0.03755602240562439f,-0.027944408357143402f,0.059904035180807114f,-0.06199166551232338f,0.04760253429412842f,-0.048568833619356155f,0.018113737925887108f,0.08019042015075684f,0.08214584738016129f,-0.0651097297668457f,0.0716184675693512f,-0.029034044593572617f,0.09484490007162094f,0.05815691873431206f,0.010648336261510849f,0.030137402936816216f,0.004841996356844902f,-0.006332021672278643f,-0.014593173749744892f,-0.03454222530126572f,0.031674377620220184f,-0.008743843995034695f,-0.0247949231415987f,0.0326106883585453f,0.0008404188556596637f,-0.05164255574345589f,-0.05745188891887665f,0.017585666850209236f,0.032836299389600754f,-0.007424481213092804f,-0.11040075123310089f,-0.030319061130285263f,-0.08949536830186844f,-0.062013521790504456f,0.04816203564405441f,0.027150822803378105f,0.010603115893900394f,-0.018510524183511734f,0.07955335080623627f,-0.0539417490363121f,0.04281483218073845f,-0.0658288225531578f,0.004856926389038563f,-0.04875991865992546f,0.048856887966394424f,0.046462640166282654f,-0.018917910754680634f,-0.003325809258967638f,-0.052659839391708374f,-0.03048284910619259f,-0.02721158042550087f,0.0722547098994255f,0.05119844153523445f,0.022330859676003456f,0.030024820938706398f,0.06760721653699875f,0.02251659892499447f,0.005681630223989487f,-0.012394697405397892f,-0.05938713252544403f,0.04057968780398369f,-0.009022437036037445f,-0.0475202351808548f,-0.0638267919421196f,0.0660901889204979f,-0.06812659651041031f,0.011527184396982193f,0.00421789288520813f,-0.013181045651435852f,-0.021269358694553375f,-8.109788177534938e-05f,0.045643579214811325f,0.06125627085566521f,0.0357590988278389f,-0.002040252322331071f,0.01045801118016243f,0.006606896873563528f,0.027608059346675873f,0.024917498230934143f,-0.03476721793413162f,-0.016381604596972466f,0.025645047426223755f,0.020373115316033363f,-0.009128034114837646f,-0.06305225193500519f,0.02970362827181816f,0.03661540150642395f,0.007033067289739847f,0.013712763786315918f,-0.007891839370131493f,0.04029177501797676f,-0.01516062580049038f,0.011741711758077145f,-0.02132069133222103f,-0.02583182416856289f,-0.008200778625905514f,0.01768989861011505f,-0.021781181916594505f,0.021355153992772102f,-0.0705987885594368f,-3.632928564911708e-05f,-0.04113447293639183f,0.0022051604464650154f,0.010329160839319229f,-0.07901313155889511f,-0.0018452461808919907f,-0.022837139666080475f,0.03253357112407684f,0.01391103770583868f,-0.09496168792247772f,0.005254578776657581f,-0.022454282268881798f,0.01520882174372673f,0.032405249774456024f,0.01599893532693386f,0.0021526035852730274f,0.03335915505886078f,0.020075401291251183f,-0.06840933859348297f,-0.03134278580546379f,-0.04147189110517502f,0.0023105365689843893f,-0.012984184548258781f,0.003590398235246539f,0.020869646221399307f,-0.07240846008062363f,-0.03984381631016731f,-0.003943546209484339f,0.04621810093522072f,-0.043786969035863876f,-0.0545651949942112f,0.019796552136540413f,-0.026995034888386726f,-0.006897261831909418f,0.0287623330950737f,0.07366858422756195f,0.0094016557559371f,0.004241255111992359f,0.05976405739784241f,-0.03036423958837986f,-0.04100627079606056f,-0.025825094431638718f,-0.008806793950498104f,0.025351552292704582f,-0.009692544117569923f,-0.027024313807487488f,-0.011537726037204266f,0.10427311807870865f,-0.009860544465482235f,-0.01820058561861515f,0.07131806761026382f,-0.13631083071231842f,0.03584007918834686f,0.04603847488760948f,-0.09388422220945358f,-0.03135184571146965f,-0.00621136324480176f,0.08952857553958893f,-0.060701414942741394f,-0.04388346150517464f},
{-0.009064191952347755f,-0.03303736448287964f,0.09357381612062454f,-0.0021956388372927904f,0.037138670682907104f,0.06760188937187195f,0.05211734026670456f,0.0685579776763916f,0.00044069666182622313f,0.02858545444905758f,-0.00950375571846962f,0.026631783694028854f,-0.027845745906233788f,-0.0036692279390990734f,0.02728067897260189f,0.026890916749835014f,0.014482628554105759f,0.002868616720661521f,0.010155201889574528f,-0.002062138868495822f,-0.002529723569750786f,0.00025504277436994016f,-0.022225264459848404f,-0.01355261355638504f,-0.004352102056145668f,-0.012281348928809166f,-0.01625983789563179f,0.008274069987237453f,0.02482740208506584f,0.02009713277220726f,-0.010309242643415928f,0.050078630447387695f,-0.007655959576368332f,-0.029543031007051468f,0.014192501083016396f,-0.050644949078559875f,-0.00457098288461566f,-0.04005196690559387f,-0.025336315855383873f,0.026432838290929794f,0.01846129819750786f,0.0013708332553505898f,0.021901100873947144f,-0.012288627214729786f,-0.044447071850299835f,-0.0031768723856657743f,-0.007996970787644386f,-0.010509142652153969f,-0.013357236981391907f,0.054925765842199326f,0.0005012918845750391f,0.023900263011455536f,0.03811044991016388f,-0.010832257568836212f,-0.018945207819342613f,-0.028883805498480797f,-0.0019471755949780345f,-0.002293339930474758f,0.02877301722764969f,0.016889095306396484f,-0.014890184625983238f,-0.03566426783800125f,0.002820944879204035f,0.033363379538059235f,0.0046004788018763065f,-0.004356734920293093f,-0.03191685676574707f,0.0531654991209507f,-0.02329864539206028f,0.013859801925718784f,0.05321503430604935f,-0.02350667677819729f,-0.006332452408969402f,-0.016403621062636375f,-0.04831674322485924f,-0.006281478796154261f,0.0034612694289535284f,-0.009724011644721031f,-0.00033204531064257026f,-0.016883485019207f,-0.027599073946475983f,0.03905056416988373f,-0.01145132351666689f,0.017964741215109825f,-0.03765500709414482f,0.021506574004888535f,-0.019485874101519585f,0.002785753458738327f,0.007757255807518959f,0.029484322294592857f,-0.02809222973883152f,-0.0534164123237133f,-0.08500146865844727f,-0.006411181762814522f,-0.0863109678030014f,-0.056170325726270676f,-0.10301470011472702f,-0.03771207854151726f,-0.07010462880134583f,-0.01850052922964096f,-0.008804067969322205f,-0.011838112957775593f,-0.01967892237007618f,0.003223552368581295f,-0.011919727548956871f,-0.010468645952641964f,-0.02654239535331726f,-0.011310665868222713f,-0.007554506883025169f,0.018285445868968964f,-0.00698513351380825f,0.005328557454049587f,-0.0006558086024597287f,0.009404654614627361f,0.01904512383043766f,-0.005275960545986891f,0.03644327446818352f,-0.009954346343874931f,0.011806723661720753f,-0.0008123439620248973f,0.0027499981224536896f,-0.021603139117360115f,0.020107155665755272f,-0.01990712806582451f,-0.01062784157693386f,0.007199668325483799f,-0.00988171249628067f,-0.025996994227170944f,0.023582156747579575f,0.028223950415849686f,0.009814916178584099f,-0.011707083322107792f,-0.016844259575009346f,-0.008246918208897114f,0.01075164694339037f,-0.028109898790717125f,-0.03978050872683525f,0.02392381988465786f,-0.01318706851452589f,-0.06004037708044052f,0.009351775981485844f,0.05172283947467804f,0.0008232019026763737f,-0.023301174864172935f,0.0032364116050302982f,0.00022762098524253815f,0.004066125489771366f,0.005230672657489777f,0.030962754040956497f,-0.00548982061445713f,0.0010871165432035923f,0.011856677941977978f,0.019853835925459862f,-0.0168379545211792f,-0.007901892997324467f,-0.03050072118639946f,-0.0012927056523039937f,-0.05686425417661667f,0.01418300997465849f,0.003788170637562871f,0.006896821781992912f,0.016293514519929886f,0.0030578160658478737f,0.029284803196787834f,0.023597078397870064f,0.03029131330549717f,0.03115304373204708f,0.025257382541894913f,0.04885878041386604f,-0.006970316171646118f,0.006064997985959053f,-0.031169474124908447f,-0.027608048170804977f,-0.025115665048360825f,0.009389135986566544f,-0.03678322955965996f,-0.023812947794795036f,0.0020914648193866014f,0.011521607637405396f,0.017555393278598785f,-0.007538330741226673f,-0.0379365012049675f,-0.014601399190723896f,-0.00629176152870059f,-0.0011093653738498688f,-0.004609233699738979f,-0.00489222165197134f,-0.01713966205716133f,-0.00568599347025156f,0.08774174749851227f},
{-0.03299082815647125f,-0.03605323284864426f,-0.09437673538923264f,-0.04789719730615616f,-0.05936571583151817f,0.0010509456042200327f,0.02088901959359646f,-0.00966739933937788f,0.024608401581645012f,-0.008319688029587269f,0.017985614016652107f,0.034962911158800125f,0.015597201883792877f,-0.024257047101855278f,0.035793837159872055f,-0.04672755300998688f,0.018359381705522537f,-0.03531906008720398f,0.028035374358296394f,-0.01528178807348013f,-0.015115076676011086f,0.01977749727666378f,0.053495846688747406f,0.01140274666249752f,-0.01110968180000782f,0.07849546521902084f,0.013016615994274616f,-0.026375828310847282f,-0.0054682050831615925f,0.0007492454606108367f,-0.02732795849442482f,-0.03439978510141373f,-0.017686614766716957f,-0.03097548335790634f,-0.0005155301187187433f,0.007801651023328304f,-0.09229902923107147f,0.050899289548397064f,0.01668774150311947f,0.025490859523415565f,-0.033625904470682144f,0.0061967093497514725f,-0.034679826349020004f,0.026443516835570335f,-0.0029065979178994894f,0.017822612076997757f,-0.024987008422613144f,-0.09121397137641907f,0.02610078454017639f,-0.04769699648022652f,-0.03697638586163521f,-0.0007091470179148018f,-0.015513256192207336f,0.031174980103969574f,0.009020061232149601f,0.00886154267936945f,0.056290265172719955f,0.03665422275662422f,-0.02512979879975319f,0.0492708757519722f,-0.01819940283894539f,-0.061061933636665344f,0.03178596869111061f,0.03866145759820938f,-0.001799557008780539f,0.033796899020671844f,-0.006937453988939524f,0.007724698632955551f,-0.019957587122917175f,-0.03727351129055023f,-0.019679635763168335f,-0.0068311733193695545f,-0.00015805712610017508f,-0.0029239102732390165f,-0.011839096434414387f,0.0018819059478119016f,0.007128508295863867f,0.02183496206998825f,-0.032305896282196045f,-0.01424032635986805f,-0.0015820113476365805f,0.04593218117952347f,0.009455682709813118f,0.003910095896571875f,-0.01668354868888855f,0.022807151079177856f,-0.018138913437724113f,0.013309016823768616f,0.0374971479177475f,-0.05286793038249016f,0.11355026811361313f,0.12095161527395248f,-0.050396353006362915f,0.024808596819639206f,0.05713590607047081f,0.022909466177225113f,0.005267873872071505f,-0.022740434855222702f,0.0589858740568161f,0.004212014842778444f,0.02626224420964718f,-0.01563798077404499f,0.012691673822700977f,0.09709636867046356f,-0.023560605943202972f,0.029620356857776642f,-0.04957539588212967f,-0.024217568337917328f,0.005311259999871254f,-0.027878159657120705f,0.013573206961154938f,-0.026503752917051315f,-0.02293974533677101f,-0.03459014743566513f,-0.019475074484944344f,-0.005574989598244429f,0.0030343295074999332f,0.029134050011634827f,-0.027094485238194466f,-0.0275347251445055f,-0.019602380692958832f,-0.03442144766449928f,-0.010195694863796234f,0.055191341787576675f,-0.014846459031105042f,-0.02270590327680111f,-0.005026979371905327f,0.010999959893524647f,0.022549251094460487f,-0.04507916048169136f,0.02094915695488453f,-0.011328640393912792f,0.012418949045240879f,0.0009130621328949928f,-0.009773742407560349f,0.0013679050607606769f,0.043926071375608444f,0.017240265384316444f,0.03043030947446823f,-0.040805671364068985f,0.027091776952147484f,0.0049001858569681644f,0.018420524895191193f,0.03470899909734726f,-0.0479714497923851f,-0.006056132726371288f,-0.018923526629805565f,-0.008511597290635109f,-0.04045473784208298f,-0.014123992063105106f,0.002354119438678026f,-0.020847685635089874f,0.023007864132523537f,-0.015621369704604149f,0.014265242964029312f,-0.005308269523084164f,0.039961256086826324f,0.03970229625701904f,0.005314171314239502f,-0.031216997653245926f,-0.02471678890287876f,0.037904802709817886f,-0.00637610349804163f,-0.0217696912586689f,0.0007180714746937156f,-0.03115045465528965f,0.04084909334778786f,-0.06120710447430611f,0.009935890324413776f,-0.013198637403547764f,0.02542146109044552f,-0.009580872021615505f,0.012640843167901039f,0.03294164314866066f,-0.03965286538004875f,-0.03711875528097153f,0.013099895790219307f,0.06791182607412338f,-0.037614043802022934f,0.025932155549526215f,-0.024776993319392204f,0.004838546272367239f,0.03371185436844826f,0.011954736895859241f,-0.043649524450302124f,0.02536669373512268f,-0.007210577372461557f,0.022845163941383362f,-0.04770008847117424f,-0.06388133764266968f},
{0.015292733907699585f,0.014447472989559174f,-0.06590469181537628f,-0.05873246490955353f,-0.006773276254534721f,0.05296345427632332f,-0.01789449155330658f,0.07367218285799026f,-0.06549178808927536f,-0.02466806396842003f,-0.06123589724302292f,-0.0032591293565928936f,0.05575999617576599f,0.004385333973914385f,-0.027643868699669838f,-0.01591254211962223f,-0.017173711210489273f,-0.02635297179222107f,0.044334035366773605f,-0.07841753959655762f,0.03819810599088669f,0.04612046107649803f,-0.04773932322859764f,0.001255188835784793f,0.001074034720659256f,-0.0032783893402665854f,0.02336960844695568f,-0.004420584999024868f,0.00898708961904049f,-0.020057830959558487f,-0.04919356852769852f,-0.0360516682267189f,-0.006684235297143459f,-0.05089300870895386f,0.0010404979111626744f,0.036916233599185944f,0.027546126395463943f,0.029157765209674835f,-0.06821811944246292f,-0.027753978967666626f,-0.021240325644612312f,-0.011849894188344479f,-0.0018399814143776894f,-0.003486656118184328f,-0.07290118932723999f,0.010523771867156029f,0.04070946201682091f,-0.010992122814059258f,-0.015267198905348778f,-0.07991057634353638f,0.0015627543907612562f,0.023291705176234245f,-0.07277385890483856f,0.08404774963855743f,0.0012650976423174143f,0.048242662101984024f,0.012106728740036488f,0.057158298790454865f,0.034327179193496704f,-0.025932367891073227f,0.017959432676434517f,0.019384954124689102f,0.012574343010783195f,-0.02904212474822998f,0.03411373496055603f,0.05210243910551071f,0.028415415436029434f,-0.03672543540596962f,-0.010702157393097878f,-0.01832159236073494f,0.0010914196027442813f,0.05963582172989845f,0.0633089691400528f,0.008158385753631592f,0.04590359702706337f,0.009588136337697506f,0.023024972528219223f,0.05117355287075043f,-0.027203483507037163f,-0.04926159232854843f,-0.020637359470129013f,0.022213201969861984f,0.016115274280309677f,0.0405353344976902f,-0.008341767825186253f,-0.03876922279596329f,-0.027880657464265823f,-0.01259870920330286f,0.05899105966091156f,-0.03214464709162712f,-0.05161111056804657f,0.13617856800556183f,0.03158383443951607f,-0.04798809438943863f,0.030709417536854744f,0.04265177994966507f,-0.0006150152767077088f,-0.0018881147261708975f,0.031197356060147285f,-0.013476312160491943f,-0.007900036871433258f,-0.0109160877764225f,0.013750294223427773f,0.06258955597877502f,0.016501476988196373f,0.04958644136786461f,0.03432539477944374f,-0.04695780575275421f,-0.011584480293095112f,0.007998042739927769f,-0.008229493163526058f,0.0029230990912765265f,0.032852739095687866f,-0.012800391763448715f,-0.026342784985899925f,-0.013971342705190182f,-0.034430067986249924f,-0.026403047144412994f,0.005191583652049303f,-0.025848228484392166f,-0.013299955986440182f,0.022945083677768707f,0.022125639021396637f,0.02065206505358219f,0.005672074854373932f,0.021865176036953926f,0.03985375165939331f,0.021859370172023773f,-0.0014067251468077302f,-0.012674926780164242f,-0.019039679318666458f,0.025500012561678886f,-0.023166168481111526f,0.009123037569224834f,-0.05292822793126106f,-0.07628902792930603f,0.005280408542603254f,-0.07704877853393555f,-0.059787120670080185f,-0.03632910177111626f,-0.03551901504397392f,0.0012069049989804626f,0.06519586592912674f,0.03230232372879982f,0.04353617876768112f,0.08173070102930069f,-0.00839085504412651f,0.018712949007749557f,-0.04338889569044113f,-0.03670231252908707f,0.011873924173414707f,-0.031599923968315125f,0.034262701869010925f,-0.02810339443385601f,-0.015937069430947304f,-0.004413689021021128f,-0.00018804670253302902f,-0.011953368782997131f,0.02456345222890377f,-0.04839746654033661f,0.01627860963344574f,0.021151479333639145f,-0.03389531001448631f,0.04240991175174713f,0.026667961850762367f,0.004473390989005566f,0.034373197704553604f,0.003821905702352524f,0.014872623607516289f,-0.022164275869727135f,-0.026778651401400566f,0.020920448005199432f,0.008145371451973915f,0.022754110395908356f,-0.03525787591934204f,-0.029301490634679794f,-0.031123599037528038f,0.0049356636591255665f,0.07792670279741287f,-0.016193706542253494f,-0.006965388543903828f,0.012149134650826454f,-0.04273772984743118f,-0.09244562685489655f,-0.008532269857823849f,-0.04702107980847359f,0.07625482976436615f,0.0483921654522419f,-0.017004674300551414f,-0.03833147510886192f},
{0.08062511682510376f,0.005757160484790802f,0.03600400313735008f,-0.05066020041704178f,-0.013430888764560223f,0.011655625887215137f,-0.042679622769355774f,0.02076871693134308f,0.06743520498275757f,0.03109392337501049f,0.002832553582265973f,-0.030502647161483765f,0.06528265029191971f,-0.05977729707956314f,0.003269978566095233f,0.04158202186226845f,-0.041694991290569305f,-0.024288488551974297f,0.020625416189432144f,-0.02789996936917305f,0.004783926997333765f,-0.029341014102101326f,0.011235370300710201f,0.014304948970675468f,-0.04201677069067955f,-0.01785019040107727f,-0.0032218489795923233f,-0.02049064263701439f,0.009629427455365658f,0.000566322123631835f,-0.03871940076351166f,0.018924379721283913f,-0.023603005334734917f,-0.013749032281339169f,0.011846826411783695f,0.013323839753866196f,0.010349467396736145f,0.0004678374098148197f,0.00045111359213478863f,-0.00048042097478173673f,0.02274610474705696f,0.00861311424523592f,-0.026685211807489395f,0.021522145718336105f,-0.042301345616579056f,0.010731291025876999f,0.022186508402228355f,0.017780493944883347f,-0.0236128568649292f,-0.05681478977203369f,0.026461249217391014f,0.003623710246756673f,-0.00951874628663063f,0.038518961519002914f,0.029934538528323174f,0.02805371582508087f,-0.004625525791198015f,-0.041165854781866074f,0.002488085301592946f,0.005600725766271353f,-0.022955166175961494f,0.009058940224349499f,0.026720266789197922f,0.012385598383843899f,0.016173819079995155f,0.024688996374607086f,0.007009537424892187f,0.01501388568431139f,-0.006191887427121401f,-0.01920912228524685f,0.01668950915336609f,-0.009305741637945175f,0.014816409908235073f,-0.004768422804772854f,-0.007333750836551189f,0.026535313576459885f,-0.005727948620915413f,0.04642406105995178f,0.01739463396370411f,-0.006804154720157385f,0.043379999697208405f,-0.0031968422699719667f,-0.013098773546516895f,-0.0015852359356358647f,0.023702379316091537f,-0.01597750373184681f,-0.021603617817163467f,0.004745392594486475f,-0.000609205977525562f,0.008196072652935982f,-0.02118665911257267f,0.04466625675559044f,-0.01849636249244213f,-0.03009018301963806f,-0.022323302924633026f,-0.03482865169644356f,0.014314576052129269f,-0.05354272946715355f,0.05121535062789917f,-0.0523311085999012f,0.03883414342999458f,0.026289651170372963f,-0.0933864414691925f,0.06593746691942215f,0.04536159709095955f,-0.03443508595228195f,0.039203956723213196f,0.024889400228857994f,0.07064647972583771f,0.010641999542713165f,0.04219302907586098f,0.03977641463279724f,0.026438815519213676f,-0.01576358638703823f,-0.021722830832004547f,-0.0003439036081545055f,0.056950464844703674f,0.03218787536025047f,-0.0422215573489666f,-0.022548528388142586f,-0.028434189036488533f,-0.012274202890694141f,0.013355744071304798f,-0.056194134056568146f,-0.0024823814164847136f,0.020872699096798897f,0.03153052181005478f,-0.008615957573056221f,0.01019086129963398f,0.031239962205290794f,-0.040020138025283813f,0.0026598735712468624f,0.022099070250988007f,0.02027444913983345f,-0.0439424030482769f,0.024772459641098976f,0.006306870840489864f,-0.011912470683455467f,0.054477039724588394f,-0.07683447003364563f,-0.011650564149022102f,-0.018857648596167564f,-0.03278166800737381f,-0.014672964811325073f,0.030550887808203697f,-0.01238294132053852f,0.00612846203148365f,-0.02309752255678177f,-0.023622430860996246f,-0.03141092136502266f,-0.03762751445174217f,0.013506091199815273f,-0.04442775249481201f,-0.0006403395091183484f,0.027135301381349564f,0.0030346945859491825f,0.05579967796802521f,-0.05092312768101692f,0.006871603894978762f,-0.007182811386883259f,-0.008228377439081669f,0.016043230891227722f,0.015426838770508766f,0.04573589935898781f,-0.006453639827668667f,-0.044161610305309296f,0.019834117963910103f,-0.037032920867204666f,-0.009869907982647419f,-0.006011190824210644f,-0.0009307600557804108f,0.006835012696683407f,0.00348755344748497f,0.010319866240024567f,0.05466026812791824f,-0.02924119494855404f,0.004433572292327881f,-0.023552097380161285f,0.005823290906846523f,-0.0263365488499403f,0.09014015644788742f,-0.0072267730720341206f,-0.007319046650081873f,-0.0047554196789860725f,-0.10558139532804489f,0.013262858614325523f,-0.055672235786914825f,-0.028386246412992477f,-0.03624428063631058f,0.008131524547934532f},
{0.042459066957235336f,-0.10324966907501221f,0.016470784321427345f,-0.05196300521492958f,-0.04061129316687584f,-0.04856928437948227f,-0.0002655564749147743f,-0.0226391963660717f,0.062837153673172f,0.012397264130413532f,-0.01496553048491478f,0.04097091779112816f,-0.0020817823242396116f,-0.014821360819041729f,0.04113039746880531f,0.03503185138106346f,0.028393276035785675f,-0.05592646822333336f,-0.007516004610806704f,0.0025830245576798916f,0.0040994551964104176f,-0.022813351824879646f,-0.0017023679101839662f,-0.005337078589946032f,-0.007654632907360792f,-0.0009437515400350094f,-0.03413238376379013f,0.039300337433815f,0.05691632255911827f,-0.07639530301094055f,0.022925907745957375f,0.0018519851146265864f,0.03498661518096924f,0.012231666594743729f,0.040153618901968f,0.05405791476368904f,-0.0840248167514801f,0.005102026276290417f,-0.06654968112707138f,-0.02909468673169613f,0.01040393766015768f,0.0320163294672966f,-0.04692678898572922f,-0.021445153281092644f,-0.035627640783786774f,0.0045586032792925835f,-0.0451652817428112f,0.016039008274674416f,-0.001012708991765976f,-0.060068439692258835f,-0.027603445574641228f,-0.07990855723619461f,-0.01796228438615799f,-0.025936780497431755f,0.01348035503178835f,0.03443615138530731f,-0.012243818491697311f,0.03102893754839897f,-0.005686204880475998f,-0.015408193692564964f,0.043952979147434235f,0.0005845010746270418f,-0.010746735148131847f,-0.032240938395261765f,0.011026729829609394f,0.008707569912075996f,0.002749228850007057f,0.024554884061217308f,0.07860787212848663f,-0.04185616225004196f,-0.03271538391709328f,0.027415374293923378f,0.018701108172535896f,-0.02649746648967266f,-0.02444649673998356f,0.027584735304117203f,-0.0255733672529459f,0.057982757687568665f,0.015633735805749893f,-4.3305655708536506e-05f,0.03835250809788704f,0.0120645547285676f,-0.03347845375537872f,0.0225693229585886f,0.00932161696255207f,0.027673380449414253f,-0.003060193033888936f,0.030022690072655678f,-0.014264562167227268f,-0.005346663761883974f,-0.06056082621216774f,0.049369510263204575f,-0.025249626487493515f,0.016863495111465454f,0.13576753437519073f,0.15050633251667023f,0.012146016582846642f,-0.018875379115343094f,0.024227598682045937f,-0.06938863545656204f,0.0126084228977561f,0.03520892933011055f,-0.06570654362440109f,0.01284781564027071f,0.027444645762443542f,-0.023887358605861664f,-0.007959075272083282f,-0.0011733915889635682f,-0.06898429244756699f,-0.029875561594963074f,-0.01028783991932869f,-0.017151858657598495f,-0.033030811697244644f,-0.02653995342552662f,-0.004246426746249199f,-0.0207062978297472f,0.049768682569265366f,0.0031243087723851204f,-0.00044340721797198057f,-0.05265764892101288f,-0.04170175641775131f,0.05014542490243912f,0.007270895875990391f,-0.016675999388098717f,0.022972876206040382f,-0.05898051708936691f,0.05269017443060875f,0.04668072611093521f,0.02305300533771515f,0.013647402636706829f,-0.003114981111139059f,-0.023013409227132797f,0.051800549030303955f,0.01853446289896965f,0.03844333440065384f,-0.03712131083011627f,-0.0028698157984763384f,0.07936741411685944f,-0.0339619517326355f,-0.029191939160227776f,0.029793862253427505f,0.03403380140662193f,-0.03485729172825813f,0.016656508669257164f,0.02543170191347599f,-0.004794859793037176f,-0.0024456209503114223f,-0.01297802198678255f,0.02987455576658249f,-0.03601834177970886f,0.03708266466856003f,0.04246584326028824f,0.011239134706556797f,0.03181474655866623f,-0.00859923381358385f,0.007535951677709818f,0.0007997873472049832f,0.02905113436281681f,0.009275708347558975f,-0.036152008920907974f,-0.014400930143892765f,-0.03381875157356262f,-0.009050916880369186f,-0.0004612101474776864f,0.029749751091003418f,-0.04550778493285179f,-0.001856207731179893f,0.0011253461707383394f,0.0036428405437618494f,-0.016128527000546455f,0.02263512648642063f,0.003919876646250486f,-0.01607012189924717f,0.001980315428227186f,-0.010818874463438988f,0.024087585508823395f,0.008850284852087498f,-0.014932941645383835f,0.003198382444679737f,-0.03910467401146889f,0.04486742988228798f,0.010206439532339573f,0.04711712896823883f,-0.007588141597807407f,-0.06386139988899231f,-0.030746376141905785f,0.03620889037847519f,-0.08837888389825821f,-0.028935758396983147f,-0.008126351982355118f},
{-0.052157655358314514f,-0.08758623898029327f,-0.07890798896551132f,0.0159743782132864f,0.029973778873682022f,0.007451223209500313f,-0.034862056374549866f,-0.0016027871752157807f,0.05940019711852074f,-0.04440100118517876f,0.05348804220557213f,0.012409708462655544f,-0.021701520308852196f,0.007958739064633846f,0.0040837423875927925f,-0.051668476313352585f,0.01047699898481369f,0.02508614771068096f,-0.018420778214931488f,0.009644648060202599f,-0.0050557381473481655f,0.018047863617539406f,-0.0633118525147438f,0.022245259955525398f,-0.059442564845085144f,0.003544582286849618f,-0.049048807471990585f,0.03352827951312065f,0.016568100079894066f,-0.04110274091362953f,-0.0006055810954421759f,-0.008668340742588043f,-0.022253157570958138f,-0.016381172463297844f,-0.008681093342602253f,-0.05747043713927269f,0.020460084080696106f,0.007929252460598946f,-0.01921321637928486f,-0.01636146940290928f,-0.040601424872875214f,-0.0443732924759388f,0.004298705141991377f,0.00707325991243124f,-0.00021308362192939967f,0.002638286678120494f,-0.02904476411640644f,-0.02786175347864628f,-0.08422652631998062f,-0.03898875042796135f,0.01504505518823862f,-0.0062553416937589645f,-0.05695708468556404f,0.016941897571086884f,0.006872526835650206f,0.028467632830142975f,0.01973826438188553f,0.025443382561206818f,-0.018859311938285828f,0.0010681434068828821f,0.020014328882098198f,-0.007835297845304012f,-0.030246516689658165f,-0.027443330734968185f,0.03683334216475487f,0.036257632076740265f,0.010258877649903297f,0.01354017574340105f,0.03681505471467972f,0.0072435797192156315f,0.005556510761380196f,-0.01584453135728836f,0.001856304588727653f,-0.015163001604378223f,0.0113958939909935f,0.009164811111986637f,0.01813497208058834f,0.026114581152796745f,0.007631632965058088f,-0.012928485870361328f,0.02207164093852043f,0.017293613404035568f,0.020837733522057533f,-0.022756990045309067f,0.004353129304945469f,-0.011841925792396069f,-0.007181099615991116f,0.0016461089253425598f,0.03876780718564987f,-0.05648162588477135f,0.09854718297719955f,0.09018348157405853f,0.1411021202802658f,0.060741085559129715f,0.05168658122420311f,0.030438683927059174f,-0.039085160940885544f,-0.016356706619262695f,0.005848381668329239f,0.022902121767401695f,-0.04594763368368149f,-0.0024805902503430843f,0.029634865000844002f,0.013287474401295185f,-0.043430257588624954f,0.04327364265918732f,0.0020803578663617373f,0.005800833459943533f,-0.009972365573048592f,-0.01877380535006523f,-0.02195294387638569f,-0.02910415269434452f,0.032618340104818344f,-0.00788866262882948f,-0.03351490572094917f,0.03604913502931595f,-0.007896319963037968f,-0.07189729064702988f,0.00975391548126936f,0.01260945200920105f,0.01668565720319748f,0.07691232860088348f,0.06775122135877609f,-0.011462478898465633f,0.004925009794533253f,0.021139681339263916f,-0.018525438383221626f,-0.06079065427184105f,0.018863001838326454f,0.005530675873160362f,0.03233455494046211f,-0.017158957198262215f,-0.012958572246134281f,0.041447434574365616f,-0.05757749825716019f,0.05250202864408493f,-0.008465807884931564f,-0.011899770237505436f,-0.03679551184177399f,-0.036833375692367554f,-0.046075910329818726f,-0.009244298562407494f,-0.04251069575548172f,-0.006412775721400976f,0.0025120831560343504f,0.01344030350446701f,-0.01685403659939766f,0.023209339007735252f,-0.0019777300767600536f,-0.018549080938100815f,-0.00021792855113744736f,0.0005752411670982838f,-0.046338342130184174f,0.007555097807198763f,-0.003452691249549389f,-0.07130809873342514f,-0.02749517932534218f,0.004166517872363329f,0.038685549050569534f,-0.0353105328977108f,0.03467385843396187f,0.0031183583196252584f,-0.028079798445105553f,-0.03477790951728821f,-0.008701923303306103f,-0.030519550666213036f,0.0010174716589972377f,0.011473149992525578f,-0.007839946076273918f,-0.022573696449398994f,0.001182866981253028f,-0.01739487424492836f,-0.030736707150936127f,0.0019946761894971132f,0.025375092402100563f,-0.022735195234417915f,0.048179253935813904f,-0.027667250484228134f,-0.015326077118515968f,-0.002699997741729021f,-0.0011584670282900333f,-0.010366098023951054f,-0.08712298423051834f,-0.02408691681921482f,0.045770853757858276f,0.02146286517381668f,0.021030325442552567f,0.035708293318748474f,0.014868189580738544f,-0.09192347526550293f},
{-0.10371286422014236f,-0.010996267199516296f,-0.059489957988262177f,0.12274982035160065f,0.15901616215705872f,0.04102446138858795f,-0.022566581144928932f,-0.059929363429546356f,0.024113599210977554f,-0.041581351310014725f,-0.012356053106486797f,0.0058351424522697926f,-0.0529780387878418f,0.025376586243510246f,-0.0302474033087492f,-0.033633988350629807f,0.00036244039074517787f,0.019913915544748306f,-0.004074043594300747f,-0.003180685918778181f,-0.01973314955830574f,-0.0006007800111547112f,-0.05397481471300125f,-0.02001100219786167f,-0.00522072147578001f,0.021218860521912575f,-0.02695503830909729f,0.003672268707305193f,0.004677644930779934f,-0.03277162089943886f,-0.021592946723103523f,-0.052997589111328125f,-0.03314574062824249f,-0.013171341270208359f,0.057922035455703735f,-0.060318123549222946f,0.05764983221888542f,0.0039505138993263245f,0.02619124948978424f,-0.015888629481196404f,0.055100131779909134f,0.016567271202802658f,0.07285169512033463f,0.031700845807790756f,0.004343457520008087f,0.007376966066658497f,0.043768953531980515f,0.019832288846373558f,0.03699944540858269f,-0.052226487547159195f,0.037210334092378616f,0.025136828422546387f,0.044123370200395584f,0.017596645280718803f,0.06213276833295822f,0.04822034016251564f,-0.006076938938349485f,0.012859683483839035f,0.06558962166309357f,-0.014595350250601768f,0.06792440265417099f,0.04104434698820114f,0.029733426868915558f,-0.006658008322119713f,0.008969218470156193f,-0.054097604006528854f,-0.033910494297742844f,-0.027036860585212708f,-0.030197516083717346f,-0.04549229517579079f,-0.082972452044487f,-0.019197780638933182f,-0.02741922251880169f,0.014566253870725632f,-0.039487846195697784f,0.0015805632574483752f,-0.05190479755401611f,-0.036698322743177414f,-0.002018930856138468f,-0.042552996426820755f,-0.013192628510296345f,0.025988100096583366f,0.02363760396838188f,-0.027890730649232864f,-0.01758161373436451f,-0.03599361330270767f,-0.034252606332302094f,-0.008509382605552673f,0.018191490322351456f,-0.03606605529785156f,0.07418907433748245f,-0.01430580299347639f,0.059735894203186035f,-0.12641534209251404f,-0.12335427105426788f,-0.12465794384479523f,0.02563675493001938f,0.012334435246884823f,0.06422920525074005f,-0.023800484836101532f,0.01869083382189274f,0.02577991597354412f,0.021962177008390427f,0.030436920002102852f,-0.002057391218841076f,-0.01450218353420496f,0.0028240978717803955f,0.0228794626891613f,0.03554824739694595f,-0.008340473286807537f,-0.03429456055164337f,0.05730750784277916f,0.02126944251358509f,0.03848332539200783f,-0.0032684877514839172f,0.01632336899638176f,-0.011393849737942219f,-0.016604337841272354f,-0.02667306177318096f,-0.03136545419692993f,0.04597197473049164f,0.041677769273519516f,0.05993572622537613f,0.03321479633450508f,-0.0024984441697597504f,0.037092968821525574f,-0.06736168265342712f,-0.04179373010993004f,-0.05855417251586914f,-0.05683192238211632f,-0.04732663184404373f,-0.0017527641030028462f,-0.07590163499116898f,-0.06735830008983612f,-0.08495648205280304f,-0.034443676471710205f,-0.02304430864751339f,-0.08858799934387207f,-0.021419305354356766f,-0.058729175478219986f,-0.05671367049217224f,-0.05221584439277649f,-0.015976542606949806f,-0.00657974136993289f,-0.020936351269483566f,0.012000318616628647f,-0.04107696935534477f,0.019248738884925842f,-0.06522437930107117f,-0.0008888840093277395f,-0.05318231135606766f,-0.04620819911360741f,-0.02158190682530403f,-0.016684962436556816f,0.0005324503290466964f,-5.3034349548397586e-05f,0.0622866190969944f,0.001088723074644804f,0.0915127694606781f,-0.02784452587366104f,0.02747989259660244f,0.008175211027264595f,0.013271440751850605f,0.02623121626675129f,0.0404079332947731f,0.0018548480002209544f,-0.003237179946154356f,0.07924556732177734f,0.02271561324596405f,-0.06320848315954208f,-0.03339008241891861f,0.005672771483659744f,0.05985414236783981f,0.03906845673918724f,0.05640985071659088f,0.02143857814371586f,0.0384167917072773f,0.01391642540693283f,-0.012545477598905563f,0.010792475193738937f,-0.06655257940292358f,-0.0646161437034607f,-0.05393292382359505f,0.09528487175703049f,0.08846728503704071f,0.0685727521777153f,-0.03054332546889782f,-0.04362933337688446f,-0.08759849518537521f,-0.016401322558522224f},
{0.006902288179844618f,-0.029551047831773758f,-0.04825815185904503f,-0.034652791917324066f,-0.08300082385540009f,-0.03228641301393509f,-0.05837821215391159f,0.013928384520113468f,-0.08401642739772797f,-0.016877345740795135f,0.0037185654509812593f,-0.0013722021831199527f,-0.0175284706056118f,0.014586483128368855f,-0.015443061478435993f,0.014953776262700558f,0.007498513907194138f,0.011611551977694035f,-0.016729088500142097f,0.009882261976599693f,-0.00823045615106821f,0.01659625768661499f,0.0032482100650668144f,-0.02673405408859253f,-0.022419914603233337f,-0.011612975969910622f,0.001025462057441473f,-0.008711821399629116f,0.015948351472616196f,-0.007876493968069553f,-0.0008822100353427231f,0.009843748062849045f,-0.0016115459147840738f,0.003810308175161481f,0.007749903481453657f,0.002365801017731428f,-0.011655567213892937f,0.03318340703845024f,0.003985246177762747f,0.004036744590848684f,0.019475912675261497f,0.031498122960329056f,0.0041420371271669865f,0.0027396727818995714f,0.01250338926911354f,0.1325169950723648f,0.0029755849391222f,-0.015106497332453728f,0.05440051853656769f,0.0037801817525178194f,-0.04818364605307579f,-0.041398074477910995f,-0.1868087351322174f,-0.08993801474571228f,0.01512796338647604f,0.0022270602639764547f,0.005168004892766476f,0.003326725447550416f,-0.006012271158397198f,0.022621214389801025f,0.0155794033780694f,0.0038634445518255234f,0.030146239325404167f,-0.030023671686649323f,-0.03871496021747589f,0.04052076116204262f,-0.027209963649511337f,0.033576712012290955f,-0.0038788551464676857f,-0.0201602540910244f,-0.06623347848653793f,0.03134596347808838f,-0.008960305713117123f,0.036686137318611145f,-0.031892694532871246f,0.0191245898604393f,0.0369228757917881f,0.016514364629983902f,0.008426678366959095f,-0.007153427693992853f,0.022494586184620857f,-0.013815474696457386f,-0.0016013269778341055f,-0.026998376473784447f,0.0073165190406143665f,0.020553719252347946f,0.00888850912451744f,-0.009648565202951431f,-0.015515106730163097f,0.009825155138969421f,-0.04852573573589325f,-0.011039617471396923f,0.03744378685951233f,0.023969141766428947f,0.04531504213809967f,0.07179361581802368f,0.02290705032646656f,0.06944762915372849f,0.06034524366259575f,-0.004539778921753168f,-0.005766280926764011f,0.013462389819324017f,0.011497972533106804f,0.03146548941731453f,-0.007412367034703493f,0.009396804496645927f,-0.03153372183442116f,0.005414933897554874f,0.009982350282371044f,0.010882585309445858f,0.013243058696389198f,0.005623485893011093f,-0.006481938995420933f,-0.01433296874165535f,-0.03768005967140198f,-0.00665289955213666f,-0.006546481512486935f,-0.0075111836194992065f,0.00749316206201911f,0.016693931072950363f,0.02031024917960167f,0.03764474764466286f,-0.012432451359927654f,0.01115335337817669f,-0.020478107035160065f,0.0007046796381473541f,0.012017503380775452f,0.002990324515849352f,0.011964303441345692f,0.006740584969520569f,-0.007902204990386963f,-0.03504465892910957f,-0.009051854722201824f,-0.02019897848367691f,-0.007511042058467865f,-0.0857594683766365f,-0.05482840538024902f,-0.02518923208117485f,-0.10083809494972229f,-0.12273096293210983f,0.0592610202729702f,0.07159676402807236f,0.07685258239507675f,0.08395295590162277f,0.004544002003967762f,-0.009726573713123798f,-0.012639489956200123f,0.01701502688229084f,0.002017020480707288f,-0.004839780740439892f,-0.010510695166885853f,0.00515317264944315f,-0.04320706054568291f,0.01888635940849781f,-0.0004128125438001007f,0.005976181942969561f,0.01131672877818346f,0.0491865910589695f,-0.015415912494063377f,-0.02427504025399685f,-0.000782921037171036f,-0.032996006309986115f,0.0023463645484298468f,0.019394701346755028f,0.01110840868204832f,-0.020852595567703247f,-0.010835183784365654f,-0.03774118795990944f,0.01707412116229534f,-0.017179246991872787f,-0.008028261363506317f,0.01049633976072073f,-0.007341627962887287f,0.00379234179854393f,-0.0030622209887951612f,0.013450841419398785f,-0.004968499299138784f,0.01216156780719757f,0.007489425130188465f,-0.00784182921051979f,0.003098242450505495f,-0.02712077647447586f,-0.02188495732843876f,-0.012066391296684742f,-0.06758920848369598f,-0.009938124567270279f,0.016088638454675674f,0.00983083713799715f,-0.010649814270436764f,0.001281962264329195f},
{-0.07313256710767746f,0.03582864999771118f,0.07488542050123215f,-0.028370659798383713f,-0.005374378990381956f,-0.019356105476617813f,-0.041467562317848206f,0.08683621883392334f,0.07112569361925125f,0.009661504067480564f,-0.03019140474498272f,-0.04660746827721596f,0.050488486886024475f,-0.055228035897016525f,0.0011089163599535823f,0.01868753507733345f,0.005343417637050152f,0.07742799073457718f,0.060504041612148285f,0.018437104299664497f,0.029083194211125374f,0.01175372302532196f,0.032946813851594925f,-0.05919218808412552f,-0.028280852362513542f,-0.028315333649516106f,0.0023241338785737753f,0.00817619264125824f,-0.01733752153813839f,0.0016139558283612132f,-0.040316931903362274f,-0.024912429973483086f,0.006159848999232054f,0.002902509644627571f,0.02424241229891777f,0.06360747665166855f,-0.07166658341884613f,0.016657423228025436f,-0.014327583834528923f,-0.0011999093694612384f,0.013431139290332794f,0.025618279352784157f,0.0019310381030663848f,0.01372560765594244f,0.043192844837903976f,-0.05843944847583771f,-0.02088036760687828f,-0.018346751108765602f,0.03629743680357933f,-0.044020842760801315f,-0.010764569975435734f,0.046816032379865646f,0.044183894991874695f,0.03214941546320915f,0.010587774217128754f,0.005129704251885414f,0.011308608576655388f,-0.01063085813075304f,-0.0056764488108456135f,-0.0182700976729393f,-0.040354520082473755f,0.0175149068236351f,-0.025365233421325684f,-0.022005176171660423f,-0.045097824186086655f,0.03143701329827309f,0.03620261698961258f,-0.03098113089799881f,0.010609513148665428f,-0.03657729551196098f,0.020068194717168808f,0.04287560284137726f,0.04469199478626251f,-0.017287343740463257f,-0.009661512449383736f,0.03344368934631348f,0.010764384642243385f,-0.047663360834121704f,0.033866025507450104f,-0.018035585060715675f,0.03353052958846092f,0.025956474244594574f,0.07495047152042389f,0.015401849523186684f,-0.06122567132115364f,-0.004788001533597708f,-0.006845388561487198f,-0.01123197004199028f,0.0300024151802063f,-0.03739588335156441f,0.027837906032800674f,-0.04852956533432007f,0.00828754436224699f,0.02153041400015354f,-0.06278585642576218f,-0.007770274765789509f,-0.07921543717384338f,-0.03308907151222229f,-0.03866708278656006f,-0.04932825267314911f,0.042646218091249466f,0.025587474927306175f,-0.0013867700472474098f,-0.02496662177145481f,-0.02367638796567917f,0.00787268951535225f,0.007372844964265823f,-0.029265280812978745f,-0.010540151968598366f,-0.008951352909207344f,-0.025255052372813225f,-0.03232012316584587f,0.03254996985197067f,0.006225364748388529f,-0.07346786558628082f,0.017376285046339035f,0.011322171427309513f,0.06690317392349243f,0.01950824074447155f,-0.00836650189012289f,-0.031197506934404373f,0.04267794266343117f,-0.017767900601029396f,0.009111293591558933f,0.042734984308481216f,-0.06901632249355316f,0.019067605957388878f,0.019055692479014397f,0.023880165070295334f,-0.018334459513425827f,0.08244544267654419f,0.040545787662267685f,-0.0020431596785783768f,0.04617973789572716f,0.057837944477796555f,-0.020121905952692032f,0.04167943447828293f,0.003812461392953992f,-0.0001335631386609748f,-0.06647831946611404f,-0.01964147761464119f,-0.06093209236860275f,-0.003424871014431119f,0.017024017870426178f,0.009156129322946072f,0.01648898236453533f,-0.029662776738405228f,0.027716172859072685f,-0.030154693871736526f,0.007442902773618698f,0.006899177562445402f,0.02468889392912388f,-0.04651777818799019f,-0.01799430139362812f,0.012724909000098705f,0.045289937406778336f,-0.030126001685857773f,-0.01575631834566593f,-0.06873802840709686f,-0.016759302467107773f,0.005777309648692608f,-0.0165771022439003f,0.023014292120933533f,0.010819545947015285f,-0.006687597371637821f,0.045563433319330215f,-0.0016920131165534258f,-0.019726214930415154f,-0.002654422540217638f,-0.013981468975543976f,0.019504236057400703f,0.038217172026634216f,0.03518883138895035f,-0.042716577649116516f,-0.012646990828216076f,0.04897255077958107f,0.027365416288375854f,0.051633067429065704f,0.008172563277184963f,-0.07782834023237228f,0.0030918894335627556f,0.06751243770122528f,-0.06862891465425491f,-0.03378984332084656f,-0.0033886218443512917f,-0.03147432953119278f,-0.027472808957099915f,-0.032377660274505615f,-0.07757053524255753f,0.09319665282964706f},
{-0.08971820771694183f,-0.02462727017700672f,-0.029556935653090477f,-0.031219782307744026f,0.0430637001991272f,-0.018603703007102013f,0.001008266699500382f,-0.09295222163200378f,0.10872818529605865f,-0.030183635652065277f,-0.013641913421452045f,0.006752598099410534f,0.0068907421082258224f,-0.002085065469145775f,0.006456555798649788f,0.0033936339896172285f,-0.054668307304382324f,0.010565493255853653f,-0.02715286612510681f,-0.030248083174228668f,0.043107666075229645f,0.021895386278629303f,-0.04209766909480095f,0.02262594737112522f,-0.014783735387027264f,0.08040881901979446f,0.03350432962179184f,0.0613565668463707f,0.0005184025503695011f,-0.0059944759123027325f,0.0002947392058558762f,-0.122763492166996f,0.013340532779693604f,-0.050005536526441574f,0.03489438816905022f,-0.054062217473983765f,0.04277285933494568f,-0.01876061037182808f,-0.04843984916806221f,0.01030256412923336f,0.0071868314407765865f,-0.036705709993839264f,0.005858046002686024f,0.004913789220154285f,-0.02668585442006588f,-0.00255790539085865f,0.02655227854847908f,-0.04656244069337845f,-0.006766742095351219f,-0.08652068674564362f,-0.02494240738451481f,-0.018950602039694786f,-0.026819946244359016f,0.022026503458619118f,-0.01470890361815691f,-0.02420627325773239f,-0.01510778721421957f,0.02846791036427021f,-0.014156362041831017f,-0.008735389448702335f,0.006756470538675785f,-0.06928517669439316f,0.004214851651340723f,-0.05254366248846054f,0.01723349094390869f,-0.10444111377000809f,-0.0020632355008274317f,0.019505944103002548f,0.05997191369533539f,-0.036899738013744354f,0.016551217064261436f,-0.07117658108472824f,0.03751692548394203f,-0.028320901095867157f,-0.031124232336878777f,0.022693917155265808f,-0.021093452349305153f,0.030620967969298363f,0.003391765058040619f,-0.05148760974407196f,0.04223605990409851f,0.005768641363829374f,0.09917454421520233f,0.06348662078380585f,-0.006612833589315414f,0.07744055241346359f,-0.01531473733484745f,0.030462130904197693f,0.04519715532660484f,-0.031914547085762024f,0.13122320175170898f,0.08007729053497314f,0.06419671326875687f,-0.06695549190044403f,0.023184817284345627f,-0.010822013951838017f,0.08378227055072784f,0.03392098844051361f,0.015819573774933815f,-0.04383526369929314f,0.08023031800985336f,-0.058803897351026535f,-0.03389870002865791f,0.043933093547821045f,-0.03205467760562897f,-0.048679620027542114f,0.061442453414201736f,0.04374389350414276f,0.005650767125189304f,-0.03776032105088234f,-0.037485212087631226f,0.030962662771344185f,0.029872212558984756f,-0.046923138201236725f,-0.022848811000585556f,-0.04285193979740143f,0.02006993629038334f,0.001998893218114972f,-0.0416266992688179f,-0.06636350601911545f,-0.0056350091472268105f,-0.0025983902160078287f,0.008651047945022583f,-0.03451389819383621f,-0.02948233112692833f,0.06437009572982788f,0.016462769359350204f,0.01541073713451624f,0.03992156684398651f,-0.019456466659903526f,-0.010292350314557552f,-0.006204311735928059f,-0.008701426908373833f,-0.02177526243031025f,0.06246978044509888f,0.02391798235476017f,-0.050956841558218f,-0.004723736550658941f,0.004972589202225208f,-0.0248922947794199f,0.007166525814682245f,-0.030757775530219078f,-0.023600760847330093f,0.03980477526783943f,-0.021445756778120995f,0.030005747452378273f,0.06021988019347191f,0.006356993690133095f,0.03295223414897919f,-0.019648602232336998f,0.0003830683708656579f,0.031982991844415665f,0.005069948732852936f,-0.012774991802871227f,-0.05252740532159805f,0.021961292251944542f,-0.023578887805342674f,-0.02454439178109169f,-0.03544805943965912f,-0.03840435668826103f,0.04500753432512283f,0.06489764899015427f,0.027463281527161598f,0.020152024924755096f,0.0787862166762352f,-0.008400201797485352f,0.005733058787882328f,-0.014078797772526741f,0.00706169568002224f,-0.025775140151381493f,0.012683862820267677f,-0.0015841075219213963f,-0.03373752161860466f,-0.10197354108095169f,-0.057699162513017654f,-0.024925075471401215f,-0.03754289075732231f,-0.005684140138328075f,-0.017521873116493225f,-0.04689307510852814f,-0.08533897995948792f,0.07133472710847855f,-0.07076141983270645f,-0.035220686346292496f,0.007164965849369764f,-0.07547315955162048f,-0.01810363307595253f,0.03025127574801445f,0.04469989240169525f,0.020036092028021812f},
{0.03293817490339279f,0.07422729581594467f,0.022386712953448296f,-0.011653406545519829f,0.010078330524265766f,0.06765265762805939f,-0.04499705135822296f,0.003044500946998596f,0.014854101464152336f,-0.022548984736204147f,-0.05687394738197327f,-0.004567258059978485f,0.04538657143712044f,0.04648570716381073f,-0.006949759554117918f,0.06584149599075317f,0.03553883731365204f,0.06967929005622864f,0.002020177198573947f,-0.008549799211323261f,0.03535446897149086f,0.02307896874845028f,-0.0529610775411129f,-0.02295345813035965f,-0.0029416189063340425f,0.014642932452261448f,-0.007732738740742207f,0.0115074273198843f,0.05094059929251671f,-0.008614953607320786f,-0.044656626880168915f,0.011417265050113201f,0.03990202769637108f,-0.017715662717819214f,-0.06022796779870987f,0.016789909452199936f,0.03272056579589844f,-0.06179692596197128f,-0.06222446635365486f,-0.020333653315901756f,0.057920191437006f,0.01118670403957367f,0.037300024181604385f,-0.021265797317028046f,-0.001532278605736792f,-0.0193319134414196f,-0.012273977510631084f,0.0782332792878151f,0.00912265945225954f,-0.05417404696345329f,-0.005300766322761774f,-0.04390802979469299f,-0.008455175906419754f,-0.03761227801442146f,0.09342025965452194f,-0.029090555384755135f,0.02685217559337616f,0.004847678821533918f,-0.04716399312019348f,-0.05160875618457794f,0.037088144570589066f,-0.02367057465016842f,0.003973679151386023f,-0.02196764387190342f,0.0398215651512146f,-0.02185145951807499f,0.02541818842291832f,-0.01606772281229496f,-0.0053954338654875755f,-0.027519505470991135f,-0.006161220837384462f,-0.04005620628595352f,-0.02854117751121521f,0.05719214305281639f,-0.017068568617105484f,0.033220596611499786f,0.04299996420741081f,-0.0012056584237143397f,-0.03270552307367325f,-0.02211260236799717f,-0.02578086219727993f,0.005427646916359663f,-0.05756807327270508f,-0.035970814526081085f,-0.024982664734125137f,0.00038179950206540525f,0.0003454750112723559f,-0.02229173853993416f,-0.0037789056077599525f,-0.005789887625724077f,0.032437413930892944f,-0.0011022825492545962f,0.0055984859354794025f,-0.0972389504313469f,-0.017825299873948097f,-0.02741510234773159f,0.05887779965996742f,0.08385177701711655f,-0.05928128585219383f,-0.003748160321265459f,0.03662582114338875f,0.038809262216091156f,-0.02828475646674633f,-0.018810277804732323f,-0.036185987293720245f,-0.05697411298751831f,-0.05142172798514366f,-0.0257984921336174f,0.03350374847650528f,-0.008562569506466389f,0.011944668367505074f,0.004861508961766958f,0.0043565635569393635f,0.06817258894443512f,0.03740469366312027f,0.011717426590621471f,-0.013967412523925304f,0.019105002284049988f,0.040654104202985764f,-0.036096565425395966f,0.019782263785600662f,-0.03517315164208412f,-0.0034406916238367558f,-0.04454946890473366f,-0.024084724485874176f,-0.013371559791266918f,0.07337745279073715f,-0.04319532588124275f,0.03648075833916664f,-0.02916032075881958f,-0.03883090987801552f,-0.00565290218219161f,-0.00996328517794609f,0.004935094621032476f,0.030033104121685028f,-0.030024029314517975f,0.011266540735960007f,-0.012634973041713238f,0.019936159253120422f,-0.0560026541352272f,0.014289988204836845f,-0.013919456861913204f,-0.007182281464338303f,-0.015578463673591614f,0.05095165595412254f,0.010648868978023529f,-0.025575844570994377f,0.022708488628268242f,0.026840584352612495f,-0.06748579442501068f,-0.02649107575416565f,0.07401008903980255f,-0.06652972102165222f,0.04316835105419159f,-0.012410630472004414f,-0.026086490601301193f,0.018179725855588913f,0.040811676532030106f,0.07170069962739944f,-0.02680070884525776f,0.005738132633268833f,-0.027632921934127808f,0.022722452878952026f,0.011720899492502213f,0.02090342901647091f,-0.015833919867873192f,-0.012317407876253128f,-0.006228649988770485f,-0.006298996042460203f,-0.040193069726228714f,0.010201606899499893f,0.05280284956097603f,-0.04900616407394409f,0.05547709763050079f,-0.003745375433936715f,-0.036659784615039825f,-0.061757639050483704f,-0.03156549111008644f,-0.028517987579107285f,-0.04585760831832886f,0.013111927546560764f,0.039767224341630936f,0.07678493112325668f,0.059161730110645294f,-0.12161906063556671f,-0.05480867251753807f,-0.059661056846380234f,0.0031852168031036854f,0.018102630972862244f,-0.08426153659820557f},
{0.0023761913180351257f,0.10934044420719147f,-0.03414453566074371f,-0.015231520868837833f,-0.01085798628628254f,-0.024562466889619827f,-0.015766270458698273f,0.020026929676532745f,0.005558566190302372f,-0.00718050729483366f,-0.013091616332530975f,-0.022249657660722733f,-0.026986628770828247f,0.010520625859498978f,0.002994546899572015f,0.0007038851617835462f,-0.02362733893096447f,-0.01735987514257431f,0.04204755276441574f,-0.01654987595975399f,0.06157747283577919f,0.03966458514332771f,0.033463992178440094f,0.03360368683934212f,-0.009812272153794765f,0.044961828738451004f,0.03243725001811981f,-0.04138607904314995f,-0.04406975582242012f,-0.03705532103776932f,-0.0007516379118897021f,-0.027201920747756958f,-0.0608273483812809f,0.01601102203130722f,0.008204047568142414f,-0.05919598788022995f,-0.006355603691190481f,-0.005909150931984186f,0.017182331532239914f,-0.01804894022643566f,-0.009453839622437954f,0.007290270645171404f,-0.041948121041059494f,0.022902458906173706f,0.019869007170200348f,-0.01424448098987341f,-0.05644892528653145f,-0.008092041127383709f,-0.018588406965136528f,-0.03553111106157303f,-0.020894471555948257f,0.0058898283168673515f,0.01265871711075306f,-0.006836975459009409f,-0.026924297213554382f,0.024668697267770767f,0.058131102472543716f,-0.008141586557030678f,0.01288645714521408f,0.013542251661419868f,-0.008265669457614422f,0.00483720051124692f,-0.01835702732205391f,-0.02398715913295746f,-0.0012776678195223212f,0.046235304325819016f,0.031117239966988564f,-0.015197553671896458f,-0.01753903366625309f,-0.03935718908905983f,0.014483517967164516f,-0.04536715894937515f,0.02754099853336811f,-0.007730594836175442f,0.0030025483574718237f,-0.015796063467860222f,0.014771540649235249f,0.03528548777103424f,-0.022474821656942368f,0.0073376926593482494f,0.0024757019709795713f,-0.028012214228510857f,-0.00607576547190547f,0.036229778081178665f,-0.008293043822050095f,-0.02053866907954216f,-0.021051371470093727f,0.012688841670751572f,0.0198880173265934f,-0.017435410991311073f,-0.008860001340508461f,-0.02543814666569233f,-0.0685957595705986f,0.09585646539926529f,0.04442204162478447f,-0.012533160857856274f,0.04623181000351906f,0.05273396521806717f,0.06266079843044281f,0.049561623483896255f,0.0656956136226654f,0.029799258336424828f,-0.04696868360042572f,0.04984446242451668f,0.013974054716527462f,-0.03307346999645233f,0.01591862365603447f,-0.042708173394203186f,-0.05476207658648491f,-0.037404272705316544f,-0.044618308544158936f,-0.024703610688447952f,-0.03673689812421799f,-0.015240506269037724f,0.0033277575857937336f,-0.0037822159938514233f,-0.008749770931899548f,-0.0328228697180748f,0.04190516471862793f,-0.006784041412174702f,-0.0035631381906569004f,-0.0027046387549489737f,0.006953628268092871f,0.02849583514034748f,-0.015521302819252014f,-0.017237743362784386f,0.009526273235678673f,0.02828008495271206f,0.00017956669034902006f,-0.05924711748957634f,-0.0034639229997992516f,0.01107605081051588f,0.013933186419308186f,0.012416749261319637f,-0.06651381403207779f,-0.009914201684296131f,0.0439298152923584f,-0.006969047244638205f,-0.054183606058359146f,-0.04614092409610748f,0.025155680254101753f,0.006474234629422426f,0.02700149267911911f,0.051275841891765594f,-0.04082899168133736f,-0.008070368319749832f,-0.07235430181026459f,0.026981990784406662f,0.023963063955307007f,-0.003289690474048257f,0.021095383912324905f,-0.012014944106340408f,0.01336993183940649f,-0.04019879922270775f,0.007749905344098806f,-0.03803412243723869f,0.04093949869275093f,0.06641067564487457f,-0.01865978352725506f,-0.023563651368021965f,-0.008889869786798954f,-0.018511606380343437f,-0.0389375239610672f,0.017230354249477386f,-0.04530768096446991f,0.002125206869095564f,-0.024847446009516716f,0.011822088621556759f,0.019685594365000725f,-0.02165871486067772f,0.04150557890534401f,-0.0234112236648798f,0.016547076404094696f,-0.0427115224301815f,0.06858738511800766f,0.06214660406112671f,-0.024141302332282066f,-0.00794200599193573f,-0.0021919847931712866f,-0.056071799248456955f,0.02331753447651863f,0.01604202203452587f,-0.0013088452396914363f,-0.035778846591711044f,-0.0058786082081496716f,-0.006022046785801649f,-0.08155715465545654f,-0.006431873422116041f,-0.017588868737220764f,0.0335330069065094f},
