#ifndef UTTT2_PARAMETERS_H
#define UTTT2_PARAMETERS_H

#define INPUT_NEURONS 1458
#define HIDDEN_1_NEURONS 128
#define HIDDEN_2_NEURONS 32
#define HIDDEN_3_NEURONS 32

float hidden1Weights[HIDDEN_1_NEURONS][INPUT_NEURONS] = {{0.048536863178014755f,-0.1555163711309433f,0.12891130149364471f,-0.06691616028547287f,0.1158948466181755f,-0.12425053864717484f,-0.04668010026216507f,-0.019576948136091232f,-0.00368901202455163f,-0.056635137647390366f,-0.006792226806282997f,0.04499911889433861f,0.013599742203950882f,-0.20480918884277344f,0.20005549490451813f,0.03250453621149063f,-0.20367944240570068f,0.08367796242237091f,-0.03903617709875107f,0.10856205224990845f,-0.08309175819158554f,-0.1074581891298294f,0.03848160803318024f,0.015798375010490417f,-0.06997652351856232f,-0.043554697185754776f,-0.014745651744306087f,0.28146013617515564f,0.2058650702238083f,-0.4835340976715088f,0.1686747521162033f,0.20780529081821442f,-0.3370487689971924f,-0.006288024131208658f,-0.21106280386447906f,0.04443220794200897f,-0.188681960105896f,0.19047954678535461f,-0.009888691827654839f,-0.17042842507362366f,-0.07252802699804306f,0.2191423624753952f,-0.026142405346035957f,-0.009479367174208164f,0.0006094082491472363f,0.03492877259850502f,0.5810431241989136f,-0.6313260793685913f,-0.11090771853923798f,0.6731003522872925f,-0.535535454750061f,0.009292892180383205f,-0.1873142570257187f,0.0643356665968895f,0.009415903128683567f,-0.13130494952201843f,0.12119358032941818f,0.09582272171974182f,-0.31211334466934204f,0.20820023119449615f,-0.036698274314403534f,-0.01074355747550726f,-0.016321351751685143f,0.29816046357154846f,0.13570207357406616f,-0.37782585620880127f,0.16042263805866241f,0.5254665017127991f,-0.6727569699287415f,0.022485096007585526f,-0.17993314564228058f,0.09271802753210068f,0.16562139987945557f,-0.18794001638889313f,0.07177003473043442f,-0.16465692222118378f,-0.07383812963962555f,0.16709069907665253f,-0.06338665634393692f,-0.024883707985281944f,0.018354935571551323f,0.19362714886665344f,-0.15441371500492096f,0.010166442953050137f,0.0013738464331254363f,-0.06442449986934662f,0.06936431676149368f,0.02602379024028778f,-0.21765795350074768f,0.06421235203742981f,-0.13465720415115356f,-0.09328474849462509f,0.22198490798473358f,-0.015708692371845245f,0.05036260932683945f,-0.0756453275680542f,-0.06251994520425797f,-0.05552911385893822f,-0.01710774376988411f,0.036092694848775864f,0.18639808893203735f,-0.22769473493099213f,0.18176551163196564f,-0.18721003830432892f,0.03906483203172684f,0.03052636794745922f,-0.16671176254749298f,0.08443085849285126f,0.028129715472459793f,-0.07741796970367432f,0.08208376169204712f,-0.0599840022623539f,0.22339631617069244f,-0.20165765285491943f,-0.027292078360915184f,-0.05952746793627739f,0.01908714510500431f,0.07713069766759872f,0.014243753626942635f,-0.020980622619390488f,0.36085042357444763f,0.0651862770318985f,-0.4145258963108063f,-0.009750303812325f,-0.17923322319984436f,0.08068891614675522f,-0.015580521896481514f,-0.03287592902779579f,0.046165306121110916f,0.08811487257480621f,-0.2813672125339508f,0.12387598305940628f,-0.05451811105012894f,-0.0354720801115036f,-0.013661510311067104f,0.13977736234664917f,0.12446501851081848f,-0.2614744007587433f,0.2255021184682846f,0.3127855062484741f,-0.5124150514602661f,-0.00941069982945919f,-0.1992805153131485f,0.07903537154197693f,-0.051099151372909546f,-0.06284265220165253f,0.12361172586679459f,-0.05806281045079231f,-0.2571883201599121f,0.26436522603034973f,-0.052645355463027954f,-0.055701956152915955f,0.01480906642973423f,-0.18667010962963104f,0.23062880337238312f,-0.02316557802259922f,-0.09298475831747055f,0.32322487235069275f,-0.19130930304527283f,0.026950983330607414f,-0.20318758487701416f,0.08490389585494995f,-0.18422988057136536f,0.08864916861057281f,0.004336517304182053f,-0.003440339118242264f,0.12823081016540527f,-0.15723088383674622f,-0.031134704127907753f,0.09052113443613052f,0.008901081047952175f,-0.11368994414806366f,0.17518727481365204f,-0.11091490089893341f,0.0006281178793869913f,-0.31125378608703613f,0.08046985417604446f,0.056118499487638474f,0.052770018577575684f,0.04306760057806969f,0.05701496824622154f,-0.16127386689186096f,0.0442393496632576f,-0.04616652429103851f,-0.14915257692337036f,0.07634910196065903f,-0.026820149272680283f,0.08396565169095993f,0.02033906802535057f,0.019386466592550278f,-0.09699011594057083f,-0.03272973373532295f,0.010249397717416286f,-0.1893121749162674f,0.011339227668941021f,0.06135759875178337f,0.061103455722332f,0.05427735298871994f,0.07248324155807495f,-0.06966886669397354f,-0.044924456626176834f,-0.016229400411248207f,-0.13534539937973022f,0.0742531418800354f,-0.03749460726976395f,0.04852202534675598f,0.013965753838419914f,0.07881167531013489f,-0.036158014088869095f,-0.08053848892450333f,0.19377291202545166f,0.1655711829662323f,-0.5111730694770813f,0.05729202926158905f,0.023639069870114326f,0.07448349893093109f,0.11619018018245697f,-0.1413545161485672f,-0.021146731451153755f,0.15428580343723297f,-0.12271974235773087f,-0.09409912675619125f,-0.06817151606082916f,0.04665931686758995f,0.019407814368605614f,-0.2099173218011856f,0.2506943345069885f,-0.07727938145399094f,0.009141584858298302f,0.11398731172084808f,-0.272665411233902f,0.0478907935321331f,0.049466971307992935f,0.038049109280109406f,0.1319585144519806f,-0.2214893102645874f,0.08799812197685242f,-0.030265484005212784f,-0.07664009183645248f,0.04329003393650055f,-0.06281279027462006f,0.05751599743962288f,0.0010685956804081798f,-0.07146931439638138f,0.14389431476593018f,-0.11845656484365463f,0.04113328456878662f,0.1323230117559433f,-0.3304812014102936f,0.040899407118558884f,0.07316727936267853f,0.033565059304237366f,-0.011538268998265266f,-0.019008276984095573f,-0.03827088698744774f,-0.010021435096859932f,0.030382148921489716f,-0.11188216507434845f,-0.040711432695388794f,0.047968149185180664f,0.007697295397520065f,-0.07395493239164352f,-0.04432709142565727f,0.07905799150466919f,-0.1827279031276703f,-0.0881899744272232f,0.11853326857089996f,0.029046470299363136f,0.03188120573759079f,0.0599847249686718f,-0.02962983213365078f,0.09434332698583603f,-0.07531531900167465f,-0.12439168244600296f,-0.019550418481230736f,0.0034485110081732273f,-0.05721366032958031f,0.06982965022325516f,-0.0027298000641167164f,-0.04409802332520485f,0.04245678335428238f,-0.032881151884794235f,-0.09118261933326721f,0.08059380203485489f,-0.12106215208768845f,0.034226201474666595f,0.022900288924574852f,0.03490356355905533f,-0.017956938594579697f,-0.0989617183804512f,0.052855487912893295f,-0.026354553177952766f,-0.22796213626861572f,0.18745537102222443f,-0.058463357388973236f,0.06428611278533936f,-0.0220781359821558f,0.07088608294725418f,-0.1669100522994995f,0.07155394554138184f,6.352385389618576e-05f,-0.09940341860055923f,-0.07184647023677826f,0.020606013014912605f,0.03244422376155853f,0.05060843005776405f,-0.03722134977579117f,-0.13614128530025482f,0.12530417740345f,-0.08900358527898788f,-0.09231694042682648f,0.0771351233124733f,-0.027765102684497833f,0.07755795866250992f,-0.01317510288208723f,0.02086598053574562f,-0.1724342256784439f,0.1198032945394516f,0.024630490690469742f,-0.05777117982506752f,-0.11776109784841537f,0.015008463524281979f,0.04342755675315857f,0.030765127390623093f,-0.17518629133701324f,0.07030755281448364f,0.052632205188274384f,-0.36082926392555237f,0.39943546056747437f,-0.08014485985040665f,-0.02590799704194069f,-0.035511117428541183f,-0.0005351653671823442f,0.0989178866147995f,0.15576757490634918f,-0.2880285382270813f,-0.1290554404258728f,0.08706306666135788f,0.0471261665225029f,0.023102257400751114f,-0.03463723883032799f,-0.02406509406864643f,-0.2194381207227707f,0.10619468241930008f,0.05959669128060341f,-0.222599059343338f,0.23683878779411316f,-0.0038820491172373295f,-0.038716841489076614f,-0.06840009987354279f,-0.010254979133605957f,0.2623138129711151f,-0.09400013089179993f,-0.22870048880577087f,0.13932527601718903f,0.05273999273777008f,-0.17749811708927155f,-0.007313284557312727f,-0.032890863716602325f,-0.004958480596542358f,-0.12065588682889938f,-0.32597002387046814f,0.4278258979320526f,0.047734908759593964f,-0.23035240173339844f,0.22241145372390747f,-0.034171611070632935f,-0.02578885108232498f,-0.011242561042308807f,-0.014847107231616974f,-0.03655087575316429f,0.0438641682267189f,0.32405954599380493f,-0.29293835163116455f,-0.07599272578954697f,0.024601129814982414f,-0.05455135181546211f,0.008773003704845905f,0.007843579165637493f,-0.03022381104528904f,0.03511334955692291f,0.2727401554584503f,-0.31148049235343933f,-0.00615653907880187f,-0.03189733624458313f,-0.05357402563095093f,-0.013168704695999622f,-0.17119655013084412f,0.06662650406360626f,0.0452534556388855f,-0.019521405920386314f,-0.049277350306510925f,0.019673867151141167f,0.04343712329864502f,-0.009901205077767372f,-0.014767681248486042f,0.10598426312208176f,-0.010454251430928707f,-0.13910269737243652f,0.06344638019800186f,-0.027993151918053627f,-0.026728525757789612f,-0.008251270279288292f,-0.03558357059955597f,-0.004415091127157211f,0.0830930694937706f,-0.1951693296432495f,0.08430733531713486f,0.01934262178838253f,0.05245451256632805f,-0.05542606860399246f,0.02007870003581047f,-0.03601957857608795f,-0.01655820570886135f,-0.02148228883743286f,0.05771021172404289f,-0.1307019591331482f,-0.2600319981575012f,0.32605811953544617f,-0.0559292733669281f,0.00410279119387269f,-0.04377412423491478f,-0.011721653863787651f,0.16820266842842102f,0.1678592711687088f,-0.32853928208351135f,-0.059035610407590866f,-0.07409174740314484f,0.18749184906482697f,0.020161425694823265f,-0.008671528659760952f,-0.02759428881108761f,0.018225790932774544f,-0.09547840803861618f,0.06347500532865524f,-0.1397729367017746f,0.2398439198732376f,-0.11449083685874939f,-0.03361267223954201f,-0.03465249761939049f,0.01663503237068653f,-0.20003238320350647f,0.14012867212295532f,0.07499087601900101f,-0.004713414702564478f,-0.15557418763637543f,0.11598812788724899f,0.018745312467217445f,-0.0236609298735857f,0.007036311086267233f,-0.12724006175994873f,-0.32137444615364075f,0.3505842089653015f,0.02214755117893219f,-0.23804610967636108f,0.19336967170238495f,-0.04019442945718765f,-0.0640677735209465f,0.028868669643998146f,-0.15027906000614166f,0.10337650775909424f,0.03934016451239586f,-0.1283089816570282f,0.10666372627019882f,0.05525824800133705f,0.041118692606687546f,-0.02330671437084675f,-0.0060942815616726875f,-0.25964242219924927f,0.052945125848054886f,0.14375482499599457f,-0.1820123940706253f,0.24673081934452057f,-0.011162208393216133f,-0.030284345149993896f,-0.03729066252708435f,-0.015661509707570076f,0.01382271945476532f,0.20373456180095673f,-0.23393753170967102f,0.06512608379125595f,-0.08178114891052246f,0.06511499732732773f,-0.0008074984070844948f,-0.024549322202801704f,-0.017386790364980698f,0.015220179222524166f,-0.29745855927467346f,0.15131880342960358f,-0.13501092791557312f,-0.06235994026064873f,0.07117360830307007f,0.053328923881053925f,0.04271405562758446f,0.029204901307821274f,-0.06969058513641357f,-0.018248021602630615f,0.0361524261534214f,-0.049687739461660385f,-0.2780539393424988f,0.2607896029949188f,-0.01055455207824707f,-0.03030836209654808f,0.07601253688335419f,-0.10102725774049759f,-0.08402513712644577f,0.05819134786725044f,0.07874586433172226f,-0.13269439339637756f,-0.008029758930206299f,0.0212284866720438f,0.06931740045547485f,0.020852692425251007f,-0.2220183163881302f,0.16399627923965454f,0.02524096705019474f,0.06952695548534393f,0.1265539973974228f,-0.2545333206653595f,0.0250204186886549f,-0.032403815537691116f,0.07295113056898117f,-0.006921462714672089f,-0.09531724452972412f,0.019603578373789787f,-0.07736659795045853f,0.0450684018433094f,-0.08069033175706863f,0.03873807191848755f,0.08682958781719208f,-0.00012943107867613435f,0.022893201559782028f,0.07537494599819183f,-0.09580523520708084f,-0.03224639222025871f,0.07850650697946548f,-0.12824594974517822f,0.001566068734973669f,-0.011222914792597294f,0.09655902534723282f,0.11956941336393356f,-0.18112511932849884f,-0.048249393701553345f,0.02629961259663105f,-0.039264727383852005f,-0.09324833005666733f,0.03252352774143219f,0.048309482634067535f,-0.006294173188507557f,0.09818805754184723f,0.07026787102222443f,-0.20706352591514587f,0.05438420549035072f,0.05254228040575981f,-0.15067121386528015f,-0.006748891435563564f,-0.013972620479762554f,0.08693306148052216f,-0.18252626061439514f,0.08777114748954773f,-0.005250181071460247f,-0.2277335375547409f,0.15376506745815277f,-0.04281638190150261f,0.04843653738498688f,0.08022911846637726f,-0.005552984774112701f,-0.1278170943260193f,0.39799246191978455f,-0.2981494665145874f,-0.10880527645349503f,0.08088833838701248f,-0.008599241264164448f,-0.01853601261973381f,0.004382005892693996f,0.07956905663013458f,0.11899759620428085f,-0.22097258269786835f,0.013272030279040337f,-0.036915671080350876f,-0.15160581469535828f,0.09021773189306259f,0.010294022038578987f,0.06569701433181763f,-0.010584084317088127f,-0.19835376739501953f,-0.07427536696195602f,0.20293240249156952f,-0.13432683050632477f,-0.1926981657743454f,0.20154426991939545f,-0.01893751136958599f,-0.01719537191092968f,0.07099158316850662f,-0.06644582748413086f,0.005723797250539064f,-0.010092501528561115f,-0.08425852656364441f,0.060072798281908035f,-0.09459006786346436f,0.009032506495714188f,0.08159671723842621f,0.028614502400159836f,0.10607964545488358f,-0.2624039053916931f,0.1208294928073883f,0.3552527129650116f,-0.3272091746330261f,-0.11088042706251144f,-0.0114657673984766f,-0.030824314802885056f,0.08474503457546234f,0.1744195520877838f,-0.09083230793476105f,-0.16015395522117615f,0.008179687894880772f,-0.060178350657224655f,-0.1086457148194313f,0.03327618166804314f,0.05611785501241684f,0.01766176149249077f,-0.08355195820331573f,0.10520373284816742f,-0.05220181867480278f,-0.0725124254822731f,-0.0750039741396904f,0.09862471371889114f,-0.023542610928416252f,-0.020120099186897278f,0.08660063147544861f,-0.08758848905563354f,0.11033845692873001f,-0.14095333218574524f,-0.19362597167491913f,0.10082119703292847f,-0.03906477242708206f,0.028863433748483658f,0.05371284857392311f,0.027886830270290375f,-0.06825010478496552f,-0.20286649465560913f,0.23280125856399536f,-0.30313727259635925f,0.031547777354717255f,0.16778750717639923f,0.01991727016866207f,-0.005246756132692099f,0.07579603046178818f,0.04867527633905411f,0.05535164847970009f,-0.018372761085629463f,-0.1107320711016655f,-0.011001811362802982f,0.039994996041059494f,-0.04962030053138733f,-0.003380679991096258f,-0.06973978877067566f,-0.10976147651672363f,0.31400802731513977f,-0.11222974210977554f,-0.11700396984815598f,-0.20899835228919983f,0.2141977995634079f,0.036808211356401443f,-0.08434823900461197f,-0.03406023606657982f,0.062001463025808334f,-0.2763753831386566f,0.3182053864002228f,0.08019061386585236f,-0.06422333419322968f,-0.08477763086557388f,-0.03174992650747299f,-0.0010440779151394963f,-0.09448539465665817f,-0.08561082929372787f,0.04492294415831566f,0.19424638152122498f,-0.1246471107006073f,0.22891865670681f,-0.24592389166355133f,0.052611079066991806f,-0.060391463339328766f,-0.03172648325562477f,0.0881391391158104f,-0.19668802618980408f,0.21320068836212158f,0.03163845092058182f,-0.15186689794063568f,0.07031478732824326f,-0.04997584596276283f,0.010146945714950562f,-0.07728131860494614f,0.07574321329593658f,0.24682928621768951f,-0.20429818332195282f,-0.056557536125183105f,0.28324654698371887f,-0.3960728347301483f,0.037315092980861664f,-0.05632162094116211f,-0.06270241737365723f,0.2663058638572693f,0.027845505625009537f,-0.19804753363132477f,0.36778610944747925f,-0.07953506708145142f,-0.3660902976989746f,-0.06296669691801071f,-0.006822098046541214f,-0.08942419290542603f,-0.1542927473783493f,0.1439831256866455f,0.16631995141506195f,0.007431968580931425f,0.22957995533943176f,-0.3256987929344177f,0.02605810947716236f,-0.08045637607574463f,-0.01811460219323635f,-0.011447114869952202f,0.05181817337870598f,0.023391442373394966f,-0.007019871845841408f,-0.03187710419297218f,-0.018410000950098038f,-0.038348227739334106f,0.017206639051437378f,-0.06475302577018738f,0.003427226096391678f,0.13506245613098145f,-0.017820268869400024f,0.023336248472332954f,-0.13993288576602936f,-0.008690813556313515f,0.0108220549300313f,-0.05427360162138939f,-0.04823966696858406f,0.04784311354160309f,-0.19892029464244843f,0.19983695447444916f,-0.13692373037338257f,0.08880934864282608f,0.007690900471061468f,-0.06044183298945427f,0.041265036910772324f,-0.07185903191566467f,0.023799752816557884f,-0.2355368584394455f,0.3779263496398926f,0.09457459300756454f,-0.11306130141019821f,-0.082380011677742f,0.027839381247758865f,-0.0715382918715477f,-0.062333397567272186f,0.06981904804706573f,-0.03265032172203064f,0.04877440631389618f,0.04250083863735199f,-0.16806574165821075f,0.05360693484544754f,-0.07110951095819473f,0.025337642058730125f,-0.09258913993835449f,0.01802007667720318f,0.6208713054656982f,-0.5053054094314575f,0.09885641187429428f,0.1340429037809372f,-0.3467884063720703f,0.01927872560918331f,-0.05852485075592995f,-0.035762980580329895f,-0.038883063942193985f,0.11415205150842667f,-0.04465385526418686f,0.11331203579902649f,-0.0360710509121418f,-0.08749692887067795f,-0.03446727618575096f,0.001984776696190238f,-0.08429042249917984f,-0.06441883742809296f,-0.026607602834701538f,0.22950300574302673f,0.13260042667388916f,0.029177911579608917f,-0.32385316491127014f,0.059923555701971054f,-0.08321516960859299f,-0.02604212984442711f,0.02904350496828556f,0.006572787184268236f,0.01360450778156519f,-0.10720895975828171f,-0.057451821863651276f,0.07559419423341751f,-0.06440746784210205f,-0.004489435348659754f,-0.0987965390086174f,-0.09993007779121399f,0.49717336893081665f,-0.25658494234085083f,-0.030576827004551888f,0.06131960451602936f,-0.17194409668445587f,0.04103616997599602f,-0.06357622146606445f,-0.044241227209568024f,0.013197561725974083f,-0.002989442553371191f,-0.025553230196237564f,-0.12660358846187592f,-0.11491593718528748f,0.12261464446783066f,-0.06730636954307556f,0.037874214351177216f,0.00844554603099823f,0.1904633343219757f,-0.0008730613626539707f,-0.21707315742969513f,-0.13310272991657257f,0.13417156040668488f,0.015329668298363686f,0.04319259896874428f,-0.0476522333920002f,-0.031788136810064316f,0.09414462000131607f,0.028719762340188026f,-0.13715267181396484f,-0.08175026625394821f,0.045574966818094254f,-0.07130458950996399f,-0.06214841455221176f,0.04658522829413414f,-0.006237240508198738f,0.06262587010860443f,0.2003539353609085f,-0.32090479135513306f,0.07896169275045395f,0.1847219616174698f,-0.21747399866580963f,0.019613536074757576f,-0.0526503250002861f,-0.030512642115354538f,0.022610483691096306f,-0.10180327296257019f,0.09907717257738113f,0.03594716638326645f,-0.2686057686805725f,0.10065004974603653f,-0.040764324367046356f,0.06312555074691772f,0.02008681185543537f,-0.09035624563694f,0.27026504278182983f,-0.21912169456481934f,0.12794798612594604f,0.04664387181401253f,-0.21887385845184326f,0.01457347720861435f,-0.05112120509147644f,-0.019981402903795242f,-0.2527885437011719f,0.07038461416959763f,0.18513759970664978f,0.04214636608958244f,-0.24494022130966187f,0.13768644630908966f,-0.04704466089606285f,0.04839690402150154f,0.013672915287315845f,-0.02928495965898037f,0.18301810324192047f,-0.2257402092218399f,-0.0011213960824534297f,0.22950467467308044f,-0.18950040638446808f,0.024293873459100723f,-0.05933117866516113f,-0.00254190806299448f,0.13389551639556885f,-0.04917756840586662f,-0.06643696129322052f,-0.07760795205831528f,-0.03762902319431305f,-0.004397524520754814f,-0.019231289625167847f,0.04323533549904823f,-0.007325152866542339f,0.005587289575487375f,-0.02190759778022766f,-0.03111272305250168f,-0.008415089920163155f,0.022572029381990433f,0.02228498086333275f,0.01236035581678152f,-0.04977477341890335f,-0.032661039382219315f,-0.02207065001130104f,-0.07362357527017593f,0.09592320770025253f,-0.0472693145275116f,-0.06336100399494171f,0.009672782383859158f,-0.020391976460814476f,0.030567066743969917f,0.019815556704998016f,-0.02736622653901577f,0.2584984004497528f,-0.2619468569755554f,0.04949617758393288f,-0.02313505858182907f,-0.031242312863469124f,0.040487904101610184f,-0.021666301414370537f,-0.030330033972859383f,-0.10799019038677216f,-0.14179089665412903f,0.25982940196990967f,-0.2000635862350464f,0.10519065707921982f,-0.03799469769001007f,-0.05777071788907051f,0.05699210613965988f,-0.014150227420032024f,0.11323688924312592f,0.04329720512032509f,-0.1915636956691742f,-0.03784845024347305f,0.24920424818992615f,-0.24097180366516113f,0.04040735960006714f,-0.02788490056991577f,-0.02809075266122818f,-0.012588256038725376f,0.07501662522554398f,-0.07098378986120224f,-0.040260281413793564f,-0.25459998846054077f,0.18060386180877686f,-0.06271114945411682f,0.038841377943754196f,-0.009621219709515572f,0.2708117663860321f,-0.06074101850390434f,-0.22862644493579865f,0.11464163661003113f,-0.17282052338123322f,0.0757923498749733f,0.01258531492203474f,-0.012669985182583332f,0.00031905429204925895f,-0.06796254217624664f,0.12572543323040009f,-0.09239654242992401f,0.11305344849824905f,-0.17736726999282837f,-0.03116939216852188f,-0.056713853031396866f,0.019704926759004593f,0.009138609282672405f,0.04365162178874016f,-0.02005280740559101f,-0.08995131403207779f,0.14323922991752625f,0.13446493446826935f,-0.30819377303123474f,0.030646516010165215f,-0.02538873814046383f,-0.03401210904121399f,-0.09660639613866806f,0.08522284775972366f,-0.03580484166741371f,-0.12414543330669403f,-0.13042478263378143f,0.16974222660064697f,-0.0372091569006443f,-0.012178244069218636f,0.06466464698314667f,0.07280337065458298f,-0.08328062295913696f,-0.15829743444919586f,0.008305731229484081f,0.04977032169699669f,0.0028723753057420254f,0.04363827034831047f,-0.03817887231707573f,0.014588648453354836f,-0.016019904986023903f,0.04951523616909981f,-0.0826931744813919f,-0.0773443803191185f,-0.04832137003540993f,0.10247687995433807f,-0.004915399476885796f,-0.03879425674676895f,0.05665082484483719f,0.16965079307556152f,-0.2129693329334259f,-0.07991815358400345f,0.18045412003993988f,-0.024275153875350952f,-0.09799261391162872f,0.066046342253685f,-0.039222899824380875f,0.02142784558236599f,0.06470362097024918f,0.002120864111930132f,-0.1131550595164299f,0.02585630863904953f,-0.28998711705207825f,0.18682412803173065f,-0.009555196389555931f,-0.025872042402625084f,0.058826081454753876f,-0.03817928582429886f,0.005609638057649136f,-0.0989951342344284f,-0.005398412235081196f,0.08398684114217758f,-0.0701795369386673f,0.07266470044851303f,-0.051436007022857666f,-0.012224617414176464f,0.09063941985368729f,-0.10729267448186874f,-0.015861911699175835f,0.2740434408187866f,-0.2992168366909027f,-0.03588282689452171f,-0.04498542845249176f,-0.007167020346969366f,0.06459586322307587f,-0.049426909536123276f,0.2079012095928192f,-0.29023247957229614f,0.0395420603454113f,0.20963339507579803f,-0.17802169919013977f,0.0355282798409462f,-0.04232195019721985f,0.0027000096160918474f,0.03423438221216202f,-0.037638138979673386f,-0.01805812120437622f,-0.12895721197128296f,0.04637571796774864f,0.0569433867931366f,-0.007685446180403233f,-0.03361597657203674f,0.06643553823232651f,0.08116474747657776f,-0.022296657785773277f,-0.19334079325199127f,-0.08575121313333511f,0.2540242373943329f,-0.17259055376052856f,0.04520362243056297f,-0.025009652599692345f,0.0006267941789701581f,0.02876262180507183f,-0.24132366478443146f,0.14255812764167786f,0.022574108093976974f,-0.24367643892765045f,0.13911044597625732f,-0.03098597191274166f,-0.042229875922203064f,0.03225340694189072f,0.08632304519414902f,-0.16647778451442719f,-0.06837087869644165f,0.04308629408478737f,-0.01166546531021595f,-0.007442209403961897f,0.05399874225258827f,-0.013760036788880825f,0.001304358709603548f,-0.08450747281312943f,-0.12776686251163483f,0.13810525834560394f,0.004881818778812885f,-0.09544095396995544f,0.012445078231394291f,-0.026582330465316772f,0.003754352917894721f,0.025528937578201294f,-0.13761883974075317f,0.13778454065322876f,-0.1756579577922821f,0.03963764011859894f,0.06891977787017822f,-0.061504121869802475f,0.03130945563316345f,-0.05276600271463394f,0.027181880548596382f,0.01729769818484783f,-0.15478214621543884f,0.056882165372371674f,-0.03767452761530876f,-0.20639577507972717f,0.22185584902763367f,-0.01480271015316248f,-0.027314303442835808f,0.05889757722616196f,0.052028242498636246f,0.17927336692810059f,-0.38665419816970825f,0.010432088747620583f,0.24379339814186096f,-0.18725915253162384f,0.05966978147625923f,-0.015979453921318054f,0.02707609534263611f,-0.15033851563930511f,0.08571170270442963f,0.009682252071797848f,-0.1493896245956421f,0.043235402554273605f,0.07450968027114868f,-0.007473932579159737f,-0.019868573173880577f,0.07140842825174332f,0.006096391472965479f,0.1694745570421219f,-0.2768929600715637f,0.04074566811323166f,0.12051106989383698f,-0.13830266892910004f,0.07709153741598129f,-0.04996231943368912f,0.01263362541794777f,-0.010998528450727463f,0.04460267722606659f,-0.030128328129649162f,-0.18472620844841003f,0.12994977831840515f,-0.1378910392522812f,0.049637991935014725f,-0.005844616796821356f,-0.017554329708218575f,0.07086215168237686f,-0.19029995799064636f,0.1015622541308403f,-0.025117196142673492f,-0.008995376527309418f,0.014645906165242195f,0.0022773118689656258f,-0.0756094679236412f,0.0485745407640934f,0.13328500092029572f,0.006712318863719702f,-0.16378788650035858f,0.10646534711122513f,-0.1754840612411499f,-0.033761750906705856f,0.018699945881962776f,0.02235347032546997f,-0.011977680027484894f,-0.10941912233829498f,0.03340907767415047f,0.050197627395391464f,0.1522243171930313f,0.07971132546663284f,-0.287716805934906f,0.023437241092324257f,-0.06929486244916916f,0.03204232081770897f,0.10710214078426361f,-0.020163413137197495f,-0.08659419417381287f,0.009857739321887493f,-0.033835507929325104f,-0.13261756300926208f,0.06488251686096191f,-0.025171564891934395f,0.006786965299397707f,-0.041450899094343185f,0.1281953752040863f,-0.09978683292865753f,-0.13845978677272797f,0.13621747493743896f,-0.09447464346885681f,0.016561705619096756f,-0.06184478849172592f,0.019601644948124886f,-0.15843045711517334f,-0.026541108265519142f,0.17675402760505676f,0.20649009943008423f,-0.3084008991718292f,-0.07318518310785294f,0.022398801520466805f,-0.018472252413630486f,0.0007971905870363116f,-0.08147179335355759f,0.20996680855751038f,-0.16478046774864197f,-0.11112866550683975f,0.3949979841709137f,-0.26911699771881104f,0.03485750034451485f,-0.06464897096157074f,0.01335196290165186f,-0.058446988463401794f,-0.13853700459003448f,0.15424178540706635f,-0.09314947575330734f,-0.09874092787504196f,0.05874856561422348f,0.022325413301587105f,0.0136649115011096f,-0.010009977966547012f,0.005791307892650366f,0.07866449654102325f,-0.09887246042490005f,0.01330396719276905f,0.1880679577589035f,-0.2474418580532074f,0.006749407853931189f,-0.04948287829756737f,0.03751230239868164f,-0.013721317984163761f,-0.03822574391961098f,0.053405728191137314f,-0.12150517106056213f,0.002130586886778474f,-0.0063747805543243885f,0.060177408158779144f,0.010785478167235851f,-0.027875734493136406f,0.0039754221215844154f,0.04335823282599449f,-0.1046573668718338f,-0.027530092746019363f,0.04584343731403351f,-0.07793987542390823f,0.013483783230185509f,-0.07789425551891327f,0.016404638066887856f,-0.13146056234836578f,-0.02187739685177803f,0.15352965891361237f,-0.15744121372699738f,0.004935100208967924f,0.05182184278964996f,0.037872277200222015f,-0.013175501488149166f,-0.007336657028645277f,0.03626815229654312f,0.0767611488699913f,-0.1388305127620697f,0.17473401129245758f,0.07365552335977554f,-0.2953680455684662f,0.022708281874656677f,-0.07424880564212799f,0.058311257511377335f,0.07374637573957443f,0.09818076342344284f,-0.21537995338439941f,0.023109039291739464f,0.029966361820697784f,-0.16042952239513397f,0.03952959179878235f,-0.022790804505348206f,-0.01870085671544075f,0.004128476604819298f,0.09064739942550659f,-0.12010057270526886f,-0.004952624440193176f,-0.13412725925445557f,0.09723483771085739f,-0.0007372844847850502f,-0.06376350671052933f,0.035439081490039825f,0.12236892431974411f,-0.17825402319431305f,0.00845088716596365f,0.0031371493823826313f,-0.12076421827077866f,0.01133287325501442f,0.03700987622141838f,-0.01889239251613617f,-0.0011816825717687607f,-0.06530890613794327f,0.05404936894774437f,-0.005802844185382128f,0.016408778727054596f,0.3036784827709198f,-0.34698301553726196f,0.025992948561906815f,-0.047621503472328186f,0.011348772794008255f,-0.15524324774742126f,0.2870332598686218f,-0.13913923501968384f,-0.12095480412244797f,-0.12842385470867157f,0.1743505746126175f,-0.022377248853445053f,-0.033832430839538574f,0.04684450477361679f,0.26914289593696594f,0.0029548786114901304f,-0.30338582396507263f,-0.13027796149253845f,0.1053084209561348f,0.05076470971107483f,0.012564215809106827f,-0.03786048665642738f,-0.032258883118629456f,-0.03986799716949463f,-0.10338328778743744f,0.1324283927679062f,0.11588463187217712f,0.017597584053874016f,-0.20535965263843536f,-0.04126599431037903f,-0.007472565397620201f,0.05770876258611679f,0.07893902063369751f,0.022754332050681114f,-0.15384119749069214f,0.25083255767822266f,0.25207218527793884f,-0.40821680426597595f,-0.012930301949381828f,-0.035774704068899155f,-0.05981395021080971f,-0.006948401685804129f,0.0215566698461771f,0.03383347764611244f,-0.14246907830238342f,-0.19048768281936646f,0.2752043306827545f,-0.044522639364004135f,-0.03991805762052536f,0.025171605870127678f,-0.031525619328022f,-0.09636733680963516f,0.08719684183597565f,-0.0971553698182106f,-0.10643240064382553f,0.25379326939582825f,-0.02613719180226326f,-0.06636413186788559f,-0.027580806985497475f,0.044243063777685165f,-0.08171894401311874f,0.04434096813201904f,-0.002047269605100155f,-0.13010285794734955f,0.07933298498392105f,-0.020387042313814163f,-0.020892860367894173f,0.06542931497097015f,-0.06564901769161224f,0.06394463032484055f,0.004033182747662067f,-0.057978566735982895f,0.3433655798435211f,-0.23143982887268066f,-0.017201244831085205f,-0.0723668709397316f,-0.03116201050579548f,-0.2608618438243866f,-0.0418902263045311f,0.29434964060783386f,-0.19031760096549988f,-0.08118344098329544f,0.13307327032089233f,-0.03511638939380646f,-0.0258883535861969f,0.06210104376077652f,0.09827528148889542f,0.5291910767555237f,-0.6609048843383789f,0.04191676899790764f,-0.0201883465051651f,0.03405814617872238f,-0.011892416514456272f,-0.04082241654396057f,-0.06236705183982849f,0.0681878998875618f,0.006731212604790926f,-0.10508663207292557f,-0.14160245656967163f,-0.0009587318054400384f,0.09927038103342056f,-0.01961323991417885f,-0.023097429424524307f,0.026732198894023895f,-0.034567900002002716f,-0.014900440350174904f,0.05609510838985443f,-0.010564219206571579f,0.16742084920406342f,-0.0771428719162941f,0.006437745876610279f,-0.06360471993684769f,-0.04888124763965607f,0.18091987073421478f,0.013802804052829742f,-0.2282331883907318f,-0.17313900589942932f,0.048059117048978806f,0.024109365418553352f,-0.047672878950834274f,-0.018330195918679237f,0.0383467972278595f,-0.06847460567951202f,-0.018243471160531044f,0.0656910315155983f,-0.20608767867088318f,0.2644791603088379f,0.002007580129429698f,0.02116699516773224f,-0.06647136062383652f,-0.04438922554254532f,-0.14730143547058105f,-0.08627846091985703f,0.214432954788208f,-0.0238641444593668f,-0.30829060077667236f,0.2360369712114334f,-0.02795356512069702f,-0.017238520085811615f,0.03312854468822479f,0.04453442245721817f,-0.20146489143371582f,0.14107316732406616f,0.06435643136501312f,-0.13683754205703735f,0.13136149942874908f,0.005327042192220688f,-0.04124593362212181f,-0.053587719798088074f,0.07707950472831726f,0.040898095816373825f,-0.12998923659324646f,-0.0363367535173893f,0.09868622571229935f,-0.12577232718467712f,-0.04400137811899185f,-0.002204197458922863f,0.04990619793534279f,0.09179502725601196f,-0.04153865575790405f,-0.0895712673664093f,0.18835632503032684f,0.29562145471572876f,-0.38512662053108215f,0.024041183292865753f,-0.0744641125202179f,-0.053732626140117645f},
{-0.04220104217529297f,0.16485939919948578f,-0.14765797555446625f,0.024635476991534233f,-0.028158901259303093f,-0.024391332641243935f,0.004668044857680798f,-0.0907425656914711f,-0.02702041156589985f,0.03029601275920868f,-0.060331135988235474f,0.07132138311862946f,0.03904375061392784f,0.10773910582065582f,-0.12990602850914001f,-0.06719579547643661f,-0.1250871866941452f,0.014914165250957012f,0.09381410479545593f,-0.04914189875125885f,-0.061024636030197144f,0.1279628425836563f,-0.16538701951503754f,-0.0008997174445539713f,0.036471325904130936f,-0.08090458065271378f,-0.021706199273467064f,-0.04750939831137657f,-0.00661509670317173f,0.05837361887097359f,-0.10864518582820892f,-0.030061185359954834f,0.12989455461502075f,-0.055903758853673935f,-0.08458202332258224f,0.016453107818961143f,0.06837843358516693f,0.08890633285045624f,-0.09622254222631454f,0.0755663737654686f,-0.1648419052362442f,0.053673647344112396f,0.013957155868411064f,-0.06053967401385307f,0.020585201680660248f,-0.04984249919652939f,0.08011793345212936f,-0.06438674032688141f,-0.2731029689311981f,0.012723568826913834f,0.22280171513557434f,-0.040232013911008835f,-0.0784204751253128f,0.043859586119651794f,0.05084386095404625f,-0.01400485634803772f,-0.059665609151124954f,-0.012837022542953491f,-0.11298700422048569f,0.08355129510164261f,0.016341445967555046f,-0.07591685652732849f,-0.017681391909718513f,-0.00410584919154644f,0.005837939213961363f,0.02499513141810894f,0.15596559643745422f,-0.06084625795483589f,-0.12987187504768372f,-0.01687905751168728f,-0.1090414822101593f,0.035097070038318634f,0.06648414582014084f,-0.03223320096731186f,-0.04417767748236656f,0.01918555237352848f,-0.043858371675014496f,-0.010553783737123013f,0.03560797497630119f,-0.07898543775081635f,-0.0010227595921605825f,-0.010317965410649776f,0.07395784556865692f,-0.06637604534626007f,0.022709207609295845f,-0.12387585639953613f,0.07733141630887985f,-0.021871374920010567f,-0.08712917566299438f,0.04876118153333664f,0.07160473614931107f,0.05263298749923706f,-0.11998886615037918f,0.12149427831172943f,-0.10316582024097443f,-0.05715634673833847f,0.013807541690766811f,-0.05899141728878021f,0.02061058208346367f,-0.0944734662771225f,-0.017836429178714752f,0.04244959354400635f,-0.08814111351966858f,0.16056948900222778f,-0.10335827618837357f,-0.04690362885594368f,-0.07579431682825089f,0.03777475655078888f,0.0451277494430542f,0.07103903591632843f,-0.10325615108013153f,0.05697512999176979f,-0.003090130165219307f,-0.08084743469953537f,0.01143866591155529f,-0.046469539403915405f,-3.071622995776124e-05f,0.029564112424850464f,-0.007847482338547707f,-0.024038998410105705f,0.07999563217163086f,0.11395253241062164f,-0.16604632139205933f,-0.052438464015722275f,-0.09822370111942291f,0.034138958901166916f,0.0882851630449295f,0.014770078472793102f,-0.09051762521266937f,0.10326717048883438f,-0.046779435127973557f,-0.05822204425930977f,0.01822657138109207f,-0.0469251349568367f,-0.01531918440014124f,0.06144625321030617f,-0.01859496906399727f,-0.04938051849603653f,-0.11112771928310394f,0.20355603098869324f,-0.10498889535665512f,-0.05064867064356804f,-0.10609971731901169f,0.026931099593639374f,0.1038578674197197f,0.03008192591369152f,-0.15091261267662048f,0.05392748489975929f,-0.012761726044118404f,-0.11285625398159027f,0.04121693968772888f,-0.09329959005117416f,-0.025836026296019554f,-0.005213244818150997f,0.0851341187953949f,-0.04349036514759064f,0.11803218722343445f,-0.0509745217859745f,-0.10620711743831635f,-0.036009591072797775f,-0.11220519244670868f,0.04513038322329521f,0.07939118146896362f,0.07858318090438843f,-0.08348699659109116f,0.06608567386865616f,-0.11574974656105042f,0.052675023674964905f,0.003276169067248702f,-0.059430476278066635f,0.02064986154437065f,-0.05268734320998192f,-0.046950533986091614f,-0.01800260692834854f,-0.037655968219041824f,-0.09528344124555588f,0.04849456250667572f,-0.047329604625701904f,0.022597134113311768f,0.05775005370378494f,-0.002747761318460107f,0.023761214688420296f,0.006737682968378067f,0.022280622273683548f,-0.11800190061330795f,0.08404696732759476f,-0.004889897536486387f,-0.04651947319507599f,-0.021052196621894836f,0.040915168821811676f,-0.1224847286939621f,0.025860343128442764f,-0.042721450328826904f,0.04573266953229904f,-0.12601807713508606f,-0.0756249949336052f,0.04493757337331772f,0.046957697719335556f,0.05233677476644516f,0.015919983386993408f,-0.04128657653927803f,0.05294302478432655f,0.039655037224292755f,-0.11972424387931824f,0.016615014523267746f,-0.055487096309661865f,-0.016642898321151733f,0.009770508855581284f,0.021154696121811867f,-0.09321131557226181f,0.06794840842485428f,-0.01647207699716091f,-0.08778376877307892f,-0.07007341831922531f,0.012012414634227753f,0.05845584720373154f,0.0625920295715332f,-0.05562807247042656f,0.04564940556883812f,-0.0052032265812158585f,-0.0022088359110057354f,-0.0010147147113457322f,0.026429444551467896f,-0.07217960804700851f,0.012356918305158615f,-0.018736526370048523f,-0.0250212624669075f,-0.08452217280864716f,0.01258403342217207f,0.0621982216835022f,-0.20270571112632751f,-0.037863753736019135f,0.03726083040237427f,0.07973604649305344f,0.09518564492464066f,-0.029981430619955063f,-0.08318649232387543f,0.055141035467386246f,-0.05294070020318031f,-0.012581993825733662f,0.02903209999203682f,-0.05192967504262924f,-0.010948730632662773f,0.01851610094308853f,-0.004532016813755035f,-0.11281456798315048f,0.11598409712314606f,-0.05379624292254448f,-0.11255786567926407f,-0.04507432132959366f,0.048266276717185974f,0.05935022979974747f,0.0388498455286026f,0.07969100773334503f,-0.08219388127326965f,0.010945952497422695f,0.004044690169394016f,-0.03672649711370468f,0.026095272973179817f,-0.07069890201091766f,0.011112578213214874f,0.008387899026274681f,-0.031574904918670654f,-0.029306737706065178f,-0.027682725340127945f,-0.009815877303481102f,0.023285862058401108f,-0.043571729212999344f,0.012322123162448406f,0.048910435289144516f,0.04483896493911743f,0.04161553084850311f,-0.06230958551168442f,0.0412304624915123f,-0.10899391770362854f,0.06339626014232635f,-0.001833934336900711f,-0.0608450323343277f,-0.015367800369858742f,-0.1032383143901825f,-0.04824312403798103f,0.004778792150318623f,-0.04994722083210945f,0.0762835144996643f,-0.04164690896868706f,-0.026101067662239075f,0.04151825234293938f,0.0722733587026596f,-0.003327047685161233f,0.035043865442276f,-0.02647465653717518f,0.059014588594436646f,-0.10505622625350952f,0.02336803451180458f,0.002387291518971324f,-0.05966707319021225f,-0.012668009847402573f,0.01453130878508091f,-0.1098422259092331f,-0.016796136274933815f,-0.07874558120965958f,-0.0776502713561058f,0.04690498858690262f,-0.029109332710504532f,0.007779726758599281f,0.053548745810985565f,0.01902872323989868f,0.04532775655388832f,-0.08026722073554993f,0.035260383039712906f,0.0005397715722210705f,-0.03474295511841774f,0.012566312216222286f,-0.08024920523166656f,0.0032421108335256577f,-0.03823678940534592f,0.011250650510191917f,-0.08272837102413177f,-0.23701399564743042f,-0.06386518478393555f,0.20406118035316467f,-0.07581426203250885f,0.022285185754299164f,0.0845082625746727f,0.08136753737926483f,0.031644515693187714f,-0.09798816591501236f,0.010349414311349392f,0.030941277742385864f,-0.058320991694927216f,0.03609098866581917f,-0.12802444398403168f,0.0006505178171209991f,-0.028118610382080078f,-0.008378760889172554f,0.015657098963856697f,0.04675114154815674f,0.1987200826406479f,-0.33238521218299866f,-0.020945996046066284f,0.006782842334359884f,0.01503604557365179f,-0.0014624734176322818f,0.0753459557890892f,-0.07856642454862595f,0.03781856596469879f,-0.028337934985756874f,0.014800047501921654f,-0.007616508286446333f,-0.12656284868717194f,0.002227172954007983f,-0.1583983302116394f,0.050372783094644547f,0.10289908945560455f,-0.01171428058296442f,-0.13540595769882202f,0.12916958332061768f,-0.060508545488119125f,0.0011713511776179075f,0.0128013975918293f,0.0454273596405983f,0.033851902931928635f,-0.007265809923410416f,0.00563258770853281f,-0.0754115954041481f,0.055067215114831924f,0.014632691629230976f,-0.11902434378862381f,0.027642440050840378f,-0.06188017874956131f,0.013880512677133083f,0.03278369456529617f,-0.060388918966054916f,0.1389526128768921f,-0.18673820793628693f,-0.04073217138648033f,-0.036754459142684937f,0.04495818167924881f,0.0036703518126159906f,0.05957914516329765f,-0.08382391929626465f,0.12296691536903381f,-0.06996354460716248f,-0.07090415060520172f,0.012135215103626251f,-0.1310601383447647f,0.028796851634979248f,-0.08089081197977066f,0.08748932927846909f,0.008678626269102097f,-0.034559477120637894f,-0.15496951341629028f,0.11370804160833359f,-0.0374571718275547f,-0.000807992066256702f,0.006284099537879229f,0.16518661379814148f,-0.07517186552286148f,-0.02559388428926468f,0.049308694899082184f,-0.0019286383176222444f,-0.0605764240026474f,0.019748283550143242f,-0.10692648589611053f,0.018023541197180748f,-0.0658099353313446f,-0.04151340201497078f,0.10254622250795364f,0.04933767393231392f,0.0099031962454319f,-0.13673856854438782f,-0.05895587429404259f,0.00518599571660161f,0.04644034430384636f,0.10751087963581085f,-0.05011231079697609f,0.0036279254127293825f,0.03173842281103134f,-0.027727415785193443f,0.01336791180074215f,0.0017745873192325234f,-0.09082180261611938f,-0.006264584604650736f,0.01778450421988964f,-0.07742028683423996f,0.04474494978785515f,-0.13114367425441742f,-0.008509188890457153f,0.030267683789134026f,-0.06978809833526611f,-0.027256621047854424f,0.04069400206208229f,0.11385440081357956f,0.05550653114914894f,-0.15535567700862885f,0.11292023956775665f,-0.12604770064353943f,-0.036080069839954376f,0.03245999291539192f,-0.10954222083091736f,-0.012570084072649479f,-0.0547739714384079f,0.009606440551578999f,0.015854058787226677f,0.17437195777893066f,-0.15101037919521332f,-0.11755771189928055f,-0.03911859169602394f,-0.0178427305072546f,0.03886530548334122f,0.09688923507928848f,0.018990283831954002f,-0.07065638154745102f,0.13059121370315552f,-0.10950949043035507f,-0.05243128538131714f,0.009800025261938572f,-0.08223124593496323f,0.015320755541324615f,-0.11232172697782516f,0.15131902694702148f,-0.02697809226810932f,0.06605980545282364f,0.1527111828327179f,-0.2789943516254425f,-0.019705450162291527f,0.005038407631218433f,0.04511873796582222f,0.06666040420532227f,0.009697316214442253f,-0.06801869720220566f,0.13325995206832886f,-0.15411123633384705f,-0.018859272822737694f,0.039788130670785904f,-0.12223257124423981f,0.009922519326210022f,-0.10030636191368103f,-0.01976269669830799f,0.07016850262880325f,0.007845241576433182f,-0.060002051293849945f,9.46256986935623e-05f,-0.06934931129217148f,-0.010375135578215122f,-0.001797690405510366f,0.06655149906873703f,0.06385694444179535f,-0.17238473892211914f,0.005397874861955643f,-0.005566723179072142f,0.029107889160513878f,0.001814760616980493f,-0.07293770462274551f,0.010752507485449314f,-0.09195341914892197f,-0.0057946969754993916f,0.07628272473812103f,-0.08973561972379684f,-0.1500278264284134f,0.17528827488422394f,0.022976115345954895f,-0.026717228814959526f,-0.01884469948709011f,0.06734886765480042f,-0.05449620261788368f,-0.012441491708159447f,-0.00683983089402318f,-0.004118672106415033f,0.02053552120923996f,0.013281213119626045f,-0.04688426852226257f,0.0032020185608416796f,-0.07674544304609299f,-0.024298541247844696f,0.08976738899946213f,0.01332054939121008f,0.043991606682538986f,-0.15765200555324554f,0.02883368916809559f,-0.019088149070739746f,-0.04252336919307709f,0.06654182821512222f,-0.05392035096883774f,-0.05571027845144272f,0.059610515832901f,-0.09431930631399155f,0.08723261207342148f,0.012215040624141693f,-0.07747999578714371f,-0.0035456812474876642f,0.04402093589305878f,-0.04888521879911423f,-0.015241983346641064f,-0.18719933927059174f,0.022157251834869385f,0.033460021018981934f,0.03441838175058365f,-0.017792562022805214f,-0.005298143718391657f,-0.06287519633769989f,0.029247337952256203f,-0.025929389521479607f,-0.02854122593998909f,-0.025333235040307045f,0.04324758052825928f,0.028106650337576866f,-0.05752428248524666f,0.007297086529433727f,-0.005721204914152622f,-0.07492383569478989f,-0.0038806479424238205f,0.024609258398413658f,-0.1937551647424698f,0.05668119341135025f,0.05241837725043297f,-0.05271410197019577f,-0.045829590409994125f,0.06964533776044846f,-0.05896925926208496f,-0.056617144495248795f,0.03797686845064163f,0.003342076437547803f,-0.017294635996222496f,0.00015991483815014362f,-0.06862302869558334f,-0.0023127805907279253f,0.057290032505989075f,0.0016538898926228285f,-0.08230580389499664f,0.09235481917858124f,-0.06883847713470459f,-0.08442907780408859f,0.04689794033765793f,-0.018741954118013382f,-0.03669465333223343f,0.0087409233674407f,0.0018390848999843001f,-0.05503302440047264f,0.03407597169280052f,-0.022956954315304756f,0.010283955372869968f,0.01946273073554039f,-0.069558285176754f,-0.017142796888947487f,-0.05489416792988777f,0.015181361697614193f,-0.03131183236837387f,-0.12609702348709106f,0.009523195214569569f,0.04314814880490303f,0.01947280392050743f,-0.004082873463630676f,-0.045599278062582016f,0.03295646980404854f,0.04148320481181145f,-0.10519729554653168f,-0.022697990760207176f,0.07642887532711029f,-0.0361042395234108f,-0.016479451209306717f,-0.08349497616291046f,-0.013889559544622898f,-0.10244975984096527f,0.028737032786011696f,0.01659727655351162f,0.054276712238788605f,-0.06558461487293243f,-0.0843069925904274f,0.012907165102660656f,-0.05141154304146767f,-0.022601112723350525f,0.05614563822746277f,0.02694597654044628f,-0.11325646936893463f,-0.033745232969522476f,0.007621002849191427f,0.09120068699121475f,0.015539655461907387f,-0.09322702884674072f,-0.00047860309132374823f,-0.014137448742985725f,0.0767582431435585f,-0.09706181287765503f,-0.13032473623752594f,0.17793411016464233f,-0.11422618478536606f,0.04373863339424133f,-0.05005508288741112f,-0.04063121974468231f,0.07998262345790863f,0.07599738985300064f,-0.17229561507701874f,0.08668322116136551f,-0.08904063701629639f,0.02662435919046402f,-0.006604428868740797f,-0.05563635379076004f,0.010354057885706425f,-0.0482957549393177f,-0.016515573486685753f,0.023085596039891243f,0.11060431599617004f,-0.10218188166618347f,-0.10775377601385117f,0.031051119789481163f,-0.0192626491189003f,-0.0031816428527235985f,0.15644507110118866f,0.1094227209687233f,-0.24811042845249176f,0.007451173383742571f,0.013769644312560558f,-0.004743147641420364f,-0.0011749033583328128f,-0.13602253794670105f,-0.02231965772807598f,-0.02439027465879917f,-0.004955211654305458f,-0.04417729005217552f,-0.10139358043670654f,-0.009292175993323326f,0.005456593818962574f,0.019118444994091988f,0.011677599512040615f,-0.002781917806714773f,0.04891549423336983f,0.10744854062795639f,-0.20501458644866943f,0.07394304871559143f,-0.005163104273378849f,-0.03970961645245552f,0.007993881590664387f,-0.14001058042049408f,-0.006917037535458803f,-0.03609936684370041f,-0.011408288031816483f,0.0333838053047657f,-0.082121342420578f,-0.08802627772092819f,0.10052339732646942f,0.025624314323067665f,-0.021825330331921577f,-0.035279735922813416f,0.16406400501728058f,0.03540473431348801f,-0.19318018853664398f,-0.05951043590903282f,0.021575504913926125f,0.07746630162000656f,0.019742848351597786f,-0.10065582394599915f,-0.02686960995197296f,0.0003949317615479231f,0.018419399857521057f,-0.07272019237279892f,0.03956383466720581f,-0.012913145124912262f,-0.06389608234167099f,0.003250485984608531f,-0.035232771188020706f,-0.014203543774783611f,0.16097892820835114f,0.1792457550764084f,-0.3141601085662842f,-0.12287227064371109f,0.07619400322437286f,0.09168153256177902f,0.03712981939315796f,-0.1319524347782135f,-0.01985032483935356f,0.10190712660551071f,-0.016854219138622284f,-0.12059571593999863f,0.002499024849385023f,-0.014185335487127304f,-0.0699475109577179f,0.013322248123586178f,-0.004174844361841679f,-0.048246730118989944f,0.0017271488904953003f,-0.033003415912389755f,-0.013466264121234417f,-0.018635524436831474f,0.033207688480615616f,-0.014278409071266651f,0.02429083175957203f,-0.12135691940784454f,-0.021519668400287628f,-0.01992565579712391f,-0.05036938190460205f,-0.016616761684417725f,0.009861519560217857f,-0.09193577617406845f,-0.02208752930164337f,0.0360499732196331f,0.001922413008287549f,-0.019752399995923042f,0.04151337221264839f,0.14400480687618256f,-0.1982230395078659f,0.051232632249593735f,-0.05867359787225723f,0.07867629826068878f,0.02905372343957424f,-0.10474708676338196f,0.00713090505450964f,-0.12035252153873444f,0.020560648292303085f,0.023222075775265694f,-0.024484243243932724f,-0.06085518002510071f,-0.026519695296883583f,0.02278813160955906f,-0.01653202809393406f,-0.019174644723534584f,0.2019699066877365f,0.02854772098362446f,-0.2730804979801178f,0.12079942971467972f,-0.0034396983683109283f,-0.020606333389878273f,0.005400360561907291f,-0.11454688012599945f,-0.02992194890975952f,-0.000638325756881386f,0.00816132128238678f,-0.03783522546291351f,0.04805966839194298f,-0.06907617300748825f,-0.032412346452474594f,0.03784182295203209f,-0.03017636574804783f,-0.04367753118276596f,0.07939944416284561f,0.1750725507736206f,-0.3079237639904022f,0.0015425289748236537f,0.027965683490037918f,0.028439177200198174f,0.017847450450062752f,-0.12063486129045486f,-0.027434369549155235f,0.09413768351078033f,-0.06829170882701874f,-0.06824228167533875f,-0.01929718442261219f,0.03264894336462021f,-0.07478268444538116f,0.03459060192108154f,-0.022878335788846016f,-0.011876536533236504f,0.19064681231975555f,0.02775655873119831f,-0.19622986018657684f,0.1054176464676857f,0.0027514188550412655f,0.0008867671131156385f,0.03513409197330475f,-0.1264667510986328f,0.0015934130642563105f,-0.04999275505542755f,0.015699490904808044f,-0.003093554638326168f,-0.08919894695281982f,-0.1058771088719368f,0.09533915668725967f,0.00899695698171854f,-0.005210838746279478f,-0.03819780424237251f,0.07165052741765976f,0.09459393471479416f,-0.14896997809410095f,0.06507650017738342f,-0.023298965767025948f,-0.07291041314601898f,-0.01655266247689724f,-0.07364111393690109f,-0.027167974039912224f,-0.1295272409915924f,0.09955169260501862f,0.03714663162827492f,-0.21562808752059937f,0.13913285732269287f,-0.01818070188164711f,-0.046331144869327545f,0.005373447667807341f,-0.013165396638214588f,0.04470962658524513f,0.05905933305621147f,-0.09850306808948517f,0.0494970828294754f,-0.08559544384479523f,-0.0021124444901943207f,0.012277769856154919f,-0.07646740972995758f,-0.016507038846611977f,-0.004784475080668926f,0.04675401747226715f,-0.030215177685022354f,0.01316574215888977f,-0.04310307651758194f,-0.09630047529935837f,-0.07208608090877533f,0.010068620555102825f,-0.008551109582185745f,0.09581093490123749f,0.007355858106166124f,-0.10093064606189728f,0.05770287290215492f,-0.09502726048231125f,0.061959534883499146f,-0.024491358548402786f,-0.05367957428097725f,-0.026268698275089264f,-0.06825483590364456f,-0.12225917726755142f,0.14425188302993774f,-0.034838441759347916f,-0.1326277107000351f,0.0873010903596878f,-0.04320316016674042f,0.044701654464006424f,-0.043465640395879745f,0.01401517540216446f,-0.008642545901238918f,0.029361385852098465f,0.015330455265939236f,-0.041912972927093506f,0.04462653398513794f,-0.000850992975756526f,-0.04207136482000351f,-0.020055780187249184f,0.0974452868103981f,-0.050581421703100204f,-0.0789283886551857f,-0.0678223967552185f,-0.0629018023610115f,0.06451765447854996f,-0.07748881727457047f,0.007726763840764761f,-0.018955355510115623f,0.0808938667178154f,-0.012681078165769577f,-0.09275893867015839f,0.004642401821911335f,-0.08271416276693344f,0.06934618949890137f,0.02039463259279728f,-0.06869551539421082f,-0.01532023586332798f,-0.027903687208890915f,-2.3350114133791067e-05f,0.027698451653122902f,0.01211871299892664f,-0.030276751145720482f,-0.07003004848957062f,-0.06854697316884995f,0.027758263051509857f,-0.03016098029911518f,-0.011611985974013805f,0.024833543226122856f,-0.0603814423084259f,0.027466492727398872f,-0.06088666990399361f,-0.0016046882374212146f,0.02045167237520218f,-0.07516122609376907f,-0.02430058643221855f,-0.008745000697672367f,0.08671443164348602f,-0.06544667482376099f,-0.06134381145238876f,0.02991427667438984f,-0.07803519815206528f,-0.05559826269745827f,0.028151003643870354f,-0.031113192439079285f,0.06800269335508347f,0.01900663413107395f,-0.06614582985639572f,0.03245275840163231f,-0.06790263205766678f,0.07349813729524612f,-0.022792328149080276f,-0.039443355053663254f,-0.005780709441751242f,-0.10066438466310501f,0.06535732746124268f,0.05513104796409607f,-0.00449313735589385f,-0.07801014184951782f,0.027941279113292694f,-0.06898420304059982f,0.003792144823819399f,-0.020380252972245216f,0.04440135881304741f,0.04172199219465256f,-0.09246981889009476f,0.009462914429605007f,0.0406697541475296f,-0.03878725320100784f,-0.023673858493566513f,-0.07001228630542755f,-0.022574150934815407f,0.05044880509376526f,-0.011675861664116383f,-0.020955098792910576f,0.17344187200069427f,-0.11835478246212006f,-0.1483321189880371f,-0.04107959195971489f,0.021834097802639008f,-0.022589750587940216f,0.04334716126322746f,0.0340443029999733f,-0.057449452579021454f,0.09615156054496765f,-0.026769444346427917f,-0.08431326597929001f,0.01853521168231964f,-0.0706324502825737f,0.0011754889274016023f,0.07190119475126266f,0.042252205312252045f,-0.11772128939628601f,-0.01792021282017231f,-0.04611867666244507f,-0.008786564692854881f,-0.06061762943863869f,0.0253318939357996f,-0.037968918681144714f,0.12437847256660461f,0.16360686719417572f,-0.22477680444717407f,0.10542721301317215f,-0.016623184084892273f,-0.10686168074607849f,0.0343526192009449f,-0.08495467156171799f,0.021420074626803398f,-0.0969022735953331f,-0.041494425386190414f,-0.04130689799785614f,0.10726679861545563f,-0.03539769724011421f,-0.08715838938951492f,0.025430435314774513f,0.027019482105970383f,0.02887042798101902f,0.059188343584537506f,0.036074139177799225f,-0.044653575867414474f,0.07645218819379807f,-0.06395097821950912f,-0.04267864674329758f,0.014166505075991154f,-0.08234521001577377f,0.010712985880672932f,-0.07536645233631134f,-0.06353578716516495f,0.004521812777966261f,-0.018220936879515648f,-0.0013809925876557827f,0.02351967617869377f,0.019148917868733406f,0.0013355466071516275f,0.056814368814229965f,0.06382263451814651f,0.025371883064508438f,-0.11074447631835938f,-0.004849127493798733f,-0.10041364282369614f,0.05094873905181885f,0.05558576062321663f,-0.09667765349149704f,-0.007217952515929937f,-0.04604446142911911f,-0.03645983710885048f,-0.050343677401542664f,0.0510530062019825f,-0.06297803670167923f,-0.056760385632514954f,0.024977942928671837f,0.03153776377439499f,0.03230569139122963f,0.03530547022819519f,0.01767592877149582f,-0.07532160729169846f,0.09017004817724228f,-0.19127163290977478f,0.04887523874640465f,0.008300989866256714f,-0.07402919977903366f,-0.013523854315280914f,-0.052370261400938034f,-0.009155876003205776f,-0.04642384871840477f,-0.15754655003547668f,0.20790311694145203f,-0.09895076602697372f,0.027178095653653145f,-0.005402917508035898f,0.030912049114704132f,0.10254060477018356f,-0.04469199478626251f,-0.08127535134553909f,0.11265558004379272f,-0.15886637568473816f,-0.027264738455414772f,0.0491471104323864f,-0.07871285825967789f,0.02282133884727955f,-0.052638113498687744f,-0.02901977114379406f,-0.06331488490104675f,0.030031932517886162f,-0.06613463163375854f,0.05075634643435478f,-0.009146040305495262f,0.02607826143503189f,0.046163011342287064f,0.09178339689970016f,0.10136728733778f,-0.09675636142492294f,0.08446510881185532f,-0.0709691196680069f,-0.06435149908065796f,0.027372220531105995f,-0.10557444393634796f,0.013092688284814358f,-0.0478476956486702f,-0.047787994146347046f,-0.07876255363225937f,0.09106393903493881f,-0.153367280960083f,0.0600283183157444f,-0.018969304859638214f,0.0051368060521781445f,0.040663015097379684f,0.007956836372613907f,0.07870011776685715f,0.0030323658138513565f,0.054504670202732086f,-0.08266595751047134f,-0.03988921269774437f,0.034623101353645325f,-0.07479701191186905f,-0.014454040676355362f,0.027730325236916542f,-0.15561839938163757f,-0.03250621631741524f,-0.008637085556983948f,-0.004999575205147266f,-0.0724501982331276f,0.03142556548118591f,-0.008442670106887817f,0.025852449238300323f,0.0685676857829094f,0.019339246675372124f,-0.07283288240432739f,0.06422960758209229f,-0.030348628759384155f,-0.11482883989810944f,0.04058846831321716f,-0.0831509456038475f,-0.007602966856211424f,-0.06706470996141434f,-0.05693778395652771f,-0.00708038778975606f,-0.17615966498851776f,-0.0911559909582138f,0.18120545148849487f,0.027413703501224518f,-0.006783665157854557f,0.05608248710632324f,0.06784044951200485f,-0.03086583875119686f,-0.03278131037950516f,0.10952481627464294f,-0.04463866725564003f,-0.06381672620773315f,0.028283046558499336f,-0.09249579161405563f,0.0045135789550840855f,-0.05667095258831978f,0.030177878215909004f,-0.08535841107368469f,0.008266967721283436f,-0.05816631764173508f,0.002906388370320201f,0.02774544060230255f,-0.013978220522403717f,0.05316309258341789f,0.1021260991692543f,0.0984649509191513f,-0.19232015311717987f,0.018225906416773796f,0.003544049570336938f,-0.002900482155382633f,0.02755798026919365f,-0.06240236759185791f,-0.029941918328404427f,0.12548038363456726f,-0.1334930807352066f,-0.035974401980638504f,-0.02662281133234501f,0.011409998871386051f,-0.09345997869968414f,-0.019561130553483963f,0.04908846691250801f,-0.043778762221336365f,0.017871156334877014f,-0.003554660826921463f,-0.004183260723948479f,0.05486523360013962f,-0.054331451654434204f,-0.011081956326961517f,0.001980422530323267f,-0.0641634464263916f,-0.030421912670135498f,-0.0004061894433107227f,-0.00764802098274231f,-0.011696049943566322f,-0.006322290748357773f,-0.12689416110515594f,0.01790463738143444f,-0.0013093020534142852f,0.03209139406681061f,-0.01092742383480072f,0.07496461272239685f,-0.0037453961558640003f,-0.03908449038863182f,0.0750117376446724f,-0.07851824164390564f,-0.018197588622570038f,-0.012638028711080551f,-0.07938194274902344f,-0.006462511140853167f,0.007508279290050268f,0.05593012645840645f,-0.0644824206829071f,-0.04322979226708412f,-0.028224965557456017f,-0.10457595437765121f,0.010810240171849728f,0.00349007872864604f,-0.011872499249875546f,0.08102553337812424f,-0.013955390080809593f,-0.030532557517290115f,-0.04678681865334511f,-0.037526194006204605f,0.031650155782699585f,-0.010775651782751083f,-0.0567636713385582f,0.0021848527248948812f,0.019398357719182968f,-0.10542715340852737f,0.0519326776266098f,-0.013300582766532898f,0.019775787368416786f,-0.0961088165640831f,-0.015161151997745037f,0.007262738421559334f,-0.010761995799839497f,0.11537867784500122f,0.0072400327771902084f,-0.10055412352085114f,0.05809605494141579f,-0.050180722028017044f,0.018129419535398483f,0.02637695148587227f,-0.06381966173648834f,-0.021994849666953087f,0.014305775985121727f,0.01741129159927368f,-0.054459523409605026f,-0.08092360943555832f,-0.03581519424915314f,0.015865329653024673f,-0.006067361682653427f,0.013322917744517326f,-0.029492447152733803f,0.062211330980062485f,-0.0028968597762286663f,-0.0877116471529007f,0.025643091648817062f,-0.042949315160512924f,0.00768895260989666f,-0.011048446409404278f,-0.06922049820423126f,-0.017661521211266518f,-0.0903991162776947f,0.053173378109931946f,0.021757077425718307f,-0.13925684988498688f,-0.013822742737829685f,0.007921378128230572f,0.012177306227385998f,0.03610789775848389f,-0.022213663905858994f,0.06937149912118912f,0.020308002829551697f,-0.1114831417798996f,0.05106380581855774f,-0.1573977768421173f,0.04208744689822197f,-0.016465073451399803f,-0.07070711255073547f,-0.0172727033495903f,-0.14213399589061737f,0.016169747337698936f,0.08676748722791672f,-0.0412527397274971f,-0.10095372796058655f,0.0551837794482708f,-0.012387513183057308f,0.03528740257024765f,0.005870015360414982f,-0.02015845477581024f,0.09468261152505875f,-0.022809697315096855f,-0.0026383192744106054f,0.025151265785098076f,-0.023360684514045715f,0.01743609644472599f,-0.08320452272891998f,-0.02018478512763977f,0.023995812982320786f,-0.01612986996769905f,-0.010712004266679287f,-0.0176389180123806f,-0.06597916781902313f,-0.033984266221523285f,-0.013745274394750595f,0.04383146017789841f,-0.015330987982451916f,0.036887604743242264f,0.08068080991506577f,-0.16151027381420135f,0.12117303907871246f,-0.1026921421289444f,0.0038598442915827036f,0.021948138251900673f,-0.0680721253156662f,0.0008333201985806227f,0.04370999336242676f,-0.025781121104955673f,-0.04409012943506241f,-0.04805007576942444f,-0.022002996876835823f,-0.029161673039197922f,0.0007400212343782187f,0.04834391549229622f,0.0023649046197533607f,0.10380730777978897f,0.10655922442674637f,-0.22107471525669098f,0.1332179456949234f,-0.005212262738496065f,-0.10693100094795227f,0.008627594448626041f,-0.11633305251598358f,-0.005052011925727129f,0.0685800313949585f,-0.07314667850732803f,0.03808509185910225f,-0.15969142317771912f,-0.19789251685142517f,0.30161839723587036f,-0.03753603994846344f,-0.04638848826289177f,-0.03638467565178871f,0.048860348761081696f,0.14753273129463196f,-0.1634959876537323f,0.0408877395093441f,-0.04028654471039772f,-0.04925522208213806f,0.01946554146707058f,-0.10040594637393951f,-0.007130158133804798f,-0.058413177728652954f,0.12780386209487915f,-0.0704767033457756f,-0.098646380007267f,0.15139637887477875f,-0.10739493370056152f,-0.034411314874887466f,-0.05062960088253021f,0.0052302866242825985f,0.08803898096084595f,0.05418970063328743f,-0.12457001209259033f,0.07701949030160904f,-0.05197732523083687f,-0.026546983048319817f,0.04542858153581619f,-0.0680348202586174f,0.014672511257231236f,0.0055756354704499245f,0.022970864549279213f,-0.03088560700416565f,-0.04986896365880966f,0.03463194519281387f,-0.02420974150300026f,-0.040226057171821594f,-0.026853181421756744f,-0.030574792996048927f,0.09591448307037354f,0.01093172188848257f,-0.08425036072731018f,0.06744014471769333f,-0.060165323317050934f,-0.03194018825888634f,0.052574049681425095f,-0.10796646028757095f,0.002488903934136033f,0.027710944414138794f,-0.05654856562614441f,0.0020560817793011665f,-0.1386803239583969f,0.023343652486801147f,0.10184292495250702f,-0.03934744745492935f,-0.030859995633363724f,-0.024945560842752457f,0.11032988131046295f,0.013737563043832779f,-0.11906129866838455f,0.0409436970949173f,0.0149568235501647f,-0.09968365728855133f,0.042140357196331024f,-0.06748220324516296f,0.010064218193292618f,-0.03002413921058178f,0.0031590110156685114f,-0.008443482220172882f,0.1117611974477768f,-0.1795567274093628f,0.013704763725399971f,-0.04879642277956009f,-0.03625284880399704f,-0.027547672390937805f,0.10191579908132553f,0.06590013206005096f,-0.1475033313035965f,0.03721625357866287f,0.01533915288746357f,-0.069289430975914f,0.011200041510164738f,-0.10774852335453033f,-0.02809637226164341f,0.08619978278875351f,-0.062296364456415176f,-0.024132082238793373f,0.01084651704877615f,0.11619268357753754f,-0.12706489861011505f,-0.016769971698522568f,-0.022502420470118523f,0.006887234281748533f,0.08422799408435822f,0.04458882659673691f,-0.11011932045221329f,0.07840026915073395f,-0.13683810830116272f,0.006247875280678272f,0.02358791045844555f,-0.07022029906511307f,-0.02859562821686268f,-0.05260937288403511f,0.09482935070991516f,-0.0725960060954094f,-0.04794645309448242f,0.20004534721374512f,-0.19609445333480835f,-0.03622277453541756f,-0.021288996562361717f,-0.0060462611727416515f,0.03475697711110115f,0.06568780541419983f,-0.09615025669336319f,0.06738906353712082f,-0.05098554119467735f,-0.028230512514710426f,0.04657811298966408f,-0.10323547571897507f,-0.02137310802936554f,-0.021285513415932655f,-0.015033151023089886f,-0.002471532206982374f,0.14116176962852478f,-0.15696537494659424f,-0.04389504715800285f,-0.028146935626864433f,-0.035844605416059494f,0.0032190666534006596f,0.022173278033733368f,0.1438254863023758f,-0.1512884497642517f,0.0020610694773495197f,-0.02529379539191723f,0.004491314757615328f,0.02983899414539337f,-0.09316074103116989f,-0.013343598693609238f,0.03117489255964756f,-0.0014287126250565052f,-0.039137206971645355f,0.01017641369253397f,0.14009331166744232f,-0.12867389619350433f,-0.031571198254823685f,-0.04943963140249252f,-0.028700152412056923f},
{0.1148604080080986f,-0.0514381043612957f,-0.08668827265501022f,0.03727975860238075f,-0.00859053060412407f,-0.14827163517475128f,-0.053893495351076126f,0.02487006224691868f,0.09320640563964844f,0.03236168622970581f,0.07133438438177109f,-0.12673167884349823f,-0.0072054266929626465f,-0.004229001700878143f,0.02441873960196972f,-0.02008899860084057f,-0.03349079191684723f,0.050067659467458725f,0.1148541271686554f,-0.03294379636645317f,-0.1074247881770134f,-0.15424400568008423f,0.21152903139591217f,-0.22821243107318878f,-0.06807459145784378f,0.0459931418299675f,0.08703410625457764f,-0.036243438720703125f,0.09346930682659149f,-0.08863701671361923f,-0.1120416522026062f,-0.021484754979610443f,0.09241426736116409f,-0.010859555564820766f,-0.028960244730114937f,0.04205337166786194f,-0.00785412359982729f,-0.2216292917728424f,0.2127908617258072f,-0.1120794489979744f,0.1603752225637436f,-0.16747194528579712f,-0.07356958836317062f,0.0568678081035614f,0.06662306934595108f,-0.07412528991699219f,0.11048442125320435f,-0.07271267473697662f,0.015283576212823391f,-0.11597761511802673f,0.07605493813753128f,-0.02899957075715065f,-0.06747967004776001f,0.02568010799586773f,0.0771888941526413f,-0.09568018466234207f,0.011201445013284683f,-0.11464676260948181f,0.25564736127853394f,-0.2212257981300354f,-0.07395803183317184f,0.03446785733103752f,0.04772476479411125f,-0.07119517028331757f,-0.18938103318214417f,0.245341956615448f,-0.1019028052687645f,-0.06906265020370483f,0.17740170657634735f,0.0015277634374797344f,-0.048842161893844604f,0.032580677419900894f,-0.06525857746601105f,0.020906604826450348f,0.012572994455695152f,-0.08323848247528076f,0.08824916929006577f,-0.13553470373153687f,-0.07104825973510742f,0.0432998463511467f,0.04431639611721039f,0.041208188980817795f,0.28659480810165405f,-0.39127859473228455f,-0.04827741160988808f,0.18552985787391663f,-0.1710406392812729f,-0.030428409576416016f,-0.06163067743182182f,0.05244241654872894f,-0.24047908186912537f,0.09893985837697983f,0.17271921038627625f,-0.13848882913589478f,0.04942648857831955f,-0.0615108348429203f,-0.041203573346138f,0.03179220110177994f,0.0809050127863884f,0.15323534607887268f,-0.14352844655513763f,-0.053228605538606644f,0.13846498727798462f,-0.02504049986600876f,-0.11637283861637115f,-0.028173580765724182f,-0.019871540367603302f,0.02861049585044384f,-0.040295422077178955f,-0.12665314972400665f,0.09752213954925537f,-0.011615307070314884f,-0.017245538532733917f,-0.12282837927341461f,-0.023805048316717148f,0.0448010079562664f,0.0745474249124527f,-0.13679659366607666f,0.17126204073429108f,0.001957594882696867f,-0.031792864203453064f,0.006658206693828106f,0.012859174981713295f,-0.044529758393764496f,-0.023782478645443916f,0.030025096610188484f,-0.10866416990756989f,0.20006833970546722f,-0.11201263964176178f,-0.07068756967782974f,0.11127346754074097f,-0.18424098193645477f,-0.040474358946084976f,0.041114699095487595f,0.08268123120069504f,-0.1468847543001175f,0.1748891919851303f,-0.04637732729315758f,0.010107995010912418f,-0.06136596202850342f,0.03965411335229874f,-0.0008798665949143469f,-0.03897015377879143f,0.059541452676057816f,0.06136408820748329f,-0.2120913416147232f,0.12637442350387573f,-0.05214095115661621f,0.0743681862950325f,-0.133407324552536f,-0.05034466087818146f,0.056927308440208435f,0.06535807251930237f,0.09836844354867935f,0.05799249932169914f,-0.1562889814376831f,0.09474387764930725f,-0.116190604865551f,-0.02026037685573101f,-0.03912696614861488f,-0.058591753244400024f,0.046301860362291336f,-0.012443199753761292f,-0.21062056720256805f,0.1652863472700119f,0.009571384638547897f,-0.17543496191501617f,0.0780615583062172f,-0.04795859009027481f,0.043459609150886536f,0.0014202722813934088f,0.0879579558968544f,0.06439593434333801f,-0.2270212024450302f,0.06438597291707993f,0.13830211758613586f,-0.1642715483903885f,0.022986438125371933f,-0.05229400470852852f,0.01808488368988037f,-0.1380671262741089f,-0.043146587908267975f,0.13091397285461426f,-0.0320577546954155f,-0.04829031601548195f,0.06339705735445023f,-0.028597025200724602f,0.03525182977318764f,0.011309204623103142f,-0.2035389542579651f,0.3239046037197113f,-0.17979048192501068f,-0.09403229504823685f,0.19244302809238434f,-0.16288983821868896f,-0.00428049499168992f,-0.022663842886686325f,0.0548807829618454f,0.07093904912471771f,-0.2319001853466034f,0.12132908403873444f,-0.14917340874671936f,-0.04195493832230568f,0.14543846249580383f,-0.029886925593018532f,0.050892654806375504f,0.014990855939686298f,0.089762844145298f,0.0807851180434227f,-0.20610064268112183f,-0.03738844394683838f,0.09239766746759415f,-0.13452255725860596f,-0.004947128240019083f,-0.04476074129343033f,0.048761047422885895f,0.145895317196846f,-0.16416306793689728f,-0.02176874689757824f,-0.05680379644036293f,-0.13454745709896088f,0.11393676698207855f,-0.026854924857616425f,0.020510898903012276f,-0.009359322488307953f,0.28069645166397095f,-0.20240448415279388f,-0.13400116562843323f,0.18263959884643555f,-0.10874015092849731f,-0.03551357612013817f,0.030224420130252838f,-0.046472445130348206f,0.04881371185183525f,0.16716249287128448f,-0.1932191699743271f,-0.014952822588384151f,0.14557288587093353f,-0.2536357641220093f,0.06089174374938011f,-0.029940327629446983f,0.020232392475008965f,0.013876305893063545f,0.04103870689868927f,-0.4165714383125305f,0.3227912187576294f,-0.16720907390117645f,0.25977054238319397f,-0.08939585834741592f,0.014521913602948189f,-0.03053065948188305f,0.05557394027709961f,0.039594512432813644f,-0.2735612690448761f,0.21021100878715515f,0.01682758517563343f,-0.22893302142620087f,0.12054421007633209f,-0.013150261715054512f,0.0361158549785614f,-0.007466408424079418f,0.1465645283460617f,-0.2646193206310272f,0.07923144102096558f,0.18604926764965057f,-0.15349826216697693f,0.0035281756427139044f,0.007651892025023699f,-0.05533387511968613f,0.01480267383158207f,-0.030173175036907196f,-0.11607139557600021f,0.08874357491731644f,-0.06349403411149979f,-0.15640124678611755f,0.14832039177417755f,-0.023988595232367516f,0.02039731666445732f,0.005777842830866575f,-0.08083789795637131f,0.3242083489894867f,-0.29106494784355164f,0.1522253006696701f,0.15270918607711792f,-0.29411032795906067f,0.010653529316186905f,-0.028380820527672768f,0.014820516109466553f,0.06874093413352966f,-0.24978864192962646f,0.08393387496471405f,0.1256893277168274f,-0.2011302411556244f,0.0025249978061765432f,-0.029994413256645203f,0.05989736691117287f,0.028958572074770927f,-0.30604761838912964f,0.38592901825904846f,-0.14169390499591827f,-0.10765298455953598f,0.11953451484441757f,-0.04878254607319832f,0.008442670106887817f,-0.022196674719452858f,0.05734043940901756f,0.051000531762838364f,-0.1024392619729042f,0.008931520394980907f,-0.02568168006837368f,-0.008361531421542168f,-0.0638076439499855f,-0.018633587285876274f,0.016309550032019615f,-0.0010697139659896493f,-0.05423690006136894f,0.4599751830101013f,-0.42182958126068115f,-0.027225930243730545f,0.1965056210756302f,-0.16970396041870117f,0.008847018703818321f,-0.04805218428373337f,0.014813343994319439f,0.018572553992271423f,-0.1734621524810791f,0.20262879133224487f,0.04424247145652771f,-0.49524927139282227f,0.38531672954559326f,-0.06880833953619003f,0.05658021941781044f,0.02440766617655754f,-0.07067456841468811f,0.18368645012378693f,-0.17538601160049438f,0.0025795965921133757f,0.06545975804328918f,-0.06148197874426842f,0.04944959655404091f,-0.03402990847826004f,-0.034640297293663025f,0.11307637393474579f,-0.12149552255868912f,0.04907993972301483f,-0.0082817692309618f,0.01155874039977789f,-0.14999715983867645f,-0.08618868142366409f,0.04632149264216423f,-0.011977709829807281f,0.0087541239336133f,-0.06973458081483841f,-0.003549403278157115f,-0.06290023028850555f,0.16080725193023682f,-0.12522941827774048f,0.03459085896611214f,-0.04040927812457085f,0.005098214838653803f,0.06361784785985947f,-0.05309323966503143f,0.06715184450149536f,-0.01510116457939148f,0.011241410858929157f,-0.06287875026464462f,-0.057938434183597565f,0.05093726888298988f,0.022846922278404236f,0.12159362435340881f,0.10160016268491745f,-0.28281620144844055f,0.09414791315793991f,0.13788169622421265f,-0.24087589979171753f,0.07180337607860565f,-0.04789135605096817f,-0.020738208666443825f,0.02345617488026619f,0.18251675367355347f,-0.2016306072473526f,-0.13869358599185944f,0.22213847935199738f,-0.2016354501247406f,-0.07272826880216599f,0.02935710735619068f,0.00784784834831953f,-0.02012903243303299f,0.07211316376924515f,-0.123927041888237f,-0.022112973034381866f,0.13121728599071503f,-0.09617471694946289f,0.04124733805656433f,-0.038780577480793f,-0.03312687948346138f,0.04903756082057953f,-0.08885737508535385f,0.034880660474300385f,0.04580385982990265f,-0.05248452350497246f,-0.06710445135831833f,-0.05875981226563454f,0.06051133945584297f,0.02399023436009884f,-0.06667300313711166f,0.23088881373405457f,-0.22574633359909058f,0.061651561409235f,0.11475300043821335f,-0.17090782523155212f,0.04546799510717392f,-0.02340400032699108f,-0.017288701608777046f,0.05780238285660744f,-0.16151981055736542f,0.13561739027500153f,-0.0029877792112529278f,-0.4574928879737854f,0.3499259352684021f,-0.03968685120344162f,0.020264757797122f,0.025816218927502632f,-0.16462354362010956f,0.12648244202136993f,-0.03718921169638634f,0.04641235992312431f,0.02104627527296543f,-0.08166458457708359f,0.02115827240049839f,-0.03976399078965187f,-0.009942048229277134f,0.030006343498826027f,-0.21945074200630188f,0.2724328339099884f,-0.12489800155162811f,-0.2857207953929901f,0.3372270166873932f,-0.07101977616548538f,0.051138926297426224f,-0.020831778645515442f,0.03170771524310112f,0.14255519211292267f,-0.22458748519420624f,-0.04357941076159477f,0.058804553002119064f,-0.06661289930343628f,0.025852777063846588f,-0.033060699701309204f,-0.03880230337381363f,-0.08239006996154785f,-0.051730845123529434f,0.15865886211395264f,-0.02848399057984352f,-0.11009790748357773f,0.07781276106834412f,-0.03990698233246803f,0.022848714143037796f,-0.022162145003676414f,0.022620245814323425f,-0.005147790536284447f,-0.0419015996158123f,0.03484145179390907f,-0.009807614609599113f,-0.06661258637905121f,0.036511946469545364f,-0.049376361072063446f,-0.03171265497803688f,-0.01309183333069086f,0.003609676379710436f,0.027384428307414055f,-0.04317205026745796f,0.10857425630092621f,-0.15303103625774384f,-0.08206816017627716f,0.0158347450196743f,-0.004467396065592766f,0.19060909748077393f,-0.14511199295520782f,-0.11716507375240326f,0.04190759360790253f,0.23702359199523926f,-0.2988678514957428f,0.06281448900699615f,-0.0317370779812336f,-0.018831418827176094f,-0.0007507667178288102f,-0.3333922028541565f,0.24346008896827698f,-0.01905202865600586f,-0.23370252549648285f,0.2546645402908325f,-0.046289943158626556f,0.035720549523830414f,-0.01441208366304636f,-0.015419218689203262f,-0.29713040590286255f,0.2595217227935791f,-0.10448024421930313f,-0.16933369636535645f,0.2127983421087265f,0.0808010920882225f,-0.015434819273650646f,-0.05184702202677727f,0.029187101870775223f,-0.04485804960131645f,-0.040013134479522705f,-0.057379189878702164f,-0.08386842161417007f,0.16229495406150818f,-0.03266396000981331f,0.009974162094295025f,0.018226997926831245f,-0.018335340544581413f,0.12368427962064743f,-0.157124862074852f,0.0018601954216137528f,-0.015393407084047794f,-0.04776361212134361f,0.05362214148044586f,-0.007277435623109341f,-0.010801597498357296f,0.11548714339733124f,-0.2737691402435303f,0.12500786781311035f,0.03731982409954071f,-0.07251536101102829f,0.055145055055618286f,-0.05669324845075607f,-0.0033013424836099148f,0.013709116727113724f,0.06383629888296127f,-0.2286766767501831f,0.1388215720653534f,-0.010224060155451298f,-0.05595551058650017f,0.012831096537411213f,0.0575643815100193f,-0.020866338163614273f,-0.009980724193155766f,-0.09553395956754684f,-0.02631196565926075f,0.046145737171173096f,-0.03654104098677635f,0.02944192662835121f,-0.024709973484277725f,-0.06053149700164795f,0.031340520828962326f,-0.0027989759109914303f,0.04185820743441582f,-0.08328140527009964f,0.0075767007656395435f,-0.0006959615857340395f,-0.050057027488946915f,-0.035338394343853f,0.03394274041056633f,0.009774858132004738f,-0.05050197243690491f,0.032313380390405655f,-0.09675797820091248f,0.025942357257008553f,0.08379784971475601f,-0.15178388357162476f,0.07468772679567337f,-0.026927601546049118f,0.013023423962295055f,0.004656653851270676f,0.008644684217870235f,0.36884862184524536f,-0.4182564616203308f,0.16777901351451874f,-0.04984324797987938f,-0.210638627409935f,0.04441514238715172f,-0.010715403594076633f,-0.03543772175908089f,0.041524533182382584f,-0.17248772084712982f,0.07690759003162384f,0.006634481716901064f,-0.20874075591564178f,0.20736216008663177f,-0.06456269323825836f,0.011778385378420353f,-0.008359045721590519f,0.17524701356887817f,-0.1740228533744812f,0.023536600172519684f,0.09341453015804291f,0.03096037730574608f,-0.20479841530323029f,0.04967202991247177f,0.010567671619355679f,-0.04019962251186371f,-0.04912097752094269f,-0.18802782893180847f,0.19271841645240784f,-0.10943515598773956f,-0.10253084450960159f,0.19066321849822998f,-0.04507027938961983f,-0.011660304851830006f,0.01896699145436287f,-0.26261040568351746f,0.41688576340675354f,-0.1606082320213318f,0.009762563742697239f,0.22266776859760284f,-0.2654761075973511f,0.06905892491340637f,-0.015570510178804398f,-0.04075423628091812f,0.08830437809228897f,-0.33842694759368896f,0.19374050199985504f,0.020326968282461166f,-0.28276267647743225f,0.2931266129016876f,-0.04186657443642616f,0.024136466905474663f,-0.020452534779906273f,-0.1999070644378662f,0.2889127731323242f,-0.08625820279121399f,-0.012954061850905418f,0.03658362850546837f,-0.05045880004763603f,0.05537586286664009f,-0.005287821404635906f,-0.032147519290447235f,0.05745363235473633f,-0.1786307692527771f,0.08048044145107269f,-0.16580404341220856f,-0.07096067816019058f,0.2394491732120514f,-0.03795189782977104f,-0.0024986560456454754f,0.011274969205260277f,-0.04339958354830742f,0.07901714742183685f,-0.04146376997232437f,0.00015631919086445123f,-0.07687471061944962f,-0.008939567022025585f,0.05583463981747627f,0.0027265974786132574f,-0.0089200958609581f,0.08123406022787094f,-0.2888059914112091f,0.15320320427417755f,0.09050165116786957f,-0.3476225733757019f,0.22516204416751862f,0.0036213109269738197f,0.008867956697940826f,0.01518695056438446f,0.05343571677803993f,0.4798392951488495f,-0.4375723898410797f,-0.02382802963256836f,0.25501710176467896f,-0.2605237364768982f,0.03739948198199272f,-0.10336009413003922f,-0.03695140779018402f,0.03679293766617775f,-0.1360395848751068f,0.08463180810213089f,-0.06918720155954361f,-0.025298984721302986f,0.059342917054891586f,-0.03692878782749176f,0.02973400056362152f,-0.026036037132143974f,-0.015839073807001114f,-0.010546539910137653f,0.16726547479629517f,0.08605499565601349f,0.08090060204267502f,-0.2248690128326416f,0.01292503997683525f,-0.12387745827436447f,-0.040279559791088104f,0.09333841502666473f,-0.14888906478881836f,0.03625192865729332f,-0.1836840808391571f,0.08195813000202179f,0.08136159181594849f,-0.003514892654493451f,-0.01412975788116455f,-0.018311863765120506f,0.011895809322595596f,0.32304486632347107f,-0.22542864084243774f,-0.0775720551609993f,0.23406675457954407f,-0.20959557592868805f,0.03198736906051636f,-0.08889998495578766f,-0.02054232731461525f,0.06140023097395897f,-0.055021777749061584f,-0.08296676725149155f,-0.19672119617462158f,0.007031708024442196f,0.18480338156223297f,-0.03205287456512451f,0.006698093842715025f,-0.010234842076897621f,-0.005435104016214609f,0.15848352015018463f,-0.0339229553937912f,-0.10951651632785797f,0.3100656270980835f,-0.29866093397140503f,0.0388951376080513f,-0.11514990031719208f,-0.017667105421423912f,0.02436140738427639f,-0.054574690759181976f,0.014929557219147682f,0.005586111918091774f,-0.017028922215104103f,-0.007908705621957779f,-0.003165497211739421f,0.021819517016410828f,-0.011607534252107143f,-0.012220312841236591f,0.1028762236237526f,0.015318775549530983f,0.004515698179602623f,-0.054289888590574265f,0.0022503864020109177f,0.01255877036601305f,-0.13785475492477417f,-0.030251625925302505f,0.04240191727876663f,-0.2202514111995697f,0.10684431344270706f,-0.014814960770308971f,-0.2481832653284073f,0.19528746604919434f,-0.001219583791680634f,0.00497537013143301f,0.004914590623229742f,-0.06375124305486679f,0.03273454308509827f,0.17956134676933289f,0.08504094183444977f,-0.0984347015619278f,-0.03586376830935478f,0.024072548374533653f,-0.1030525490641594f,0.004568783566355705f,0.07908590137958527f,-0.14952561259269714f,0.02455083839595318f,-0.0052922689355909824f,-0.14152231812477112f,0.11743670701980591f,-0.02988225780427456f,0.017742136493325233f,-0.036126796156167984f,0.09190690517425537f,0.24754010140895844f,-0.22610270977020264f,0.08981775492429733f,-0.18678760528564453f,0.030158428475260735f,0.011159785091876984f,-0.1347600370645523f,-0.031139235943555832f,0.11870309710502625f,-0.12197962403297424f,-0.017605073750019073f,0.02656288631260395f,-0.2235574871301651f,0.16911324858665466f,-0.01698724739253521f,0.03475730121135712f,0.005146589130163193f,-0.06088339909911156f,0.08542494475841522f,0.09182706475257874f,0.1626632809638977f,0.0013387304497882724f,-0.2346125990152359f,0.034650612622499466f,-0.1318153440952301f,-0.004099835176020861f,0.2000799924135208f,-0.12234637886285782f,-0.0576019249856472f,0.13716472685337067f,-0.05530530586838722f,-0.06404279172420502f,-0.040888022631406784f,0.002896483289077878f,-0.026550043374300003f,0.0009618464973755181f,0.433719277381897f,-0.32546302676200867f,-0.0811333954334259f,0.20639194548130035f,-0.16215308010578156f,-0.008878244087100029f,-0.0949220061302185f,-0.006520043592900038f,-0.0778011903166771f,0.007871410809457302f,0.07246140390634537f,-0.1554788053035736f,0.10173894464969635f,0.005274948198348284f,-0.0485059916973114f,0.02522369474172592f,-0.01958501897752285f,-0.06221960484981537f,0.28067612648010254f,-0.3290034234523773f,-0.00900756474584341f,0.13413749635219574f,-0.12466852366924286f,0.0072907027788460255f,0.0006999761681072414f,-0.0054710484109818935f,-0.0545855350792408f,0.09928307682275772f,-0.08891662210226059f,-0.14777353405952454f,0.2606373727321625f,-0.15117408335208893f,-0.018289390951395035f,0.03944440558552742f,-0.0012970564421266317f,-0.15430524945259094f,0.11568767577409744f,-0.07729136943817139f,0.05354667827486992f,-0.009367863647639751f,-0.00426239799708128f,-0.0052253794856369495f,0.0014214523835107684f,-0.005804853513836861f,-0.05276932567358017f,0.08817996829748154f,-0.07311301678419113f,-0.14445751905441284f,0.29620423913002014f,-0.2422608733177185f,-0.043352946639060974f,0.025754064321517944f,0.0249521192163229f,-0.2108677178621292f,0.48327070474624634f,-0.36127933859825134f,-0.1622319519519806f,0.3149234354496002f,-0.09891101717948914f,0.0313994362950325f,0.0027289653662592173f,-0.004439620301127434f,0.0374959297478199f,0.0014680837048217654f,-0.050920333713293076f,-0.09720059484243393f,0.40175798535346985f,-0.40787747502326965f,-0.028209330514073372f,0.053814467042684555f,-0.004690137226134539f,-0.0153284827247262f,0.11850035190582275f,-0.20790742337703705f,-0.024075191468000412f,0.11945805698633194f,-0.0665988102555275f,0.016861269250512123f,0.0021616551093757153f,-0.03733329847455025f,-0.11300071328878403f,-0.19360807538032532f,0.29177126288414f,-0.20835909247398376f,0.2618861794471741f,-0.14244230091571808f,-0.004250574856996536f,0.06174573302268982f,0.02557247318327427f,0.0683864876627922f,-0.24937377870082855f,0.07173971831798553f,0.07616765052080154f,0.08754706382751465f,-0.11517267674207687f,0.02203187346458435f,0.033305823802948f,-0.031506288796663284f,-0.07006081193685532f,-0.012767315842211246f,0.059596989303827286f,0.022282231599092484f,-0.15798406302928925f,0.1155560314655304f,-0.012411991134285927f,0.022050514817237854f,0.021240558475255966f,-0.07364783436059952f,0.012687104754149914f,-0.03720344603061676f,0.012793967500329018f,0.029197029769420624f,-0.009503968060016632f,0.0327453538775444f,0.004185300786048174f,-0.024403728544712067f,-0.13715822994709015f,0.027757886797189713f,0.01917150989174843f,-0.10082925111055374f,0.11937493830919266f,-0.03564045950770378f,-0.030119124799966812f,0.05194583907723427f,0.021404877305030823f,-0.08606316149234772f,-0.1253969520330429f,0.11023314297199249f,0.13782647252082825f,0.1343308389186859f,-0.24670441448688507f,-0.01144497562199831f,-0.007569633889943361f,0.00953754037618637f,-0.13859601318836212f,0.03727024793624878f,0.08310645073652267f,-0.10905800014734268f,0.21778009831905365f,-0.15889297425746918f,-0.04119207710027695f,0.06935588270425797f,0.023359516635537148f,0.29007214307785034f,-0.12363970279693604f,-0.2405824214220047f,0.1438814103603363f,0.036857664585113525f,-0.1665491759777069f,0.026121191680431366f,-0.007359765470027924f,-0.015331713482737541f,-0.13402725756168365f,-0.01775571145117283f,0.1017846092581749f,-0.18619179725646973f,0.4104425609111786f,-0.2645259499549866f,-0.009576749056577682f,0.05333828553557396f,-0.00550152687355876f,0.16113950312137604f,-0.45745187997817993f,0.16889987885951996f,-0.16306258738040924f,0.02473880536854267f,0.12769359350204468f,0.0003304627607576549f,0.009079857729375362f,0.0010154444025829434f,-0.09250493347644806f,-0.19427399337291718f,0.25174960494041443f,-0.13459274172782898f,-0.07858207821846008f,0.16023822128772736f,-0.03776323422789574f,0.034805022180080414f,0.013120187446475029f,0.044897861778736115f,-0.2290494590997696f,0.12411794066429138f,-0.0014896005159243941f,0.20145078003406525f,-0.2914562523365021f,0.07378291338682175f,-0.05258413404226303f,0.03681846708059311f,-0.029532939195632935f,-0.07172626256942749f,0.06907918304204941f,-0.08051034063100815f,0.053644243627786636f,-0.021079789847135544f,-0.055048901587724686f,0.013877336867153645f,0.01575610041618347f,0.10459523648023605f,-0.0316326729953289f,-0.1014648899435997f,-0.09278356283903122f,-0.11389332264661789f,0.12627267837524414f,0.09371315687894821f,-0.03702877461910248f,0.05651969835162163f,-0.03687582537531853f,0.02432396449148655f,0.028517073020339012f,-0.0062296707183122635f,0.017589399591088295f,-0.10750699788331985f,-0.06309143453836441f,0.009173559956252575f,-0.011226127855479717f,-0.08150055259466171f,-0.06612195819616318f,0.12438199669122696f,-0.08006642758846283f,-0.029006917029619217f,-0.02379719354212284f,0.05457557737827301f,-0.020738141611218452f,0.030339034274220467f,0.08195540308952332f,0.15801890194416046f,-0.2707199454307556f,-0.3415178060531616f,0.5696295499801636f,-0.30341437458992004f,-0.015308793634176254f,0.03996558114886284f,0.034895725548267365f,-0.18493415415287018f,0.029590275138616562f,0.09848849475383759f,-0.04437052831053734f,0.11956088244915009f,-0.14760087430477142f,0.079153873026371f,-0.04113972559571266f,0.03778713941574097f,-0.03899781033396721f,-0.08916711807250977f,0.12637364864349365f,0.06877350062131882f,-0.15940527617931366f,0.006387816276401281f,-0.033703770488500595f,0.021150413900613785f,0.0015979299787431955f,0.020140549167990685f,0.0072903078980743885f,-0.0991823673248291f,0.005163774825632572f,-0.06786779314279556f,-0.01374606043100357f,0.05337631329894066f,-0.029358072206377983f,0.049276236444711685f,-0.09361632168292999f,0.16673412919044495f,-0.10505612194538116f,-0.022882595658302307f,-0.10292275249958038f,0.06041286140680313f,-0.014268254861235619f,0.04647381603717804f,0.002046469831839204f,-0.09029795974493027f,0.08742091059684753f,-0.020052935928106308f,-0.22940175235271454f,0.20953762531280518f,-0.053722187876701355f,0.0977594405412674f,-0.027285125106573105f,0.01043076254427433f,0.10748882591724396f,-0.1394156515598297f,0.009199227206408978f,0.010037421248853207f,-0.15974442660808563f,0.04114232212305069f,-0.03907139226794243f,0.04548490792512894f,0.017094720155000687f,0.012455605901777744f,-0.00978179182857275f,-0.059712525457143784f,0.023670179769396782f,-0.010858354158699512f,-0.09794856607913971f,0.057356394827365875f,-0.01874411664903164f,0.015346236526966095f,-0.037827588617801666f,-0.21729661524295807f,0.2653307318687439f,-0.058395709842443466f,0.06004338711500168f,-0.06987445056438446f,-0.06004311144351959f,0.053507234901189804f,0.032484881579875946f,0.020018240436911583f,0.2452230006456375f,-0.24340350925922394f,0.013020471669733524f,0.11067946255207062f,-0.27628910541534424f,0.08520875126123428f,-0.031627170741558075f,0.05300557240843773f,-0.02466929331421852f,0.17662470042705536f,-0.16245830059051514f,-0.23341555893421173f,0.37111684679985046f,-0.2103387862443924f,-0.04203101620078087f,0.032959405332803726f,0.01496323011815548f,-0.04136618226766586f,0.6539811491966248f,-0.6247953176498413f,0.1173454001545906f,-0.013874641619622707f,-0.22537951171398163f,0.09937890619039536f,-0.025349410250782967f,0.03592076897621155f,-0.06577213853597641f,-0.18376405537128448f,0.2806702256202698f,-0.09099864214658737f,-0.051471106708049774f,0.0672246441245079f,0.008994778618216515f,0.03201333060860634f,-0.03079504705965519f,0.03727337345480919f,-0.19476045668125153f,0.12450496852397919f,-0.14827296137809753f,0.0286243986338377f,0.045709919184446335f,0.06410087645053864f,-0.0029257992282509804f,-0.03371864929795265f,0.06516538560390472f,-0.04263757914304733f,0.018782567232847214f,0.08086718618869781f,0.06787978857755661f,-0.2484864592552185f,-0.004043749067932367f,0.053752318024635315f,-0.0067756581120193005f,0.3102162778377533f,-0.31757616996765137f,0.05942937359213829f,0.21357057988643646f,-0.024973727762699127f,-0.2476232647895813f,0.06292902678251266f,-0.04132157191634178f,-0.018546734005212784f,-0.008552086539566517f,0.07658544927835464f,-0.02721838466823101f,-0.03494931012392044f,0.05579036846756935f,-0.13075591623783112f,-0.040807195007801056f,0.03408338502049446f,-0.008794590830802917f,0.020392293110489845f,-0.06227249652147293f,0.08367956429719925f,0.2297029346227646f,-0.19564518332481384f,-0.07344243675470352f,0.08223205804824829f,-0.039889510720968246f,-0.043135397136211395f,-0.021126188337802887f,0.06257323920726776f,-0.039375659078359604f,-0.13612638413906097f,0.17650923132896423f,-0.16795645654201508f,-0.025193840265274048f,0.040325745940208435f,-0.03639645501971245f,-0.14330501854419708f,0.1768212616443634f,-0.05843471363186836f,0.04198431968688965f,0.10795409232378006f,-0.1773359328508377f,0.06651943176984787f,-0.04521738365292549f,-0.018736006692051888f,-0.022231074050068855f,-0.11000560969114304f,0.16784065961837769f,-0.10121937841176987f,0.06903447210788727f,-0.06706544756889343f,-0.019591115415096283f,0.027098145335912704f,0.00736961467191577f,-0.011419749818742275f,0.5351622104644775f,-0.5432013869285583f,0.14900414645671844f,0.23371388018131256f,-0.4267235994338989f,0.05634431540966034f,-0.006024673581123352f,-0.05355491489171982f,-0.027805950492620468f,-0.1849767565727234f,0.18892621994018555f,0.020672500133514404f,-0.18982793390750885f,0.021762384101748466f,-0.012168952263891697f,0.029910406097769737f,-0.01675281673669815f,-0.12338712066411972f,0.24119184911251068f,-0.09033548086881638f,0.08739694207906723f,0.0012159160105511546f,-0.15083414316177368f,0.04599786549806595f,-0.0063513536006212234f,-0.04381561651825905f,-0.025404518470168114f,-0.16121383011341095f,0.1718958020210266f,-0.11039942502975464f,-0.003098034765571356f,0.0065340013243258f,-0.0018844061996787786f,0.05586183816194534f,0.0008515289518982172f,0.04107216000556946f,-0.0637267455458641f,-0.046176958829164505f,-0.06449928879737854f,0.21119996905326843f,-0.16112889349460602f,0.038151320070028305f,-0.04998449236154556f,-0.04261891543865204f,-0.043001189827919006f,-0.0856708213686943f,0.13807913661003113f,-0.022083768621087074f,-0.1308213770389557f,0.028085993602871895f,-0.03244103863835335f,0.04158666357398033f,-0.013778312131762505f,0.0927397683262825f,-0.21744245290756226f,0.16572944819927216f,0.031063968315720558f,-0.18814800679683685f,0.0900825634598732f,0.08519507199525833f,-0.011934391222894192f,-0.02728085033595562f,-0.0774187371134758f,0.03018295019865036f,0.025607245042920113f,-0.09732184559106827f,0.16436168551445007f,-0.15126624703407288f,0.008050553500652313f,0.05353396385908127f,-0.005113350693136454f,0.008222507312893867f,0.2639526128768921f,-0.2873905897140503f,-0.19357439875602722f,0.19217781722545624f,-0.050048936158418655f,0.057848669588565826f,-0.03505697101354599f,-0.04156309738755226f,-0.08481921255588531f,-0.4150218069553375f,0.46793681383132935f,-0.16282005608081818f,-0.39161208271980286f,0.4621994197368622f,-0.03795279562473297f,0.0021025168243795633f,0.00909273512661457f,0.13879738748073578f,0.2079164683818817f,-0.2554301917552948f,0.05548548698425293f,-0.16660600900650024f,0.08659179508686066f,-0.006847282871603966f,-0.01186166238039732f,-0.039444174617528915f,0.09236150979995728f,-0.0433104932308197f,-0.0564524382352829f,0.033221177756786346f,0.031316667795181274f,-0.12867696583271027f,-0.052057940512895584f,0.025697503238916397f,-0.015032229013741016f,-0.08417536318302155f,0.2965371310710907f,-0.14594441652297974f,0.0972805768251419f,-0.04562114551663399f,-0.07450544834136963f,-0.025686634704470634f,-0.01008498016744852f,-0.043073225766420364f,0.020296933129429817f,-0.16554079949855804f,0.13444103300571442f,-0.09933445602655411f,-0.19776178896427155f,0.19414038956165314f,-0.02815890498459339f,-0.003039934206753969f,0.021773528307676315f,0.002399540739133954f,0.3562353253364563f,-0.3003184199333191f,0.053739115595817566f,0.39129123091697693f,-0.4979802966117859f,0.009509914554655552f,-0.024587003514170647f,-0.04459282383322716f,0.05903123319149017f,-0.09829756617546082f,0.04146438464522362f,-0.012724034488201141f,-0.21431191265583038f,0.15548914670944214f,-0.0019349034409970045f,0.043597184121608734f,0.027830764651298523f,0.1267072707414627f,0.07553509622812271f,-0.1978076547384262f,0.22417928278446198f,-0.19892942905426025f,-0.027430465444922447f,-0.02426551654934883f,-0.035853296518325806f,-0.059746552258729935f,0.04591470584273338f,0.026765191927552223f,-0.055720556527376175f,-0.053420018404722214f,-0.11001229286193848f,0.10473675280809402f,-0.018369395285844803f,0.04370926320552826f,0.018591491505503654f,0.0716099739074707f,0.3086007237434387f,-0.29626765847206116f,-0.07041209936141968f,0.06568807363510132f,-0.01576017215847969f,-0.03623226284980774f,-0.025782426819205284f,-0.047879450023174286f,0.07497972995042801f,-0.16451694071292877f,0.09006382524967194f,-0.057156920433044434f,-0.36072680354118347f,0.34541451930999756f,-0.033573735505342484f,0.042535439133644104f,0.008585206232964993f,0.002764488570392132f,0.10571720451116562f,-0.014091836288571358f,0.2514092028141022f,-0.04202130436897278f,-0.2467968761920929f,-0.02624681033194065f,0.01103792991489172f,-0.04887859523296356f,-0.06005965173244476f,-0.2862769365310669f,0.3173120617866516f,0.08127739280462265f,-0.15426813066005707f,0.015698852017521858f,-0.04727666825056076f,0.04310876876115799f,0.022438593208789825f,0.17458060383796692f,-0.27291449904441833f,0.16453997790813446f,-0.04476629197597504f,-0.08926495164632797f,0.08670128136873245f,-0.0021744866389781237f,0.007728250697255135f,-0.06571975350379944f,0.16625095903873444f,-0.20365160703659058f,0.03587209805846214f,0.0638611763715744f,-0.47760939598083496f,0.36803776025772095f,-0.01764591597020626f,0.012146130204200745f,-0.012156105600297451f,-0.16674549877643585f,0.05248808488249779f,0.13424690067768097f,0.1317669153213501f,-0.18231911957263947f,0.017045455053448677f,-0.016400277614593506f,0.0024172456469386816f,-0.0414915569126606f,-0.05329206958413124f,-0.008723239414393902f,0.07278361171483994f,0.020725974813103676f,-0.012124487198889256f,-0.061411742120981216f,-0.05103684589266777f,0.02001938782632351f,0.0290936678647995f,0.05764683336019516f,0.2380024790763855f,-0.23810291290283203f,-0.010245717130601406f,0.10577604919672012f,-0.12668593227863312f,0.003637753427028656f,-0.014678727835416794f,-0.03142647445201874f},
