#ifndef UTTT2_PARAMETERS_H
#define UTTT2_PARAMETERS_H

float hiddenWeights[190][128] = {{-1.5038156509399414f,-0.6334866881370544f,-1.6004524230957031f,-0.047775864601135254f,-1.7137795686721802f,-0.5606081485748291f,-1.9207812547683716f,-0.14704512059688568f,0.08014529198408127f,0.10198654234409332f,-0.08650492131710052f,0.024568017572164536f,0.01423660758882761f,0.18252907693386078f,0.1125410795211792f,-0.04329775646328926f,0.10219468176364899f,-1.829519510269165f,0.11214512586593628f,0.021735405549407005f,-0.05892862752079964f,-0.03819127753376961f,-2.304105758666992f,0.1012958213686943f,0.1391908973455429f,0.5106350183486938f,-0.10241243988275528f,0.11354601383209229f,0.02539059706032276f,0.15097865462303162f,0.04277651011943817f,-0.03744551166892052f,-1.4737056493759155f,0.0050332797691226006f,-0.01484687626361847f,0.11975489556789398f,-0.059148404747247696f,-0.04975689575076103f,0.24661317467689514f,0.07540453970432281f,-0.0822659581899643f,0.21200504899024963f,1.4969130754470825f,0.4735693633556366f,0.23341920971870422f,0.031072134152054787f,0.11807197332382202f,-0.6086831092834473f,0.38173410296440125f,0.00880372989922762f,-0.29653939604759216f,-0.009021989069879055f,0.16341336071491241f,-0.6016665697097778f,0.08214817196130753f,-0.016462570056319237f,0.10204450786113739f,-0.10328817367553711f,0.11362504214048386f,0.04691328480839729f,0.16526053845882416f,0.00962966401129961f,0.3386651277542114f,-0.10547954589128494f,0.10818669199943542f,-0.06679403781890869f,-0.06579379737377167f,0.1484791487455368f,0.0989428162574768f,-0.032250817865133286f,0.01447595376521349f,-0.25038111209869385f,-0.20537009835243225f,0.3599550426006317f,0.1369892954826355f,0.15634198486804962f,-0.3591967523097992f,-0.029941432178020477f,0.11288788914680481f,0.11485183238983154f,0.14258700609207153f,-1.626634120941162f,0.0009099457529373467f,-1.6676064729690552f,-0.03136420622467995f,0.16632044315338135f,0.03231602907180786f,0.8370262384414673f,0.11242105811834335f,-0.06911282986402512f,-0.18339194357395172f,-0.02578154020011425f,0.04894449561834335f,-0.16314925253391266f,-0.010156488977372646f,-0.6263427138328552f,0.04477852210402489f,-0.40946030616760254f,2.439038038253784f,0.0684608444571495f,-0.01638554036617279f,-0.09583184123039246f,-1.5054786205291748f,-1.709035038948059f,0.06456945091485977f,0.21762977540493011f,-0.01488544326275587f,0.5243291854858398f,0.12794192135334015f,0.001642859075218439f,-0.14029908180236816f,-0.7269951105117798f,0.0024504174944013357f,0.662781298160553f,-0.004818358924239874f,-0.5490072965621948f,0.10707538574934006f,0.10961494594812393f,-0.6262732148170471f,0.027357926592230797f,0.053819041699171066f,-0.09773322194814682f,-0.33213838934898376f,0.08876889199018478f,0.1059146523475647f,0.09116560220718384f,-0.1028965413570404f,0.0010783468605950475f},
{0.1956760734319687f,-0.408684104681015f,0.1535019427537918f,0.12601324915885925f,0.05459343269467354f,-0.6500439643859863f,0.07888613641262054f,-0.18834516406059265f,2.1414966583251953f,0.12686607241630554f,-0.06913033872842789f,0.05681602656841278f,-0.1669609546661377f,0.10319457203149796f,0.011804425157606602f,-0.9704910516738892f,-0.06600262969732285f,0.4212203323841095f,0.13713470101356506f,0.03626898303627968f,-0.8455435633659363f,0.058900363743305206f,-0.021423157304525375f,-0.033035047352313995f,0.06601853668689728f,-0.5227419137954712f,0.08958075940608978f,0.0753336250782013f,0.0003397291002329439f,0.06007803604006767f,0.026020297780632973f,0.40811628103256226f,0.08795961737632751f,-1.1726162433624268f,0.009996266104280949f,-1.5837078094482422f,-0.0634583830833435f,-0.05016055330634117f,1.0758335590362549f,0.17609798908233643f,0.051117341965436935f,0.10141101479530334f,-0.1396188884973526f,0.35183006525039673f,-0.9804604649543762f,0.09641692787408829f,-0.8171905279159546f,-0.5406959056854248f,0.4050571322441101f,0.014432456344366074f,0.11944382637739182f,0.17074806988239288f,0.19424030184745789f,-0.24379245936870575f,0.20286007225513458f,0.06446493417024612f,0.024028604850172997f,-0.03166436776518822f,0.031721070408821106f,-0.0089533980935812f,0.1342386156320572f,0.03134149685502052f,-0.0020473080221563578f,-0.09256090223789215f,0.09771120548248291f,0.07520333677530289f,-0.09766694158315659f,0.07088715583086014f,0.039628468453884125f,0.04645604267716408f,0.10202028602361679f,-0.037393659353256226f,0.011945622973144054f,-0.28754252195358276f,-0.07134437561035156f,-1.0253766775131226f,0.2955641746520996f,-0.1295558363199234f,0.3182785212993622f,0.018840689212083817f,0.044937800616025925f,-0.02696489356458187f,-0.12576086819171906f,0.05818706378340721f,0.08980432897806168f,-0.019249573349952698f,0.05090131238102913f,0.886317253112793f,0.02110636793076992f,0.0391753725707531f,0.001752647920511663f,0.025678861886262894f,-0.004033707547932863f,-0.1105901449918747f,0.024237027391791344f,-0.38162392377853394f,0.01920546591281891f,0.5210148096084595f,0.08437803387641907f,-0.24895724654197693f,0.08401258289813995f,-0.059152986854314804f,0.21024298667907715f,-1.819291114807129f,0.0394265353679657f,-0.2891272306442261f,-0.013108356855809689f,0.012703648768365383f,0.05256882682442665f,0.01756132021546364f,0.03646343573927879f,-0.41736775636672974f,-0.09573057293891907f,-0.5333490967750549f,0.02371417172253132f,0.8808702230453491f,-0.2772124707698822f,-0.4791852533817291f,-0.06960391253232956f,-0.03528228774666786f,-0.17261400818824768f,-0.17064346373081207f,-0.07732471823692322f,-0.012947766110301018f,0.02273373305797577f,0.060374222695827484f,-0.024885986000299454f,0.026343293488025665f},
{0.22134125232696533f,0.6540229916572571f,0.13636301457881927f,-1.0670558214187622f,-0.06659606844186783f,-0.5102533102035522f,-0.03159920126199722f,-0.15540902316570282f,0.0406690388917923f,0.08030708879232407f,-0.008896064944565296f,-0.03022550232708454f,-0.024951832368969917f,0.07119158655405045f,-0.011910121887922287f,0.04726391285657883f,-0.11422902345657349f,0.4070195257663727f,0.16607511043548584f,0.0024705599062144756f,-0.17195583879947662f,-0.006470682565122843f,0.0431634895503521f,0.15458990633487701f,0.09864924848079681f,-0.5940885543823242f,-0.5293766856193542f,0.14656005799770355f,-0.05663502588868141f,0.02836884930729866f,1.6056327819824219f,-0.07890226691961288f,0.146996408700943f,0.08072206377983093f,-0.22538258135318756f,0.036304719746112823f,-0.11319608241319656f,-0.35582152009010315f,0.1456846296787262f,0.02140570804476738f,0.022199712693691254f,0.0728977769613266f,-0.15821297466754913f,0.4145994782447815f,0.1129596158862114f,0.04351139813661575f,0.004193074535578489f,0.30971938371658325f,-1.9880138635635376f,0.8340727090835571f,-0.0643029436469078f,0.0004738653951790184f,0.07283343374729156f,-0.7104430198669434f,-0.036155276000499725f,-0.05669058859348297f,-0.13003484904766083f,-0.06010495498776436f,0.06902012974023819f,0.15855886042118073f,-0.9071284532546997f,0.02362968772649765f,0.2904551923274994f,-0.16116656363010406f,0.05658087506890297f,-0.07072056829929352f,-0.02448493055999279f,0.04796694964170456f,-0.010759526863694191f,0.05150248855352402f,0.13379839062690735f,-0.24330347776412964f,0.09374038130044937f,-0.6070536375045776f,0.37290531396865845f,0.014945628121495247f,0.4793732762336731f,1.7637054920196533f,0.13498009741306305f,0.09078889340162277f,-2.4938344955444336f,-0.032405056059360504f,-0.05606091395020485f,0.05796784162521362f,-0.012436910532414913f,0.09410957992076874f,-0.1326998621225357f,0.7967415452003479f,0.17025482654571533f,-0.10202804207801819f,-0.07035643607378006f,0.17012906074523926f,0.09120459854602814f,-0.141656294465065f,-0.4404599070549011f,0.2422570139169693f,0.0677758976817131f,-0.4875852167606354f,0.05268606171011925f,0.008935230784118176f,-0.013749027624726295f,0.010794046334922314f,-0.06009453535079956f,-1.5226479768753052f,0.20716172456741333f,0.07782410830259323f,-0.026446044445037842f,-0.12414076924324036f,0.2737072706222534f,-1.6323574781417847f,0.04650506749749184f,-0.8646012544631958f,0.008348057046532631f,-0.7316406965255737f,-0.047349780797958374f,-0.5998519659042358f,-0.019222017377614975f,0.11103367805480957f,-0.001826850580982864f,-0.01627171039581299f,0.059399016201496124f,-0.24384871125221252f,-0.10582952946424484f,-0.23092897236347198f,-0.21021226048469543f,-0.7832966446876526f,-0.11332227289676666f,-0.041881635785102844f},
{0.16457654535770416f,-0.3499489724636078f,-0.2079051434993744f,-0.08626727759838104f,0.12408100068569183f,-0.6216429471969604f,-0.014298420399427414f,-0.21717119216918945f,0.31579485535621643f,0.027588285505771637f,-0.060188207775354385f,0.12419102340936661f,0.009248832240700722f,0.0585104338824749f,0.08677517622709274f,0.08065544068813324f,0.005188820417970419f,0.4095434248447418f,0.2366693615913391f,0.16218453645706177f,0.15770497918128967f,-0.07580523192882538f,0.027034278959035873f,0.1729823797941208f,0.03944721817970276f,-0.6000228524208069f,0.24097099900245667f,-0.07206471264362335f,0.09844449162483215f,-0.7732904553413391f,0.04594484344124794f,-0.1847684234380722f,0.0943564847111702f,0.005830519832670689f,-0.007597712334245443f,0.1722070872783661f,0.3828273415565491f,0.01627284288406372f,0.2787098288536072f,0.09490545094013214f,0.03886912390589714f,-2.0930328369140625f,-0.21353399753570557f,-0.11662475019693375f,0.09131873399019241f,-1.8068599700927734f,-0.03089268133044243f,-0.581122100353241f,0.4149446487426758f,0.053380683064460754f,0.014739487320184708f,0.035795751959085464f,0.17225588858127594f,-0.21321049332618713f,0.28147536516189575f,0.09580346941947937f,0.04257240891456604f,-0.09991154819726944f,0.09746245294809341f,-0.08903048187494278f,-0.09863799810409546f,-0.06279673427343369f,0.6812660098075867f,-0.0333753377199173f,0.13967737555503845f,-1.1230740547180176f,-0.09418481588363647f,0.0967823937535286f,0.21108269691467285f,0.09491711854934692f,-0.2295674830675125f,-0.562695324420929f,0.047394342720508575f,-0.2978048026561737f,0.4242817759513855f,-1.13872492313385f,0.3242169916629791f,-0.06602891534566879f,0.21607008576393127f,0.19958974421024323f,0.14330917596817017f,0.015388828702270985f,-0.1279161274433136f,0.05663114786148071f,-0.04848489537835121f,0.040072862058877945f,0.03387098014354706f,-0.5798438787460327f,0.033154696226119995f,-0.10168767720460892f,-0.11598353832960129f,0.10971750319004059f,-0.0760546624660492f,-1.0276715755462646f,-0.0010972936870530248f,-0.4010699391365051f,-0.22987785935401917f,-0.3814052939414978f,0.12233810871839523f,-0.014861001633107662f,-0.017858635634183884f,0.08189501613378525f,-2.0003442764282227f,0.2257268726825714f,0.005861357785761356f,0.2024839222431183f,0.032807618379592896f,0.001682075671851635f,0.08911643922328949f,0.05117247253656387f,-0.20839138329029083f,0.652324378490448f,0.012577860616147518f,0.6714009642601013f,0.038395125418901443f,-0.47084736824035645f,-0.0713357999920845f,-0.061593323945999146f,-0.07821116596460342f,-0.015199699439108372f,0.0844116285443306f,-0.04668461158871651f,-0.040898799896240234f,-0.7195106744766235f,0.0330875888466835f,0.03445996344089508f,-0.04364066570997238f,0.0607965849339962f},
{-0.05307523533701897f,-0.8473111391067505f,0.03195066377520561f,0.06770102679729462f,0.018824320286512375f,-0.6064729690551758f,-0.02110382914543152f,-0.29515212774276733f,0.14568696916103363f,-1.735903263092041f,-1.38677978515625f,0.020643163472414017f,0.05379185080528259f,-1.3151578903198242f,0.24543818831443787f,0.12490978837013245f,-1.0044080018997192f,-2.1363093852996826f,-1.3716821670532227f,0.10798347741365433f,-0.769252598285675f,-0.0916871726512909f,-0.04108988121151924f,-0.5579817891120911f,-1.1951050758361816f,0.6946276426315308f,0.11100725829601288f,0.019844001159071922f,-1.9726358652114868f,-0.21128761768341064f,-0.0068635339848697186f,-0.08521768450737f,-0.06797215342521667f,-0.12101343274116516f,0.019666412845253944f,-1.397375464439392f,0.2007836252450943f,-0.1513030081987381f,0.21790702641010284f,0.04232108220458031f,0.14561273157596588f,-0.026705075055360794f,-0.09389293938875198f,-0.7108584046363831f,-0.4726756513118744f,-1.8114739656448364f,0.12657462060451508f,0.5862250328063965f,-2.3643226623535156f,0.0016498982440680265f,0.09218358993530273f,0.027226978912949562f,0.04765439033508301f,-0.562084436416626f,0.2276308685541153f,0.34379372000694275f,-0.10115297138690948f,-1.977150559425354f,0.034614987671375275f,-0.012281043455004692f,-0.03850069269537926f,-1.7794169187545776f,0.367508202791214f,0.2503379285335541f,-0.02028243988752365f,-0.009232516400516033f,-0.16637524962425232f,-0.05660101771354675f,0.06363034248352051f,-0.047100141644477844f,-1.338695764541626f,0.3704982101917267f,-0.1284709870815277f,0.30479443073272705f,0.15562526881694794f,0.3235115110874176f,0.35353603959083557f,0.07095208019018173f,0.15672433376312256f,0.022506626322865486f,-0.016784321516752243f,0.01383765134960413f,0.05601423978805542f,0.012515743263065815f,-0.08858410269021988f,3.528367519378662f,-0.0052916137501597404f,-0.5804280042648315f,0.039453066885471344f,-0.0503830686211586f,-0.6832388043403625f,0.10506485402584076f,-0.0402226559817791f,-0.06636975705623627f,-0.06813038885593414f,0.37383008003234863f,-0.8235163688659668f,0.517158031463623f,-0.053498923778533936f,-0.6760047674179077f,-0.010651342570781708f,-0.0542076900601387f,0.3585832417011261f,0.1914488673210144f,-0.20077721774578094f,0.0355837307870388f,-0.04936143383383751f,-0.059038370847702026f,0.10491731762886047f,0.009179385378956795f,0.013015123084187508f,0.6280810236930847f,-1.8897454738616943f,-0.8074973225593567f,-0.13117505609989166f,0.7104260325431824f,-0.04503382742404938f,-0.12754040956497192f,-0.449846476316452f,-0.034393422305583954f,-1.2984061241149902f,-0.11015395075082779f,-0.006905557122081518f,-0.005231925752013922f,0.04462147876620293f,-0.015456640161573887f,0.04724471643567085f,-0.09225248545408249f},
{0.03832661360502243f,0.620624303817749f,0.05815310403704643f,0.1553628295660019f,-0.1473662406206131f,-0.6366714835166931f,0.11979536712169647f,-0.23315662145614624f,0.12936267256736755f,0.03267386928200722f,-0.0901501476764679f,0.04969319328665733f,0.07912316173315048f,-0.2293655425310135f,0.15841756761074066f,0.04233241081237793f,-0.07624003291130066f,0.392758846282959f,0.12089314311742783f,-1.3181090354919434f,-0.07331623882055283f,-2.009577838180121e-05f,0.009452026337385178f,0.09645424783229828f,0.12474580854177475f,-0.6302607655525208f,0.23949508368968964f,-0.243299663066864f,-0.07057241350412369f,-0.036100395023822784f,0.002934962511062622f,-0.0457896962761879f,0.04918201267719269f,0.015196855179965496f,-0.016915755346417427f,0.038098085671663284f,-0.09185117483139038f,-0.05351553112268448f,0.09639868140220642f,0.08822274953126907f,0.024899281561374664f,0.09020601958036423f,-0.5684046149253845f,-0.20935235917568207f,0.23165856301784515f,-1.4775211811065674f,-0.0700485035777092f,-0.6657005548477173f,0.39628076553344727f,0.029604919254779816f,0.1864248365163803f,0.141746386885643f,0.1270158290863037f,-0.2187105119228363f,0.26642632484436035f,0.30808863043785095f,0.04098854586482048f,0.017202436923980713f,0.04953678324818611f,0.19559215009212494f,-0.04168148711323738f,-0.10259971767663956f,0.0042828768491744995f,-0.013106586411595345f,3.1833267211914062f,0.02218097448348999f,0.37736618518829346f,-1.2673518657684326f,0.08187618851661682f,0.06945392489433289f,0.0031973703298717737f,-0.15114694833755493f,0.10334859788417816f,-0.41783809661865234f,-0.06512949615716934f,-0.09390842169523239f,-1.142728567123413f,-0.1632131040096283f,0.14668743312358856f,-0.13053826987743378f,0.12488488852977753f,-0.015282975509762764f,0.03017374686896801f,0.10121950507164001f,-1.6463816165924072f,0.011681939475238323f,0.07635878026485443f,-0.630058765411377f,0.11943195015192032f,0.05557400360703468f,0.0013497410109266639f,0.05561984330415726f,-0.09003086388111115f,-0.13364489376544952f,-0.003437620820477605f,-0.5193524956703186f,-0.22297264635562897f,-0.28909558057785034f,0.11645536124706268f,-0.014190212823450565f,0.12107992172241211f,0.06483574956655502f,0.05596159026026726f,0.16257984936237335f,-0.8331437110900879f,-0.002846128074452281f,-0.004797734320163727f,0.06137305498123169f,0.13925740122795105f,0.07696788012981415f,0.019658388569951057f,0.7328088283538818f,0.07868776470422745f,-0.5480465292930603f,0.00014534957881551236f,-0.5227522253990173f,0.10259927809238434f,-0.046499475836753845f,-0.007957297377288342f,0.048145510256290436f,0.10357842594385147f,-0.17394492030143738f,0.018386520445346832f,0.05493008345365524f,-0.2551642060279846f,-0.04621666669845581f,-0.017823955044150352f,0.05109774321317673f},
{-0.16915453970432281f,-0.7773033380508423f,-0.27263492345809937f,0.031005501747131348f,0.09466339647769928f,0.8530447483062744f,0.003579365322366357f,-0.11308766901493073f,0.015564882196485996f,-0.008231316693127155f,0.09057974815368652f,2.7189013957977295f,0.1440640091896057f,0.09499655663967133f,-1.5839478969573975f,0.07185539603233337f,-0.03921334445476532f,0.36067086458206177f,-0.019368726760149002f,0.025368530303239822f,0.07775592058897018f,-0.08678550273180008f,-0.02416270226240158f,0.13872487843036652f,0.10884406417608261f,-0.6925414204597473f,0.25906088948249817f,-1.25608229637146f,0.11149304360151291f,0.20619119703769684f,-0.01364134717732668f,-0.08867495507001877f,0.11154896765947342f,-0.019787829369306564f,-0.033217355608940125f,0.21817225217819214f,-0.046255335211753845f,-0.10508475452661514f,0.04738296568393707f,-0.14298486709594727f,-0.11145654320716858f,0.16067035496234894f,-0.22383640706539154f,-0.7360742092132568f,0.09382371604442596f,0.04809942469000816f,0.07834802567958832f,0.4164854884147644f,-2.029256820678711f,0.037917789071798325f,0.41743260622024536f,-1.666150450706482f,0.09084806591272354f,0.4328267574310303f,0.33094096183776855f,0.0947205126285553f,-1.1623802185058594f,0.0635901689529419f,-1.2645550966262817f,-0.15654656291007996f,0.034383878111839294f,0.024767296388745308f,0.12623625993728638f,-0.18081311881542206f,-0.018080156296491623f,-0.10185102373361588f,-0.15146173536777496f,0.009770444594323635f,-0.08840947598218918f,0.0012344871647655964f,0.12400411069393158f,0.517884373664856f,0.047138746827840805f,-0.44451823830604553f,-0.061093542724847794f,-0.02158818393945694f,-0.023927392438054085f,-0.15764082968235016f,0.3089454472064972f,-1.079899549484253f,0.010031904093921185f,0.025571715086698532f,-0.11793690174818039f,0.018297776579856873f,-0.010551202110946178f,0.0464596152305603f,0.02617655321955681f,-0.637872576713562f,-0.2589273750782013f,-0.16298477351665497f,-0.05264071002602577f,-1.105026364326477f,0.08711462467908859f,-0.02815289795398712f,-0.0017920907121151686f,0.2690516710281372f,0.02659428119659424f,-0.37917596101760864f,-0.15184618532657623f,-0.02901075780391693f,-1.8903988599777222f,-0.03210369497537613f,-1.8399864435195923f,0.06056416407227516f,0.05222255364060402f,-1.2680292129516602f,-0.10012378543615341f,-0.019851800054311752f,-0.48756301403045654f,0.05268140137195587f,-1.3540674448013306f,-0.6920320391654968f,-0.0013795960694551468f,0.6275430917739868f,0.8859740495681763f,-0.6744714379310608f,-0.016791198402643204f,-0.19344180822372437f,-0.15215826034545898f,-0.09254556894302368f,0.05819137021899223f,-0.08609028160572052f,-0.08178939670324326f,0.1244712695479393f,0.06342282146215439f,-0.028847888112068176f,-0.038235705345869064f,0.02467932738363743f},
{-0.040824536234140396f,-0.5247087478637695f,0.07624772191047668f,0.04791818559169769f,0.0676751360297203f,0.9563042521476746f,0.12590785324573517f,-0.24218644201755524f,0.3008429706096649f,-0.22831183671951294f,-0.029134362936019897f,0.08616340160369873f,0.19327537715435028f,0.10384154319763184f,-1.846908688545227f,0.24296918511390686f,0.019235502928495407f,0.3490123450756073f,0.22123411297798157f,0.05225105211138725f,0.29159578680992126f,0.06393369287252426f,0.06846026331186295f,-1.1592519283294678f,-0.19256529211997986f,-0.6241217851638794f,0.2682695984840393f,0.21363089978694916f,0.01203869003802538f,0.06131596490740776f,0.0478600412607193f,-0.23543842136859894f,0.058614980429410934f,-0.057931087911129f,-0.026805777102708817f,-1.5579183101654053f,-0.15763990581035614f,-0.028258541598916054f,0.1793774515390396f,-0.9150469303131104f,-0.05160512402653694f,0.16337209939956665f,0.02814517728984356f,-0.12458831071853638f,0.13720639050006866f,0.062301378697156906f,0.18537139892578125f,-0.6526650190353394f,0.35024958848953247f,0.06908117234706879f,0.3463727533817291f,-0.13108770549297333f,-1.9034777879714966f,0.40289440751075745f,-0.6529420614242554f,-0.0256333164870739f,0.11352711915969849f,0.09484189003705978f,-0.1679265797138214f,0.1356128305196762f,0.007739565335214138f,0.07255064696073532f,0.7134589552879333f,-0.0958930030465126f,0.29399165511131287f,0.06658431887626648f,-0.1712978184223175f,0.19514216482639313f,0.2989392578601837f,-0.02239757589995861f,0.07225948572158813f,-0.6388893723487854f,0.14693883061408997f,-0.3468872010707855f,0.5613815188407898f,0.003565741702914238f,0.26528504490852356f,-0.12425880134105682f,-2.020409345626831f,0.12039497494697571f,0.15577632188796997f,-0.035277895629405975f,0.7351157665252686f,0.02478807419538498f,0.12108506262302399f,0.13664674758911133f,0.005189725197851658f,-0.5892575979232788f,-0.21805822849273682f,-0.058777742087841034f,-0.11110609769821167f,0.12678128480911255f,0.1468006670475006f,-0.052781205624341965f,0.006384227890521288f,-0.35524994134902954f,-0.014171775430440903f,0.43600699305534363f,0.23633714020252228f,-0.19864603877067566f,0.04689369723200798f,0.1444135308265686f,0.18419720232486725f,0.15090011060237885f,0.04596398025751114f,-0.05314897000789642f,-0.020454583689570427f,-0.09387575834989548f,0.2724221348762512f,0.05650874227285385f,0.13948020339012146f,-0.4926251769065857f,-0.15106867253780365f,-0.49521350860595703f,-0.07299529761075974f,0.9727669954299927f,-0.5504332780838013f,0.019890956580638885f,-0.20939098298549652f,-1.6431500911712646f,0.11813198775053024f,-0.02147812582552433f,-0.016036733984947205f,-0.07992886006832123f,0.11787277460098267f,0.07016435265541077f,-0.15327738225460052f,-1.5409561395645142f},
{0.019869476556777954f,0.6446406841278076f,0.06421442329883575f,0.180270716547966f,0.0298374705016613f,0.8050022721290588f,0.02157955802977085f,-0.22463995218276978f,0.021187297999858856f,-0.08857767283916473f,-0.07129748910665512f,-0.034353625029325485f,-1.2375375032424927f,0.05430496111512184f,-1.5479305982589722f,0.02938222512602806f,0.061517585068941116f,-1.6784361600875854f,0.007722842041403055f,0.010149415582418442f,0.06815516203641891f,-1.5428385734558105f,-0.08125519752502441f,0.1831422746181488f,-0.09703715890645981f,0.4493844211101532f,-0.018322547897696495f,0.17856262624263763f,0.0005710002151317894f,0.0650017261505127f,-0.04111254960298538f,-0.04018930718302727f,-0.18615762889385223f,0.07179660350084305f,0.029201705008745193f,-0.023676378652453423f,-0.04771903529763222f,-0.17456334829330444f,-0.06977295875549316f,0.003889462910592556f,0.030550245195627213f,0.09322377294301987f,-0.5191648006439209f,-0.45020508766174316f,0.05378042533993721f,0.05093608796596527f,-0.35234782099723816f,-0.6690191626548767f,0.5154488682746887f,0.009053101763129234f,0.12966997921466827f,-0.06921669840812683f,0.26062336564064026f,0.3736419677734375f,0.18582971394062042f,0.047645796090364456f,0.08583638072013855f,0.13104456663131714f,-0.14918984472751617f,-1.2833799123764038f,0.09017070382833481f,0.009037883952260017f,0.3466392159461975f,-0.12711501121520996f,0.048775285482406616f,-0.0088849738240242f,0.130574569106102f,0.040490228682756424f,2.9869308471679688f,-1.8021193742752075f,0.0741012766957283f,-0.15181776881217957f,-1.253387212753296f,0.3766495883464813f,-0.7686424851417542f,-0.1791360080242157f,0.2963407635688782f,-0.17957136034965515f,0.15375307202339172f,-0.06138744205236435f,0.15260986983776093f,-0.000840800697915256f,-0.015384468249976635f,-0.08049548417329788f,0.001416096929460764f,0.07317070662975311f,0.030914610251784325f,-0.6169905662536621f,-1.3940361738204956f,-0.11355149745941162f,-0.11810142546892166f,0.014873010106384754f,-1.1919764280319214f,-0.06676679849624634f,-0.026859939098358154f,-0.5504539012908936f,0.057634495198726654f,-0.4932537078857422f,0.0036016881931573153f,0.02888585813343525f,-0.019308917224407196f,0.2627050578594208f,0.020692532882094383f,0.1462758183479309f,0.1955985426902771f,0.09630754590034485f,0.7351163625717163f,-0.04155800864100456f,0.056096382439136505f,0.05457806587219238f,0.1027177944779396f,-0.6528691649436951f,-0.012181706726551056f,-0.6650056838989258f,-0.07758136093616486f,-0.551823616027832f,0.406048059463501f,-0.050477441400289536f,-0.6424195766448975f,-0.12457208335399628f,0.13844481110572815f,-0.02993670478463173f,0.014305892400443554f,-0.1833818405866623f,-1.3918116092681885f,-0.04537389427423477f,0.7392475605010986f,0.04514956846833229f},
{-0.7127736210823059f,-0.19488531351089478f,1.155340313911438f,-0.01235758513212204f,-0.7126947641372681f,-0.1721261888742447f,-0.9387738108634949f,-0.05863229185342789f,0.1506413370370865f,0.022785885259509087f,0.06373843550682068f,0.046877045184373856f,0.0014602113515138626f,0.00890927854925394f,0.08070554584264755f,0.012167459353804588f,-0.0470116101205349f,-0.18460941314697266f,0.010017313994467258f,0.0009447103948332369f,0.05973886325955391f,-0.06447944045066833f,0.009710603393614292f,0.003033827757462859f,-0.0370221808552742f,0.23013930022716522f,-0.02202180027961731f,0.03253979608416557f,0.053154513239860535f,0.05314384028315544f,-0.02240086905658245f,0.00016956306353677064f,0.695104718208313f,-0.07556357979774475f,-0.011535399593412876f,0.21283625066280365f,0.057019319385290146f,-0.005742852576076984f,0.06510817259550095f,-0.011348191648721695f,-0.05930449813604355f,-0.050179436802864075f,0.6993687748908997f,0.23228470981121063f,0.030894678086042404f,0.13168983161449432f,-0.0106626246124506f,0.018513698130846024f,0.24183732271194458f,0.025346070528030396f,-0.1797623634338379f,0.16863833367824554f,-0.07151591777801514f,-0.10632271319627762f,-0.07808772474527359f,-0.05327778309583664f,-0.07650557905435562f,-0.06896346062421799f,-0.0587860643863678f,-0.027736764401197433f,0.029801445081830025f,0.031575217843055725f,0.06840384751558304f,-0.041966043412685394f,0.045914631336927414f,0.06346015632152557f,-0.0470409020781517f,-0.0058562797494232655f,0.1496313363313675f,0.04482677951455116f,0.046628985553979874f,0.002194407396018505f,0.12180252373218536f,0.3686840236186981f,0.035857729613780975f,-0.012717981822788715f,-0.14091244339942932f,-0.045914795249700546f,0.0008496461668983102f,-0.003762776730582118f,-0.05065440386533737f,-0.04399745911359787f,-0.009308787994086742f,0.06556766480207443f,0.07468979060649872f,0.10258292406797409f,0.030884956941008568f,0.40213632583618164f,-0.00012807110033463687f,0.0937698632478714f,-0.08576521277427673f,0.07525424659252167f,0.06942827254533768f,0.09946794807910919f,-0.0014254286652430892f,-0.25512924790382385f,-0.03876547887921333f,-0.10490994900465012f,-0.09100478142499924f,-0.03887362778186798f,-0.003829212160781026f,-0.007671070285141468f,-0.03982415050268173f,0.012354223057627678f,0.0035119743552058935f,-0.026588810607790947f,0.021247783675789833f,0.3823355436325073f,0.07063350826501846f,0.009814929217100143f,0.06112674996256828f,-0.08990979194641113f,0.013917844742536545f,0.5936676859855652f,0.041579991579055786f,-0.06291579455137253f,0.11090165376663208f,0.0025467367377132177f,0.013793308287858963f,0.086383156478405f,0.043726347386837006f,0.03673446923494339f,-1.6950312852859497f,0.06795809417963028f,-0.02346525527536869f,-0.058699723333120346f,0.009272377006709576f,0.016674648970365524f},
{-0.22089028358459473f,-0.10797974467277527f,-0.5734071135520935f,-0.01157673541456461f,-0.2957272231578827f,-0.08462394773960114f,0.31299373507499695f,-0.0734555721282959f,0.09960082173347473f,0.052751727402210236f,-0.015883879736065865f,0.06979841738939285f,0.029515674337744713f,-0.07698304951190948f,0.15097153186798096f,-0.06782300025224686f,-0.02995213493704796f,-0.1986912488937378f,0.06685973703861237f,-0.04812593013048172f,0.04164944589138031f,-0.04495340585708618f,0.6749664545059204f,0.025984156876802444f,-0.05009540170431137f,0.1661408245563507f,0.0026025287806987762f,-0.02537304349243641f,0.030361831188201904f,0.03853866830468178f,-0.016483301296830177f,-0.04150856286287308f,-0.6957305073738098f,-0.020064856857061386f,-0.017758354544639587f,0.06721679121255875f,-0.03236846253275871f,0.010221321135759354f,-0.06929588317871094f,-0.06704124063253403f,0.00348585844039917f,-0.006480431649833918f,0.33223599195480347f,0.15530918538570404f,0.057803403586149216f,0.09759607911109924f,-0.13277336955070496f,-0.06418145447969437f,0.22123949229717255f,-0.00020847086852882057f,0.14542587101459503f,0.04809243604540825f,0.030545253306627274f,-0.11892971396446228f,0.006908489856868982f,0.026227859780192375f,0.007324029225856066f,-0.01095523126423359f,-0.03852040320634842f,-0.021786287426948547f,0.0007386077777482569f,0.010356145910918713f,0.10340641438961029f,-0.0871487408876419f,0.08308389782905579f,0.045690715312957764f,-0.08200271427631378f,0.0003187064721714705f,0.09297732263803482f,0.03058902733027935f,-7.33494816813618e-05f,-0.002631742274388671f,-0.014937837608158588f,0.15969446301460266f,0.06071744114160538f,0.21883909404277802f,-0.08248230069875717f,-0.07170382887125015f,0.038679055869579315f,0.0038776202127337456f,-0.002586551709100604f,0.670836329460144f,0.009467548690736294f,0.45540574193000793f,0.0761554092168808f,0.11150363087654114f,0.028539560735225677f,0.1366828829050064f,-0.01633940078318119f,0.017906058579683304f,-0.04121652618050575f,0.06584832817316055f,0.00970565713942051f,0.053714171051979065f,-0.008997447788715363f,-0.14474980533123016f,-0.05601096525788307f,-0.13412295281887054f,-0.22007280588150024f,-0.011592199094593525f,-0.007357942406088114f,-0.03489509969949722f,-0.12661604583263397f,-0.17209307849407196f,-0.04670396447181702f,0.02552342787384987f,0.013798199594020844f,0.614120602607727f,-0.05329320207238197f,0.01322812307626009f,0.04181152954697609f,-0.10870802402496338f,-0.02742280624806881f,0.3048208951950073f,-0.016483362764120102f,-0.08499040454626083f,-0.09502040594816208f,0.05261674150824547f,-0.1184023767709732f,0.013444951735436916f,0.05624381825327873f,0.027800943702459335f,0.5927591919898987f,0.025537878274917603f,-0.030511053279042244f,-0.015423002652823925f,-0.03274275362491608f,0.004683274310082197f},
{-0.353853702545166f,-0.15335963666439056f,-0.45093220472335815f,-0.10329332202672958f,0.7854925990104675f,-0.08979859203100204f,0.5381265878677368f,-0.070240318775177f,0.0676276832818985f,0.04656507447361946f,-0.008893541060388088f,0.06933144479990005f,0.04657282680273056f,0.0010434024734422565f,0.1496746987104416f,0.04604228213429451f,0.0017885069828480482f,-0.24998219311237335f,0.05615264177322388f,-0.013201864436268806f,-0.04496173933148384f,-0.0331646092236042f,0.8478793501853943f,0.00752798980101943f,-0.05065285041928291f,0.232098788022995f,-0.02241462841629982f,-0.04744312912225723f,-0.015550171956419945f,0.03683089092373848f,0.049852363765239716f,-0.05980217456817627f,-0.5702759623527527f,-0.0025494794826954603f,-0.03780405595898628f,0.26693195104599f,-0.010851483792066574f,-0.013689236715435982f,0.016593506559729576f,0.009591368958353996f,-0.05161244422197342f,-0.01605832949280739f,0.40911975502967834f,0.2774699628353119f,0.07815629988908768f,0.18608836829662323f,-0.02438029833137989f,-0.01042842399328947f,0.12333068251609802f,-0.00021669393754564226f,0.0722091868519783f,0.04844522103667259f,-0.02219754084944725f,-0.15298546850681305f,-0.04581578075885773f,0.0354841873049736f,0.07057005912065506f,-0.05353578180074692f,-0.008439915254712105f,0.018295932561159134f,-0.06489208340644836f,-0.0045954338274896145f,0.1382617950439453f,-0.0471404567360878f,0.07796642929315567f,0.01844518817961216f,-0.1040356233716011f,0.0077048842795193195f,0.1233406513929367f,0.009569767862558365f,0.022954808548092842f,-0.051465023308992386f,0.015680577605962753f,0.1921888142824173f,0.09779536724090576f,0.20000815391540527f,-0.033151328563690186f,0.0023375118616968393f,0.03088742308318615f,-0.0033993911929428577f,-0.08480948209762573f,0.7634236812591553f,-0.047837890684604645f,0.5608375668525696f,0.027865687385201454f,0.194888636469841f,0.007837174460291862f,0.21645089983940125f,-0.02153596095740795f,-0.06453193724155426f,-0.027330121025443077f,0.08871293812990189f,-0.04115477576851845f,0.05142639949917793f,-0.06177729740738869f,-0.20663408935070038f,-0.0682617798447609f,-0.03189675137400627f,-0.1898553967475891f,-0.07721392810344696f,-0.043450579047203064f,0.023543940857052803f,-0.1672806739807129f,-0.23091068863868713f,0.0012967499205842614f,0.03910417854785919f,0.07098882645368576f,0.7988961935043335f,0.05161311849951744f,-0.038517098873853683f,0.02521742507815361f,-0.08961235731840134f,-0.019305933266878128f,0.35222283005714417f,-0.04383465275168419f,-0.09428393840789795f,0.04978261888027191f,0.015420245938003063f,-0.23882314562797546f,-0.012570572085678577f,0.06914404034614563f,0.04562966525554657f,0.5867155194282532f,0.01245625875890255f,0.01787411794066429f,-0.040038954466581345f,-0.037462204694747925f,0.0043443357571959496f},
{-0.39125779271125793f,-0.15197689831256866f,0.775309145450592f,-0.0025071785785257816f,-0.1666819453239441f,-0.11478177458047867f,-1.3582414388656616f,-0.06895507127046585f,0.09062288701534271f,0.009338995441794395f,0.023875292390584946f,0.058770518749952316f,0.030678516253829002f,-0.053188808262348175f,0.0987597405910492f,0.055408600717782974f,-0.05253508314490318f,-0.18956619501113892f,0.028700219467282295f,-0.06038714572787285f,0.02956533618271351f,-0.01179603859782219f,0.11229727417230606f,0.0009423820883966982f,-0.11225786805152893f,0.21020813286304474f,0.043177537620067596f,-0.02965558134019375f,0.006234895437955856f,-0.08617855608463287f,0.020464744418859482f,-0.02938947081565857f,-0.35230591893196106f,-0.02329179272055626f,-0.04939435049891472f,0.07955189794301987f,0.044233538210392f,-0.0009772474877536297f,-0.006439118180423975f,-0.049312978982925415f,-0.043243158608675f,-0.06309645622968674f,0.23085887730121613f,0.19035805761814117f,0.04726128280162811f,0.04185544699430466f,-0.015235405415296555f,-0.06253082305192947f,0.2421276718378067f,0.020922016352415085f,0.02331365831196308f,0.061308130621910095f,0.0009405923774465919f,-0.11230058968067169f,-0.007649002596735954f,-0.02969174273312092f,-0.03357091546058655f,-0.043043602257966995f,-0.029012469574809074f,0.01670808531343937f,0.01793074980378151f,-0.0330052375793457f,0.08058185130357742f,-0.058704640716314316f,0.0005303943762555718f,-0.014724846929311752f,0.08141518384218216f,-0.026616744697093964f,0.1041569709777832f,0.030049942433834076f,0.0556192472577095f,0.08332355320453644f,-0.016626115888357162f,0.12003732472658157f,0.034294869750738144f,0.20720592141151428f,-0.0162695050239563f,-0.08854638785123825f,0.03808693587779999f,-0.03836183622479439f,-0.017732517793774605f,0.09708034992218018f,-0.033557526767253876f,0.23611366748809814f,0.03231261298060417f,0.08938620984554291f,0.01386883482336998f,0.19167004525661469f,-0.020475512370467186f,0.02110239863395691f,-0.027354789897799492f,0.05251462012529373f,0.004065580200403929f,0.1829323023557663f,-0.02252289652824402f,-0.1254386454820633f,-0.032822899520397186f,-0.1481190025806427f,-0.060237541794776917f,-0.05704796686768532f,-0.05022687837481499f,-0.034784164279699326f,-0.1621832400560379f,-0.14607548713684082f,-0.046484556049108505f,-0.054596271365880966f,0.05014116317033768f,0.5784594416618347f,-0.06698733568191528f,-0.019059911370277405f,0.06292100995779037f,-0.17068061232566833f,-0.005554537288844585f,0.24080927670001984f,-0.05285891890525818f,-0.12760299444198608f,0.06339173763990402f,0.03891720250248909f,-0.1239970475435257f,0.0005082266288809478f,-0.0009596251766197383f,-0.02109493501484394f,0.31881019473075867f,-0.09178663045167923f,-0.024940764531493187f,-0.03007352352142334f,-0.011403597891330719f,0.008900663815438747f},
{-0.8046895861625671f,-0.19034045934677124f,-0.5938203930854797f,0.04185973480343819f,-0.47544151544570923f,-0.23083122074604034f,0.4750150144100189f,-0.10263637453317642f,0.07479158043861389f,0.008966590277850628f,-0.005125173833221197f,0.047219276428222656f,0.05224134400486946f,-0.06995482742786407f,0.08912279456853867f,0.051796700805425644f,-0.0025114775635302067f,-0.5121889710426331f,0.16833485662937164f,-0.03779489919543266f,-0.026165233924984932f,-0.03976992517709732f,0.3699612617492676f,0.045018862932920456f,-0.15334290266036987f,0.2672332525253296f,0.09415286779403687f,0.01813589036464691f,0.07780847698450089f,0.057322822511196136f,0.00017187402409035712f,-0.03904545307159424f,0.6719748973846436f,0.03759307414293289f,-0.026827357709407806f,0.03864692896604538f,-0.05855926126241684f,-0.06982281059026718f,-0.0303425882011652f,0.0019340129802003503f,0.02806687541306019f,0.03115900419652462f,0.49229681491851807f,0.2594794034957886f,0.0037326475139707327f,0.04572445526719093f,0.007716831285506487f,-0.1470383107662201f,0.1553661823272705f,-0.03861745446920395f,0.10846556723117828f,0.043132856488227844f,-0.030300632119178772f,-0.19327719509601593f,-0.025330374017357826f,-0.050347570329904556f,0.04785197600722313f,0.004849488381296396f,-0.0002705593651626259f,0.04678528383374214f,0.03858368843793869f,-0.03302770107984543f,0.008949519135057926f,-0.01565331034362316f,0.03852197527885437f,-0.020030399784445763f,0.005975176114588976f,0.018893705680966377f,0.06505510210990906f,-0.025693463161587715f,-0.07338220626115799f,0.023426847532391548f,0.013993117958307266f,0.31290483474731445f,-0.006832449696958065f,0.172114297747612f,0.009619291871786118f,-0.14266140758991241f,0.014929793775081635f,0.05097293481230736f,0.02431289665400982f,0.04916635900735855f,-0.061768222600221634f,0.5766292810440063f,0.022061504423618317f,0.11860692501068115f,0.04146936163306236f,0.20588460564613342f,0.002480842871591449f,-0.03697029501199722f,-0.1200341135263443f,0.12244915962219238f,-0.0009109278907999396f,0.005268446169793606f,-0.05640785023570061f,-0.24423417448997498f,-0.1406957507133484f,-0.26641273498535156f,-0.2835133373737335f,-0.16362065076828003f,-0.05721862614154816f,-0.016564086079597473f,-0.34483256936073303f,-0.3874635398387909f,-0.06261689215898514f,0.06629133224487305f,-0.02861579693853855f,0.7614279389381409f,-0.03549336642026901f,-0.03969358652830124f,0.03473353013396263f,-0.23868277668952942f,-0.03323124349117279f,0.31793084740638733f,-0.08743161708116531f,-0.21908701956272125f,-0.06449402868747711f,0.09216473251581192f,0.0855044573545456f,0.024283776059746742f,-0.050012364983558655f,0.015035650692880154f,-1.5691580772399902f,-0.0017584400484338403f,0.0030850155744701624f,-0.03808353468775749f,-0.11641929298639297f,0.03590869903564453f},
{-0.43667224049568176f,-0.11133665591478348f,-0.04516107216477394f,-0.022891301661729813f,0.7358930706977844f,-0.07406104356050491f,0.29662224650382996f,0.009524893015623093f,0.05418824777007103f,0.05076352134346962f,0.034588806331157684f,0.03494096174836159f,0.014812588691711426f,0.004280101042240858f,0.12545868754386902f,0.019917408004403114f,-0.038735467940568924f,-0.22732235491275787f,0.04908335208892822f,-0.11442820727825165f,0.12350187450647354f,0.009604989551007748f,0.11849948018789291f,0.012637732550501823f,-0.10006736218929291f,0.11375346779823303f,0.024970095604658127f,0.0050837392918765545f,0.039394229650497437f,0.01632976531982422f,0.015191618353128433f,-0.0468977652490139f,-0.15545693039894104f,0.004990105051547289f,-0.03423547372221947f,0.17582188546657562f,0.013155638240277767f,0.030097002163529396f,-0.05888417363166809f,-0.014028849080204964f,-0.01819429360330105f,0.010427824221551418f,0.2477492392063141f,0.19465480744838715f,0.06515423208475113f,-0.022499801591038704f,0.0058304546400904655f,-0.04984335973858833f,0.1614314168691635f,0.026818348094820976f,0.11545747518539429f,0.08040452748537064f,0.016601059585809708f,-0.11192751675844193f,-0.05127029865980148f,0.07738693803548813f,-0.00629294291138649f,0.004217722453176975f,-0.01580416038632393f,0.008375211618840694f,0.004057550337165594f,-0.011822766624391079f,0.02133600413799286f,-0.08095784485340118f,0.10147280991077423f,0.04822182282805443f,-0.2122468203306198f,-0.027938269078731537f,0.06342525780200958f,0.04320130869746208f,-0.004525801166892052f,-0.07326894253492355f,-0.02145591750741005f,0.09721072018146515f,-0.01508436817675829f,0.1237446665763855f,-0.15315000712871552f,-0.09146212041378021f,-0.020222781226038933f,0.047343503683805466f,0.009351860731840134f,0.16131633520126343f,-0.048621490597724915f,0.15032756328582764f,-0.04945812374353409f,0.11425280570983887f,0.028112007305026054f,0.1680263727903366f,0.0008523351862095296f,0.013780461624264717f,0.004944548476487398f,0.028593506664037704f,0.03378128632903099f,0.07339072227478027f,-0.04884054511785507f,-0.1405755877494812f,-0.02155241183936596f,-0.0514221265912056f,-0.10315581411123276f,-0.0614263154566288f,-0.026381559669971466f,-0.013317636214196682f,-0.13099177181720734f,-0.0627351850271225f,-0.11759151518344879f,0.019752325490117073f,0.021396726369857788f,0.5474085807800293f,-0.05176717787981033f,-0.01886671967804432f,0.01883820630609989f,-0.10714533925056458f,-0.017344728112220764f,0.21773038804531097f,-0.12053848057985306f,-0.11756929010152817f,0.15324737131595612f,0.03852283954620361f,-0.02164478786289692f,-0.01821361668407917f,-0.0020132570061832666f,0.006467361934483051f,0.18848596513271332f,0.010156244970858097f,-0.030226998031139374f,-0.019930100068449974f,-0.06451056897640228f,0.02396158128976822f},
{0.8169125318527222f,-0.15789802372455597f,0.8712654709815979f,0.04529893398284912f,-0.3492569923400879f,-0.1721447855234146f,-1.3743979930877686f,-0.020501205697655678f,0.070367231965065f,0.04069528356194496f,0.05340013653039932f,0.09397184103727341f,0.05321246758103371f,-0.03162555769085884f,0.0025961778592318296f,-0.028469284996390343f,0.02300967089831829f,-0.2679615914821625f,0.07297513633966446f,-0.035552773624658585f,0.07596196979284286f,-0.017304524779319763f,-0.007962267845869064f,-0.024606430903077126f,-0.04381076991558075f,0.19635601341724396f,0.06179432198405266f,-0.17967703938484192f,0.0049544284120202065f,0.040044207125902176f,-0.025571202859282494f,-0.039089858531951904f,-0.34865930676460266f,0.03503178432583809f,-0.01983882300555706f,0.17195454239845276f,0.03415267914533615f,0.008216961286962032f,0.06691844761371613f,-0.05525286868214607f,-0.09430136531591415f,0.03187429904937744f,0.3497973382472992f,0.24898980557918549f,0.05937933549284935f,0.1812744289636612f,-0.06929612904787064f,-0.011353346519172192f,0.1346537321805954f,-0.04361507296562195f,0.025031179189682007f,0.03915321081876755f,0.004115078132599592f,-0.2750210165977478f,0.0016764174215495586f,0.026374662294983864f,-0.15758687257766724f,-0.025050567463040352f,-0.1316417008638382f,0.01826437935233116f,0.02232838049530983f,0.021514927968382835f,0.09411853551864624f,-0.016436085104942322f,0.03826354071497917f,0.020679974928498268f,-0.001373214297927916f,-0.03387879207730293f,0.09466782212257385f,0.00772873405367136f,0.03346380963921547f,0.11591847240924835f,-0.016095774248242378f,0.14838996529579163f,0.03058936819434166f,0.14811475574970245f,-0.09724603593349457f,-0.04911699891090393f,0.04628423973917961f,-0.13520276546478271f,-0.015805689617991447f,-0.09209781140089035f,-0.001512671122327447f,-1.044551134109497f,0.05527569353580475f,0.18953685462474823f,0.07136773318052292f,0.16650702059268951f,-0.004360383842140436f,-0.042529016733169556f,-0.042568858712911606f,-0.09007644653320312f,-0.03649923950433731f,0.07456982135772705f,-0.016571668907999992f,-0.28331005573272705f,-0.056440968066453934f,-0.1253201812505722f,-0.012497047893702984f,-0.06246133893728256f,-0.10027967393398285f,-0.005497843958437443f,-0.20419012010097504f,-0.1999179869890213f,-0.027816809713840485f,-0.14714227616786957f,0.022409817203879356f,0.6767764687538147f,-0.13424669206142426f,0.0030635823495686054f,-0.15079353749752045f,-0.10681730508804321f,-0.013013465330004692f,0.2783068120479584f,-0.06242522969841957f,-0.1379753202199936f,0.014587796293199062f,0.043073009699583054f,-0.25271570682525635f,0.04064565151929855f,0.038192618638277054f,-0.08014184981584549f,0.16692717373371124f,-0.036584824323654175f,-0.05653075873851776f,-0.045524436980485916f,-0.04520929232239723f,0.04410996660590172f},
{0.7544894814491272f,-0.11644953489303589f,-0.23141442239284515f,0.007223663851618767f,-0.43369269371032715f,-0.1380673497915268f,0.06599222123622894f,-0.0007938456838019192f,0.05391954630613327f,0.04124752804636955f,0.0451907142996788f,0.043860625475645065f,0.037153515964746475f,-0.06054620072245598f,-0.026936117559671402f,-0.02131528966128826f,-0.03246547654271126f,-0.24808472394943237f,0.060567911714315414f,-0.04145679250359535f,0.05370120704174042f,0.019605936482548714f,-0.031246574595570564f,0.08586293458938599f,-0.0469902940094471f,0.17433546483516693f,0.012977859005331993f,-0.024699131026864052f,0.02986755780875683f,0.02788899652659893f,0.006175094284117222f,0.031921520829200745f,-0.21804983913898468f,0.025096796452999115f,-0.04985615238547325f,0.009426742792129517f,-0.02089090645313263f,0.016017623245716095f,0.09207086265087128f,-0.05878947302699089f,-0.018422987312078476f,-0.03692873939871788f,0.17872260510921478f,0.17076174914836884f,0.05114153027534485f,0.15606151521205902f,0.008795931935310364f,-0.024397380650043488f,0.15752871334552765f,0.0020519220270216465f,0.1760540008544922f,0.04364567622542381f,0.0016681196866557002f,-0.10173531621694565f,-0.04705032706260681f,0.022919269278645515f,-0.006022244226187468f,-0.026839161291718483f,0.03129892796278f,0.026126088574528694f,0.02163296937942505f,0.0002426029823254794f,0.04374092072248459f,-0.030177246779203415f,0.05378730222582817f,0.0817423015832901f,-0.1160174086689949f,0.0035553243942558765f,0.0788346529006958f,0.0012232492445036769f,-0.014443935826420784f,0.03730136901140213f,-0.010437573306262493f,0.10122307389974594f,0.012158763594925404f,0.1430874764919281f,-0.0617772676050663f,-0.11138956248760223f,-0.028468625620007515f,0.022334696725010872f,-0.006278352811932564f,-0.10292807221412659f,-0.007500262465327978f,-1.0795146226882935f,0.06829751282930374f,0.11544100940227509f,0.029732411727309227f,0.1282683163881302f,0.00911650899797678f,0.02573019079864025f,-0.01104561798274517f,0.07530607283115387f,-0.010134963318705559f,0.10052509605884552f,-0.01931559480726719f,-0.15813253819942474f,-0.06290872395038605f,-0.13693314790725708f,-0.0442575067281723f,-0.04138416051864624f,-0.031998034566640854f,-0.02278609201312065f,-0.06653086841106415f,-0.1140209287405014f,0.002584383822977543f,0.030443856492638588f,0.038709018379449844f,0.5777457356452942f,0.026700882241129875f,-0.03851821646094322f,0.04685423895716667f,-0.12211727350950241f,-0.014598674140870571f,0.2610262334346771f,-0.08938279002904892f,-0.09161677211523056f,0.14738723635673523f,0.06865184009075165f,-0.030256059020757675f,-0.01848440431058407f,0.02084069699048996f,0.05838799476623535f,0.14409103989601135f,0.03157259523868561f,-0.08439932018518448f,-0.03335494548082352f,-0.027903584763407707f,-0.027059560641646385f},
{0.7871261835098267f,-0.141579270362854f,-0.35413238406181335f,0.025977954268455505f,0.7342454195022583f,-0.1494540423154831f,0.33418136835098267f,-0.038619961589574814f,0.09256821125745773f,0.0011494990903884172f,0.04259205982089043f,0.052757397294044495f,-0.129866361618042f,-0.02254273183643818f,-0.007007210049778223f,0.011168697848916054f,-0.11077442765235901f,-0.36043626070022583f,0.05434057116508484f,-0.04949355125427246f,0.07028700411319733f,-0.0027321490924805403f,-0.2303084135055542f,-0.03737415000796318f,-0.050270792096853256f,0.2392100840806961f,0.05050428956747055f,-0.04387667402625084f,-0.04868762195110321f,0.019430628046393394f,0.000285350572085008f,-0.009895246475934982f,0.6320199370384216f,0.051034364849328995f,-0.024795448407530785f,0.18729625642299652f,-0.028558915480971336f,0.013959597796201706f,-0.008113213814795017f,-0.009239206090569496f,-0.011510726995766163f,-0.024977678433060646f,0.3084525763988495f,0.19159755110740662f,0.05917434021830559f,0.17286929488182068f,0.03771023452281952f,-0.0764618068933487f,0.27345308661460876f,0.004358910024166107f,-0.10442521423101425f,0.006228986661881208f,-0.021849634125828743f,-0.13688981533050537f,0.03936056047677994f,0.009872164577245712f,-0.03739344701170921f,-0.06469612568616867f,-0.006792960222810507f,-0.035421911627054214f,-0.024863682687282562f,0.03845949098467827f,0.01938372291624546f,-0.09160149097442627f,0.02844676561653614f,0.00314343417994678f,-0.061560776084661484f,-0.025044508278369904f,0.08463387191295624f,-0.010023136623203754f,0.039890583604574203f,0.05584155395627022f,-0.1192796528339386f,0.3213479220867157f,-0.050011709332466125f,0.15764911472797394f,-0.04946240410208702f,-0.07161762565374374f,-0.025610405951738358f,0.021032758057117462f,-0.004559895023703575f,0.061420392245054245f,-0.012961541302502155f,-1.2045114040374756f,0.013300183229148388f,0.09593047946691513f,0.025134587660431862f,0.21206265687942505f,-0.10795202106237411f,0.048808783292770386f,-0.06163851171731949f,0.11134994029998779f,-0.08862800896167755f,0.03817075490951538f,-0.05713789910078049f,-0.16313020884990692f,-0.04130598157644272f,-0.06150322034955025f,-0.09274470061063766f,-0.0452641136944294f,0.009910882450640202f,-0.021208493039011955f,-0.16954092681407928f,-0.18582932651042938f,-0.021219005808234215f,-0.016593510285019875f,0.03993161395192146f,0.5257158875465393f,0.003574561793357134f,-0.0346718356013298f,0.011255324818193913f,-0.07819568365812302f,0.032635897397994995f,0.3038005232810974f,-0.059355296194553375f,-0.06462426483631134f,0.11367490142583847f,0.07394862920045853f,0.0029460068326443434f,0.030241144821047783f,0.07192322611808777f,0.02953440696001053f,-1.6071898937225342f,0.035272128880023956f,-0.1556224822998047f,-0.043864376842975616f,-0.05575242266058922f,0.033213261514902115f},
{-0.04049147665500641f,-0.10293503850698471f,-0.10246051102876663f,-0.03389798477292061f,-0.125247523188591f,-0.10235618054866791f,0.01220984198153019f,0.036474332213401794f,-0.11845744401216507f,0.056716181337833405f,0.006035324651747942f,0.0356413796544075f,0.0053647421300411224f,-0.023718606680631638f,0.17266498506069183f,0.7195333242416382f,-0.0066626411862671375f,0.0388530008494854f,0.049089882522821426f,-0.029663188382983208f,0.1733836829662323f,0.02514210343360901f,-0.037395451217889786f,0.04471069574356079f,-0.02183709293603897f,-0.10959203541278839f,0.0701850950717926f,-0.051963984966278076f,0.009913855232298374f,0.006272875238209963f,0.0072020795196294785f,0.3314077854156494f,-0.14831936359405518f,-0.4518807828426361f,0.00017377024050801992f,-0.16098587214946747f,-0.037837620824575424f,-0.06199263036251068f,0.36904433369636536f,-0.0026239948347210884f,-0.0738825798034668f,-0.10065560042858124f,0.12158612161874771f,0.2220834642648697f,0.002516291569918394f,0.12423703819513321f,-0.3310925364494324f,-0.12573547661304474f,0.16844962537288666f,-0.0055973888374865055f,0.10466299206018448f,0.09792228043079376f,-0.024137724190950394f,-0.03456979617476463f,0.102016881108284f,0.043992262333631516f,-0.11792165040969849f,0.02837606519460678f,-0.10584256798028946f,-0.06978239864110947f,-0.04592476785182953f,0.11679612100124359f,-0.06239508092403412f,0.02593114972114563f,0.06381789594888687f,0.016112130135297775f,-0.0746857225894928f,-0.035150088369846344f,0.09787151217460632f,0.042694900184869766f,-0.01704525202512741f,0.07730020582675934f,0.030947597697377205f,-0.054176535457372665f,0.042361173778772354f,-0.22716151177883148f,0.0542578399181366f,-0.02280569262802601f,-0.01947738789021969f,-0.048431556671857834f,-0.005150466691702604f,0.038221776485443115f,0.013015363365411758f,0.003600538708269596f,0.07134939730167389f,0.11162682622671127f,-0.0008674960699863732f,0.2847427427768707f,-0.05177735537290573f,0.055215463042259216f,0.07133027911186218f,-0.0029807777609676123f,-0.05381331220269203f,0.03349608555436134f,-0.01667221263051033f,-0.05434713140130043f,-0.034488286823034286f,0.23323136568069458f,0.07527007907629013f,0.019184637814760208f,0.043458033353090286f,-0.009868154302239418f,-0.0103305010125041f,-0.2051924616098404f,-0.03571224957704544f,-0.015325290150940418f,0.04852823168039322f,-0.056971799582242966f,0.03514847531914711f,-0.0004898493643850088f,-0.023387039080262184f,-0.08122751116752625f,-0.015283257700502872f,-0.1015380397439003f,0.07356643676757812f,0.28665462136268616f,0.053993817418813705f,-1.197874903678894f,-0.031689710915088654f,0.05942007899284363f,0.05790894478559494f,0.011984270066022873f,-0.045132413506507874f,-0.03580069541931152f,-0.05088300257921219f,-0.01225280575454235f,-0.0009402109426446259f,0.01732744462788105f},
{-0.020997844636440277f,-0.08242807537317276f,-0.02508188784122467f,-0.09003642946481705f,0.061818432062864304f,-0.028619466349482536f,0.07749073207378387f,0.037535879760980606f,-0.2869036793708801f,0.05962194502353668f,-0.0688178688287735f,0.03213764354586601f,-0.02215791679918766f,-0.02912908047437668f,0.18461202085018158f,1.0974681377410889f,-0.03267854079604149f,0.10112613439559937f,0.04101661592721939f,-0.0923079401254654f,0.1865137815475464f,0.02931121364235878f,-0.0411105677485466f,0.05011822655797005f,-0.011115017347037792f,-0.22525876760482788f,0.04699438065290451f,-0.10221900790929794f,0.01008644513785839f,0.0059919715858995914f,0.013775646686553955f,0.03640285134315491f,-0.05100603774189949f,-1.252028226852417f,-0.0074601382948458195f,-0.030591005459427834f,-0.05884789675474167f,0.030336815863847733f,0.45312508940696716f,0.061696603894233704f,-0.07874807715415955f,-0.08884149044752121f,-0.0533488504588604f,0.15172044932842255f,-0.12366583198308945f,0.17137035727500916f,-0.5362294316291809f,-0.1297827810049057f,0.08326400071382523f,-0.02438311092555523f,0.013218526728451252f,0.0830751284956932f,0.0051283929497003555f,-0.0352335050702095f,0.03833819180727005f,-0.02003570646047592f,-0.10596343874931335f,-0.0047463662922382355f,-0.09515178948640823f,-0.06360578536987305f,0.0018124276539310813f,0.09171268343925476f,0.010127995163202286f,-0.04424246400594711f,0.10755922645330429f,0.027044886723160744f,-0.06902893632650375f,0.008988398127257824f,0.0807580053806305f,0.0651005282998085f,-0.050466276705265045f,-0.07012191414833069f,-0.047238800674676895f,-0.08301213383674622f,0.01998000405728817f,-0.0925222635269165f,0.1021302118897438f,-0.030529024079442024f,0.05396531522274017f,-0.06739576160907745f,-0.0855509415268898f,0.027831479907035828f,-0.012362448498606682f,-0.0016338254790753126f,0.050985489040613174f,0.0053117903880774975f,0.006146731786429882f,0.21915261447429657f,-0.03099551796913147f,0.09342370927333832f,0.08681461215019226f,-0.0813916027545929f,-0.04699855297803879f,0.042710185050964355f,-0.04699867218732834f,-0.08293350785970688f,-0.03439199551939964f,0.20092003047466278f,0.03444667533040047f,0.11654423177242279f,0.08882425725460052f,0.01459383312612772f,0.09860340505838394f,-0.1171632781624794f,-0.02730633318424225f,-0.05134733393788338f,0.13298754394054413f,-0.003971567377448082f,-0.07093413919210434f,0.007221921347081661f,-0.05855664238333702f,-0.1214199960231781f,-0.07416737079620361f,-0.04865327849984169f,0.0684015154838562f,0.29507455229759216f,-0.060815416276454926f,-0.03270774707198143f,0.07747697830200195f,0.12923693656921387f,0.0017283408669754863f,0.009250723756849766f,0.06139492988586426f,-0.015585513785481453f,-0.06513674557209015f,0.016062404960393906f,0.029903065413236618f,-0.03107530064880848f},
{-0.014619159512221813f,-0.07192656397819519f,-0.018485473468899727f,-0.12468831986188889f,-0.003049270249903202f,-0.014876872301101685f,0.03537846729159355f,0.04684519022703171f,-0.06494257599115372f,0.09198319166898727f,-0.060791805386543274f,0.042914457619190216f,0.04521099850535393f,0.006258571054786444f,0.19183427095413208f,0.7764441967010498f,0.00808058213442564f,0.1661939173936844f,0.03199416771531105f,-0.01362696848809719f,0.04783015325665474f,0.07896683365106583f,-0.00923753809183836f,0.014908337965607643f,-0.0014171639923006296f,-0.09672500938177109f,0.055084120482206345f,-0.07433026283979416f,-0.026737535372376442f,-0.013227645307779312f,0.06174169480800629f,0.2152298092842102f,-0.040114473551511765f,-0.64542555809021f,-0.02139228768646717f,-0.1577381044626236f,0.021987345069646835f,-0.04823008552193642f,0.357778400182724f,0.01922924816608429f,-0.08554451912641525f,-0.1149837002158165f,0.0337638296186924f,0.20242094993591309f,0.022782033309340477f,0.18728423118591309f,0.6909024715423584f,-0.04270502179861069f,0.08130975067615509f,-0.025229288265109062f,0.11072929948568344f,0.0795799046754837f,-0.002882002154365182f,-0.0725109726190567f,0.11822210252285004f,-0.0154759855940938f,-0.018830081447958946f,0.01837783493101597f,-0.1056927815079689f,-0.07500732690095901f,-0.10344325006008148f,0.08179666846990585f,-0.10793142765760422f,-0.003097975393757224f,0.07673171907663345f,-0.0035292834509164095f,-0.06133691221475601f,0.02916531451046467f,0.06560111045837402f,0.07774468511343002f,-0.020817134529352188f,-0.019514964893460274f,-0.03742404282093048f,-0.07482798397541046f,0.01845775917172432f,-0.09535057842731476f,0.15727606415748596f,0.043103739619255066f,-0.042530596256256104f,-0.06871192902326584f,-0.05238223820924759f,0.04275842383503914f,0.050709087401628494f,0.009983047842979431f,0.05748390778899193f,0.12022741138935089f,-0.011719965375959873f,0.32178565859794617f,-0.04881768301129341f,0.046565841883420944f,0.07095085084438324f,-0.05226989462971687f,-0.04819228872656822f,0.04591265320777893f,-0.03992985188961029f,-0.03639356046915054f,-0.040522605180740356f,0.22139163315296173f,0.05120513215661049f,0.04279475659132004f,0.03368087857961655f,0.004050548188388348f,0.23250022530555725f,-0.21536237001419067f,-0.016658170148730278f,0.017814766615629196f,0.11527667194604874f,0.014963616617023945f,0.0423438623547554f,-0.01864612102508545f,-0.06854763627052307f,-0.06867715716362f,-0.022658731788396835f,-0.04471005126833916f,0.07189396023750305f,0.2700473368167877f,0.06746256351470947f,-1.0830966234207153f,0.004655025899410248f,0.029958928003907204f,0.027586545795202255f,0.0042930045165121555f,0.0468163825571537f,-0.07067850977182388f,0.002578503219410777f,-0.03901756554841995f,0.039235670119524f,-0.030350586399435997f},
{0.021256905049085617f,-0.07652159780263901f,-0.013137639500200748f,-0.0238774623721838f,0.013759156689047813f,-0.018914703279733658f,-0.018369022756814957f,-0.04557391256093979f,-0.10309919714927673f,0.07292845845222473f,-0.036176640540361404f,0.028610197827219963f,-0.018819594755768776f,-0.0321182981133461f,0.14059282839298248f,-0.21630927920341492f,0.026042738929390907f,0.11220727860927582f,0.06069520115852356f,-0.10159850865602493f,0.03213527053594589f,0.011432944796979427f,-0.009371570311486721f,0.07469084113836288f,-0.0655435100197792f,-0.08823314309120178f,0.11451099067926407f,-0.06826213747262955f,0.00477716326713562f,-0.07862880080938339f,0.04158725589513779f,0.3757583200931549f,-0.05198286101222038f,0.09441247582435608f,-0.0634654238820076f,-0.0977383702993393f,0.04449968785047531f,-0.049114011228084564f,0.42571306228637695f,-0.017915809527039528f,-0.054332099854946136f,-0.12088477611541748f,-0.02196511998772621f,0.15457500517368317f,0.003419544780626893f,0.03653161972761154f,-0.20824354887008667f,-0.09168805181980133f,0.10848000645637512f,0.015258771367371082f,0.004744427278637886f,0.06587883085012436f,0.0017500792164355516f,-0.07106407731771469f,0.12067175656557083f,-0.0699869766831398f,-0.07859620451927185f,-0.004718950483947992f,-0.08645633608102798f,-0.07876355201005936f,0.013040042482316494f,0.051447853446006775f,-0.05868372693657875f,-0.018695812672376633f,0.05057712644338608f,-0.044991157948970795f,-0.011803871020674706f,-0.021678268909454346f,0.043448977172374725f,0.0742257609963417f,-0.013995444402098656f,0.08141367137432098f,-0.0790521427989006f,-0.07752620428800583f,0.020768724381923676f,-0.058565836399793625f,0.23288209736347198f,-0.12292390316724777f,-0.004507728386670351f,-0.07316286861896515f,0.01655946671962738f,0.019190696999430656f,-0.040911413729190826f,-0.005993500351905823f,-0.02810712158679962f,0.04540560394525528f,-0.0116253811866045f,0.1677144169807434f,-0.026530498638749123f,0.10409949719905853f,0.09139314293861389f,-0.06639552116394043f,-0.0733574628829956f,0.11986406147480011f,-0.0494660809636116f,-0.06577078253030777f,0.03415045142173767f,0.1569463014602661f,0.07417324185371399f,0.03888386860489845f,0.02846480719745159f,-0.013903358019888401f,0.0032128847669810057f,-0.16472609341144562f,-0.10072119534015656f,-0.06384679675102234f,0.08434885740280151f,-0.011525562964379787f,0.024537978693842888f,-0.047792065888643265f,-0.03198528289794922f,-0.07443107664585114f,-0.03405347838997841f,-0.06901447474956512f,0.018952321261167526f,0.2332288771867752f,0.05447911098599434f,-0.0675719678401947f,0.09230943769216537f,-0.0077565996907651424f,-0.014562487602233887f,-0.05115183815360069f,0.058231279253959656f,-0.19284185767173767f,-0.04615819826722145f,0.012382766231894493f,0.011039217934012413f,0.025760099291801453f},
{0.04563809931278229f,-0.13734382390975952f,0.018373684957623482f,0.0025522815994918346f,-0.0035416947212070227f,-0.16092757880687714f,0.005712318699806929f,-0.047167252749204636f,-0.4757795035839081f,0.07526735216379166f,-0.044087816029787064f,0.04686553403735161f,0.07255538552999496f,-0.11860321462154388f,0.14426325261592865f,-0.6552532315254211f,-0.025870205834507942f,0.0689125508069992f,0.13038526475429535f,-0.034422069787979126f,-0.5853744149208069f,0.021815450862050056f,-0.005668623838573694f,0.020411178469657898f,-0.13273952901363373f,-0.13262194395065308f,0.22413751482963562f,-0.0525553859770298f,0.04025103151798248f,-0.0007534368778578937f,0.027282018214464188f,0.6366581320762634f,0.01821606233716011f,0.5084365606307983f,-0.02644537203013897f,-0.39671409130096436f,-0.09453414380550385f,-0.013958211988210678f,0.4866707921028137f,-0.0064205205999314785f,-0.02929934300482273f,-0.0015832788776606321f,0.08337832242250443f,0.3234350085258484f,-0.04312605410814285f,0.038479894399642944f,-0.4706377685070038f,-0.1646520346403122f,0.07462116330862045f,-0.04630710929632187f,0.05457153171300888f,0.08270766586065292f,-0.03152602165937424f,-0.1492762565612793f,0.12095630913972855f,-0.04655748978257179f,-0.005537154618650675f,-0.00793084129691124f,-0.04335399717092514f,-0.045302748680114746f,0.03300441801548004f,0.05944548919796944f,0.07131387293338776f,-0.012868627905845642f,0.08259373158216476f,-0.030231669545173645f,-0.01657135598361492f,0.09472554922103882f,0.0776824802160263f,0.051931172609329224f,-0.09584826976060867f,0.07506422698497772f,-0.008180081844329834f,-0.17521776258945465f,0.07917891442775726f,-0.2560688853263855f,0.20570749044418335f,-0.03287552669644356f,0.06373170018196106f,-0.013331564143300056f,-0.00908874161541462f,0.002227736869826913f,-0.002040652558207512f,-0.03145790472626686f,0.07618206739425659f,0.11254577338695526f,0.011792328208684921f,0.2454715222120285f,-0.007184640504419804f,-0.004169803112745285f,-0.019786488264799118f,-0.03936336562037468f,-0.06359273195266724f,-0.008667484857141972f,-0.041394710540771484f,-0.13322331011295319f,-0.05632868781685829f,0.29569071531295776f,0.06680028140544891f,-0.09177420288324356f,0.06490311771631241f,0.01806141436100006f,0.08138636499643326f,-0.2660515606403351f,-0.07339360564947128f,0.01821025460958481f,0.0027482735458761454f,-0.09638217836618423f,-0.053967494517564774f,-0.02390824630856514f,-0.024248968809843063f,-0.2492629885673523f,-0.09677200764417648f,-0.2227831780910492f,-0.021129600703716278f,0.34746548533439636f,-0.06554069370031357f,-0.14895710349082947f,-0.01730353571474552f,0.06784995645284653f,-0.06968473643064499f,-0.0038103959523141384f,0.02760571986436844f,-0.05082098767161369f,-0.01294697355479002f,0.015387549065053463f,-0.015430918894708157f,0.05986914038658142f},
{0.02627761848270893f,-0.07338536530733109f,-0.015112938359379768f,-0.044832341372966766f,0.0522017739713192f,-0.019914092496037483f,0.03121287189424038f,0.019167747348546982f,-0.05064510181546211f,0.1134091317653656f,-0.03342019021511078f,0.0266147218644619f,0.005733114667236805f,0.020153023302555084f,0.17416179180145264f,-0.14651890099048615f,-0.0014574268134310842f,0.14066153764724731f,0.03445025160908699f,-0.1513427048921585f,0.11981584876775742f,0.023860841989517212f,-0.00497742323204875f,0.05405320227146149f,-0.07598239928483963f,-0.09530158340930939f,0.12205363065004349f,-0.025927389040589333f,0.019277328625321388f,-0.03194302320480347f,0.04851019009947777f,0.27751249074935913f,-0.03104478493332863f,-0.024502018466591835f,-0.013797533698379993f,-0.04861769825220108f,-0.005434044636785984f,-0.03470349684357643f,0.32309454679489136f,0.01940886303782463f,-0.057667024433612823f,-0.08734400570392609f,-0.09558439999818802f,0.13130506873130798f,0.015150180086493492f,-0.002749223727732897f,0.7139467000961304f,-0.09044837206602097f,0.11694105714559555f,0.009843487292528152f,0.029797831550240517f,0.07087934762239456f,0.016570379957556725f,-0.04353819787502289f,0.08304035663604736f,0.0674150213599205f,-0.08032675832509995f,0.030092744156718254f,-0.07611163705587387f,-0.061798591166734695f,0.007186864502727985f,0.053098782896995544f,-0.05605478212237358f,-0.02309335768222809f,0.08665230870246887f,0.007559429854154587f,-0.1313563883304596f,-0.02819179557263851f,0.042366400361061096f,0.09355108439922333f,-0.054656513035297394f,0.005505818873643875f,-0.0473538376390934f,-0.09263472259044647f,-0.063472680747509f,-0.12284110486507416f,-0.05522708222270012f,-0.06673367321491241f,-0.06587237119674683f,-0.052888721227645874f,-0.01283552497625351f,0.012971993535757065f,-0.01977764256298542f,0.0283356886357069f,-0.05048953369259834f,0.05003998056054115f,0.0018905227771028876f,0.17161281406879425f,-0.007534858305007219f,0.0605044811964035f,0.14723974466323853f,-0.07240328192710876f,-0.02720683254301548f,0.05508065223693848f,-0.019058022648096085f,-0.06231900304555893f,0.019071677699685097f,0.14806108176708221f,0.08865945041179657f,0.011759404093027115f,0.04312187805771828f,0.012097015976905823f,0.08755265176296234f,-0.07996393740177155f,-0.12902191281318665f,-0.04823549836874008f,0.09246298670768738f,-0.028250673785805702f,-0.04052801430225372f,-0.009218718856573105f,-0.051962051540613174f,-0.06974390149116516f,-0.05008694529533386f,-0.06377971917390823f,-0.021136926487088203f,0.20573535561561584f,0.1086171567440033f,-0.17288462817668915f,0.07334969192743301f,-0.008505298756062984f,-0.03874734044075012f,0.008036509156227112f,0.05588347837328911f,-0.04557471722364426f,-0.04334599897265434f,0.023106517270207405f,-0.016929659992456436f,-0.004158771596848965f},
{-0.027478763833642006f,-0.0812125951051712f,0.0685122013092041f,-0.05185597017407417f,-0.007983578369021416f,-0.04873714596033096f,0.04951496794819832f,-0.013469535857439041f,-0.19625231623649597f,0.07675962895154953f,-0.0018432469805702567f,0.01877674087882042f,0.03439208120107651f,-0.01677864044904709f,0.07651659101247787f,-0.2618207335472107f,0.06453095376491547f,0.1882503628730774f,0.0656205341219902f,-0.08730953931808472f,0.07235360145568848f,0.03685534745454788f,0.00999496877193451f,-0.0036837952211499214f,-0.008229012601077557f,-0.14709383249282837f,0.1911669373512268f,-0.2184276282787323f,-0.026026729494333267f,0.012419088743627071f,0.012713334523141384f,0.5241531133651733f,-0.004796216730028391f,0.003946188371628523f,-0.020606154575943947f,-0.1836417317390442f,-0.04873550683259964f,-0.0011194333201274276f,0.4429801106452942f,-0.010519491508603096f,-0.07771162688732147f,-0.040390219539403915f,-0.030028488487005234f,0.16958418488502502f,0.0313555970788002f,0.13789387047290802f,-0.37973836064338684f,-0.06665478646755219f,0.028892314061522484f,-0.04910507798194885f,0.04542141780257225f,0.05415348336100578f,0.003428584663197398f,-0.1300680935382843f,0.04289703816175461f,-0.007526826113462448f,-0.23502117395401f,-0.005706492345780134f,-0.22439326345920563f,-0.07696391642093658f,-0.023499200120568275f,0.08315101265907288f,0.09662728756666183f,0.022544102743268013f,0.07823611795902252f,-0.0065935165621340275f,-0.03989015892148018f,-0.00234468886628747f,0.06259666383266449f,-0.005542909260839224f,-0.00901876576244831f,0.06587672233581543f,-0.04893065616488457f,-0.10702167451381683f,0.07650473713874817f,-0.11066070944070816f,0.12129056453704834f,-0.05827214568853378f,0.02595660462975502f,-0.19120383262634277f,-0.024478686973452568f,0.020375484600663185f,-0.0416422113776207f,-0.049061235040426254f,0.060025040060281754f,0.14891469478607178f,0.04040253907442093f,0.19604432582855225f,-0.009679626673460007f,0.04569963365793228f,0.06753243505954742f,-0.21006417274475098f,-0.0883038192987442f,0.010221552103757858f,-0.05726286768913269f,-0.05261269211769104f,0.006057922262698412f,0.21130084991455078f,0.0771670714020729f,-0.000594884273596108f,0.01649457775056362f,0.02730785682797432f,0.010076245293021202f,-0.1374160498380661f,-0.05135296657681465f,-0.24458806216716766f,0.0581311360001564f,-0.05615885183215141f,-0.10271652042865753f,-0.00850805826485157f,-0.1860896199941635f,-0.10604097694158554f,-0.029756370931863785f,-0.11544276028871536f,0.04204064980149269f,0.2331681102514267f,-0.09224649518728256f,0.15282049775123596f,-0.08800873160362244f,0.005673492327332497f,0.06029563769698143f,-0.10421795397996902f,0.04625897482037544f,-0.032473620027303696f,-0.03141171485185623f,0.02859623357653618f,-0.017913518473505974f,0.008080735802650452f},
{0.031159687787294388f,-0.10433721542358398f,-0.04346231371164322f,-0.04214523732662201f,-0.0017871020827442408f,-0.0723194107413292f,0.0367313027381897f,0.012777724303305149f,-0.15819399058818817f,0.07090035825967789f,-0.023265831172466278f,0.04629719629883766f,-0.0018166928784921765f,-0.05853047966957092f,-0.000758326961658895f,-0.3875699043273926f,7.53762578824535e-05f,0.10703372210264206f,0.048125971108675f,-0.05594877898693085f,0.053735069930553436f,0.04768235981464386f,-0.009501926600933075f,0.09537608921527863f,-0.019293762743473053f,-0.09584961086511612f,0.11105835437774658f,-0.10060599446296692f,0.0008039045496843755f,0.004889728967100382f,0.03921470791101456f,0.4107338488101959f,-0.02927202545106411f,0.7623615860939026f,-0.032146889716386795f,-0.24261851608753204f,-0.050466135144233704f,-0.00044418664765544236f,0.40932366251945496f,-0.08867197483778f,-0.024829614907503128f,-0.09200644493103027f,0.0071899257600307465f,0.2142399251461029f,-0.0034048811066895723f,0.15819542109966278f,-0.2800891399383545f,-0.07753386348485947f,0.11715765297412872f,-0.00047741018352098763f,0.003302831668406725f,0.021056324243545532f,0.05568741261959076f,-0.039293259382247925f,0.05760166794061661f,-0.025592632591724396f,-0.09843885153532028f,0.024791700765490532f,-0.03170429542660713f,-0.04376296326518059f,-0.009196563623845577f,0.09022314101457596f,-0.026377229019999504f,0.010403120890259743f,0.09866156429052353f,0.04114864394068718f,-0.07993969321250916f,0.015878504142165184f,0.07653404772281647f,0.018935704603791237f,-0.06624507158994675f,0.036229319870471954f,-0.04023487865924835f,-0.061580147594213486f,0.014441514387726784f,-0.13407903909683228f,0.12745895981788635f,-0.0755184069275856f,0.008381906896829605f,-0.0839809700846672f,-0.012449396774172783f,0.03007161058485508f,-0.0476200208067894f,0.017912179231643677f,0.07134438306093216f,0.03898746892809868f,-0.00977620854973793f,0.2733588218688965f,-0.017833085730671883f,0.05558465048670769f,0.08465472608804703f,-0.04928635060787201f,-0.09186098724603653f,0.04515970125794411f,-0.016365595161914825f,-0.0762559324502945f,-0.04578041657805443f,0.1672225296497345f,0.06272631883621216f,0.06274829804897308f,0.03981425240635872f,0.014790086075663567f,0.1316813975572586f,-0.0813591405749321f,-0.02315777912735939f,0.0315520353615284f,0.06704764068126678f,-0.04614466056227684f,0.023176448419690132f,-0.0324096716940403f,-0.06831365078687668f,-0.11522020399570465f,-0.04748332500457764f,-0.0933753252029419f,0.011833633296191692f,0.29298919439315796f,0.019279366359114647f,-1.342520833015442f,0.06694032996892929f,-0.03740859031677246f,-0.0010474456939846277f,-0.0040069445967674255f,0.039949290454387665f,-0.07407478243112564f,-0.077940434217453f,-0.01777750439941883f,-0.010313257575035095f,-0.04007617011666298f},
{0.01020894106477499f,-0.07952089607715607f,0.0010773952817544341f,-0.05886542797088623f,0.01086602732539177f,-0.08617682754993439f,0.050480395555496216f,-0.050847578793764114f,-0.1777052879333496f,0.047386202961206436f,0.016196370124816895f,0.0033168985974043608f,-0.21476183831691742f,-0.022225666791200638f,0.07757261395454407f,-0.2659541964530945f,-0.03452368453145027f,0.01933298632502556f,0.03289046883583069f,-0.07715609669685364f,0.13076305389404297f,0.011717116460204124f,0.0030447975732386112f,0.01139355730265379f,0.0029822303913533688f,-0.05587615817785263f,0.13512328267097473f,-0.12480670213699341f,-0.03916068747639656f,0.010205651633441448f,0.0426594503223896f,0.5241239666938782f,0.05344365909695625f,-0.07127071171998978f,-0.0003825411549769342f,-0.17140698432922363f,-0.04209335148334503f,0.0016099722124636173f,0.41459447145462036f,0.04344619810581207f,-0.0546480156481266f,-0.06373584270477295f,-0.016297433525323868f,0.17258085310459137f,0.04073483124375343f,0.18292021751403809f,0.5564979910850525f,-0.1037818044424057f,0.14001449942588806f,-0.004140445962548256f,0.09253975749015808f,-0.012487966567277908f,0.026316026225686073f,-0.0613861083984375f,0.05989433452486992f,-0.016273867338895798f,-0.06595631688833237f,-0.04050835967063904f,-0.04654186591506004f,-0.14744554460048676f,-0.0015340980608016253f,0.07908022403717041f,-0.03511044383049011f,-0.042206067591905594f,0.09112267941236496f,0.021963955834507942f,-0.13064317405223846f,0.07613731175661087f,0.05129513144493103f,0.028820250183343887f,-0.01589038595557213f,0.0206304918974638f,-0.15588530898094177f,-0.03861772641539574f,-0.004093358293175697f,-0.08236811310052872f,0.21039175987243652f,-0.08553478866815567f,0.028413988649845123f,-0.08650817722082138f,0.010309812612831593f,0.010368221439421177f,-0.010278988629579544f,-0.03155718371272087f,0.019395148381590843f,0.09640505164861679f,0.022786138579249382f,0.19212500751018524f,-0.12196951359510422f,0.0901179313659668f,0.010361389257013798f,-0.06332174688577652f,-0.14391040802001953f,0.01159662939608097f,-0.05686109513044357f,-0.07854675501585007f,-0.00011809536954388022f,0.21876437962055206f,0.10594497621059418f,0.028183961287140846f,0.07637090235948563f,-0.014678612351417542f,0.15027444064617157f,-0.14718666672706604f,-0.01182301715016365f,-0.028802502900362015f,0.04061463475227356f,-0.055154185742139816f,-0.0485704243183136f,-0.01609654724597931f,-0.06092027574777603f,-0.06963112205266953f,-0.013872065581381321f,-0.05328303202986717f,0.04216121509671211f,0.24810776114463806f,0.045016348361968994f,0.18981777131557465f,0.027575010433793068f,0.013983015902340412f,0.04791369289159775f,0.046474602073431015f,-0.023074645549058914f,-0.03898530825972557f,-0.15955722332000732f,0.05479975789785385f,-0.020583121106028557f,-0.04297985881567001f},
{-0.0653919130563736f,0.2924473285675049f,-0.09150362759828568f,0.7527190446853638f,-0.12698198854923248f,-0.17226465046405792f,0.0444374606013298f,-0.10778447985649109f,-0.0067020198330283165f,0.006836108397692442f,0.06454919278621674f,0.0018756574718281627f,0.003825574880465865f,0.03248972445726395f,0.11346621811389923f,0.06253693997859955f,-0.015662046149373055f,0.1306801289319992f,-0.0003120911424048245f,0.05679875612258911f,-0.00475311279296875f,-0.0105501813814044f,-0.02792014367878437f,0.06246069818735123f,-0.035862550139427185f,-0.16343717277050018f,-0.3402574360370636f,-0.0183919295668602f,0.03609234467148781f,-0.0292058028280735f,-0.00994394812732935f,-0.05670282244682312f,-0.16871583461761475f,-0.029210619628429413f,0.4886125326156616f,0.1316508650779724f,0.013328855857253075f,-0.3795868158340454f,-0.020633848384022713f,-0.00257790251635015f,-0.03988219052553177f,-0.011465889401733875f,-0.021390007808804512f,0.2387889325618744f,0.032856523990631104f,0.11585819721221924f,0.03154239058494568f,0.215797558426857f,-0.3277662396430969f,0.3643626272678375f,0.05768587067723274f,0.05896538868546486f,0.019788993522524834f,-0.15624354779720306f,-0.054684434086084366f,0.007007282227277756f,-0.010779040865600109f,-0.020209377631545067f,-0.04077691212296486f,0.020624253898859024f,-0.4336080253124237f,0.018142689019441605f,-0.007125604432076216f,-0.11582601070404053f,0.07633890956640244f,0.02206447161734104f,-0.03583370894193649f,-0.031382761895656586f,0.06536512821912766f,0.016635093837976456f,0.005715813487768173f,-0.09455311298370361f,0.06024269759654999f,-0.17879585921764374f,0.059816669672727585f,0.08659609407186508f,-0.011662921868264675f,0.6693922877311707f,0.008213656954467297f,0.016550611704587936f,0.0313158743083477f,0.019099067896604538f,-0.036819279193878174f,-0.012377283535897732f,-0.015365206636488438f,0.1268315613269806f,-0.15458029508590698f,0.2251361906528473f,-0.057747408747673035f,-0.04568685591220856f,-0.03239229694008827f,0.03680947422981262f,-0.03864653408527374f,0.03588700294494629f,0.8768366575241089f,0.035857610404491425f,-0.033638980239629745f,-0.14722098410129547f,0.029075320810079575f,-0.04717494919896126f,0.05056419223546982f,0.01674896664917469f,0.033924080431461334f,-0.24703817069530487f,0.056529175490140915f,-0.006001608911901712f,-0.05256662517786026f,0.0020968576427549124f,0.24944594502449036f,0.27138641476631165f,0.04288699850440025f,-0.221499964594841f,0.008885446935892105f,-0.25471460819244385f,-0.08224017918109894f,-0.14872132241725922f,0.03307439386844635f,-0.024909526109695435f,-0.0820426270365715f,0.04060898348689079f,0.06665859371423721f,0.008334983140230179f,-0.09685599058866501f,0.002787014003843069f,-0.01906183548271656f,1.1437269449234009f,-0.008100134320557117f,-0.031248081475496292f},
{-0.06278826296329498f,0.18915966153144836f,-0.041367340832948685f,-0.5422866940498352f,0.0017480450915172696f,-0.1454503834247589f,0.0627458468079567f,-0.09666255861520767f,0.02336122654378414f,-0.004922941792756319f,-0.003409850876778364f,0.024714305996894836f,-0.014863347634673119f,0.0016588690923526883f,0.14863991737365723f,-0.05800982564687729f,0.057265862822532654f,0.21964243054389954f,-0.0039522782899439335f,0.020742949098348618f,0.022557726129889488f,0.02965959906578064f,-0.02910221554338932f,0.07544507086277008f,-0.056157082319259644f,-0.1870604157447815f,-0.484264612197876f,-0.05341940373182297f,0.0032080579549074173f,-0.06744974106550217f,0.055063940584659576f,-0.06288769096136093f,-0.060281429439783096f,-0.0010999502846971154f,0.12634477019309998f,-0.026895293965935707f,-0.013846888206899166f,-0.29828280210494995f,-0.12083755433559418f,-0.005417743232101202f,-0.019242987036705017f,-0.05759734287858009f,-0.10723382979631424f,0.15627945959568024f,0.02181391417980194f,0.08657339215278625f,-0.1320418119430542f,0.11312220990657806f,-0.2897137701511383f,0.4212934076786041f,0.11313748359680176f,0.03877551108598709f,0.018614204600453377f,-0.10263688862323761f,-0.0474485382437706f,-0.0031674562487751245f,0.021880345419049263f,-0.011986857280135155f,-0.01457461528480053f,-0.012932369485497475f,-0.2236499786376953f,-0.007765129674226046f,-0.0066221486777067184f,-0.14015629887580872f,0.08491663634777069f,-0.04214683920145035f,-0.017809800803661346f,-0.006539812311530113f,0.05467965081334114f,0.04887209087610245f,-0.04605437442660332f,-0.08053745329380035f,-0.017017604783177376f,-0.1122325211763382f,0.032037388533353806f,0.1394452601671219f,0.05004894733428955f,0.6656646132469177f,0.02133532613515854f,0.022396590560674667f,0.29739102721214294f,-0.0071825264021754265f,0.004921282641589642f,0.022035064175724983f,-0.02277325838804245f,0.07101419568061829f,-0.16495853662490845f,0.14130832254886627f,-0.04533701390028f,-0.058881860226392746f,-0.003368767909705639f,0.010488475672900677f,-0.04200555756688118f,0.023274488747119904f,0.05723613500595093f,0.07746362686157227f,-0.04861224442720413f,-0.20064976811408997f,0.016068734228610992f,-0.001231950824148953f,0.091670460999012f,8.291937410831451e-05f,0.09491059929132462f,-0.16941560804843903f,0.003801944898441434f,0.017351970076560974f,0.014892456121742725f,0.009846744127571583f,0.16792219877243042f,0.19952534139156342f,-0.011481386609375477f,-0.1869896501302719f,-0.03208797052502632f,-0.14518307149410248f,-0.050446487963199615f,-0.08626751601696014f,-0.021693402901291847f,0.021414367482066154f,-0.0043028006330132484f,0.006391368340700865f,0.05390622466802597f,-0.025197802111506462f,0.009531720541417599f,-0.02004951611161232f,0.006675350479781628f,-0.8104889392852783f,0.009948182851076126f,-0.04401639476418495f},
{-0.04176250100135803f,0.43005624413490295f,-0.04709916561841965f,-0.7854064702987671f,-0.002779813949018717f,-0.11812815815210342f,0.03533283993601799f,-0.11281567066907883f,0.12048335373401642f,0.027100037783384323f,-0.04835878685116768f,0.08709678798913956f,-0.029488224536180496f,0.08197063952684402f,0.23937878012657166f,0.04377293959259987f,0.06200296804308891f,0.2247515320777893f,-0.044536881148815155f,0.0917847603559494f,-0.059990156441926956f,0.015297695994377136f,-0.010968190617859364f,0.013806920498609543f,-0.0021149362437427044f,-0.10681875795125961f,-0.12685923278331757f,0.02363644726574421f,-0.025127843022346497f,-0.07909157872200012f,-0.8909039497375488f,-0.0364467091858387f,-0.07175938785076141f,-0.023351633921265602f,0.03357169032096863f,0.12777894735336304f,-0.014246917329728603f,-0.014795229770243168f,-0.009996270760893822f,0.010240231640636921f,-0.006666671950370073f,-0.07280249148607254f,-0.1055128425359726f,0.3167443573474884f,0.030085816979408264f,0.1686175912618637f,0.03719470649957657f,0.2984686493873596f,-0.32400885224342346f,0.7597633004188538f,0.04893822595477104f,0.09945493191480637f,-0.039428144693374634f,-0.06615500897169113f,-0.033667128533124924f,0.03830505535006523f,0.12721440196037292f,-0.041364774107933044f,0.001693255384452641f,-0.024565473198890686f,-0.6540782451629639f,-0.000347854191204533f,0.02633320540189743f,-0.10113724321126938f,0.07023827731609344f,-0.02961418218910694f,0.038938265293836594f,0.025907382369041443f,0.05162682756781578f,0.05256420001387596f,-0.0004432265996001661f,-0.14848677814006805f,0.01946110464632511f,-0.09560078382492065f,0.0032946711871773005f,0.06430510431528091f,0.07677807658910751f,0.6992819309234619f,0.00693258922547102f,0.0401589460670948f,0.374539315700531f,0.046235691756010056f,-0.02270636335015297f,0.002492581494152546f,-0.007824795320630074f,0.10762438178062439f,-1.803887963294983f,0.38840094208717346f,-0.0866764560341835f,-0.07928025722503662f,-0.05165620893239975f,0.04049939289689064f,-0.024383852258324623f,0.0076766046695411205f,0.7887174487113953f,0.39220476150512695f,-0.020075097680091858f,-0.10710158944129944f,0.013429727405309677f,-0.020733386278152466f,0.08197976648807526f,0.06455909460783005f,0.1779772788286209f,-0.07160890847444534f,0.07222393900156021f,0.03014008142054081f,0.03272845968604088f,0.056776102632284164f,0.2098645567893982f,1.0961813926696777f,-0.003326685866340995f,-0.1565270870923996f,-0.003233179450035095f,-0.1427512764930725f,-0.009662372060120106f,-0.128883495926857f,-0.010468262247741222f,-0.011019575409591198f,-0.04532312974333763f,-0.00022747128969058394f,0.01973775587975979f,-0.015976039692759514f,0.015478918328881264f,0.025614455342292786f,0.06919989734888077f,0.6210494637489319f,0.05609002336859703f,-0.032680194824934006f},
{-0.017248857766389847f,0.19168345630168915f,-0.01863587647676468f,1.0164376497268677f,-0.022116519510746002f,-0.12030112743377686f,0.03796593099832535f,-0.036481667309999466f,0.05148166045546532f,0.012887773104012012f,0.0016949871787801385f,-0.002086880849674344f,-0.017706003040075302f,0.005070596933364868f,0.12330402433872223f,0.008779256604611874f,0.06410836428403854f,0.15083648264408112f,0.016158314421772957f,-0.0021547870710492134f,-0.012265150435268879f,0.031684670597314835f,-0.009339231066405773f,0.04284057393670082f,-0.061020150780677795f,-0.17830027639865875f,-0.3344742953777313f,0.0011071457993239164f,0.016839809715747833f,-0.18178099393844604f,0.0778169259428978f,-0.01861225813627243f,-0.0553337000310421f,0.00755366962403059f,-0.20425425469875336f,0.015628982335329056f,0.07544569671154022f,-0.03470345214009285f,-0.055833835154771805f,-0.01378332544118166f,-0.04063231498003006f,-0.12911397218704224f,-0.07999007403850555f,0.1408846080303192f,0.02794443443417549f,0.01229783147573471f,-0.00912963505834341f,0.11723563075065613f,-0.36542990803718567f,0.08670522272586823f,0.014780251309275627f,0.04380796477198601f,0.03456887602806091f,-0.10934534668922424f,-0.055221833288669586f,-0.06779686361551285f,0.02075149491429329f,-0.027789324522018433f,-0.017723239958286285f,-0.0006785941659472883f,0.892581582069397f,-0.01939924620091915f,-0.08547542989253998f,-0.11779090017080307f,0.0487016886472702f,-0.03532464802265167f,0.10745254158973694f,0.020207632333040237f,0.06656034290790558f,0.07684684544801712f,0.020634932443499565f,-0.1716054081916809f,-0.03057660348713398f,-0.12864793837070465f,0.03718684986233711f,0.0462920144200325f,0.14578993618488312f,0.5801110863685608f,-0.007364252582192421f,-0.02904975600540638f,-0.09342185407876968f,0.02197306789457798f,-0.052443116903305054f,-0.007685961667448282f,-0.055124279111623764f,0.063912034034729f,0.07205203175544739f,0.13562461733818054f,-0.05509629845619202f,-0.014635046012699604f,0.03258168324828148f,-0.0047875214368104935f,-0.03191074728965759f,0.16410726308822632f,0.21332721412181854f,0.06605905294418335f,-0.009345696307718754f,-0.1401781588792801f,-0.0028634248301386833f,-0.016459861770272255f,0.031469885259866714f,-0.028016582131385803f,0.0168549045920372f,-0.1877114325761795f,0.011825104244053364f,-0.017581401392817497f,0.04025554656982422f,0.023453157395124435f,0.21163465082645416f,-0.04938072711229324f,0.006646384485065937f,-0.17312683165073395f,0.03494605794548988f,-0.20554080605506897f,-0.06787104159593582f,-0.14886027574539185f,0.08690495789051056f,0.005638004746288061f,0.04468265548348427f,0.01465299166738987f,-0.008409321308135986f,-0.03835918754339218f,0.024683736264705658f,-0.13403379917144775f,-0.006520075723528862f,-0.03637151047587395f,0.028297215700149536f,-0.031461283564567566f},
{0.046774111688137054f,0.3300669491291046f,0.02648620493710041f,-1.034350872039795f,-0.0002318099286640063f,-0.30159664154052734f,0.05613325536251068f,-0.17671091854572296f,0.05355476215481758f,-0.001287105493247509f,0.03721600025892258f,0.042323797941207886f,0.022348087280988693f,-0.03265861049294472f,0.0452224425971508f,0.06007350608706474f,0.06496664881706238f,0.13179530203342438f,0.09720895439386368f,0.09715075045824051f,-0.18531069159507751f,-0.032935723662376404f,0.050797708332538605f,0.11762239038944244f,-0.09659240394830704f,-0.25228750705718994f,-0.5298565030097961f,-0.0028802286833524704f,0.01766546629369259f,-0.05867936462163925f,0.07982103526592255f,-0.07732251286506653f,0.019474836066365242f,0.01997850462794304f,0.6213659048080444f,-0.08080587536096573f,-0.09515687078237534f,-0.2305525541305542f,-0.047549374401569366f,0.021670451387763023f,0.05236988514661789f,0.10879378765821457f,-0.19144035875797272f,0.2367309033870697f,0.02362569235265255f,0.023207630962133408f,0.09601221233606339f,0.33804383873939514f,-0.5882135629653931f,-0.8499454259872437f,0.0028807073831558228f,0.044650524854660034f,0.007909244857728481f,-0.1862533986568451f,-0.04564068093895912f,-0.15307751297950745f,0.06732679158449173f,0.00849126372486353f,0.06366358697414398f,0.04931061342358589f,0.8111574053764343f,-0.0076074437238276005f,0.1536201685667038f,-0.03644079342484474f,0.0813591480255127f,-0.058098167181015015f,0.01969452016055584f,0.14657115936279297f,0.1160145029425621f,0.005840535741299391f,-0.0645093321800232f,-0.05440255627036095f,0.05938657745718956f,-0.2559409439563751f,0.18768180906772614f,0.0784294456243515f,0.09766466170549393f,0.7433452606201172f,0.1457689106464386f,0.07475274056196213f,0.3472576141357422f,-0.0009775651851668954f,-0.11010458320379257f,-0.04243745654821396f,-0.03193770721554756f,0.14276137948036194f,0.8645281791687012f,0.1755068600177765f,-0.025932662189006805f,-0.12121579796075821f,-0.08030873537063599f,-0.010792145505547523f,-0.018917245790362358f,-0.12027749419212341f,0.07492368668317795f,0.3152998089790344f,-0.11632964760065079f,-0.30737006664276123f,0.014568448066711426f,-0.16235840320587158f,0.06038564816117287f,0.03823893517255783f,0.043227460235357285f,-0.454250305891037f,0.11216288059949875f,-0.0007443110225722194f,-0.12560497224330902f,-0.061617299914360046f,0.25304239988327026f,0.12719343602657318f,0.037839438766241074f,-0.326975017786026f,-0.023488063365221024f,-0.3617503046989441f,-0.108382448554039f,-0.2052394300699234f,-0.16785678267478943f,0.050694290548563004f,-0.21324755251407623f,0.006979835219681263f,-0.06446012854576111f,-0.03375328704714775f,-0.058708082884550095f,0.03345842286944389f,0.0565713606774807f,0.048859529197216034f,-0.06898530572652817f,0.030074037611484528f},
{-0.0008202337776310742f,0.1638023853302002f,-0.009857675060629845f,-0.18580128252506256f,0.01547245029360056f,-0.07168082147836685f,0.021882474422454834f,-0.06460043787956238f,0.06544923037290573f,0.02458483912050724f,-0.022753769531846046f,0.007371894083917141f,0.01026493776589632f,0.09295475482940674f,0.1717483550310135f,0.05206281319260597f,0.046452585607767105f,0.23843015730381012f,0.040134984999895096f,-0.08941996097564697f,-0.009931749664247036f,-0.006922468543052673f,0.025201896205544472f,0.07264304161071777f,-0.10762616246938705f,-0.15497177839279175f,-0.0005731704295612872f,0.03776917606592178f,0.0407266728579998f,-0.06977451592683792f,-0.7806000709533691f,-0.042046919465065f,-0.044671278446912766f,-0.024309180676937103f,-0.19549693167209625f,0.0833015963435173f,-0.0023740394972264767f,-0.17384614050388336f,-0.08196896314620972f,0.008885177783668041f,-0.014892625622451305f,0.021928267553448677f,-0.22383496165275574f,0.13245563209056854f,0.010213283821940422f,0.0035741853062063456f,0.0403878390789032f,0.09460151940584183f,-0.35847774147987366f,0.2960207760334015f,0.1368882805109024f,0.013121042400598526f,0.07651933282613754f,-0.04504784569144249f,-0.07694436609745026f,0.035931479185819626f,0.025546692311763763f,-0.01501455157995224f,-0.01299324631690979f,0.029718566685914993f,0.9039624333381653f,-0.05371136963367462f,0.07475829124450684f,-0.15133553743362427f,0.08497752249240875f,0.00574712036177516f,-0.14498314261436462f,-0.0412437878549099f,0.08678140491247177f,0.050223421305418015f,-0.051512133330106735f,-0.28158655762672424f,0.014157343655824661f,-0.10708314925432205f,0.1265416145324707f,0.09693928807973862f,0.01508905179798603f,0.5600932240486145f,0.03836740180850029f,0.05096716061234474f,-0.0671253651380539f,0.012218902818858624f,-0.07944020628929138f,-0.043834857642650604f,-0.10380984842777252f,0.09635832160711288f,-0.13717983663082123f,0.1707310527563095f,-0.01061986479908228f,-0.09252007305622101f,0.008175401017069817f,-0.007913226261734962f,-0.002627893351018429f,0.010920751839876175f,0.0295834019780159f,0.08434536308050156f,-0.00814132485538721f,-0.08960012346506119f,0.09531285613775253f,-0.04946405440568924f,0.01505312416702509f,0.03209831193089485f,0.10884930938482285f,-0.16772936284542084f,-0.05260607600212097f,-0.015298626385629177f,-0.00146961968857795f,0.013871809467673302f,0.08894341439008713f,1.4840359687805176f,-0.011007945984601974f,-0.14720655977725983f,-0.028383778408169746f,-0.1690918654203415f,-0.1096772700548172f,-0.061041414737701416f,0.10036013275384903f,0.010591169819235802f,-0.12448686361312866f,-0.03729168325662613f,-0.013134448789060116f,-0.0010255032684653997f,-0.011377392336726189f,0.0474461168050766f,0.04475993663072586f,0.07591921091079712f,-0.017683835700154305f,-0.015028294175863266f},
{0.0014409554423764348f,0.2627900540828705f,0.07174194604158401f,0.7400115728378296f,0.018272418528795242f,-0.1603756844997406f,0.05767548084259033f,-0.1337032914161682f,0.11395123600959778f,-0.07692675292491913f,0.034265052527189255f,0.0528002493083477f,0.056316401809453964f,0.06672989577054977f,-0.041372232139110565f,0.07235728949308395f,0.10311608761548996f,0.263203501701355f,0.07607239484786987f,0.05747165530920029f,-0.08467628061771393f,0.02266918495297432f,0.06464459002017975f,-0.020558487623929977f,-0.05228457599878311f,-0.25145894289016724f,-0.39518022537231445f,-0.11753597855567932f,-0.030405821278691292f,-0.005341151263564825f,-0.03770444914698601f,-0.08279463648796082f,-0.013388237915933132f,0.016550982370972633f,0.7723117470741272f,0.11282423883676529f,-0.03046473115682602f,-0.12444055825471878f,-0.020747998729348183f,-0.046579450368881226f,0.019681068137288094f,0.08360946923494339f,-0.14023855328559875f,0.23478534817695618f,-0.0027062674053013325f,0.1196274533867836f,0.046560898423194885f,0.29392167925834656f,-0.48097801208496094f,-0.649647057056427f,-0.03570207953453064f,-0.016224298626184464f,0.03159389644861221f,-0.2679734230041504f,0.03406093642115593f,-0.10855062305927277f,-0.10753462463617325f,-0.056484319269657135f,-0.12275122106075287f,0.0212496779859066f,-0.5936667919158936f,0.0011411256855353713f,0.24932900071144104f,-0.12326253205537796f,0.074907086789608f,-0.03667030110955238f,0.012330482713878155f,0.04370071738958359f,0.10705816745758057f,-0.0044292607344686985f,0.002809616271406412f,-0.048161059617996216f,-0.0026231238152831793f,-0.15670228004455566f,0.25865641236305237f,0.09201351553201675f,0.04317542910575867f,0.5348426699638367f,0.09222652018070221f,-0.09998330473899841f,0.24322926998138428f,0.0004098400822840631f,-0.03716719523072243f,-0.0587160587310791f,-0.08659130334854126f,0.19547919929027557f,0.9004493355751038f,0.11682958155870438f,-0.009590044617652893f,-0.08721121400594711f,-0.04928237572312355f,-0.14800862967967987f,-0.02167917974293232f,-0.07108146697282791f,0.0821458026766777f,0.375060111284256f,-0.026021474972367287f,-0.12595050036907196f,0.05316523462533951f,-0.01562819816172123f,-0.0024925153702497482f,0.03097180649638176f,-0.045595549046993256f,-0.25699153542518616f,0.08412099629640579f,-0.16808395087718964f,-0.03733829781413078f,-0.07217825204133987f,0.10258525609970093f,0.1177159771323204f,-0.11219611018896103f,-0.20997430384159088f,-0.0012358532985672355f,-0.3302556276321411f,-0.08291063457727432f,-0.1189376711845398f,-0.1759399026632309f,0.018299344927072525f,-0.2976550757884979f,-0.021070746704936028f,0.06803251802921295f,-0.13421183824539185f,-0.022620970383286476f,0.019468171522021294f,0.04145234823226929f,0.11172841489315033f,-0.01967323012650013f,0.04806237295269966f},
{-0.021665800362825394f,0.2429855614900589f,-0.05551934242248535f,-0.337460994720459f,-0.061669982969760895f,-0.16229252517223358f,0.054822202771902084f,-0.07198520004749298f,-0.006978984456509352f,0.0016368296928703785f,0.02725602500140667f,0.022367050871253014f,-0.0025967247784137726f,-0.003212885931134224f,-0.03779088333249092f,0.005463774781674147f,0.05233127996325493f,0.19259342551231384f,0.024177532643079758f,0.021612459793686867f,-0.04073285683989525f,0.031098386272788048f,0.011603073216974735f,0.1586274653673172f,-0.04080870747566223f,-0.20775893330574036f,-0.337016224861145f,0.0008947196183726192f,0.002739038085564971f,-0.06731364876031876f,0.05888722464442253f,-0.040295396000146866f,-0.05076903477311134f,0.04923636093735695f,0.04479071870446205f,-0.07888876646757126f,-0.06052229180932045f,-0.30035102367401123f,-0.0690087080001831f,-0.07405437529087067f,-0.02444503828883171f,-0.04051113501191139f,-0.113507479429245f,0.21040433645248413f,0.02947784587740898f,0.1266373246908188f,0.001061758492141962f,0.16277435421943665f,-0.38593077659606934f,0.1907861977815628f,0.019641771912574768f,-0.01761445589363575f,0.023900212720036507f,-0.13225851953029633f,-0.07437498867511749f,-0.05011514946818352f,0.014639019966125488f,-0.03543591871857643f,0.031904421746730804f,0.023851724341511726f,-0.4526748061180115f,-0.008414942771196365f,-0.013219032436609268f,-0.08326555788516998f,0.07691898196935654f,0.023323744535446167f,-0.04010345786809921f,0.027872350066900253f,0.05701737850904465f,0.023167042061686516f,-0.0568220354616642f,-0.1752198487520218f,0.018814003095030785f,-0.08590291440486908f,0.07216229289770126f,0.08590441942214966f,0.013708101585507393f,0.5450976490974426f,-0.04308803752064705f,-0.020321594551205635f,0.3319486379623413f,0.025282273069024086f,-0.054037995636463165f,0.013183092698454857f,-0.002297294093295932f,0.08974547684192657f,0.013662467710673809f,0.15772747993469238f,-0.034787874668836594f,-0.038366883993148804f,0.008828642778098583f,0.034335486590862274f,-0.02970891073346138f,0.005166760645806789f,1.1590118408203125f,0.047918424010276794f,-0.05192440375685692f,-0.1312355101108551f,0.05976494774222374f,-0.03608507663011551f,0.035596176981925964f,0.02944035641849041f,0.13488154113292694f,-0.11928198486566544f,0.04186476767063141f,0.038496050983667374f,0.021830834448337555f,0.0032394120935350657f,0.256407231092453f,0.0990130677819252f,-0.013523712754249573f,-0.16660076379776f,0.0008268750971183181f,-0.1889452338218689f,-0.06795220077037811f,-0.1488000899553299f,0.029766777530312538f,0.027397261932492256f,0.008477883413434029f,-0.0064970748499035835f,0.013032976537942886f,-0.01330009289085865f,-0.005215431097894907f,-0.03987026959657669f,-0.022190511226654053f,0.19809463620185852f,-0.009173351339995861f,-0.06412907689809799f},
{-0.002590354299172759f,0.32247695326805115f,0.014902926050126553f,-0.49303528666496277f,0.007346556521952152f,-0.15335731208324432f,0.04288199916481972f,-0.13885365426540375f,0.13819442689418793f,-0.0226779505610466f,0.025086279958486557f,-0.0014739896869286895f,-0.18121156096458435f,0.07874906063079834f,0.036212969571352005f,0.05560816079378128f,0.0006305104470811784f,0.1165810152888298f,0.075276680290699f,0.062388308346271515f,-0.008470514789223671f,-0.0015755925560370088f,0.03374391794204712f,0.03658972308039665f,-0.023205028846859932f,-0.1687583029270172f,-0.10046801716089249f,-0.01147809624671936f,-0.056003227829933167f,-0.021910633891820908f,-0.8699029684066772f,-0.08296344429254532f,0.05184447392821312f,0.009391349740326405f,0.23151223361492157f,0.07736799120903015f,-0.0824168398976326f,-0.3053980767726898f,-0.052805520594120026f,0.04040657356381416f,-0.0020417021587491035f,-0.00012188067194074392f,-0.12871699035167694f,0.2611323595046997f,0.069571353495121f,0.19856448471546173f,0.09984954446554184f,0.16665464639663696f,-0.3462890386581421f,0.29795870184898376f,0.10809986293315887f,-0.07204187661409378f,0.022988587617874146f,-0.14441104233264923f,0.06630806624889374f,-0.036546528339385986f,0.03211217001080513f,-0.035053785890340805f,0.015928391367197037f,-0.033822063356637955f,-0.6054303050041199f,0.010011913254857063f,0.1935814768075943f,-0.15067635476589203f,0.08461660146713257f,-0.002148147439584136f,-0.02472948469221592f,0.046066999435424805f,0.06756285578012466f,0.010568713769316673f,-0.0164303220808506f,-0.1919996589422226f,-0.12050291895866394f,-0.09977085888385773f,0.21065816283226013f,-0.011445675045251846f,0.15977932512760162f,0.7839585542678833f,0.10700250416994095f,0.0714813694357872f,0.24945755302906036f,0.0011652078246697783f,-0.03973843529820442f,-0.021970419213175774f,-0.06549014896154404f,0.1519845873117447f,-0.13569074869155884f,0.19770216941833496f,-0.14949128031730652f,-0.04263998195528984f,-0.07022552192211151f,0.01821753941476345f,-0.11730989813804626f,-0.04331370070576668f,0.02087981440126896f,0.12541310489177704f,-0.04211833328008652f,-0.10148714482784271f,0.08097216486930847f,-0.02201356738805771f,0.05339006334543228f,0.01993543654680252f,0.10700677335262299f,-0.23738621175289154f,0.08092749118804932f,0.005251758266240358f,-0.05114820599555969f,-0.017495252192020416f,0.17351911962032318f,1.6524627208709717f,-0.02639613300561905f,-0.1583065241575241f,0.02283293753862381f,-0.22408050298690796f,-0.0961068868637085f,-0.15948738157749176f,-0.011164496652781963f,0.013133525848388672f,-0.1763787716627121f,0.03338482230901718f,0.046379342675209045f,-0.02508118748664856f,-0.08353075385093689f,0.024794552475214005f,-0.174055278301239f,0.18003495037555695f,-0.04966292530298233f,0.030270498245954514f},
