#ifndef UTTT2_PARAMETERS_H
#define UTTT2_PARAMETERS_H

float hiddenWeights[128][190] = {{-0.17979402840137482f,0.04003814980387688f,0.19120024144649506f,-0.04917294904589653f,-0.16519416868686676f,0.39680972695350647f,-0.11413481086492538f,-0.0913139060139656f,-0.3793330490589142f,-0.468065470457077f,0.18060359358787537f,-0.011313640512526035f,-0.06800584495067596f,0.4407849907875061f,0.13020339608192444f,0.29720309376716614f,0.17042015492916107f,-0.13976985216140747f,-0.14194566011428833f,-0.4310654103755951f,-0.15611757338047028f,-0.1330106556415558f,-0.3204810321331024f,-0.32134565711021423f,0.17962442338466644f,-0.13704665005207062f,0.24845582246780396f,0.19453279674053192f,0.25740185379981995f,-0.6952797770500183f,-0.047104332596063614f,0.1823955774307251f,0.2770116329193115f,-0.23461571335792542f,0.05727461352944374f,-0.4358915388584137f,-0.48613783717155457f,0.49294331669807434f,-0.07858879119157791f,-0.1375889927148819f,-0.28447476029396057f,0.012341873720288277f,0.0312623605132103f,-0.10670721530914307f,0.08461682498455048f,0.2237003892660141f,-0.22371600568294525f,-0.23003776371479034f,0.36550503969192505f,-0.07363104820251465f,-0.21034665405750275f,0.25191420316696167f,-0.049214426428079605f,0.13605977594852448f,-0.3562912046909332f,0.34830719232559204f,0.31509241461753845f,0.35281628370285034f,-0.35218843817710876f,-0.1915769726037979f,0.0684906616806984f,-0.1505507528781891f,-0.02892940491437912f,0.2672475576400757f,0.023296354338526726f,-0.0021306786220520735f,-0.3312029242515564f,0.2663690745830536f,0.05034675449132919f,-0.18061348795890808f,-0.08664875477552414f,-0.3237918019294739f,0.18914860486984253f,-0.1008184403181076f,0.1029282882809639f,0.3702470362186432f,0.1718648225069046f,-0.5803312659263611f,0.2553870975971222f,-0.48310717940330505f,0.09624787420034409f,-0.0427270233631134f,-0.17897194623947144f,0.40403878688812256f,0.0951017290353775f,0.06405610591173172f,0.026001330465078354f,0.2394968867301941f,0.26502567529678345f,-0.1086045354604721f,-0.19222179055213928f,0.05871383100748062f,0.021714091300964355f,0.10583291947841644f,-0.07195838540792465f,0.030043888837099075f,0.2213716357946396f,0.030742935836315155f,-0.29613083600997925f,-0.002138634445145726f,-0.04623596370220184f,-0.0623227059841156f,0.03130835294723511f,-0.32364127039909363f,0.1530996412038803f,0.15541251003742218f,0.36250758171081543f,0.2851620316505432f,-0.2569900453090668f,0.015342711471021175f,0.1360030621290207f,0.07252926379442215f,-0.02560085989534855f,-0.06286934018135071f,0.31077978014945984f,-0.06255752593278885f,0.440591424703598f,-0.23905202746391296f,-0.22060996294021606f,-0.11381685733795166f,0.08978597074747086f,-0.25238969922065735f,-0.00429100776091218f,-0.15363545715808868f,0.03357821702957153f,0.21621371805667877f,-0.05629566311836243f,0.016593115404248238f,0.04022406041622162f,-0.35319602489471436f,-0.08512523770332336f,-0.09214148670434952f,-0.19366399943828583f,0.00012862990843132138f,0.19098074734210968f,0.35616087913513184f,-0.3250052034854889f,0.3917800784111023f,-0.08398232609033585f,-0.28280892968177795f,0.15634794533252716f,-0.05633334442973137f,0.00241259578615427f,0.085424043238163f,0.2758162319660187f,0.10670311003923416f,0.07877326011657715f,-0.0426056943833828f,-0.023415662348270416f,-0.11152637004852295f,-0.3582231104373932f,-0.2327560931444168f,-0.16017301380634308f,-0.45103663206100464f,-0.21663351356983185f,-0.0065966504625976086f,0.2753993272781372f,-0.0026034533511847258f,-0.05883781611919403f,0.010859011672437191f,0.003273741574957967f,0.155164435505867f,-0.30386224389076233f,-0.20923982560634613f,0.05671081691980362f,0.01591677777469158f,0.07257344573736191f,0.16088390350341797f,0.30707743763923645f,-0.15116986632347107f,-0.044342730194330215f,0.14103257656097412f,-0.005127287469804287f,-0.018105879426002502f,0.05900343507528305f,-0.22228915989398956f,0.22211718559265137f,-0.01594167947769165f,-0.04473251476883888f,-0.39454564452171326f,-0.027776453644037247f,-0.035706739872694016f,-0.04695082828402519f,-0.10117688030004501f,0.006793783511966467f,-0.1072424054145813f,-0.038496341556310654f,-0.06762401014566422f,-0.08482041954994202f,-0.10668876022100449f},
{-0.07581785321235657f,0.05452200025320053f,0.24709437787532806f,-0.08029887080192566f,-0.1486237645149231f,0.12857702374458313f,-0.12651164829730988f,0.014300947077572346f,-0.03823405131697655f,0.3104199767112732f,-0.0370243676006794f,0.24380454421043396f,-0.2616554796695709f,0.0358646921813488f,-0.03274547681212425f,-0.26279452443122864f,0.12298654019832611f,0.049092404544353485f,-0.04410738870501518f,-0.24264997243881226f,0.3360903263092041f,-0.277357816696167f,-0.5502148866653442f,-0.0009548358502797782f,0.06499609351158142f,-0.300285279750824f,-0.44646555185317993f,-0.05671704560518265f,0.00811841432005167f,0.14209143817424774f,0.45882418751716614f,-0.11313347518444061f,0.0655674859881401f,0.1608484983444214f,0.3530896306037903f,0.19631370902061462f,-0.25927025079727173f,0.31919658184051514f,-0.2199196070432663f,-0.14997951686382294f,-0.21115437150001526f,-0.1369522362947464f,-0.20126640796661377f,-0.20761047303676605f,0.5601990818977356f,0.29589027166366577f,-0.06285254657268524f,-0.08608394116163254f,-0.08556695282459259f,-0.8469675779342651f,0.19786572456359863f,0.03952989727258682f,-0.05479416251182556f,0.06592478603124619f,0.44517746567726135f,0.26197171211242676f,-0.30552342534065247f,-0.326957106590271f,-0.060625143349170685f,-0.5219048857688904f,0.20694853365421295f,-0.020743707194924355f,-0.2547704875469208f,0.2342088520526886f,-0.20430725812911987f,-0.10904037207365036f,0.05111159384250641f,0.04315478727221489f,-0.0653679147362709f,-0.01634073443710804f,0.14927169680595398f,0.027921129018068314f,-0.0362325944006443f,0.05076560005545616f,-0.35217827558517456f,-0.11308225989341736f,0.054378822445869446f,0.07142031937837601f,0.006723794620484114f,-0.04415058344602585f,0.03498745709657669f,0.13224513828754425f,0.24307091534137726f,0.3437260389328003f,0.11904314160346985f,-0.07656152546405792f,0.09767208993434906f,-0.027040017768740654f,-0.07012563198804855f,0.10544739663600922f,0.11334209889173508f,-0.015331702306866646f,-0.3281138837337494f,0.3617512285709381f,0.18889160454273224f,0.059015098959207535f,0.2799956798553467f,-0.043485116213560104f,0.07476480305194855f,-0.1995030790567398f,-0.07752976566553116f,0.31559091806411743f,0.026931658387184143f,-0.1095329150557518f,-0.2574533522129059f,-0.03558267280459404f,-0.024706359952688217f,0.0355452336370945f,0.054457277059555054f,-0.20955036580562592f,0.015817251056432724f,-0.4006112217903137f,0.01715799607336521f,-0.1940068155527115f,0.17549139261245728f,0.13964387774467468f,-0.0010241771815344691f,0.31086525321006775f,-0.4597240388393402f,0.037420064210891724f,0.4008826017379761f,0.34501057863235474f,-0.17891356348991394f,-0.5093671083450317f,-0.3037393391132355f,0.21554863452911377f,0.44226008653640747f,-0.0888117328286171f,0.34946680068969727f,-0.4189523756504059f,-0.18268385529518127f,-0.501969575881958f,0.5770903825759888f,-0.19145290553569794f,-0.33933788537979126f,0.14683771133422852f,0.23574082553386688f,0.14070209860801697f,0.1571848839521408f,-0.017670784145593643f,0.0035083619877696037f,-0.1845611184835434f,0.24180902540683746f,0.00027984706684947014f,0.09135744720697403f,-0.12606310844421387f,0.27094316482543945f,-0.20360484719276428f,-0.0004851589328609407f,-0.04599712789058685f,-0.299542099237442f,0.2698933780193329f,0.26688793301582336f,0.12373897433280945f,-0.3072715997695923f,0.24885743856430054f,-0.2660033702850342f,-0.16517260670661926f,-0.07637770473957062f,-0.1745930314064026f,0.22122368216514587f,-0.03888656571507454f,0.20453621447086334f,-0.002614537952467799f,0.16235540807247162f,0.26611557602882385f,-0.017704030498862267f,0.092762790620327f,0.017376616597175598f,-0.11979241669178009f,0.01896628364920616f,0.12214289605617523f,0.048779748380184174f,0.2735339105129242f,-0.190839022397995f,-0.3277565836906433f,-0.10380294919013977f,-0.04806733876466751f,-0.262035071849823f,-0.24778254330158234f,-0.038808178156614304f,-0.07454308867454529f,0.030230369418859482f,-0.17757229506969452f,-0.03371763601899147f,-0.03418847545981407f,-0.13032446801662445f,-0.07264407724142075f,0.10508715361356735f,-0.232692152261734f},
{0.3190183937549591f,-0.01845206879079342f,-0.2699076533317566f,0.49308690428733826f,-0.25856247544288635f,0.0027068068739026785f,-0.23828580975532532f,0.29791250824928284f,-0.09702561050653458f,-0.08071250468492508f,-0.30009689927101135f,0.10022985190153122f,-0.277673602104187f,-0.13232560455799103f,-0.17166511714458466f,0.0642714649438858f,0.1338459849357605f,-0.14631211757659912f,-0.06815744936466217f,-0.17578107118606567f,0.5461704134941101f,-0.16309787333011627f,-0.05793044716119766f,0.09564075618982315f,0.13621386885643005f,-0.17699618637561798f,-0.2465122640132904f,-0.04808912053704262f,-0.04496990889310837f,0.19410133361816406f,-0.16089268028736115f,0.06448061019182205f,-0.027062563225626945f,0.26072803139686584f,-0.14147694408893585f,-0.22155535221099854f,0.2074161022901535f,-0.07884689420461655f,0.30578821897506714f,-0.5645713806152344f,-0.19419778883457184f,0.18082979321479797f,0.2242240011692047f,0.36766940355300903f,-0.06772256642580032f,-0.17290204763412476f,-0.11154671758413315f,-0.08198980987071991f,-0.03815305233001709f,-0.3552757501602173f,0.07234320789575577f,0.01963958702981472f,-0.09575062245130539f,0.11128730326890945f,-0.06718072295188904f,0.13668975234031677f,0.0475589781999588f,0.20211666822433472f,-0.004970035050064325f,-0.47147029638290405f,0.26737916469573975f,-0.29077306389808655f,0.1864449828863144f,0.08122427016496658f,-0.0315900519490242f,-0.21325582265853882f,-0.11419603228569031f,-0.10846903920173645f,-0.24552157521247864f,-0.27935990691185f,0.02577822469174862f,-0.11770933866500854f,0.020650571212172508f,-0.029468955472111702f,0.09227510541677475f,0.17265735566616058f,-0.043646231293678284f,0.04022502154111862f,-0.08765840530395508f,0.3414135277271271f,0.3637621998786926f,-0.06024354696273804f,-0.043883394449949265f,-0.24772672355175018f,0.2779393196105957f,-0.35345831513404846f,0.0957380160689354f,-0.0184389166533947f,0.10778871178627014f,-0.0879194587469101f,0.06544961780309677f,0.08102401345968246f,0.17186465859413147f,-0.36569634079933167f,-0.11120854318141937f,0.12399471551179886f,0.06877695769071579f,0.2613050043582916f,-0.1775444895029068f,0.14215438067913055f,0.0028240145184099674f,-0.22157105803489685f,0.03619090095162392f,0.09079843759536743f,-0.4588102400302887f,0.019415007904171944f,0.393075555562973f,0.08654414862394333f,-0.09813597053289413f,-0.0670020654797554f,-0.35602304339408875f,0.15595294535160065f,0.18708492815494537f,0.24263602495193481f,-0.11271438002586365f,-0.31334394216537476f,0.03918994590640068f,0.10420679301023483f,0.20231859385967255f,0.06365114450454712f,-0.14305680990219116f,0.09744316339492798f,0.1050005704164505f,0.036529310047626495f,0.011874371208250523f,0.19799409806728363f,-0.26569435000419617f,0.02798876166343689f,0.16751626133918762f,-0.14844393730163574f,-0.44510558247566223f,0.088031105697155f,-0.19189251959323883f,-0.2933368980884552f,0.020779576152563095f,0.2618491053581238f,0.2409965693950653f,-0.056492872536182404f,0.20939508080482483f,-0.1820276379585266f,-0.0029788610991090536f,0.09035750478506088f,0.40101754665374756f,0.24891553819179535f,0.03952185809612274f,-0.02866758592426777f,-0.12045296281576157f,-0.17781062424182892f,-0.05119061470031738f,0.09332843124866486f,-0.3725309669971466f,0.2874983251094818f,-0.24111443758010864f,-0.21390558779239655f,-0.05015145242214203f,0.21441586315631866f,-0.23095519840717316f,-0.20477069914340973f,0.32584935426712036f,0.0702727735042572f,0.22618795931339264f,0.10215415060520172f,0.3074686825275421f,-0.26718568801879883f,-0.09036172181367874f,-0.19448991119861603f,0.1644018292427063f,-0.07194194197654724f,-0.18739530444145203f,-0.5393405556678772f,-0.400145024061203f,-0.15057970583438873f,-0.050863780081272125f,0.03408171609044075f,0.26282799243927f,0.15662993490695953f,-0.07497367262840271f,-0.08677420765161514f,-0.01710049994289875f,-0.0990447998046875f,-0.07491748034954071f,-0.03692395240068436f,-0.06607555598020554f,0.03872925043106079f,-0.08315347135066986f,0.024357115849852562f,0.008463750593364239f,-0.06398511677980423f,-0.05688093602657318f,-0.21113571524620056f},
{-0.3209296464920044f,-0.012394707649946213f,-0.22337867319583893f,0.6149163246154785f,0.09132762253284454f,0.00489520188421011f,0.08476034551858902f,0.3669435381889343f,0.10918442159891129f,0.3909503221511841f,-0.11907768249511719f,-0.10137907415628433f,0.3546817898750305f,0.15149186551570892f,0.07083351910114288f,0.29929327964782715f,0.13288414478302002f,0.12421789765357971f,0.24453690648078918f,-0.39840343594551086f,-0.042419444769620895f,-0.05090806260704994f,0.07949742674827576f,0.07226286083459854f,0.12377842515707016f,-0.2332073301076889f,-0.09731200337409973f,0.11566107720136642f,0.23236340284347534f,0.1535358875989914f,-0.5687841773033142f,-0.13429829478263855f,-0.1205999106168747f,0.1784335970878601f,0.3478910028934479f,0.007545644883066416f,-0.21300828456878662f,0.10745422542095184f,0.21537962555885315f,-0.3231021463871002f,-0.28790202736854553f,-0.28927192091941833f,0.3145018219947815f,-0.152365580201149f,-0.08707347512245178f,0.1588445007801056f,0.10120489448308945f,-0.4940122961997986f,0.10585454851388931f,-0.13646215200424194f,0.12731783092021942f,-0.17840458452701569f,-0.13456310331821442f,-0.24672923982143402f,0.014150695875287056f,0.119101382791996f,0.018229199573397636f,0.17158226668834686f,0.14984393119812012f,-0.07519231736660004f,0.08267567306756973f,0.21807046234607697f,0.20219850540161133f,-0.4785614609718323f,-0.41594231128692627f,0.25638294219970703f,0.020813826471567154f,-0.016894344240427017f,0.014125024899840355f,0.007302009500563145f,-0.004776215646415949f,0.24749785661697388f,0.13395431637763977f,-0.07506167888641357f,0.0970408245921135f,0.15410663187503815f,-0.26524272561073303f,-0.09123773872852325f,-0.019695794209837914f,-0.18387222290039062f,-0.14572463929653168f,0.2502234876155853f,0.10421329736709595f,-0.03297453373670578f,0.03666931763291359f,0.11855878680944443f,-0.04960070177912712f,-0.010677461512386799f,0.04244570806622505f,-0.2589832842350006f,-0.3859916031360626f,-0.08831463009119034f,0.14009475708007812f,0.269050657749176f,-0.08968360722064972f,-0.502707302570343f,-0.30558308959007263f,-0.2252475768327713f,-0.050509244203567505f,-0.06376475840806961f,0.21327811479568481f,0.3907894790172577f,-0.2595491111278534f,-0.23307831585407257f,-0.08601034432649612f,-0.21316145360469818f,0.16550762951374054f,-0.05643235519528389f,0.12557363510131836f,-0.04576928913593292f,0.07445128262042999f,0.1431942582130432f,-0.028755487874150276f,0.20831434428691864f,0.31847378611564636f,-0.10409626364707947f,-0.029882246628403664f,-0.3343580961227417f,-0.010234380140900612f,-0.05882110446691513f,-0.14354188740253448f,-0.4745374023914337f,-0.05531957000494003f,-0.2745644748210907f,0.06474965065717697f,-0.10040096938610077f,-0.04364355280995369f,0.10007240623235703f,-0.08907004445791245f,-0.24329544603824615f,0.1318351775407791f,0.33663976192474365f,0.22100034356117249f,0.01001764927059412f,-0.0033118557184934616f,0.09901367872953415f,0.30927401781082153f,0.22491797804832458f,-0.2800699770450592f,-0.6661036014556885f,-0.04894806817173958f,0.077475905418396f,0.07742515206336975f,0.005380998365581036f,0.1594333052635193f,-0.11768005788326263f,0.3681323230266571f,-0.028974460437893867f,0.08564639836549759f,-0.02496415749192238f,0.012719590216875076f,-0.08000215142965317f,0.03158285468816757f,0.08816695958375931f,0.09179854393005371f,0.048831380903720856f,-0.07413775473833084f,0.1457332968711853f,0.08647029846906662f,-0.47672387957572937f,0.026911931112408638f,0.14847791194915771f,-0.05113358050584793f,-0.006593664642423391f,0.14293886721134186f,0.033501747995615005f,-0.19970567524433136f,0.04766333848237991f,0.08051940053701401f,0.08947411924600601f,0.006794115528464317f,0.01518052164465189f,-0.08163914829492569f,-0.041885361075401306f,-0.039202045649290085f,-0.1505691409111023f,0.08304744213819504f,-0.09941563755273819f,0.030069515109062195f,0.17586953938007355f,-0.0721292793750763f,-0.18536926805973053f,-0.141701802611351f,0.08699075877666473f,-0.061640094965696335f,-0.0701848492026329f,-0.09096071124076843f,-0.044292863458395004f,-0.12323231995105743f,-0.06551022082567215f},
{-0.18144537508487701f,-0.13071033358573914f,-0.13731993734836578f,0.12735435366630554f,-0.05190812423825264f,-0.2529398202896118f,-0.10128635168075562f,-0.32396456599235535f,-0.07897945493459702f,-0.1712060421705246f,-0.2102678120136261f,0.005589993670582771f,-0.0282065998762846f,-0.29000386595726013f,-0.6480912566184998f,0.23383793234825134f,0.15703696012496948f,0.33247193694114685f,0.032492831349372864f,-0.5891560316085815f,-0.38624295592308044f,0.3382851779460907f,0.1111832931637764f,0.38096460700035095f,0.062361832708120346f,-0.2605602741241455f,-0.14771443605422974f,0.05168277025222778f,0.047098346054553986f,0.07818709313869476f,-0.22438445687294006f,0.21034716069698334f,0.4227282404899597f,-0.09774133563041687f,-0.2996307909488678f,0.3000835180282593f,0.22400636970996857f,0.02410736121237278f,-0.04195266216993332f,-0.06694216281175613f,-0.1346721202135086f,-0.17737799882888794f,-0.12763601541519165f,-0.14288997650146484f,-0.061226893216371536f,-0.25768542289733887f,0.350942462682724f,0.32493022084236145f,0.4355064630508423f,-0.17660965025424957f,0.2638325095176697f,-0.1508205235004425f,0.23463666439056396f,0.12223967164754868f,0.21122640371322632f,0.030991701409220695f,0.2885698974132538f,-0.15436066687107086f,0.13627494871616364f,-0.4754740595817566f,0.0762706771492958f,0.07533571869134903f,0.048782046884298325f,0.3632260262966156f,0.349293053150177f,0.04012707993388176f,-0.021755103021860123f,-0.29045844078063965f,-0.004237222019582987f,-0.3080485165119171f,-0.004111522808670998f,-0.23683002591133118f,0.1118033304810524f,0.03260456398129463f,0.07254613190889359f,0.0654260441660881f,0.32175517082214355f,0.17116646468639374f,-0.6008831858634949f,-0.11459102481603622f,0.25563809275627136f,0.027925023809075356f,-0.1487864851951599f,0.1408434361219406f,-0.030891498550772667f,-0.03810819983482361f,-0.21659168601036072f,0.07911404967308044f,-0.13000164926052094f,-0.13991263508796692f,0.10685215145349503f,0.3406258225440979f,-0.2174762487411499f,0.0165152195841074f,-0.27872806787490845f,-0.2206304967403412f,-0.2647585868835449f,0.07384499907493591f,0.09931088238954544f,-0.03408195450901985f,0.4433531165122986f,0.134138822555542f,0.29806286096572876f,-0.16662289202213287f,0.39578068256378174f,0.234889954328537f,-0.02802158147096634f,-0.06196053326129913f,0.03942506015300751f,0.07803267240524292f,0.16436907649040222f,-0.0913124606013298f,-0.043555911630392075f,0.10000350326299667f,-0.23143836855888367f,0.24679534137248993f,-0.14342454075813293f,0.20216915011405945f,0.05255596339702606f,-0.21724942326545715f,-0.11933116614818573f,-0.16367624700069427f,0.027047548443078995f,0.046903349459171295f,-0.23352138698101044f,-0.02115912362933159f,-0.287759929895401f,-0.022705823183059692f,0.012836647219955921f,-0.2998436689376831f,-0.27181366086006165f,-0.2596479654312134f,0.16294315457344055f,0.015260825864970684f,0.019764369353652f,0.04741430655121803f,-0.27966785430908203f,-0.09135528653860092f,0.22239865362644196f,-0.43557947874069214f,0.06704545766115189f,0.04408903419971466f,0.16668875515460968f,-0.1437312513589859f,0.07991958409547806f,-0.9117144346237183f,-0.12354028970003128f,-0.23342135548591614f,0.04978242889046669f,0.06741286814212799f,-0.07598967850208282f,0.3606243431568146f,0.10102741420269012f,0.16038665175437927f,-0.1014210656285286f,-0.10223590582609177f,0.08754362165927887f,-0.3304145634174347f,-0.2876783311367035f,-0.526015043258667f,-0.33934447169303894f,0.19622132182121277f,0.014999276027083397f,0.08549385517835617f,-0.16677537560462952f,0.08573939651250839f,-0.3124636113643646f,-0.3730340898036957f,0.23757727444171906f,-0.20652595162391663f,-0.18755654990673065f,-0.023046113550662994f,0.22505521774291992f,0.3665860891342163f,0.35066813230514526f,0.4385373592376709f,0.025971608236432076f,0.34886863827705383f,0.07429229468107224f,-0.36981523036956787f,-0.12846091389656067f,-0.09238813817501068f,-0.10686751455068588f,-0.06952445209026337f,0.12848658859729767f,-0.17837902903556824f,-0.17926572263240814f,-0.15630002319812775f,-0.02050144039094448f,0.04416720196604729f},
{-0.09773259609937668f,-0.24953682720661163f,-0.21269167959690094f,-0.08163576573133469f,-0.12388836592435837f,-0.5847240686416626f,-0.3094303011894226f,0.22771555185317993f,-0.4643458127975464f,-0.025650985538959503f,-0.08952952176332474f,-0.15783336758613586f,0.1673201322555542f,0.3698376417160034f,0.01189368311315775f,-0.11436460167169571f,0.30846554040908813f,0.46460890769958496f,0.5718055963516235f,-0.006816937122493982f,0.23634275794029236f,0.18073955178260803f,0.09769997000694275f,0.192619189620018f,-0.1518164873123169f,0.14367765188217163f,-0.09770844131708145f,0.2912817597389221f,-0.011549391783773899f,-0.021603576838970184f,-0.4297436773777008f,0.08497967571020126f,0.06951900571584702f,-0.01990349404513836f,-0.16624538600444794f,0.20135189592838287f,0.18866026401519775f,-0.1363464742898941f,0.26010578870773315f,0.0594458170235157f,-0.18189626932144165f,-0.11980964243412018f,-0.28141599893569946f,0.007766594644635916f,0.18605606257915497f,-0.029778828844428062f,0.002743692137300968f,0.22788314521312714f,-0.06419479846954346f,-0.7679592967033386f,-0.13131248950958252f,0.11878037452697754f,0.024545473977923393f,-0.06794501096010208f,-0.05813414603471756f,-0.016418619081377983f,-0.29578667879104614f,-0.03030170127749443f,0.12889359891414642f,-0.3631097674369812f,-0.30066683888435364f,-0.02889810875058174f,-0.25499603152275085f,0.11990907788276672f,0.17084844410419464f,0.005279411096125841f,-0.5652331709861755f,-0.2625235319137573f,-0.052223946899175644f,-0.016320666298270226f,-0.19829349219799042f,0.05438726767897606f,-0.12404283881187439f,0.3608427047729492f,0.24171268939971924f,0.1697612851858139f,-0.0870167538523674f,0.017580077052116394f,-0.08052103221416473f,0.10267722606658936f,0.16796649992465973f,-0.05363007262349129f,0.41376635432243347f,-0.06740088015794754f,-0.31240221858024597f,-0.18519079685211182f,0.012866460718214512f,0.2726939022541046f,-0.4636756181716919f,-0.11663708090782166f,0.1921328902244568f,0.055795591324567795f,0.17325133085250854f,0.822142481803894f,0.2161780744791031f,0.24845735728740692f,-0.09362972527742386f,0.2502211332321167f,0.19781456887722015f,0.0602562390267849f,0.13922126591205597f,-0.024879392236471176f,0.06041954085230827f,0.01987013779580593f,-0.37899842858314514f,-0.18273159861564636f,-0.04308502376079559f,0.06725244969129562f,0.19977916777133942f,-0.2601083815097809f,-0.10518885403871536f,-0.22115346789360046f,0.1731031984090805f,0.06500330567359924f,-0.08577411621809006f,0.07515145093202591f,0.0034219124354422092f,0.11917831003665924f,-0.15827426314353943f,-0.03714762255549431f,-0.06677436083555222f,0.31559276580810547f,-0.2695709764957428f,-0.028988871723413467f,-0.007262124679982662f,0.2863604426383972f,0.047978825867176056f,-0.04585547372698784f,-0.012420963495969772f,-0.40714335441589355f,-0.23378562927246094f,-0.20727123320102692f,-0.02586059272289276f,0.07376986742019653f,0.1188134253025055f,0.3727542757987976f,0.3062608540058136f,-0.27858811616897583f,-0.09583058208227158f,-0.08596750348806381f,0.002969238208606839f,-0.2832060158252716f,0.05138228088617325f,-0.16928334534168243f,0.11146628856658936f,-0.11017145961523056f,0.2815704047679901f,-0.09029538929462433f,0.2678236663341522f,-0.24760541319847107f,-0.03408150002360344f,-0.4133601784706116f,0.0342964306473732f,0.1296362280845642f,0.2399485558271408f,0.34560319781303406f,0.09970593452453613f,-0.20965974032878876f,0.07498101890087128f,-0.05870451405644417f,0.0718671977519989f,0.19911624491214752f,-0.24852803349494934f,0.0821649357676506f,-0.04394901171326637f,0.14776846766471863f,0.2727680802345276f,0.16818907856941223f,-0.022998617962002754f,-0.37921029329299927f,-0.0045250896364450455f,0.011775633320212364f,0.43137526512145996f,-0.004431793000549078f,-0.23021124303340912f,0.31027287244796753f,-0.43162307143211365f,-0.1316041648387909f,-0.1090722605586052f,0.14620240032672882f,0.02746591717004776f,-0.063138447701931f,-0.010965459980070591f,-0.1118176057934761f,-0.11005498468875885f,-0.10932876914739609f,-0.07306265085935593f,-0.022636298090219498f,-0.1599360704421997f,-0.23101454973220825f},
{0.14705751836299896f,-0.17549552023410797f,-0.15728196501731873f,0.27841469645500183f,0.338779479265213f,-0.3043212294578552f,-0.1266222894191742f,0.08962954580783844f,-0.05278434976935387f,-0.11771300435066223f,-0.26460930705070496f,0.2428983896970749f,0.293001264333725f,0.07302019000053406f,-0.20256982743740082f,0.15360340476036072f,-0.00840337947010994f,0.08415713161230087f,-0.1783670336008072f,-0.3317124843597412f,0.23368346691131592f,0.02618502825498581f,-0.039568156003952026f,-0.24879741668701172f,0.3113071918487549f,0.1166289895772934f,0.2942981719970703f,0.07199778407812119f,0.3361266851425171f,-0.11752969026565552f,-0.018930599093437195f,-0.3892415761947632f,0.12424060702323914f,-0.18392321467399597f,0.05419105663895607f,0.07605644315481186f,-0.14124441146850586f,-0.07785598933696747f,0.17981991171836853f,-0.2643796503543854f,0.013399492017924786f,-0.33350980281829834f,0.0959317684173584f,-0.4811221957206726f,-0.7268609404563904f,-0.10855332762002945f,-0.48506706953048706f,0.009476189501583576f,-0.19867748022079468f,-0.25543251633644104f,0.28705155849456787f,0.0313267707824707f,-0.027715686708688736f,0.18595989048480988f,-0.34151405096054077f,-0.11647278070449829f,-0.001444852794520557f,0.25453004240989685f,-0.1097269281744957f,-0.16519995033740997f,0.06381652504205704f,0.2875027656555176f,0.1239054799079895f,-0.07785648107528687f,0.20872081816196442f,0.2839507460594177f,0.44714948534965515f,-0.0482369028031826f,-0.02666064165532589f,-0.23700571060180664f,-0.13202396035194397f,0.09669779241085052f,-0.106154665350914f,-0.40277212858200073f,-0.20023278892040253f,0.0028815153054893017f,0.3995276391506195f,0.1313668042421341f,0.14260651171207428f,-0.20273852348327637f,-0.4362032413482666f,0.2963465452194214f,-0.14164306223392487f,-0.094182588160038f,0.16854320466518402f,0.4280689060688019f,0.07933711260557175f,0.08405008912086487f,-0.26349082589149475f,0.0881144255399704f,0.011915788054466248f,0.023525064811110497f,0.04100098833441734f,0.36348623037338257f,-0.10211643576622009f,-0.31827837228775024f,0.006832588464021683f,-0.3164716362953186f,-0.18082936108112335f,-0.310165673494339f,0.22866690158843994f,-0.3540271818637848f,0.3658697009086609f,0.14214317500591278f,-0.44518643617630005f,0.2674524784088135f,-0.20064350962638855f,0.08973322063684464f,0.12739019095897675f,-0.031096622347831726f,-0.4487207531929016f,-0.563349187374115f,-0.019178038462996483f,0.17625457048416138f,-0.46796831488609314f,0.16415844857692719f,-0.13556379079818726f,0.15280261635780334f,0.07193880528211594f,-0.1340186446905136f,-0.23156936466693878f,-0.037964388728141785f,0.11481910943984985f,0.06350262463092804f,-0.3052177131175995f,0.24107001721858978f,0.4055354595184326f,0.20586349070072174f,0.2192372828722f,-0.18789996206760406f,0.23871766030788422f,-0.7161566019058228f,-0.011243206448853016f,0.018716884776949883f,0.36913055181503296f,-0.13030663132667542f,0.035747140645980835f,0.1396799385547638f,-0.22288036346435547f,-0.2720494568347931f,-0.14183686673641205f,-0.11238250136375427f,-0.11538279056549072f,0.05971119552850723f,-0.007323951460421085f,0.2024969905614853f,-0.05316542834043503f,0.2165517657995224f,-0.04396258294582367f,-0.28140878677368164f,0.04481993988156319f,0.13929660618305206f,0.00953905750066042f,-0.055846937000751495f,-0.011891855858266354f,-0.26076599955558777f,0.16176262497901917f,0.2819349765777588f,0.1992817521095276f,-0.042023174464702606f,0.191481813788414f,0.06591999530792236f,-0.13459374010562897f,0.06418515741825104f,0.1108139231801033f,-0.26125216484069824f,0.24815523624420166f,6.514502456411719e-05f,-0.33551833033561707f,-0.14453525841236115f,-0.12470389902591705f,-0.1344815045595169f,-0.29762089252471924f,0.0990484282374382f,0.0050663817673921585f,-0.4900891184806824f,0.4530595541000366f,0.021617082878947258f,0.0220505278557539f,-0.13709981739521027f,-0.08717577904462814f,-0.12962104380130768f,-0.006267269607633352f,-0.12268347293138504f,0.02373102493584156f,-0.10835344344377518f,0.10617905855178833f,-0.06132722645998001f,0.060420382767915726f,-0.08104553073644638f},
{-0.3820737898349762f,0.1432102769613266f,-0.04915068671107292f,-0.4171876609325409f,-0.10458122938871384f,0.006955611053854227f,-0.05626378953456879f,-0.4061397612094879f,-0.586757242679596f,-0.1074054017663002f,0.08388534933328629f,0.14436276257038116f,-0.09342263638973236f,-0.015818877145648003f,0.3030456006526947f,0.2972736954689026f,-0.4007568061351776f,-0.008059263229370117f,0.11972358077764511f,-0.028829317539930344f,-0.42364537715911865f,0.12126799672842026f,-0.3113527297973633f,0.2717285752296448f,0.008900214917957783f,0.024877499788999557f,0.23101739585399628f,0.11842019855976105f,0.033337466418743134f,0.10359511524438858f,0.029539790004491806f,0.23342348635196686f,0.17657943069934845f,0.28158631920814514f,0.6154106259346008f,-0.26276031136512756f,-0.16917157173156738f,0.13227057456970215f,0.05397217720746994f,-0.19057157635688782f,-0.024425193667411804f,0.14756731688976288f,0.10997506976127625f,0.09529844671487808f,0.06467945873737335f,0.27864933013916016f,0.1803264170885086f,-0.028208449482917786f,-0.00696033937856555f,-0.5576625466346741f,-0.24768371880054474f,0.05061384662985802f,0.003994022496044636f,0.30921366810798645f,-0.052450522780418396f,-0.2707405090332031f,0.12564504146575928f,-0.1489967256784439f,0.12239546328783035f,-0.2639331817626953f,-0.24413837492465973f,-0.13409940898418427f,0.10226552188396454f,0.09445769339799881f,-0.11108478158712387f,0.2102905958890915f,0.2071526050567627f,-0.07983946055173874f,0.31129780411720276f,-0.39652156829833984f,0.32181617617607117f,0.38194817304611206f,0.050802916288375854f,-0.012449121102690697f,-0.21308252215385437f,-0.10226736962795258f,-0.09498735517263412f,-0.010785818099975586f,-0.21243363618850708f,-0.009984704665839672f,0.03330179303884506f,-0.24339459836483002f,-0.3357807695865631f,0.37129223346710205f,-0.21912868320941925f,-0.170353963971138f,-0.16955401003360748f,0.0009749069577082992f,-0.44577735662460327f,-0.020787203684449196f,0.3588387668132782f,0.2524092197418213f,0.5973670482635498f,-0.0210599135607481f,-0.056308429688215256f,-0.1668093502521515f,0.647814154624939f,-0.624509334564209f,0.19406014680862427f,0.1160387173295021f,0.16043545305728912f,0.09685219824314117f,-0.29958540201187134f,0.35692164301872253f,-0.18621021509170532f,0.27174434065818787f,-0.1789102703332901f,-0.21412192285060883f,0.0008698186138644814f,-0.2129913866519928f,0.17664673924446106f,-0.13548845052719116f,-0.2675943374633789f,-0.30741676688194275f,-0.1889369636774063f,0.1912526786327362f,0.0032258799765259027f,0.11501499265432358f,-0.24266983568668365f,-0.18948589265346527f,0.17412759363651276f,0.2183167189359665f,-0.05145532637834549f,0.04045620560646057f,0.0286113228648901f,-0.32582002878189087f,0.18491868674755096f,0.09805209934711456f,-0.11669375747442245f,-0.33914899826049805f,0.2971342206001282f,-0.08989817649126053f,0.17776742577552795f,-0.49895045161247253f,0.39902353286743164f,0.3093165159225464f,0.13844886422157288f,-0.1378018707036972f,0.29548174142837524f,-0.10693821310997009f,-0.040566131472587585f,-0.08335015922784805f,0.23544162511825562f,-0.17397865653038025f,0.21392197906970978f,0.2528347074985504f,0.14978034794330597f,0.12257777154445648f,0.2478049248456955f,-0.38271763920783997f,0.029647445306181908f,-0.0319705493748188f,-0.03242124989628792f,-0.15471261739730835f,-0.17301170527935028f,0.30321168899536133f,-0.08742367476224899f,-0.4104693531990051f,-0.10951368510723114f,-0.2565341591835022f,-0.062075238674879074f,-0.21567988395690918f,-0.08401623368263245f,-0.1040109246969223f,-0.2656584680080414f,0.24080686271190643f,0.43795275688171387f,-0.16773489117622375f,0.4183516204357147f,-0.2855653464794159f,0.3878191113471985f,-0.14044758677482605f,-0.0522112101316452f,0.2929477393627167f,-0.30747371912002563f,0.2291153520345688f,-0.0029001706279814243f,0.06987885385751724f,0.11266454309225082f,0.25438544154167175f,-0.08020076900720596f,0.04143813997507095f,0.07506763190031052f,0.024717634543776512f,-0.06675189733505249f,-0.02312847226858139f,0.02885548025369644f,-0.08146165311336517f,-0.1714952141046524f,-0.19510570168495178f},
{-0.014316811226308346f,0.10269765555858612f,-0.07369890809059143f,0.06369312852621078f,0.20759357511997223f,0.4822569489479065f,0.09364003688097f,0.05610308051109314f,0.2987326681613922f,0.1895751655101776f,0.013521935790777206f,0.08158277720212936f,0.10656992346048355f,-0.3141438961029053f,0.28877946734428406f,0.013795364648103714f,-0.14192543923854828f,0.09434861689805984f,-0.09395139664411545f,-0.2998390197753906f,0.1809287965297699f,-0.03036547638475895f,-0.1814052313566208f,0.12823456525802612f,0.08774556964635849f,0.15389004349708557f,0.2133973091840744f,0.1230337992310524f,0.05908690392971039f,0.06992844492197037f,-0.16338741779327393f,0.0031515697482973337f,-0.29180341958999634f,0.3514374792575836f,0.13971038162708282f,-0.1290522664785385f,0.23094020783901215f,0.013242979533970356f,-0.21045279502868652f,-0.47659075260162354f,0.1875108778476715f,0.33363211154937744f,-0.06459486484527588f,0.09045448154211044f,0.30001556873321533f,-0.09684237837791443f,-0.34963780641555786f,-0.015708621591329575f,0.08993139863014221f,-0.061207693070173264f,0.37797778844833374f,0.02453002892434597f,0.28243178129196167f,0.28522321581840515f,0.07564359903335571f,-0.02022295817732811f,0.22926846146583557f,-0.670417845249176f,0.16091471910476685f,-0.2787163555622101f,-0.6209791898727417f,-0.15103498101234436f,0.4459761679172516f,-0.13677845895290375f,0.05553511157631874f,-0.11040955036878586f,0.029847120866179466f,0.29268690943717957f,0.02949228696525097f,-0.0508592315018177f,0.029528386890888214f,0.1039457693696022f,0.041056159883737564f,-0.10336516797542572f,-0.19124050438404083f,-0.566135585308075f,-0.06139650195837021f,-0.026463355869054794f,0.28244754672050476f,-0.19427120685577393f,0.35074153542518616f,-0.13884678483009338f,0.07362779229879379f,0.08045796304941177f,0.025512883439660072f,-0.20609240233898163f,-0.025761159136891365f,0.09886859357357025f,-0.18920592963695526f,-0.05184812471270561f,-0.7327412962913513f,-0.2728879451751709f,-0.06587254256010056f,-0.6327477693557739f,-0.3729969263076782f,0.12761181592941284f,-0.34581902623176575f,-0.38452211022377014f,-0.17734293639659882f,-0.24513663351535797f,-0.031869690865278244f,0.06917628645896912f,0.07593823224306107f,-0.2519199550151825f,-0.19194395840168f,-0.19133935868740082f,0.07697504013776779f,-0.31126669049263f,0.15294267237186432f,-0.09491905570030212f,-0.12072235345840454f,0.05868140235543251f,0.28199416399002075f,0.050158776342868805f,-0.15028397738933563f,0.06926850229501724f,0.11228752881288528f,-0.5192223787307739f,-0.009932511486113071f,0.09508449584245682f,0.1512378305196762f,-0.018505064770579338f,0.07124004513025284f,0.07285987585783005f,0.2090895175933838f,0.011109942570328712f,-0.25873273611068726f,-0.16479583084583282f,-0.008371617645025253f,0.24465228617191315f,-0.37292829155921936f,-0.15159980952739716f,0.2490241974592209f,0.22558088600635529f,-0.1303427666425705f,-0.3393489122390747f,0.37730926275253296f,-0.26250097155570984f,-0.4877835214138031f,-0.6518445014953613f,-0.12048929184675217f,-0.1154499277472496f,0.20682038366794586f,0.16853520274162292f,0.06781429052352905f,0.08628188818693161f,-0.030400438234210014f,-0.08528980612754822f,0.04360630735754967f,-0.13228222727775574f,-0.008699238300323486f,0.13222713768482208f,0.4797915518283844f,0.021805405616760254f,0.19561563432216644f,-0.15963365137577057f,0.13297304511070251f,0.017301304265856743f,0.3341713845729828f,-0.07562816888093948f,-0.1712961047887802f,-0.19464685022830963f,0.3650434911251068f,0.06792360544204712f,0.0707903578877449f,-0.16444845497608185f,0.24614009261131287f,0.15560367703437805f,-0.0014348775148391724f,-0.6015535593032837f,0.013254602439701557f,-0.2432439923286438f,0.012585044838488102f,0.30153924226760864f,0.2656801640987396f,-0.002035400364547968f,0.13034744560718536f,0.30072614550590515f,0.2546352744102478f,0.1007671058177948f,-0.0024477606639266014f,-0.0098046213388443f,-0.1381208896636963f,-0.032599739730358124f,-0.07971039414405823f,-0.010913986712694168f,-0.03381440415978432f,-0.2008667141199112f,-0.11425371468067169f,-0.06205592676997185f},
{0.4340587556362152f,0.48451799154281616f,0.20451775193214417f,0.37738072872161865f,0.6166211366653442f,0.015060903504490852f,-0.06409013271331787f,0.2655245065689087f,0.27779635787010193f,0.25854775309562683f,0.3706047534942627f,-0.3965815603733063f,0.4123741388320923f,0.07481007277965546f,-0.188803568482399f,0.18349799513816833f,0.03694116696715355f,0.10779677331447601f,-0.22991368174552917f,-0.403358519077301f,-0.2449723184108734f,-0.1279125213623047f,0.2795092463493347f,0.1288362592458725f,-0.4960864782333374f,0.15706971287727356f,-0.075785331428051f,0.19088681042194366f,0.2513052225112915f,0.3477804958820343f,-0.2039753943681717f,-0.040620677173137665f,0.0878273993730545f,0.09109565615653992f,0.1023358702659607f,0.27691933512687683f,-0.11394869536161423f,0.040512047708034515f,-0.29242512583732605f,-0.3438240587711334f,-0.04847373440861702f,-0.04112157225608826f,-0.18944907188415527f,-0.04683065414428711f,0.055018115788698196f,-0.15470021963119507f,0.11355048418045044f,-0.20922020077705383f,-0.5069620013237f,-0.26579636335372925f,0.0161670483648777f,-0.12116527557373047f,-0.2176428586244583f,-0.1290964037179947f,0.08641157299280167f,0.19884838163852692f,0.12750627100467682f,0.07221411168575287f,0.12297715991735458f,-0.23692786693572998f,0.050035543739795685f,0.13553543388843536f,-0.0754469633102417f,0.21557222306728363f,0.02431219071149826f,0.1178906261920929f,-0.1267395168542862f,0.260131299495697f,0.11683924496173859f,0.07243267446756363f,0.019289173185825348f,-0.06662813574075699f,-0.04153893515467644f,0.27478986978530884f,0.14758868515491486f,0.46787914633750916f,-0.12704500555992126f,0.03536823019385338f,-0.4365672767162323f,-0.3254479765892029f,-0.29566848278045654f,0.03267969191074371f,0.0303012877702713f,-0.01315687783062458f,0.03142434358596802f,0.07063105702400208f,0.21449808776378632f,-0.107512928545475f,0.11813388764858246f,-0.10486966371536255f,-0.12521882355213165f,-0.16849476099014282f,-0.3328504264354706f,0.17983625829219818f,-0.1757984310388565f,-0.09900131076574326f,-0.5608787536621094f,-0.09839173406362534f,-0.5801473259925842f,0.06504108756780624f,-0.011399977840483189f,-0.272215336561203f,-0.009250537492334843f,0.20364810526371002f,-0.012119226157665253f,0.11615174263715744f,0.04021172225475311f,0.023162545636296272f,0.40866896510124207f,-0.2258238047361374f,0.04250601679086685f,0.21791523694992065f,0.4155629873275757f,0.18468087911605835f,-0.28310903906822205f,0.23524850606918335f,0.25140729546546936f,-0.2330976128578186f,-0.30117297172546387f,-0.08972979336977005f,0.060626618564128876f,-0.6374402642250061f,-0.28504714369773865f,-0.09033400565385818f,-0.06425045430660248f,-0.11472241580486298f,-0.4006238281726837f,0.08095134049654007f,-0.1966957449913025f,-0.22027894854545593f,0.002730340464040637f,-0.12820559740066528f,-0.05053737387061119f,-0.03920741006731987f,0.3272387385368347f,0.0854463279247284f,0.3837173581123352f,-0.2055204212665558f,0.08531450480222702f,-0.38509777188301086f,0.19520951807498932f,0.1579035371541977f,0.2951355576515198f,0.20012062788009644f,-0.12946069240570068f,-0.0037036219146102667f,-0.1434718817472458f,-0.23289698362350464f,-0.06832846999168396f,-0.19142718613147736f,-0.1745312511920929f,0.19468621909618378f,-0.08404134958982468f,-0.4074087142944336f,0.14581285417079926f,-0.30203381180763245f,0.29582688212394714f,-0.24853143095970154f,-0.18600282073020935f,0.2529824376106262f,-0.4157150983810425f,-0.3264298439025879f,-0.05863888934254646f,0.201461061835289f,0.1819213479757309f,0.2969369888305664f,0.15804310142993927f,-0.03667272999882698f,0.07148956507444382f,-0.3266027569770813f,0.17657141387462616f,0.24343517422676086f,0.3270641565322876f,-0.16483177244663239f,0.2796139121055603f,0.03441913053393364f,-0.16842055320739746f,0.05639883130788803f,0.2113121598958969f,0.26908963918685913f,-0.017555994912981987f,-0.1723630279302597f,0.09774062037467957f,-0.1525024026632309f,-0.08818516135215759f,-0.05672364681959152f,-0.02376234531402588f,-0.07760043442249298f,-0.1301880031824112f,-0.04067269340157509f},
{-0.0043759653344750404f,-0.3196963667869568f,0.1609259694814682f,0.07138722389936447f,-0.03658424690365791f,0.22330185770988464f,-0.015470148995518684f,0.0012397522805258632f,-0.28545090556144714f,-0.11978501081466675f,0.24134783446788788f,-0.41068094968795776f,0.15739654004573822f,-0.10667578876018524f,-0.006242182105779648f,0.1566084921360016f,0.12710615992546082f,-0.04409755766391754f,0.09675909578800201f,-0.30877819657325745f,0.2936077117919922f,0.4962487816810608f,-0.043364621698856354f,-0.01653842069208622f,0.22299015522003174f,-0.46728119254112244f,0.18955448269844055f,0.06811907887458801f,-0.41191694140434265f,0.21505115926265717f,-0.39421650767326355f,0.44145891070365906f,0.21474723517894745f,-0.02424963004887104f,-0.08485130965709686f,0.04972346872091293f,0.023507582023739815f,0.05515202134847641f,0.026205047965049744f,-0.1734572947025299f,0.4170144200325012f,-0.2908633053302765f,-0.09498848021030426f,0.1679166704416275f,-0.1085469201207161f,-0.22347834706306458f,-0.14011980593204498f,0.17044976353645325f,-0.2506578862667084f,-0.14526502788066864f,-0.20054644346237183f,0.1929854452610016f,0.08951031416654587f,-0.06045466288924217f,-0.11512771248817444f,0.14649304747581482f,-0.22944694757461548f,0.08593867719173431f,0.024026138707995415f,-0.23149003088474274f,0.17068588733673096f,0.5630081295967102f,0.0056348079815506935f,-0.004732387140393257f,-0.09918482601642609f,0.22222958505153656f,-0.022854594513773918f,-0.2234577238559723f,-0.0006318454397842288f,-0.06452015042304993f,0.1662025898694992f,0.122864730656147f,0.10808485001325607f,-0.008983712643384933f,-0.1716741919517517f,-0.034344546496868134f,0.19734974205493927f,0.16378191113471985f,0.08663857728242874f,-0.7110919952392578f,-0.24226534366607666f,-0.0511721707880497f,-0.09269270300865173f,0.14497362077236176f,-0.3324889838695526f,-0.36263495683670044f,0.043161824345588684f,0.13935421407222748f,0.1392708718776703f,0.14266015589237213f,0.08436474204063416f,0.16005639731884003f,-0.3468013107776642f,0.21770571172237396f,-0.008507647551596165f,0.27753040194511414f,0.18526746332645416f,0.01296557579189539f,0.10820138454437256f,-0.2399572879076004f,-0.26651009917259216f,-0.22869789600372314f,-0.02997984178364277f,0.0676230937242508f,-0.37750378251075745f,-0.05055984854698181f,0.21657155454158783f,0.13812264800071716f,0.13912947475910187f,-0.26753389835357666f,-0.0306738018989563f,-0.12541157007217407f,-0.13192600011825562f,-0.1407800018787384f,-0.2552357614040375f,0.04546360298991203f,0.2920006215572357f,0.2782951891422272f,-0.03989356756210327f,-0.25194239616394043f,0.1891774982213974f,0.27094265818595886f,-0.03835544362664223f,0.15315425395965576f,0.15882521867752075f,-0.23649822175502777f,0.023237448185682297f,-0.2282528579235077f,0.34118643403053284f,-0.3218066692352295f,-0.3439379632472992f,0.014682970009744167f,0.22508753836154938f,0.25691500306129456f,-0.10609878599643707f,0.05494914576411247f,0.19842629134655f,-0.054734181612730026f,-0.19835205376148224f,-0.5795139074325562f,-0.1791641265153885f,-0.22205010056495667f,0.0641091987490654f,0.36530113220214844f,0.2823047935962677f,0.10295894742012024f,0.26452720165252686f,-0.08667219430208206f,-0.2996322214603424f,-0.2191499024629593f,0.041114237159490585f,0.24162134528160095f,-0.1376238912343979f,0.07373352348804474f,0.07552328705787659f,0.3148902356624603f,-0.24675892293453217f,0.008423167280852795f,0.20104075968265533f,-0.2224007397890091f,0.1546543836593628f,-0.2921349108219147f,-0.2704630494117737f,0.02863101102411747f,0.13359777629375458f,0.07387110590934753f,-0.1807238906621933f,-0.2294047772884369f,0.16290386021137238f,-0.046752579510211945f,0.08768249303102493f,0.06969202309846878f,0.2350578010082245f,-0.042312536388635635f,0.09519339352846146f,0.23085933923721313f,0.0054468633607029915f,0.1701403111219406f,0.09624148160219193f,-0.30607739090919495f,0.022840190678834915f,-0.11587870866060257f,0.00871464516967535f,-0.02343268133699894f,-0.06986352056264877f,-0.03841167315840721f,-0.024020344018936157f,-0.10210581868886948f,-0.12863586843013763f,-0.27267786860466003f},
{-0.11647804826498032f,-0.21093085408210754f,-0.04494541883468628f,0.3342111110687256f,-0.19481849670410156f,-0.288992702960968f,0.20406700670719147f,-0.20457890629768372f,-0.02409459464251995f,-0.408988893032074f,0.3287225067615509f,-0.3779250979423523f,-0.14823035895824432f,0.11761285364627838f,-0.11682318150997162f,0.09315396845340729f,0.21836645901203156f,0.31937333941459656f,-0.004665981978178024f,-0.21882891654968262f,0.3349032700061798f,0.1614065021276474f,0.2010718435049057f,0.4327283501625061f,0.10086748003959656f,0.10938411206007004f,-0.26930299401283264f,-0.19170354306697845f,-0.18824023008346558f,0.2202892154455185f,0.115590900182724f,-0.011449189856648445f,0.10475718230009079f,0.1387568861246109f,0.13086968660354614f,-0.16966600716114044f,0.06898562610149384f,0.19880259037017822f,-0.19734501838684082f,-0.24964024126529694f,-0.31838342547416687f,0.032574523240327835f,0.17582711577415466f,0.270243763923645f,-0.18020889163017273f,0.09293275326490402f,0.2929316759109497f,0.2552238702774048f,-0.10488896071910858f,-0.76674884557724f,-0.17410263419151306f,0.16386663913726807f,-0.07868180423974991f,-0.31145259737968445f,0.1172386109828949f,-0.04452928528189659f,0.173903226852417f,-0.3065781891345978f,0.23465855419635773f,-0.17121773958206177f,-0.1774384081363678f,-0.215475395321846f,0.06633522361516953f,0.025104016065597534f,-0.1588016003370285f,-0.27757498621940613f,0.3888895809650421f,-0.050006818026304245f,0.0028557241894304752f,0.2238031029701233f,0.17536266148090363f,-0.268896222114563f,0.1374274641275406f,0.2892453670501709f,0.004145528189837933f,-0.32311582565307617f,-0.0012000709539279342f,0.3615587055683136f,0.050020523369312286f,-0.36267605423927307f,-0.1288156807422638f,-0.023637890815734863f,0.07478813081979752f,-0.08289645612239838f,-0.025269828736782074f,0.08060057461261749f,-0.08599234372377396f,-0.033396512269973755f,-0.010794717818498611f,-0.09814035892486572f,-0.23784275352954865f,-0.14156964421272278f,0.11564423143863678f,0.34527087211608887f,-0.14878204464912415f,-0.004517665132880211f,-0.12519165873527527f,0.055512648075819016f,-0.2576276659965515f,-0.003313837107270956f,0.17496618628501892f,0.2797646224498749f,-0.14588990807533264f,0.18923190236091614f,0.1655718982219696f,-0.04464847594499588f,0.24000193178653717f,0.18004478514194489f,-0.36695241928100586f,-0.447418749332428f,0.2669360041618347f,0.20710167288780212f,0.2928937077522278f,-0.051680441945791245f,0.4631543457508087f,-0.16341237723827362f,0.04232858121395111f,0.23897573351860046f,-0.011894922703504562f,-0.25594016909599304f,0.32750803232192993f,-0.4895022213459015f,-0.4594724178314209f,0.05374481901526451f,-0.25518983602523804f,0.0507846437394619f,-0.13700883090496063f,-0.3418622314929962f,0.4281628131866455f,-0.29601892828941345f,-0.23508483171463013f,-0.3054439425468445f,0.12834423780441284f,-0.26270970702171326f,0.024982748553156853f,0.4017915725708008f,0.4361068606376648f,-0.00551457516849041f,-0.18125075101852417f,0.029682369902729988f,-0.14071595668792725f,0.24318163096904755f,0.28972673416137695f,0.0687762051820755f,0.009082143194973469f,0.1184004619717598f,0.16150979697704315f,0.2649853527545929f,0.056878313422203064f,-0.3770688772201538f,-0.39338406920433044f,0.21928682923316956f,0.08028154820203781f,-0.12086796015501022f,0.25717177987098694f,-0.14238281548023224f,0.09592390060424805f,0.21368862688541412f,-0.31087690591812134f,-0.4341258108615875f,-0.12087887525558472f,-0.044303521513938904f,0.31839698553085327f,0.1345677673816681f,0.1198178306221962f,0.057942554354667664f,0.0025006630457937717f,-0.06025773659348488f,-0.07570629566907883f,-0.20151683688163757f,-0.5948056578636169f,0.32552018761634827f,-0.28272274136543274f,-0.12838555872440338f,-0.06873812526464462f,0.0428750105202198f,0.4435875117778778f,0.22508147358894348f,0.36593279242515564f,-0.08847582340240479f,0.008993230760097504f,-0.15089987218379974f,-0.11125335842370987f,-0.03389791399240494f,-0.10318847000598907f,-0.06039779633283615f,-0.07592897862195969f,-0.09316518157720566f,-0.10658834129571915f,-0.20777468383312225f},
{0.13495928049087524f,0.028100574389100075f,-0.32657864689826965f,0.0021490328945219517f,0.10758066922426224f,-0.20549213886260986f,-0.06863396614789963f,0.23727761209011078f,-0.1664753258228302f,-0.356426864862442f,0.2317471206188202f,0.10416155308485031f,0.32622888684272766f,0.004545362666249275f,0.2714627981185913f,-0.24827082455158234f,0.2260453999042511f,0.25045132637023926f,0.5274317264556885f,-0.23802804946899414f,0.23687142133712769f,-0.4362759292125702f,-0.06624124944210052f,-0.16217778623104095f,-0.13132555782794952f,0.3545539081096649f,-0.03697723150253296f,0.3292439579963684f,0.0895221084356308f,-0.26576465368270874f,0.25314685702323914f,0.10132777690887451f,-0.08048354089260101f,0.05803023278713226f,-0.3397216200828552f,0.04358253255486488f,-0.3372405171394348f,-0.3546600341796875f,0.4746135473251343f,-0.2322513312101364f,-0.05928078666329384f,0.016196036711335182f,-0.04298446327447891f,-0.019229095429182053f,-0.18132399022579193f,0.11085815727710724f,0.009538150392472744f,-0.19150398671627045f,-0.02536197565495968f,-0.3524946868419647f,-0.32121387124061584f,0.05944019556045532f,-0.035808395594358444f,-0.17235440015792847f,-0.04990008845925331f,-0.3410169184207916f,-0.1828821301460266f,0.23289819061756134f,0.0016857922310009599f,-0.4477667808532715f,0.18975985050201416f,0.16449666023254395f,-0.12396807223558426f,0.12023357301950455f,-0.12088505178689957f,-0.20549388229846954f,0.3077622354030609f,-0.2733139991760254f,0.07297845184803009f,0.22774165868759155f,-0.1848408728837967f,-0.16446420550346375f,0.05239684879779816f,0.16917163133621216f,-0.33935534954071045f,0.049624741077423096f,0.12955737113952637f,-0.11936504393815994f,0.005251850932836533f,-0.227314293384552f,0.20976784825325012f,-0.038151416927576065f,0.25840914249420166f,0.3401390016078949f,-0.0004041698412038386f,0.16659677028656006f,-0.17745019495487213f,-0.12175971269607544f,0.0844380185008049f,-0.2685198485851288f,0.42222434282302856f,-0.31191322207450867f,0.12499012053012848f,-0.46522414684295654f,0.08266135305166245f,0.19042742252349854f,0.033872462809085846f,0.04726875573396683f,-0.2052767425775528f,-0.14543575048446655f,0.18143093585968018f,-0.3292463719844818f,-0.09654353559017181f,-0.6041390299797058f,-0.032126110047101974f,0.16763976216316223f,-0.6520782113075256f,0.17691785097122192f,0.08306711912155151f,-0.3734479546546936f,0.3111392855644226f,0.30341100692749023f,0.08627607673406601f,0.14331753551959991f,0.07056670635938644f,-0.324798583984375f,-0.1797070950269699f,0.02135971188545227f,0.09875518828630447f,-0.04344892129302025f,-0.21002332866191864f,0.14643552899360657f,-0.1922733038663864f,-0.07741983234882355f,-0.10856714099645615f,0.597024142742157f,0.16429835557937622f,-0.2452077865600586f,-0.18755505979061127f,-0.025767076760530472f,0.29362764954566956f,0.1753060519695282f,-0.06972505152225494f,0.02264414355158806f,0.17570510506629944f,-0.11191843450069427f,0.2183951735496521f,-0.10010389238595963f,0.005637395195662975f,-0.1611362099647522f,-0.08200864493846893f,0.16012200713157654f,0.1515323519706726f,-0.1253872513771057f,0.4624490439891815f,0.22399304807186127f,0.05838034301996231f,-0.3362545371055603f,0.06686780601739883f,-0.2840116322040558f,0.0366353802382946f,0.12177816033363342f,-0.6444289088249207f,0.2163528949022293f,0.11605049669742584f,0.050414301455020905f,-0.061537642031908035f,-0.04077635705471039f,-0.23990601301193237f,-0.47945117950439453f,-0.05238945037126541f,-0.0818939134478569f,-0.2973438799381256f,-0.13102471828460693f,0.10411443561315536f,0.01269445475190878f,0.17933131754398346f,-0.11054227501153946f,-0.197029247879982f,-0.35046541690826416f,0.2928764522075653f,-0.1786130666732788f,-0.08724752813577652f,0.14408789575099945f,-0.07779154181480408f,-0.15891678631305695f,0.1432335376739502f,0.14049150049686432f,0.3073170781135559f,-0.14994913339614868f,-0.03767484053969383f,-0.07993472367525101f,-0.08949396759271622f,-0.11740615963935852f,-0.08785862475633621f,-0.10869785398244858f,-0.13831642270088196f,-0.05604397505521774f,-0.008517526090145111f,-0.05073288083076477f},
{-0.20611952245235443f,0.4024878144264221f,0.24310481548309326f,0.5485169887542725f,-0.154539555311203f,0.2600102126598358f,0.45293688774108887f,0.2039925754070282f,-0.4278830587863922f,-0.3470798134803772f,0.1377621591091156f,0.0746968612074852f,-0.03346166014671326f,-0.1252593845129013f,0.13551107048988342f,0.05121941119432449f,-0.03307877480983734f,0.22094708681106567f,0.20902858674526215f,-0.13453409075737f,0.33658361434936523f,-0.029105408117175102f,0.03579762205481529f,-0.2070426344871521f,-0.5200757384300232f,0.05291006341576576f,-0.341971755027771f,0.12703263759613037f,0.23578795790672302f,-0.1159440353512764f,-0.26412153244018555f,-0.07761667668819427f,-0.08359446376562119f,-0.2723868787288666f,0.0433049350976944f,-0.29651501774787903f,-0.0733550488948822f,0.2479930818080902f,0.05584757775068283f,-0.2876410186290741f,-0.006982260383665562f,-0.2916039824485779f,-0.21033070981502533f,-0.32294633984565735f,0.4938839375972748f,0.14743643999099731f,0.1574157327413559f,0.46926093101501465f,0.05371193587779999f,-0.4016198217868805f,0.1649215817451477f,-0.21793992817401886f,-0.051577143371105194f,0.08496047556400299f,0.010628416202962399f,-0.13510359823703766f,0.09784921258687973f,0.21624548733234406f,0.02353464812040329f,-0.352181077003479f,-0.144611656665802f,0.23576028645038605f,-0.018581949174404144f,0.015985624864697456f,0.45690593123435974f,0.2422308772802353f,-0.12475527822971344f,0.12799181044101715f,-0.275631844997406f,-0.445031076669693f,-0.19893813133239746f,0.228835791349411f,-0.45455852150917053f,0.23053501546382904f,-0.127841055393219f,-0.5339571833610535f,-0.048508450388908386f,-0.03540285676717758f,-0.047006428241729736f,-0.4113965630531311f,0.25905367732048035f,0.24746398627758026f,0.4782738983631134f,-0.010436343960464f,0.08180863410234451f,0.35718196630477905f,0.29152923822402954f,-0.14427442848682404f,0.3164841830730438f,-0.14981763064861298f,-0.1239815428853035f,-0.02049720659852028f,-0.08323502540588379f,-0.4032728672027588f,-0.23880751430988312f,-0.17037563025951385f,-0.09141711890697479f,0.1320486068725586f,-0.05739755928516388f,-0.2598784565925598f,0.2457401603460312f,0.13684214651584625f,-0.017774756997823715f,-0.22752514481544495f,-0.1748131662607193f,-0.11884737014770508f,-0.056851040571928024f,-0.10865791141986847f,-0.3540201485157013f,-0.04063914716243744f,0.19110877811908722f,0.2525610029697418f,-0.1664927899837494f,0.2050054967403412f,0.2426673173904419f,0.1978466510772705f,-0.21344119310379028f,0.2228665053844452f,0.11219239979982376f,-0.26004308462142944f,0.167086660861969f,0.3520495593547821f,0.26982399821281433f,0.1813664585351944f,-0.00916277151554823f,0.370492547750473f,-0.09048207104206085f,-0.18656852841377258f,0.4722312092781067f,-0.07751787453889847f,-0.43798092007637024f,-0.2068025767803192f,-0.44231945276260376f,0.06388263404369354f,-0.09580074995756149f,0.25889480113983154f,-0.20558829605579376f,0.13070626556873322f,0.027057889848947525f,-0.08030876517295837f,0.05760493502020836f,0.06592892855405807f,-0.02417171187698841f,-0.24334155023097992f,-0.13102735579013824f,0.09426164627075195f,0.16085019707679749f,-0.09580836445093155f,0.2569940388202667f,0.029860472306609154f,-0.3763681650161743f,-0.010707095265388489f,-0.7034504413604736f,-0.2061818689107895f,0.34683650732040405f,-0.05966595932841301f,-0.09514974057674408f,-0.1500428020954132f,-0.2837529182434082f,-0.06959156692028046f,0.15364569425582886f,-0.33620986342430115f,0.09822170436382294f,0.25160661339759827f,-0.024112312123179436f,0.029125479981303215f,-0.07242457568645477f,0.19792793691158295f,-0.4929654002189636f,-0.11636383831501007f,0.3757410943508148f,0.16221803426742554f,-0.24163728952407837f,0.005086524412035942f,-0.381221204996109f,0.19966621696949005f,0.1507783681154251f,0.06427009403705597f,-0.13704895973205566f,-0.3898937702178955f,-0.053314417600631714f,-0.07088866829872131f,-0.06412341445684433f,-0.018285244703292847f,-0.05563664063811302f,-0.11052867770195007f,0.06231755018234253f,-0.17903374135494232f,0.005285859573632479f,-0.034598350524902344f},
{-0.26022374629974365f,0.14310193061828613f,-0.1484716832637787f,0.4036558270454407f,-0.07213811576366425f,-0.3281932771205902f,-0.07374078780412674f,0.23364023864269257f,0.16149243712425232f,0.19898296892642975f,0.1646198183298111f,0.39445585012435913f,0.2685939073562622f,0.006073875818401575f,-0.2573643922805786f,0.21577605605125427f,0.3043682873249054f,0.1736384481191635f,-0.11921507865190506f,-0.1998773217201233f,-0.24965283274650574f,-0.21333523094654083f,0.25503966212272644f,0.19379323720932007f,0.2025114893913269f,-0.1902022510766983f,-0.16259080171585083f,-0.04859744384884834f,-0.096175417304039f,0.2252667397260666f,-0.014252498745918274f,0.06276022642850876f,0.29592132568359375f,0.27656036615371704f,-0.08947449177503586f,-0.2767024040222168f,-0.335212767124176f,-0.25975993275642395f,-0.43895313143730164f,-0.2975161373615265f,0.22782565653324127f,-0.4294489324092865f,0.48561397194862366f,0.1780678927898407f,0.17566227912902832f,0.07027415931224823f,0.04721531644463539f,0.02207903191447258f,-0.10120656341314316f,-0.13431186974048615f,0.2666872441768646f,0.12586280703544617f,3.526480577420443e-05f,0.3182761073112488f,0.3454497456550598f,-0.4040815532207489f,0.29358211159706116f,-0.12055900692939758f,-0.3154797852039337f,-0.15508292615413666f,0.02034999243915081f,-0.18365660309791565f,-0.0966087058186531f,0.2273845225572586f,0.028880367055535316f,-0.1673869639635086f,-0.08871178328990936f,-0.09183308482170105f,-0.3505101799964905f,-0.18546877801418304f,0.11835051327943802f,0.023883359506726265f,-0.005435203202068806f,-0.11006458848714828f,-0.05706041678786278f,-0.15141278505325317f,0.1904596984386444f,0.31656917929649353f,-0.02897285483777523f,-0.2704962193965912f,-0.12209256738424301f,-0.07780437916517258f,0.04494093358516693f,0.12329579144716263f,0.15463270246982574f,-0.0033996531274169683f,0.5377830862998962f,-0.14643466472625732f,-0.4680391252040863f,-0.04752642288804054f,-0.28753840923309326f,0.019917726516723633f,-0.13347864151000977f,-0.4893571436405182f,-0.0403016023337841f,0.12585152685642242f,-0.027600489556789398f,0.27455341815948486f,-0.02160007879137993f,-0.011618888936936855f,0.3643767535686493f,-0.36521387100219727f,-0.3291008770465851f,-0.16222542524337769f,-0.10877549648284912f,-0.007018922828137875f,0.06363561749458313f,-0.06663063913583755f,-0.08164706081151962f,-0.26858648657798767f,-0.05605067312717438f,-0.15514278411865234f,0.15659099817276f,0.039199672639369965f,-0.1405654102563858f,0.027242416515946388f,0.0642440915107727f,0.006172550842165947f,-0.15001536905765533f,-0.5623008012771606f,0.3102448284626007f,-0.45258766412734985f,0.3500064015388489f,-0.17065869271755219f,0.14799976348876953f,-0.03284844011068344f,-0.22006095945835114f,0.20439651608467102f,0.31906571984291077f,-0.2893809378147125f,0.09132646769285202f,-0.08748770505189896f,0.05677567794919014f,-0.2560718059539795f,-0.1843198984861374f,-0.12128198146820068f,0.12917914986610413f,0.08353807032108307f,0.07006668299436569f,-0.3475721776485443f,0.31728658080101013f,0.10968465358018875f,0.5750911235809326f,-0.04076638072729111f,0.19785647094249725f,0.1925256997346878f,0.28284016251564026f,0.16121062636375427f,0.03398070111870766f,-0.5639944076538086f,-0.01844693161547184f,0.11824160814285278f,0.3303052484989166f,0.07917557656764984f,-0.012879450805485249f,-0.08242406696081161f,0.002311396412551403f,0.47291719913482666f,0.030469771474599838f,-0.03847237676382065f,0.008060690015554428f,-0.07396690547466278f,0.1476617306470871f,0.011138173751533031f,-0.09609273076057434f,0.034327432513237f,-0.044515710324048996f,-0.18856629729270935f,0.005421372130513191f,-0.24132423102855682f,0.11250165849924088f,-0.14796248078346252f,0.28494516015052795f,-0.006257649045437574f,0.042405493557453156f,0.0562174990773201f,-0.009185860864818096f,0.1730310022830963f,-0.15028059482574463f,-0.10084957629442215f,-0.015399212948977947f,-0.09020936489105225f,0.0005582094890996814f,0.016032351180911064f,-0.04767203330993652f,-0.1174914613366127f,-0.12890799343585968f,-0.056109797209501266f,0.05960226431488991f,-0.11625692248344421f},
{-0.2051226645708084f,-0.25710755586624146f,-0.23159702122211456f,0.03221083804965019f,-0.10932648926973343f,-0.3330674171447754f,-0.2901094853878021f,0.10668544471263885f,-0.3087365925312042f,0.03254115581512451f,0.08956021070480347f,0.3528948128223419f,0.2564344108104706f,0.13227103650569916f,0.35639792680740356f,0.17442329227924347f,-0.09458166360855103f,0.2528245747089386f,-0.10282275825738907f,-0.15231813490390778f,-0.3127385973930359f,0.14698216319084167f,-0.28087618947029114f,0.12105479091405869f,0.18429018557071686f,0.15017299354076385f,0.06534676253795624f,-0.038304928690195084f,-0.284715861082077f,0.1959630846977234f,0.5227063298225403f,0.14696139097213745f,0.21734127402305603f,-0.048664648085832596f,0.24020126461982727f,0.05737828090786934f,0.22376315295696259f,0.07364878058433533f,-0.1462276726961136f,-0.1541474610567093f,0.042235177010297775f,0.0797099694609642f,-0.3025017976760864f,0.01882288046181202f,-0.25659435987472534f,0.12140908092260361f,0.21205750107765198f,0.04447435587644577f,-0.22799336910247803f,-0.7557575106620789f,0.12240620702505112f,0.08054693043231964f,-0.06441279500722885f,-0.4831106662750244f,0.003979378379881382f,0.08891057223081589f,-0.14527547359466553f,-0.04208260029554367f,-0.28265026211738586f,0.16161616146564484f,-0.16497355699539185f,0.1561678647994995f,-0.1300610601902008f,-0.16482040286064148f,-0.2659951448440552f,-0.28111809492111206f,0.15905919671058655f,-0.21009598672389984f,-0.04083336889743805f,-0.2756788730621338f,0.09896476566791534f,0.06162164360284805f,0.05394873395562172f,0.09443672001361847f,0.12702907621860504f,0.22409272193908691f,0.06051265448331833f,0.24992735683918f,0.16905631124973297f,-0.07733826339244843f,-0.07484252005815506f,0.15138837695121765f,0.08615272492170334f,-0.115517757833004f,-0.002154611051082611f,-0.3786587715148926f,0.10682754963636398f,-0.27388277649879456f,0.13042674958705902f,0.15189456939697266f,0.5807552337646484f,-0.0549258254468441f,0.17549531161785126f,0.08896555751562119f,0.28002604842185974f,0.09661617130041122f,0.03860471770167351f,0.061717674136161804f,0.15921740233898163f,-0.08478012681007385f,0.018016338348388672f,-0.05453155189752579f,0.09627466648817062f,-0.1764509379863739f,-0.141494482755661f,-0.024823421612381935f,-0.025951355695724487f,-0.22687651216983795f,0.07899264991283417f,-0.0023310657124966383f,0.13767780363559723f,0.14614039659500122f,-0.41825658082962036f,0.17609548568725586f,-0.39464685320854187f,-0.09375698119401932f,0.21193169057369232f,-0.03668705374002457f,-0.04668653756380081f,0.16376566886901855f,-0.2919929623603821f,-0.20629844069480896f,-0.08233630657196045f,0.06761491298675537f,-0.014479042962193489f,0.15487341582775116f,0.1390991359949112f,-0.16602914035320282f,-0.26083609461784363f,-0.15271149575710297f,0.1039150282740593f,-0.025582728907465935f,-0.2772330045700073f,-0.12690123915672302f,0.09946724772453308f,0.4586256146430969f,0.26369622349739075f,0.11274094134569168f,0.2896979749202728f,-0.1396869570016861f,0.0316946916282177f,-0.23463258147239685f,0.1803165227174759f,0.09220021963119507f,-0.03127550706267357f,-0.5484446883201599f,-0.0008911656332202256f,0.04588760808110237f,-0.08914797753095627f,-0.12217411398887634f,-0.10167433321475983f,-0.20242080092430115f,-0.010462326928973198f,0.21367743611335754f,-0.13389158248901367f,-0.11029694229364395f,0.25424453616142273f,0.5833802819252014f,-0.1377895623445511f,0.09406880289316177f,0.26290279626846313f,-0.022784918546676636f,-0.019913367927074432f,0.04276931285858154f,0.04684395343065262f,-0.1603390872478485f,-0.1407957673072815f,-0.06413446366786957f,0.05367247015237808f,-0.33568722009658813f,0.08283683657646179f,0.010407542809844017f,0.4619877338409424f,-0.07083039730787277f,-0.040966201573610306f,0.058492522686719894f,0.20744486153125763f,-0.08059798181056976f,0.35153859853744507f,0.10210233926773071f,0.0748031809926033f,-0.060206666588783264f,0.04166313633322716f,-0.08958547562360764f,-0.1593700796365738f,-0.10165609419345856f,-0.07229820638895035f,0.014940683729946613f,-0.13614891469478607f,-0.34125784039497375f},
{0.07229910045862198f,-0.37462395429611206f,-0.6422314643859863f,0.05343600735068321f,-0.09348593652248383f,0.10923223942518234f,-0.13007217645645142f,0.09584801644086838f,0.08258817344903946f,0.1204976812005043f,0.23574380576610565f,0.03037184849381447f,-0.07207747548818588f,-0.278472363948822f,-0.1656002551317215f,-0.44139018654823303f,-0.20121005177497864f,-0.1362958401441574f,-0.22672632336616516f,-0.16438943147659302f,-0.164298877120018f,0.100851871073246f,-0.3449280560016632f,0.07511606812477112f,-0.02799295447766781f,-0.10442037135362625f,0.13932855427265167f,-0.030043909326195717f,-0.25571462512016296f,-0.05696866288781166f,-0.3971463739871979f,-0.4378480315208435f,0.0627666786313057f,0.07830087095499039f,-0.09453709423542023f,-0.010558540932834148f,-0.24766188859939575f,0.3606816530227661f,-0.2091054767370224f,-0.4013851284980774f,-0.14118553698062897f,0.039250295609235764f,0.11113341897726059f,0.31541064381599426f,0.15885327756404877f,-0.021844010800123215f,0.2513626515865326f,-0.4078325629234314f,0.2207581251859665f,-0.5576411485671997f,0.23889276385307312f,0.280886173248291f,0.2876448929309845f,0.1372578740119934f,-0.17559976875782013f,-0.011606409214437008f,0.12934215366840363f,0.1704484522342682f,-0.10907898843288422f,-0.2566302418708801f,-0.06778163462877274f,0.20818863809108734f,-0.15830901265144348f,0.30556270480155945f,0.4569661617279053f,0.0608946867287159f,-0.06557140499353409f,0.3789806663990021f,0.16623030602931976f,-0.13575848937034607f,0.08056912571191788f,0.40065035223960876f,-0.20755577087402344f,-0.10120395570993423f,0.03742683678865433f,0.2417851835489273f,0.20114712417125702f,0.12513583898544312f,0.0791722983121872f,-0.10666681826114655f,0.1948462426662445f,0.3607400059700012f,-0.06087452918291092f,0.2741340398788452f,-0.2761799991130829f,0.18543767929077148f,0.23237958550453186f,-0.2266877144575119f,-0.23625454306602478f,-0.05190407857298851f,0.10012038797140121f,-0.10459879040718079f,0.1504492163658142f,-0.2743188142776489f,0.1281411349773407f,0.09804488718509674f,0.07416430860757828f,0.12081067264080048f,0.09534206986427307f,0.19664688408374786f,-0.17136888206005096f,0.20449379086494446f,0.0730268657207489f,0.3027704358100891f,0.09456700086593628f,0.24163633584976196f,0.16102248430252075f,0.22448018193244934f,-0.0357685387134552f,-0.4329499304294586f,0.07565318793058395f,0.004396258387714624f,-0.07223998755216599f,0.2632356584072113f,0.09384411573410034f,-0.29059216380119324f,-0.22132964432239532f,0.1985427439212799f,0.15333835780620575f,0.16724304854869843f,-0.04773229733109474f,0.22188487648963928f,-0.11682429909706116f,0.40574419498443604f,0.22962506115436554f,0.10276602953672409f,-0.0914948433637619f,-0.1514659970998764f,0.11831340193748474f,-0.1348910927772522f,0.15579843521118164f,0.17504368722438812f,0.2509787976741791f,0.05689343065023422f,-0.13189361989498138f,-0.3323463499546051f,-0.3291706442832947f,-0.054354581981897354f,-0.0589204877614975f,-0.0792989432811737f,0.2546941041946411f,0.05664096027612686f,0.0686395987868309f,-0.18686924874782562f,0.022350773215293884f,-0.37093451619148254f,-0.4475744366645813f,0.23945441842079163f,0.21393901109695435f,-0.21545518934726715f,-0.19518089294433594f,-0.04519864544272423f,0.15059500932693481f,-0.0296460147947073f,-0.16661418974399567f,-0.18145020306110382f,0.17980261147022247f,0.034873344004154205f,-0.013958499766886234f,-0.31238511204719543f,0.18574222922325134f,0.06664377450942993f,-0.06451236456632614f,-0.23882579803466797f,-0.2233400195837021f,0.08924870938062668f,0.19012662768363953f,-0.17526039481163025f,-0.12351611256599426f,-0.4873443841934204f,-0.2486206293106079f,0.10146666318178177f,0.060146503150463104f,-0.40891310572624207f,0.1368105411529541f,0.14083288609981537f,-0.37317758798599243f,0.28641125559806824f,0.4623792767524719f,-0.21012049913406372f,-0.18738099932670593f,-0.06903243809938431f,-0.2450944036245346f,-0.059256233274936676f,0.043606117367744446f,-0.09467076510190964f,0.008624794892966747f,-0.05191299319267273f,-0.023766113445162773f,-0.12806804478168488f},
{-0.17177601158618927f,0.3323253393173218f,-0.07335229963064194f,0.10565032809972763f,0.244454488158226f,0.2226029485464096f,0.04432161897420883f,-0.051884427666664124f,0.06171112880110741f,-0.09790358692407608f,0.11016921699047089f,0.16021831333637238f,0.1769464612007141f,0.2585100829601288f,0.07889241725206375f,-0.08823440968990326f,0.18578453361988068f,0.28022301197052f,0.021392760798335075f,-0.3192678689956665f,-0.06654635071754456f,-0.23395636677742004f,-0.4858507215976715f,0.005347061902284622f,0.28596925735473633f,0.013788898475468159f,-0.23664894700050354f,0.3041972517967224f,-0.06100591644644737f,0.17541486024856567f,0.09075240790843964f,-0.2229628562927246f,0.2306871861219406f,-0.12390817701816559f,0.10239758342504501f,0.04660722613334656f,-0.09035821259021759f,-0.017956795170903206f,-0.27198344469070435f,-0.3622235357761383f,-0.48626509308815f,-0.3655487298965454f,0.2424410879611969f,0.25583431124687195f,0.11326207220554352f,0.15122252702713013f,-0.13483235239982605f,-0.14919902384281158f,0.0007058230112306774f,0.025858035311102867f,-0.06103771552443504f,-0.19364924728870392f,0.040201760828495026f,-0.2885855436325073f,0.19085052609443665f,-0.07484585046768188f,-0.11037591844797134f,0.3922562003135681f,-0.12199698388576508f,-0.12088547646999359f,0.025280240923166275f,0.19327720999717712f,-0.12294601649045944f,0.29225829243659973f,0.4174151122570038f,-0.17657655477523804f,0.2790018916130066f,-0.21551625430583954f,0.10441727936267853f,-0.26939597725868225f,0.007504683453589678f,-0.44321539998054504f,-0.010106679983437061f,0.1599069982767105f,0.09300405532121658f,-0.21576336026191711f,-0.10650384426116943f,0.3314734101295471f,0.002323575085029006f,-0.4804624915122986f,-0.3288745582103729f,0.1371350735425949f,0.1464378386735916f,-0.003811758477240801f,-0.1573711782693863f,0.1790972799062729f,-0.1022118404507637f,-0.019546695053577423f,0.2296454757452011f,-0.41201475262641907f,-0.227674663066864f,0.4346323311328888f,-0.15520739555358887f,0.09534519165754318f,-0.11838435381650925f,0.0009453400271013379f,-0.18236754834651947f,0.1460731476545334f,0.1262875348329544f,0.03358527645468712f,-0.07683444768190384f,-0.08176040649414062f,-0.19838649034500122f,0.29551196098327637f,0.1456906944513321f,0.010855160653591156f,0.5011137127876282f,0.20256821811199188f,-0.056550491601228714f,-0.26609787344932556f,-0.19221587479114532f,0.6710599064826965f,-0.10095307976007462f,-0.30469974875450134f,-0.007273353636264801f,0.3417550325393677f,0.018068943172693253f,-0.2423688769340515f,-0.10166026651859283f,-0.33414268493652344f,-0.28088951110839844f,-0.3003355860710144f,-0.12469657510519028f,-0.22973741590976715f,-0.5140920281410217f,0.1579718142747879f,0.3452205955982208f,-0.09272900968790054f,-0.002242137910798192f,-0.09951630979776382f,0.2840157747268677f,-0.22382862865924835f,-0.1812523454427719f,0.006150194443762302f,0.2006770372390747f,-0.028202369809150696f,-0.10670194029808044f,0.02295335941016674f,-0.014687166549265385f,-0.5694896578788757f,-0.004797587636858225f,-0.3165273666381836f,-0.02476388029754162f,-0.025139285251498222f,-0.2674639821052551f,0.21489091217517853f,-0.06159497797489166f,0.1960778534412384f,-0.22470903396606445f,-0.3218041956424713f,0.32141950726509094f,-0.24019786715507507f,0.020947948098182678f,-0.2019680291414261f,0.05701407790184021f,0.1527111679315567f,-0.23551045358181f,0.15009625256061554f,0.3270432949066162f,0.014119330793619156f,0.27920010685920715f,0.2774046063423157f,-0.027655094861984253f,0.08521296828985214f,-0.08379659056663513f,0.1763002872467041f,0.07525908201932907f,-0.18087296187877655f,-0.037090495228767395f,-0.10440880805253983f,0.5883333683013916f,-0.2906733751296997f,0.12603196501731873f,0.06178882345557213f,-0.35101595520973206f,0.12922245264053345f,-0.1850447803735733f,-0.05572247877717018f,-0.4728524386882782f,0.17795495688915253f,-0.058870282024145126f,-0.09023340791463852f,-0.020585309714078903f,0.0007275802781805396f,-0.1059504821896553f,0.04511706903576851f,-0.021865544840693474f,-0.17852412164211273f,-0.057570960372686386f,-0.21414339542388916f},
{0.030427610501646996f,-0.15337716042995453f,-0.1272755265235901f,-0.0955338329076767f,-0.1254943460226059f,-0.07965711504220963f,-0.0633954331278801f,-0.2217908799648285f,-0.06686007231473923f,-0.10800349712371826f,-0.1116328164935112f,-0.044370006769895554f,0.03676762804389f,-0.20347820222377777f,-0.1334385722875595f,0.1293443739414215f,-0.12130384892225266f,-0.013762150891125202f,0.057407163083553314f,-0.06028757244348526f,-0.08627232164144516f,0.03636256977915764f,-0.4306929111480713f,0.0724947527050972f,-0.13099755346775055f,-0.026705309748649597f,0.028439220041036606f,-0.05391014739871025f,0.028944816440343857f,-0.06972886621952057f,-0.1943783164024353f,-0.1199677363038063f,-0.10938417911529541f,0.13275980949401855f,0.21492592990398407f,0.1312263309955597f,0.23387984931468964f,-0.11539680510759354f,0.051150523126125336f,0.011688148602843285f,-0.13717105984687805f,-0.08296564966440201f,0.11932078003883362f,-0.1725991815328598f,-0.042860064655542374f,0.1786009967327118f,0.2184043526649475f,-0.20274388790130615f,0.16607309877872467f,0.7897809147834778f,0.0813775584101677f,-0.12183565646409988f,0.1897331327199936f,0.060384418815374374f,0.005407375283539295f,-0.07309965789318085f,-0.03364274650812149f,0.12982554733753204f,-0.003372314851731062f,-0.1594129204750061f,-0.2198164165019989f,-0.15942934155464172f,-0.028454242274165154f,0.02011122927069664f,0.13007138669490814f,0.01513589359819889f,-0.10070471465587616f,0.05849108099937439f,0.013639003038406372f,-0.040899403393268585f,0.00040321965934708714f,0.19041740894317627f,-0.04811364784836769f,-0.0902426689863205f,-0.08419397473335266f,-0.1479010432958603f,-0.024202145636081696f,-0.2164473533630371f,-0.011595414020121098f,-0.3120057284832001f,-0.2195979803800583f,0.08822663873434067f,0.4466181993484497f,0.09841075539588928f,-0.06512674689292908f,-0.18052543699741364f,0.12198442220687866f,-0.11917068064212799f,0.23951242864131927f,0.16829460859298706f,-0.2183355689048767f,-0.0019905606750398874f,-0.04759414121508598f,-0.12878777086734772f,-0.5912187695503235f,-0.1050938218832016f,0.04719438776373863f,0.14656680822372437f,-0.2823887765407562f,-0.21512185037136078f,0.0647091493010521f,0.1943214237689972f,-0.042696986347436905f,0.1925862431526184f,0.02772020734846592f,0.08310380578041077f,0.007279886864125729f,-0.16314639151096344f,0.059805214405059814f,0.005807678680866957f,-0.08723607659339905f,0.05174295976758003f,0.12647779285907745f,0.09980438649654388f,0.0010562604293227196f,0.16525420546531677f,0.019406817853450775f,0.07044050097465515f,-0.04833955690264702f,-0.02050868421792984f,0.053381290286779404f,-0.13288871943950653f,0.09930028766393661f,0.0458248145878315f,0.1598668247461319f,-0.20530523359775543f,0.013879872858524323f,-0.10774672776460648f,-0.011995932087302208f,0.22397640347480774f,-0.03396366164088249f,-0.10984952747821808f,3.652698069345206e-06f,0.1762811243534088f,-0.10167902708053589f,-0.1383235603570938f,0.07816468924283981f,0.023611392825841904f,-0.05398336425423622f,-0.7731322050094604f,-0.1618182212114334f,-0.09165390580892563f,0.08594362437725067f,-0.12634257972240448f,-0.1306144744157791f,0.11283614486455917f,-0.06344475597143173f,0.11740816384553909f,-0.348533570766449f,0.04197574779391289f,-0.27137717604637146f,0.24043671786785126f,-0.2596640884876251f,-0.13319718837738037f,0.08490767329931259f,0.055836498737335205f,-0.022756319493055344f,-0.07548653334379196f,-0.022524690255522728f,-0.11852400749921799f,0.053294263780117035f,-0.12609721720218658f,0.13513052463531494f,0.17458292841911316f,-0.025638850405812263f,0.048004038631916046f,-0.0771849974989891f,0.2504943907260895f,-0.00501757487654686f,0.214272141456604f,0.14245696365833282f,0.034550197422504425f,0.15604311227798462f,-0.25606411695480347f,-0.04314097762107849f,-0.0815352126955986f,0.09327416867017746f,-0.19213290512561798f,-0.031484175473451614f,-0.029854001477360725f,0.02367711067199707f,-0.09587830305099487f,-0.11057451367378235f,-0.06624437123537064f,0.16886839270591736f,-0.05688811466097832f,0.03400769457221031f,-0.21453575789928436f,0.04519151523709297f,0.29849761724472046f},
{-0.049413442611694336f,0.2673951983451843f,0.18345768749713898f,0.11184823513031006f,-0.07831408083438873f,0.16287939250469208f,-0.12441068887710571f,0.08528408408164978f,0.011419500224292278f,0.15026932954788208f,-0.17533797025680542f,0.24218788743019104f,-0.1002463549375534f,0.10308482497930527f,0.023742878809571266f,0.0742330253124237f,-0.2383861094713211f,-0.34881189465522766f,0.3826569616794586f,0.017734132707118988f,-0.13840116560459137f,-0.03778795897960663f,0.22266122698783875f,0.1964847594499588f,-0.08431064337491989f,-0.1430666297674179f,0.3490089774131775f,-0.30675292015075684f,0.020894406363368034f,-0.5271478891372681f,-0.44013822078704834f,0.2957809269428253f,0.07945885509252548f,0.6215164661407471f,-0.3354265093803406f,0.058588579297065735f,0.15396003425121307f,-0.32554078102111816f,0.22700060904026031f,-0.0895618423819542f,0.1458871066570282f,0.004703039303421974f,-0.010196812450885773f,0.04327913001179695f,0.02124568447470665f,-0.0747789517045021f,0.20247241854667664f,0.12871088087558746f,0.24025650322437286f,-0.3555491268634796f,-0.07975485175848007f,-0.4481309652328491f,0.0751061961054802f,-0.23931258916854858f,0.2852773666381836f,0.22461213171482086f,-0.22657538950443268f,-0.3213716447353363f,0.6012019515037537f,0.12254379689693451f,-0.29260268807411194f,0.007180087734013796f,-0.1599089354276657f,0.03951859101653099f,0.03262847661972046f,-0.20644432306289673f,-0.10153275728225708f,0.2424815148115158f,-0.046704601496458054f,-0.10643096268177032f,0.11336413770914078f,0.07949528098106384f,-0.08282209932804108f,0.029642697423696518f,0.2243843674659729f,0.131184920668602f,0.17783480882644653f,0.31177380681037903f,0.1780729591846466f,-0.44270002841949463f,-0.09516268968582153f,0.09855417162179947f,-0.4433613419532776f,0.1038123071193695f,-0.13484327495098114f,-0.023809589445590973f,-0.06567033380270004f,-0.3600946366786957f,0.03237801790237427f,-0.3743569850921631f,-0.10439985245466232f,-0.09942466765642166f,-0.2985493540763855f,-0.044654201716184616f,-0.0790756419301033f,-0.27663835883140564f,0.19485890865325928f,0.022851692512631416f,-0.010922182351350784f,-0.3137458860874176f,0.2229841947555542f,-0.10701534897089005f,-0.09646297246217728f,0.2986745834350586f,0.2492503821849823f,0.12444623559713364f,-0.2649257481098175f,0.08191637694835663f,0.041421640664339066f,-0.39210811257362366f,-0.16595785319805145f,0.027472730726003647f,0.021694989874958992f,-0.4314686059951782f,0.03383724018931389f,0.29075887799263f,-0.14068438112735748f,-0.20260433852672577f,0.2839464247226715f,0.07946938276290894f,0.12802045047283173f,0.008361658081412315f,0.20242851972579956f,-0.6551846265792847f,0.29922789335250854f,-0.19969528913497925f,-0.334791362285614f,-0.011850412003695965f,0.23267464339733124f,-0.33813491463661194f,0.019584041088819504f,0.14398662745952606f,0.22850647568702698f,0.030168894678354263f,0.227309912443161f,-0.08121264725923538f,-0.20592157542705536f,0.16878198087215424f,-0.024877917021512985f,-0.3039686381816864f,0.10878359526395798f,-0.009127071127295494f,-0.00659687677398324f,-0.3441593647003174f,-0.08148835599422455f,-0.0063960799016058445f,0.0465245246887207f,0.18845444917678833f,-0.37940651178359985f,-0.4447830617427826f,0.15282760560512543f,0.39017364382743835f,0.02740757167339325f,-0.00277032982558012f,-0.2548059821128845f,0.21659304201602936f,0.5589767694473267f,-0.09438704699277878f,0.003336230991408229f,-0.31992021203041077f,-0.3201262652873993f,-0.011273730546236038f,0.1658792495727539f,-0.4366215765476227f,-0.13092216849327087f,-0.5336592197418213f,-0.11321978271007538f,0.2719629108905792f,0.21807222068309784f,-0.12838715314865112f,0.04860050231218338f,-0.17506688833236694f,0.2451295703649521f,-0.09510693699121475f,-0.15266606211662292f,0.057489484548568726f,0.40537723898887634f,0.2620881497859955f,-0.10514643788337708f,-0.22700713574886322f,-0.08147572726011276f,0.024561429396271706f,-0.021805744618177414f,-0.15856993198394775f,-0.056163158267736435f,-0.08886785060167313f,-0.15567192435264587f,0.028649523854255676f,-0.02266240119934082f,-0.27506735920906067f},
{0.1433497816324234f,0.11313701421022415f,0.03784202039241791f,0.14340908825397491f,0.39809587597846985f,0.03086039423942566f,0.5546503067016602f,0.05250996723771095f,0.4758928418159485f,-0.1941813826560974f,0.7295321226119995f,0.36613526940345764f,-0.2782547175884247f,-0.021133309230208397f,-0.4460808038711548f,0.0893794521689415f,-0.22516322135925293f,-0.42019301652908325f,0.17638850212097168f,-0.19832095503807068f,-0.10340643674135208f,-0.04569875821471214f,0.15895146131515503f,-0.0435480922460556f,0.02443716675043106f,0.23990163207054138f,-0.020400963723659515f,0.030806245282292366f,0.009140118956565857f,-0.17412184178829193f,0.23908835649490356f,-0.13510218262672424f,0.08561480045318604f,-0.18625865876674652f,0.03486287221312523f,-0.019463233649730682f,0.1400221884250641f,-0.3840620815753937f,-0.17239168286323547f,-0.09979672729969025f,0.03078635223209858f,-0.01981336995959282f,0.08252891898155212f,-0.29904016852378845f,-0.16855931282043457f,-0.00307901157066226f,-0.09300514310598373f,0.12076187878847122f,0.022221475839614868f,-0.050674695521593094f,0.04361634701490402f,-0.12452322989702225f,-0.0013165840646252036f,0.10338672250509262f,-0.21959199011325836f,0.19416506588459015f,0.0031750130001455545f,-0.07818759232759476f,0.1055784821510315f,-0.12518349289894104f,-0.18876855075359344f,0.18131807446479797f,0.28453391790390015f,-0.06955898553133011f,-0.11173903942108154f,0.5054452419281006f,0.0081411674618721f,-0.23588348925113678f,-0.0860600396990776f,-0.17809511721134186f,0.011158570647239685f,-0.051395151764154434f,-0.2428310066461563f,-0.3476049304008484f,0.1013726219534874f,0.024821629747748375f,0.2801256775856018f,-0.37362101674079895f,0.22291173040866852f,0.05997847765684128f,-0.08386214077472687f,-0.24406981468200684f,0.0040153805166482925f,-0.013483147136867046f,-0.04915430769324303f,0.03491983190178871f,-0.006830113939940929f,-0.08280418068170547f,-0.04385988041758537f,-0.3205423355102539f,-0.06442629545927048f,0.08736221492290497f,-0.0356665663421154f,-0.1705009937286377f,0.11075081676244736f,-0.27041423320770264f,-0.06666392087936401f,-0.16967284679412842f,-0.12723124027252197f,-0.08535462617874146f,-0.2577981650829315f,-0.44234591722488403f,0.15180394053459167f,-0.023951267823576927f,0.20868279039859772f,-0.037982162088155746f,-0.011047948151826859f,0.7102534770965576f,0.048774272203445435f,-0.24945226311683655f,0.0951768085360527f,0.19383297860622406f,-0.04673008620738983f,0.07719605416059494f,0.2619084417819977f,-0.13304606080055237f,-0.19388347864151f,-0.033520884811878204f,0.21366147696971893f,-0.33015304803848267f,-0.006692800205200911f,0.056982722133398056f,-0.04152757301926613f,-0.014478898607194424f,0.27316105365753174f,-0.13769572973251343f,-0.04816151410341263f,0.28942999243736267f,0.1396835595369339f,-0.32749414443969727f,0.050751082599163055f,0.09906776249408722f,-0.2963559031486511f,0.045469965785741806f,-0.06300428509712219f,-0.21761998534202576f,-0.08867785334587097f,-0.04431089386343956f,-0.1866530478000641f,-0.3900224566459656f,-0.1358651965856552f,-0.06259317696094513f,-0.11111446470022202f,-0.0031084646470844746f,0.05763963609933853f,0.11792150884866714f,-0.00395161472260952f,-0.026690591126680374f,0.23879677057266235f,-0.42083466053009033f,-0.5416000485420227f,0.05726707726716995f,0.02153841406106949f,-0.3334976136684418f,-0.04849394038319588f,0.2024974673986435f,-0.07133443653583527f,-0.22115997970104218f,0.28939396142959595f,-0.3469805121421814f,0.13247434794902802f,0.2401065081357956f,0.11492203921079636f,-0.0018009169725701213f,-0.2524358332157135f,-0.13601945340633392f,0.025989094749093056f,-0.06770007312297821f,-0.14835231006145477f,-0.1383267641067505f,0.05433272197842598f,-0.35219910740852356f,-0.21966485679149628f,0.21205855906009674f,0.06896677613258362f,0.1455029994249344f,-0.13481323421001434f,-0.16107603907585144f,-0.2029414176940918f,-0.00966253038495779f,-0.12488776445388794f,-0.10103222727775574f,-0.018940811976790428f,-0.07804935425519943f,0.08216742426156998f,-0.031050367280840874f,0.016576102003455162f,-0.11102760583162308f,-0.21053928136825562f,-0.18318775296211243f},
{0.11373572051525116f,-0.12777431309223175f,-0.2562324106693268f,-0.1444217562675476f,0.22557470202445984f,0.7548016309738159f,0.3045637607574463f,-0.1469208151102066f,-0.14716003835201263f,0.04505056515336037f,0.022389745339751244f,-0.22353889048099518f,0.10824762284755707f,0.17274758219718933f,0.002721782075241208f,0.16878104209899902f,0.13173681497573853f,0.3648020923137665f,-0.13940170407295227f,-0.12010026723146439f,0.038399484008550644f,-0.05206244811415672f,0.10078562051057816f,0.37823042273521423f,0.1300962120294571f,0.021386902779340744f,-0.1323138326406479f,-0.022858042269945145f,0.020292293280363083f,-0.09188484400510788f,-0.05617021769285202f,-0.1362680196762085f,-0.10129883140325546f,0.23693378269672394f,0.20016233623027802f,0.1424587368965149f,-0.03554846718907356f,0.1567467451095581f,-0.14341452717781067f,-0.1271582692861557f,-0.24090799689292908f,-0.027736099436879158f,-0.3080783784389496f,0.274174302816391f,0.2601880729198456f,0.1883036345243454f,-0.016553761437535286f,-0.43059441447257996f,0.0457400344312191f,-0.10095951706171036f,-0.04480753466486931f,0.01339015457779169f,-0.14688025414943695f,-0.06953251361846924f,-0.015901943668723106f,0.23473694920539856f,-0.006322253029793501f,0.038622159510850906f,-0.12010393291711807f,-0.34371525049209595f,-0.022535378113389015f,-0.2044270783662796f,-0.004680441692471504f,0.15872891247272491f,-0.032253194600343704f,-0.27744749188423157f,-0.09721696376800537f,0.20708970725536346f,0.37624311447143555f,-0.43119582533836365f,-0.4010116159915924f,-0.05916894972324371f,0.07789216935634613f,0.15223343670368195f,-0.06370419263839722f,-0.23563691973686218f,-0.3762856721878052f,0.13747398555278778f,0.36847373843193054f,-0.02729743719100952f,-0.1067546084523201f,0.37805697321891785f,0.043940071016550064f,0.3357343077659607f,-0.08817193657159805f,0.251376211643219f,-0.1257133185863495f,0.19017094373703003f,-0.34069204330444336f,-0.07923684269189835f,0.23269593715667725f,-0.22812041640281677f,-0.07239816337823868f,-0.024503493681550026f,0.12396969646215439f,0.0853259488940239f,0.3549192547798157f,-0.23946067690849304f,-0.056006092578172684f,0.019407134503126144f,-0.11893797665834427f,0.17129045724868774f,-0.08119743317365646f,0.1954152137041092f,0.2319096177816391f,0.1957116574048996f,0.1979036033153534f,0.28242406249046326f,-0.05681058019399643f,-0.21897666156291962f,0.2493177354335785f,0.257252961397171f,0.050300776958465576f,-0.09311939775943756f,-0.5933688879013062f,0.2532837688922882f,-0.08718510717153549f,-0.04969433695077896f,0.06628201901912689f,-0.5530116558074951f,0.016826529055833817f,-0.10984135419130325f,-0.06975231319665909f,-0.06175319477915764f,-0.36368417739868164f,-0.02628306671977043f,-0.2424289435148239f,-0.06400766223669052f,0.05491127446293831f,-0.14486032724380493f,-0.1360136717557907f,-0.10178317129611969f,-0.15725316107273102f,-0.16762103140354156f,-0.12069320678710938f,0.17972785234451294f,-0.40171873569488525f,-0.1274213343858719f,0.23365925252437592f,-0.6256723999977112f,0.050540726631879807f,-0.009747385047376156f,-0.09637730568647385f,0.18848587572574615f,0.12736429274082184f,-0.09962460398674011f,0.0393855907022953f,0.1601535975933075f,-0.05568664148449898f,-0.14703470468521118f,-0.004751688800752163f,0.2536640465259552f,0.1199466660618782f,0.2941782772541046f,0.2946094274520874f,-0.009507234208285809f,-0.1068255752325058f,0.055101003497838974f,0.400139719247818f,0.0983501598238945f,0.15353336930274963f,0.26964524388313293f,0.004032540135085583f,-0.19259308278560638f,0.3002283573150635f,0.011439529247581959f,0.5786471962928772f,0.08847641199827194f,-0.24203047156333923f,-0.3782248795032501f,-0.4115317463874817f,-0.36741068959236145f,0.3106808364391327f,-0.7113147974014282f,0.034204885363578796f,0.09081171452999115f,-0.13472861051559448f,-0.062313273549079895f,-0.07910752296447754f,0.14574502408504486f,0.012757175602018833f,-0.12022235244512558f,-0.07958605140447617f,-0.13759024441242218f,-0.08327712118625641f,0.061986491084098816f,-0.14487744867801666f,-0.03743109852075577f,-0.10677514225244522f,-0.17011399567127228f},
{0.08334216475486755f,-0.15966248512268066f,-0.29611068964004517f,0.31023943424224854f,0.15403954684734344f,-0.10327046364545822f,0.22172413766384125f,-0.017051352187991142f,-0.10165298730134964f,-0.2936912178993225f,0.11543253809213638f,0.03631877526640892f,-0.03572308272123337f,-0.015527386218309402f,0.04340742155909538f,-0.27935346961021423f,-0.21760281920433044f,0.16623234748840332f,0.2530921399593353f,-0.21232575178146362f,0.28930097818374634f,0.1864759624004364f,0.11304432153701782f,0.13974842429161072f,-0.30224665999412537f,0.044383756816387177f,-0.2555426061153412f,0.11239154636859894f,-0.22138342261314392f,-0.08337416499853134f,0.09079240262508392f,-0.09551633149385452f,0.02854909747838974f,-0.01575765758752823f,0.17075112462043762f,0.32173094153404236f,0.09409630298614502f,-0.2664661407470703f,0.2121453881263733f,-0.3917991518974304f,0.04178665205836296f,0.11134974658489227f,-0.1298125833272934f,-0.1902650147676468f,0.07195345312356949f,-0.005231114570051432f,-0.0690980851650238f,0.3161354959011078f,-0.36478012800216675f,-0.018771057948470116f,-0.24409259855747223f,-0.026455724611878395f,0.007864437066018581f,-0.02638586424291134f,0.14912238717079163f,0.2747873365879059f,0.06706562638282776f,0.04354533553123474f,0.02187354676425457f,-0.23021964728832245f,0.09587691724300385f,0.4175264835357666f,-0.06412721425294876f,0.16379964351654053f,0.13751569390296936f,0.32794350385665894f,0.1307889074087143f,-0.0024715368635952473f,0.15333786606788635f,-0.06327806413173676f,-0.149349644780159f,-0.5490354895591736f,-0.009026126004755497f,0.20457418262958527f,-0.08358412235975266f,-0.008261505514383316f,0.06342051178216934f,-0.030506571754813194f,0.19947540760040283f,0.04568944498896599f,0.3348788022994995f,0.1399707794189453f,0.18590722978115082f,0.16665369272232056f,-0.22071968019008636f,0.057471346110105515f,-0.20160380005836487f,-0.12689286470413208f,-0.23059721291065216f,-0.3875386416912079f,-0.03341764584183693f,-0.0775151476264f,0.037021439522504807f,-0.5025939345359802f,0.26424524188041687f,0.017143528908491135f,-0.08380503207445145f,-0.1212441474199295f,0.03518916293978691f,0.3901924788951874f,0.009456956759095192f,0.18732714653015137f,-0.33466869592666626f,0.10301613062620163f,0.012870509177446365f,0.2727104425430298f,0.030534034594893456f,0.2819029688835144f,0.012865029275417328f,-0.39170557260513306f,-0.060191623866558075f,-0.18977238237857819f,0.04857071489095688f,-0.041719917207956314f,-0.039610181003808975f,0.007413921877741814f,0.06924955546855927f,0.5082172155380249f,0.18064145743846893f,-0.1735519915819168f,0.21348699927330017f,0.31681129336357117f,0.07725906372070312f,0.06534157693386078f,0.5141080617904663f,0.1739891767501831f,-0.1624678671360016f,0.128701850771904f,-0.6028692722320557f,0.05335840955376625f,0.31510013341903687f,0.05158430337905884f,-0.035056762397289276f,-0.23116017878055573f,-0.12701040506362915f,0.1547437608242035f,0.49987250566482544f,0.22604386508464813f,0.4316170811653137f,-0.7557535171508789f,0.15666252374649048f,0.06891537457704544f,0.3384110927581787f,-0.5553093552589417f,0.1912221759557724f,-0.21663020551204681f,-0.4595215618610382f,-0.09481251984834671f,-0.19167762994766235f,-0.12587076425552368f,0.029252532869577408f,0.28367486596107483f,0.08838046342134476f,-0.2548806369304657f,-0.3945777714252472f,-0.138667032122612f,0.22843725979328156f,0.22731012105941772f,0.08443834632635117f,-0.24041832983493805f,-0.3557676374912262f,0.274869829416275f,-0.08594944328069687f,-0.16293318569660187f,0.15149128437042236f,-0.02627379819750786f,-0.35417744517326355f,-0.31566715240478516f,-0.11508733034133911f,-0.32010379433631897f,0.21282808482646942f,0.021219490095973015f,-0.04760534688830376f,-0.42305788397789f,0.02638881467282772f,-0.022197414189577103f,0.02981613017618656f,-0.2737429738044739f,-0.32227376103401184f,0.018555814400315285f,-0.1288960725069046f,-0.1654670238494873f,-0.07093801349401474f,0.07942566275596619f,-0.17251130938529968f,0.05185600370168686f,0.028719935566186905f,-0.004879417363554239f,-0.11046220362186432f,-0.2780166566371918f},
{-0.08368262648582458f,-0.49846452474594116f,-0.12463783472776413f,0.016162289306521416f,0.21182310581207275f,0.26606106758117676f,-0.21239635348320007f,0.10753048211336136f,0.18000654876232147f,-0.06521034240722656f,0.5399010181427002f,0.11178542673587799f,-0.026496173813939095f,0.15250054001808167f,-0.14775358140468597f,-0.0065529500134289265f,0.18322360515594482f,0.3596324920654297f,-0.6769466400146484f,-0.01647704839706421f,-0.2951681315898895f,-0.3170303702354431f,0.20255440473556519f,-0.028280075639486313f,-0.11534476280212402f,-0.06820779293775558f,0.30085012316703796f,0.0162447988986969f,0.2557651996612549f,-0.30018866062164307f,0.3502340614795685f,0.12628716230392456f,0.035451337695121765f,0.13163572549819946f,-0.2763513922691345f,0.0711897686123848f,0.2766140103340149f,0.17654390633106232f,-0.21830837428569794f,-0.5169133543968201f,0.27736157178878784f,-0.1265266388654709f,-0.10962657630443573f,0.30438029766082764f,0.33253395557403564f,-0.2695983350276947f,-0.02340344339609146f,0.06422313302755356f,-0.15903334319591522f,-0.14199158549308777f,0.10811808705329895f,-0.19823744893074036f,0.41604888439178467f,-0.02566266991198063f,-0.007873455062508583f,-0.3330402970314026f,-0.430372416973114f,-0.23874810338020325f,-0.1576813906431198f,0.19503019750118256f,-0.29021111130714417f,0.1810632199048996f,0.02370830439031124f,0.4322787821292877f,-0.191589817404747f,-0.12446454912424088f,0.04849208891391754f,-0.1456516534090042f,-0.10070499032735825f,-0.5459244251251221f,-0.1400078386068344f,0.009946784004569054f,-0.11376351118087769f,-0.09861229360103607f,0.043806277215480804f,0.20748846232891083f,-0.12677150964736938f,-0.26567012071609497f,0.029650699347257614f,0.09833040833473206f,0.02823290042579174f,0.27877476811408997f,-0.13142475485801697f,-0.16982877254486084f,0.09292783588171005f,0.11428018659353256f,-0.12457599490880966f,-0.10611602663993835f,-0.006191140040755272f,-0.0538896881043911f,0.19715827703475952f,0.01674385741353035f,0.0259040929377079f,-0.00810685008764267f,-0.11804960668087006f,0.00406110193580389f,0.11564704030752182f,0.2008831948041916f,0.2796870768070221f,-0.3133525550365448f,-0.2623203992843628f,-0.32619255781173706f,0.24778591096401215f,0.36794379353523254f,0.07919969409704208f,-0.38070201873779297f,-0.3301696479320526f,-0.4467200040817261f,0.2657213509082794f,-0.1542196422815323f,-0.015667129307985306f,0.0814967080950737f,0.13527639210224152f,-0.1746877282857895f,-0.1286773383617401f,0.12446125596761703f,0.027450183406472206f,0.1022811308503151f,0.03417268022894859f,-0.29077795147895813f,0.33990925550460815f,0.20876112580299377f,0.22982501983642578f,0.02627517469227314f,0.189102441072464f,-0.4396806061267853f,-0.3997747600078583f,0.225416898727417f,0.4274338483810425f,-0.06105751171708107f,-0.11562632024288177f,0.22632023692131042f,0.27424272894859314f,0.13598619401454926f,0.3198171555995941f,0.07498400658369064f,-0.1269308179616928f,0.014344272203743458f,0.06325162202119827f,-0.29097458720207214f,0.03496534377336502f,0.0012451285729184747f,-0.09534438699483871f,-0.10866273939609528f,0.29261213541030884f,0.36537161469459534f,0.23705238103866577f,0.16690951585769653f,0.012336555868387222f,-0.9990917444229126f,-0.05387851595878601f,0.031083790585398674f,0.21031531691551208f,0.16562746465206146f,0.049378857016563416f,-0.08359958231449127f,0.156868577003479f,-0.3373295068740845f,0.18174618482589722f,0.07914339005947113f,-0.045036520808935165f,0.29246050119400024f,0.09099658578634262f,-0.4306625723838806f,0.056618236005306244f,0.12571753561496735f,0.014310556463897228f,0.014337323606014252f,-0.25442251563072205f,-0.36768943071365356f,-0.012504071928560734f,-0.22961172461509705f,-0.039382945746183395f,0.04125091806054115f,-0.06999567151069641f,-0.06575658172369003f,-0.3246605396270752f,0.0008708074456080794f,-0.028972897678613663f,-0.4534258544445038f,-0.012841267511248589f,-0.06411899626255035f,0.01929296925663948f,0.03792222961783409f,-0.07144209742546082f,-0.10991507023572922f,-0.0831528827548027f,-0.045821577310562134f,-0.043440889567136765f,-0.16610722243785858f},
