#ifndef UTTT2_PARAMETERS_H
#define UTTT2_PARAMETERS_H

float hiddenWeights[128][190] = {{-0.9828195571899414f,-0.045581892132759094f,0.024595189839601517f,0.01580582931637764f,-0.07469352334737778f,-0.02256220020353794f,0.04212604835629463f,0.004722336307168007f,0.04701029509305954f,0.806662380695343f,-0.016691604629158974f,0.12119962275028229f,-0.10254359990358353f,1.3711528778076172f,0.03750070184469223f,0.16733455657958984f,-0.5558617115020752f,0.6914086937904358f,-0.025966010987758636f,-0.016467928886413574f,-0.01927311159670353f,0.014561440795660019f,-1.3229192518338095e-05f,0.013771268539130688f,-0.04769706726074219f,0.006464879494160414f,0.02633323334157467f,-0.03261120617389679f,-0.028042400255799294f,-0.028538918122649193f,-0.005171285942196846f,-0.014893819577991962f,0.0002997116534970701f,-0.04885387048125267f,-0.030522970482707024f,0.01949317753314972f,-0.002917512087151408f,-0.006386441178619862f,-0.008279921486973763f,-0.0021240515634417534f,0.0050294422544538975f,0.03211678937077522f,-0.009563074447214603f,0.005833242554217577f,0.06280392408370972f,-0.10664205998182297f,-0.045209091156721115f,-0.06843416392803192f,-0.04230760037899017f,-0.31729280948638916f,-0.03629623353481293f,-0.0926755741238594f,-0.057417914271354675f,-0.028092488646507263f,-0.004044573754072189f,0.0030771768651902676f,0.0030402785632759333f,0.042189404368400574f,0.04205157235264778f,0.03804754838347435f,-0.015810541808605194f,0.024769851937890053f,0.062149982899427414f,-0.06569965928792953f,-0.06318408250808716f,-0.06851863861083984f,-0.05265582725405693f,-0.06353460252285004f,-0.03649405762553215f,-0.08079991489648819f,-0.05456722155213356f,-0.0044327969662845135f,-0.040226858109235764f,-0.021936528384685516f,-0.007877152413129807f,-0.006079535931348801f,-0.00015434988017659634f,0.006524288561195135f,-0.04759214073419571f,-0.01885414309799671f,0.024620134383440018f,-0.02280830591917038f,-0.01538814790546894f,0.0015908322529867291f,-0.005599654745310545f,-0.022649172693490982f,0.02017490565776825f,-0.02832041122019291f,-0.0072991373017430305f,0.014428396709263325f,-0.07840767502784729f,-0.0020307113882154226f,0.0008463400881737471f,0.053147342056035995f,-0.013896086253225803f,-0.0006816484965384007f,0.010254410095512867f,-0.027487533167004585f,0.037646595388650894f,-0.8233005404472351f,0.46109539270401f,-0.2983028292655945f,0.08774862438440323f,0.35068634152412415f,0.04979743808507919f,0.10502853989601135f,0.07456972450017929f,-0.21676971018314362f,-0.020100535824894905f,0.003030861495062709f,0.06275374442338943f,0.010315636172890663f,0.051172394305467606f,-0.013752542436122894f,0.059543803334236145f,0.014285781420767307f,0.028140505775809288f,-0.04072185605764389f,-0.0048679811879992485f,0.019821085035800934f,0.0009526075446046889f,0.03345148637890816f,-0.01730361394584179f,0.06784140318632126f,0.004956591874361038f,0.009470220655202866f,-0.02577965520322323f,-0.005079756025224924f,0.03351245075464249f,-0.018420275300741196f,0.05590667203068733f,-0.022039979696273804f,0.06061754748225212f,0.0024665030650794506f,0.01426220964640379f,-0.026451770216226578f,0.00034679807140491903f,0.039945732802152634f,0.007713549770414829f,-0.2264549732208252f,-0.016208890825510025f,0.058385252952575684f,0.024519486352801323f,0.024150658398866653f,-0.0522729828953743f,-0.024747613817453384f,0.003057928988710046f,-0.013055757619440556f,0.01822955161333084f,-0.033907804638147354f,0.03473279997706413f,-0.022810716181993484f,-0.00836648978292942f,-0.002268704120069742f,0.04451810196042061f,0.05457461252808571f,0.0146174356341362f,0.06628815084695816f,0.00936015322804451f,0.08470575511455536f,0.024395674467086792f,0.04592973366379738f,-0.03927363082766533f,0.003857712261378765f,0.030527804046869278f,0.00365247530862689f,0.06757567822933197f,-0.013433127664029598f,0.07000870257616043f,0.0033277240581810474f,0.03319692611694336f,-0.06034219637513161f,-0.046112947165966034f,-0.015955479815602303f,-0.017139405012130737f,-0.017382394522428513f,-0.05352925881743431f,0.02380257099866867f,-0.0632302463054657f,-0.028863342478871346f,-0.06175979971885681f,-0.06421702355146408f,-0.03859218955039978f,-0.036855150014162064f,-0.10959871858358383f,-0.012198916636407375f,-0.07012555003166199f,-0.03838007152080536f,-0.026400119066238403f,-0.029817208647727966f},
{0.1755230575799942f,-0.058188438415527344f,0.21633344888687134f,0.07520246505737305f,-1.2696117162704468f,0.04372194781899452f,0.14159461855888367f,-0.06488420814275742f,0.16351215541362762f,-0.02847933955490589f,-0.010151244699954987f,-0.018225327134132385f,-0.012030771002173424f,-0.17847244441509247f,0.0036051447968930006f,0.022804340347647667f,0.004341762978583574f,0.0032192920334637165f,0.03347890079021454f,-0.0042621116153895855f,0.030304890125989914f,0.026783062145113945f,-0.10738572478294373f,0.062295619398355484f,0.044645313173532486f,0.03203020244836807f,0.03735866770148277f,-0.0009000439313240349f,-0.003981076180934906f,-0.01128029078245163f,0.013311119750142097f,-0.2015991061925888f,-0.019183197990059853f,-0.024376533925533295f,0.014398123137652874f,0.0020776325836777687f,-0.01318262331187725f,0.03201282396912575f,0.03353442624211311f,-0.005266603082418442f,-0.17883992195129395f,-0.024319002404808998f,-0.014107031747698784f,0.0015375802759081125f,0.027000226080417633f,-0.18822965025901794f,1.2214953899383545f,-0.15760235488414764f,-0.4592207074165344f,0.8795354962348938f,-0.4878217875957489f,-0.09286752343177795f,1.251989722251892f,-0.3659592568874359f,0.06579704582691193f,0.03730021417140961f,0.026885133236646652f,-0.003791380673646927f,-0.1575911045074463f,-0.02578345313668251f,0.06197946146130562f,0.010228559374809265f,0.011462273076176643f,-0.01689450442790985f,0.02367543801665306f,-0.029791321605443954f,-0.05165401101112366f,-0.21211551129817963f,0.024186471477150917f,-0.010997293516993523f,-0.03296786919236183f,-0.010078788734972477f,0.018281104043126106f,0.009211788885295391f,-0.002209551865234971f,-0.006145307794213295f,-0.13832682371139526f,-0.004709000699222088f,0.008583085611462593f,-0.01799577660858631f,-0.031499478965997696f,-0.04758871719241142f,-0.0028789013158529997f,-0.03845258802175522f,-0.03167963773012161f,-0.22976821660995483f,-0.052629075944423676f,-0.0547349713742733f,-0.06027255952358246f,-0.05533980205655098f,0.13520318269729614f,0.06998398900032043f,0.15350376069545746f,0.16473594307899475f,-2.783576726913452f,0.19375254213809967f,0.23569899797439575f,0.12915931642055511f,0.227013498544693f,0.0066373939625918865f,-0.006861560512334108f,-0.0022512581199407578f,0.015420240350067616f,0.03308577835559845f,0.015314660035073757f,0.02600928209722042f,0.03700651600956917f,0.10651455074548721f,0.032147862017154694f,-0.05056291073560715f,-0.0060709030367434025f,0.003928746096789837f,0.012008286081254482f,0.00587583240121603f,0.03684484213590622f,0.006532434374094009f,0.04786384850740433f,0.04238886013627052f,0.012596836313605309f,0.03438982367515564f,0.029237547889351845f,0.07825624197721481f,0.0040730577893555164f,0.10050006210803986f,0.033868659287691116f,0.04598504677414894f,0.027228960767388344f,0.0037765975575894117f,0.021750902757048607f,0.044506847858428955f,0.032215189188718796f,0.028544286265969276f,0.021101349964737892f,0.01953970268368721f,0.06555216014385223f,0.46026670932769775f,-3.031644821166992f,0.26191332936286926f,0.5024716854095459f,-2.848900079727173f,0.4998549222946167f,0.23939916491508484f,-2.5733606815338135f,0.4849925637245178f,0.05981617420911789f,0.03575851768255234f,0.04276064410805702f,0.07725098729133606f,0.04310073330998421f,0.007941772229969501f,0.04821344465017319f,0.04684971645474434f,0.08548782765865326f,0.020676374435424805f,-0.015762124210596085f,0.04383319243788719f,0.0015777642838656902f,0.0426224023103714f,0.009484986774623394f,0.010317365638911724f,0.01762157306075096f,0.03940941393375397f,0.0253165103495121f,0.028038574382662773f,0.052238963544368744f,0.019450120627880096f,0.004154306836426258f,0.01516114454716444f,0.009317467920482159f,0.010258844122290611f,0.06349504739046097f,0.11676059663295746f,0.002976477611809969f,0.02422218583524227f,0.043526336550712585f,0.057902999222278595f,0.023575475439429283f,0.04577808454632759f,0.029102645814418793f,0.07530002295970917f,-0.3784840703010559f,-0.3217679560184479f,-0.3984270989894867f,-0.3796984553337097f,0.7091085910797119f,-0.38388076424598694f,-0.41135624051094055f,-0.3601251542568207f,-0.4344973564147949f,0.4385450482368469f},
{-0.07870200276374817f,-0.023620685562491417f,0.06889405846595764f,0.00039037660462781787f,-0.24778150022029877f,0.014323314651846886f,0.11202210187911987f,0.03993498906493187f,-0.5561498999595642f,-0.0981246680021286f,-0.12137585133314133f,-0.0692276805639267f,-0.09071140736341476f,-0.05894388630986214f,-0.14675484597682953f,-0.0047024935483932495f,-0.05912201851606369f,-0.10118717700242996f,0.020304255187511444f,-0.05187506973743439f,0.006921745371073484f,-0.006908266339451075f,0.0642545223236084f,-0.06084958836436272f,0.03342440724372864f,-0.022937171161174774f,-0.027595482766628265f,0.006540974136441946f,-0.038816068321466446f,0.023127030581235886f,0.007722531910985708f,0.06068548932671547f,-0.052450720220804214f,0.04573529213666916f,-0.01341361366212368f,-0.02350897528231144f,-0.012363829649984837f,-0.10071060806512833f,-0.0066168964840471745f,-0.01706918329000473f,0.018261665478348732f,-0.0643407478928566f,0.034312859177589417f,-0.024392612278461456f,-0.009505878202617168f,0.09691925346851349f,0.014255142770707607f,0.037657227367162704f,0.054356131702661514f,-0.3283153176307678f,-0.008156562224030495f,0.11632896214723587f,0.05142374709248543f,0.017057616263628006f,-0.01861276850104332f,-0.07651370018720627f,-0.030199801549315453f,-0.04130982980132103f,-0.009918329305946827f,-0.10571160912513733f,0.036686185747385025f,-0.03471294790506363f,-0.04533831402659416f,0.09728139638900757f,0.04834223911166191f,0.0981813296675682f,0.05382661893963814f,0.12140744179487228f,0.011127476580440998f,0.12056417018175125f,0.07701893150806427f,0.06957073509693146f,0.03566281497478485f,-0.0015627207467332482f,0.03754451498389244f,0.030965030193328857f,0.11043255776166916f,-0.03797530755400658f,0.07745758444070816f,0.039187945425510406f,0.0034103773068636656f,0.2121441513299942f,0.1846277266740799f,0.13281111419200897f,0.05083204433321953f,0.6342654824256897f,0.02344067580997944f,0.5741108655929565f,0.38347727060317993f,0.4439587891101837f,0.18921613693237305f,-0.005409521982073784f,0.008917126804590225f,0.0534006729722023f,-0.00829487293958664f,0.08999322354793549f,-0.06411679834127426f,-1.7970796823501587f,-2.1533632278442383f,0.046870745718479156f,0.018938222900032997f,0.05121948570013046f,0.053682174533605576f,0.04990218207240105f,0.10290328413248062f,0.01961320824921131f,0.05723664537072182f,0.14369343221187592f,0.07550086826086044f,0.03699645400047302f,0.09226076304912567f,0.07147664576768875f,0.00037024563062004745f,0.10653435438871384f,0.011388074606657028f,0.060886457562446594f,0.12507477402687073f,-0.024711448699235916f,-0.03216123580932617f,-0.008676420897245407f,-0.01024783868342638f,-0.09671752154827118f,0.017832785844802856f,-0.074490487575531f,-0.0233431626111269f,0.05841448903083801f,0.0064066750928759575f,0.009619154036045074f,0.02703007124364376f,0.03034193068742752f,-0.04618653655052185f,0.04309909790754318f,-0.061024054884910583f,0.01469921600073576f,0.07394611835479736f,-0.0006838164408691227f,-0.05754515156149864f,-0.0337582603096962f,-0.06942934542894363f,-0.4588349163532257f,-0.02750786952674389f,-0.08329116553068161f,-0.075071319937706f,0.053394708782434464f,0.07689660042524338f,0.07316779345273972f,0.06435929238796234f,0.0697626993060112f,0.002903104294091463f,0.09574764221906662f,-0.0044231717474758625f,0.06442458182573318f,0.1372145563364029f,-0.040584299713373184f,-0.05402759462594986f,-0.10428137332201004f,-0.04474744200706482f,-0.16302287578582764f,-0.0005060925032012165f,-0.09927050769329071f,-0.045779503881931305f,0.003301125019788742f,0.0008658390142954886f,-0.012635834515094757f,-0.02555522322654724f,0.007664681877940893f,-0.10782958567142487f,0.020487885922193527f,-0.060062289237976074f,-0.0006898760329931974f,0.0652579739689827f,-0.02372538298368454f,0.11522378027439117f,0.31161707639694214f,0.28108450770378113f,-0.8981367945671082f,0.2563580572605133f,0.38174566626548767f,0.389363169670105f,0.6477296948432922f,-0.18405978381633759f,-0.12388719618320465f,-0.1223919689655304f,-0.12649957835674286f,-0.10838060081005096f,-0.1530991941690445f,-0.037209127098321915f,-0.07971762120723724f,0.10435614734888077f,0.14791548252105713f},
{-0.4432375431060791f,-0.1286904364824295f,-0.15949508547782898f,0.10925748199224472f,-0.00649789534509182f,0.023004496470093727f,0.09879542887210846f,0.06172927841544151f,0.18011924624443054f,1.2415472269058228f,0.7303725481033325f,0.8852652311325073f,-0.1491563767194748f,-0.4527426064014435f,-0.16230221092700958f,-0.11165051907300949f,-0.05457224324345589f,-0.22651122510433197f,-0.1741969734430313f,-0.02548663690686226f,0.017596494406461716f,-0.027030881494283676f,-0.010967778041958809f,0.012662575580179691f,-0.01881234720349312f,0.0016993891913443804f,-0.03483288362622261f,-0.14864517748355865f,0.020958038046956062f,0.055781468749046326f,0.002964913146570325f,-0.0017471762839704752f,0.057060372084379196f,0.005640850868076086f,0.02992517314851284f,-0.028524652123451233f,-0.10845491290092468f,0.00723037775605917f,0.03909756988286972f,-0.010814698413014412f,0.010353493504226208f,0.05046703293919563f,0.03467896953225136f,0.06200937554240227f,-0.004850556142628193f,-0.09956419467926025f,-0.06486976146697998f,-0.030254781246185303f,-0.08545253425836563f,-0.5962879657745361f,-0.015021572820842266f,-0.024966806173324585f,-0.04539837688207626f,-0.0025660586543381214f,-0.14032301306724548f,-0.03081412985920906f,0.005632621236145496f,-0.055209774523973465f,-0.021596413105726242f,-0.016416193917393684f,-0.020437341183423996f,0.008498158305883408f,-0.049922168254852295f,-0.15950027108192444f,-0.0538112074136734f,-0.020310109481215477f,-0.03999926522374153f,-0.031103257089853287f,-0.005929550621658564f,-0.026228995993733406f,-0.029383089393377304f,-0.06200810894370079f,-0.21390971541404724f,-0.07727169245481491f,-0.05199698731303215f,-0.10512176156044006f,-0.06677259504795074f,-0.04368016868829727f,-0.08703943341970444f,-0.04697800427675247f,-0.10807602852582932f,-0.08181288838386536f,0.0063103376887738705f,0.009621850214898586f,-0.007528385613113642f,0.04411393031477928f,0.01206412073224783f,0.020380103960633278f,0.010767247527837753f,0.026721442118287086f,-1.459192156791687f,0.03603452444076538f,0.01601434126496315f,0.1019623801112175f,-0.03033408522605896f,0.15372322499752045f,0.028450733050704002f,0.15875498950481415f,-0.041237812489271164f,-1.446916937828064f,-1.9682552814483643f,-1.7827446460723877f,0.30459359288215637f,0.4662432074546814f,0.27336278557777405f,0.34032386541366577f,0.30154967308044434f,0.3402939438819885f,0.0035143145360052586f,0.035797279328107834f,0.02243601530790329f,0.01331518404185772f,0.07738158106803894f,0.030410246923565865f,0.08339883387088776f,0.10189089924097061f,0.024595728144049644f,-0.022945770993828773f,0.04233330115675926f,-0.014486043713986874f,0.002813331549987197f,0.025354396551847458f,0.016768252477049828f,0.03591785579919815f,0.08856377750635147f,-0.001325650024227798f,0.012791458517313004f,0.04674065485596657f,0.027844639495015144f,-0.005699351895600557f,0.05507900193333626f,0.04102591797709465f,0.09013967216014862f,0.09391362965106964f,0.022176593542099f,-0.014953681267797947f,0.027290213853120804f,-0.018646156415343285f,-0.00343216466717422f,-0.5915275812149048f,-0.001089692348614335f,0.04009342938661575f,0.052204638719558716f,-0.007290648762136698f,-0.03630140423774719f,0.007779781706631184f,-0.02961849980056286f,-0.035893190652132034f,0.05056433379650116f,-0.01878984645009041f,0.04367336630821228f,0.07924777269363403f,-0.01791415363550186f,0.008676714263856411f,0.029022032395005226f,-0.024665772914886475f,0.01631850376725197f,0.0651547759771347f,0.05153597146272659f,0.0709637850522995f,0.0834256261587143f,-0.001932410174049437f,-0.03333622217178345f,-0.010644334368407726f,-0.036679502576589584f,-0.034066341817379f,0.0600200891494751f,0.00033645410439930856f,0.020068883895874023f,0.0488816536962986f,-0.01424768753349781f,-0.0012898565037176013f,0.022409828379750252f,-0.009997782297432423f,0.0053626918233931065f,0.08188021928071976f,0.024023085832595825f,0.045001886785030365f,0.07363177835941315f,0.02888575755059719f,0.31882596015930176f,-0.17911158502101898f,-0.16312651336193085f,-0.14997971057891846f,-0.24555794894695282f,-0.1971708983182907f,-0.21260903775691986f,-0.2394839972257614f,-0.15649017691612244f,0.113556869328022f},
{0.20257645845413208f,0.24233610928058624f,-0.7796375155448914f,0.08606844395399094f,0.05525922775268555f,0.18439888954162598f,0.10569006949663162f,0.024477705359458923f,0.08048951625823975f,-0.07920794934034348f,-0.04434859752655029f,-0.13592015206813812f,-5.432965190266259e-05f,0.014469566754996777f,-0.026389332488179207f,-0.05157587677240372f,0.005142237991094589f,-0.03336156904697418f,-0.006482822820544243f,-0.06292754411697388f,-0.11785396933555603f,-0.012840365059673786f,0.058531753718853f,-0.030697330832481384f,-0.026010258123278618f,0.018579481169581413f,0.016472022980451584f,-0.34570789337158203f,-0.09418096393346786f,-0.6641930937767029f,-0.4244314432144165f,-1.5278023481369019f,-0.10953108966350555f,0.936633825302124f,0.9679771065711975f,0.9199563264846802f,-0.09005111455917358f,-0.0754089504480362f,-0.187604621052742f,-0.09178069978952408f,-0.0517752468585968f,-0.09331327676773071f,-0.05952192470431328f,-0.04425604268908501f,-0.06005459278821945f,-0.0431988462805748f,-0.039442818611860275f,-0.1417957842350006f,-0.0017019783845171332f,-0.585259199142456f,-0.04730047658085823f,0.0102803073823452f,0.02326379530131817f,0.0005875976639799774f,-0.005813124589622021f,0.01280927937477827f,-0.1072688028216362f,0.0039087445475161076f,0.06649946421384811f,-0.02756696753203869f,-0.008006199263036251f,0.05784671753644943f,0.04195183143019676f,0.03192991763353348f,0.03187496215105057f,-0.012982288375496864f,0.04914940893650055f,0.16214796900749207f,0.02419242262840271f,0.0156501904129982f,0.09362341463565826f,0.06462784856557846f,-0.004787614569067955f,-0.04627615213394165f,-0.1573719084262848f,-0.03222040832042694f,0.06322246044874191f,-0.05470031499862671f,-0.0024158114101737738f,-0.0534944161772728f,0.009138056077063084f,-0.027565430849790573f,-0.026768501847982407f,-0.13484609127044678f,0.005411396734416485f,0.05184871330857277f,-0.01994454488158226f,0.00477968342602253f,0.010880536399781704f,-0.021106639876961708f,0.016586003825068474f,0.09877575188875198f,-1.5606313943862915f,0.14539648592472076f,-0.027015957981348038f,0.16395796835422516f,-0.06390226632356644f,0.06740489602088928f,-0.026929624378681183f,0.055173877626657486f,0.06482519209384918f,0.019106002524495125f,0.08014538884162903f,-0.004923176020383835f,0.02449531853199005f,-0.03935595974326134f,0.07854382693767548f,0.08358850330114365f,0.07135152816772461f,0.02728363685309887f,0.02418222464621067f,0.09723950922489166f,0.008140712976455688f,0.011734042316675186f,-0.06176745146512985f,0.03790951520204544f,0.06696636974811554f,0.4402156174182892f,0.2278393805027008f,0.26690584421157837f,0.3583947718143463f,0.5753438472747803f,0.34283801913261414f,-1.7108936309814453f,-2.1693670749664307f,-1.7662553787231445f,0.10095980018377304f,0.07767300307750702f,0.017917264252901077f,0.0635940209031105f,0.05754118412733078f,0.02498287707567215f,-0.006967289373278618f,0.07951703667640686f,0.11915048956871033f,0.02515670657157898f,-0.011808367446064949f,-0.035068120807409286f,0.0261971615254879f,-0.5457926988601685f,-0.047379255294799805f,-0.054408855736255646f,-0.009857271797955036f,0.0286952406167984f,0.11444837599992752f,0.07389330118894577f,0.04149964079260826f,0.09419503062963486f,0.02907632477581501f,0.011575602926313877f,0.001341888215392828f,0.07429878413677216f,0.08849726617336273f,0.02985401079058647f,0.046257346868515015f,0.019497092813253403f,0.04812179505825043f,0.03939647972583771f,0.025461021810770035f,-0.07718686759471893f,0.03981460630893707f,0.04022084176540375f,0.07691413164138794f,0.028615117073059082f,-0.025646071881055832f,0.06088656187057495f,-0.010966358706355095f,-0.009405870921909809f,-0.05352014675736427f,-0.0451727956533432f,0.07745890319347382f,0.012864377349615097f,0.009624011814594269f,-0.038205210119485855f,0.04633934050798416f,-0.06872843205928802f,-0.002182301366701722f,-0.07218331098556519f,0.0372542105615139f,0.0074634556658566f,-0.19843849539756775f,-0.20499356091022491f,0.32320550084114075f,-0.26651594042778015f,-0.24183465540409088f,-0.16735650599002838f,-0.12978699803352356f,-0.20203480124473572f,-0.19466949999332428f,0.11160043627023697f},
{-0.04735284298658371f,0.05253094807267189f,-0.09102911502122879f,-0.8085163831710815f,-0.2689093053340912f,0.07365155220031738f,-0.02989174798130989f,0.052013590931892395f,-0.06806712597608566f,0.004865356255322695f,-0.05830991268157959f,0.01742413081228733f,-0.02423344925045967f,-0.043742597103118896f,-0.07011283189058304f,-0.040198296308517456f,-0.06024863198399544f,-0.07293083518743515f,0.04980968311429024f,0.04516204819083214f,0.10052742809057236f,0.08762844651937485f,0.09630338847637177f,0.011183292604982853f,0.021638303995132446f,0.03206702321767807f,0.021925607696175575f,-0.007022265810519457f,-0.02780955843627453f,0.029068557545542717f,-0.051197830587625504f,-0.02007773332297802f,-0.09247542172670364f,-0.02717224881052971f,-0.06317423284053802f,-0.08576007187366486f,0.0020747778471559286f,-0.5580991506576538f,0.543994128704071f,0.2612171471118927f,-0.8642817139625549f,0.3042844235897064f,-0.053545329719781876f,-0.4926990866661072f,0.44023072719573975f,0.001930305385030806f,-0.04083375260233879f,-0.013062226586043835f,-0.0010683530708774924f,-0.4517907202243805f,-0.0987493172287941f,-0.0264645554125309f,-0.06822394579648972f,-0.10801022499799728f,0.04952580854296684f,0.07355765998363495f,0.08235705643892288f,0.04346334561705589f,0.11011673510074615f,0.08646051585674286f,0.042708076536655426f,0.03447631374001503f,0.0174087043851614f,-0.012890198267996311f,-0.04239171743392944f,0.02595817856490612f,-0.007016876712441444f,-0.028905589133501053f,-0.04912988841533661f,-0.03513890877366066f,-0.04916664958000183f,-0.07662300765514374f,0.10850362479686737f,0.04710221290588379f,0.1307162642478943f,0.07249998301267624f,0.07840772718191147f,0.022483589127659798f,0.017038116231560707f,0.06306689977645874f,0.018292715772986412f,0.06057014688849449f,0.03743087127804756f,0.07760868221521378f,0.01940241828560829f,0.04365440085530281f,-0.02811097912490368f,0.04156745597720146f,0.010078649036586285f,0.0005262285121716559f,0.06360068172216415f,-0.019041337072849274f,-0.014804787002503872f,-0.6975252628326416f,-0.08405794203281403f,0.03693254292011261f,0.08066191524267197f,0.06360313296318054f,0.03830232471227646f,0.06494101136922836f,-0.04144137725234032f,0.06763181835412979f,0.026076866313815117f,-0.031429119408130646f,-0.0401570163667202f,0.037627268582582474f,-0.057685498148202896f,0.02011149935424328f,0.08753886073827744f,-0.03649286553263664f,0.09087648242712021f,0.03638915717601776f,-0.013060173019766808f,-0.042213328182697296f,0.06040055304765701f,-0.04028651863336563f,0.014432355761528015f,-0.0020869080908596516f,-0.11068208515644073f,0.016509611159563065f,-0.01944202557206154f,-0.057926107197999954f,-0.08792795240879059f,0.006476478651165962f,-0.10209719836711884f,-0.03802349790930748f,-0.3270118534564972f,0.39306026697158813f,-0.40783143043518066f,-0.7497060298919678f,0.5027225017547607f,-0.39174631237983704f,-0.3358931541442871f,0.39418521523475647f,-0.44706103205680847f,0.03677799925208092f,-0.006296870764344931f,0.10243213921785355f,0.04517257958650589f,-0.3480539917945862f,-0.014164024032652378f,0.05392235144972801f,-0.005283952224999666f,0.053806841373443604f,0.12828244268894196f,-0.0205994825810194f,0.0971762090921402f,0.053482409566640854f,-0.05346187204122543f,0.04878225550055504f,0.10054384917020798f,-0.0441570021212101f,-0.0007024931837804615f,0.08245684951543808f,-0.012282625772058964f,0.07435641437768936f,0.09999594837427139f,0.028429817408323288f,-0.005526450462639332f,0.06291734427213669f,-0.006467866245657206f,0.04765869677066803f,0.06582535803318024f,-0.014200272969901562f,0.08006991446018219f,0.03532852977514267f,0.019940637052059174f,-0.03385639935731888f,0.07456568628549576f,-0.0171551164239645f,0.006834724918007851f,0.09597696363925934f,-0.039155665785074234f,0.09538459032773972f,0.09068489819765091f,0.010531559586524963f,-0.005235129501670599f,0.1083270013332367f,-0.0212079044431448f,0.035933587700128555f,-0.11153541505336761f,-0.02176198549568653f,-0.10000383853912354f,-0.03455166891217232f,-0.060696061700582504f,-0.011289541609585285f,-0.12111571431159973f,-0.008444641716778278f,-0.033271994441747665f,-0.0263870470225811f},
{0.0013798802392557263f,-0.009841694496572018f,0.03919357433915138f,0.0006792756612412632f,-0.010605715215206146f,0.0053388443775475025f,0.00412443932145834f,0.02884969674050808f,-1.4679473638534546f,-0.11486617475748062f,-0.0391768179833889f,-0.08558230102062225f,-0.05273585394024849f,-0.09003792703151703f,-0.06180213764309883f,-0.0648292601108551f,-0.06491042673587799f,-0.005222921259701252f,-0.007720209192484617f,0.01114564947783947f,-0.02988339215517044f,0.029829327017068863f,0.005824725143611431f,0.01623932458460331f,0.011966216377913952f,0.01563066989183426f,0.04103283956646919f,-0.06707517802715302f,-0.029819505289196968f,-0.09295537322759628f,-0.014895081520080566f,-0.06577011197805405f,-0.04392610862851143f,-0.04372868686914444f,-0.030757872387766838f,-0.017595399171113968f,-0.03269428014755249f,0.0048364028334617615f,-0.054265346378088f,0.009904494509100914f,-0.0031039700843393803f,-0.015156364999711514f,0.015688234940171242f,-0.007056085858494043f,0.04131067544221878f,-0.012157807126641273f,0.045721668750047684f,-0.017881672829389572f,0.05205833166837692f,-0.44300898909568787f,0.0393773652613163f,0.003845269326120615f,0.03337129205465317f,0.04771669954061508f,-0.010657165199518204f,0.017577318474650383f,-0.035919416695833206f,0.03380376473069191f,-0.001993380719795823f,-0.0035582452546805143f,0.005925931502133608f,0.017509762197732925f,0.04505216330289841f,-0.05786323547363281f,-0.003493596101179719f,-0.043376002460718155f,0.008907201699912548f,-0.0067621138878166676f,0.010531716048717499f,-0.014301413670182228f,-0.0055823600850999355f,0.00989176332950592f,0.020344529300928116f,0.06486301124095917f,-0.004183224868029356f,0.06942208856344223f,0.04411136731505394f,0.050455305725336075f,0.05064664036035538f,0.032582443207502365f,0.1014527827501297f,-0.31683266162872314f,0.22395436465740204f,-0.14921240508556366f,0.16107457876205444f,0.1655707210302353f,0.0305323526263237f,1.0918219089508057f,0.5358427166938782f,1.246419906616211f,0.045008182525634766f,-0.0032534380443394184f,0.08630378544330597f,-0.014900836162269115f,0.01820659264922142f,0.00909011997282505f,0.04792509600520134f,-0.09831792861223221f,-0.21582117676734924f,0.06945010274648666f,0.05012080818414688f,0.09717792272567749f,0.06784448027610779f,0.06174512207508087f,0.06183585152029991f,0.0783308893442154f,0.01938607543706894f,0.1010410487651825f,0.02415536530315876f,-0.02382565662264824f,0.030032876878976822f,-0.0066356360912323f,-0.016901416704058647f,-0.01792748086154461f,-0.002546995645388961f,-0.05095713958144188f,0.03046564757823944f,0.09428072720766068f,0.059393998235464096f,0.09821713715791702f,0.05955665186047554f,0.05262378230690956f,0.04977007955312729f,0.057057809084653854f,0.020161233842372894f,0.10431919991970062f,0.021729307249188423f,-0.01754995621740818f,0.03379882127046585f,-0.022721558809280396f,-0.028870202600955963f,-0.019869640469551086f,-0.007601051591336727f,-0.05624306946992874f,0.02752617746591568f,0.047050248831510544f,-0.010096118785440922f,0.03844278305768967f,0.01098256092518568f,-0.47940734028816223f,-0.010805702768266201f,0.005109322257339954f,-0.04958752542734146f,0.05808025971055031f,0.035979244858026505f,0.0008571153739467263f,0.03765500709414482f,-0.007254102732986212f,0.0044181570410728455f,-0.009098474867641926f,0.0021081138402223587f,-0.006051263306289911f,0.058037735521793365f,0.057119037955999374f,-0.007105189375579357f,0.05291208624839783f,0.008227979764342308f,-2.7307205527904443e-05f,0.003284767037257552f,0.010028289631009102f,-0.03598714992403984f,0.04366257041692734f,0.05535893887281418f,-0.0035367989912629128f,0.04254589602351189f,0.01652342639863491f,0.006987879518419504f,0.023794805631041527f,0.009314046241343021f,-0.04258463531732559f,0.06099097430706024f,0.28336283564567566f,0.0018032845109701157f,0.2343394011259079f,0.07267281413078308f,-0.3690143823623657f,-0.12528669834136963f,0.2246478646993637f,-0.21654044091701508f,0.29673147201538086f,-0.12571923434734344f,-0.05979716405272484f,-0.12314092367887497f,-0.07413287460803986f,-0.04425886273384094f,-0.04722016304731369f,-0.09980063885450363f,-0.006023481488227844f,-0.09802275151014328f,-0.12503093481063843f},
{-0.8705071806907654f,-1.262287974357605f,-0.8361077904701233f,0.21405532956123352f,-0.17559397220611572f,0.20409198105335236f,-0.14888343214988708f,0.19921088218688965f,0.12246095389127731f,0.05254613980650902f,-0.04513830319046974f,-0.16238705813884735f,-0.1677933782339096f,-0.30956798791885376f,-0.14581847190856934f,-0.26700738072395325f,0.0326836071908474f,-0.2035689502954483f,-0.049998171627521515f,0.10295310616493225f,-0.09153981506824493f,-0.09915237873792648f,-0.4285271167755127f,-0.17977571487426758f,-0.12648963928222656f,0.011687936261296272f,-0.07843917608261108f,-0.15283381938934326f,-0.07216086238622665f,0.1137712225317955f,-0.06567183136940002f,-0.26737892627716064f,-0.16127564013004303f,-0.25408682227134705f,0.07069481909275055f,-0.16591428220272064f,0.0967511311173439f,0.15786448121070862f,0.0799897164106369f,0.032589223235845566f,0.16527873277664185f,0.0783126950263977f,0.24689032137393951f,0.17176224291324615f,0.22150918841362f,-0.014962936751544476f,0.07214540243148804f,0.07275227457284927f,0.03486527130007744f,-0.9623192548751831f,-0.024914652109146118f,0.09927771985530853f,0.2568204700946808f,0.01790769398212433f,-0.003027792554348707f,0.06758075207471848f,-0.01480923593044281f,0.01495563704520464f,0.06011287868022919f,-0.009778281673789024f,0.12403751164674759f,0.1258537471294403f,0.08290377259254456f,-0.035137563943862915f,0.08316103368997574f,-0.0632827952504158f,0.03569965809583664f,0.10606556385755539f,-0.011274968273937702f,0.18455810844898224f,0.09466106444597244f,0.02506413497030735f,0.24008433520793915f,0.22668036818504333f,0.26711374521255493f,0.18891432881355286f,0.2507072985172272f,0.19738511741161346f,0.2971690893173218f,0.25577443838119507f,0.29503265023231506f,-0.010155869647860527f,0.08618080615997314f,-0.008441559970378876f,0.024116618558764458f,0.1008131131529808f,-0.03718666359782219f,0.09647773206233978f,0.06896286457777023f,0.034490760415792465f,0.7254570126533508f,0.7427505850791931f,0.7930631637573242f,-0.18298384547233582f,-0.517592191696167f,-0.0526752695441246f,-0.36913028359413147f,0.13565751910209656f,0.010208841413259506f,0.3179231584072113f,0.1653098315000534f,0.17819403111934662f,0.15743230283260345f,0.24948318302631378f,0.1969348043203354f,0.25980934500694275f,0.037268515676259995f,0.33993083238601685f,0.11753150820732117f,0.21488630771636963f,0.08066495507955551f,0.057181596755981445f,0.18979504704475403f,0.09987590461969376f,0.14422914385795593f,0.04092969745397568f,0.14190135896205902f,0.17111623287200928f,0.14194223284721375f,0.3632471263408661f,0.1816742867231369f,0.2731296122074127f,0.19665750861167908f,0.2678062617778778f,0.07117544859647751f,0.3128887712955475f,-0.13490521907806396f,-0.04749036952853203f,-0.08950372040271759f,0.013265335932374f,-0.04769254848361015f,0.03693508356809616f,0.028651369735598564f,-0.16406306624412537f,0.04011024907231331f,-0.19771169126033783f,-0.20354780554771423f,-0.27842023968696594f,-0.046721454709768295f,-0.6920354962348938f,-0.04581968113780022f,0.05327774956822395f,-0.18196450173854828f,0.08684562891721725f,-0.040312509983778f,0.029835114255547523f,-0.08872553706169128f,0.05866473168134689f,0.007887373678386211f,0.10818041861057281f,0.06558144092559814f,-0.11266011744737625f,0.11138126254081726f,-0.23017847537994385f,-0.17119325697422028f,-0.24413470923900604f,0.0015176350716501474f,0.0019080027705058455f,-0.05180627480149269f,0.04425302892923355f,-0.20139148831367493f,0.03236934542655945f,-0.21828040480613708f,-0.264227032661438f,-0.2573103904724121f,-0.14716866612434387f,-0.22493712604045868f,-0.14783842861652374f,-0.18199196457862854f,-0.33840039372444153f,-0.06897670775651932f,-0.09233604371547699f,-0.032279133796691895f,-0.21189016103744507f,-0.04090993106365204f,-0.023691343143582344f,-0.016788555309176445f,-0.04099799692630768f,-0.2095472812652588f,0.0046144695952534676f,-0.42297422885894775f,-0.600594162940979f,-0.49092355370521545f,0.10173512995243073f,0.13001690804958344f,0.0013983615208417177f,0.06947604566812515f,0.13726769387722015f,-1.1605085092014633e-05f,-0.6989167928695679f},
{0.2205767035484314f,0.01896524243056774f,0.17021667957305908f,0.07246661931276321f,-1.0576192140579224f,0.20188918709754944f,0.22698529064655304f,0.1354445368051529f,0.2993720471858978f,-0.003966375719755888f,0.040753304958343506f,0.04433077946305275f,-0.011445305310189724f,-0.057759225368499756f,0.008767712861299515f,0.03339175507426262f,0.03448222950100899f,0.046467125415802f,-0.01119054015725851f,-0.07454602420330048f,0.013098495081067085f,-0.040299344807863235f,-0.11517658084630966f,-0.025819014757871628f,0.008001595735549927f,-0.004110473208129406f,-0.0016508700791746378f,0.02552124857902527f,0.012274771928787231f,0.0032568927854299545f,-0.014969957061111927f,-0.07467731088399887f,-0.002082869643345475f,0.03882301226258278f,0.01024045143276453f,-0.0013602077960968018f,0.00164444197434932f,-0.0008474358473904431f,0.014038197696208954f,-0.05584823340177536f,-0.1213851049542427f,-0.02990136854350567f,0.00643670279532671f,-0.01278637070208788f,-0.0016310197534039617f,1.283236026763916f,1.2020639181137085f,1.2338578701019287f,-0.18373696506023407f,-1.900546669960022f,0.002187371486797929f,-0.24373085796833038f,-0.3050113916397095f,-0.8079658150672913f,-0.04835422337055206f,-0.05327838659286499f,-0.040091194212436676f,-0.08731171488761902f,-0.15996918082237244f,-0.09485168755054474f,-0.048509396612644196f,-0.05800451710820198f,-0.056281134486198425f,-0.018259624019265175f,0.006130472756922245f,0.02660892903804779f,-0.05934426188468933f,-0.07539233565330505f,-0.03833160921931267f,-0.013461879454553127f,-0.027382107451558113f,-0.028887148946523666f,-0.04807575047016144f,-0.044987890869379044f,-0.03303847834467888f,-0.07679596543312073f,-0.17002569139003754f,-0.08783866465091705f,-0.04952654987573624f,-0.055164482444524765f,-0.05306462571024895f,-0.0291878804564476f,-0.03764649108052254f,-0.06984621286392212f,-0.09482637047767639f,-0.12389472872018814f,-0.09534008800983429f,-0.07021540403366089f,-0.08938337117433548f,-0.07871195673942566f,-0.03053167276084423f,-0.12266018986701965f,-0.03968820720911026f,-0.042789723724126816f,-1.7824159860610962f,0.059399913996458054f,0.07306749373674393f,0.0926254466176033f,0.05807076022028923f,-0.06372798979282379f,0.03642008453607559f,-0.004818161018192768f,0.037306271493434906f,0.013734732754528522f,0.05090659484267235f,-0.005967120174318552f,0.03881283476948738f,0.04640977457165718f,-0.007651248946785927f,-0.03636988624930382f,0.016516534611582756f,0.034690678119659424f,0.008690791204571724f,0.06011327728629112f,0.010553164407610893f,0.04161957651376724f,0.05405242741107941f,-0.018877053633332253f,0.033629536628723145f,-0.061243437230587006f,0.020196542143821716f,-0.012168917804956436f,0.03372599184513092f,0.001513937022536993f,0.04636130481958389f,0.027650151401758194f,0.010717748664319515f,0.08305364102125168f,0.037862200289964676f,0.03788549080491066f,0.045830100774765015f,0.10399406403303146f,0.01977637968957424f,0.08080201596021652f,0.08392354846000671f,-1.9888215065002441f,-2.218323230743408f,-2.058213949203491f,0.1424899697303772f,-0.004752840381115675f,0.2750345468521118f,0.34671735763549805f,0.3189375400543213f,0.4299226403236389f,0.020604871213436127f,0.10316266864538193f,0.01978166028857231f,0.05175817385315895f,0.05250995606184006f,0.08188576996326447f,0.030057918280363083f,0.09718120098114014f,0.05614466965198517f,0.0021498515270650387f,0.05977591499686241f,0.006201259326189756f,0.04359140992164612f,0.02258990705013275f,0.07754099369049072f,0.0005209122318774462f,0.04883909225463867f,0.07220396399497986f,0.008700213395059109f,0.0701557993888855f,0.02921280637383461f,0.0648316740989685f,0.04538791999220848f,0.08660340309143066f,-0.0017588849877938628f,0.049384068697690964f,0.04728802293539047f,0.04308904707431793f,0.06993243098258972f,0.026485536247491837f,0.06458394974470139f,0.05413207411766052f,0.08497975021600723f,0.04692091792821884f,0.051553111523389816f,0.07110118120908737f,-0.2880796492099762f,-0.30392026901245117f,-0.2922731339931488f,-0.33337539434432983f,0.5570282340049744f,-0.3720354735851288f,-0.34584933519363403f,-0.36209985613822937f,-0.3972325921058655f,0.3723691403865814f},
{0.13546444475650787f,0.2298397570848465f,0.31016483902931213f,-0.054659370332956314f,-1.135813593864441f,0.1201246827840805f,0.22736544907093048f,0.12639957666397095f,0.2037828415632248f,0.03745587542653084f,0.054946158081293106f,0.07076293230056763f,0.08268848061561584f,-0.14852871000766754f,0.06106594577431679f,0.11233264952898026f,0.04234900698065758f,0.1064368337392807f,-0.02039845660328865f,-0.07241669297218323f,-0.008679288439452648f,-0.007532985415309668f,-0.2068643718957901f,-0.025365987792611122f,0.029068440198898315f,-0.043384578078985214f,-0.006545672658830881f,-0.009598654694855213f,-0.04413846880197525f,-0.01681247167289257f,0.015137912705540657f,-0.19053508341312408f,-0.025518761947751045f,0.044329192489385605f,-0.03964145854115486f,-0.005861498415470123f,0.03503924980759621f,0.02104801870882511f,0.053043413907289505f,-0.00905930157750845f,-0.1730630248785019f,0.024365609511733055f,0.08033662289381027f,0.01428461354225874f,0.05917486175894737f,1.4548099040985107f,-0.2818549871444702f,-0.8448531627655029f,1.3601858615875244f,-1.7524876594543457f,-0.27757173776626587f,1.4015685319900513f,-0.1573278158903122f,-0.7856873869895935f,-0.08145235478878021f,-0.10016430169343948f,-0.07621284574270248f,-0.0683881938457489f,-0.31375038623809814f,-0.11961813271045685f,-0.04256900027394295f,-0.12326206266880035f,-0.07175319641828537f,0.029601726680994034f,0.022873714566230774f,0.05701926723122597f,0.052059803158044815f,-0.14851915836334229f,0.018684417009353638f,0.026343772187829018f,-0.018140606582164764f,0.013773136772215366f,-0.059052690863609314f,-0.09505115449428558f,-0.04988411068916321f,-0.052940916270017624f,-0.2687146067619324f,-0.08523473143577576f,-0.03907875344157219f,-0.1357935070991516f,-0.04854054003953934f,-0.0351598896086216f,-0.0695960745215416f,-0.06344776600599289f,-0.03569687157869339f,-0.23560728132724762f,-0.06568428874015808f,-0.03541373834013939f,-0.11284032464027405f,-0.05854823440313339f,0.00044332025572657585f,0.07031182944774628f,0.10931389778852463f,-0.1327073723077774f,-2.5148510932922363f,0.11841943860054016f,0.008496645838022232f,0.009534992277622223f,0.18539538979530334f,-0.08489090949296951f,0.048459455370903015f,-0.002557271160185337f,0.011118635535240173f,-0.06693529337644577f,0.09948136657476425f,-0.006800165865570307f,0.09619135409593582f,0.053542360663414f,-0.04848431795835495f,0.025123033672571182f,0.007469809148460627f,0.00702942069619894f,-0.044172462075948715f,0.11765383183956146f,-0.0023060485254973173f,0.09815482050180435f,0.05299628525972366f,-0.029681136831641197f,0.05505099892616272f,0.00785033032298088f,0.009066471830010414f,-0.023209871724247932f,0.1055733934044838f,0.012947003357112408f,0.09262843430042267f,0.05907130241394043f,-0.08322948217391968f,0.043355852365493774f,-0.011189515702426434f,-0.08219236135482788f,-0.06815128028392792f,0.06862129271030426f,-0.037245962768793106f,0.07797805964946747f,0.037475284188985825f,-2.1632144451141357f,0.2628917992115021f,0.3638961911201477f,-2.638232469558716f,-0.1568092703819275f,0.42275577783584595f,-1.8220151662826538f,0.35922113060951233f,0.6552323698997498f,-0.024234801530838013f,0.08116283267736435f,0.014449400827288628f,0.024012301117181778f,-0.015856586396694183f,0.1039147898554802f,0.009928163141012192f,0.10819519311189651f,0.06301403790712357f,-0.06773190945386887f,-0.00447284197434783f,-0.03277721628546715f,-0.025048408657312393f,-0.08965982496738434f,0.03778228163719177f,-0.09173012524843216f,0.04443787783384323f,0.011780297383666039f,-0.012783089652657509f,0.08584596961736679f,0.05380168557167053f,0.04645005241036415f,-0.016399649903178215f,0.1456390619277954f,0.011104092933237553f,0.08908000588417053f,0.08029472082853317f,-0.0064376890659332275f,0.058009758591651917f,0.025304611772298813f,0.02490035444498062f,-0.02770364284515381f,0.10232877731323242f,0.017307709902524948f,0.09188472479581833f,0.04673778638243675f,-0.3381924629211426f,-0.4161965250968933f,-0.42195820808410645f,-0.3604153096675873f,0.7595160603523254f,-0.5008320808410645f,-0.3775571286678314f,-0.47665077447891235f,-0.47534245252609253f,0.5312932133674622f},
{-0.027002178132534027f,0.026081275194883347f,-0.022055480629205704f,-0.09086525440216064f,-0.04501674324274063f,0.03571844473481178f,-0.761917769908905f,-0.033164482563734055f,0.027591707184910774f,-0.04314767196774483f,-0.005159145221114159f,0.011289798654615879f,-0.046374015510082245f,-0.041488226503133774f,-0.02772977389395237f,0.01716696098446846f,-0.027955934405326843f,-0.04473431408405304f,-0.007158655673265457f,0.026632722467184067f,0.05050279572606087f,-0.008052573539316654f,0.0027128702495247126f,0.025523774325847626f,0.013403587974607944f,0.02434721775352955f,-0.024813326075673103f,-0.013806008733808994f,0.01687835156917572f,0.05358893424272537f,-0.007334435358643532f,-0.0075339023023843765f,0.011258763261139393f,0.025858089327812195f,0.006708580069243908f,-0.026202743873000145f,0.013813807629048824f,0.037584684789180756f,0.07766465097665787f,0.0073788887821137905f,0.007455192506313324f,0.045663926750421524f,-0.005097586195915937f,0.020789695903658867f,-0.004944997373968363f,-0.010532958433032036f,0.03761235252022743f,0.07174452394247055f,0.006970677059143782f,-0.44320258498191833f,0.03644338995218277f,0.06622989475727081f,0.026447024196386337f,-0.01746603474020958f,0.028266554698348045f,0.07183699309825897f,0.10096116364002228f,0.06960820406675339f,0.04998251423239708f,0.08546649664640427f,0.060348354279994965f,0.055061809718608856f,0.044108033180236816f,0.4485935866832733f,-1.158088207244873f,0.705110490322113f,0.12868919968605042f,-0.7848998308181763f,0.018459975719451904f,0.30657055974006653f,-0.7691015005111694f,0.27254992723464966f,0.02756677381694317f,0.07805982977151871f,0.11994747817516327f,0.01917816326022148f,0.03042299672961235f,0.05477428063750267f,0.00826017651706934f,0.016385870054364204f,0.03250909969210625f,-0.010699840262532234f,0.01164175383746624f,0.033474307507276535f,-0.030492115765810013f,-0.017393313348293304f,0.010768442414700985f,0.03672739490866661f,0.012735267169773579f,-0.01971401646733284f,0.11744906008243561f,-0.050885796546936035f,0.1663276106119156f,0.06185740604996681f,0.17444102466106415f,-0.043743208050727844f,0.09345684200525284f,-0.002843356691300869f,0.06732116639614105f,0.043107759207487106f,-0.016509175300598145f,-0.01249417569488287f,-0.0032919126097112894f,-0.02905329503118992f,-0.025597665458917618f,-0.1573757380247116f,-0.019400466233491898f,0.03657124936580658f,0.024684958159923553f,-0.03681324049830437f,-0.034636735916137695f,-0.029114224016666412f,-0.03152144327759743f,-0.07929440587759018f,-0.20896853506565094f,-0.0632697120308876f,-0.02819102816283703f,-0.01873442903161049f,-0.055084772408008575f,-0.05275902897119522f,-0.0655931606888771f,-0.03866421803832054f,-0.10144997388124466f,-0.20711037516593933f,-0.07573544234037399f,-0.05050256848335266f,0.08633396029472351f,0.002723585581406951f,0.01103072427213192f,0.010876237414777279f,-0.021083969622850418f,-0.0428343191742897f,-0.18237118422985077f,-0.00859355553984642f,0.009656468406319618f,0.06416237354278564f,0.03668290376663208f,-0.038566429167985916f,0.004499990493059158f,-0.37802621722221375f,-0.012868841178715229f,-0.11105041950941086f,-0.044411517679691315f,0.05470748990774155f,0.01540042832493782f,-0.039122454822063446f,-0.031523533165454865f,-0.025789177045226097f,-0.05278940126299858f,-0.06104588136076927f,-0.19754643738269806f,-0.05537896230816841f,-0.009363406337797642f,-0.17186260223388672f,0.5441760420799255f,-0.09101501107215881f,0.10167401283979416f,0.9974417090415955f,-0.07634634524583817f,-0.7660778760910034f,0.6404163241386414f,-0.24963237345218658f,0.03956247866153717f,-0.02249724604189396f,-0.025162745267152786f,0.0009706019191071391f,-0.0039005805738270283f,-0.05157456174492836f,-0.16939911246299744f,-0.04667418822646141f,0.05149875208735466f,0.09882497042417526f,0.005061066709458828f,0.0013247496681287885f,0.006165015511214733f,-0.039230410009622574f,-0.031899016350507736f,-0.17201155424118042f,-0.034991491585969925f,0.03510772064328194f,-0.05562898516654968f,-0.019009368494153023f,-0.005600924603641033f,-0.050862010568380356f,-0.05206622555851936f,0.019900567829608917f,-0.44857674837112427f,0.0019731265492737293f,-0.012719940394163132f,-0.15426725149154663f},
{0.18637607991695404f,4.020510673522949f,0.08804845064878464f,0.27972131967544556f,0.00979328528046608f,0.23591090738773346f,0.18237927556037903f,0.07512957602739334f,0.2418893724679947f,0.12090861797332764f,0.10947135835886002f,0.0828622579574585f,0.143654465675354f,0.11111388355493546f,0.1343635767698288f,0.16706760227680206f,0.14955884218215942f,0.10515426099300385f,-0.5491061210632324f,-0.6556706428527832f,-0.5306406617164612f,-0.41195446252822876f,-0.8274975419044495f,-0.4342295527458191f,-0.4822787940502167f,-0.4167531132698059f,-0.4686436653137207f,0.09340371191501617f,0.10335184633731842f,0.08066428452730179f,0.16248053312301636f,0.09926627576351166f,0.13761530816555023f,0.06686195731163025f,0.11665800958871841f,0.16964639723300934f,0.12869195640087128f,0.05316916108131409f,0.1020861491560936f,-0.00848256703466177f,0.10351308435201645f,0.059760309755802155f,0.09879012405872345f,0.07023003697395325f,0.08773939311504364f,-0.046558212488889694f,-0.08730791509151459f,0.009233742021024227f,0.03327680751681328f,-1.056849718093872f,0.0036770165897905827f,0.04253198951482773f,-0.047852031886577606f,0.04248914122581482f,0.07602017372846603f,0.03597307577729225f,0.09217280149459839f,0.0738997682929039f,0.10026267915964127f,0.027916043996810913f,0.08051584661006927f,0.07685995101928711f,0.11942128837108612f,0.0608658567070961f,0.171528160572052f,0.08350594341754913f,0.07100453972816467f,0.06489702314138412f,0.09715364128351212f,-0.06050717085599899f,-0.011403826996684074f,0.13578613102436066f,0.11513493210077286f,0.1361490935087204f,0.12528903782367706f,0.10753636062145233f,0.03541618585586548f,0.1004960760474205f,0.09439785033464432f,0.08672405779361725f,0.09473532438278198f,0.07321865856647491f,0.17100286483764648f,0.0867924839258194f,0.13130579888820648f,0.14267222583293915f,0.12221308052539825f,0.12013667821884155f,0.055990640074014664f,0.047407787293195724f,0.16745859384536743f,1.315483570098877f,0.2557835280895233f,0.10398440062999725f,0.033765509724617004f,0.16673244535923004f,0.17495515942573547f,-0.020959295332431793f,0.37710288166999817f,-0.05611608177423477f,-0.13182494044303894f,-0.08197367936372757f,-0.05217157304286957f,-0.07119601219892502f,-0.07258463650941849f,-0.05740553140640259f,-0.054521504789590836f,-0.09077855199575424f,0.6018607020378113f,0.04160669818520546f,0.5962360501289368f,0.43510347604751587f,0.8099512457847595f,0.4037383794784546f,0.7201068997383118f,0.39023905992507935f,0.6571850776672363f,-0.09828049689531326f,-0.13396038115024567f,-0.08163411915302277f,-0.07613299787044525f,-0.04520693048834801f,-0.04329146817326546f,-0.0293770432472229f,-0.019345160573720932f,-0.05738448351621628f,-0.12337252497673035f,-0.13592521846294403f,-0.08258191496133804f,-0.16521374881267548f,-0.09996579587459564f,-0.0821845531463623f,-0.013193408027291298f,-0.08995282649993896f,-0.04933955520391464f,0.039101917296648026f,-0.12393759936094284f,0.062379635870456696f,-0.019349828362464905f,-0.734251081943512f,-0.012688149698078632f,0.0825541615486145f,0.0017091708723455667f,-0.03821669891476631f,-0.10459078103303909f,-0.12083707749843597f,-0.07028631865978241f,-0.0760386660695076f,-0.0014733185525983572f,-0.08395332098007202f,-0.016875416040420532f,-0.07860380411148071f,-0.06140359863638878f,-0.02544856071472168f,-0.05487450957298279f,-0.03391382843255997f,-0.021661914885044098f,-0.016251178458333015f,-0.017678283154964447f,-0.1166858822107315f,-0.01945258118212223f,-0.059591397643089294f,-0.06765411049127579f,-0.053187403827905655f,-0.07545864582061768f,-0.03505362570285797f,-0.03985292464494705f,-0.05412794277071953f,-0.011939622461795807f,-0.0764465481042862f,-0.06564456969499588f,-0.08374348282814026f,-0.10781597346067429f,-0.07983864098787308f,-0.08442271500825882f,-0.03604111447930336f,-0.04171007499098778f,-0.021134624257683754f,-0.07311014831066132f,-0.12669074535369873f,-0.05966489762067795f,-0.93010014295578f,-0.11802161484956741f,0.03725503385066986f,-0.44535091519355774f,-0.012460494413971901f,-0.14638099074363708f,-0.03286071866750717f,-0.04343324899673462f,-0.20146657526493073f},
{0.18383879959583282f,0.1466066837310791f,-0.620600700378418f,0.184040829539299f,-0.14625179767608643f,0.12466790527105331f,0.2545850872993469f,0.18911582231521606f,-0.003086311975494027f,0.07675393670797348f,0.09421904385089874f,0.04326033592224121f,0.036565057933330536f,0.04567398503422737f,0.17142632603645325f,0.13807320594787598f,0.05875056982040405f,0.09012310206890106f,0.008226272650063038f,0.14362606406211853f,-0.01189298927783966f,0.00555908028036356f,0.10805803537368774f,0.1369045525789261f,0.12876026332378387f,-0.0527111291885376f,0.10809677839279175f,-0.17448410391807556f,-0.0480901338160038f,-0.20893244445323944f,-0.2767486572265625f,-0.3427008092403412f,-0.13726815581321716f,-0.10706813633441925f,-0.17078350484371185f,-0.2445351928472519f,-0.037372808903455734f,0.09757033735513687f,-0.08795465528964996f,-0.1493379771709442f,-0.07847581803798676f,-0.03236119821667671f,0.052410803735256195f,-0.05119358003139496f,0.01299864798784256f,-0.13068778812885284f,-0.1935681849718094f,-0.09669562429189682f,-0.09882986545562744f,-0.6761648058891296f,-0.11569052934646606f,-0.14847534894943237f,-0.03097587078809738f,-0.11860540509223938f,0.10697941482067108f,0.11011860519647598f,0.007653878070414066f,-0.030325381085276604f,0.12504640221595764f,0.064597949385643f,0.15237203240394592f,0.014396745711565018f,0.07286850363016129f,0.36092889308929443f,0.32043230533599854f,0.20647569000720978f,0.193044513463974f,0.18582984805107117f,0.20614267885684967f,0.2675052583217621f,0.2525618374347687f,0.2921561002731323f,-0.0037612086161971092f,0.09925144165754318f,-0.037548575550317764f,-0.059730418026447296f,-0.04109559953212738f,0.1031593531370163f,0.1100183054804802f,-0.10947711765766144f,0.057545628398656845f,0.03485815227031708f,0.09373665601015091f,-0.044668033719062805f,-0.046128049492836f,0.05154747515916824f,0.027869462966918945f,0.05184966325759888f,0.01728050783276558f,0.06756878644227982f,-0.049015071243047714f,-1.490537166595459f,0.09422432631254196f,-0.06669838726520538f,0.15052837133407593f,-1.28440523147583f,-1.2495596408843994f,-0.10090111941099167f,0.0051473286002874374f,-0.06389836966991425f,0.04680580273270607f,0.08285658806562424f,0.09262291342020035f,-0.029888413846492767f,0.05276143550872803f,-0.0007135672494769096f,0.0009765828726813197f,-0.006880822125822306f,-0.2105962336063385f,-0.016903623938560486f,-0.22323903441429138f,-0.21920908987522125f,-0.2080353945493698f,-0.0580294094979763f,-0.12087474018335342f,-0.20324194431304932f,-0.20909076929092407f,0.30661144852638245f,0.31000709533691406f,0.4251103401184082f,0.34576866030693054f,0.3188137114048004f,0.2592916786670685f,0.24771711230278015f,0.2894834578037262f,0.3112347424030304f,0.07621610909700394f,0.2142612785100937f,0.1957370787858963f,0.0609213225543499f,0.06804952770471573f,0.11037120223045349f,0.14774847030639648f,0.12280745059251785f,0.17357474565505981f,0.10946420580148697f,0.04683280736207962f,0.27825161814689636f,0.2002211958169937f,-0.3211023211479187f,0.04159335792064667f,0.19162391126155853f,0.17607054114341736f,0.11412008851766586f,-0.21105414628982544f,-0.005179053638130426f,-0.19849783182144165f,-0.1576174795627594f,-0.2509497106075287f,-0.08216542750597f,-0.08150814473628998f,-0.2676829397678375f,-0.1454124003648758f,-0.24216434359550476f,-0.14608508348464966f,-0.3047580122947693f,-0.21547691524028778f,-0.4017350673675537f,-0.16362756490707397f,-0.068949393928051f,-0.27888938784599304f,-0.28543075919151306f,0.017288852483034134f,0.1332559436559677f,0.14873483777046204f,0.09670653194189072f,0.026516487821936607f,0.15333092212677002f,0.10552173107862473f,-0.04181813448667526f,0.09578409045934677f,-0.1082858145236969f,0.0908370167016983f,0.1209070235490799f,0.009574907831847668f,-0.13772156834602356f,0.018103959038853645f,-0.0037441805470734835f,-0.009392772801220417f,0.01063917949795723f,0.03185387700796127f,0.1700727492570877f,-0.9326925873756409f,-0.24976606667041779f,-0.3688882887363434f,0.17322883009910583f,0.3505212068557739f,-0.15742483735084534f,-0.0151991480961442f,-0.07547171413898468f},
{0.43752095103263855f,0.382142037153244f,-2.0310986042022705f,0.403231143951416f,-2.4830117225646973f,0.4295714497566223f,-2.443819522857666f,0.4055570065975189f,0.4704316258430481f,0.29164937138557434f,0.2661013603210449f,0.21949322521686554f,0.32782217860221863f,0.12151418626308441f,0.22033125162124634f,0.14065060019493103f,0.22883252799510956f,0.28315651416778564f,0.29306676983833313f,0.21139752864837646f,0.20653249323368073f,0.2425834834575653f,0.1258624792098999f,0.22801627218723297f,0.11480311304330826f,0.24401170015335083f,0.2703544795513153f,-0.43052974343299866f,-0.39426925778388977f,-0.30280163884162903f,-0.4392196238040924f,-0.67177414894104f,-0.4949014186859131f,-0.6250542998313904f,-0.5310825109481812f,-0.4791954755783081f,0.2804226875305176f,0.24329343438148499f,0.20670822262763977f,0.22249658405780792f,0.13634008169174194f,0.16543865203857422f,0.15760867297649384f,0.22563309967517853f,0.278899222612381f,-0.2675790786743164f,-0.23383745551109314f,-0.2590152621269226f,-0.21667137742042542f,-1.7829216718673706f,-0.25764837861061096f,-0.3596527874469757f,-0.252826452255249f,-0.2563351094722748f,0.2909822463989258f,0.3286743462085724f,0.24496687948703766f,0.27966606616973877f,0.1331099569797516f,0.16179606318473816f,0.16671742498874664f,0.2945755124092102f,0.3111570179462433f,-0.36223024129867554f,-0.25592106580734253f,-0.3428907096385956f,-0.32533374428749084f,-0.6190117001533508f,-0.3368991017341614f,-0.2650829553604126f,-0.3987453877925873f,-0.4619797468185425f,0.3398926258087158f,0.25364530086517334f,0.23628945648670197f,0.25319433212280273f,0.1252751648426056f,0.26555588841438293f,0.1523892730474472f,0.15263280272483826f,0.30340054631233215f,0.31321391463279724f,0.2691155970096588f,0.16433024406433105f,0.28609827160835266f,0.10532588511705399f,0.2593035101890564f,0.1636163890361786f,0.2522948086261749f,0.24776984751224518f,-0.22870205342769623f,-0.20531730353832245f,0.8610190749168396f,-0.2538978159427643f,0.9410973787307739f,-0.17724920809268951f,0.966941773891449f,-0.18918851017951965f,-0.28968575596809387f,-0.10243672132492065f,-0.11109623312950134f,-0.07926423102617264f,-0.08154797554016113f,-0.201805979013443f,-0.11331979930400848f,-0.1288786232471466f,-0.15918079018592834f,-0.09448294341564178f,-0.11055047065019608f,-0.11482976377010345f,-0.060235366225242615f,-0.12623344361782074f,-0.2607520818710327f,-0.113481305539608f,-0.05631152167916298f,-0.17572392523288727f,-0.0791589617729187f,0.1662692278623581f,0.10038956254720688f,0.49791669845581055f,0.0449974462389946f,0.3661314845085144f,0.06708118319511414f,0.4295909106731415f,0.0265045203268528f,0.17869335412979126f,-0.09380105137825012f,-0.10227742791175842f,0.07777132838964462f,-0.09686468541622162f,-0.10618635267019272f,-0.16326236724853516f,-0.10664281249046326f,-0.10127169638872147f,-0.10504812747240067f,0.21858066320419312f,0.0906825065612793f,0.41283711791038513f,0.2379131019115448f,-0.9597330689430237f,0.066444993019104f,0.3978908360004425f,0.2027585357427597f,0.31547480821609497f,-0.0774172842502594f,-0.05914370343089104f,0.012231607921421528f,-0.12748120725154877f,-0.16767758131027222f,-0.16051937639713287f,-0.04134654253721237f,-0.09284179657697678f,-0.06249033287167549f,0.18104037642478943f,0.09500680863857269f,0.4410640001296997f,0.14648962020874023f,0.31798282265663147f,0.07517369091510773f,0.4648318886756897f,0.11575669050216675f,0.20923259854316711f,-0.05871277675032616f,-0.07976441830396652f,0.03115864470601082f,-0.08553384244441986f,-0.11381218582391739f,-0.1131567433476448f,-0.018384629860520363f,-0.17944881319999695f,-0.07740418612957001f,-0.10407862067222595f,-0.057809919118881226f,-0.056019287556409836f,-0.09155698865652084f,-0.257601797580719f,-0.0781845897436142f,-0.09488872438669205f,-0.12139229476451874f,-0.10200154036283493f,0.38224488496780396f,0.4188139736652374f,-1.5365993976593018f,0.5061984658241272f,-1.237151861190796f,0.47210443019866943f,-1.5907624959945679f,0.5068667531013489f,0.3900994658470154f,-1.1632696390151978f},
{-0.10718202590942383f,0.11118612438440323f,0.3216612935066223f,0.12294629216194153f,-1.1793094873428345f,0.11080499738454819f,0.17799347639083862f,0.10120286047458649f,-0.05171970650553703f,-0.026131542399525642f,-0.07870181649923325f,-0.08561692386865616f,-0.04302213713526726f,-0.18501116335391998f,-0.03874359652400017f,0.028534768149256706f,-0.048682473599910736f,0.024591149762272835f,0.022036585956811905f,-0.10940507054328918f,-0.05191501975059509f,-0.04983903095126152f,-0.13106122612953186f,-0.042687222361564636f,0.04470328986644745f,-0.04560359567403793f,0.023517850786447525f,0.11549380421638489f,0.01209926139563322f,0.0074400268495082855f,0.07109646499156952f,-0.06742015480995178f,0.04906798526644707f,0.11287806928157806f,0.06346557289361954f,0.1411154419183731f,0.015600636601448059f,-0.06834005564451218f,-0.04997829347848892f,-0.037882719188928604f,-0.12458235025405884f,-0.03434228524565697f,0.04393741115927696f,-0.04302842542529106f,0.043067824095487595f,0.6580556631088257f,-0.2996523380279541f,-0.0799991562962532f,-0.3179122805595398f,0.9101647734642029f,-0.27869388461112976f,0.01211111806333065f,-0.301144003868103f,0.634383499622345f,0.0021989878732711077f,-0.0922185406088829f,-0.06787411868572235f,-0.06552544236183167f,-0.1587471216917038f,-0.07522314786911011f,0.016399258747696877f,-0.06823553144931793f,0.0040091704577207565f,0.08827324211597443f,0.0015762130497023463f,-0.04715210199356079f,-0.033293839544057846f,-0.14053283631801605f,0.05317065864801407f,0.07829311490058899f,-0.015528116375207901f,0.09887312352657318f,-0.024239806458353996f,-0.11733086407184601f,-0.10830303281545639f,-0.08411548286676407f,-0.16078783571720123f,-0.07445627450942993f,-0.019323036074638367f,-0.07731644809246063f,-0.018006253987550735f,0.0313737690448761f,-0.04923510551452637f,-0.05807553231716156f,-0.00708069559186697f,-0.18316608667373657f,-0.029006564989686012f,0.03150894492864609f,-0.016009097918868065f,0.017740558832883835f,0.03366265445947647f,0.018498988822102547f,-0.030939877033233643f,0.02595958299934864f,-0.3621613085269928f,0.0056359004229307175f,0.06110206991434097f,0.031240832060575485f,0.10997066646814346f,0.0018639547051861882f,0.030093470588326454f,-0.04788946732878685f,0.013409742154181004f,-0.09973792731761932f,0.04093901440501213f,-0.015947340056300163f,0.051792725920677185f,-0.0006523497286252677f,0.08159543573856354f,0.09132841974496841f,0.010737172327935696f,0.10624267905950546f,-0.0502304807305336f,0.13081689178943634f,0.06066901236772537f,0.13854961097240448f,0.06478782743215561f,0.0521739199757576f,0.08395586162805557f,-0.02276334911584854f,0.06675709784030914f,-0.03225211426615715f,0.09259387105703354f,0.04835162311792374f,0.11031346768140793f,0.02092532441020012f,0.030187739059329033f,0.05270112305879593f,-0.027639104053378105f,0.06254968047142029f,-0.0841110348701477f,0.0691225677728653f,0.00878846924751997f,0.08088235557079315f,0.006069451570510864f,-2.2323379516601562f,0.5381782650947571f,0.20412686467170715f,0.4810733199119568f,-2.05355167388916f,0.5215094089508057f,0.22184164822101593f,0.4879155457019806f,-2.1725499629974365f,0.059354573488235474f,0.07200693339109421f,-0.024724526330828667f,0.058909010142087936f,-0.08654257655143738f,0.07406089454889297f,0.023289332166314125f,0.09991150349378586f,0.017985524609684944f,-0.058891166001558304f,-0.03296108916401863f,-0.08759817481040955f,-0.035825327038764954f,-0.1497371345758438f,-0.022010084241628647f,-0.08153428137302399f,0.0025387785863131285f,-0.09189124405384064f,0.04646235704421997f,0.06748449802398682f,-0.03175164759159088f,0.03780689090490341f,-0.10779380053281784f,0.07648640871047974f,0.007385304197669029f,0.09758086502552032f,0.0024239567574113607f,0.014088285155594349f,0.017146937549114227f,-0.06611267477273941f,0.010296336375176907f,-0.08869599550962448f,0.038897786289453506f,-0.0189975518733263f,0.04624359309673309f,-0.02343365177512169f,-0.23311027884483337f,-0.20097827911376953f,-0.11422755569219589f,-0.20033778250217438f,0.029662854969501495f,-0.231530100107193f,-0.15891212224960327f,-0.24253003299236298f,-0.2122109830379486f,0.4488956034183502f},
{0.12393045425415039f,0.11229955404996872f,-1.1935505867004395f,0.05514960736036301f,0.021024590358138084f,-0.1227848157286644f,0.1584310680627823f,0.03528789058327675f,-0.09293048083782196f,-0.05656740069389343f,-0.026488985866308212f,-0.2134000062942505f,-6.900983862578869e-05f,-0.04617023840546608f,0.026769965887069702f,-0.0822036936879158f,-0.011552881449460983f,-0.0033705104142427444f,0.017524637281894684f,-0.017075836658477783f,-0.1714499145746231f,0.05005933716893196f,-0.025731181725859642f,0.06753946840763092f,-0.024519171565771103f,0.015180040150880814f,0.031668610870838165f,-0.11292614787817001f,-0.09925571084022522f,1.1633256673812866f,-0.15981857478618622f,-1.0175459384918213f,1.2424160242080688f,-0.33769774436950684f,-0.0793101117014885f,1.0153261423110962f,-0.05810382217168808f,-0.049472786486148834f,-0.21775078773498535f,-0.01695510372519493f,-0.05184202641248703f,0.014374075457453728f,-0.10373716056346893f,-0.03713091090321541f,-0.016862105578184128f,-0.10095791518688202f,-0.0882655456662178f,-0.21748985350131989f,-0.06756575405597687f,-0.7232174277305603f,-0.026257650926709175f,-0.09200374037027359f,-0.08977315574884415f,-0.06610158085823059f,-0.009132134728133678f,-0.01231378223747015f,-0.2421659231185913f,0.032833296805620193f,-0.03711487725377083f,0.018399113789200783f,-0.05539623647928238f,0.00484983017668128f,0.01494037825614214f,-0.02459069713950157f,-0.0007049959967844188f,-0.14131593704223633f,0.012680204585194588f,0.01473525445908308f,0.05112062767148018f,-0.03364145755767822f,-0.027405280619859695f,0.0020845821127295494f,-0.11589308828115463f,-0.10910985618829727f,-0.28340768814086914f,-0.07329244166612625f,-0.1143692284822464f,-0.06611864268779755f,-0.15226927399635315f,-0.1299697309732437f,-0.09590273350477219f,0.021222691982984543f,0.04297121241688728f,-0.18998286128044128f,0.056838344782590866f,0.002095791045576334f,0.10233630239963531f,-0.02702239342033863f,0.034272827208042145f,0.03175758570432663f,0.12013940513134003f,0.12528705596923828f,-1.7712256908416748f,0.13574905693531036f,-0.07509372383356094f,0.06728534400463104f,0.008661444298923016f,0.13246387243270874f,0.03954215720295906f,0.05631178990006447f,0.0327177532017231f,0.04979550093412399f,0.056610770523548126f,0.1090274527668953f,0.0531834252178669f,0.022570766508579254f,0.14148731529712677f,-0.003889014944434166f,0.0658724457025528f,-0.006045230198651552f,0.01893157884478569f,0.051566578447818756f,0.09190505743026733f,0.02993663400411606f,0.020883863791823387f,0.11376260966062546f,-0.0010632699122652411f,0.4456375241279602f,0.30998390913009644f,-1.86211097240448f,0.35273823142051697f,0.6123013496398926f,-2.314629316329956f,0.32958486676216125f,0.35186830163002014f,-2.4396169185638428f,0.017957748845219612f,-0.021460194140672684f,0.0026250395458191633f,-0.0023165992461144924f,0.0889207273721695f,-0.010031403973698616f,-0.0030982159078121185f,0.08368846774101257f,-0.03325827419757843f,0.034112922847270966f,0.018785955384373665f,0.02108699083328247f,0.039484038949012756f,-0.6257985830307007f,0.029972169548273087f,0.03676725924015045f,0.10455455631017685f,-0.009769707918167114f,-0.01394953578710556f,-0.04531451687216759f,-0.03158385306596756f,-0.003308824962005019f,0.05676646903157234f,-0.06470959633588791f,-0.030970849096775055f,0.06380753219127655f,-0.036297038197517395f,0.05537669360637665f,0.035072408616542816f,0.06591334939002991f,0.06025628745555878f,0.13980402052402496f,0.06193312257528305f,0.05492508038878441f,0.12520672380924225f,0.016289470717310905f,0.05431386083364487f,-0.0012739270459860563f,0.03434634208679199f,0.04883868247270584f,0.10785376280546188f,0.03303302824497223f,0.0221652053296566f,0.09194960445165634f,-0.006944781169295311f,0.02329796738922596f,0.005131347104907036f,0.0027228500694036484f,0.06548791378736496f,0.07777004688978195f,0.03510162979364395f,0.014362029731273651f,0.0987098440527916f,-0.05184943228960037f,-0.19282971322536469f,-0.18529638648033142f,0.43019700050354004f,-0.25141236186027527f,-0.2880004644393921f,-0.21514932811260223f,-0.20150220394134521f,-0.30645620822906494f,-0.1759314388036728f,0.18463198840618134f},
{0.337617427110672f,0.2572072446346283f,0.23663702607154846f,0.15138761699199677f,-0.9416126608848572f,0.046538013964891434f,0.27684828639030457f,0.10442709177732468f,0.2510668635368347f,-0.08441177755594254f,-0.10171151161193848f,-0.03942868486046791f,-0.08232397586107254f,-0.1736973375082016f,-0.027790116146206856f,-0.043467022478580475f,-0.09181305021047592f,0.004584374837577343f,-0.009427906014025211f,-0.05898988991975784f,-0.002355983480811119f,-0.02258920855820179f,-0.17655479907989502f,0.0028465106151998043f,0.001723758177831769f,-0.05132955685257912f,0.018649732694029808f,0.049895189702510834f,0.02501409314572811f,0.06102950498461723f,0.04358559846878052f,-0.09140273928642273f,0.09352441877126694f,0.08911813795566559f,0.01982562057673931f,0.10303252935409546f,-0.07759321480989456f,-0.12364014983177185f,-0.07542024552822113f,-0.10249487310647964f,-0.25495871901512146f,-0.06863301247358322f,-0.07549040764570236f,-0.12369949370622635f,-0.05585681274533272f,-0.658541738986969f,0.06332756578922272f,1.134717345237732f,-0.7143823504447937f,-1.809045433998108f,1.1482508182525635f,-0.17322711646556854f,-0.1530597060918808f,1.1685261726379395f,0.023003501817584038f,-0.014822524040937424f,0.02803264930844307f,-0.004225071985274553f,-0.19645775854587555f,-0.05321021378040314f,0.022566847503185272f,-0.035062335431575775f,0.029247989878058434f,-0.03594772890210152f,-0.04838259518146515f,0.01529631856828928f,-0.05385533347725868f,-0.16468967497348785f,0.005024113692343235f,-0.03306124731898308f,-0.0791068822145462f,0.009438148699700832f,-0.020039629191160202f,-0.04839747026562691f,0.010367034003138542f,-0.0327981635928154f,-0.18341732025146484f,0.015254401601850986f,-0.006023047491908073f,-0.06894952803850174f,0.008147227577865124f,0.06901455670595169f,0.035100605338811874f,0.05499919876456261f,0.03603197634220123f,-0.09618059545755386f,0.08894962817430496f,0.06056341901421547f,0.009430687874555588f,0.023713117465376854f,0.09602572023868561f,0.09701354801654816f,-0.028481783345341682f,0.11766444891691208f,-1.8448044061660767f,-0.15307359397411346f,0.08437026292085648f,-0.06012311950325966f,-0.0847538560628891f,0.04346269369125366f,0.05161336064338684f,-0.018508946523070335f,0.10351734608411789f,0.0022318868432193995f,0.06112699583172798f,0.048313725739717484f,0.0660896897315979f,0.0010757531272247434f,0.039587073028087616f,0.0348987951874733f,-0.026755766943097115f,0.12724275887012482f,-0.004127448424696922f,0.09037776291370392f,0.048081159591674805f,0.05852130800485611f,0.00997250434011221f,0.020355740562081337f,0.004989012144505978f,-0.10581039637327194f,0.06432405114173889f,-0.07186625897884369f,0.022419340908527374f,0.020991913974285126f,0.022991791367530823f,-0.047261714935302734f,0.052804477512836456f,0.06644975394010544f,-0.0020978415850549936f,0.1049136072397232f,-0.013776849023997784f,0.06566959619522095f,0.02340460754930973f,0.07698924094438553f,0.005263211205601692f,0.499804824590683f,0.26447510719299316f,-2.191812515258789f,0.4451942443847656f,0.08297209441661835f,-2.15582013130188f,0.38540011644363403f,0.22555525600910187f,-2.1148297786712646f,0.018845444545149803f,0.008002006448805332f,-0.04474974051117897f,0.06013892963528633f,-0.06219838187098503f,-0.06057174131274223f,0.002725116442888975f,0.017979439347982407f,-0.045757271349430084f,0.05601717159152031f,0.02777913212776184f,-0.05197960138320923f,0.07825957983732224f,-0.0280865877866745f,0.059744540601968765f,0.010351664386689663f,0.05428121238946915f,-0.006344417110085487f,0.08411919325590134f,0.06420871615409851f,0.00402057496830821f,0.11444410681724548f,-0.007529438007622957f,0.07224452495574951f,0.04379042237997055f,0.06271298974752426f,-0.02269815467298031f,0.01676245965063572f,-0.008718256838619709f,-0.07019229233264923f,0.05568275973200798f,-0.08777286112308502f,0.018508965149521828f,0.003637454239651561f,0.01862161234021187f,-0.12027423828840256f,-0.3467582166194916f,-0.29447078704833984f,-0.21973444521427155f,-0.3919714391231537f,0.5514320731163025f,-0.2819674015045166f,-0.3365511894226074f,-0.3133569061756134f,-0.2369319349527359f,0.33395302295684814f},
{0.016777843236923218f,0.044676441699266434f,-0.03120601922273636f,0.09368746727705002f,-0.09673526138067245f,-0.09660354256629944f,-0.03323798254132271f,-0.7404462695121765f,-0.050856076180934906f,-0.01465265080332756f,-0.07778789848089218f,0.007396108005195856f,-0.003716591512784362f,-0.05471433326601982f,-0.004547604825347662f,0.017058318480849266f,-0.034061137586832047f,-0.005845895502716303f,0.10543176531791687f,0.05261645093560219f,0.10086239874362946f,0.10433699935674667f,-0.018294738605618477f,0.09446446597576141f,0.12151017785072327f,0.04360123723745346f,0.06697152554988861f,0.08478544652462006f,0.020387059077620506f,0.039803896099328995f,0.05685057491064072f,-0.020285194739699364f,0.07519489526748657f,0.07749173790216446f,0.01196812279522419f,0.04127957671880722f,0.05929006263613701f,0.020226189866662025f,0.08392025530338287f,0.06407955288887024f,-0.014777502045035362f,0.08082171529531479f,0.07786015421152115f,0.02854180708527565f,0.08193246275186539f,-0.007222894113510847f,-0.08192738145589828f,-0.0031466602813452482f,-0.017208009958267212f,-0.252149760723114f,-0.001883527496829629f,0.010842959396541119f,-0.06148103252053261f,-0.045950181782245636f,0.04388102516531944f,0.0045557282865047455f,0.041255176067352295f,0.023086268454790115f,-0.02806585282087326f,-0.014780081808567047f,-0.004098796285688877f,-0.003913358319550753f,-0.019111542031168938f,0.053892552852630615f,-0.02224341407418251f,0.015866920351982117f,0.036501429975032806f,-0.05953409895300865f,0.03478775918483734f,0.05153216794133186f,0.049156468361616135f,0.04696511849761009f,0.4525597393512726f,-0.16779431700706482f,-0.34459856152534485f,0.28959718346595764f,-0.30565640330314636f,-1.0482982397079468f,0.2070820927619934f,0.409382164478302f,-0.549083411693573f,-0.04455146566033363f,-0.08573880791664124f,-0.059081532061100006f,-0.04042108729481697f,-0.12864500284194946f,-0.039542146027088165f,-0.038608383387327194f,-0.08824798464775085f,-0.10128208249807358f,0.11256089061498642f,0.08687666058540344f,-0.10305508226156235f,-0.006618758663535118f,0.021556779742240906f,-0.033038146793842316f,0.0860070139169693f,-0.2899121344089508f,0.043030790984630585f,0.0012151108821853995f,-0.0682143121957779f,-0.08594143390655518f,-0.060421720147132874f,-0.01243625022470951f,-0.05228400602936745f,-0.016751332208514214f,-0.003300920594483614f,-0.016494128853082657f,0.09160273522138596f,0.027258453890681267f,0.00846883561462164f,0.01549198292195797f,0.031072385609149933f,0.04264795035123825f,0.08221213519573212f,0.07117332518100739f,0.09059207886457443f,0.051909998059272766f,-0.06397927552461624f,-0.07210817188024521f,-0.04580293223261833f,-0.010714579373598099f,-0.007494231685996056f,0.026280447840690613f,0.008582855574786663f,0.01873580366373062f,0.04060446098446846f,-0.06632518768310547f,-0.0971907377243042f,-0.0472334660589695f,-0.011985761113464832f,-0.04482634738087654f,0.004026038572192192f,0.013493077829480171f,-0.06124921888113022f,0.1341792196035385f,0.039975374937057495f,0.05393584072589874f,0.048626191914081573f,-0.1670193076133728f,0.08667340874671936f,0.07540453225374222f,0.0943928211927414f,0.10600551217794418f,0.04352110996842384f,-0.06796389818191528f,-0.014684256166219711f,-0.030672743916511536f,0.026242708787322044f,-0.09527557343244553f,0.017259886488318443f,0.0042127943597733974f,0.04252897948026657f,0.006784692406654358f,-0.09387622773647308f,-0.06874299049377441f,-0.06434078514575958f,-0.0032739483285695314f,-0.036664221435785294f,-0.05327453091740608f,-0.022718068212270737f,-0.03458018973469734f,-0.4828515946865082f,-0.2902783751487732f,0.09951282292604446f,-0.051983654499053955f,0.16941170394420624f,0.5020615458488464f,-0.6810967326164246f,-0.940797746181488f,0.3683905601501465f,0.08573876321315765f,0.010807077400386333f,0.037246767431497574f,0.019035641103982925f,0.09740912914276123f,0.04071076959371567f,0.045995574444532394f,0.06770791113376617f,0.04758108779788017f,-0.0021047897171229124f,0.03850192576646805f,0.028846027329564095f,0.032058555632829666f,-0.014302296563982964f,-0.06989646703004837f,0.022992316633462906f,-0.07909011840820312f,-0.07098793983459473f,-0.08950881659984589f},
{-0.8913742303848267f,1.017484188079834f,-0.7271668910980225f,-0.503652811050415f,0.8807098865509033f,-0.43756812810897827f,-0.6882062554359436f,1.0281767845153809f,-0.6920678615570068f,-0.0648610070347786f,-0.07530976831912994f,-0.016711261123418808f,-0.11900589615106583f,-0.25441551208496094f,-0.04258953779935837f,-0.1090853363275528f,-0.07653702795505524f,-0.06993120163679123f,0.3310689926147461f,0.4065975248813629f,0.36320760846138f,0.21724896132946014f,0.4565642178058624f,0.23836500942707062f,0.2893890142440796f,0.2010146677494049f,0.2635856866836548f,-0.14387771487236023f,-0.21520893275737762f,-0.18833062052726746f,-0.18983660638332367f,-0.37970060110092163f,-0.12929296493530273f,-0.14565972983837128f,-0.20141761004924774f,-0.20059680938720703f,-0.031452726572752f,-0.03799349069595337f,-0.0008569108904339373f,-0.05652318522334099f,-0.27650710940361023f,-0.08858291804790497f,-0.0648779347538948f,-0.09005852043628693f,-0.1106519028544426f,0.4027193784713745f,0.25920939445495605f,0.34559017419815063f,0.35759368538856506f,-0.7561329007148743f,0.2657082974910736f,0.3029997646808624f,0.2812439501285553f,0.32557228207588196f,-0.06021389365196228f,-0.06251034140586853f,-0.028744537383317947f,-0.09853141754865646f,-0.26495659351348877f,-0.1614217609167099f,-0.06481524556875229f,-0.08581320196390152f,-0.08875531703233719f,-0.09408017992973328f,-0.0447823666036129f,-0.018445033580064774f,-0.07568178325891495f,-0.17106761038303375f,-0.04430321976542473f,-0.11721885949373245f,-0.2084074765443802f,-0.07186166942119598f,0.34150606393814087f,0.22175216674804688f,0.31925174593925476f,0.2218795269727707f,0.4232686161994934f,0.20445574820041656f,0.32465988397598267f,0.3728773295879364f,0.29233571887016296f,-0.028998184949159622f,-0.07841716706752777f,-0.05141932889819145f,-0.07726909220218658f,-0.23433950543403625f,-0.061965782195329666f,-0.02122458443045616f,-0.14434601366519928f,-0.1489337831735611f,0.21240785717964172f,-2.583773136138916f,0.03836047276854515f,0.3023034930229187f,-2.8808863162994385f,0.18347066640853882f,0.2747167944908142f,-2.7379488945007324f,0.17855164408683777f,0.18802784383296967f,0.02985014207661152f,0.30560025572776794f,0.13784392178058624f,0.008662745356559753f,0.17226943373680115f,0.19921524822711945f,0.007097416557371616f,0.19407612085342407f,-0.288088858127594f,-0.03834831342101097f,-0.17144761979579926f,-0.09006088972091675f,-0.5504369735717773f,-0.14331655204296112f,-0.2579843997955322f,-0.19332849979400635f,-0.2462691217660904f,0.17533756792545319f,0.02538595348596573f,0.2487950474023819f,0.1664370745420456f,0.022268513217568398f,0.1571093499660492f,0.16165100038051605f,-0.001930296653881669f,0.15884175896644592f,0.14718449115753174f,0.010560514405369759f,0.27769002318382263f,0.12420114129781723f,0.04141485318541527f,0.13574016094207764f,0.2161167711019516f,0.03868875652551651f,0.13209503889083862f,-0.35364067554473877f,-0.2466934621334076f,-0.17771634459495544f,-0.31347253918647766f,-1.4775899648666382f,-0.32486221194267273f,-0.3277817666530609f,-0.18407931923866272f,-0.2538127899169922f,0.126952663064003f,0.01840287074446678f,0.2467326819896698f,0.07804335653781891f,0.05641026049852371f,0.09373287111520767f,0.16519556939601898f,-0.0041181049309670925f,0.11749095469713211f,0.1827390044927597f,0.04488399252295494f,0.2794150412082672f,0.15203876793384552f,0.047613076865673065f,0.19847509264945984f,0.12462420016527176f,0.022054029628634453f,0.20893459022045135f,-0.10444412380456924f,-0.14245954155921936f,-0.06583292037248611f,-0.05730593949556351f,-0.4709305763244629f,-0.04895392060279846f,-0.3293050527572632f,-0.024010831490159035f,-0.21945463120937347f,0.2136615812778473f,0.04192865267395973f,0.27709251642227173f,0.18407274782657623f,0.01734052784740925f,0.14976593852043152f,0.16672204434871674f,0.010348440147936344f,0.1286863535642624f,-0.7435251474380493f,0.5851532816886902f,-0.7280213832855225f,-0.6984829902648926f,0.47149962186813354f,-0.6664551496505737f,-0.7254356145858765f,0.5879859328269958f,-0.6140718460083008f,0.0716787576675415f},
{0.06811657547950745f,0.1856185346841812f,-0.0033652540296316147f,0.12188073247671127f,-0.0897902250289917f,0.1579282283782959f,-1.7848151922225952f,0.09316810220479965f,-0.0036879139952361584f,0.0914144217967987f,0.1205766573548317f,0.06949018687009811f,0.11448679119348526f,0.09724291414022446f,0.11303488910198212f,0.040144678205251694f,0.04669323191046715f,0.041073013097047806f,0.12051909416913986f,0.07774028182029724f,0.08504357188940048f,0.09467139840126038f,0.11789711564779282f,0.10702376812696457f,0.05161547288298607f,0.05163433030247688f,0.04121938347816467f,0.014163236133754253f,-0.002794045489281416f,-0.0390462763607502f,0.0125200180336833f,-0.004710180684924126f,-0.011257510632276535f,-0.0629783496260643f,-0.044680289924144745f,-0.0614200122654438f,0.02678786963224411f,0.08977936208248138f,0.023701004683971405f,0.028434664011001587f,0.03517388924956322f,0.03130539134144783f,-0.0427684485912323f,-0.004994383547455072f,-0.02750229649245739f,0.00997424777597189f,-0.05306034907698631f,-0.04066526144742966f,-0.011354196816682816f,-0.7196162343025208f,-0.07948901504278183f,-0.05261465534567833f,-0.07053335756063461f,-0.08831731230020523f,0.1031813696026802f,0.08593254536390305f,0.0663677379488945f,0.08082260936498642f,0.09729380160570145f,0.037803467363119125f,0.01621766947209835f,0.007633037865161896f,0.014249546453356743f,0.23457267880439758f,0.19303885102272034f,0.66097092628479f,0.3245672285556793f,0.7604129314422607f,0.36210140585899353f,-1.4800032377243042f,-1.79369056224823f,-1.9154351949691772f,-0.00213241926394403f,0.007189224474132061f,-0.03476092964410782f,0.006373405456542969f,-0.019665192812681198f,-0.021268971264362335f,-0.10326237231492996f,-0.09848412126302719f,-0.1165250614285469f,0.012093430384993553f,0.019666224718093872f,-0.00187536864541471f,0.03596055880188942f,0.0122529286891222f,-0.0005855740746483207f,-0.04472493752837181f,-0.03489837422966957f,-0.10663608461618423f,-0.010554402135312557f,0.08471866697072983f,0.0873396024107933f,0.01086001843214035f,-0.0018297572387382388f,0.04321856424212456f,-0.4312850832939148f,-0.04024362936615944f,-0.09009995311498642f,-0.10467834770679474f,-0.06878207623958588f,0.003660829272121191f,-0.027607502415776253f,0.012938748113811016f,-0.0570368655025959f,-0.2652319669723511f,0.01587240770459175f,0.04050039127469063f,-0.07428449392318726f,-0.1041741743683815f,-0.023883691057562828f,-0.04627266898751259f,-0.0015900306170806289f,-0.04791765660047531f,-0.26832300424575806f,0.006412706803530455f,0.014769963920116425f,-0.014731107279658318f,-0.029660075902938843f,0.06273263692855835f,0.014005398377776146f,0.11057692766189575f,-0.011742081493139267f,-0.18110360205173492f,0.07548291981220245f,0.06389454752206802f,-0.09055845439434052f,-0.09217970818281174f,-0.007613596506416798f,-0.04526504874229431f,-0.013806452974677086f,-0.059094030410051346f,-0.2780846059322357f,0.018544666469097137f,0.03360388055443764f,-0.06651248782873154f,-0.0463913157582283f,0.04569351300597191f,0.04240799322724342f,-0.5257237553596497f,-0.020548323169350624f,-0.2184508889913559f,0.07074778527021408f,0.058056917041540146f,-0.05745276063680649f,-0.06990304589271545f,-0.0021510960068553686f,-0.038848746567964554f,0.04064951837062836f,-0.06461071223020554f,-0.25897514820098877f,0.05262415111064911f,0.03645266965031624f,-0.4451151192188263f,-0.21029023826122284f,-0.7463760375976562f,-0.19962698221206665f,-1.1102032661437988f,-0.13890402019023895f,1.2167199850082397f,0.7334021925926208f,0.6767241954803467f,0.009967255406081676f,-0.02962305024266243f,0.07126301527023315f,0.015344468876719475f,0.047161657363176346f,0.014845429919660091f,-0.20527201890945435f,0.06456625461578369f,0.05178837850689888f,0.02140909433364868f,0.021362468600273132f,0.08006973564624786f,0.06893648952245712f,0.11327571421861649f,0.040861111134290695f,-0.19403399527072906f,0.1319437175989151f,0.0708705261349678f,-0.027320951223373413f,-0.020654676482081413f,-0.1388932764530182f,-0.0571623332798481f,-0.19132192432880402f,-0.056994251906871796f,-0.5063408017158508f,-0.13160169124603271f,-0.10923449695110321f,0.0029836285393685102f},
{0.13812769949436188f,-1.260799490410136e-05f,0.02922580949962139f,0.04915885627269745f,0.058607231825590134f,0.08163616061210632f,0.204069584608078f,0.2698984146118164f,-0.7246824502944946f,-0.007682188414037228f,0.050526633858680725f,0.06402090936899185f,0.08349256217479706f,0.12389728426933289f,0.05088642239570618f,0.08061474561691284f,0.0904325321316719f,-0.08379978686571121f,0.019154256209731102f,0.0019176473142579198f,0.0685555562376976f,0.023854220286011696f,0.11604919284582138f,0.03612679988145828f,0.06783127039670944f,0.030843356624245644f,-0.15178892016410828f,0.022597648203372955f,0.014123388566076756f,-0.027119828388094902f,0.04123690351843834f,0.0541667602956295f,0.044916603714227676f,0.031175561249256134f,0.04932308942079544f,-0.14764127135276794f,-0.09426751732826233f,-0.08728455007076263f,-0.07400839775800705f,-0.09568891674280167f,-0.05555969104170799f,-0.07459771633148193f,-0.03527473658323288f,-0.04238088056445122f,-0.21565335988998413f,-0.022351820021867752f,-0.048617616295814514f,-0.06423823535442352f,-0.04171310365200043f,-0.569298267364502f,-0.048118457198143005f,-0.03295820578932762f,-0.03741087764501572f,-0.17633986473083496f,-0.04165690392255783f,-0.035746362060308456f,-0.0381375215947628f,-0.04673716053366661f,-0.0015939713921397924f,-0.06094412878155708f,-0.033040013164281845f,0.006114939693361521f,-0.20882496237754822f,-0.050913043320178986f,-0.030778484418988228f,-0.044704366475343704f,-0.012611445970833302f,-0.014680310152471066f,-0.024494152516126633f,-0.0171719491481781f,-0.010680045001208782f,-0.16503751277923584f,0.01794780045747757f,0.04444878548383713f,0.022897779941558838f,0.03464343026280403f,0.10407628118991852f,0.017154917120933533f,0.03144261613488197f,0.01836826466023922f,-0.10237503051757812f,0.9012464880943298f,0.8328701853752136f,0.9038752913475037f,-0.2673633396625519f,-1.0716840028762817f,-0.008952287957072258f,-0.411458820104599f,-0.12285266816616058f,-0.6153706908226013f,-0.07908360660076141f,0.04180589318275452f,-0.04466446861624718f,0.15177325904369354f,0.016841402277350426f,0.17538902163505554f,-0.017371485009789467f,0.05538424476981163f,-1.710242509841919f,-0.07631329447031021f,0.020367689430713654f,0.04212021827697754f,0.07239796966314316f,0.08219575881958008f,0.06827633082866669f,0.04653463885188103f,0.016646746546030045f,-0.026138579472899437f,-0.035363033413887024f,-0.024642374366521835f,0.05413592606782913f,0.06519810855388641f,0.05346947908401489f,0.062003497034311295f,0.08497000485658646f,-0.012036728672683239f,-0.03622280806303024f,-0.06506174802780151f,-0.007822651416063309f,-0.0516057014465332f,0.07155833393335342f,-0.02255527302622795f,0.04149468615651131f,0.0021039696875959635f,-0.0022805214393883944f,-0.05321985110640526f,0.0010739173740148544f,0.01760008931159973f,0.09444326907396317f,0.04161801189184189f,0.05190685763955116f,0.05786580964922905f,0.07820804417133331f,0.015507113188505173f,-0.03414106369018555f,-0.04059119150042534f,-0.01327833067625761f,0.04998288303613663f,0.032295502722263336f,-0.4866516590118408f,0.0398319847881794f,0.046796251088380814f,-0.023334987461566925f,-0.046223048120737076f,-0.022230612114071846f,0.014867786318063736f,0.05713764205574989f,0.07869670540094376f,0.07230101525783539f,0.024953680112957954f,0.06716065108776093f,0.021500563248991966f,-0.015754487365484238f,-0.03851545602083206f,-0.014430003240704536f,0.029843835160136223f,0.055713802576065063f,0.00636029988527298f,0.033466823399066925f,0.02676972933113575f,-0.007965206168591976f,-0.03435215353965759f,-0.07227250933647156f,-0.04838138073682785f,-0.010651578195393085f,0.07481161504983902f,0.00010584942356217653f,0.016389204189181328f,-0.009856734424829483f,-0.06020578369498253f,-0.03970279172062874f,-1.6981416940689087f,-2.1660799980163574f,-1.8694403171539307f,0.3734816014766693f,0.5939211845397949f,0.5033915042877197f,0.46480637788772583f,0.3316611349582672f,0.32474738359451294f,-0.09777284413576126f,-0.15065783262252808f,-0.14935536682605743f,-0.2827461361885071f,-0.25785690546035767f,-0.24323801696300507f,-0.18671515583992004f,-0.1342187225818634f,0.385957807302475f,0.1595916450023651f},
{0.37308943271636963f,-0.12281892448663712f,-0.5017625093460083f,-0.227995827794075f,0.2586498260498047f,-0.20130601525306702f,-0.18590368330478668f,-0.23138366639614105f,0.30584150552749634f,0.29675281047821045f,0.058788981288671494f,0.14010083675384521f,0.17673607170581818f,0.4072132706642151f,0.09659787267446518f,0.17849187552928925f,0.11384976655244827f,0.2977641224861145f,-0.051427412778139114f,-0.09586946666240692f,0.009385722689330578f,-0.08223588764667511f,-0.1724536120891571f,-0.03237353265285492f,-0.06393061578273773f,-0.01898093707859516f,-0.0024097952991724014f,-0.24035632610321045f,-0.15692326426506042f,-0.10512667894363403f,-0.13596446812152863f,-0.3643994629383087f,-0.1047455221414566f,-0.17386342585086823f,-0.10097229480743408f,-0.16979068517684937f,-0.05466970428824425f,-0.09804128855466843f,-0.027248196303844452f,-0.12015068531036377f,-0.19141077995300293f,-0.03476596996188164f,-0.07076235115528107f,-0.05633511766791344f,-0.01620486006140709f,0.4578258991241455f,0.2506011724472046f,0.2544984817504883f,0.2913702428340912f,-0.4206254482269287f,0.2790607213973999f,0.23126360774040222f,0.2900668680667877f,0.5024623274803162f,-0.028710123151540756f,-0.09283355623483658f,-0.016648897901177406f,-0.07082663476467133f,-0.19078481197357178f,-0.06708947569131851f,-0.07225479185581207f,-0.05132555589079857f,-0.050791043788194656f,-0.1588839739561081f,-0.07108084112405777f,-0.044558241963386536f,-0.05909710377454758f,-0.2862318456172943f,-0.0691390410065651f,-0.13575416803359985f,-0.09775588661432266f,-0.13212914764881134f,-0.01537233218550682f,-0.05621594935655594f,0.0038766772486269474f,-0.07776457816362381f,-0.16248518228530884f,-0.046062592417001724f,-0.05323067307472229f,-0.08631792664527893f,-0.012686106376349926f,0.30891868472099304f,0.08082541078329086f,0.1789582520723343f,0.06545712798833847f,0.45889514684677124f,0.11478901654481888f,0.14556927978992462f,0.14575612545013428f,0.320571631193161f,-1.7821985483169556f,0.2779645323753357f,0.1842082142829895f,0.24682679772377014f,-1.6456596851348877f,0.22279341518878937f,0.25697511434555054f,0.23463965952396393f,-1.8348218202590942f,-0.12752337753772736f,-0.17971502244472504f,-0.20878326892852783f,-0.21918746829032898f,-0.3424331545829773f,-0.20501954853534698f,-0.3700093924999237f,-0.17500565946102142f,-0.09978052973747253f,0.15349718928337097f,0.07892059534788132f,0.1831832081079483f,0.12433066964149475f,0.10521917790174484f,0.13139915466308594f,0.09424138069152832f,0.14194965362548828f,0.0957929939031601f,0.14033198356628418f,0.12355449050664902f,0.17774567008018494f,0.14272210001945496f,0.13788938522338867f,0.13467255234718323f,0.14067402482032776f,0.12934662401676178f,0.09295355528593063f,0.13000290095806122f,0.11963663250207901f,0.18414397537708282f,0.05466531962156296f,0.09338617324829102f,0.1291067749261856f,0.15337446331977844f,0.11807402968406677f,0.10596372932195663f,-0.06349901854991913f,-0.2667551040649414f,-0.11307962238788605f,-0.18860496580600739f,-0.6880749464035034f,-0.2147226631641388f,-0.10381583124399185f,-0.21582439541816711f,-0.09119737148284912f,0.12018383294343948f,0.09639306366443634f,0.15263208746910095f,0.10421786457300186f,0.07250557839870453f,0.0717088058590889f,0.0807434469461441f,0.09076882153749466f,0.07960232347249985f,0.21760818362236023f,0.1999441236257553f,0.23658926784992218f,0.2353382259607315f,0.21284674108028412f,0.22628827393054962f,0.20496498048305511f,0.20719337463378906f,0.18555021286010742f,0.13753481209278107f,0.10767818242311478f,0.15502215921878815f,0.12240161001682281f,0.10513819009065628f,0.11319094151258469f,0.12868359684944153f,0.05413741245865822f,0.10724537819623947f,-0.17022210359573364f,-0.23927707970142365f,-0.27540263533592224f,-0.24743153154850006f,-0.43161827325820923f,-0.2732033133506775f,-0.3519534170627594f,-0.23163942992687225f,-0.1705401986837387f,0.2547251880168915f,-0.31710878014564514f,-0.35488206148147583f,-0.3372563123703003f,0.3305851221084595f,-0.2933381199836731f,-0.4262971580028534f,-0.3220484256744385f,0.17512628436088562f,0.01426364853978157f},
{0.03835977241396904f,0.0984284058213234f,0.15221434831619263f,0.9354066252708435f,-0.13378556072711945f,-0.08413789421319962f,0.02124505676329136f,0.05949260666966438f,0.06365363299846649f,-0.04693762958049774f,-0.05106690526008606f,-0.050221920013427734f,-0.11492785811424255f,-0.10083950310945511f,-0.008603503927588463f,-0.06294368207454681f,-0.08418689668178558f,-0.050357308238744736f,-0.07425376772880554f,-0.13843990862369537f,-0.057952363044023514f,-0.06505469232797623f,-0.06679996848106384f,-0.06912945955991745f,-0.08718407154083252f,-0.058397941291332245f,-0.03629671782255173f,-0.04528449475765228f,-0.03476205840706825f,-0.09990756958723068f,-0.06339427083730698f,-0.054511211812496185f,-0.03240440413355827f,-0.06645806133747101f,-0.059577737003564835f,-0.049156662076711655f,0.7565781474113464f,0.4780169725418091f,0.676039457321167f,0.635500431060791f,0.9452057480812073f,0.4633481502532959f,0.7462323904037476f,0.4409579336643219f,0.6109962463378906f,0.050490520894527435f,-0.11082949489355087f,-0.060872696340084076f,-0.1485254466533661f,-0.866698682308197f,0.003412397112697363f,0.0676499679684639f,-0.09949897229671478f,-0.05591288208961487f,-0.07685497403144836f,-0.05531728267669678f,-0.06329003721475601f,-0.02671472541987896f,-0.04229285195469856f,-0.06106302887201309f,-0.060705773532390594f,-0.052991632372140884f,-0.04344756156206131f,0.0395478680729866f,-0.07344695180654526f,-0.085914246737957f,-0.11694862693548203f,0.006506907753646374f,0.04365384951233864f,0.03029647096991539f,-0.06342542171478271f,-0.03230752795934677f,-0.11059736460447311f,-0.11145852506160736f,-0.06702262908220291f,-0.0799335241317749f,-0.09103543311357498f,-0.08377736061811447f,-0.10292260348796844f,-0.1878199726343155f,-0.06348945200443268f,-0.049642398953437805f,-0.05327579006552696f,-0.0444084070622921f,-0.022443488240242004f,-0.05907736346125603f,-0.04854070767760277f,-0.03665710613131523f,-0.04780172184109688f,-0.08987686783075333f,0.14692062139511108f,0.2543777823448181f,0.16811059415340424f,3.8307788372039795f,-0.12907777726650238f,0.09601269662380219f,0.010528741404414177f,0.2559727430343628f,0.1965593695640564f,0.07229786366224289f,0.061225853860378265f,0.09023476392030716f,0.0688391923904419f,0.08672704547643661f,0.07391154021024704f,0.06444384902715683f,0.1474807858467102f,0.11473722010850906f,0.11669356375932693f,0.039713237434625626f,0.09551776945590973f,0.06950527429580688f,0.12337255477905273f,0.09210722148418427f,0.077390156686306f,0.10443384200334549f,0.11077021062374115f,0.14315466582775116f,0.0963466614484787f,0.09888377785682678f,0.12146483361721039f,0.1894991099834442f,0.08975021541118622f,0.11966624110937119f,0.14745745062828064f,0.12884731590747833f,-0.5845350027084351f,-0.4131811857223511f,-0.5532693266868591f,-0.27065521478652954f,-0.883962869644165f,-0.4254164695739746f,-0.6101903319358826f,-0.3266527056694031f,-0.5613195896148682f,0.06336084008216858f,0.07757282257080078f,0.0401255339384079f,-0.09028992056846619f,-0.8747696876525879f,0.02780774235725403f,-0.01188412494957447f,0.10641994327306747f,0.08341491967439651f,0.09323637187480927f,0.06000779941678047f,0.0799814760684967f,0.07717191427946091f,0.07430872321128845f,0.07807575911283493f,0.037061821669340134f,0.08773387968540192f,0.049276113510131836f,0.09839840233325958f,0.11057417839765549f,0.05629461631178856f,0.05630263686180115f,0.10073840618133545f,0.09091750532388687f,0.04326945170760155f,0.13202112913131714f,0.11300092935562134f,0.10730968415737152f,0.048530470579862595f,0.07954032719135284f,0.04847240820527077f,0.10883259773254395f,0.06740900129079819f,0.06477759778499603f,0.03753961995244026f,0.06862575560808182f,0.1433487832546234f,0.08133799582719803f,0.13624370098114014f,0.13996438682079315f,0.16626815497875214f,0.06346990168094635f,0.12082160264253616f,0.14369575679302216f,0.05372590199112892f,-0.3322002589702606f,-0.4678354859352112f,-0.3787877857685089f,1.0100709199905396f,-0.2732532322406769f,-0.35156941413879395f,-0.20642341673374176f,-0.502301812171936f,-0.3865179419517517f,0.11203089356422424f},
{0.25141337513923645f,-0.039271339774131775f,0.18069007992744446f,0.18135669827461243f,0.10645713657140732f,0.026302294805645943f,-1.0882489681243896f,0.06728342175483704f,0.2349388152360916f,-0.07472025603055954f,-0.04618800804018974f,6.248233148653526e-06f,-0.07678161561489105f,0.02697805128991604f,-0.026384232565760612f,-0.21871891617774963f,0.02837575599551201f,-0.03051232546567917f,-0.018684767186641693f,-0.04714405536651611f,0.025538278743624687f,-0.04370410740375519f,0.06089490279555321f,-0.02613423764705658f,-0.22441086173057556f,0.029292874038219452f,0.012835323810577393f,-0.013791566714644432f,-0.009112085215747356f,0.03897229582071304f,-0.022290797904133797f,0.036081258207559586f,-0.028929980471730232f,-0.21105095744132996f,0.04570746049284935f,0.005220749415457249f,-0.022506432607769966f,-0.0036129287909716368f,0.016468379646539688f,-0.053380660712718964f,0.04350515455007553f,-0.01207775715738535f,-0.18518151342868805f,0.04323428496718407f,0.011950308457016945f,0.021076152101159096f,0.05502614006400108f,0.06677273660898209f,0.004417389165610075f,-0.6272501349449158f,0.032548777759075165f,-0.1413189023733139f,0.09727917611598969f,0.05209868401288986f,-0.1212749034166336f,-0.08849547058343887f,-0.07227163761854172f,-0.1386057436466217f,-0.0594261959195137f,-0.11716696619987488f,-0.2694654166698456f,-0.047816116362810135f,-0.08089302480220795f,-0.09018285572528839f,1.1196361780166626f,-0.3355746567249298f,-0.11520780622959137f,1.2474370002746582f,-0.32289305329322815f,-0.6016141772270203f,1.2866181135177612f,-0.45925864577293396f,0.02048429846763611f,0.047517113387584686f,0.06679981201887131f,-0.0006960004102438688f,0.12402039021253586f,0.013441312126815319f,-0.1525411605834961f,0.028270645067095757f,0.07420197874307632f,-0.09226256608963013f,-0.057043954730033875f,-0.030574368312954903f,-0.06950797140598297f,0.006808957550674677f,-0.057533860206604004f,-0.2621943950653076f,-0.04275856912136078f,-0.057384148240089417f,0.08171780407428741f,0.005935835186392069f,0.06367534399032593f,0.04173991084098816f,-0.021466558799147606f,0.14043082296848297f,-1.9049053192138672f,-0.11840030550956726f,0.08180147409439087f,0.05612946301698685f,0.059896279126405716f,-0.010256528854370117f,0.04709653556346893f,-0.02520088478922844f,0.10217957198619843f,0.06038583070039749f,0.052897859364748f,0.0696895569562912f,0.06568305939435959f,0.004757263232022524f,-0.0162727702409029f,0.02931910753250122f,-0.007448812015354633f,0.08659759908914566f,0.012889483943581581f,-0.00048668371164239943f,0.09883654862642288f,0.04018073156476021f,0.009403386153280735f,-0.034366898238658905f,0.01798935793340206f,-0.025921229273080826f,0.05060505494475365f,0.0028629410080611706f,-0.015326913446187973f,0.051843784749507904f,0.0916462391614914f,0.06103663891553879f,0.020043551921844482f,0.034711189568042755f,-0.013453982770442963f,0.10085047036409378f,0.05488673225045204f,0.05607546120882034f,0.11953996121883392f,-0.018320605158805847f,-0.03968663886189461f,-0.04838981479406357f,-0.07654714584350586f,-0.7682422399520874f,0.021392585709691048f,-0.019423572346568108f,-0.09611824154853821f,-0.0026192180812358856f,0.09328918904066086f,0.067987360060215f,0.013974295929074287f,0.046733297407627106f,0.03129953145980835f,0.10065314173698425f,0.036073293536901474f,0.034466613084077835f,0.10873368382453918f,0.526482880115509f,-2.1909167766571045f,0.4087911546230316f,0.4202149212360382f,-1.1875468492507935f,0.4173051714897156f,0.2990831136703491f,-1.6037002801895142f,0.5162742733955383f,-0.020604047924280167f,-0.0443899966776371f,-0.07183359563350677f,-0.015573224984109402f,-0.10206040740013123f,0.030610371381044388f,-0.06066466495394707f,-0.09939684718847275f,0.044710349291563034f,0.02028493583202362f,0.030504312366247177f,-0.041319217532873154f,0.020612500607967377f,-0.05509147047996521f,0.08238699287176132f,0.020824162289500237f,0.017255660146474838f,0.05729685723781586f,-0.23765677213668823f,-0.22843308746814728f,-0.21533681452274323f,-0.2613794207572937f,-0.18382887542247772f,-0.3212096095085144f,0.31241944432258606f,-0.16315597295761108f,-0.2957584857940674f,0.1720525324344635f},
