#ifndef UTTT2_PARAMETERS_H
#define UTTT2_PARAMETERS_H

float hiddenWeights[190][256] = {{-0.0982232540845871f,-0.10255679488182068f,-0.037948064506053925f,0.08858059346675873f,-0.7498974204063416f,0.1148468554019928f,-0.8903984427452087f,-0.09795020520687103f,-0.13095316290855408f,-0.08233245462179184f,0.6577542424201965f,-0.04219594970345497f,0.04182766377925873f,0.05535178631544113f,0.11969276517629623f,0.057492271065711975f,0.06536141037940979f,0.18149429559707642f,0.1838572919368744f,-0.05359794199466705f,0.01789775677025318f,-0.30234861373901367f,0.01912868767976761f,0.11665891855955124f,-0.06021196395158768f,0.01963416300714016f,-0.0007406059303320944f,-0.08951987326145172f,0.18518319725990295f,0.161232128739357f,-0.04644332453608513f,-0.8442049026489258f,-0.13470983505249023f,0.015580859035253525f,-0.0006356974481604993f,0.04187455028295517f,0.3696160614490509f,-1.4913628101348877f,-0.5293707847595215f,-0.02051481232047081f,0.043341461569070816f,0.030278146266937256f,0.0858997032046318f,0.08336860686540604f,-0.015464533120393753f,-0.01302820723503828f,0.26779648661613464f,-0.001485707238316536f,-0.17471878230571747f,0.0066206082701683044f,0.05347338318824768f,0.0051698205061256886f,0.057955581694841385f,0.007130034733563662f,0.12298184633255005f,-0.674663245677948f,-0.4856207072734833f,-0.40037983655929565f,-0.8560140132904053f,-0.03168525919318199f,-0.46183016896247864f,-0.22115860879421234f,-0.008452343754470348f,-0.6251830458641052f,-0.5395320057868958f,0.12602171301841736f,0.5387408137321472f,0.03420813009142876f,0.09784135967493057f,0.08564401417970657f,0.011449761688709259f,0.1072758361697197f,0.016124295070767403f,0.01698792167007923f,0.8513849377632141f,0.13685272634029388f,-0.17637133598327637f,0.020608438178896904f,0.15514706075191498f,0.07277470082044601f,0.5305377244949341f,-0.10144419223070145f,0.4217411279678345f,0.023337354883551598f,-0.06797771155834198f,-0.06153320521116257f,0.10936697572469711f,1.083253026008606f,0.03477603197097778f,-0.2177661806344986f,0.009224829263985157f,0.10408525913953781f,0.0016403098125010729f,0.13153360784053802f,-0.6088896989822388f,-0.9402270317077637f,-1.6137999296188354f,0.126689612865448f,0.02799731306731701f,0.11601240932941437f,-0.08865869045257568f,0.2772749066352844f,0.029167041182518005f,0.051015179604291916f,0.011869746260344982f,-0.08489528298377991f,-0.040599871426820755f,-0.0649731233716011f,-1.5778268575668335f,-1.4923181533813477f,-0.1989816129207611f,-0.13612109422683716f,0.08860249817371368f,-0.6061086058616638f,0.12670105695724487f,0.0707537978887558f,-0.024630364030599594f,-0.018778080120682716f,-0.3509964942932129f,1.1690349578857422f,0.05812521278858185f,0.009398192167282104f,0.1869277060031891f,-0.03703853115439415f,0.11454033851623535f,-0.4398040473461151f,-0.11642082780599594f,-1.4379799365997314f,0.05036637559533119f,-0.035132620483636856f,0.029700784012675285f,0.03985536843538284f,0.033738963305950165f,0.06762925535440445f,-1.4520114660263062f,-0.055754974484443665f,-0.060298386961221695f,0.02856134995818138f,0.10646035522222519f,0.10021602362394333f,0.07543115317821503f,0.08017099648714066f,0.011452202685177326f,0.15390849113464355f,0.8471676111221313f,-0.004489625338464975f,-0.05255414918065071f,0.46005943417549133f,-0.24422720074653625f,0.1061607226729393f,-1.551988124847412f,-0.8547767400741577f,-0.049375325441360474f,0.1293315440416336f,0.09205135703086853f,0.24810555577278137f,-0.1704229712486267f,-0.13108313083648682f,0.03318887948989868f,-0.5202036499977112f,-0.893726646900177f,-0.1238236352801323f,0.40147438645362854f,-0.09763313829898834f,-0.009616399183869362f,-0.006495945155620575f,0.04969792440533638f,-0.15800103545188904f,-0.4174971580505371f,-0.030170703306794167f,-0.022932613268494606f,-0.018679888918995857f,0.1546696126461029f,0.02839881367981434f,-0.6868777275085449f,-0.020463360473513603f,0.009554564021527767f,0.0024542962200939655f,-0.45757782459259033f,-1.6624573469161987f,0.033302273601293564f,-0.16615447402000427f,-0.06825961172580719f,-0.08302898705005646f,-0.6317732334136963f,-1.2935274839401245f,-0.0457356758415699f,-0.07628205418586731f,0.06364099681377411f,0.2316197156906128f,0.01733180694282055f,0.04925525188446045f,0.07530961185693741f,-0.1720689833164215f,-0.695336639881134f,-0.05008586868643761f,-0.05597308650612831f,-0.024680886417627335f,-0.04315241426229477f,-0.011839330196380615f,-0.08989834785461426f,-0.22467082738876343f,0.03751553222537041f,0.12082213163375854f,0.12900526821613312f,-0.032487086951732635f,0.05253602936863899f,0.16918547451496124f,-0.003968792036175728f,0.030388658866286278f,-0.0023821634240448475f,-0.24246443808078766f,-0.024477776139974594f,0.13188409805297852f,-0.1075483113527298f,-0.4228135943412781f,-0.014021283946931362f,-0.24155861139297485f,-0.5051937699317932f,0.06300140172243118f,0.07970596104860306f,0.10760384798049927f,0.020978407934308052f,-0.06717414408922195f,0.11136455833911896f,0.0787518098950386f,-0.4087774157524109f,-0.23182803392410278f,-0.9200544357299805f,0.04361002519726753f,0.2829105854034424f,-0.13735629618167877f,0.13465021550655365f,0.09363029152154922f,-0.030049273744225502f,0.24217258393764496f,-0.3486327826976776f,0.07424065470695496f,0.04779702425003052f,0.027112586423754692f,-0.5999066829681396f,-0.06592320650815964f,0.7312085032463074f,-0.0529649592936039f,0.022095123305916786f,0.05888707935810089f,0.1905587762594223f,0.10139098018407822f,0.029046373441815376f,-0.2206757664680481f,0.10831872373819351f,0.2723056375980377f,0.094424769282341f,-0.39220836758613586f,0.24209286272525787f,-0.154557004570961f},
{0.09171892702579498f,-0.08532731235027313f,0.06513357162475586f,0.1530730277299881f,-0.04722600802779198f,0.11741285771131516f,0.18966548144817352f,0.014408890157938004f,0.4673995077610016f,-0.20646964013576508f,-0.4586425721645355f,-0.818497359752655f,0.13062430918216705f,0.15251174569129944f,0.20228922367095947f,-0.02068256214261055f,0.07726040482521057f,0.01772625930607319f,0.07674379646778107f,0.06695263087749481f,0.06593891233205795f,0.2236059606075287f,-0.12321282178163528f,-0.7828710079193115f,0.0024351184256374836f,-0.011746503412723541f,0.13227926194667816f,-1.256316065788269f,-0.9487947821617126f,0.24023950099945068f,-0.015539411455392838f,0.0938212126493454f,-0.06680842489004135f,0.06201035901904106f,-1.3392350673675537f,0.10046830773353577f,-0.3526972532272339f,-1.429486632347107f,0.17722761631011963f,-0.05921917036175728f,0.023890595883131027f,-1.3480994701385498f,0.17350348830223083f,-0.8393662571907043f,-0.0890282541513443f,-0.046968162059783936f,0.3416005074977875f,-0.2532062828540802f,-0.18603672087192535f,-0.019630571827292442f,0.1353389322757721f,0.1683124601840973f,0.07964733988046646f,0.13641992211341858f,0.007331387139856815f,0.7114369869232178f,-0.09748362004756927f,0.29267314076423645f,0.14712589979171753f,-0.1532716304063797f,0.11245562881231308f,-0.30725520849227905f,0.05839569866657257f,0.1478700488805771f,-0.5437619090080261f,0.15538127720355988f,0.4939146935939789f,0.06865562498569489f,-0.9395217299461365f,0.030677197501063347f,-1.29857337474823f,-0.012454060837626457f,-0.11973008513450623f,0.09695595502853394f,0.04744768142700195f,0.27990713715553284f,0.028793731704354286f,-0.16736505925655365f,0.1395624727010727f,0.13128948211669922f,0.15611888468265533f,0.18951891362667084f,0.19129961729049683f,-0.37485408782958984f,0.020379304885864258f,-0.8922083973884583f,0.13651785254478455f,-0.18139135837554932f,0.09721601009368896f,-0.06996376067399979f,-0.2882537841796875f,-0.07184328883886337f,0.13852056860923767f,0.37979474663734436f,-0.46590521931648254f,0.08457490801811218f,0.40580472350120544f,0.0686836689710617f,-0.15996411442756653f,-1.0523091554641724f,-0.27515700459480286f,0.25867486000061035f,0.1468905508518219f,0.0354556180536747f,0.038049403578042984f,0.03166201710700989f,-0.03294341266155243f,0.08421476930379868f,-0.026252996176481247f,0.053984157741069794f,0.11732488870620728f,-0.18988095223903656f,0.18201155960559845f,-0.3680559992790222f,0.0166168175637722f,0.08585353940725327f,-0.04685992747545242f,0.5374593734741211f,-0.26504746079444885f,-0.009033691138029099f,0.06905443966388702f,-0.027301358059048653f,0.1778329461812973f,0.06997650861740112f,-0.753280758857727f,-0.023716451600193977f,0.0591922327876091f,0.10099935531616211f,0.1586487740278244f,-0.3406994044780731f,0.09701774269342422f,0.12072888761758804f,0.07069490849971771f,0.056398481130599976f,0.07379290461540222f,-0.18965554237365723f,0.0036336795892566442f,-0.00795318465679884f,-0.5830394625663757f,0.12298467010259628f,0.09347124397754669f,0.02373257838189602f,0.015203832648694515f,0.11228487640619278f,-0.05283274129033089f,0.03325056657195091f,-0.19279439747333527f,0.02374604344367981f,0.09110574424266815f,0.055889446288347244f,-0.030910644680261612f,-0.19972465932369232f,0.06870777159929276f,2.510788679122925f,-0.7518208622932434f,-0.05860374495387077f,0.011735179461538792f,0.03354954347014427f,0.23544900119304657f,0.04244164749979973f,0.11574916541576385f,-0.13835200667381287f,0.46054086089134216f,-0.07883783429861069f,0.06027242913842201f,-1.246595859527588f,0.01772228069603443f,-0.1762983649969101f,-0.2354910522699356f,0.07881565392017365f,-0.002547414042055607f,-0.1465110331773758f,-0.9701613783836365f,-0.0003631817235145718f,0.00432160496711731f,0.10607555508613586f,-0.09650235623121262f,0.1347808688879013f,-0.2770722210407257f,0.09502203017473221f,0.24555939435958862f,-0.03716255724430084f,0.16497403383255005f,0.036444418132305145f,-0.6725865602493286f,0.12865068018436432f,0.02433350495994091f,-0.11568330228328705f,-0.004625825677067041f,-0.1629919409751892f,-0.036457762122154236f,0.1741003394126892f,-0.2023758590221405f,-0.05396713316440582f,-0.4211541414260864f,0.09959257394075394f,-0.013004042208194733f,0.04953119158744812f,-1.2371783256530762f,0.020175131037831306f,0.08708523213863373f,-0.10073200613260269f,0.026277514174580574f,0.09919176995754242f,0.01656993478536606f,0.08719939738512039f,0.05493168532848358f,-0.19398732483386993f,-0.04183663800358772f,-0.0032918567303568125f,0.09237652271986008f,-0.007550535723567009f,0.04414045810699463f,-0.06745605170726776f,0.030298667028546333f,-0.1368299275636673f,-1.2084463834762573f,0.05042263865470886f,-0.22715748846530914f,0.00321259256452322f,0.09900414198637009f,0.13331802189350128f,0.06860410422086716f,-0.07181412726640701f,-0.004983500111848116f,0.013936984352767467f,-0.25416234135627747f,0.11979629844427109f,0.20010845363140106f,0.03623014688491821f,-0.4229128956794739f,0.05664465203881264f,0.3780613839626312f,0.04651886597275734f,0.05678638815879822f,0.19648706912994385f,-0.5611997842788696f,0.03628034144639969f,0.0738922655582428f,0.09663160145282745f,-0.023306649178266525f,-0.21470144391059875f,0.8406893610954285f,-0.003734208643436432f,-0.07019482553005219f,0.08906544744968414f,0.027925195172429085f,0.03680316358804703f,0.09164208173751831f,0.18772229552268982f,0.004805976524949074f,0.472500741481781f,0.049748603254556656f,-0.21739539504051208f,-0.08591264486312866f,-0.03673845902085304f},
{0.048842426389455795f,0.1644308865070343f,-0.04201269894838333f,0.06274541467428207f,0.14147944748401642f,0.14348354935646057f,0.1698857545852661f,0.08777005970478058f,-0.3346927762031555f,0.13884398341178894f,-0.7538962960243225f,0.09415207803249359f,0.10408514738082886f,-0.09964650124311447f,-1.4232672452926636f,-0.025851605460047722f,-0.3486115336418152f,0.012274480424821377f,0.1859564632177353f,-1.4491069316864014f,-0.125985786318779f,-0.40782731771469116f,0.005359572358429432f,0.13932478427886963f,0.1276753693819046f,0.013788372278213501f,-0.01492060162127018f,-0.049121659249067307f,0.1896256059408188f,-0.018287960439920425f,-0.14490918815135956f,0.05516881123185158f,0.07816442102193832f,0.09017587453126907f,-0.0491398461163044f,-0.11030234396457672f,-0.4486975371837616f,-1.4212491512298584f,0.05766239017248154f,0.12275908142328262f,0.07825520634651184f,0.04847780615091324f,-0.0781245306134224f,0.0753735825419426f,-0.17078179121017456f,0.025475401431322098f,-0.4820070266723633f,-0.009876814670860767f,-0.09588073939085007f,-0.04949343204498291f,0.09152823686599731f,-0.05710151046514511f,0.01714339293539524f,-0.015300748869776726f,0.09175790846347809f,-0.7414849400520325f,0.23292382061481476f,0.28704312443733215f,0.0810299962759018f,-0.06680881232023239f,0.25035780668258667f,-0.29114702343940735f,-0.27802860736846924f,-0.41598811745643616f,0.6342567801475525f,-0.8623718619346619f,-1.2950782775878906f,0.03363128751516342f,-0.43171951174736023f,0.09917864203453064f,-0.04679545760154724f,-0.062087588012218475f,0.10410235822200775f,-0.11732595413923264f,-0.014956588856875896f,-0.41208621859550476f,0.05679567530751228f,0.12095557153224945f,0.05933237820863724f,0.06121373549103737f,-0.05133337154984474f,0.6342598795890808f,0.5940710306167603f,0.1917579472064972f,-0.06418083608150482f,0.00800879392772913f,-0.7698996663093567f,-0.1310333013534546f,-1.467193841934204f,-0.08452077209949493f,-0.5188984274864197f,-0.005419626832008362f,0.004601708613336086f,-0.0823923796415329f,-0.8412535190582275f,-0.08095375448465347f,0.3925451338291168f,0.11467986553907394f,0.019120456650853157f,0.18185563385486603f,-0.32874229550361633f,-1.5319446325302124f,0.048103246837854385f,0.8683974146842957f,0.005201078485697508f,0.1071058139204979f,-0.10027585923671722f,0.001751118921674788f,0.004938183352351189f,0.03398280590772629f,0.12308825552463531f,-0.054530348628759384f,-0.06514738500118256f,0.14944122731685638f,0.11356602609157562f,0.0026297669392079115f,-0.06172743812203407f,0.08450563251972198f,-0.3563491106033325f,-0.054743167012929916f,-0.06931696087121964f,-0.0938258096575737f,-0.10280555486679077f,0.22838422656059265f,0.10773079097270966f,0.151246577501297f,-0.07392704486846924f,0.013842107728123665f,0.03688524290919304f,-0.1159224733710289f,0.012050114572048187f,0.036706093698740005f,0.17119334638118744f,0.07156108319759369f,-0.06408897787332535f,1.1177335977554321f,-0.08956737816333771f,0.04562976211309433f,-0.13613592088222504f,-0.7798296213150024f,-0.5957654714584351f,0.06435545533895493f,-1.2979652881622314f,0.17289242148399353f,0.5510472059249878f,-0.04666539281606674f,0.12498972564935684f,0.10042506456375122f,-0.00951146986335516f,0.08608448505401611f,0.040359605103731155f,-0.13194695115089417f,-0.9083884358406067f,0.11707381904125214f,0.025261951610445976f,-0.06402544677257538f,0.05889714136719704f,0.043306659907102585f,-0.0953836739063263f,0.1111995279788971f,0.07202043384313583f,-0.05744831636548042f,0.351578950881958f,-0.19964443147182465f,-0.683513879776001f,0.03432131186127663f,0.0038415140006691217f,-0.5673969984054565f,0.33688464760780334f,-1.3069965839385986f,0.041578568518161774f,-0.037533972412347794f,0.12169738113880157f,0.08194856345653534f,-0.06732635945081711f,-0.8976932764053345f,-0.13685497641563416f,0.038665369153022766f,0.4467758238315582f,0.03192109987139702f,0.08590547740459442f,0.13052035868167877f,0.10894812643527985f,0.24127918481826782f,-0.4926223158836365f,0.08830166608095169f,-0.00371352955698967f,-0.08835569024085999f,-0.13470429182052612f,-0.3438350558280945f,-0.047667693346738815f,0.02368146739900112f,0.056976430118083954f,-0.29394420981407166f,0.3407551348209381f,-0.988627552986145f,-1.5066231489181519f,-0.0693996325135231f,0.0744042918086052f,-1.3871793746948242f,0.02518690750002861f,-0.274847149848938f,0.03848681226372719f,0.13363519310951233f,0.009817571379244328f,0.01645822823047638f,0.04508795589208603f,0.06782739609479904f,0.04445098340511322f,0.127101331949234f,-0.04723060131072998f,-0.14993791282176971f,-0.3023664951324463f,-0.045856088399887085f,0.034658610820770264f,-0.05344996601343155f,-0.02846149168908596f,-0.08342990279197693f,-0.1384442001581192f,-0.14997176826000214f,0.01876549795269966f,-0.020655352622270584f,-0.04057752341032028f,-0.054326098412275314f,-0.1598028838634491f,-0.03326941281557083f,-0.7637006640434265f,0.06817927956581116f,0.09770800918340683f,0.012763346545398235f,-0.558497965335846f,-0.13673588633537292f,-0.18623462319374084f,0.1813909113407135f,0.0013037852477282286f,0.11214146763086319f,0.054452165961265564f,-0.16112889349460602f,-0.11323422938585281f,0.25293493270874023f,0.19246475398540497f,-0.10388631373643875f,0.639182448387146f,0.1681087613105774f,-0.762356698513031f,-0.016192378476262093f,0.06326474249362946f,0.0655595064163208f,0.08452624827623367f,0.049359455704689026f,0.04014374688267708f,-0.10509241372346878f,0.07053013145923615f,0.1775701493024826f,-0.023565800860524178f,-0.02219919115304947f},
{0.02479107305407524f,-0.010048821568489075f,0.0023141177371144295f,0.04337490722537041f,0.1303880512714386f,0.13366128504276276f,0.10409586131572723f,0.09252069145441055f,-0.24855661392211914f,-0.27683785557746887f,0.6847975254058838f,-0.03724159300327301f,0.052471306174993515f,0.12566640973091125f,0.0575544498860836f,-0.030726002529263496f,0.04690931364893913f,-0.6542914509773254f,0.07834089547395706f,0.03545968234539032f,-0.03801866993308067f,-0.223220095038414f,0.10078995674848557f,0.005266337655484676f,0.21131832897663116f,0.0641733929514885f,0.04050435498356819f,0.05834135413169861f,0.02209041453897953f,0.29533880949020386f,-0.1737934648990631f,0.07574693113565445f,1.9101029634475708f,0.04724324122071266f,0.07613778114318848f,-0.003041231306269765f,-0.3897430896759033f,0.14111337065696716f,-0.13260817527770996f,0.06947831809520721f,-0.015784665942192078f,0.05207028239965439f,-0.0733092799782753f,0.05479501560330391f,-0.027682021260261536f,0.061167631298303604f,0.1791287660598755f,0.027680261060595512f,-0.22205285727977753f,0.04601898044347763f,-0.02682824805378914f,-1.1321816444396973f,-0.0003331919142510742f,0.030683085322380066f,1.1025547981262207f,-0.4816582500934601f,0.023269644007086754f,0.32250991463661194f,-0.19474303722381592f,0.0020116062369197607f,0.0238825511187315f,-0.16206961870193481f,-0.061818040907382965f,0.11556972563266754f,-0.6585818529129028f,0.04858088120818138f,0.45922237634658813f,0.0674707368016243f,0.0672798827290535f,0.11587254703044891f,0.06903468072414398f,-0.016659431159496307f,0.008782083168625832f,0.05224078148603439f,0.10505493730306625f,0.20416228473186493f,0.014775899238884449f,0.13155873119831085f,0.10374613851308823f,-1.242976427078247f,0.12461264431476593f,0.08370726555585861f,0.48645487427711487f,0.28067415952682495f,0.123500294983387f,0.05617655813694f,-0.18278247117996216f,-0.15296682715415955f,0.1486327052116394f,-0.050500091165304184f,-0.48862770199775696f,-0.6495459675788879f,-0.03565850853919983f,0.19805468618869781f,0.6270266175270081f,0.16455261409282684f,0.39213627576828003f,0.09538780897855759f,0.04245669022202492f,0.17658236622810364f,-0.28522831201553345f,0.21878226101398468f,0.07846534252166748f,0.06290179491043091f,-1.0333187580108643f,-0.20153774321079254f,-0.5853834748268127f,0.3753673732280731f,0.04691338539123535f,0.09547457098960876f,0.08173791319131851f,-0.18239723145961761f,-0.23085340857505798f,-0.3414345681667328f,0.026626063510775566f,0.10085000842809677f,-0.1125275269150734f,0.11958373337984085f,-0.2176458090543747f,-0.06561102718114853f,-0.0026721328031271696f,0.1282499134540558f,0.34392666816711426f,-0.04468376561999321f,0.14995542168617249f,0.10087402164936066f,0.002565609524026513f,-0.03568476811051369f,-0.09215514361858368f,-0.18757830560207367f,-1.053928017616272f,-0.09661923348903656f,0.0818660780787468f,0.11185212433338165f,0.023128317669034004f,-0.12493222951889038f,0.006955055054277182f,0.042913973331451416f,-0.047132458537817f,0.043782852590084076f,0.011172843165695667f,-0.7667324542999268f,0.09789635241031647f,0.10563832521438599f,0.07720300555229187f,-1.0226465463638306f,-0.10209845751523972f,-0.615592896938324f,0.09692375361919403f,-0.12363482266664505f,0.052117303013801575f,0.10135012120008469f,0.07691370695829391f,0.18520215153694153f,-0.04448845610022545f,0.2316138744354248f,0.5637840032577515f,-0.1687047928571701f,0.026931660249829292f,-0.09466812759637833f,0.13569867610931396f,-0.06997983157634735f,-0.30026933550834656f,-0.1047680526971817f,-0.018985114991664886f,0.055502042174339294f,0.10548263788223267f,-0.028769444674253464f,-0.25069621205329895f,0.011357312090694904f,0.04459519684314728f,0.03399085998535156f,-0.04780610278248787f,-0.11288584023714066f,0.11279553174972534f,-0.14229021966457367f,-0.646074652671814f,0.13182665407657623f,-0.28381994366645813f,-0.004176370799541473f,0.38959959149360657f,0.06443523615598679f,-0.09573214501142502f,0.17573373019695282f,-0.5172308683395386f,-1.1903457641601562f,-0.18099252879619598f,0.026143670082092285f,-0.43737608194351196f,-0.26790904998779297f,0.022886905819177628f,0.07958998531103134f,0.11375225335359573f,-0.14956822991371155f,-0.45232030749320984f,0.09824042022228241f,0.099616140127182f,0.049192871898412704f,0.03192562609910965f,0.13657258450984955f,-0.19273662567138672f,0.41864144802093506f,-3.5780445614364e-05f,0.12573689222335815f,0.16038258373737335f,0.3389929533004761f,-1.1203702688217163f,0.16991163790225983f,-0.18057861924171448f,0.12042402476072311f,0.07621479034423828f,-0.21079540252685547f,0.1385210156440735f,-0.3379134237766266f,-0.17796246707439423f,-0.07234741747379303f,0.06325838714838028f,0.03428874537348747f,0.6287832260131836f,0.07592354714870453f,0.016612349078059196f,-0.030902396887540817f,-1.2336575984954834f,0.1223636046051979f,-0.8256216049194336f,0.10481637716293335f,-0.24754324555397034f,-0.022089054808020592f,-0.02272620052099228f,0.04756755009293556f,-0.5399503707885742f,0.008617570623755455f,0.5342656373977661f,-0.028128279373049736f,-0.06881063431501389f,0.32709142565727234f,0.12783914804458618f,0.03372947499155998f,0.056813642382621765f,0.20221231877803802f,-0.10671921819448471f,-0.4627617597579956f,-0.5555267333984375f,-0.03724300116300583f,0.00129800068680197f,0.1646033525466919f,-1.2625830173492432f,0.1361144483089447f,0.08810675889253616f,0.11228233575820923f,0.19557839632034302f,-0.2068512886762619f,-0.03634978458285332f,-0.12206616997718811f,0.07279214262962341f,0.07399049401283264f},
{-0.07055580615997314f,0.0248132161796093f,-0.1094612330198288f,-1.723202109336853f,-0.00750695401802659f,-0.059148479253053665f,0.049839626997709274f,0.06888321787118912f,0.16056416928768158f,0.37670591473579407f,-0.6627547144889832f,0.08550615608692169f,0.3179667890071869f,0.026566408574581146f,0.29986703395843506f,0.0846860408782959f,-0.0575583390891552f,-0.121178038418293f,0.1974259465932846f,0.03946381062269211f,0.0259229838848114f,0.2326563000679016f,-1.865855097770691f,0.04297294467687607f,-0.15507787466049194f,-0.09443942457437515f,0.17298747599124908f,-0.06906170397996902f,-0.10335306078195572f,-0.25930163264274597f,-0.8323301672935486f,0.010362904518842697f,-0.08349641412496567f,-0.12895067036151886f,-0.052521124482154846f,0.09707196801900864f,0.6417903304100037f,0.2612829804420471f,0.24649111926555634f,-0.10300328582525253f,0.019396381452679634f,-0.03935892879962921f,-0.14836591482162476f,-0.6990085244178772f,-0.12376698106527328f,-0.005662884563207626f,0.24633505940437317f,-1.5088287591934204f,0.16643686592578888f,-0.07165214419364929f,0.04474184289574623f,0.03848818317055702f,-0.07001703232526779f,-0.1176091730594635f,-0.0344545841217041f,0.6386187076568604f,0.26474836468696594f,0.26084548234939575f,0.02194354310631752f,0.07600992172956467f,0.1807691901922226f,-0.17274174094200134f,-0.031874291598796844f,0.23377203941345215f,-0.529045820236206f,0.08398410677909851f,-1.5935968160629272f,-0.036917973309755325f,0.15716473758220673f,0.06809191405773163f,-0.11050667613744736f,-0.12205541878938675f,-0.06891147047281265f,0.04872594028711319f,-0.20341956615447998f,-0.0021083259489387274f,-0.190363347530365f,0.1697797328233719f,-1.2079286575317383f,-1.5857313871383667f,0.21520079672336578f,0.07378975301980972f,0.5632013082504272f,0.4484148919582367f,0.011886744759976864f,0.1451319456100464f,0.009060983546078205f,0.5231494903564453f,0.02130168117582798f,-0.5688172578811646f,0.19452841579914093f,-0.08149784803390503f,-0.07251467555761337f,-0.33546578884124756f,0.5030636787414551f,0.06579995155334473f,-1.93971586227417f,-0.3794006407260895f,2.585594892501831f,-1.2714792490005493f,-0.18473002314567566f,-1.738200068473816f,0.011916114948689938f,-0.22363634407520294f,0.12640869617462158f,0.052028145641088486f,0.06136167049407959f,-0.18139009177684784f,-0.00204450567252934f,0.019628729671239853f,-1.1925069093704224f,-0.22254578769207f,0.039576295763254166f,0.21775132417678833f,-0.021881528198719025f,-0.1274700164794922f,-0.0035932203754782677f,-0.08652700483798981f,-0.18307147920131683f,0.30954086780548096f,-0.10226145386695862f,-1.332970380783081f,-0.8617172837257385f,0.119962178170681f,0.2446562796831131f,-0.12937596440315247f,-0.5457062721252441f,-0.04844307899475098f,-1.657180666923523f,-0.04390789940953255f,-0.045408695936203f,-0.027545154094696045f,0.09689108282327652f,0.2515771687030792f,0.008116880431771278f,0.26619023084640503f,-0.5227631330490112f,-0.027696149423718452f,0.3540167808532715f,-0.22928990423679352f,0.0438029021024704f,0.12746185064315796f,-0.021068276837468147f,-1.1347659826278687f,0.12281128764152527f,-0.0937386155128479f,0.4063917100429535f,-0.40430891513824463f,-0.09738435596227646f,-0.030088935047388077f,-0.07438165694475174f,0.03862423077225685f,0.029554912820458412f,-0.05749121308326721f,0.12293980270624161f,-0.013365018181502819f,-0.0803404301404953f,0.006337577942758799f,-0.13643307983875275f,0.020254123955965042f,-0.24493834376335144f,0.7989315390586853f,-0.6228148341178894f,0.001625114819034934f,0.0765877217054367f,-0.8943294286727905f,-0.1063961535692215f,0.021541094407439232f,-0.3128381073474884f,-0.07880355417728424f,-0.082009457051754f,0.07638945430517197f,-0.05198866128921509f,-0.001012002700008452f,-0.07821893692016602f,0.09068240225315094f,0.053700126707553864f,-0.04215181991457939f,-0.8191181421279907f,0.006480193696916103f,0.2444995641708374f,0.06274862587451935f,-1.5525461435317993f,0.0485651008784771f,-0.5869764089584351f,0.30272385478019714f,-1.4228709936141968f,-1.4753917455673218f,0.0028001603204756975f,0.21797779202461243f,-0.09335153549909592f,0.06424976140260696f,-1.0935277938842773f,0.7806689143180847f,0.6233252286911011f,-0.04648911580443382f,-0.0034575085155665874f,-0.08356025069952011f,-0.06823665648698807f,-0.045963697135448456f,-0.32797518372535706f,-0.07465173304080963f,-0.006964910309761763f,0.18609003722667694f,-0.04843573644757271f,-0.1344563513994217f,-0.00704109575599432f,0.01210269145667553f,-0.09022019803524017f,0.1345871537923813f,-0.09253757447004318f,0.15091221034526825f,-0.11803024262189865f,-0.06829565763473511f,-1.5927270650863647f,0.06633021682500839f,-0.04482355713844299f,-0.13154111802577972f,0.23735928535461426f,-0.15465542674064636f,-0.6766589283943176f,-0.060846686363220215f,-0.10319645702838898f,-0.06855474412441254f,0.022143172100186348f,-1.5776679515838623f,-0.6088919043540955f,0.09480341523885727f,-0.0015287082642316818f,-0.03274858742952347f,0.3957379460334778f,0.04525705799460411f,0.21020187437534332f,-0.12322946637868881f,-0.08243507146835327f,0.38327348232269287f,0.15561236441135406f,0.036341480910778046f,-1.0564361810684204f,-0.0997549295425415f,0.25088903307914734f,0.00923360139131546f,-0.53077632188797f,-0.05939926579594612f,-0.020885780453681946f,0.12454215437173843f,-0.8021156191825867f,0.009043483063578606f,-0.9330101013183594f,-0.22225138545036316f,-0.01730063557624817f,0.20204846560955048f,0.10481468588113785f,0.08885204792022705f,-0.36721447110176086f,0.05098776891827583f},
{0.06740526854991913f,-0.5501373410224915f,-0.034870777279138565f,0.0071452404372394085f,0.043090783059597015f,0.12143978476524353f,0.044015489518642426f,0.019219819456338882f,-0.29495182633399963f,-0.4749419093132019f,-0.5148337483406067f,-0.0176701657474041f,0.23248586058616638f,0.027554376050829887f,-1.452353596687317f,0.07058606296777725f,0.12232416868209839f,0.006805878132581711f,0.0939301922917366f,0.04643074795603752f,0.08835110813379288f,-0.2180107831954956f,0.10669116675853729f,-0.0232236385345459f,-0.003174089826643467f,0.0395173542201519f,-0.054236408323049545f,0.050375327467918396f,0.012215117923915386f,0.28424933552742004f,-0.016504822298884392f,0.0034431570675224066f,-0.059390075504779816f,-0.035655565559864044f,0.07730953395366669f,-0.008637608960270882f,-0.3697383999824524f,0.13082368671894073f,0.07887132465839386f,-0.667853832244873f,0.12311697751283646f,0.11845389008522034f,-0.05565350130200386f,0.013936913572251797f,0.0758177787065506f,0.1294884979724884f,0.13066978752613068f,0.029996275901794434f,-0.2334916889667511f,-0.010390518233180046f,0.09169522672891617f,0.07325972616672516f,-1.2478185892105103f,0.0008283696370199323f,-0.07299185544252396f,-0.5552534461021423f,0.1052921935915947f,-0.7449537515640259f,0.03237219154834747f,0.010605549439787865f,-0.3667933940887451f,-0.12100057303905487f,0.06038759648799896f,0.1802307665348053f,0.7754780054092407f,0.09717532247304916f,0.47089579701423645f,-0.23499061167240143f,0.09049168974161148f,-0.7993695735931396f,0.05413484573364258f,0.11067704111337662f,0.14803418517112732f,-0.045923370867967606f,-0.026183538138866425f,0.19782409071922302f,0.13474969565868378f,-0.2193005532026291f,-0.10388851165771484f,-1.4084831476211548f,0.16579174995422363f,0.19865305721759796f,0.3896995186805725f,0.2625543773174286f,0.08015033602714539f,0.027111675590276718f,-0.07894387096166611f,-0.06906520575284958f,0.08085981756448746f,-0.06340377032756805f,0.22428587079048157f,0.03868156671524048f,0.1370323747396469f,0.11220263689756393f,0.6195802092552185f,-0.11926033347845078f,0.4116614758968353f,-1.1692346334457397f,-0.13350622355937958f,0.14041735231876373f,-0.20274923741817474f,0.26819151639938354f,0.15203158557415009f,0.11278799176216125f,0.16876517236232758f,0.20283499360084534f,0.07997793704271317f,0.3650611340999603f,0.10027801245450974f,0.12728965282440186f,0.12404651194810867f,0.020622331649065018f,0.06053699180483818f,-0.2831297516822815f,0.04940427467226982f,0.16395165026187897f,-0.08401311933994293f,0.1670565903186798f,-0.1989252120256424f,-0.07649093121290207f,0.07436897605657578f,-0.08764827996492386f,0.12172657996416092f,0.062344495207071304f,0.19380606710910797f,-0.04091804474592209f,0.06684496998786926f,0.012492154724895954f,-0.09497325867414474f,-0.21563176810741425f,0.016313156113028526f,0.020261263474822044f,0.02465021423995495f,-0.23588861525058746f,0.05831516161561012f,-0.19201773405075073f,0.016930339857935905f,0.12431425601243973f,-0.14193546772003174f,0.12404953688383102f,-0.20535162091255188f,0.12554216384887695f,-0.0648537427186966f,0.10527200996875763f,-0.08575617522001266f,-0.022600894793868065f,-0.16767150163650513f,-0.4843546450138092f,0.07327591627836227f,-0.13510829210281372f,0.1180712878704071f,-0.019766291603446007f,0.041504908353090286f,0.10322748869657516f,-0.0492778904736042f,0.04437438026070595f,-0.13183580338954926f,-0.005566164385527372f,0.12451484054327011f,0.020209865644574165f,0.014547280967235565f,-0.03756840527057648f,-0.33456194400787354f,-0.055676598101854324f,0.06621863692998886f,0.11516593396663666f,0.06494130194187164f,0.07241501659154892f,-0.26526927947998047f,-0.031401824206113815f,0.07394552230834961f,0.07944610714912415f,-0.024512065574526787f,-0.07045381516218185f,0.00521789351478219f,0.17840492725372314f,0.8010613322257996f,0.08273449540138245f,0.43889978528022766f,0.1509624719619751f,0.3477308750152588f,-0.6591653823852539f,0.0654517412185669f,-0.010224147699773312f,-0.48271557688713074f,0.056070476770401f,-0.2750578224658966f,0.05275721475481987f,0.07832376658916473f,-0.1901896744966507f,0.028570914641022682f,0.07321321964263916f,0.124911829829216f,-0.11853527277708054f,-0.40926775336265564f,0.06133337691426277f,0.08594375848770142f,0.0669432207942009f,0.11820429563522339f,0.03279842436313629f,0.2031511515378952f,-0.3094060719013214f,0.06392240524291992f,0.14114174246788025f,2.5426065921783447f,0.12202449142932892f,0.006737744435667992f,0.01973498985171318f,0.056136369705200195f,-0.6481196284294128f,0.02841235138475895f,-0.050429925322532654f,0.04252607747912407f,0.1509207934141159f,0.11903908848762512f,-0.21069736778736115f,0.031176352873444557f,0.08094725012779236f,-1.1394485235214233f,-0.025020422413945198f,-0.004475736059248447f,-1.2101970911026f,-0.018958594650030136f,0.09230915457010269f,0.05008972808718681f,0.1506447196006775f,-0.2181844860315323f,0.0021111031528562307f,-0.12035518884658813f,-1.322441816329956f,-0.42227980494499207f,0.037948980927467346f,0.11025981605052948f,-0.8789191246032715f,-0.7381473779678345f,0.2845728397369385f,0.09103887528181076f,-0.22587089240550995f,0.057899050414562225f,0.1550804078578949f,-0.13760384917259216f,-0.19430887699127197f,-0.5334901809692383f,0.16370609402656555f,0.11464688181877136f,-0.7814137935638428f,0.042686913162469864f,0.023821242153644562f,0.13198010623455048f,-0.11043135076761246f,-0.0685916393995285f,0.17579960823059082f,0.04812787100672722f,0.36489632725715637f,0.1095629632472992f,-0.5510424375534058f},
{-0.051016245037317276f,0.09497200697660446f,0.009006592445075512f,-0.02709147334098816f,0.061821348965168f,0.016160214319825172f,-0.14196737110614777f,-0.8166189193725586f,-0.037041231989860535f,0.18206052482128143f,0.6010277271270752f,-0.2554575502872467f,0.0789794921875f,-0.004543727729469538f,0.09882368892431259f,-0.02945316955447197f,-0.016510259360074997f,0.21082472801208496f,0.1542961150407791f,-0.04766113683581352f,-0.40693020820617676f,-0.2331521362066269f,0.018692849203944206f,-0.21836115419864655f,-0.7249870896339417f,0.1914302259683609f,-0.018031761050224304f,-0.03682517632842064f,-0.004821480251848698f,-0.059046078473329544f,-0.1026628166437149f,-0.06179770827293396f,-0.02774064615368843f,0.06370266526937485f,-0.06529735773801804f,0.08294179290533066f,-0.42257559299468994f,0.08870335668325424f,0.12320131063461304f,-0.0076604741625487804f,-0.24436603486537933f,0.05011424049735069f,-0.0937943309545517f,0.012585018761456013f,-0.39719903469085693f,0.0011204661568626761f,0.47098997235298157f,-0.030917026102542877f,0.27079176902770996f,0.0055712307803332806f,-0.33834341168403625f,-0.0031548943370580673f,-0.020540764555335045f,-0.02880585752427578f,0.03327962011098862f,-0.6303954720497131f,0.16743741929531097f,-0.004586688708513975f,-0.25098446011543274f,-0.4561522901058197f,0.07595115900039673f,-0.1445252001285553f,-0.047484274953603745f,0.2658085525035858f,-0.6043490767478943f,-0.010292702354490757f,-1.237542986869812f,0.08054555207490921f,0.16256630420684814f,-0.15260832011699677f,0.027323154732584953f,0.0475190244615078f,0.061418566852808f,-1.1724708080291748f,0.023141559213399887f,-1.3060868978500366f,0.05323481932282448f,-0.15310262143611908f,0.09038793295621872f,0.10567224025726318f,0.1270110160112381f,0.3659338653087616f,0.4680664539337158f,-0.21833212673664093f,-0.05015440657734871f,0.028494613245129585f,0.04470621421933174f,-0.05155109614133835f,-0.05287890508770943f,-0.09246081113815308f,-0.21324025094509125f,0.1207284927368164f,-1.7089210748672485f,-0.35477420687675476f,-0.5892502665519714f,0.12753549218177795f,0.4284752905368805f,0.15645891427993774f,0.08554890751838684f,0.11155538260936737f,-0.2659095525741577f,-1.5157687664031982f,-1.6597769260406494f,0.055279217660427094f,-0.05651116743683815f,-0.19959582388401031f,0.07678645849227905f,0.02933385595679283f,0.05432344600558281f,-0.03503305837512016f,0.11716219782829285f,-0.07301750779151917f,0.14334231615066528f,0.2729094624519348f,0.0808999165892601f,0.11770713329315186f,-0.11916529387235641f,0.09938182681798935f,0.04939218983054161f,-0.1981310099363327f,-0.2756754755973816f,0.05469846352934837f,-0.3243753910064697f,-0.23842675983905792f,-0.08125189691781998f,0.007649484556168318f,-0.07068179547786713f,0.04411047324538231f,0.012924867682158947f,-0.18881747126579285f,-0.03683580458164215f,-1.3310412168502808f,0.06904636323451996f,0.12221619486808777f,0.020298976451158524f,-0.2864724397659302f,-0.0789986178278923f,-1.4102693796157837f,-0.007579516153782606f,-0.2563323676586151f,0.05221274495124817f,-0.08716294169425964f,0.05008111521601677f,0.09845137596130371f,-0.21934249997138977f,-0.05893932655453682f,-0.0002904653665609658f,0.047070976346731186f,-0.02372376061975956f,-0.693635106086731f,-0.047872401773929596f,0.11414027214050293f,0.0316757932305336f,0.03285423666238785f,0.036537110805511475f,-0.5248121023178101f,-0.02256137691438198f,-0.7406371235847473f,-0.27891916036605835f,0.25631171464920044f,0.06592555344104767f,0.007569874636828899f,-0.7084882259368896f,0.8065369129180908f,0.09685275703668594f,0.039142221212387085f,0.01901966519653797f,0.016312232241034508f,0.12491057813167572f,0.024982929229736328f,0.005982872098684311f,0.11639727652072906f,-0.049617379903793335f,0.07561065256595612f,0.10722985863685608f,0.02681591734290123f,-0.025327235460281372f,-0.02232191152870655f,-0.5656090974807739f,-0.0298425555229187f,0.17641550302505493f,-0.178656667470932f,0.0645994171500206f,0.7013310790061951f,0.7013972997665405f,-1.3768409490585327f,-0.025584349408745766f,0.04065689444541931f,0.09477107971906662f,-0.4294661581516266f,-0.09520943462848663f,-0.08230584859848022f,0.014295001514256f,-0.2774277627468109f,0.41273030638694763f,-0.006369028706103563f,0.08101826906204224f,-0.10845520347356796f,-0.039122965186834335f,0.004912793170660734f,-0.3589659631252289f,-0.05496516078710556f,-0.07751934975385666f,-1.3317710161209106f,-0.07968275249004364f,0.10778409242630005f,0.00604496244341135f,-0.8669125437736511f,0.0799761414527893f,-0.7865810990333557f,-0.09338045865297318f,0.06387864053249359f,-0.08429019898176193f,-0.012747177854180336f,-0.0835798978805542f,0.053977467119693756f,0.016406727954745293f,-0.07600069046020508f,-0.3917754888534546f,-0.7092767953872681f,0.15956395864486694f,-0.0518675372004509f,-0.036565493792295456f,-0.00797192007303238f,0.15231065452098846f,-0.011821518652141094f,0.43668273091316223f,-0.05070295184850693f,0.04866453632712364f,0.03166589513421059f,-0.5798015594482422f,0.09776078164577484f,-0.08845929056406021f,0.016063200309872627f,-0.02201066166162491f,0.23617863655090332f,0.13711194694042206f,0.07551868259906769f,-0.09375155717134476f,0.2934003174304962f,0.01504400186240673f,-0.04270683601498604f,-0.5230057239532471f,0.0006067740032449365f,0.04120273143053055f,0.09997671842575073f,0.1523955762386322f,-0.7397758364677429f,0.13325679302215576f,-0.050215255469083786f,-0.7882830500602722f,0.18912459909915924f,1.8969359397888184f,-0.4306972622871399f,-0.5361415147781372f,0.02257470414042473f},
{0.1381554752588272f,0.10385201871395111f,-0.2566017210483551f,-0.16578976809978485f,-0.1927063912153244f,0.24198642373085022f,-0.08119162172079086f,0.09935007244348526f,-0.8820039629936218f,-0.705302357673645f,-0.546191394329071f,0.10155687481164932f,0.15399616956710815f,-0.006228541024029255f,0.15818727016448975f,0.13121801614761353f,0.049432121217250824f,0.055491019040346146f,-0.06188821792602539f,0.11426366865634918f,-0.025070758536458015f,0.16771815717220306f,-0.10234684497117996f,0.08020413666963577f,0.0558357909321785f,-0.8729662895202637f,0.011399034410715103f,-0.012291754595935345f,-0.056784190237522125f,0.37915825843811035f,-0.1830996870994568f,-0.02869952656328678f,-0.011521955020725727f,0.06473495811223984f,-0.014057979919016361f,-0.6941341757774353f,-0.34627383947372437f,0.15470479428768158f,0.0967942327260971f,-0.03554948419332504f,-0.20859386026859283f,0.10222756862640381f,-0.8546065092086792f,0.024338794872164726f,0.07315795868635178f,0.6372214555740356f,0.27023792266845703f,-0.1885390430688858f,-0.22782371938228607f,-1.0202175378799438f,-0.06160319596529007f,0.09784262627363205f,0.05897348001599312f,0.08307800441980362f,0.14760713279247284f,0.734807014465332f,0.30161550641059875f,0.2713283598423004f,0.009824001230299473f,0.1418725997209549f,0.24429845809936523f,-0.8316551446914673f,-0.0712081640958786f,0.04003918543457985f,-0.581527590751648f,-0.11236339807510376f,0.48979851603507996f,-0.1359546035528183f,0.12368867546319962f,0.021372031420469284f,-0.020650655031204224f,-0.09685514122247696f,-0.05272478982806206f,0.07572005689144135f,-0.049484290182590485f,0.34785979986190796f,0.13830327987670898f,0.1416270136833191f,0.11059106141328812f,0.09252894669771194f,0.10327153652906418f,0.09940260648727417f,0.5766991972923279f,0.022458357736468315f,0.03574102371931076f,0.1626652479171753f,0.006755208130925894f,-0.15950950980186462f,0.03321535140275955f,-0.14494985342025757f,-0.23201428353786469f,0.00589029211550951f,0.07287760823965073f,-0.23615390062332153f,-0.4401530921459198f,0.016101928427815437f,0.4050404727458954f,0.07179509848356247f,-0.027424976229667664f,-1.06944739818573f,-0.33163392543792725f,0.2545476257801056f,-0.08821795135736465f,0.0507291704416275f,0.07710808515548706f,0.10026679188013077f,-0.016856396570801735f,0.07408364862203598f,0.147178515791893f,0.025111408904194832f,0.10183505713939667f,0.012120652943849564f,-0.06271611899137497f,-0.2167682647705078f,0.13252918422222137f,1.821242332458496f,-0.1378331184387207f,0.03857221454381943f,-0.06052325665950775f,0.013339473865926266f,-0.008681303821504116f,0.05499013140797615f,0.2989829480648041f,-0.48737889528274536f,0.25711414217948914f,0.08000598102807999f,0.003557446412742138f,0.12605240941047668f,0.08115176856517792f,1.033531904220581f,-0.03914611041545868f,0.08546267449855804f,0.049888987094163895f,-0.3025447428226471f,0.09489621967077255f,-0.17385993897914886f,-0.033219918608665466f,-0.1343255490064621f,-0.10197775065898895f,0.07678978890180588f,0.008789983578026295f,0.012321027927100658f,0.09814278036355972f,-0.0442754365503788f,0.26873379945755005f,0.008017141371965408f,-0.09252458810806274f,0.10651981830596924f,0.07735863327980042f,0.190071702003479f,0.003151225857436657f,-0.007933607324957848f,0.05414724722504616f,0.0713893324136734f,0.1422165036201477f,0.21725335717201233f,-0.03459460288286209f,0.13847768306732178f,-0.025332171469926834f,-0.15780283510684967f,0.010696619749069214f,-0.1293618232011795f,-0.30156999826431274f,-0.09750070422887802f,-0.0015600157203152776f,-1.3327306509017944f,-0.06550166755914688f,-0.006671044044196606f,-0.26493507623672485f,0.13029636442661285f,-1.0700945854187012f,0.15443798899650574f,0.08780457079410553f,0.15987201035022736f,0.07007860392332077f,0.04335600137710571f,-0.07939084619283676f,-0.002446970669552684f,-0.3129056692123413f,0.14042459428310394f,-0.33026188611984253f,-0.013579216785728931f,0.10301413387060165f,0.22704432904720306f,0.8304829597473145f,0.11539626121520996f,0.027292348444461823f,0.10158905386924744f,0.08120996505022049f,-0.28620004653930664f,-1.1572849750518799f,-1.1130967140197754f,0.025322232395410538f,-0.05902078002691269f,-0.23987646400928497f,0.0702681764960289f,0.11314498633146286f,0.0642617791891098f,-0.04436860233545303f,0.02029195986688137f,0.15407036244869232f,-0.11163728684186935f,0.0584557019174099f,-1.5239393711090088f,0.10390271246433258f,0.026844928041100502f,0.13342858850955963f,-0.057165272533893585f,-0.03167818859219551f,0.1295381635427475f,0.031903818249702454f,-0.14524437487125397f,0.12307490408420563f,0.09683139622211456f,0.000518379732966423f,-0.2703820765018463f,-0.0006738175870850682f,0.0796143189072609f,-0.23516732454299927f,0.09185399115085602f,-1.2775278091430664f,0.0374593622982502f,0.05842750519514084f,-1.2045700550079346f,-0.0348065122961998f,-0.31032925844192505f,0.4536570608615875f,-0.8150790929794312f,0.030469685792922974f,0.040279097855091095f,-0.47503572702407837f,-0.9095709919929504f,0.011031948029994965f,0.0326840914785862f,0.0483524464070797f,0.31195324659347534f,0.10103046149015427f,0.08953766524791718f,0.06660695374011993f,0.41593438386917114f,-0.3492564857006073f,-0.10278622061014175f,-0.5125163197517395f,0.1679707020521164f,-0.12971565127372742f,0.019193368032574654f,0.08071503788232803f,-0.14121311902999878f,0.07329925894737244f,-0.20141740143299103f,0.0932885929942131f,0.4479331970214844f,-0.1026865616440773f,-0.1321583390235901f,0.48952487111091614f,-0.016452215611934662f},
{-1.5304155349731445f,0.08169730752706528f,-0.027955612167716026f,-0.13018126785755157f,0.1016162782907486f,-1.5407103300094604f,0.08459679782390594f,-0.025317681953310966f,0.0801917016506195f,-0.5999590158462524f,-0.6686473488807678f,0.04331013932824135f,-0.16002967953681946f,-1.3782850503921509f,-1.2828863859176636f,-0.16357994079589844f,-0.08048579096794128f,0.048718832433223724f,-0.7197171449661255f,0.0162335317581892f,-0.055315159261226654f,-0.24859736859798431f,0.047323837876319885f,-0.11505294591188431f,-0.053753361105918884f,0.19912612438201904f,0.31320464611053467f,-0.01658596657216549f,0.057634301483631134f,0.06305736303329468f,-0.1658097356557846f,0.13593842089176178f,0.07107773423194885f,-0.9901254773139954f,-0.044535040855407715f,-0.0824391171336174f,0.4389084279537201f,0.14056283235549927f,0.09881947189569473f,0.19919224083423615f,-0.7793411016464233f,0.06409328430891037f,-0.05196916684508324f,-0.017242824658751488f,-0.15852826833724976f,0.1655971109867096f,-0.03334863483905792f,0.030784334987401962f,-0.1922280639410019f,-0.09067652374505997f,0.010126865468919277f,0.04186902940273285f,-0.00021700510114897043f,-1.3641570806503296f,0.12656307220458984f,-0.6954240798950195f,0.29783716797828674f,0.33042779564857483f,0.06941539794206619f,0.17116442322731018f,0.2272917628288269f,-0.20493184030056f,-0.013670126907527447f,0.31968533992767334f,0.7563685774803162f,-0.054265573620796204f,0.4189514219760895f,-0.024500519037246704f,0.08862802386283875f,0.017905758693814278f,-0.08088603615760803f,0.09987229853868484f,-0.9174461364746094f,-0.057587478309869766f,-0.010869813151657581f,0.2732315957546234f,-0.8592544198036194f,-0.009811889380216599f,0.019033990800380707f,0.11622794717550278f,-0.02751489356160164f,0.06990186125040054f,0.30779507756233215f,0.07888949662446976f,-1.3613454103469849f,0.01530068926513195f,0.0575600229203701f,-0.394314169883728f,-0.030655011534690857f,-0.06171538680791855f,0.0652146264910698f,0.03951564431190491f,0.021654970943927765f,0.4531724452972412f,-0.6470785737037659f,0.04468707740306854f,-1.5622920989990234f,0.11481350660324097f,-0.09756766259670258f,0.17265349626541138f,-0.48617085814476013f,0.13416659832000732f,-0.02718271128833294f,-0.004981814883649349f,0.05234916880726814f,-0.5059159398078918f,-0.0014284172793850303f,0.034268490970134735f,0.09801821410655975f,-0.06522167474031448f,-0.2287556678056717f,-0.20343326032161713f,0.027557678520679474f,-0.4376141428947449f,-0.8677276968955994f,0.42620038986206055f,1.1663609743118286f,0.042045529931783676f,0.1784600466489792f,0.4631243646144867f,-0.01606871746480465f,-0.09505957365036011f,0.16597463190555573f,1.061798334121704f,0.155320405960083f,-0.10225339978933334f,-0.15341706573963165f,0.05528254806995392f,0.03710675984621048f,-0.5554259419441223f,0.002134869573637843f,0.007326073944568634f,0.15812131762504578f,0.0889752060174942f,-0.0468156524002552f,-0.041109610348939896f,-0.0020618457347154617f,0.040873490273952484f,0.05053054913878441f,0.12695668637752533f,-0.1986519694328308f,-0.14140869677066803f,-0.10730527341365814f,0.020971208810806274f,-0.21445591747760773f,0.03027930296957493f,0.026803312823176384f,-0.08357671648263931f,0.017723262310028076f,0.15131622552871704f,0.040553562343120575f,0.09242700785398483f,0.06988387554883957f,0.10834961384534836f,-0.2464292049407959f,0.16199879348278046f,0.013011500239372253f,0.1210923045873642f,0.04964649677276611f,-0.34525927901268005f,-0.23854508996009827f,-0.04219089820981026f,-0.5481791496276855f,-0.12575142085552216f,-0.02218801900744438f,0.06844007223844528f,-1.3504446744918823f,0.08994755148887634f,-0.3374845087528229f,0.0314839743077755f,-0.018317149952054024f,-0.8453793525695801f,0.019126662984490395f,-0.9523102045059204f,-0.04241292178630829f,0.17501169443130493f,-0.06543706357479095f,-1.606479287147522f,0.4918055534362793f,0.05034099519252777f,0.2026391625404358f,0.1906093806028366f,0.091713085770607f,0.03587358072400093f,0.6560130715370178f,0.16511595249176025f,0.03771251067519188f,0.03699039667844772f,0.10252629220485687f,0.35086965560913086f,-0.03522007539868355f,-0.02056177891790867f,0.08860210329294205f,-0.21976786851882935f,-0.4231862723827362f,-0.06015268713235855f,0.009225975722074509f,-0.32221317291259766f,0.04222138598561287f,0.005502963438630104f,0.31369417905807495f,-0.2407274693250656f,-0.6969074010848999f,-1.3701224327087402f,0.03222600370645523f,-0.0040138824842870235f,0.03575102612376213f,0.08686243742704391f,0.392204225063324f,0.16887572407722473f,-0.2971082925796509f,0.09647803753614426f,0.023058896884322166f,-0.1922426074743271f,0.08480729162693024f,0.21767014265060425f,0.009574138559401035f,-0.022663714364171028f,-0.06955155730247498f,0.0847243219614029f,0.15445859730243683f,-0.08528698980808258f,-0.025017201900482178f,-0.02798043005168438f,-0.16102781891822815f,-0.2362019121646881f,0.40285778045654297f,0.06400536000728607f,0.07224895060062408f,0.05296158045530319f,0.20203599333763123f,0.11974123120307922f,0.17094391584396362f,0.17675140500068665f,-0.010276476852595806f,0.21746854484081268f,0.06089216470718384f,-0.803830623626709f,0.050512347370386124f,0.03383722901344299f,0.055851783603429794f,0.02510945498943329f,-0.5780019760131836f,-0.5476838946342468f,0.14046292006969452f,-0.02262295037508011f,0.11389272660017014f,-0.14446355402469635f,0.11821151524782181f,-0.055037692189216614f,-0.047555312514305115f,0.19996018707752228f,-0.006520239170640707f,0.060351282358169556f,0.04965197294950485f,0.07525057345628738f},
{-0.04867010563611984f,0.07599829137325287f,0.007285695057362318f,0.014054560102522373f,-0.4376002252101898f,-0.05445525422692299f,-0.5651755332946777f,0.07751833647489548f,-0.019371403381228447f,-0.049353547394275665f,0.46654874086380005f,0.03634403273463249f,0.030663393437862396f,0.0490821935236454f,0.12562578916549683f,-0.04502319544553757f,-0.04887799918651581f,0.09137138724327087f,0.01944774016737938f,-0.015085507184267044f,-0.04113217070698738f,-0.07699676603078842f,-0.013941238634288311f,0.06177866831421852f,-0.07446170598268509f,-0.07652217149734497f,-0.01590411551296711f,0.01613345555961132f,0.04718749225139618f,0.13242606818675995f,0.0248051006346941f,-0.5653472542762756f,0.0654231384396553f,0.01863866299390793f,-0.005025206599384546f,-0.006426261737942696f,0.18683907389640808f,-0.013056608848273754f,0.3842630982398987f,0.006799535825848579f,0.005927603226155043f,0.08227548003196716f,-0.03979869186878204f,0.05770183727145195f,-0.02168399654328823f,0.003443202469497919f,-0.04757131636142731f,-0.022043144330382347f,-0.00025197037030011415f,-0.02415686473250389f,0.045243408530950546f,-0.01137798372656107f,-0.0005313130095601082f,0.05059182643890381f,0.021748831495642662f,-0.10720853507518768f,-0.05058857053518295f,0.01207257341593504f,1.232560634613037f,0.021556861698627472f,-0.02201979048550129f,0.05407513305544853f,0.05909891054034233f,0.10316088050603867f,-0.05281088873744011f,0.00546045508235693f,0.058544304221868515f,-0.00525649543851614f,-0.04219752550125122f,-0.012784293852746487f,0.04183444753289223f,-0.004433988127857447f,-0.0014517923118546605f,0.05012946575880051f,0.41783425211906433f,0.14645133912563324f,0.07149329781532288f,-0.001985182985663414f,0.009192300029098988f,0.1010565236210823f,0.29597529768943787f,0.11052881926298141f,0.08741791546344757f,0.08418065309524536f,-0.010302871465682983f,0.06168028712272644f,0.043604299426078796f,0.5707197189331055f,0.03547310084104538f,-0.04002547264099121f,-0.05683959648013115f,0.04553427919745445f,0.019843295216560364f,0.034374818205833435f,-0.07991144061088562f,-0.6217848658561707f,-0.23600809276103973f,-0.012551508843898773f,0.11118911951780319f,0.15518870949745178f,-0.019393425434827805f,0.14777711033821106f,0.05877511575818062f,-0.06467287242412567f,0.09747564047574997f,-0.03250075876712799f,0.005830909591168165f,-0.01698480173945427f,-0.7848577499389648f,0.17762649059295654f,0.048652298748493195f,0.020652983337640762f,0.07734856009483337f,-0.13707859814167023f,0.06790172308683395f,-0.008603145368397236f,-0.06318540126085281f,0.004180696792900562f,0.042652927339076996f,-0.11468197405338287f,0.05178602412343025f,-0.0080033577978611f,0.08568922430276871f,0.05103791132569313f,0.14131222665309906f,0.09673132002353668f,-0.08227173984050751f,0.2174595445394516f,0.004912421572953463f,-0.019450252875685692f,0.03917462378740311f,0.04104529693722725f,0.034092411398887634f,-0.023814668878912926f,0.19084398448467255f,-0.035666950047016144f,-0.04193570092320442f,0.04974764958024025f,0.03328291326761246f,0.0361577644944191f,-0.02501443773508072f,0.009045329876244068f,0.05394063889980316f,-0.02129419706761837f,-0.12946979701519012f,0.02267136052250862f,0.09924601763486862f,0.27515122294425964f,0.21370869874954224f,-0.0025818541180342436f,0.21376368403434753f,1.2640249729156494f,0.012666244991123676f,0.1319447010755539f,-0.012076864950358868f,0.027614327147603035f,0.04822219908237457f,0.04332974925637245f,-0.0012659246567636728f,-0.11973971128463745f,1.1340768337249756f,-0.06338118761777878f,0.2854379415512085f,-0.025212276726961136f,0.046055883169174194f,0.08042378723621368f,0.01533825695514679f,0.0354226790368557f,-0.023463796824216843f,0.022812170907855034f,-0.058729324489831924f,0.036519743502140045f,0.04783289507031441f,0.020918872207403183f,-0.5906327962875366f,0.02191895619034767f,0.043535470962524414f,-0.005071952939033508f,-0.0656152218580246f,-0.8672083616256714f,0.0015305811539292336f,-0.034800659865140915f,0.05179096385836601f,0.053970158100128174f,-0.10115543752908707f,-0.10321291536092758f,0.014418747276067734f,-0.06097216531634331f,-0.0076730335131287575f,0.31735315918922424f,-0.05137941986322403f,-0.03460226580500603f,0.035836122930049896f,-0.0886118933558464f,-0.10085605084896088f,0.014027249068021774f,0.027506807819008827f,0.0008292568963952363f,-0.01721915975213051f,-0.0012488628271967173f,0.003239189740270376f,-0.016003333032131195f,0.07297801226377487f,0.08309083431959152f,0.02900727093219757f,-0.01260661706328392f,-0.00971955619752407f,-0.02379404753446579f,-0.31949517130851746f,0.03949660807847977f,0.05681491270661354f,-0.060571663081645966f,0.030522558838129044f,0.07507238537073135f,-0.08483859896659851f,-0.09961385279893875f,0.03435581922531128f,-0.529478132724762f,-0.0725601390004158f,0.005675724241882563f,-0.04478948190808296f,0.030584009364247322f,0.052121419459581375f,0.021656811237335205f,0.06667297333478928f,-0.0007442098576575518f,-0.03776685893535614f,0.0030061400029808283f,-0.592704176902771f,0.033480241894721985f,0.3079536259174347f,-0.04517906531691551f,-0.40193167328834534f,-0.032074831426143646f,-0.0232602059841156f,0.11923624575138092f,0.23661687970161438f,-0.0030174015555530787f,0.01687675714492798f,-0.03611424192786217f,0.15840820968151093f,0.1402691751718521f,0.33433106541633606f,0.3420213758945465f,0.030380502343177795f,-0.0037738215178251266f,0.025446342304348946f,-0.02477487176656723f,0.034471604973077774f,0.5572782754898071f,0.0197596438229084f,0.07306435704231262f,0.052815914154052734f,0.03393564373254776f,-0.04263775423169136f,0.025023434311151505f},
{-0.022206297144293785f,0.028147729113698006f,-0.051709871739149094f,0.044934362173080444f,0.7180989384651184f,-0.05319817364215851f,-0.27694207429885864f,0.07460439950227737f,0.07009757310152054f,-0.004758058115839958f,0.18187974393367767f,-0.1247493103146553f,0.009688510559499264f,-0.0016253762878477573f,0.022352445870637894f,-0.007438188418745995f,-0.013186969794332981f,0.051545560359954834f,0.05850445479154587f,-0.0010559582151472569f,-0.008160476572811604f,-0.02930334582924843f,-0.017752980813384056f,-0.04572168365120888f,-0.08311611413955688f,-0.06351440399885178f,-0.04335344582796097f,0.023835284635424614f,-0.05427175387740135f,0.06452251970767975f,0.058552224189043045f,-0.38213953375816345f,0.02018205262720585f,0.008210506290197372f,0.03005741909146309f,-0.049684856086969376f,0.12202063202857971f,-0.14467759430408478f,-0.06216306611895561f,0.016998177394270897f,-0.024556612595915794f,0.06279951333999634f,0.03884079307317734f,0.01841760240495205f,0.029505684971809387f,-0.026380790397524834f,-0.0033000195398926735f,-0.02983005903661251f,-0.05320437625050545f,-0.014970110729336739f,0.09034719318151474f,-0.056426744908094406f,-0.012213720008730888f,0.03461423143744469f,0.08165881037712097f,-0.07729166001081467f,0.01395003404468298f,-0.050272706896066666f,-0.16361378133296967f,0.0668850839138031f,-0.034455809742212296f,0.05173730105161667f,-0.0048202089965343475f,-0.0575006827712059f,-0.08745822310447693f,-0.038759760558605194f,0.12441059201955795f,-0.004926835186779499f,0.08646002411842346f,-0.010249932296574116f,-0.011531628668308258f,0.07496368139982224f,-0.009313664399087429f,-0.0015172515995800495f,0.2955471873283386f,0.03892311826348305f,-0.007966450415551662f,0.01597467251121998f,-0.0542123056948185f,0.03339235484600067f,0.17338097095489502f,-0.025407658889889717f,0.02954026870429516f,-0.06003080680966377f,-0.03402946889400482f,-0.0880160927772522f,0.00040842004818841815f,0.3732454478740692f,0.04882584139704704f,0.026407768949866295f,-0.004341806750744581f,-0.009021048434078693f,0.028229352086782455f,0.059659626334905624f,-0.06710433959960938f,-0.24165020883083344f,-0.1931854635477066f,0.020369291305541992f,0.04709480702877045f,0.03925930708646774f,-0.027225293219089508f,0.13805726170539856f,-0.0021462147124111652f,-0.046386752277612686f,0.046411365270614624f,-0.020230045542120934f,0.007217524107545614f,-0.0582706555724144f,-1.4409312009811401f,0.2239399403333664f,-0.005632465239614248f,0.02236388996243477f,0.13478541374206543f,-0.1121007576584816f,0.019467925652861595f,0.020590219646692276f,-0.033722251653671265f,-0.09919939935207367f,0.06591421365737915f,-0.0881853997707367f,0.01083233579993248f,0.04022025689482689f,0.043252333998680115f,0.06634340435266495f,0.06686784327030182f,0.07396253943443298f,-0.010733379051089287f,0.24863630533218384f,0.042890794575214386f,0.024244671687483788f,0.0004993893671780825f,0.035687290132045746f,0.018051650375127792f,-0.00946863368153572f,0.3355858325958252f,-0.015876131132245064f,0.010298704728484154f,-0.001361059839837253f,0.12117312103509903f,-0.008135799318552017f,-0.05942455679178238f,-0.020303772762417793f,0.026660269126296043f,-0.036358121782541275f,0.12218283861875534f,0.03610915318131447f,0.030740633606910706f,0.21101601421833038f,0.2737556993961334f,-0.020258557051420212f,-1.0193485021591187f,0.8389455080032349f,0.03330889716744423f,0.09228001534938812f,-0.1344144344329834f,-0.04784121364355087f,-0.00517676817253232f,0.040215205401182175f,-0.027709880843758583f,-0.05467978119850159f,-0.270903080701828f,-0.046242501586675644f,0.2057502120733261f,-0.02519448846578598f,0.015489687211811543f,0.08887704461812973f,0.008200041018426418f,0.02877706103026867f,0.012601902708411217f,0.03915324807167053f,-0.010383009910583496f,0.04054425656795502f,-0.053233273327350616f,-0.008949964307248592f,0.5520798563957214f,-0.007594316266477108f,-0.0499848797917366f,0.007380174472928047f,-0.08972327411174774f,0.271575391292572f,0.008720293641090393f,0.0029394503217190504f,-0.015620081685483456f,0.08696073293685913f,-0.0977436825633049f,-0.142146497964859f,-0.036716245114803314f,0.023661134764552116f,0.05507749319076538f,0.0956982895731926f,0.03815604746341705f,-0.06923513859510422f,0.06152687594294548f,-0.04107075184583664f,-0.1178940162062645f,0.046605803072452545f,0.01937008462846279f,0.005746990442276001f,-0.045153070241212845f,0.036657944321632385f,-0.04152185842394829f,0.052257586270570755f,0.006675827316939831f,0.11703187972307205f,0.06186198070645332f,0.006615466438233852f,-0.004640330094844103f,0.011165812611579895f,-0.04379720613360405f,0.011384478770196438f,0.020549725741147995f,0.10502742975950241f,0.010864252224564552f,0.05718769133090973f,-0.01654118113219738f,-0.04111254960298538f,0.05455469340085983f,0.34930819272994995f,-0.0836070105433464f,0.013941691257059574f,-0.037881363183259964f,0.013801579363644123f,0.028625035658478737f,0.034340959042310715f,0.036814022809267044f,-0.006634714547544718f,-0.09042859077453613f,-0.018782304599881172f,-0.25459936261177063f,0.014449271373450756f,0.15852388739585876f,-0.018674509599804878f,-0.13171958923339844f,-0.03489764779806137f,0.010521655902266502f,0.09645386785268784f,0.8835354447364807f,-0.03136315941810608f,-0.007363974116742611f,-0.06710207462310791f,-0.1330154836177826f,0.10820362716913223f,0.09522224962711334f,0.08621018379926682f,-0.022959193214774132f,-0.03201110661029816f,0.06601257622241974f,-0.031245745718479156f,0.017311958596110344f,-0.5872881412506104f,0.006582427769899368f,0.051865871995687485f,0.07537934929132462f,0.03132850304245949f,0.0006689460715278983f,0.008835841901600361f},
{-0.006349016912281513f,0.0576421394944191f,0.03373369947075844f,0.0416300967335701f,-0.22018012404441833f,-0.02638600580394268f,-0.24333103001117706f,0.07731851935386658f,-0.058995045721530914f,-0.01946159265935421f,0.2646995186805725f,0.008194424211978912f,-0.004686271771788597f,-0.03641732037067413f,0.028510991483926773f,0.018323197960853577f,-0.014369386248290539f,0.06975273787975311f,0.016238659620285034f,-0.04188079386949539f,-0.03608880192041397f,-0.0016352229285985231f,-0.02326774410903454f,0.004319116473197937f,-0.08371585607528687f,-0.02869318798184395f,-0.02194339781999588f,0.0083771338686347f,0.03613099455833435f,0.08423682302236557f,0.027184080332517624f,0.6659281849861145f,0.0260159969329834f,0.019342051818966866f,-0.013856856152415276f,0.004029330797493458f,0.15034082531929016f,-0.17969463765621185f,0.16821065545082092f,0.019014276564121246f,-0.026459146291017532f,0.05741669237613678f,0.06022585555911064f,0.05143796280026436f,0.029516087844967842f,0.0016432113479822874f,0.08152821660041809f,-0.04626037925481796f,-0.0524127371609211f,-0.01757296361029148f,-0.02329251728951931f,-0.03068707138299942f,-0.015311319380998611f,0.01979580894112587f,4.474701199796982e-05f,-0.0823364183306694f,0.011511706747114658f,-0.040501102805137634f,-0.2614463269710541f,0.052488040179014206f,0.14748381078243256f,0.09146374464035034f,0.06338213384151459f,-0.16360896825790405f,-0.04481041058897972f,-0.12011516839265823f,0.10293328762054443f,-0.02384396828711033f,-0.021304212510585785f,-0.035146962851285934f,0.01168670691549778f,0.09039029479026794f,-0.01622418686747551f,-0.010328170843422413f,0.3954199254512787f,0.044377271085977554f,0.012118635699152946f,0.05936010926961899f,-0.01203085482120514f,0.10993796586990356f,0.19203080236911774f,-0.04553591459989548f,0.06389907747507095f,0.041579775512218475f,-0.00882848259061575f,0.04459703713655472f,-0.1201561987400055f,0.5119084119796753f,0.017743980512022972f,-0.0027023646980524063f,-0.034561365842819214f,0.04384178668260574f,-0.014200422912836075f,-0.012551343999803066f,-0.1023097112774849f,0.8077750205993652f,-0.227092906832695f,-0.01121419109404087f,0.13116176426410675f,0.17212390899658203f,-0.0159752294421196f,0.11783560365438461f,-0.006604920141398907f,-0.09358536452054977f,0.052516475319862366f,-0.011276505887508392f,0.04595261812210083f,-0.002932759001851082f,-1.3609620332717896f,0.4150778651237488f,0.02051258459687233f,-0.0160758625715971f,0.08162584155797958f,-0.06034734100103378f,0.042924363166093826f,0.06996004283428192f,-0.020957142114639282f,-0.07069093734025955f,0.04886070266366005f,-0.10581792145967484f,-0.025325478985905647f,-0.012603024020791054f,0.1089586690068245f,0.09446542710065842f,0.10615485161542892f,-0.33364683389663696f,-0.032383378595113754f,0.4106168746948242f,0.007187779061496258f,-0.06896118819713593f,0.07214022427797318f,-0.020443791523575783f,0.02083202451467514f,-0.023271635174751282f,-1.1357742547988892f,0.025525668635964394f,-0.06044348329305649f,-0.011508273892104626f,0.10070111602544785f,-0.14880645275115967f,-0.14093445241451263f,0.03698403388261795f,-0.021570121869444847f,-0.003321888158097863f,-0.07069165259599686f,0.03643026575446129f,0.03525243699550629f,0.30131757259368896f,-0.8701720833778381f,-0.031734809279441833f,0.3850618302822113f,0.8095500469207764f,0.016499899327754974f,0.03882799670100212f,-0.04330401122570038f,0.11952099949121475f,-0.027503062039613724f,0.009414920583367348f,0.05638427659869194f,-0.13935068249702454f,-0.31414541602134705f,-0.04759752377867699f,0.2761472165584564f,-0.054451096802949905f,-0.11090312153100967f,0.174515500664711f,0.04860329627990723f,-0.14876413345336914f,-0.13685618340969086f,0.027597105130553246f,-0.05110865458846092f,0.04350852221250534f,0.055472612380981445f,-0.036792345345020294f,-0.3134588301181793f,-0.15230581164360046f,-0.007031745743006468f,0.00014878975343890488f,-0.12318120896816254f,0.3550170361995697f,0.016956036910414696f,-0.021279532462358475f,0.013068058528006077f,0.07735075801610947f,-0.09958049654960632f,-0.18265673518180847f,-0.02906060218811035f,-0.04146239534020424f,0.0660228505730629f,0.13650362193584442f,-0.005077495239675045f,-0.010586983524262905f,0.00425318069756031f,-0.10526784509420395f,-0.09333498030900955f,0.01826464757323265f,-0.04955247417092323f,0.08315169811248779f,-0.029035575687885284f,0.01600346341729164f,-0.027804182842373848f,0.05345870926976204f,-0.009441898204386234f,0.15390072762966156f,0.07647167891263962f,-0.021884867921471596f,-0.0049329958856105804f,0.016867591068148613f,-0.13946394622325897f,0.01898804120719433f,0.06048550456762314f,0.05395103991031647f,-0.020743392407894135f,0.04233720526099205f,-0.0681362897157669f,-0.11346101015806198f,0.02628273330628872f,0.4076729118824005f,-0.0595586895942688f,0.06659526377916336f,-0.016663962975144386f,0.006671867799013853f,0.03561657294631004f,-0.0032313845586031675f,0.04165256768465042f,-0.022207006812095642f,-0.0852918028831482f,-0.009230527095496655f,-0.28564319014549255f,0.014431552030146122f,0.16221974790096283f,-0.017620926722884178f,-0.16177085041999817f,-0.024157842621207237f,0.03632058575749397f,0.14667333662509918f,0.08947888016700745f,0.01839320920407772f,0.07635023444890976f,-0.045576684176921844f,-0.08141139894723892f,0.0963878184556961f,0.20054800808429718f,0.21917399764060974f,-0.15484772622585297f,-0.031301967799663544f,0.04103255271911621f,-0.0011375664034858346f,0.09026515483856201f,-0.13645455241203308f,0.006731349043548107f,0.007028438616544008f,0.033045265823602676f,-0.105832539498806f,0.03983760625123978f,-0.004110854119062424f},
{0.00029379763873293996f,0.0950365662574768f,-0.021510351449251175f,0.03219133988022804f,-0.31745272874832153f,-0.03186393156647682f,-0.2516356110572815f,0.03145502507686615f,-0.04423088952898979f,0.022433225065469742f,0.22263818979263306f,0.01851750910282135f,-0.016024576500058174f,0.008272839710116386f,0.02699301578104496f,0.0004305092734284699f,-0.01292110700160265f,-0.07330802828073502f,0.0043689352460205555f,-0.016410304233431816f,-0.03624499961733818f,-0.018623242154717445f,-0.019025227054953575f,0.002383585087954998f,-0.07861681282520294f,-0.06761961430311203f,-0.026939820498228073f,-0.0315813384950161f,-0.006613044533878565f,0.06945346295833588f,0.03804158419370651f,-0.27642178535461426f,-0.004971723537892103f,0.0431499220430851f,-0.016593215987086296f,-0.011523825116455555f,0.096714548766613f,-0.1908450424671173f,0.36290863156318665f,-0.022558161988854408f,-0.025168098509311676f,0.018958687782287598f,-0.040880341082811356f,0.015688931569457054f,-0.012811491265892982f,0.00032833623117767274f,0.0781225934624672f,-0.07813625037670135f,-0.057679589837789536f,0.020479366183280945f,-0.03176146745681763f,-0.11508504301309586f,-0.01181979849934578f,0.0047513460740447044f,0.20162677764892578f,-0.16940563917160034f,0.0033638495951890945f,-0.03271878510713577f,0.8091842532157898f,0.018789801746606827f,0.07114885002374649f,0.01072897668927908f,-0.001550032407976687f,-0.06704146414995193f,-0.01661911979317665f,-0.003267737338319421f,0.12190552055835724f,-0.009497596882283688f,-0.014249201864004135f,-0.01229546032845974f,0.016471177339553833f,0.08110842108726501f,-0.017589563503861427f,0.022603023797273636f,0.3647772967815399f,0.06866854429244995f,-0.016499577090144157f,-0.06158450245857239f,-0.05294353887438774f,-0.003398988163098693f,0.14757497608661652f,0.019381070509552956f,0.03974771872162819f,-0.03029731474816799f,-0.0018620614428073168f,0.03490976616740227f,0.022640923038125038f,0.37899860739707947f,0.01643078215420246f,0.015752213075757027f,0.0453641414642334f,-0.04629026725888252f,-0.00967731699347496f,0.04554997757077217f,-0.09626802057027817f,-0.15846094489097595f,-0.2118125557899475f,0.01886828988790512f,0.03821543976664543f,0.06440263986587524f,0.11233396083116531f,0.16152971982955933f,0.025564493611454964f,-0.059786681085824966f,-0.07684984058141708f,0.005322576500475407f,-0.06741849333047867f,-0.052484180778265f,0.23357239365577698f,0.24127508699893951f,0.0033204962965101004f,0.027093706652522087f,-0.005128039047122002f,-0.0952121764421463f,0.007996298372745514f,0.028256142511963844f,0.00580207072198391f,0.009691883809864521f,0.0801839828491211f,-0.12936773896217346f,0.006822032853960991f,0.0168603602796793f,0.0253466609865427f,0.018542952835559845f,0.13399405777454376f,-0.1792231947183609f,-0.002757654758170247f,-1.1070982217788696f,0.016934728249907494f,-0.10816079378128052f,0.028264373540878296f,0.01512247696518898f,0.033394865691661835f,-0.012075405567884445f,0.2589399516582489f,0.04884703457355499f,0.017021924257278442f,0.006643751170486212f,-0.03836505860090256f,-0.01577276550233364f,-0.01667039468884468f,-0.09175103157758713f,0.05318031460046768f,-0.06013502553105354f,-0.008336788043379784f,0.008397252298891544f,0.067051462829113f,0.2192070335149765f,0.2497784048318863f,-0.027410997077822685f,0.25120624899864197f,-0.20201481878757477f,-0.022423142567276955f,0.09011037647724152f,-0.004072216339409351f,0.06069904565811157f,-0.08067864924669266f,0.025749174878001213f,-0.014652149751782417f,-0.04917319118976593f,-0.27833202481269836f,0.002669485518708825f,0.1432088315486908f,-0.04519149288535118f,0.009658897295594215f,0.01401783712208271f,0.03752003237605095f,0.02750398963689804f,-0.01863042265176773f,0.011127376928925514f,-0.027051249518990517f,0.004866972099989653f,-0.0024847714230418205f,-0.005413917358964682f,-0.1464594304561615f,0.007601308170706034f,0.028317810967564583f,0.02681618556380272f,-0.07228579372167587f,-1.4471322298049927f,0.03076481819152832f,-0.027769660577178f,0.033083342015743256f,0.018238186836242676f,-0.11857083439826965f,-0.1843738704919815f,-0.04101712256669998f,-0.007853996008634567f,-0.006426092237234116f,0.09824389219284058f,0.012413958087563515f,-0.044775739312171936f,-0.008547309786081314f,-0.08928090333938599f,-0.16106581687927246f,-0.02392522804439068f,-0.0023550859186798334f,0.04712885618209839f,-0.04692403972148895f,0.009344584308564663f,0.05728277191519737f,0.1227392926812172f,0.012020200490951538f,0.0989067554473877f,0.010625368915498257f,-0.01412125863134861f,-0.058662716299295425f,-0.052783139050006866f,-0.08639609068632126f,-0.011629403568804264f,0.055535294115543365f,0.0633232519030571f,0.011733847670257092f,0.012997113168239594f,-0.023453999310731888f,-0.08049429208040237f,-0.0010920638451352715f,0.4120800793170929f,-0.02526339888572693f,-0.018385108560323715f,-8.175488619599491e-05f,0.04134561866521835f,0.02951618656516075f,0.006687380373477936f,-0.0758533775806427f,-0.06520777195692062f,-0.054280929267406464f,-0.0033135623671114445f,0.9092283248901367f,0.005495816003531218f,0.1638464480638504f,-0.022567467764019966f,-0.14691311120986938f,-0.02514543943107128f,0.040780313313007355f,0.08403769135475159f,-0.014281487092375755f,-0.0242832750082016f,-0.034123584628105164f,-0.03649529069662094f,0.15279462933540344f,-0.08964018523693085f,0.11166087538003922f,0.13885563611984253f,-0.0019456904847174883f,-0.04975738376379013f,0.07394583523273468f,-0.0313638411462307f,0.015078632161021233f,-1.0153909921646118f,-0.028584472835063934f,-0.006854375824332237f,0.03396277874708176f,-0.13365033268928528f,0.018504835665225983f,-0.025127043947577477f},
{0.023858796805143356f,0.009308341890573502f,-0.0006795284571126103f,0.0246612336486578f,0.940330445766449f,-0.02664807438850403f,-0.7765779495239258f,0.09750157594680786f,-0.04230334982275963f,-0.060516346246004105f,0.22196397185325623f,0.031484004110097885f,0.02295459620654583f,0.018567418679594994f,0.08639493584632874f,0.07409359514713287f,-0.0013411825057119131f,0.06639934331178665f,0.013731048442423344f,-0.008245687000453472f,-0.06299333274364471f,-0.08209966868162155f,-0.006243029609322548f,0.029536932706832886f,0.05735926330089569f,-0.05015520006418228f,-0.05745846405625343f,0.027524679899215698f,0.06681782752275467f,0.0841885358095169f,0.0366143099963665f,0.8567445278167725f,-0.01361914537847042f,0.01761871948838234f,0.027693074196577072f,-0.021381396800279617f,0.03728807345032692f,-0.3006207346916199f,0.037987083196640015f,0.020409319549798965f,0.04029551520943642f,0.03565063327550888f,0.024822929874062538f,0.047149162739515305f,0.026471806690096855f,-0.0014864574186503887f,0.024362951517105103f,-0.20006762444972992f,-0.14321264624595642f,0.01570230722427368f,0.05687683820724487f,-0.009992457926273346f,-0.016229942440986633f,0.04106617718935013f,-0.0006964300409890711f,-0.22513960301876068f,0.09684394299983978f,-0.03992769122123718f,-0.6273744702339172f,0.014359811320900917f,0.1156386286020279f,-0.10194969177246094f,0.02965892106294632f,0.01252732053399086f,-0.14440390467643738f,-0.010464169085025787f,0.07935181260108948f,-0.05848761275410652f,0.003947337158024311f,-0.0401056706905365f,0.0034291078336536884f,0.012043650262057781f,0.012346623465418816f,-0.011852807365357876f,0.42616012692451477f,0.08449950814247131f,0.05539717525243759f,0.042154956609010696f,-0.07690060138702393f,-0.024332180619239807f,0.35885196924209595f,0.039466384798288345f,0.0851246565580368f,-0.04672955349087715f,0.007145147304981947f,0.04266240447759628f,0.031887561082839966f,0.594336748123169f,0.027738485485315323f,0.007165244780480862f,-0.06118891388177872f,0.021753154695034027f,-0.006913870573043823f,0.002961214166134596f,-0.17817749083042145f,-0.724154531955719f,-0.4390714168548584f,-0.013270633295178413f,0.08802676200866699f,0.09447475522756577f,0.03812069818377495f,0.06079830974340439f,0.030441133305430412f,-0.050246912986040115f,0.046230580657720566f,0.003944204188883305f,0.04834188148379326f,0.030898723751306534f,0.41336822509765625f,0.46793273091316223f,-0.09199110418558121f,-0.026563983410596848f,0.08441764861345291f,-0.22296763956546783f,0.11117041110992432f,0.0815880298614502f,-0.10492786020040512f,0.027851583436131477f,-0.08187000453472137f,-0.1540873646736145f,-0.015988804399967194f,0.05746307969093323f,0.045237042009830475f,0.09539671242237091f,0.06654482334852219f,0.04344341903924942f,-0.08324763923883438f,-1.0141091346740723f,0.005774640012532473f,-0.06446649879217148f,0.09078977257013321f,0.010342558845877647f,0.015822259709239006f,0.03133680298924446f,0.4539870321750641f,-0.010945162735879421f,-0.06896854192018509f,-0.02784542180597782f,-0.08020627498626709f,0.07021572440862656f,-0.010545298457145691f,-0.036988306790590286f,0.06521541625261307f,-0.08774372190237045f,-0.016149187460541725f,0.05466574802994728f,0.026332499459385872f,0.2797413170337677f,-0.8081722855567932f,0.020655134692788124f,-1.0940577983856201f,-0.5961210131645203f,0.003542667720466852f,0.07726883143186569f,-0.022848952561616898f,0.025097034871578217f,-0.004807724617421627f,0.029154781252145767f,-0.03599873185157776f,-0.12241953611373901f,0.8648208975791931f,-0.037980299443006516f,0.22823509573936462f,-0.004890407435595989f,0.06268803030252457f,-0.04232937470078468f,0.039225488901138306f,0.011655298992991447f,-0.019162166863679886f,-0.0023263096809387207f,-0.08624802529811859f,0.05683270841836929f,0.031938981264829636f,-0.01599527709186077f,0.3253564238548279f,0.06074661388993263f,0.009813723154366016f,-0.0015313810436055064f,-0.1295299232006073f,0.4098914563655853f,0.05139101296663284f,0.00703809829428792f,-0.15791630744934082f,0.07889441400766373f,-0.2062867432832718f,-0.336112916469574f,-0.12371379137039185f,-0.00516516761854291f,0.008057287894189358f,0.29259613156318665f,0.04562174156308174f,-0.01136887725442648f,-0.13143494725227356f,-0.08792160451412201f,-0.1790066510438919f,-0.007401411421597004f,-0.009282877668738365f,-0.03459563106298447f,-0.016166672110557556f,0.0407530814409256f,-0.04026918113231659f,-0.04815426096320152f,0.06591200828552246f,0.1003073900938034f,0.05891445651650429f,0.009330617263913155f,-0.008617387153208256f,0.02511252462863922f,-0.2891627848148346f,0.002872009761631489f,-0.015639284625649452f,-0.0480424202978611f,-0.006842167116701603f,0.08007441461086273f,-0.08039084821939468f,-0.09300670027732849f,-0.023280175402760506f,-1.1237605810165405f,-0.08077645301818848f,0.055554378777742386f,-0.007996746338903904f,0.05817778781056404f,0.03282435983419418f,0.015401370823383331f,0.023570876568555832f,-0.1146884337067604f,-0.09217427670955658f,0.00019148724095430225f,0.9517040252685547f,-0.0074350289069116116f,0.28757500648498535f,-0.03167217969894409f,-0.2053973227739334f,-0.014567872509360313f,-0.0031762218568474054f,0.191909059882164f,-0.018885664641857147f,0.01580887846648693f,-0.043601784855127335f,-0.0680747702717781f,-0.10846510529518127f,-0.010712742805480957f,0.17448091506958008f,0.22993437945842743f,0.04985302314162254f,-0.026973746716976166f,-0.051236342638731f,0.02524845115840435f,0.024370355531573296f,-0.06366120278835297f,0.04019058123230934f,0.07241436094045639f,0.09156432002782822f,-0.08476873487234116f,0.03901345282793045f,-0.0051696933805942535f},
{0.004402888007462025f,0.11264127492904663f,0.02327938750386238f,0.05105448514223099f,-0.31645503640174866f,-0.05622643604874611f,-0.2732609808444977f,0.023372331634163857f,-0.03531622886657715f,-0.011193329468369484f,0.17121975123882294f,0.04558530077338219f,0.0021841470152139664f,-0.021174317225813866f,0.008718406781554222f,0.04460877180099487f,0.019319267943501472f,0.03717821091413498f,0.03604229912161827f,0.023240478709340096f,-0.011189458891749382f,-0.007594510447233915f,0.01574539951980114f,0.04996834695339203f,-0.042122870683670044f,-0.056258898228406906f,-0.00855312030762434f,0.04793630540370941f,0.027819214388728142f,0.12347321957349777f,0.0006978652090765536f,-0.26568174362182617f,0.017352458089590073f,0.01783791370689869f,0.0007366591598838568f,-0.04327913001179695f,0.1112837865948677f,-0.09265261143445969f,0.048997487872838974f,-0.07569096982479095f,-0.001210892223753035f,0.044260233640670776f,0.027228008955717087f,0.020883532240986824f,0.02321278117597103f,-0.0172061026096344f,0.0352790430188179f,-0.06935109198093414f,0.014513127505779266f,-0.02170177362859249f,0.07337860018014908f,0.017599832266569138f,0.04338531196117401f,0.03454290330410004f,0.029454533010721207f,-0.10579291731119156f,0.0270038153976202f,-0.15067528188228607f,-0.12417224049568176f,-0.00619911402463913f,-0.3027649223804474f,0.02555445022881031f,0.033112749457359314f,-0.013046828098595142f,-0.09064342826604843f,-0.03469660133123398f,0.10216521471738815f,-0.0041319262236356735f,0.022180339321494102f,-0.10449554771184921f,-0.004199780989438295f,0.05491282790899277f,-0.005911198910325766f,-0.009550514630973339f,0.3883680999279022f,0.05066021904349327f,-0.013207551091909409f,-0.018293913453817368f,0.02106396295130253f,-0.019930848851799965f,0.16218885779380798f,0.07922784239053726f,0.0141600938513875f,0.022070452570915222f,0.0211791954934597f,0.01869613490998745f,0.0028687992598861456f,0.33891403675079346f,0.013248596340417862f,0.05630704015493393f,-0.00834962073713541f,-0.007664276286959648f,0.0002881927357520908f,0.04436865076422691f,-0.04285878688097f,0.8188644647598267f,-0.2582486569881439f,0.05814102664589882f,0.04135025292634964f,0.08481577783823013f,0.08877207338809967f,0.09545912593603134f,0.028904547914862633f,-0.059622880071401596f,0.012576046399772167f,-0.002716679824516177f,-0.020885631442070007f,-0.005675423890352249f,0.2369643896818161f,0.23137223720550537f,-0.007663212716579437f,0.006220555864274502f,0.11898717284202576f,-0.07705722004175186f,0.06208739057183266f,0.059510622173547745f,-0.008520924486219883f,-0.038631290197372437f,0.07713224738836288f,-0.12324822694063187f,-0.020860770717263222f,0.05795859917998314f,-0.00833866186439991f,0.0075738453306257725f,0.04720066115260124f,0.00036911555798724294f,0.00010064668458653614f,-1.119500994682312f,0.003679888090118766f,-0.01735888607800007f,0.06863454729318619f,0.0031553267035633326f,0.01741485297679901f,-0.0046878415159881115f,-1.1682935953140259f,0.034252144396305084f,0.0017912916373461485f,0.008453592658042908f,0.04284433647990227f,0.00963088683784008f,0.0016658923123031855f,-0.03172570466995239f,0.038471922278404236f,-0.053980425000190735f,0.014419584535062313f,0.013653619214892387f,0.06841517984867096f,0.10721534490585327f,0.30555012822151184f,0.0121260154992342f,0.27931341528892517f,-0.20989274978637695f,0.010863090865314007f,0.08671115338802338f,-0.013073710724711418f,0.02474517561495304f,-0.02015022560954094f,0.009697037748992443f,-0.028837908059358597f,-0.04613523557782173f,-0.28925421833992004f,-0.04552049562335014f,0.1606757938861847f,-0.027518443763256073f,0.0044425372034311295f,0.10038328170776367f,0.04833407700061798f,-0.0026908577419817448f,-0.0403837189078331f,0.017802299931645393f,-0.07446955144405365f,0.031053956598043442f,0.03925813362002373f,0.04683997482061386f,-0.19391219317913055f,-0.008564768359065056f,-0.008181673474609852f,0.021879196166992188f,-0.04720931500196457f,0.20570065081119537f,-0.0048289974220097065f,-0.10014285147190094f,0.0028094633016735315f,0.05006426200270653f,-0.07519493997097015f,-0.14583845436573029f,-0.016315868124365807f,0.005341485142707825f,0.055821824818849564f,0.07824882119894028f,-0.007341771852225065f,-0.029427040368318558f,0.00559154013171792f,-0.05090050399303436f,-0.11828029900789261f,0.04946299269795418f,0.013410728424787521f,0.06125960499048233f,-0.019246382638812065f,0.030856747180223465f,-0.04277421534061432f,0.029009412974119186f,0.003222425002604723f,0.1181502714753151f,0.11060521006584167f,0.05042903125286102f,0.06298454105854034f,0.004933780990540981f,-0.11508829891681671f,0.05631079524755478f,0.023885628208518028f,0.0737769678235054f,0.02347443625330925f,0.12046636641025543f,-0.016432709991931915f,-0.13246159255504608f,0.03690085932612419f,0.3172892928123474f,-0.10931628197431564f,0.02028755657374859f,-0.016212977468967438f,0.025197094306349754f,0.03164573013782501f,0.07379452884197235f,0.022745052352547646f,-0.050455596297979355f,-0.0507633313536644f,-0.03750961273908615f,0.8149302005767822f,0.02825828641653061f,0.1414232850074768f,-0.05308946967124939f,-0.16762658953666687f,-0.11998873203992844f,-0.042749468237161636f,0.03573789820075035f,-0.006283138878643513f,0.00014821148943156004f,-0.012607593089342117f,-0.044672586023807526f,-0.15553544461727142f,0.08683356642723083f,0.1786220222711563f,0.15274618566036224f,-0.004088106565177441f,-0.13496288657188416f,0.044564176350831985f,-0.010159558616578579f,0.0047490717843174934f,-0.03415784239768982f,0.02353064715862274f,0.07736664265394211f,0.1045387014746666f,0.017255909740924835f,0.039140086621046066f,-0.11274100840091705f},
{-0.016346072778105736f,0.04058092087507248f,-0.026076076552271843f,0.01196386106312275f,-0.4184529185295105f,-0.03299354761838913f,0.8426372408866882f,-0.08931080996990204f,0.00027528125792741776f,-0.05941712483763695f,0.273254930973053f,0.03756522014737129f,-0.052739884704351425f,-0.044332921504974365f,0.10290718078613281f,-0.013433238491415977f,0.030830327421426773f,0.06510062515735626f,0.03659643232822418f,-0.02969229593873024f,0.02522701397538185f,-0.04475507512688637f,-0.016957243904471397f,0.0070067960768938065f,-0.06447333842515945f,-0.06427953392267227f,-0.014424670487642288f,0.03290502727031708f,0.0388263538479805f,0.03294788673520088f,-0.0016230195760726929f,0.7184109687805176f,0.013670679181814194f,0.06419987976551056f,-0.033663805574178696f,-0.039218030869960785f,0.1858079582452774f,-0.20820379257202148f,0.07803161442279816f,0.02200057916343212f,-0.023290833458304405f,0.03942781314253807f,-0.10598184168338776f,0.03632279112935066f,0.12928228080272675f,0.005433742888271809f,0.026372356340289116f,-0.07041438668966293f,-0.17940372228622437f,-0.013500090688467026f,0.002975184703245759f,0.020126964896917343f,0.01851419173181057f,0.03929430991411209f,0.009513633325695992f,-0.15962176024913788f,0.011239075101912022f,-0.06791859865188599f,0.863646388053894f,-0.15068286657333374f,-0.10849849134683609f,-0.035532254725694656f,0.011865927837789059f,-0.04864650219678879f,-0.03872997313737869f,-0.03293529525399208f,0.1294996440410614f,-0.021232981234788895f,0.041298337280750275f,0.014386095106601715f,0.02700410597026348f,0.053148940205574036f,-0.03863159194588661f,-0.007393312640488148f,0.39539220929145813f,0.06828484684228897f,-0.000823464069981128f,-0.05832865834236145f,-0.030622288584709167f,0.10106777399778366f,0.2158581018447876f,0.09863404929637909f,0.046339184045791626f,-0.0744188129901886f,-0.01818034052848816f,0.009931094013154507f,0.019255056977272034f,0.5201519727706909f,0.001486702705733478f,-0.009677964262664318f,0.12599313259124756f,0.04910200461745262f,-0.015266585163772106f,-0.049114540219306946f,-0.10547744482755661f,-0.32544416189193726f,-0.27227240800857544f,-0.004360355902463198f,0.11199406534433365f,0.10063012689352036f,0.0703454464673996f,0.0784931555390358f,0.013725119642913342f,-0.023090392351150513f,0.0585339292883873f,0.02087440900504589f,0.05691024288535118f,-0.009380636736750603f,0.36080923676490784f,-1.1638672351837158f,0.009756200015544891f,0.026356730610132217f,0.0672059953212738f,-0.15265996754169464f,0.04878909885883331f,0.05816786736249924f,0.002611758653074503f,0.009631040506064892f,0.006860529538244009f,-0.09258296340703964f,-0.03024744801223278f,-0.022377265617251396f,0.06553054600954056f,0.055921539664268494f,0.047286082059144974f,0.01331054326146841f,-0.014005208387970924f,0.40700939297676086f,0.02736116200685501f,-0.13914339244365692f,0.07107070088386536f,0.012915446422994137f,0.03398509323596954f,-0.0014420441584661603f,0.4007739722728729f,0.031452447175979614f,-0.0496915727853775f,0.015484566800296307f,-0.08043473958969116f,0.04196671023964882f,-0.06283201277256012f,-0.013877112418413162f,0.019511085003614426f,-0.03693506494164467f,0.014503926038742065f,0.09091493487358093f,0.07289598137140274f,0.3320101499557495f,-0.9951074123382568f,-0.12955424189567566f,0.4155771732330322f,-0.37712252140045166f,0.0064589702524244785f,0.10615730285644531f,-0.052221134305000305f,0.007780621759593487f,0.01372549869120121f,-0.13584871590137482f,-0.09128526598215103f,-0.05727718025445938f,-0.405622661113739f,-0.041752032935619354f,0.2006702870130539f,-0.010878005996346474f,0.011764769442379475f,0.07813794165849686f,0.011543737724423409f,-0.008089745417237282f,-0.14404429495334625f,-0.007596285548061132f,-0.014453438110649586f,0.024891292676329613f,0.03585951030254364f,-0.04331352934241295f,0.14473789930343628f,0.04030081629753113f,-0.04199254512786865f,0.0006440945435315371f,-0.11389485746622086f,-1.2032222747802734f,0.05515501648187637f,0.032606132328510284f,0.02720416896045208f,-0.02048344351351261f,-0.1540841907262802f,-0.2037528157234192f,-0.018315572291612625f,-0.034324634820222855f,0.030842989683151245f,0.12680290639400482f,-0.0376877598464489f,-0.04250216856598854f,0.009439869783818722f,-0.10284004360437393f,-0.08619289100170135f,-0.02739984169602394f,-0.021908463910222054f,0.06250119209289551f,-0.03710100054740906f,-0.030746806412935257f,0.08342874050140381f,0.045900896191596985f,0.01057859044522047f,-0.015940872952342033f,0.07979284971952438f,-0.10439881682395935f,0.013703729026019573f,-0.14670464396476746f,-0.1332244873046875f,-0.07718449831008911f,0.03904387727379799f,0.06279550492763519f,-0.021177370101213455f,0.03970501199364662f,-0.06381143629550934f,-0.12237834185361862f,-0.015528546646237373f,0.43764251470565796f,-0.12085162848234177f,-0.1547575443983078f,-0.04768471419811249f,-0.00472255889326334f,0.015202214941382408f,0.010525020770728588f,0.03344589099287987f,-0.03568891063332558f,-0.13251087069511414f,-0.013462712988257408f,-0.4066650867462158f,0.0318877287209034f,0.1699858158826828f,-0.028441056609153748f,-0.28642943501472473f,-0.022218115627765656f,-0.027690036222338676f,0.12076647579669952f,0.007324282079935074f,-0.06486865133047104f,0.05482260510325432f,-0.03599373623728752f,0.045597948133945465f,0.030620921403169632f,0.13325239717960358f,0.2385961264371872f,-0.010034522973001003f,-0.0072598690167069435f,0.027386311441659927f,-0.12323262542486191f,0.02910187840461731f,-0.11883354932069778f,-0.10470687597990036f,0.04394090548157692f,0.17220306396484375f,-0.014093088917434216f,0.02377193793654442f,0.04629117622971535f},
{0.018915873020887375f,0.007858817465603352f,0.044216763228178024f,0.05374891310930252f,0.6710342764854431f,-0.04698885977268219f,0.7098371982574463f,0.05160420760512352f,0.011892206966876984f,0.05626340210437775f,0.217677503824234f,-0.016787728294730186f,-0.025282973423600197f,-0.007515544071793556f,0.10478852689266205f,0.010763149708509445f,-0.009583186358213425f,0.023011425510048866f,0.015815600752830505f,0.0027947458438575268f,-0.007624082267284393f,-0.03311543166637421f,0.006360488012433052f,-0.016208695247769356f,0.018475836142897606f,-0.17108090221881866f,-0.029310962185263634f,0.028392894193530083f,0.032211992889642715f,0.0521082766354084f,0.01937377266585827f,-0.3183608651161194f,0.010723146609961987f,0.03657336160540581f,-0.019467510282993317f,-0.11755151301622391f,0.13444481790065765f,-0.10943970829248428f,-0.008956154808402061f,0.00042086601024493575f,-0.0010937678162008524f,0.04552486911416054f,0.01210718508809805f,0.024906178936362267f,0.029123837128281593f,0.04111297056078911f,0.042953167110681534f,-0.048961155116558075f,-0.08010513335466385f,-0.045148178935050964f,0.013368377462029457f,-0.03082871064543724f,0.005206522531807423f,0.06768544763326645f,0.06518355756998062f,-0.09506979584693909f,0.015383316203951836f,-0.08789198845624924f,-0.2723437547683716f,-0.026806822046637535f,0.03431439399719238f,-0.03855428472161293f,0.007048775441944599f,-0.082451730966568f,-0.05211542919278145f,0.025876356288790703f,0.05736112594604492f,-0.0264312531799078f,0.01851215958595276f,-0.016194187104701996f,0.026914754882454872f,0.07291057705879211f,-0.027669675648212433f,0.028595004230737686f,0.342478483915329f,0.07386220246553421f,-0.006556152366101742f,-0.016388021409511566f,-0.055321574211120605f,0.07952529191970825f,0.10754093527793884f,0.027812998741865158f,0.0075927842408418655f,0.03772268816828728f,-0.012096501886844635f,0.0013249976327642798f,0.00545818405225873f,0.31732869148254395f,0.01461601722985506f,0.027057256549596786f,-0.03010585904121399f,-0.014336595311760902f,0.0004462587821763009f,-0.020464986562728882f,-0.10716540366411209f,-0.3819460868835449f,-0.23814797401428223f,0.008677669800817966f,0.0814032107591629f,0.03448668494820595f,0.1104121059179306f,0.10503923892974854f,0.023793315514922142f,-0.04375958442687988f,0.017890531569719315f,-0.02130374126136303f,-0.02583947591483593f,-0.01357585284858942f,0.20406705141067505f,-0.9853728413581848f,-0.002686707768589258f,0.05745529755949974f,0.05315833166241646f,-0.0972316563129425f,0.04821034520864487f,0.14188846945762634f,-0.023457901552319527f,-0.006322935689240694f,0.0627513974905014f,-0.11079760640859604f,0.03823491185903549f,0.05122925341129303f,0.062485162168741226f,-0.028406687080860138f,0.0867774710059166f,-0.9747681617736816f,-0.006582045927643776f,0.27070730924606323f,0.016609620302915573f,-0.10119940340518951f,0.03428344056010246f,0.04690458998084068f,0.02712937444448471f,0.029370570555329323f,0.2589336335659027f,0.01270021591335535f,0.016751090064644814f,0.02744930051267147f,0.0430506207048893f,0.03149730712175369f,-0.0011962992139160633f,-0.003319431096315384f,0.04467427358031273f,-0.03599159047007561f,-0.015406884253025055f,0.059585198760032654f,0.018593287095427513f,0.21597103774547577f,0.2504216730594635f,-0.02674993872642517f,-1.0796617269515991f,-0.17313560843467712f,0.00931630004197359f,0.060200560837984085f,-0.03060612641274929f,0.10969512909650803f,-0.04458864405751228f,0.004599595908075571f,0.062013380229473114f,-0.040905918926000595f,-0.2975435256958008f,-0.031405009329319f,0.17243406176567078f,-0.014523872174322605f,0.015879789367318153f,0.049515701830387115f,0.05619893595576286f,0.007759955711662769f,-0.013512219302356243f,0.0362185500562191f,-0.11303123831748962f,0.015134786255657673f,0.03171226754784584f,-0.008021458052098751f,0.44647887349128723f,-0.013380958698689938f,-0.04193124920129776f,0.0038286244962364435f,-0.07868136465549469f,0.22169290482997894f,-0.02426844649016857f,-0.005583340767771006f,-0.008418804965913296f,0.02142581157386303f,-0.1200503259897232f,-0.09609423577785492f,-0.05662774667143822f,-0.008261846378445625f,0.008210844360291958f,0.09346509724855423f,-0.0017611877992749214f,-0.12153651565313339f,0.018499674275517464f,-0.060521118342876434f,-0.18966564536094666f,0.005232951138168573f,0.019985554739832878f,0.04443463310599327f,-0.022548280656337738f,0.02881096862256527f,0.0026165610179305077f,0.03594572842121124f,0.02080121450126171f,0.016363902017474174f,0.04783767834305763f,-0.002912414725869894f,-0.00772505858913064f,0.001942770672030747f,-0.08606836199760437f,0.0007913956069387496f,0.04095624387264252f,0.011167958378791809f,0.0216700229793787f,0.06776455044746399f,0.001153704128228128f,-0.10657402873039246f,-0.0098361074924469f,0.31680384278297424f,-0.11321990936994553f,-0.007456494495272636f,0.013339206576347351f,-0.005576080176979303f,0.052099522203207016f,-0.04749048873782158f,0.044766273349523544f,-0.009123040363192558f,-0.0422697439789772f,-0.15810653567314148f,-0.3537174463272095f,0.019885407760739326f,0.14890645444393158f,-0.18101218342781067f,-0.19740985333919525f,-0.015713678672909737f,-0.028430555015802383f,0.08199705183506012f,0.03301336243748665f,-0.04192911833524704f,-0.01870473101735115f,-0.005041802302002907f,-0.004034669138491154f,0.0612374022603035f,0.13486003875732422f,0.14555582404136658f,0.011480456218123436f,-0.039625946432352066f,0.062177207320928574f,0.02033928595483303f,-0.02473641186952591f,0.061791811138391495f,0.00594776775687933f,0.038299065083265305f,0.044824469834566116f,-0.025282852351665497f,0.06347589939832687f,-0.004985748790204525f},
{-0.036070309579372406f,0.03252070024609566f,-0.019814321771264076f,0.04373162239789963f,-0.49636200070381165f,-0.145369291305542f,0.7780971527099609f,0.06796284765005112f,-0.0528525747358799f,0.06219710782170296f,0.22198042273521423f,0.027934957295656204f,0.01212979108095169f,-0.01716362126171589f,-0.039716944098472595f,0.0352029874920845f,0.015536109916865826f,0.07344994693994522f,0.009104962460696697f,0.0026800883933901787f,-0.0525885634124279f,-0.008196673355996609f,0.04275014251470566f,0.03340160846710205f,-0.07420481741428375f,-0.0661921501159668f,-0.018370220437645912f,0.020756155252456665f,0.01522105373442173f,0.052187852561473846f,-0.015413378365337849f,-0.43036943674087524f,0.030259907245635986f,-0.015333134680986404f,-0.0536302849650383f,-0.0637865737080574f,0.05131193622946739f,-0.18508456647396088f,0.02786613628268242f,-0.015246214345097542f,-0.11295967549085617f,0.06909903138875961f,0.05539567396044731f,0.0332864373922348f,0.02380009926855564f,-0.022341115400195122f,0.03375108167529106f,-0.06361517310142517f,-0.09043240547180176f,-0.022275371477007866f,0.06977713853120804f,0.009982502087950706f,0.0012011087965220213f,0.03856705501675606f,0.03684336319565773f,-0.11555487662553787f,-0.0006506992504000664f,-0.0728888139128685f,-0.3832562267780304f,0.0875038206577301f,0.1038469672203064f,-0.1141401156783104f,0.060972198843955994f,0.028556516394019127f,-0.11165250092744827f,-0.013237795792520046f,0.16433507204055786f,-0.05367971211671829f,0.0007838204619474709f,-0.04622507467865944f,-0.032170575112104416f,0.03136730566620827f,-0.14607501029968262f,0.04398886114358902f,0.4435844421386719f,0.08546841889619827f,-0.15131358802318573f,-0.013376487419009209f,0.013974184170365334f,0.0705881118774414f,0.3939111828804016f,0.013864699751138687f,0.06556766480207443f,-0.07395580410957336f,-0.065738745033741f,0.03625906631350517f,-0.008886609226465225f,0.4005366265773773f,0.03981743007898331f,0.0146671487018466f,-0.04418712481856346f,0.022149302065372467f,0.0042646839283406734f,0.1476626694202423f,-0.09091663360595703f,0.768390953540802f,-0.3185817003250122f,0.006138849072158337f,0.05843872204422951f,0.09846250712871552f,-0.01669631153345108f,0.1233309656381607f,-0.022933432832360268f,-0.04675673693418503f,0.03502904996275902f,-0.14337550103664398f,0.025477776303887367f,0.044511765241622925f,0.34433895349502563f,-0.964333176612854f,0.07696524262428284f,0.16261699795722961f,0.1060258075594902f,-0.15053825080394745f,0.04318341240286827f,-0.012234827503561974f,-0.08226693421602249f,-0.004984240513294935f,-0.06398218870162964f,-0.18200741708278656f,0.057486556470394135f,-0.03779777139425278f,0.03678523376584053f,0.015349970199167728f,0.06958801299333572f,0.1111782118678093f,-0.07069966942071915f,0.4378991723060608f,0.05047180503606796f,-0.11592578887939453f,0.036535922437906265f,0.021515607833862305f,0.039926618337631226f,0.032312095165252686f,-1.136329174041748f,-0.03303412348031998f,-0.017683306708931923f,-0.01812254637479782f,0.03045450709760189f,0.04632491618394852f,0.006940782535821199f,-0.004930985625833273f,0.016238167881965637f,0.0068749613128602505f,0.11476791650056839f,0.02899843268096447f,0.03401784226298332f,0.3349314033985138f,0.30550146102905273f,-0.05081465467810631f,0.3658047020435333f,-0.39479976892471313f,-0.03662452846765518f,0.08193612843751907f,0.006884344853460789f,-0.01744549162685871f,-0.02554783783853054f,0.024716069921851158f,0.0501386858522892f,-0.10154294967651367f,0.7356464862823486f,-0.08565413951873779f,0.2078007459640503f,-0.0017964994767680764f,0.025992879644036293f,0.09012268483638763f,0.010948341339826584f,0.009812994860112667f,0.021203570067882538f,0.033405791968107224f,-0.057015255093574524f,-0.12457986921072006f,0.06881340593099594f,-0.12151089310646057f,0.020526347681879997f,0.023073699325323105f,0.02136658877134323f,-0.008477825671434402f,-0.08913969993591309f,0.35281506180763245f,0.04076111316680908f,-0.003015055786818266f,0.018947364762425423f,0.05176154151558876f,-0.1473267674446106f,-0.1530260294675827f,-0.02209607884287834f,-0.005904587917029858f,0.02696649357676506f,0.34444499015808105f,-0.03591987118124962f,-0.030033204704523087f,0.028907064348459244f,-0.13150711357593536f,-0.19659863412380219f,0.03349512815475464f,-0.023827847093343735f,0.04763597995042801f,-0.03352953493595123f,0.04842240363359451f,-0.079855777323246f,0.06326384097337723f,-0.07681777328252792f,0.011909233406186104f,0.07232600450515747f,0.013631971552968025f,0.028052184730768204f,-0.026525719091296196f,0.03980839625000954f,0.06298577785491943f,0.01980210654437542f,-0.07126349210739136f,0.01142633892595768f,0.0311887264251709f,-0.03289935737848282f,-0.012149244546890259f,-0.013309360481798649f,-1.3556866645812988f,-0.08130715042352676f,0.00994041282683611f,-0.029531870037317276f,0.033437781035900116f,-0.010983520187437534f,-0.0052750068716704845f,0.055937740951776505f,-0.02831597626209259f,-0.09145623445510864f,-0.04545290023088455f,-0.3857893645763397f,0.012376907281577587f,0.2529018521308899f,-0.03231029212474823f,-0.13996782898902893f,-0.012175628915429115f,0.016853487119078636f,0.08073832094669342f,0.028409378603100777f,-0.1271008998155594f,-0.005873546935617924f,-0.01937350071966648f,-0.013798545114696026f,-0.050291597843170166f,0.12743711471557617f,0.1490364521741867f,0.0011696119327098131f,-0.0572330616414547f,0.029517561197280884f,0.009177451953291893f,0.052888259291648865f,-0.9083340764045715f,-0.0025768873747438192f,0.01579001359641552f,0.04366041347384453f,-0.14912793040275574f,0.012221562676131725f,-0.0005550019559450448f},
