#ifndef UTTT2_PARAMETERS_H
#define UTTT2_PARAMETERS_H

float hiddenWeights[128][190] = {{0.6137601733207703f,0.025793159380555153f,0.4406815767288208f,1.0510852336883545f,0.22829273343086243f,0.12696705758571625f,0.9608268737792969f,-0.10839665681123734f,0.4598437249660492f,0.11575007438659668f,0.09474867582321167f,-0.006294639781117439f,0.23231978714466095f,0.0006774335633963346f,0.16710834205150604f,-0.17877569794654846f,0.3658415675163269f,0.08631984889507294f,-0.12088888138532639f,-0.23244059085845947f,0.004251364152878523f,0.40638452768325806f,-0.12170597910881042f,-0.2658751308917999f,0.0026311976835131645f,0.18416599929332733f,-0.10604694485664368f,0.6082178950309753f,-0.048200879245996475f,0.48859158158302307f,0.507931649684906f,0.35675355792045593f,0.4867175817489624f,0.613593339920044f,0.15602849423885345f,0.5776786804199219f,0.14565077424049377f,-0.1284693330526352f,0.06410820037126541f,0.16093386709690094f,0.2657591700553894f,-0.037509486079216f,-0.03961067646741867f,0.06166848912835121f,0.2780519425868988f,0.42790740728378296f,-0.1598394811153412f,0.31459543108940125f,-0.03273382782936096f,-0.884351909160614f,0.13043566048145294f,-0.19065022468566895f,0.5200359225273132f,0.2968321144580841f,0.21119706332683563f,0.14107690751552582f,-0.07991819828748703f,0.05856692045927048f,0.08641987293958664f,-0.15848131477832794f,0.1553134322166443f,0.2743538022041321f,0.27683255076408386f,-1.1696430444717407f,-0.9773735404014587f,-0.9020571112632751f,-0.8415653705596924f,-1.0656297206878662f,-0.7685285806655884f,-0.7833724021911621f,-0.49771207571029663f,-1.1115436553955078f,0.19891729950904846f,0.16657797992229462f,0.21662916243076324f,0.19076308608055115f,0.31292280554771423f,-0.1750212162733078f,0.06591768562793732f,0.12729975581169128f,0.18486379086971283f,-0.059760984033346176f,0.15177907049655914f,0.0812397375702858f,0.042645953595638275f,0.03490273654460907f,-0.1720360368490219f,-0.056314170360565186f,0.06422588229179382f,-0.23708216845989227f,-0.42392078042030334f,-0.9077997207641602f,-1.6573282480239868f,-1.619951605796814f,0.0475064292550087f,-1.0052708387374878f,0.7218772768974304f,-1.6612707376480103f,-0.6906070709228516f,0.2089076191186905f,0.3875231444835663f,-0.03384167328476906f,-0.12974026799201965f,-0.1668367236852646f,0.061485469341278076f,0.17236188054084778f,-0.041781459003686905f,-0.058498233556747437f,-0.043552566319704056f,0.12872159481048584f,0.07376226037740707f,0.3741055130958557f,-0.3740640878677368f,-0.04683743789792061f,0.3100970685482025f,0.3562678098678589f,0.1317651867866516f,-0.7990294098854065f,-0.3216221332550049f,-0.4320232570171356f,-0.5634939670562744f,-1.0643261671066284f,-0.4115082025527954f,0.05217203125357628f,-0.2985634207725525f,-0.42504632472991943f,0.11108198761940002f,-0.09107635915279388f,-0.1651635617017746f,0.07257048785686493f,-0.7979753613471985f,0.19866082072257996f,0.37269747257232666f,0.02648719772696495f,0.1600528061389923f,0.0877695307135582f,0.054039616137742996f,-0.10842080414295197f,0.0496542826294899f,-1.4052895307540894f,0.36721086502075195f,-0.11943670362234116f,0.19260165095329285f,0.35090747475624084f,0.012024236842989922f,0.35967156291007996f,-0.12045443803071976f,-0.06103238835930824f,-0.18789340555667877f,-0.10894043743610382f,0.5489497184753418f,0.10280848294496536f,0.38984984159469604f,0.5989790558815002f,0.6334973573684692f,0.16991521418094635f,0.5158554911613464f,0.3976321518421173f,0.7215090990066528f,1.0561788082122803f,0.4520537853240967f,1.033151388168335f,-0.5608639717102051f,-0.3149159848690033f,-0.20117171108722687f,-0.2831408679485321f,-0.5897781848907471f,-0.6838293671607971f,-0.2485445886850357f,-0.2736916244029999f,-0.025884324684739113f,-0.2917689383029938f,0.042078495025634766f,-0.48261505365371704f,0.1092962995171547f,-0.23920898139476776f,-0.027437128126621246f,-0.14304892718791962f,-0.15399658679962158f,-0.15883101522922516f,-0.3967554271221161f,-0.4112399220466614f,0.8465840220451355f,0.1121002659201622f,0.11213985085487366f,-0.8774462938308716f,-1.4162273406982422f,-0.22436390817165375f,-0.38967669010162354f,0.5359076857566833f},
{-0.25382110476493835f,-0.7618106603622437f,-0.1819806694984436f,-0.21874676644802094f,0.1574370414018631f,-0.13998520374298096f,-0.06836280971765518f,-0.7532979846000671f,-0.20475614070892334f,0.29222989082336426f,0.15627171099185944f,-0.6663629412651062f,-0.7414479851722717f,-0.07549992948770523f,-0.18630854785442352f,-0.06739906966686249f,-1.3094193935394287f,0.011415873654186726f,0.21199026703834534f,-0.8493614792823792f,-0.09687218070030212f,0.2877614200115204f,0.04614739120006561f,-0.21455633640289307f,0.13750001788139343f,0.36741915345191956f,0.30591881275177f,0.5678399205207825f,0.5181857943534851f,0.1666489988565445f,0.25768083333969116f,0.1351708620786667f,0.21126221120357513f,0.2692388892173767f,0.3749896287918091f,0.4384818375110626f,0.14794394373893738f,-0.05972379446029663f,-0.030564920976758003f,-0.31501883268356323f,0.1821460723876953f,-0.3777662217617035f,-0.00874299369752407f,0.37616023421287537f,0.13159936666488647f,0.42356887459754944f,-0.09714950621128082f,-0.24174167215824127f,-0.15577620267868042f,-1.5154728889465332f,-0.13417039811611176f,-0.25841644406318665f,0.11976726353168488f,-0.035659968852996826f,0.0871996358036995f,0.4021114408969879f,0.008223802782595158f,0.04108960181474686f,0.4332441985607147f,-0.40689703822135925f,0.03295055776834488f,0.12120161205530167f,0.3426567018032074f,0.05517581105232239f,-0.3893420100212097f,0.005177285987883806f,-0.06757417321205139f,0.43500179052352905f,-0.2889842391014099f,-0.40557393431663513f,0.0048914216458797455f,-0.24411267042160034f,0.6813880801200867f,-0.03743154555559158f,0.465401291847229f,0.2552218437194824f,0.03922757878899574f,-0.25038257241249084f,-0.2220638394355774f,-0.4777878522872925f,-0.4291321635246277f,0.009153067134320736f,-0.16577742993831635f,-0.03221181780099869f,0.1859816014766693f,0.026710018515586853f,0.14384949207305908f,0.17734457552433014f,0.5671308040618896f,0.17188939452171326f,-1.1864304542541504f,0.47084566950798035f,0.3678770661354065f,0.9215149879455566f,0.2948090434074402f,0.8503636717796326f,0.12223096191883087f,0.8075153827667236f,0.48416638374328613f,0.09223101288080215f,0.010219498537480831f,1.4370344877243042f,0.6031779050827026f,-0.12346522510051727f,-0.11191781610250473f,0.10354741662740707f,0.4590068757534027f,0.44073110818862915f,-0.1412196308374405f,-0.5744595527648926f,0.14037969708442688f,0.2746548354625702f,-0.09038890153169632f,-0.15421001613140106f,0.14118483662605286f,0.041158922016620636f,0.3209304213523865f,-0.11132209002971649f,0.37002280354499817f,-0.23696504533290863f,-0.19493797421455383f,0.0730462297797203f,-0.3407824635505676f,0.40461158752441406f,0.4233607053756714f,0.09370461106300354f,-0.8755242228507996f,-0.4734920263290405f,-0.3140002489089966f,-0.7148332595825195f,-0.5115708708763123f,-0.20236358046531677f,0.008403734304010868f,-0.02883448451757431f,-0.05875951424241066f,0.15869112312793732f,-0.4247179925441742f,0.2757369875907898f,0.04094475880265236f,-0.6583521366119385f,-0.5458049774169922f,0.27900540828704834f,-0.07945462316274643f,0.3522166609764099f,0.039475806057453156f,0.46051958203315735f,0.07329823076725006f,-0.08786512166261673f,-0.08941392600536346f,-0.2671997845172882f,0.23755422234535217f,-0.29800930619239807f,0.19590824842453003f,-0.03853689879179001f,-0.012552598491311073f,0.19083938002586365f,0.24499359726905823f,0.6158686876296997f,0.15852850675582886f,-0.38921210169792175f,0.2980199158191681f,0.47470909357070923f,-0.0018896873807534575f,-0.06429014354944229f,0.21030527353286743f,0.19648972153663635f,-0.025820814073085785f,-0.20496398210525513f,0.007592992857098579f,-0.6159241795539856f,-0.1315632164478302f,-0.2626369595527649f,-0.4380345940589905f,-0.1646614819765091f,-0.21145901083946228f,0.0718023031949997f,0.0028988129924982786f,-0.38515904545783997f,0.002830593613907695f,-0.36919471621513367f,0.5893225073814392f,-0.24578098952770233f,-0.1473451405763626f,-0.6353971362113953f,-0.1096809133887291f,-0.7785532474517822f,-0.7143082618713379f,-0.18564549088478088f,-0.22273816168308258f,0.10250109434127808f},
{-0.4963688254356384f,-0.11780646443367004f,0.7170107960700989f,-0.4780887961387634f,-0.13325557112693787f,-0.5335181951522827f,-0.4841558039188385f,-0.41021767258644104f,-1.0174098014831543f,-0.8483012318611145f,-0.23664239048957825f,-0.4950086176395416f,-0.42848485708236694f,0.001192257390357554f,-0.12159533053636551f,0.0010560931405052543f,0.10231000185012817f,-0.13187552988529205f,-0.03263569995760918f,-0.37510401010513306f,-0.28402724862098694f,-0.23359735310077667f,-0.48581117391586304f,-0.17027020454406738f,0.2834642231464386f,-0.036095380783081055f,-0.02906222455203533f,0.018224863335490227f,0.02596440352499485f,-0.2939627170562744f,-0.03284648433327675f,0.8256335258483887f,0.17336083948612213f,0.8150567412376404f,-0.1272623986005783f,0.0786842629313469f,-0.17465582489967346f,0.23093686997890472f,-0.0648081973195076f,-0.19773083925247192f,0.21659280359745026f,0.010172786191105843f,-0.21765601634979248f,0.03298158943653107f,-0.04534086212515831f,0.38676467537879944f,0.8952341675758362f,0.8934122323989868f,-0.17584837973117828f,-0.6643409132957458f,0.9878695607185364f,-0.1627456247806549f,-0.25115400552749634f,0.5352045893669128f,-0.0664023905992508f,0.18876853585243225f,-0.551988959312439f,0.006835436914116144f,-0.2821713984012604f,-0.772796630859375f,-0.17152227461338043f,0.1508081555366516f,0.1309680938720703f,0.2560163736343384f,-0.47473233938217163f,0.6476473212242126f,0.05025927722454071f,0.45789822936058044f,0.3529023230075836f,0.38993173837661743f,-0.08652826398611069f,0.1481708586215973f,-0.3896850049495697f,0.012514983303844929f,-0.5006383657455444f,0.10156790167093277f,0.11259323358535767f,-0.07667809724807739f,0.12463051080703735f,-0.7253469228744507f,0.03948122262954712f,-0.1132437214255333f,0.21321260929107666f,-0.337291419506073f,-0.32817599177360535f,-0.5244832038879395f,-0.15117233991622925f,-0.3586585819721222f,0.09324714541435242f,-0.31857404112815857f,0.002203933661803603f,0.11229338496923447f,-1.9153897762298584f,-0.18948984146118164f,-1.8130391836166382f,-0.12719133496284485f,-1.6023365259170532f,0.17518091201782227f,-0.09324562549591064f,-0.10881800204515457f,0.3530932068824768f,0.3185890316963196f,0.2634834945201874f,0.4443094730377197f,0.4539876878261566f,0.41206422448158264f,0.5808996558189392f,0.7061627507209778f,0.30164676904678345f,-0.38426804542541504f,0.4018422067165375f,0.27084311842918396f,0.2545240521430969f,0.30108317732810974f,0.377774715423584f,0.3432425260543823f,0.35317713022232056f,-1.0250227451324463f,0.03246615082025528f,-0.14056017994880676f,-0.4727333188056946f,-0.6950328946113586f,-0.26231086254119873f,0.025793327018618584f,0.09819353371858597f,-0.6950671076774597f,0.5797675251960754f,0.06685269623994827f,0.052310191094875336f,0.4279567003250122f,0.25227805972099304f,0.3702794313430786f,0.45009684562683105f,0.353451132774353f,0.574554443359375f,-0.8158220648765564f,-0.7832745909690857f,-2.3335273265838623f,-0.31896960735321045f,-1.3695307970046997f,-0.8701978921890259f,-0.4521864950656891f,0.04108542948961258f,-0.38829073309898376f,0.3341614902019501f,0.06372092664241791f,-0.03657947853207588f,0.33370405435562134f,0.14930933713912964f,-0.50592440366745f,0.13838452100753784f,0.13683144748210907f,0.48819735646247864f,0.14595462381839752f,-0.24454598128795624f,-0.4263555407524109f,-0.48699623346328735f,-0.7045614719390869f,-1.1476686000823975f,-0.039928652346134186f,-0.29724401235580444f,-2.6898152828216553f,0.32092857360839844f,0.021209532395005226f,0.21387536823749542f,0.4958984851837158f,0.08028741925954819f,0.2570624351501465f,0.16730760037899017f,-0.5658485293388367f,0.2624165415763855f,0.26980507373809814f,0.30455780029296875f,0.13871555030345917f,0.2685990035533905f,-0.14143894612789154f,0.48079240322113037f,0.28634339570999146f,0.19103439152240753f,0.1647558957338333f,-0.898418664932251f,-1.2020059823989868f,1.1037646532058716f,-0.5099257826805115f,0.355487585067749f,-0.9394911527633667f,0.7527158856391907f,-0.7359945178031921f,-0.7689002156257629f,0.8590561747550964f},
{-0.47159653902053833f,-0.20043900609016418f,-0.26283860206604004f,-0.12066438794136047f,0.35480937361717224f,-0.0850050151348114f,-0.2061554491519928f,-0.3119881749153137f,-0.05501815304160118f,-0.09355053305625916f,-0.1498953253030777f,-0.23348058760166168f,-0.1276228278875351f,-0.5145789384841919f,-0.13427719473838806f,-0.022776681929826736f,-0.1328887790441513f,-0.1443050056695938f,0.13011248409748077f,0.017042098566889763f,0.0022871249821037054f,0.27666398882865906f,-0.3080313205718994f,0.1590861976146698f,0.18830543756484985f,-0.02486458607017994f,-0.03821679949760437f,0.07626470923423767f,0.11826887726783752f,0.013530006632208824f,0.0800764188170433f,-0.2246820628643036f,-0.03581486642360687f,0.07193775475025177f,-0.057475496083498f,-0.059560928493738174f,0.2642975449562073f,0.44706597924232483f,0.35014504194259644f,0.20353618264198303f,-0.09965994954109192f,0.20921708643436432f,0.24017223715782166f,0.16545824706554413f,0.22646017372608185f,-1.8782644271850586f,0.5115909576416016f,0.4833408296108246f,-0.03936155512928963f,-2.4345693588256836f,0.6300058960914612f,0.5683165192604065f,1.0129172801971436f,-0.43193840980529785f,0.18197187781333923f,0.19368569552898407f,0.24119436740875244f,0.42228126525878906f,-0.30504685640335083f,0.004270543344318867f,0.21575209498405457f,0.1891671121120453f,0.0335964560508728f,-0.04331522434949875f,-0.021090269088745117f,0.1368655264377594f,-0.21203161776065826f,-0.14518165588378906f,-0.09039906412363052f,-0.2827428877353668f,-0.2620754837989807f,-0.04636970907449722f,-0.14417484402656555f,-0.04554224759340286f,0.11599041521549225f,0.1549936681985855f,-0.5175431966781616f,-0.0906461626291275f,0.021883629262447357f,-0.0793331190943718f,-0.0625234991312027f,0.08295892179012299f,0.2568221390247345f,0.1476411074399948f,0.24812062084674835f,-0.2839001715183258f,-0.01063692755997181f,0.13634800910949707f,0.0974687710404396f,-0.006931913085281849f,-0.35953107476234436f,0.17890498042106628f,0.08457274734973907f,0.4472688138484955f,-0.9220701456069946f,0.016753997653722763f,0.2073134332895279f,-0.16798050701618195f,-0.1982041299343109f,0.1965230405330658f,0.0866856798529625f,-0.03157743439078331f,-0.02677302062511444f,-0.32504019141197205f,-0.013389887288212776f,0.15176796913146973f,0.061428241431713104f,0.15965153276920319f,0.16426876187324524f,-0.22566698491573334f,-0.10640085488557816f,-0.0987345352768898f,-0.06624982506036758f,-0.0886550173163414f,0.06119284778833389f,-0.07479321211576462f,-0.025124086067080498f,0.09563760459423065f,0.09022439271211624f,-0.025523530319333076f,-0.1663275957107544f,0.05049435794353485f,-0.24901814758777618f,0.07509146630764008f,0.01785621978342533f,-0.06899052858352661f,0.021486470475792885f,-0.03508608415722847f,-0.05080248787999153f,-0.4893541932106018f,-0.08760961890220642f,-0.2318420112133026f,0.15536218881607056f,0.007760760374367237f,-0.21949782967567444f,0.10459393262863159f,0.16738203167915344f,-0.28274497389793396f,0.20843777060508728f,-0.047622811049222946f,-0.29986101388931274f,-0.4083998203277588f,-0.4735063910484314f,2.2537853717803955f,0.2561302185058594f,0.0821923166513443f,0.11390568315982819f,-0.06751620769500732f,-0.04597831144928932f,-0.0762551873922348f,0.09584955871105194f,0.14296044409275055f,0.08300887793302536f,0.07377815246582031f,-0.09716825932264328f,-0.4207068383693695f,-0.09611771255731583f,-0.28898561000823975f,-0.0684259682893753f,0.08084975183010101f,0.05594269931316376f,0.2708752751350403f,0.09210199862718582f,0.08294185996055603f,0.1309424638748169f,-0.021173790097236633f,-0.1800924837589264f,-0.1312517374753952f,0.12579675018787384f,0.0441519170999527f,0.07072999328374863f,0.12083500623703003f,0.07223780453205109f,0.05160178616642952f,-0.11574093252420425f,-0.15830852091312408f,-0.21479253470897675f,-0.08111824840307236f,0.11105791479349136f,-0.2826099395751953f,-0.5323352217674255f,-0.26342082023620605f,-0.06201819330453873f,-0.1742299348115921f,-0.24896657466888428f,-0.10470731556415558f,-0.26946014165878296f,-0.13451600074768066f,-0.09943251311779022f,-0.5013838410377502f},
{0.362587034702301f,-0.6878037452697754f,-0.46009883284568787f,-0.3280218243598938f,-0.43031373620033264f,0.8173888921737671f,0.25856906175613403f,-0.6516227126121521f,-1.1451706886291504f,-0.029610855504870415f,-0.042986128479242325f,0.33570408821105957f,0.2550160884857178f,0.17595896124839783f,0.2684020400047302f,0.11530948430299759f,0.2263212651014328f,0.49217602610588074f,-0.1721147894859314f,-0.1276746392250061f,-0.1024056002497673f,-0.1767687052488327f,-0.3913910388946533f,-0.17854849994182587f,-0.12710963189601898f,-0.4081862270832062f,-0.35034507513046265f,-0.6024882793426514f,-0.415707528591156f,0.2305692583322525f,0.11823832243680954f,-0.2563101053237915f,-0.2941160500049591f,-0.3135165572166443f,-0.2537364065647125f,-0.17323125898838043f,-0.36818400025367737f,-0.40405765175819397f,-0.19988508522510529f,0.3331142067909241f,-0.1376994103193283f,-0.2567327916622162f,-0.2988419234752655f,-0.2816968262195587f,-0.230313241481781f,-0.11703111231327057f,-0.040032003074884415f,-0.04938386008143425f,0.05016415938735008f,-1.0644785165786743f,0.0559253953397274f,0.04241650179028511f,-0.19192750751972198f,-0.0299260001629591f,0.5157369375228882f,0.6159651279449463f,0.9367488622665405f,0.7971392869949341f,0.9428910613059998f,0.06772972643375397f,0.7921413779258728f,0.6347800493240356f,0.852554976940155f,-0.132607564330101f,-0.3167639374732971f,-0.09075355529785156f,0.08815933018922806f,-0.4388553202152252f,-0.21803796291351318f,0.14447449147701263f,-0.26615187525749207f,0.09926296770572662f,-0.05520734563469887f,-0.14241911470890045f,-0.40995505452156067f,0.09141141921281815f,-0.010686768218874931f,-0.15501421689987183f,-0.19365593791007996f,0.07025399804115295f,0.014329099096357822f,-0.43422386050224304f,-0.22704057395458221f,-0.012628507800400257f,0.24410298466682434f,-0.20455503463745117f,-0.1879877895116806f,-0.1139276847243309f,-0.19215957820415497f,0.17313578724861145f,0.949333667755127f,0.25891512632369995f,-0.052509233355522156f,-0.7791319489479065f,0.315757691860199f,1.043168306350708f,0.2313106507062912f,0.5586667656898499f,0.3081255257129669f,-0.32489827275276184f,-0.012367418967187405f,0.011683592572808266f,0.03158121928572655f,-0.0422043651342392f,-0.035636238753795624f,-0.0031046136282384396f,0.019818563014268875f,0.08157471567392349f,0.15035314857959747f,0.5156518816947937f,0.26000291109085083f,0.3599834442138672f,0.11976329237222672f,0.09064551442861557f,0.11223120987415314f,0.11401454359292984f,0.23492909967899323f,-0.05186450853943825f,-0.0676453709602356f,0.11024581640958786f,-0.2745923697948456f,0.011442030780017376f,0.03326313942670822f,-0.026096802204847336f,-0.08035411685705185f,-0.1580222100019455f,-0.11598831415176392f,0.05752839893102646f,-0.16496247053146362f,0.28282663226127625f,-0.3265743553638458f,-0.0132124163210392f,0.12177624553442001f,-0.05527491867542267f,0.12500296533107758f,-0.11022210121154785f,0.07987727224826813f,-0.10346484184265137f,-0.2021934688091278f,-0.7356978058815002f,0.16769619286060333f,0.05970373377203941f,0.08443380147218704f,0.09909526258707047f,-0.5094740390777588f,-0.2661386728286743f,-0.471210777759552f,-0.3342283070087433f,-0.7210888266563416f,-0.8084968328475952f,-0.24666963517665863f,-0.23294061422348022f,-0.5124685764312744f,0.11060351133346558f,0.1703796684741974f,0.20662757754325867f,-0.15272817015647888f,-0.08758719265460968f,-0.08976484090089798f,0.4385664463043213f,0.06754402071237564f,-0.03458072245121002f,0.10435764491558075f,0.3283552825450897f,0.17491881549358368f,-0.11944616585969925f,0.21058447659015656f,0.09902549535036087f,0.08365540206432343f,0.3381919264793396f,0.4380415678024292f,-0.007041782606393099f,0.024606864899396896f,-0.000511436490342021f,-0.32825949788093567f,-0.16347737610340118f,-0.0896429494023323f,0.09242188930511475f,0.014599962159991264f,-0.03447030484676361f,0.016399435698986053f,-0.6409660577774048f,-0.04599182680249214f,0.13935033977031708f,-0.5303332209587097f,0.786226212978363f,-0.1640283763408661f,-0.652287483215332f,-0.09259229153394699f,-0.3957163095474243f},
{-0.09448273479938507f,0.29492875933647156f,0.256590336561203f,0.0168368648737669f,-0.46250081062316895f,-0.0002471423940733075f,-0.23133337497711182f,0.2656309902667999f,0.19300031661987305f,0.10730128735303879f,-0.04677089303731918f,0.0315944068133831f,0.10701683163642883f,-0.45981818437576294f,-0.074901282787323f,0.28978273272514343f,0.0075286682695150375f,0.0731695294380188f,-0.03633486106991768f,0.029563020914793015f,0.01262089516967535f,0.07405491918325424f,-0.4503960907459259f,-0.10999071598052979f,0.04825812205672264f,-0.049510300159454346f,0.04697003588080406f,-0.04780808463692665f,-0.2953953146934509f,-0.06328558176755905f,-0.11498405784368515f,-0.33313870429992676f,-0.3299175500869751f,0.07498636096715927f,-0.21965758502483368f,-0.1490720510482788f,0.003955408930778503f,-0.2078447788953781f,-0.06783851236104965f,-0.24846328794956207f,-0.41658008098602295f,-0.18758676946163177f,0.15977662801742554f,-0.19512104988098145f,-0.050775196403265f,1.8841097354888916f,-1.104835867881775f,-0.8450461626052856f,2.3819663524627686f,-2.2885372638702393f,-0.8360903263092041f,1.8943098783493042f,-0.9315140247344971f,-0.8649414777755737f,0.044246699661016464f,-0.25422391295433044f,-0.04646894335746765f,-0.10466610640287399f,-0.27603769302368164f,0.023565182462334633f,0.00615614652633667f,-0.06530594080686569f,0.007872403599321842f,0.21949699521064758f,-0.030524438247084618f,0.1528211086988449f,0.16824667155742645f,-0.23816631734371185f,0.13167133927345276f,0.19653908908367157f,0.04023651406168938f,0.15703463554382324f,0.18182127177715302f,0.06967847049236298f,0.08033667504787445f,0.08003411442041397f,-0.3656060993671417f,0.06845583766698837f,0.23792557418346405f,0.0012294066837057471f,0.23033782839775085f,0.17465445399284363f,0.01779528521001339f,-0.022403229027986526f,0.04518815502524376f,-0.3145732581615448f,-0.1650693267583847f,0.10293568670749664f,-0.04045975208282471f,0.10320544987916946f,-0.3194279670715332f,-0.48560068011283875f,0.11101340502500534f,-0.33723148703575134f,-2.0219202041625977f,-0.04979362711310387f,-0.1374163180589676f,-0.27163809537887573f,0.1962829977273941f,-0.10813950002193451f,-0.06472824513912201f,-0.16289032995700836f,0.09749976545572281f,-0.4111596345901489f,0.05658899247646332f,-0.20923826098442078f,-0.12437599897384644f,-0.18378198146820068f,-0.05059952288866043f,0.05368315055966377f,-0.020390423014760017f,0.16349920630455017f,-0.20945130288600922f,0.09049907326698303f,0.03944692388176918f,0.06341664493083954f,-0.0014481110265478492f,0.12835244834423065f,0.1581578254699707f,0.19193024933338165f,0.13164566457271576f,-0.2874760329723358f,0.06713269650936127f,0.04185694828629494f,-0.026037273928523064f,-0.14285564422607422f,-0.18155966699123383f,0.03901617228984833f,0.09205596148967743f,-0.10039929300546646f,-0.28020554780960083f,-0.004115098621696234f,-0.16115394234657288f,-0.006572516169399023f,-0.11929469555616379f,-2.026818037033081f,0.8021066784858704f,0.9113954901695251f,-1.7652251720428467f,-0.6352376341819763f,1.2488229274749756f,-1.5866175889968872f,0.7483935952186584f,0.6373244524002075f,0.07483314722776413f,0.2607058882713318f,0.12211432307958603f,0.23452958464622498f,-0.17702247202396393f,0.349395751953125f,0.14353065192699432f,0.08712883293628693f,0.0169261135160923f,-0.1503768116235733f,-0.04403293877840042f,-0.08878961950540543f,-0.05407916381955147f,-0.5187206864356995f,-0.29101040959358215f,-0.49593281745910645f,-0.27723070979118347f,-0.31931033730506897f,0.14674720168113708f,0.2343234121799469f,0.1825227439403534f,0.21741883456707f,-0.2526998221874237f,0.15235261619091034f,-0.14370113611221313f,-0.06698738038539886f,0.011302598752081394f,-0.06459259241819382f,-0.03583530709147453f,0.03423645347356796f,0.13128745555877686f,-0.23855780065059662f,0.045359838753938675f,-0.1536126583814621f,-0.05561630055308342f,-0.07237213850021362f,-0.5878781080245972f,-0.42538121342658997f,-0.6160117983818054f,-0.8959748148918152f,1.4449926614761353f,-0.5242094993591309f,-0.2933047413825989f,-0.4724516272544861f,-0.4798755347728729f,-0.03294501453638077f},
{-0.37649691104888916f,-0.55853271484375f,-0.33679643273353577f,-0.08007966727018356f,0.13050200045108795f,-0.13852548599243164f,-0.10823071748018265f,0.7123264670372009f,-0.13849186897277832f,-0.0004724013851955533f,0.23236976563930511f,0.026604559272527695f,-0.1293262243270874f,0.10968969017267227f,0.05663834139704704f,-0.06888791918754578f,0.013947561383247375f,0.05571848154067993f,-0.13121077418327332f,0.13933183252811432f,-0.2686157524585724f,-0.2727731764316559f,-0.15232893824577332f,-0.067220039665699f,-0.22529734671115875f,-0.14087437093257904f,-0.1474212110042572f,-0.09390117973089218f,0.23112916946411133f,-0.05185312032699585f,-0.0338003896176815f,-0.05400268733501434f,-0.08641888946294785f,-0.1303422451019287f,-0.0779740959405899f,-0.06921715289354324f,-0.009990956634283066f,0.1673097163438797f,-0.035577915608882904f,-0.04133414477109909f,-0.09790534526109695f,0.07910576462745667f,0.03364923596382141f,0.08511292934417725f,-0.11978541314601898f,-0.38605695962905884f,0.14682835340499878f,-0.38115987181663513f,-0.284732460975647f,-1.0224210023880005f,-0.26758337020874023f,-0.1487535536289215f,-0.5667938590049744f,-0.1203109472990036f,-0.07112638652324677f,0.14409981667995453f,-0.10956625640392303f,-0.12597493827342987f,-0.07697506994009018f,0.044976744800806046f,-0.11026497185230255f,-0.050624534487724304f,-0.0926504135131836f,-0.3057614862918854f,0.13607658445835114f,-0.4566395878791809f,-0.16982077062129974f,-0.4530416429042816f,-0.2690488398075104f,0.15342620015144348f,-0.3121863305568695f,-0.11945037543773651f,0.865536093711853f,0.8483549356460571f,0.8503320813179016f,0.5875226259231567f,1.1482391357421875f,0.6639503836631775f,0.9845452904701233f,0.49907445907592773f,0.8910966515541077f,-0.2038588970899582f,0.11917755007743835f,-0.2092207819223404f,-0.16663512587547302f,-0.15859882533550262f,-0.1524033099412918f,-0.2178468108177185f,-0.22489798069000244f,-0.024955371394753456f,0.1876114308834076f,-0.3847384452819824f,0.5010956525802612f,0.07894112914800644f,-0.1017366424202919f,0.15366169810295105f,-0.049047742038965225f,4.005075931549072f,-0.06839220225811005f,0.04805337265133858f,0.09146440774202347f,0.1819441169500351f,0.0657733753323555f,0.17939597368240356f,0.18096394836902618f,0.18555636703968048f,0.05680833384394646f,0.17388638854026794f,-0.04432748258113861f,0.07638556510210037f,-0.04879976063966751f,-0.1006191149353981f,0.07400769740343094f,-0.07428620755672455f,-0.0912519171833992f,-0.17882974445819855f,-0.0537179596722126f,0.21937254071235657f,0.11440157890319824f,0.2537655234336853f,0.11052992939949036f,0.2199331521987915f,0.20918002724647522f,0.10312441736459732f,0.004059584811329842f,0.06592684239149094f,0.02198135294020176f,0.10089001804590225f,0.057210713624954224f,-0.019795488566160202f,0.08281442523002625f,0.11169663071632385f,0.21480663120746613f,0.08237923681735992f,-0.010611013509333134f,0.10176888108253479f,-0.0050253295339643955f,0.15485163033008575f,0.1195901557803154f,-0.5603560209274292f,0.20523929595947266f,0.0844278633594513f,-0.10111165791749954f,0.16048488020896912f,0.007025734521448612f,0.06607884168624878f,0.05105855315923691f,0.027466265484690666f,-0.0427686832845211f,0.08138453215360641f,0.010521160438656807f,-0.044194478541612625f,0.11495184898376465f,0.06037256121635437f,0.012156353332102299f,0.15668906271457672f,-0.03075110912322998f,0.13772352039813995f,0.06238090619444847f,0.2809596061706543f,-0.08337871730327606f,0.1540241241455078f,-0.6721031665802002f,-0.3636735677719116f,-0.6815629601478577f,-0.6688466668128967f,-0.915886402130127f,-0.442486435174942f,-0.5217810869216919f,-0.6025465726852417f,-0.6023321747779846f,-0.00208788993768394f,0.068031445145607f,0.12037572264671326f,0.03025183640420437f,0.0669843852519989f,0.13880369067192078f,0.03420422598719597f,-0.03041691705584526f,0.11181513965129852f,-0.31871747970581055f,-0.18939435482025146f,-0.3726097047328949f,-0.3310043215751648f,-0.13375410437583923f,-0.3378124535083771f,-0.21278566122055054f,0.8139330148696899f,-0.23139993846416473f,-0.22543644905090332f},
{-0.020326636731624603f,-0.6187988519668579f,-0.08590956032276154f,-0.13777503371238708f,-1.183451533317566f,-0.13563863933086395f,-0.21999523043632507f,-0.25530439615249634f,0.03300240635871887f,0.041872456669807434f,-0.02439447119832039f,-0.05655428767204285f,-0.09455883502960205f,-0.2665840983390808f,-0.08834251016378403f,-0.09844271838665009f,-0.09576399624347687f,0.025807078927755356f,0.07458676397800446f,0.02889956161379814f,-0.04966101422905922f,-0.02662394940853119f,-0.3255000114440918f,-0.10687244683504105f,-0.08953786641359329f,-0.032968319952487946f,-0.015949202701449394f,-0.03819338604807854f,-0.05255281552672386f,-0.11459050327539444f,-0.13961273431777954f,-0.4378030598163605f,-0.18481406569480896f,-0.1342615932226181f,-0.1362130492925644f,-0.11929918080568314f,0.20131230354309082f,0.13847751915454865f,0.2173474282026291f,0.12410731613636017f,-0.1276213675737381f,0.001643736963160336f,0.05482904613018036f,0.049863506108522415f,0.2383163720369339f,-0.12717154622077942f,1.5608738660812378f,-0.25532591342926025f,-0.6374680995941162f,0.2818610668182373f,-0.5547112226486206f,-0.11360383778810501f,1.4625362157821655f,-0.444672167301178f,0.29757750034332275f,0.1506595015525818f,0.09843467175960541f,0.05079428851604462f,-0.05275070294737816f,0.04225808009505272f,0.22289501130580902f,0.08215368539094925f,0.1320018321275711f,-0.08758782595396042f,-0.041797883808612823f,-0.13496384024620056f,-0.1909102499485016f,-0.4175020754337311f,-0.18364933133125305f,-0.07285924255847931f,-0.2043662965297699f,-0.14664217829704285f,0.2117038369178772f,0.20284360647201538f,0.17455211281776428f,0.13902899622917175f,-0.04333532601594925f,0.07824476808309555f,0.13864447176456451f,0.10562555491924286f,0.12858572602272034f,0.078974649310112f,-0.03902610391378403f,0.03764021396636963f,-0.11626163125038147f,-0.3159453570842743f,-0.14856545627117157f,-0.0966474637389183f,-0.0928487554192543f,-0.003440198488533497f,-0.058528732508420944f,0.015716489404439926f,0.2027154117822647f,0.17507298290729523f,-2.652803897857666f,0.08350557833909988f,0.17918334901332855f,0.12347196042537689f,0.06921372562646866f,-0.012030599638819695f,0.01521383598446846f,0.017702970653772354f,-0.18760865926742554f,-0.4178980886936188f,-0.15481027960777283f,-0.016832809895277023f,-0.18397878110408783f,-0.020337842404842377f,0.035239703953266144f,0.02536076121032238f,0.05397237464785576f,-0.12002415210008621f,-0.36926209926605225f,-0.10930829495191574f,0.056864820420742035f,-0.11813680082559586f,0.017246339470148087f,0.08951594680547714f,0.11989087611436844f,0.15367695689201355f,-0.02164045348763466f,-0.18223291635513306f,-0.019885458052158356f,0.08364520221948624f,-0.0712369829416275f,0.13581779599189758f,0.07517003268003464f,0.12743543088436127f,0.06251738965511322f,0.009039154276251793f,-0.20200765132904053f,-0.009861400350928307f,0.06653741747140884f,-0.056951723992824554f,0.05226579308509827f,0.9501807689666748f,-2.3852322101593018f,0.6437966227531433f,0.5815005898475647f,-2.3401246070861816f,0.516532301902771f,0.7902193069458008f,-2.345720052719116f,0.6077813506126404f,0.1554693728685379f,0.16880415380001068f,0.1423150599002838f,0.05958634987473488f,-0.1999920755624771f,0.06717848777770996f,0.119144506752491f,-0.06519348174333572f,0.13097524642944336f,0.07098682224750519f,0.07809237390756607f,0.13901016116142273f,-0.1405184417963028f,-0.23475594818592072f,-0.046336498111486435f,0.2641257643699646f,-0.13011887669563293f,0.11637653410434723f,0.12807050347328186f,0.15889981389045715f,0.18378572165966034f,-0.008839135989546776f,-0.21930283308029175f,-0.04729615896940231f,0.13899613916873932f,-0.02976798452436924f,0.15858496725559235f,0.09429101645946503f,0.046207673847675323f,0.03953733295202255f,-0.08461421728134155f,-0.245513916015625f,-0.1578112542629242f,0.08495304733514786f,-0.11301526427268982f,0.09585433453321457f,-0.4249935448169708f,-0.4689367413520813f,-0.5586344599723816f,-0.302870512008667f,0.7776768207550049f,-0.30891385674476624f,-0.5738651752471924f,-0.2927137017250061f,-0.4078492820262909f,0.38960662484169006f},
{-0.5111074447631836f,0.14683625102043152f,1.5348610877990723f,0.14816902577877045f,1.1388951539993286f,-0.14122600853443146f,1.8834030628204346f,1.1256271600723267f,-0.4065918028354645f,-0.3462602198123932f,0.07956260442733765f,0.03964037820696831f,-0.02446426823735237f,0.15522456169128418f,0.19269625842571259f,0.3855900764465332f,0.2137238085269928f,-0.3187606632709503f,0.11846916377544403f,-0.3930087387561798f,-0.4783802330493927f,-0.06943248957395554f,-0.022907070815563202f,0.5258885025978088f,0.20226800441741943f,0.09738583862781525f,0.26314234733581543f,0.12488754838705063f,0.17065344750881195f,-0.11501576006412506f,0.04109427332878113f,-0.0405963771045208f,0.14105385541915894f,0.3362635374069214f,0.3026205599308014f,0.17382289469242096f,-0.2604583203792572f,0.27024033665657043f,0.1951269656419754f,-0.1597619205713272f,0.03646319359540939f,-0.00859262514859438f,0.2106652408838272f,0.3467671871185303f,0.06847646087408066f,0.0370628759264946f,-0.18760693073272705f,0.24814583361148834f,0.23082178831100464f,-1.333264946937561f,0.07751761376857758f,0.03846064209938049f,0.4453732371330261f,0.10405293852090836f,-0.029217565432190895f,0.2341558337211609f,0.19064806401729584f,0.29271790385246277f,0.239874929189682f,0.11763383448123932f,0.1421867311000824f,0.23865745961666107f,0.2951032817363739f,-0.3255654275417328f,-0.3732525706291199f,-0.35445165634155273f,-0.11844637244939804f,-0.45885613560676575f,-0.1964050978422165f,0.06941571086645126f,-0.015230266377329826f,-0.3957401514053345f,-0.1842471808195114f,-0.0882275179028511f,-0.06980893015861511f,-0.20795577764511108f,0.1193428486585617f,0.23581267893314362f,-0.10705757886171341f,-0.06562735885381699f,-0.29094067215919495f,-0.3773125112056732f,-0.02565785124897957f,-0.0016285028541460633f,0.19058798253536224f,0.12542760372161865f,0.06802623718976974f,0.024676023051142693f,0.13965418934822083f,-0.7244768738746643f,-1.472155213356018f,0.14808399975299835f,-0.0619259774684906f,-1.1956928968429565f,0.30131250619888306f,-0.880687952041626f,0.34298524260520935f,-0.4983195662498474f,-0.46502602100372314f,-0.1459251046180725f,-0.11928713321685791f,-0.39796385169029236f,-0.20317459106445312f,-0.7094824910163879f,-0.4867391288280487f,0.04003895819187164f,-0.14364074170589447f,-0.24008862674236298f,0.5017783045768738f,-0.7448763847351074f,-0.12790469825267792f,0.21530210971832275f,0.2460455596446991f,0.20096293091773987f,0.23449280858039856f,0.021575378254055977f,0.43145155906677246f,0.17764820158481598f,-0.11827042698860168f,-0.37912213802337646f,0.10763763636350632f,0.5065257549285889f,-0.039475757628679276f,0.4880850613117218f,-0.1462392657995224f,0.1877680867910385f,-0.49252283573150635f,-0.1396927535533905f,-0.2792181074619293f,-0.21103930473327637f,-0.49708861112594604f,-0.15805462002754211f,-0.0495232492685318f,-0.024426467716693878f,0.04699365422129631f,0.34635940194129944f,0.36403989791870117f,0.031884849071502686f,0.2720242142677307f,-0.3427507281303406f,0.2612361013889313f,0.444916695356369f,0.2724212408065796f,0.5100213885307312f,0.06054142117500305f,-0.4576590359210968f,-0.05468307062983513f,-0.10548122227191925f,-0.06242526322603226f,-0.3635832369327545f,-0.437584787607193f,-0.30289915204048157f,0.17143233120441437f,0.4792662560939789f,0.23617374897003174f,-0.03238321840763092f,0.16042691469192505f,0.37155255675315857f,0.46186089515686035f,0.1223207488656044f,0.4311409890651703f,0.6667216420173645f,0.3182121813297272f,0.21416141092777252f,-0.25490128993988037f,0.08431117236614227f,-0.029325319454073906f,0.007249239832162857f,-0.36319470405578613f,-0.3943600654602051f,-0.06857259571552277f,0.13677063584327698f,-0.06777340918779373f,0.1527007818222046f,-0.25671815872192383f,-0.34597113728523254f,0.033467020839452744f,0.15295381844043732f,0.07288330793380737f,-0.41017067432403564f,0.25499486923217773f,-0.6151612997055054f,0.7242458462715149f,0.09566503763198853f,-1.1703531742095947f,-0.0074951183050870895f,-0.6841643452644348f,0.13670744001865387f,0.016556058079004288f,-0.4213298559188843f},
{-0.7588068842887878f,-0.005580332595854998f,-0.07983014732599258f,-0.4442592263221741f,-0.07735232263803482f,-0.21327678859233856f,-0.25052693486213684f,-0.3510204255580902f,-0.2622133791446686f,-0.12206234037876129f,0.02033890038728714f,-0.06296126544475555f,0.25021669268608093f,-0.07812227308750153f,-0.2275499403476715f,0.1631532460451126f,0.416293203830719f,-0.262666255235672f,0.008123034611344337f,0.290799081325531f,-0.43501409888267517f,-0.3858199417591095f,-0.6690813899040222f,-0.2910029888153076f,0.1710907220840454f,-0.3697335720062256f,-0.31509479880332947f,-0.01920890063047409f,0.4905499517917633f,-0.2544112801551819f,-0.12536904215812683f,-0.10211803764104843f,0.14640849828720093f,0.1084921583533287f,0.11922850459814072f,0.26329171657562256f,0.2733480930328369f,0.15482941269874573f,-0.13803166151046753f,-0.4638984203338623f,-0.03916657716035843f,0.26863354444503784f,0.3066740334033966f,-0.3357131779193878f,-0.16143502295017242f,-0.6816779375076294f,0.0925690233707428f,-0.08121290057897568f,-0.75116366147995f,-1.1372275352478027f,0.22512254118919373f,-0.015882626175880432f,-0.34460458159446716f,-0.2644718289375305f,0.08764015883207321f,0.4618098735809326f,0.456706166267395f,0.7647332549095154f,0.08586812764406204f,-0.4850969612598419f,0.2964223623275757f,0.35020989179611206f,0.3866978585720062f,-0.011085289530456066f,0.0194978266954422f,0.3614084720611572f,0.18556228280067444f,-0.6737831830978394f,0.02349902130663395f,-0.10372918844223022f,-0.015003113076090813f,0.08268178999423981f,0.3565460741519928f,0.37900522351264954f,0.28645217418670654f,0.037426937371492386f,0.12581992149353027f,0.6997798085212708f,0.4127471446990967f,-0.3363584578037262f,0.7464938163757324f,-0.3558701276779175f,0.3403918147087097f,-0.671874463558197f,-0.13017906248569489f,-0.150608092546463f,-0.18327045440673828f,-0.18893717229366302f,-0.6857856512069702f,0.09517770260572433f,0.6200539469718933f,-0.029188044369220734f,0.5357544422149658f,0.6738299131393433f,-0.3004439175128937f,1.0367228984832764f,0.744553804397583f,0.6676968336105347f,-1.1792285442352295f,-0.6081469058990479f,0.06301747262477875f,0.2981131672859192f,-0.13062608242034912f,-0.2366894781589508f,0.12256736308336258f,-0.17970213294029236f,0.19538608193397522f,0.15833471715450287f,-0.007246703840792179f,0.08222093433141708f,0.048189762979745865f,-0.4740661084651947f,-0.14959943294525146f,-0.012085560709238052f,0.18170171976089478f,-0.27154022455215454f,-0.07191885262727737f,0.01173694059252739f,0.02763753943145275f,-0.39846110343933105f,0.137116476893425f,-0.380746990442276f,-0.04278061166405678f,0.1546277403831482f,0.23021745681762695f,0.19743238389492035f,0.0257912278175354f,-0.21813689172267914f,0.06934498250484467f,-0.2880312204360962f,-0.06140437722206116f,0.5349156260490417f,-0.013722401112318039f,0.04626813903450966f,-0.2290988564491272f,0.00020783582294825464f,0.13289441168308258f,0.20585781335830688f,0.28432297706604004f,-0.7450746893882751f,0.11988834291696548f,0.658961296081543f,0.19091305136680603f,0.3086819648742676f,0.2059791535139084f,0.054963160306215286f,-0.16533102095127106f,-0.07385846972465515f,-0.06398880481719971f,-0.9240859150886536f,-0.6055747866630554f,0.25067564845085144f,0.32185178995132446f,-0.4556160867214203f,-0.18673011660575867f,0.09918158501386642f,-0.03769911080598831f,-0.18675589561462402f,-0.4721470773220062f,-0.1858433187007904f,0.39269882440567017f,-0.23906347155570984f,0.0606304295361042f,-0.560202956199646f,0.07417277246713638f,0.016377901658415794f,0.19920632243156433f,0.6521028876304626f,-0.018178563565015793f,-0.2809235155582428f,0.5227852463722229f,0.3596740961074829f,0.3834178149700165f,0.5097113847732544f,0.0335114449262619f,-0.2577170133590698f,0.06512288749217987f,-0.5693866014480591f,0.4544205367565155f,-1.0533349514007568f,-0.7459118962287903f,0.16554434597492218f,-0.08761220425367355f,-0.7160434126853943f,-0.35143789649009705f,0.057088106870651245f,-0.33515575528144836f,0.4683040380477905f,0.010219812393188477f,-0.4189661741256714f},
{-0.028858397156000137f,0.44088947772979736f,0.4851195514202118f,-0.8664788007736206f,-0.4277387857437134f,-0.07580001652240753f,-0.06664608418941498f,-2.4842312335968018f,0.24528555572032928f,-0.510563850402832f,-0.0875311866402626f,-0.17006856203079224f,-0.45228487253189087f,-0.17692027986049652f,-0.15650922060012817f,0.27965232729911804f,-0.39667919278144836f,-0.16932839155197144f,-0.04843476414680481f,-0.4563916325569153f,-0.4669223427772522f,0.1732223778963089f,-0.32388511300086975f,-0.04461248219013214f,-0.4462955892086029f,-0.02412569522857666f,-0.1703478842973709f,0.21152988076210022f,0.1677953600883484f,-0.1924465298652649f,0.05870687961578369f,0.38748082518577576f,-0.19057437777519226f,0.2532273828983307f,0.007023400627076626f,0.1710236519575119f,-0.1814047396183014f,0.317944198846817f,-0.11149095743894577f,-0.3259316086769104f,0.01683952659368515f,-0.03885276988148689f,-0.12738125026226044f,0.25841793417930603f,0.07785080373287201f,-0.7238079309463501f,-0.143537238240242f,-0.10343925654888153f,0.0328686386346817f,-0.7542456388473511f,-0.08560097217559814f,0.8974523544311523f,-0.4800005555152893f,1.6610444784164429f,0.08884216099977493f,0.10945500433444977f,-0.35116860270500183f,-0.21045467257499695f,-0.1641545593738556f,-0.4596138000488281f,-0.2979845404624939f,-0.004676032345741987f,-0.03814052790403366f,-0.1444568783044815f,0.15110208094120026f,-0.07162307947874069f,0.2876541316509247f,0.5254272818565369f,0.3175484240055084f,0.21900177001953125f,0.20156969130039215f,0.41590529680252075f,0.07140179723501205f,-0.14170466363430023f,0.08568531274795532f,0.18589964509010315f,-1.101861834526062f,-0.12318889796733856f,0.1423966884613037f,0.30557981133461f,0.028619391843676567f,-0.12958593666553497f,0.21812744438648224f,-0.11521223187446594f,0.11056563258171082f,-0.3128124475479126f,-0.11353973299264908f,-0.0814085602760315f,0.0543760247528553f,0.2119162529706955f,0.10412660241127014f,0.22478614747524261f,-1.6404725313186646f,-0.09452534466981888f,-2.1231741905212402f,0.1551571935415268f,-2.154726028442383f,-1.0895895957946777f,0.5495449900627136f,0.21691541373729706f,0.6987895369529724f,0.35728925466537476f,0.41774430871009827f,0.3038364350795746f,0.37368831038475037f,0.4118633568286896f,0.7189308404922485f,0.19748462736606598f,0.09099943190813065f,-0.4836066961288452f,0.17613686621189117f,0.03897080942988396f,0.29675430059432983f,0.16211971640586853f,0.19563770294189453f,0.4399293065071106f,0.04035581648349762f,0.15060880780220032f,0.18027037382125854f,0.07464321702718735f,-0.14844267070293427f,-0.6199093461036682f,-0.27816763520240784f,-0.2425476312637329f,-0.18583405017852783f,-0.6642848253250122f,0.09712465107440948f,0.38313567638397217f,0.08503223210573196f,-0.35111570358276367f,0.14694416522979736f,0.08818883448839188f,-0.0148154953494668f,0.42821842432022095f,0.21664004027843475f,0.1711561232805252f,0.07673114538192749f,0.3723618686199188f,0.4015157222747803f,-1.7989100217819214f,-0.5539854168891907f,-0.47909510135650635f,-3.1181302070617676f,-1.8393739461898804f,0.16765059530735016f,0.12485996633768082f,0.3524912893772125f,0.2635146379470825f,0.01737854816019535f,-0.39537468552589417f,0.1309763342142105f,-0.107868492603302f,0.11073701828718185f,-0.3079987168312073f,-0.7414157390594482f,-0.18923290073871613f,-0.13352158665657043f,-0.7527517080307007f,-0.9099872708320618f,-0.537804126739502f,-0.06900384277105331f,-0.4815562963485718f,0.32966524362564087f,0.0627579540014267f,0.004726314451545477f,-0.054509859532117844f,-0.21608833968639374f,0.18285110592842102f,0.35897570848464966f,0.4984362721443176f,-0.052102964371442795f,0.3237569332122803f,-0.029501913115382195f,0.09470856934785843f,0.23333656787872314f,-0.03680086135864258f,0.2526664435863495f,0.34542855620384216f,0.26575931906700134f,-0.03266061097383499f,-0.8697810769081116f,-0.5782976746559143f,-0.2651183307170868f,-0.7768693566322327f,0.8927303552627563f,-0.510073184967041f,0.2338302582502365f,-0.9172515869140625f,-0.4741533398628235f,0.8482529520988464f},
{1.6631680727005005f,-0.08733309805393219f,-0.39699119329452515f,-0.44229602813720703f,-0.12700620293617249f,-0.41111162304878235f,-0.12636350095272064f,0.1599663943052292f,-0.9394867420196533f,1.1248009204864502f,0.8730230331420898f,1.0833734273910522f,0.9313291311264038f,1.3278586864471436f,0.7135332226753235f,0.9954754710197449f,0.5059072971343994f,1.0725752115249634f,-0.23340019583702087f,-0.06536801159381866f,-0.15854987502098083f,-0.11100073903799057f,-0.25224488973617554f,-0.4001500904560089f,-0.19768026471138f,-0.07450789213180542f,-0.29555320739746094f,0.08729803562164307f,-0.12927991151809692f,0.05822962895035744f,0.13567762076854706f,-0.0036281978245824575f,-0.11493056267499924f,0.09718360006809235f,-0.022389419376850128f,0.04112410172820091f,-0.03378159552812576f,-0.09171946346759796f,-0.23026001453399658f,-0.19354262948036194f,-0.1713120937347412f,-0.151605486869812f,-0.1672775149345398f,-0.2418190985918045f,-0.2684345841407776f,-0.24205346405506134f,0.07899090647697449f,-0.049521658569574356f,-0.20599456131458282f,-1.6762293577194214f,-0.1631208211183548f,-0.03943655639886856f,-0.07685723155736923f,-0.19854311645030975f,-0.2145201563835144f,-0.15239271521568298f,-0.37167713046073914f,-0.1759449541568756f,-0.3289375603199005f,-0.4778369069099426f,-0.33406463265419006f,-0.21264690160751343f,-0.1014992892742157f,-0.1375211626291275f,-0.0796598494052887f,0.007998797111213207f,-0.11626694351434708f,0.04291185736656189f,-0.2723459005355835f,-0.03839339315891266f,-0.24116146564483643f,-0.05690740793943405f,0.19758141040802002f,0.07888597249984741f,0.02804429829120636f,0.029538460075855255f,0.23530127108097076f,0.090776726603508f,0.2544417083263397f,-0.27013257145881653f,0.024827636778354645f,-0.06301269680261612f,-0.05832204967737198f,-0.18776926398277283f,-0.006986595690250397f,-0.36847373843193054f,-0.09763035923242569f,-0.0456777848303318f,-0.26556432247161865f,0.4095310568809509f,0.8345044255256653f,0.16856220364570618f,0.44080913066864014f,0.34815019369125366f,0.03116057626903057f,0.20741035044193268f,0.3382520079612732f,0.3190763592720032f,0.1614089459180832f,-0.7405046224594116f,-0.5745689272880554f,-1.2985025644302368f,-0.6576588153839111f,-1.309117317199707f,-0.8583483695983887f,-0.843629777431488f,-0.7013450860977173f,-1.0392053127288818f,0.004317350219935179f,0.09359961003065109f,-0.0575285442173481f,0.04322942718863487f,0.012487777508795261f,0.018013248220086098f,0.04808475822210312f,0.05403180792927742f,0.018283575773239136f,0.14637622237205505f,0.14799493551254272f,0.24468518793582916f,0.1669645607471466f,0.06888630986213684f,0.03541448712348938f,0.07487212121486664f,0.06171109154820442f,0.08854556828737259f,-0.013414439745247364f,-0.046106740832328796f,0.0003863322490360588f,-0.07065281271934509f,0.11034371703863144f,0.19464604556560516f,0.09238450229167938f,-0.04025670513510704f,-0.02143966220319271f,0.09054064005613327f,-0.005926578305661678f,-0.07933112233877182f,-0.06146690621972084f,-1.1088016033172607f,0.1540573686361313f,0.5179610848426819f,0.1483021378517151f,-0.18734578788280487f,0.20844624936580658f,0.3525852560997009f,0.19843542575836182f,0.4081633985042572f,0.21456223726272583f,0.16356195509433746f,0.28723815083503723f,0.20707064867019653f,0.16693097352981567f,-0.14694128930568695f,0.04034319147467613f,0.1168513223528862f,0.03631124645471573f,0.0525415800511837f,-0.023036720231175423f,0.1572212427854538f,-0.1402214616537094f,-0.005500555504113436f,0.1007278561592102f,0.1250072568655014f,0.06639935821294785f,0.16124805808067322f,0.3029485046863556f,0.16557465493679047f,0.2743726670742035f,-0.13447296619415283f,0.07413346320390701f,0.14427624642848969f,0.3330736756324768f,0.2216489166021347f,0.2534724473953247f,0.25516170263290405f,0.180558979511261f,0.42070943117141724f,0.04241173341870308f,0.5171799063682556f,1.428497552871704f,-0.446126252412796f,-0.6405175924301147f,-0.39043891429901123f,-0.3920622169971466f,-0.6570553779602051f,-0.33954960107803345f,-0.27649804949760437f,-0.5529035329818726f,-0.3389577269554138f},
{-2.353433132171631f,0.5678648352622986f,0.17852458357810974f,0.6712325811386108f,-2.745086431503296f,0.37012121081352234f,0.4191516935825348f,0.5421326160430908f,-2.3736629486083984f,-0.5406820178031921f,-0.646769642829895f,-0.3469911813735962f,-0.6432366967201233f,-0.62247633934021f,-0.2483867108821869f,-0.4891378581523895f,-0.4273088276386261f,-0.8179631233215332f,0.5098628401756287f,-0.5167496800422668f,0.331836074590683f,0.26267629861831665f,0.42375633120536804f,0.774177610874176f,0.3198608458042145f,0.20764687657356262f,0.04407760873436928f,0.4511018693447113f,0.16409078240394592f,0.28763347864151f,0.4324214458465576f,0.36243268847465515f,0.5501231551170349f,0.4257742166519165f,0.41608375310897827f,0.28820592164993286f,0.3117276728153229f,0.010404677130281925f,0.25996342301368713f,-0.027592064812779427f,0.23188094794750214f,0.37821897864341736f,0.31105682253837585f,0.367057204246521f,-0.052100516855716705f,-1.4871513843536377f,-0.41570571064949036f,-1.6307803392410278f,-0.6492129564285278f,-1.8560360670089722f,-0.22020632028579712f,-1.2309001684188843f,-0.170366570353508f,-1.353567361831665f,0.21595525741577148f,0.19470183551311493f,0.7037754058837891f,0.21219438314437866f,0.5565445423126221f,0.13516423106193542f,0.5007153153419495f,0.5057893395423889f,0.17376506328582764f,0.16620215773582458f,-0.1862916797399521f,0.3564276695251465f,0.278684139251709f,0.06973323225975037f,0.05939327925443649f,0.634077250957489f,0.4500369131565094f,-0.09351927042007446f,0.26676324009895325f,0.20557060837745667f,0.4997086524963379f,0.2132074236869812f,0.401528924703598f,0.3450717031955719f,0.4347943961620331f,-0.15174053609371185f,0.00920379813760519f,-0.6965405941009521f,-0.22903946042060852f,-0.8675575256347656f,-0.21440647542476654f,-1.1570109128952026f,-0.3423043489456177f,-0.5366434454917908f,-0.20737610757350922f,-0.5143588781356812f,0.9133238792419434f,-0.5310009121894836f,-0.6531296372413635f,0.08313363045454025f,0.7854329347610474f,-0.32024356722831726f,-0.325111448764801f,-0.3977014720439911f,1.0830127000808716f,0.28356102108955383f,-0.051616933196783066f,0.3695079982280731f,0.22844462096691132f,0.3963813781738281f,0.017289618030190468f,0.23795275390148163f,0.2688896358013153f,0.09295082837343216f,0.061745934188365936f,-0.6275855898857117f,-0.03690085932612419f,-0.11454205214977264f,0.08664299547672272f,0.04895789921283722f,-0.11236581951379776f,-0.1264178603887558f,0.22305065393447876f,-0.2444283813238144f,-0.36313629150390625f,-0.5171486735343933f,-0.27290478348731995f,-0.20966529846191406f,-0.3057357370853424f,-0.14165879786014557f,-0.23854975402355194f,-0.13672803342342377f,-0.049293823540210724f,-0.24198798835277557f,-0.13249801099300385f,-0.21821247041225433f,-0.4405730664730072f,-0.03776424005627632f,-0.22431699931621552f,-0.26465728878974915f,-0.17509587109088898f,0.4495810866355896f,-0.15689243376255035f,0.07768300920724869f,0.0408155582845211f,-0.31992581486701965f,0.09034227579832077f,0.6158013939857483f,0.05842748284339905f,0.4668029844760895f,-0.26490601897239685f,-0.4307624101638794f,-0.2072640061378479f,-0.2384553700685501f,-0.5064735412597656f,-0.7019745111465454f,-0.2820330262184143f,-0.1835428923368454f,-0.386218786239624f,-0.04310347139835358f,-0.1364831030368805f,-0.009613036178052425f,-0.20636333525180817f,-0.2460506409406662f,0.10030580312013626f,0.12696564197540283f,-0.3101276755332947f,-0.1483832597732544f,-0.3873252868652344f,-0.15037207305431366f,-0.4095333516597748f,-0.2498619258403778f,0.049216628074645996f,-0.062204476445913315f,-0.09759069234132767f,-0.43257948756217957f,-0.06424538046121597f,0.10264803469181061f,0.18933163583278656f,0.45440125465393066f,0.2624024748802185f,0.4460250735282898f,0.368294358253479f,0.5436440110206604f,0.4087452292442322f,0.5494747757911682f,-1.2881710529327393f,0.44660070538520813f,0.6392126679420471f,0.633176326751709f,-1.7994024753570557f,0.5891353487968445f,0.8661544919013977f,0.5941958427429199f,-1.88593327999115f,-0.942115068435669f},
{0.2871731221675873f,-0.251472532749176f,-1.22466242313385f,-0.2038622945547104f,-1.0397101640701294f,-0.13748691976070404f,1.1781281232833862f,0.21399056911468506f,-0.23717300593852997f,-0.4279989004135132f,-0.16692368686199188f,-0.27606067061424255f,-0.17909590899944305f,-0.41190093755722046f,-0.23314842581748962f,-0.40629568696022034f,-0.14465583860874176f,-0.3205316364765167f,0.24618753790855408f,0.346741646528244f,0.1732865273952484f,-0.01341793593019247f,0.22173234820365906f,0.0792854055762291f,0.1884264349937439f,-0.0679791271686554f,-0.04169367253780365f,-0.18258453905582428f,-0.10425089299678802f,-0.20591144263744354f,-0.09142111986875534f,0.12949024140834808f,0.27398157119750977f,-0.11071314662694931f,-0.25523197650909424f,-0.4164104461669922f,-0.19518347084522247f,-0.12281273305416107f,-0.18325825035572052f,-0.13907259702682495f,-0.2517113983631134f,-0.3346371054649353f,-0.23526696860790253f,-0.17456428706645966f,-0.35159575939178467f,0.010495128110051155f,0.04798668622970581f,0.09745270013809204f,0.05080440267920494f,-1.1651220321655273f,0.06683281809091568f,-0.15954282879829407f,-0.08778930455446243f,-0.24958452582359314f,-0.13843761384487152f,-0.09704280644655228f,-0.3588327169418335f,-0.05239790305495262f,-0.030311914160847664f,-0.3741718530654907f,-0.1216464415192604f,-0.20755848288536072f,-0.2683398723602295f,0.37684503197669983f,0.08893118798732758f,0.23736022412776947f,0.2229904681444168f,0.0817585363984108f,0.09827771037817001f,0.5194015502929688f,0.006314174272119999f,0.04970039427280426f,0.22659146785736084f,0.4075356721878052f,0.2620917558670044f,0.04444127157330513f,0.2978486120700836f,0.3739500045776367f,0.26697418093681335f,0.34015852212905884f,0.38391411304473877f,0.705521821975708f,0.48205241560935974f,0.5103861689567566f,0.40288588404655457f,0.17745834589004517f,0.14287371933460236f,0.5209179520606995f,0.34817415475845337f,0.7782894372940063f,0.37435996532440186f,0.21868519484996796f,-0.041013509035110474f,0.44046005606651306f,-0.09505030512809753f,0.17039033770561218f,-2.0066585540771484f,-2.8433351516723633f,-2.5787060260772705f,0.292863130569458f,0.17024371027946472f,0.5912972092628479f,0.46240684390068054f,0.47476232051849365f,0.37698325514793396f,0.5946893692016602f,0.3956761360168457f,0.1682419329881668f,0.06264111399650574f,0.016164934262633324f,-0.01210162602365017f,0.04348427802324295f,0.1311366707086563f,-0.13555951416492462f,0.10401368141174316f,-0.24098938703536987f,0.025703059509396553f,0.11416235566139221f,0.07798314839601517f,0.15834903717041016f,0.10901940613985062f,0.18193094432353973f,0.29542192816734314f,0.21585805714130402f,0.03024580329656601f,-0.020227670669555664f,0.2192220836877823f,-0.24089184403419495f,0.13988114893436432f,0.2566649913787842f,0.21946153044700623f,0.06311783939599991f,-0.026444947347044945f,0.20089024305343628f,-0.21827206015586853f,0.046653635799884796f,0.1690940111875534f,0.2915056347846985f,0.3128999173641205f,-1.2861239910125732f,0.20536845922470093f,0.17049367725849152f,0.11740700900554657f,-0.11988645046949387f,0.31694573163986206f,0.09489823877811432f,0.21147876977920532f,0.2841367721557617f,0.40311893820762634f,-0.01921655982732773f,0.3900400996208191f,0.12414798885583878f,0.08052552491426468f,0.177893728017807f,-0.15482860803604126f,-0.11608317494392395f,-0.07229970395565033f,-0.1988389790058136f,-0.08325731009244919f,0.5584380626678467f,-0.2568242847919464f,-0.5734784603118896f,-0.37489303946495056f,-0.41228923201560974f,-0.6321284770965576f,-0.3192722499370575f,-0.8803364634513855f,-0.2036597728729248f,-0.028310813009738922f,0.09065285325050354f,-0.3018365204334259f,-0.6007881164550781f,-0.4289940595626831f,-0.5806692838668823f,-0.14978641271591187f,-0.9496222138404846f,-0.15694835782051086f,-0.05230554938316345f,-0.20030979812145233f,-0.10248532146215439f,-2.03560733795166f,-0.04146742820739746f,-0.9552263021469116f,-0.6069616079330444f,-1.0155298709869385f,-0.2788621485233307f,0.42375412583351135f,0.8479691743850708f,0.9013851881027222f,0.5666435956954956f},
{-0.4533122181892395f,-0.05598292499780655f,-0.3434138000011444f,0.1751837432384491f,-0.5944227576255798f,-0.34352099895477295f,0.36220356822013855f,0.0038249106146395206f,5.567718982696533f,-0.1318908929824829f,-0.1597241312265396f,-0.2934662103652954f,0.054652757942676544f,-0.24118246138095856f,-0.0808081179857254f,-0.5244981646537781f,-0.2640315294265747f,0.021094325929880142f,-0.08749932050704956f,-0.06754439324140549f,0.08727304637432098f,0.07728379964828491f,-0.04905420169234276f,0.04590597376227379f,-0.3164646625518799f,0.09741676598787308f,0.02393321506679058f,-0.10147246718406677f,-0.04827290028333664f,-0.19619505107402802f,0.2559507191181183f,0.07621266692876816f,0.06890997290611267f,-0.0985526442527771f,-0.023202229291200638f,0.18699555099010468f,-0.14144834876060486f,0.14985574781894684f,0.3068396747112274f,-0.07443884760141373f,-0.04902319610118866f,0.10454851388931274f,-0.09958887100219727f,0.1811242699623108f,-0.11289821565151215f,0.024995695799589157f,0.17250767350196838f,0.08564377576112747f,0.013143784366548061f,-1.2494243383407593f,-0.14933067560195923f,0.05799201875925064f,-0.002381357830017805f,0.17451611161231995f,0.17219141125679016f,0.03716893866658211f,0.19425977766513824f,0.22265256941318512f,0.04392075538635254f,-0.2211255580186844f,-0.11553647369146347f,0.2502984404563904f,0.03010876663029194f,0.35090529918670654f,0.3981874883174896f,0.2665996849536896f,0.43464404344558716f,0.24243398010730743f,0.48116379976272583f,0.23572956025600433f,0.3792334198951721f,0.5673080086708069f,0.20952606201171875f,0.30289673805236816f,0.22114546597003937f,0.392222136259079f,0.5271360278129578f,0.2111688107252121f,0.4177204668521881f,0.12791666388511658f,0.43907734751701355f,-0.59055095911026f,-0.6157907247543335f,-0.5244318246841431f,-0.41975510120391846f,-0.7031761407852173f,-0.5303971767425537f,-0.6959759593009949f,-0.23144273459911346f,-1.3253600597381592f,0.029636213555932045f,-0.40469852089881897f,-0.40850314497947693f,-0.12523192167282104f,0.15213876962661743f,-0.1183580607175827f,-1.2685165405273438f,-1.6971575021743774f,-1.2136274576187134f,0.37298181653022766f,0.19356569647789001f,-0.025658510625362396f,0.037283144891262054f,0.07781993597745895f,-0.08786141872406006f,-0.04724977910518646f,0.00826349388808012f,0.2269384264945984f,0.05281909182667732f,0.12658296525478363f,0.09606614708900452f,0.12315886467695236f,-0.1521608829498291f,-0.02595060132443905f,-0.15845437347888947f,0.09369970113039017f,-0.005615133326500654f,0.0769326388835907f,0.14807221293449402f,-0.08842024207115173f,0.01084704790264368f,0.09324032068252563f,0.0382525660097599f,-0.053626466542482376f,-0.1401827335357666f,0.06974513083696365f,-0.030614769086241722f,0.11212146282196045f,0.046352267265319824f,-0.4141601026058197f,-0.23049598932266235f,-0.07059793919324875f,-0.06334417313337326f,-0.07450792193412781f,-0.1275610327720642f,0.38244807720184326f,0.3066525161266327f,0.007939977571368217f,0.0886969268321991f,-1.0544848442077637f,0.03583132103085518f,0.1420319527387619f,0.029822232201695442f,0.28640690445899963f,0.20686697959899902f,-0.06494388729333878f,0.2608720362186432f,-0.0007553758332505822f,0.17095309495925903f,-0.4521651864051819f,-0.05111648514866829f,-0.03253037482500076f,0.03838896006345749f,-0.35541650652885437f,-0.2007896453142166f,-0.2614421844482422f,-0.20769962668418884f,-0.3852466642856598f,-0.16640761494636536f,-0.25282859802246094f,-0.4333842098712921f,-0.38640135526657104f,-0.383792519569397f,-0.3356543183326721f,-0.36398470401763916f,-0.17939059436321259f,-0.7430999279022217f,-0.38018789887428284f,-0.5999283790588379f,-0.6357170343399048f,-0.3120522201061249f,0.59660804271698f,0.6309115290641785f,0.8905817866325378f,0.45477014780044556f,1.049596905708313f,0.4114024043083191f,0.600333571434021f,0.36891743540763855f,-0.38214051723480225f,-0.6626312136650085f,-0.37021404504776f,-0.26083651185035706f,-0.420457124710083f,-1.0170027017593384f,-0.4773060381412506f,0.5559920072555542f,0.39385849237442017f,-0.22592812776565552f,0.18772757053375244f},
{-0.47653326392173767f,0.14761976897716522f,0.0621928833425045f,-0.3387857973575592f,0.25353288650512695f,-0.39042648673057556f,0.295244038105011f,0.052878692746162415f,-0.03739925101399422f,0.11406976729631424f,0.017321426421403885f,0.22056235373020172f,-0.23065423965454102f,0.17973440885543823f,-0.012707870453596115f,0.15178869664669037f,-0.1468602865934372f,0.4750461280345917f,-0.1574811339378357f,0.008488859049975872f,0.34790459275245667f,0.30564406514167786f,0.3948073089122772f,0.08923148363828659f,0.1565341353416443f,-0.01365586742758751f,0.2396559715270996f,-0.04937391355633736f,0.1539689302444458f,-0.0007182935951277614f,0.1022890955209732f,-0.11186832934617996f,0.083087258040905f,-0.22219033539295197f,0.03225383535027504f,0.1804530769586563f,-0.4050108790397644f,0.049097731709480286f,-0.05769479274749756f,0.00844135507941246f,0.05562124773859978f,-0.182232066988945f,-0.262571781873703f,-0.2810389995574951f,-0.09700366109609604f,0.23351630568504333f,0.1729699820280075f,0.3528422713279724f,0.2793976664543152f,-0.354315847158432f,0.15485715866088867f,0.48329994082450867f,0.08984790742397308f,0.5824070572853088f,-0.1785007268190384f,0.030119389295578003f,0.09744206070899963f,-0.036501482129096985f,-0.06846705824136734f,0.10784391313791275f,-0.09802569448947906f,-0.18273144960403442f,-0.12111090123653412f,-0.9142060279846191f,-0.1973765343427658f,-0.358702152967453f,-0.5292544960975647f,-0.8562610149383545f,-0.5830925107002258f,-0.6660434007644653f,-0.5377763509750366f,-0.5840799808502197f,0.044720880687236786f,0.3559376001358032f,0.39115121960639954f,0.19850485026836395f,0.39628851413726807f,0.23736952245235443f,0.26327601075172424f,0.1260102540254593f,0.4441683888435364f,-0.10578557103872299f,0.10662446171045303f,0.04482278227806091f,-0.011942406184971333f,0.3443177342414856f,0.04083315655589104f,-0.015193981118500233f,-0.3279969394207001f,0.15576371550559998f,-1.1276341676712036f,-1.0153372287750244f,0.1075582504272461f,-0.11196409910917282f,-0.737488865852356f,0.1073881983757019f,0.6908731460571289f,-0.28507834672927856f,-0.10584992170333862f,0.19147354364395142f,-0.09795462340116501f,-0.2910931706428528f,-0.16406430304050446f,-0.551620364189148f,-0.12815430760383606f,-0.4308360517024994f,-0.34185969829559326f,0.010718123987317085f,-0.06516280770301819f,-0.10486716777086258f,0.00852835364639759f,-0.11531983315944672f,-0.19268549978733063f,-0.11326637119054794f,-0.28798019886016846f,-0.24642427265644073f,0.06728534400463104f,0.2198585420846939f,0.12691715359687805f,0.008356152102351189f,0.3069603741168976f,0.062032654881477356f,0.1742900013923645f,-0.12529075145721436f,0.04053356871008873f,0.12379923462867737f,-0.051411040127277374f,-0.005464601330459118f,-0.16249144077301025f,0.22013218700885773f,0.07832910120487213f,-0.0771171823143959f,-0.2759005129337311f,-0.10766524821519852f,0.19332794845104218f,-0.10785660892724991f,-0.35890451073646545f,-0.5908686518669128f,-0.2885357737541199f,-1.391858696937561f,-0.33047759532928467f,-0.5201296210289001f,-0.37534984946250916f,-0.11933647841215134f,0.09627891331911087f,-0.09960407018661499f,-0.05880028009414673f,0.06231838837265968f,-0.10294603556394577f,0.11507797986268997f,-0.015749892219901085f,-0.06254404783248901f,0.10000766068696976f,0.8272339701652527f,0.5624406933784485f,0.9625767469406128f,0.6666953563690186f,1.0309466123580933f,0.6353458166122437f,0.569188117980957f,0.45634856820106506f,0.8273745179176331f,0.15362554788589478f,0.052589185535907745f,-0.022925378754734993f,0.1863916963338852f,-0.26397934556007385f,0.022605789825320244f,-0.14083322882652283f,0.16381411254405975f,0.2006273865699768f,-0.08227740228176117f,-0.11285076290369034f,-0.3583002984523773f,0.04682707414031029f,-0.4171702563762665f,-0.21832074224948883f,-0.28503334522247314f,-0.4475783705711365f,-0.12672697007656097f,-0.07961249351501465f,-0.09356992691755295f,-0.1641434133052826f,-0.4985206425189972f,0.3780726194381714f,-0.5146170258522034f,-0.9653738141059875f,-0.04643690586090088f,-0.2971007823944092f,0.2409147024154663f},
{-0.2651948928833008f,-0.5094184875488281f,-1.1167480945587158f,-0.45771685242652893f,0.6425710916519165f,-0.31962868571281433f,0.15429653227329254f,-0.4221145510673523f,0.5512329936027527f,0.51710045337677f,0.09836410731077194f,0.28447020053863525f,0.06128087639808655f,0.5752358436584473f,-0.22587646543979645f,0.22421422600746155f,0.004076882731169462f,0.19103583693504333f,0.21111465990543365f,-0.5367996692657471f,-0.275150865316391f,-0.1830894649028778f,-0.17930616438388824f,-0.5742572546005249f,-0.5178771018981934f,0.012758473865687847f,-0.4287978410720825f,0.17231327295303345f,0.1315436065196991f,-0.3823873698711395f,-0.1961166262626648f,-0.033595163375139236f,-0.18427720665931702f,0.2557184100151062f,-0.043165840208530426f,0.1683722287416458f,-0.9002900123596191f,-0.39757004380226135f,0.23762446641921997f,-0.4924938976764679f,-0.4447253942489624f,-0.19320696592330933f,-0.01251639798283577f,0.26257389783859253f,-0.5867460370063782f,0.12988588213920593f,-0.156520813703537f,-0.1850171834230423f,0.11528408527374268f,-0.36806461215019226f,0.26463860273361206f,0.7098727822303772f,-0.4521333873271942f,1.3611100912094116f,-0.5600715279579163f,-0.06019928306341171f,-0.21952460706233978f,-0.15942172706127167f,-0.26647618412971497f,-0.322409063577652f,-0.41575002670288086f,-0.1910485327243805f,-1.0744380950927734f,-0.6148678064346313f,0.03171514347195625f,-0.002614507684484124f,-0.0066328817047178745f,0.19781331717967987f,-0.381284236907959f,-0.5297182202339172f,-0.15033265948295593f,0.10844192653894424f,-0.8349505066871643f,0.18346022069454193f,0.19395825266838074f,-0.10580812394618988f,-0.7548977136611938f,0.03052366152405739f,-0.33302730321884155f,-0.4799966514110565f,-0.4975653290748596f,0.7080397009849548f,0.36988210678100586f,0.6453183889389038f,0.4227903187274933f,0.013817107304930687f,-0.23480315506458282f,0.6753460764884949f,-0.15776129066944122f,0.21682208776474f,-2.141690492630005f,0.11037330329418182f,0.014760864898562431f,0.048261478543281555f,-2.466701030731201f,0.26697227358818054f,0.3155079782009125f,-0.5949483513832092f,-2.4143457412719727f,0.1828065812587738f,0.02030595764517784f,-0.3201790153980255f,-0.7304175496101379f,-1.2231947183609009f,0.03630184382200241f,-1.2081230878829956f,-0.349190890789032f,-0.7768365144729614f,0.3216296434402466f,-0.023574868217110634f,0.5443224906921387f,0.15287086367607117f,0.18293438851833344f,-0.17220108211040497f,0.5576315522193909f,-0.02678927406668663f,0.2701672315597534f,0.18964697420597076f,-0.08212868869304657f,-0.5334468483924866f,0.36229056119918823f,0.13436700403690338f,0.1544031947851181f,0.029273802414536476f,0.4127173125743866f,-0.0540190264582634f,0.29782161116600037f,0.29365018010139465f,0.3985358774662018f,-0.6002072095870972f,0.14278995990753174f,-0.0931815579533577f,0.44701525568962097f,0.4442589282989502f,0.3601296544075012f,0.10211988538503647f,-0.021627165377140045f,-1.733912706375122f,0.07219166308641434f,-1.0252790451049805f,-1.2040785551071167f,-1.0238922834396362f,-0.7647249698638916f,-1.0727050304412842f,0.4056397080421448f,0.3370933532714844f,0.03365270420908928f,0.3255433142185211f,0.38440942764282227f,0.06724998354911804f,0.4927150309085846f,0.26310035586357117f,0.11664863675832748f,0.427255779504776f,-0.43993207812309265f,-0.07090641558170319f,0.13082346320152283f,-0.0011148520279675722f,-0.3777904808521271f,-0.7702682614326477f,0.06006786972284317f,0.39893773198127747f,0.6129236221313477f,0.5955645442008972f,0.455940306186676f,0.3766803741455078f,0.22817322611808777f,-0.18388579785823822f,0.2930988371372223f,-0.07529397308826447f,0.2529218792915344f,-1.3249469995498657f,-0.756919264793396f,-0.29418954253196716f,-1.2430161237716675f,-0.2546578645706177f,-0.08800237625837326f,-0.4930727481842041f,0.11848689615726471f,-0.35381701588630676f,0.026143811643123627f,-0.8422988653182983f,-0.4913352131843567f,-1.3662867546081543f,0.6296319365501404f,0.019234003499150276f,-0.07202429324388504f,-0.6042730212211609f,0.3132660686969757f,0.8674396872520447f},
{-0.48849424719810486f,0.10079626739025116f,1.1862045526504517f,-0.039276495575904846f,-0.09738364070653915f,-0.1633029729127884f,-0.6975318789482117f,-0.0002327761030755937f,-0.04791218787431717f,-0.06262695789337158f,-0.26407870650291443f,-0.12393581867218018f,-0.08557164669036865f,-0.11321030557155609f,-0.16479186713695526f,-0.034060049802064896f,-0.09490558505058289f,-0.0037834513932466507f,-0.19933632016181946f,-0.15400953590869904f,-0.09103719890117645f,-0.27323949337005615f,-0.3044978380203247f,-0.20799951255321503f,0.06503331661224365f,-0.09924472868442535f,-0.044711582362651825f,1.3882728815078735f,0.8526752591133118f,1.523848295211792f,1.206965684890747f,1.3724197149276733f,0.9382094740867615f,1.2893519401550293f,0.9115229249000549f,1.5064444541931152f,-0.13175611197948456f,0.09767729789018631f,-0.09753289818763733f,-0.20485898852348328f,-0.06636644899845123f,-0.15256555378437042f,0.0141256432980299f,-0.028209475800395012f,0.10172786563634872f,0.04236983507871628f,-0.10529982298612595f,-0.10714418441057205f,-0.3707822561264038f,-1.2601503133773804f,-0.19881193339824677f,-0.43657615780830383f,-0.26393401622772217f,0.09846619516611099f,-0.2081718146800995f,-0.17923365533351898f,-0.2340458631515503f,-0.20702528953552246f,-0.20614378154277802f,-0.16722525656223297f,-0.17892123758792877f,-0.29384416341781616f,-0.10352130979299545f,-0.33340945839881897f,-0.24723219871520996f,-0.2813681960105896f,-0.22492197155952454f,-0.2958085238933563f,-0.2820940315723419f,-0.022759387269616127f,-0.23167496919631958f,-0.34227681159973145f,-0.11148271709680557f,0.02495948038995266f,0.05051099881529808f,-0.06867184489965439f,-0.15685485303401947f,-0.06767340004444122f,-0.0692344456911087f,-0.2063167840242386f,-0.049984704703092575f,-0.20805008709430695f,-0.10262451320886612f,-0.2121080905199051f,-0.10194984823465347f,-0.15142549574375153f,-0.07281842827796936f,-0.15047843754291534f,-0.2123754918575287f,-0.10648200660943985f,0.05493193119764328f,0.14434018731117249f,0.9676693081855774f,0.35730525851249695f,0.13617268204689026f,-0.09392071515321732f,-0.20727652311325073f,0.4073128402233124f,0.09816566109657288f,0.1657213419675827f,0.23051534593105316f,0.03378228470683098f,0.2633731961250305f,0.10756628960371017f,0.1189083606004715f,0.215025395154953f,0.19939064979553223f,0.0002507614262867719f,0.08633607625961304f,-0.06810016930103302f,-0.0181192047894001f,0.09380944818258286f,0.1275852918624878f,0.03368821740150452f,0.07734555006027222f,0.14042048156261444f,-0.031120486557483673f,-1.1711345911026f,-0.736489474773407f,-1.0054361820220947f,-0.6115257740020752f,-2.023885726928711f,-0.6396021246910095f,-0.987552285194397f,-0.8481234908103943f,-1.140183925628662f,-0.01427869126200676f,0.14072346687316895f,-0.18937645852565765f,-0.19594618678092957f,0.24284712970256805f,0.149434894323349f,0.29090404510498047f,0.13456296920776367f,0.14638423919677734f,0.13274386525154114f,0.07131873071193695f,-0.06738940626382828f,0.2916533946990967f,-1.116187572479248f,0.3454088568687439f,0.05549091845750809f,0.4083491861820221f,0.2737710475921631f,0.2539951205253601f,0.07807477563619614f,-0.15614202618598938f,0.2926673889160156f,0.24618254601955414f,0.3291124999523163f,0.21124319732189178f,0.1843169927597046f,0.0966242179274559f,0.2522306740283966f,0.14829309284687042f,0.003825005842372775f,0.32230594754219055f,0.15492834150791168f,0.2878326177597046f,0.5904093384742737f,0.18009717762470245f,0.3000396490097046f,0.17388583719730377f,0.2177267223596573f,-0.08317393064498901f,0.17842550575733185f,0.03563452512025833f,0.09143996238708496f,0.41785675287246704f,-0.09203050285577774f,0.09949634224176407f,0.08695844560861588f,-0.08727291226387024f,-0.07732057571411133f,0.0991353914141655f,-0.018652092665433884f,-0.050511084496974945f,0.11303310096263885f,0.23500443994998932f,-0.011423695832490921f,-0.3511614501476288f,-0.3409956097602844f,1.3435484170913696f,-0.4418518543243408f,-0.404543399810791f,-0.29698699712753296f,-0.5929179787635803f,-0.5535786747932434f,-0.30921465158462524f,-0.21939799189567566f},
{-1.4342834949493408f,0.04903970658779144f,0.39916321635246277f,0.07685525715351105f,-1.5508445501327515f,0.04815789684653282f,0.9125081896781921f,0.05765962228178978f,-1.6395578384399414f,-0.18485179543495178f,-0.24844565987586975f,-0.8826261758804321f,-0.3868420124053955f,-1.0842740535736084f,-0.5816876292228699f,-0.9841555953025818f,-0.18138904869556427f,-0.39166679978370667f,-0.010137809440493584f,0.14740148186683655f,0.11881934106349945f,0.45170480012893677f,-0.05758495256304741f,0.3039570450782776f,-0.11242222040891647f,0.15879559516906738f,0.30814364552497864f,0.2168290913105011f,0.5629412531852722f,0.3765270709991455f,0.24012160301208496f,0.3509858250617981f,0.24199028313159943f,0.14093148708343506f,0.4617883563041687f,0.2737431526184082f,0.09588394314050674f,0.4089783728122711f,0.07553752511739731f,0.02278151735663414f,-0.00735351862385869f,0.0889430046081543f,-0.49064669013023376f,0.1778712123632431f,0.17548169195652008f,-0.17125172913074493f,-0.2722843289375305f,-0.14129827916622162f,-0.02806415595114231f,-1.3341211080551147f,-0.34222182631492615f,-0.5280351638793945f,0.09258466958999634f,-0.005595841445028782f,0.3790075480937958f,0.28244996070861816f,0.19374850392341614f,0.4825699031352997f,0.0885431170463562f,0.17655500769615173f,-0.5007642507553101f,0.22709187865257263f,0.30216628313064575f,0.49790090322494507f,0.6283234357833862f,0.4822770059108734f,0.26304545998573303f,0.6397185325622559f,0.6210745573043823f,0.08100258558988571f,0.07531468570232391f,0.6371995806694031f,-0.04705803841352463f,0.04556528106331825f,0.1653660535812378f,0.17830073833465576f,-0.19894737005233765f,0.08301952481269836f,-0.16167210042476654f,0.1930803805589676f,0.010045739822089672f,-0.37686336040496826f,-0.3286232650279999f,-1.287124514579773f,-0.06901534646749496f,-0.8315464854240417f,-0.5656845569610596f,-0.8613836169242859f,-0.39234626293182373f,-0.10643750429153442f,-0.1569882184267044f,0.38874486088752747f,0.13121873140335083f,-0.6314621567726135f,1.4669039249420166f,-0.2564718723297119f,0.5994586944580078f,-0.3318403959274292f,0.049408040940761566f,0.6978099346160889f,0.34079644083976746f,0.3230268657207489f,0.06863223016262054f,0.049441371113061905f,0.22779010236263275f,0.49746644496917725f,0.12594883143901825f,0.4655318558216095f,-0.16469666361808777f,-0.1913038194179535f,-0.02853373996913433f,-0.24978764355182648f,-0.05937282741069794f,-0.1902964860200882f,-0.31786760687828064f,-0.12008403986692429f,-0.33821403980255127f,-0.07991480827331543f,-0.2995589077472687f,-0.294686883687973f,-0.13098210096359253f,-0.24159081280231476f,-0.10349041223526001f,-0.443064421415329f,-0.046027060598134995f,-0.35014691948890686f,-0.003694143844768405f,-0.10922782868146896f,-0.20937983691692352f,-0.4950462281703949f,-0.11237236857414246f,-0.10413729399442673f,-0.17502598464488983f,0.13069605827331543f,0.002163379220291972f,0.44158414006233215f,0.4044954776763916f,0.05305955186486244f,0.32714933156967163f,-0.9154314994812012f,0.14096446335315704f,0.019791724160313606f,0.1286054253578186f,0.4193144738674164f,-0.043057218194007874f,0.174028679728508f,-0.0038928845897316933f,-0.011210937984287739f,0.19938701391220093f,0.11168204247951508f,-0.05147404596209526f,-0.18866808712482452f,-0.02321736514568329f,-0.5340169668197632f,-0.03350848704576492f,-0.41353949904441833f,-0.017097409814596176f,-0.6050963997840881f,-0.35279902815818787f,-0.44314903020858765f,-0.11319462954998016f,-0.7184501886367798f,-0.11899643391370773f,-0.02007778361439705f,0.0756685882806778f,-0.0920109897851944f,0.18319037556648254f,-0.29140010476112366f,0.04934164509177208f,-0.14228050410747528f,-0.12831944227218628f,0.14253678917884827f,-0.008963712491095066f,0.19693239033222198f,-0.004250772297382355f,0.3826167583465576f,0.0568418949842453f,0.28466343879699707f,0.013791739009320736f,0.47997957468032837f,-1.2955107688903809f,0.277633398771286f,0.07316689938306808f,0.41257715225219727f,-1.1765990257263184f,0.36576977372169495f,0.2221193164587021f,0.34433868527412415f,-1.140882968902588f,-0.46370089054107666f},
{-0.14426571130752563f,-0.04485354572534561f,-0.19768045842647552f,-0.04623185470700264f,-0.28090211749076843f,0.0534491203725338f,-2.2673869132995605f,0.004424283746629953f,-0.0888562798500061f,0.007885688915848732f,0.027862604707479477f,-0.12918387353420258f,-0.0483504943549633f,-0.11788099259138107f,-0.16570647060871124f,-0.29889270663261414f,-0.09872216731309891f,-0.14707651734352112f,0.05663589388132095f,0.31593042612075806f,0.10292329639196396f,0.16032609343528748f,0.08824726939201355f,0.08721813559532166f,-0.0015543894842267036f,0.1461273431777954f,0.07712091505527496f,-0.0519055537879467f,0.11745833605527878f,0.1061282679438591f,0.021563569083809853f,-0.03963256999850273f,0.010039626620709896f,-0.1067887395620346f,-0.02542092651128769f,0.013331528753042221f,-0.016689956188201904f,0.07342442870140076f,-0.03834321349859238f,-0.08293841034173965f,-0.1256517618894577f,-0.1135045513510704f,-0.3084361255168915f,0.03299739956855774f,-0.10204636305570602f,-0.08411704748868942f,0.11928324401378632f,0.20040741562843323f,-0.03636261075735092f,-1.5005508661270142f,0.01944877579808235f,-0.12400954216718674f,-0.08046623319387436f,-0.043421488255262375f,0.105116106569767f,0.2690635919570923f,0.13924691081047058f,0.22677327692508698f,0.0756109282374382f,0.12973237037658691f,0.03626241534948349f,0.17488306760787964f,0.04553326591849327f,-1.8023991584777832f,0.461696058511734f,0.5078584551811218f,-1.6311968564987183f,0.8445577621459961f,0.28561145067214966f,-0.7747802138328552f,0.6536233425140381f,0.685187578201294f,0.07322721928358078f,0.33423474431037903f,0.20870932936668396f,0.23257140815258026f,0.04969291761517525f,0.1414353996515274f,0.09764416515827179f,0.4171454906463623f,0.15953156352043152f,0.023701336234807968f,0.27719777822494507f,-0.04253040626645088f,0.13500039279460907f,0.10366174578666687f,-0.07540643960237503f,-0.06653596460819244f,0.08106038719415665f,0.3103547990322113f,-0.1504322737455368f,0.0522148571908474f,0.14514201879501343f,-0.20658999681472778f,-0.02174358442425728f,0.08521673828363419f,-1.0795958042144775f,0.13897137343883514f,0.05538824200630188f,0.29310357570648193f,0.0667763203382492f,0.1189173087477684f,0.15862809121608734f,0.07877761870622635f,0.06985542178153992f,-0.10050075501203537f,0.023757848888635635f,0.10894379019737244f,-0.011708938516676426f,-0.09435512870550156f,-0.11498836427927017f,0.02431296370923519f,-0.13260561227798462f,-0.12875427305698395f,-0.2671964168548584f,-0.287884384393692f,-0.19188974797725677f,0.10913596302270889f,-0.006093348376452923f,0.15277571976184845f,-0.013521450571715832f,0.02433680184185505f,-0.015580933541059494f,-0.1071036085486412f,-0.15505754947662354f,-0.06708090007305145f,0.07150785624980927f,-0.03331612050533295f,-0.09969174861907959f,0.05788038298487663f,-0.05389706790447235f,-0.13415127992630005f,-0.26445290446281433f,-0.12476322799921036f,-0.019076550379395485f,0.044787369668483734f,0.08310112357139587f,-0.0374499075114727f,0.21413742005825043f,-1.0523515939712524f,0.014050446450710297f,-0.25922104716300964f,-0.0983232632279396f,-0.009911837056279182f,0.1682814061641693f,0.054300110787153244f,0.03646222874522209f,0.20498815178871155f,-0.014762386679649353f,0.10074787586927414f,-0.10501565784215927f,-0.11157803237438202f,-0.09799280017614365f,1.3121767044067383f,-0.151827871799469f,-0.4016948640346527f,1.3657513856887817f,-0.8332790732383728f,-0.22529929876327515f,1.1345571279525757f,-0.8145582675933838f,-1.1043444871902466f,0.1450587660074234f,-0.05641954392194748f,0.03856036067008972f,0.18839667737483978f,0.03613339737057686f,0.002681185957044363f,-0.14990529417991638f,0.05328810214996338f,-0.08874768018722534f,0.0761018916964531f,-0.015162253752350807f,0.06442625820636749f,0.06294585019350052f,0.03597883880138397f,-0.0024596736766397953f,-0.06120320037007332f,-0.0390019528567791f,0.20614421367645264f,-0.27748316526412964f,-0.14005687832832336f,-0.18942178785800934f,-0.2419707179069519f,-0.07769165933132172f,-0.11179540306329727f,-0.7162569165229797f,-0.026173990219831467f,-0.1995827853679657f,-0.511573314666748f},
{0.09344018250703812f,-0.5719391107559204f,0.22597721219062805f,0.48502230644226074f,0.1661103516817093f,0.54876309633255f,-0.7860651016235352f,0.3062517046928406f,1.694232702255249f,0.16157937049865723f,0.144196555018425f,0.25361958146095276f,-0.07967502623796463f,-0.0631357729434967f,-0.24632887542247772f,0.25760743021965027f,0.31640520691871643f,-0.22486715018749237f,0.2598893940448761f,0.2800922095775604f,0.3956119120121002f,0.30643051862716675f,0.20651750266551971f,0.0062062847428023815f,0.31989890336990356f,0.1870225965976715f,0.4539181590080261f,0.07954384386539459f,-0.013899793848395348f,-0.014747923240065575f,-0.07661476731300354f,0.5571398735046387f,-0.3367024064064026f,0.5822704434394836f,0.6147910356521606f,0.39141279458999634f,0.16472962498664856f,-0.5119497776031494f,-0.26833704113960266f,-0.5341828465461731f,-0.05048326775431633f,0.016115160658955574f,-0.07017937302589417f,-0.0882795974612236f,0.04877811670303345f,-0.6644454002380371f,-0.10469503700733185f,0.28491151332855225f,0.0950462743639946f,-0.9320800304412842f,0.40321382880210876f,0.31507739424705505f,0.0712927058339119f,0.5116914510726929f,-0.25452104210853577f,-0.4823989272117615f,0.15832360088825226f,0.11581990867853165f,-0.05137598142027855f,-0.1718422919511795f,-0.19565047323703766f,-0.21067820489406586f,-0.14514903724193573f,-0.13669262826442719f,0.010337801650166512f,-0.005974054802209139f,0.050894591957330704f,0.14620745182037354f,-0.47489747405052185f,-0.386904776096344f,0.19833865761756897f,0.058043863624334335f,0.5632203221321106f,-0.1750236600637436f,-0.03186769783496857f,0.3656757175922394f,0.5357553362846375f,0.07159030437469482f,-0.12701769173145294f,-0.6092013716697693f,0.1577642410993576f,0.42445218563079834f,-0.5411151051521301f,-0.5447559356689453f,0.5760775208473206f,-0.30958202481269836f,-0.1550419181585312f,-0.4890316128730774f,-0.595061719417572f,-0.38090580701828003f,-0.06569790840148926f,-1.6794235706329346f,-0.6364261507987976f,0.158427432179451f,0.0030814677011221647f,-0.541031002998352f,0.06947945803403854f,-0.7744609117507935f,0.016869228333234787f,-0.3989291787147522f,0.13579098880290985f,-0.35226842761039734f,0.27594810724258423f,-0.14889535307884216f,-0.2726162075996399f,0.10608159750699997f,7.743378955638036e-05f,-0.0693894773721695f,-0.14064699411392212f,-0.3773232698440552f,-0.013713949359953403f,-0.34455642104148865f,-0.03751664236187935f,-0.4165954887866974f,-0.29819798469543457f,-0.3257352113723755f,-0.38510990142822266f,0.19572772085666656f,-0.40205609798431396f,-0.2775212824344635f,-0.3324275314807892f,0.30971759557724f,0.2897090017795563f,-0.08030188828706741f,0.08399396389722824f,0.2042033076286316f,-0.988072395324707f,0.10877259820699692f,0.27435630559921265f,-0.08451712876558304f,-0.2034974843263626f,-0.26607444882392883f,0.2812608778476715f,-0.13607916235923767f,-0.5257514119148254f,-0.14895275235176086f,-0.2476734220981598f,-0.8372873663902283f,0.202177494764328f,-1.14398992061615f,-0.39346668124198914f,0.561612069606781f,-0.088173046708107f,-0.2250671088695526f,0.5379660129547119f,0.20116496086120605f,0.011438255198299885f,0.4023042917251587f,0.4489764869213104f,-0.9243707060813904f,0.7213119864463806f,0.4723549783229828f,-0.8920129537582397f,-0.22061339020729065f,-0.09116111695766449f,0.046343885362148285f,0.2426547259092331f,-0.03415904566645622f,0.1529703289270401f,0.3244069814682007f,0.13317587971687317f,-0.007180972956120968f,0.4177030920982361f,0.044988442212343216f,-0.1794123649597168f,0.512295663356781f,0.13522179424762726f,-0.22896204888820648f,0.025058075785636902f,-0.727394700050354f,-0.3708048164844513f,0.4289276599884033f,0.7402145266532898f,0.3883090317249298f,0.2686595618724823f,0.42576655745506287f,0.7152678370475769f,0.6939890384674072f,0.43364349007606506f,0.07798222452402115f,-0.07219315320253372f,0.08064998686313629f,0.2322327047586441f,-0.49693500995635986f,-0.01341019943356514f,-0.05681698024272919f,-0.3481263220310211f,-0.037230946123600006f,-1.2921650409698486f,0.07908165454864502f},
{-1.4371188879013062f,0.3114340305328369f,-0.7435740232467651f,0.4231095016002655f,-0.6210752129554749f,0.562778115272522f,-1.5487476587295532f,0.211551696062088f,-1.272534966468811f,0.051398228853940964f,-0.11389428377151489f,-0.39722704887390137f,-0.13068002462387085f,-0.19142907857894897f,-0.08651073276996613f,-0.24715016782283783f,-0.09375698864459991f,0.2607516348361969f,0.3186124563217163f,-0.03136517480015755f,0.2673397660255432f,0.05785093456506729f,0.16438628733158112f,0.41700828075408936f,0.26961255073547363f,0.20270951092243195f,0.4773445129394531f,-0.575766384601593f,-0.37987416982650757f,-0.037606995552778244f,-0.29760950803756714f,-0.5666943788528442f,-0.2212551385164261f,-0.25867658853530884f,-0.33653345704078674f,-0.6700537204742432f,0.313612163066864f,0.34949368238449097f,0.12394358217716217f,-0.2767171561717987f,0.14229664206504822f,0.3283672034740448f,0.3258167803287506f,0.1509866565465927f,0.37183767557144165f,-0.04740119352936745f,-0.2221110612154007f,0.02637483738362789f,0.20984555780887604f,-1.6062840223312378f,-0.08237884938716888f,0.19337981939315796f,0.028715772554278374f,0.09529995173215866f,0.43680089712142944f,0.41191577911376953f,0.2775973379611969f,0.3306848406791687f,0.32318174839019775f,0.39491233229637146f,0.45952746272087097f,0.31514090299606323f,0.4815654158592224f,-0.46635469794273376f,0.056359581649303436f,0.13573843240737915f,0.0492294616997242f,-0.3174143433570862f,-0.18343138694763184f,0.04261487349867821f,-0.40487566590309143f,-0.697671115398407f,0.4157303273677826f,0.469736248254776f,0.4783923029899597f,0.11737118661403656f,0.2539370656013489f,0.4299456775188446f,0.461269348859787f,0.1842891275882721f,0.4293828010559082f,-0.08196892589330673f,-0.5126418471336365f,-0.4820489287376404f,-0.5156059265136719f,-0.37350478768348694f,-0.24593016505241394f,-0.5399885773658752f,-0.38875603675842285f,-0.08918094635009766f,0.09829838573932648f,0.4013434052467346f,-0.4422591030597687f,0.35427942872047424f,1.2624895572662354f,0.6128973364830017f,-0.27041125297546387f,-0.040627241134643555f,-0.6908471584320068f,0.24371498823165894f,0.22268110513687134f,-0.019963206723332405f,0.27603721618652344f,0.04338923469185829f,-0.014308784157037735f,-0.18427252769470215f,-0.10743832588195801f,0.5413487553596497f,-0.18951153755187988f,-0.20106607675552368f,-0.12072398513555527f,-0.012093691155314445f,-0.17021611332893372f,-0.06408511847257614f,-0.017292916774749756f,-0.05901947617530823f,0.05032352730631828f,-0.06054712459445f,0.12888440489768982f,0.656034529209137f,-0.031288065016269684f,0.0801500678062439f,0.24430963397026062f,0.20624543726444244f,0.006610565353184938f,0.09796301275491714f,-0.18389075994491577f,0.1834951937198639f,-0.006310031283646822f,-0.2815283238887787f,0.02352597564458847f,-0.05634869635105133f,-0.2833186984062195f,-0.017369937151670456f,-0.04372449219226837f,0.07500305026769638f,0.1736968457698822f,0.43007293343544006f,0.3604218363761902f,-0.8969988822937012f,-0.11211864650249481f,-0.023366091772913933f,0.12263346463441849f,0.3417667746543884f,-0.413661926984787f,-0.1734902560710907f,-0.23665295541286469f,-0.17694129049777985f,-0.5023859739303589f,-0.21574176847934723f,-0.2123989760875702f,-0.37862709164619446f,-0.05257576331496239f,-0.05160345137119293f,0.005443815141916275f,0.12998095154762268f,0.0519731342792511f,0.35248780250549316f,-0.0979006364941597f,0.14919063448905945f,0.24364477396011353f,0.09806618094444275f,-0.052980680018663406f,0.29593533277511597f,-0.040505047887563705f,0.09748709201812744f,-0.38214993476867676f,-0.01000076625496149f,-0.2628943622112274f,-0.04206177964806557f,-0.3674784004688263f,0.12387304753065109f,-0.04595731198787689f,0.03993925824761391f,-0.05170807987451553f,-0.18400827050209045f,-0.18012116849422455f,-0.48222652077674866f,0.07276918739080429f,0.4483414590358734f,-0.4296450912952423f,0.2960346043109894f,-0.7755981087684631f,0.47430068254470825f,-0.522738516330719f,0.6536375284194946f,-0.8427172303199768f,0.30670857429504395f,-0.840596616268158f,-0.7226427793502808f},
{-0.04422518238425255f,0.10449108481407166f,1.907481074333191f,0.43782636523246765f,0.4688396155834198f,-0.1140715479850769f,0.5561835169792175f,0.17569290101528168f,0.11649907380342484f,0.5680805444717407f,0.1256612092256546f,0.17954856157302856f,-0.060364995151758194f,0.2846611440181732f,0.08763618767261505f,0.08075624704360962f,0.11941352486610413f,0.2627027630805969f,0.1714709848165512f,-0.05111152306199074f,0.20758280158042908f,0.2722366452217102f,0.24591393768787384f,-0.02629251591861248f,0.03084578365087509f,0.316551148891449f,0.12174864113330841f,-0.8628487586975098f,-0.6147909164428711f,-0.4670737087726593f,-0.5214353203773499f,-0.77960205078125f,-0.4896217882633209f,-0.6471156477928162f,-0.5674757957458496f,-1.0506834983825684f,0.060336265712976456f,0.21541881561279297f,0.1327996551990509f,-0.10038367658853531f,0.20993684232234955f,0.6360467076301575f,0.4731755256652832f,0.181191548705101f,-0.01870402880012989f,-0.0579865500330925f,-0.11907920241355896f,0.13122877478599548f,-0.15513046085834503f,-0.7792262434959412f,-0.07575591653585434f,0.015329144895076752f,0.07210396230220795f,0.06410477310419083f,-0.028314338997006416f,-0.08384423702955246f,-0.05268115550279617f,0.04542497545480728f,0.03475833311676979f,0.37135517597198486f,-0.007195167243480682f,-0.18644487857818604f,-0.03781408444046974f,0.21493692696094513f,0.2010820060968399f,-0.045594509690999985f,0.2671079933643341f,0.3672524094581604f,0.14996497333049774f,0.1943570375442505f,0.15108542144298553f,0.11135022342205048f,-0.2696061432361603f,-0.3019128441810608f,-0.20332281291484833f,0.022101830691099167f,-0.17781594395637512f,-0.08106966316699982f,-0.3419051468372345f,-0.4346100389957428f,-0.23482158780097961f,0.2307712286710739f,0.11975803226232529f,0.2241908609867096f,-0.05502655357122421f,0.2514919638633728f,-0.10799851268529892f,0.1204669326543808f,0.08576060086488724f,0.24508242309093475f,0.013584401458501816f,-1.1003949642181396f,0.9188603758811951f,-0.8229447603225708f,-0.2347755879163742f,-0.9804900884628296f,-0.5165793895721436f,0.4641515910625458f,-0.5936349034309387f,0.21448257565498352f,-0.12941493093967438f,-0.0412430502474308f,-0.09872721135616302f,-0.4675929546356201f,0.20259425044059753f,-0.26737308502197266f,-0.264313280582428f,-0.21570102870464325f,-0.2135971188545227f,-0.40184688568115234f,-0.2497532069683075f,-0.29554077982902527f,-0.47497621178627014f,-0.058463238179683685f,-0.13438160717487335f,0.034939635545015335f,-0.3499356806278229f,0.5704317092895508f,0.44786226749420166f,0.9305323362350464f,0.5578494071960449f,1.059955358505249f,0.4926992654800415f,0.7772449851036072f,0.6414286494255066f,0.6033795475959778f,-0.18087409436702728f,-0.2642023265361786f,-0.4624398350715637f,-0.2915448248386383f,-0.2848908007144928f,0.17813900113105774f,-0.16986916959285736f,-0.06751268357038498f,-0.3769005239009857f,-0.1643097996711731f,0.0010658500250428915f,0.061959121376276016f,-0.018769048154354095f,-1.1446032524108887f,-0.05746502801775932f,-0.3471348285675049f,0.12814417481422424f,0.0010519298957660794f,-0.25033658742904663f,-0.3165360987186432f,-0.5873319506645203f,-0.3478771448135376f,-0.36981847882270813f,-0.1530768871307373f,-0.3048689663410187f,-0.44093307852745056f,-0.4538850784301758f,-0.17321664094924927f,-0.06809574365615845f,-0.05214203521609306f,0.019929831847548485f,0.27512532472610474f,0.1431952863931656f,-0.07936328649520874f,-0.042920660227537155f,-0.3109757900238037f,0.4053073227405548f,-0.11426861584186554f,0.45345625281333923f,0.06884390115737915f,0.6960461735725403f,0.45047205686569214f,0.5191453695297241f,-0.12888270616531372f,0.20037761330604553f,-0.16458339989185333f,-0.10778134316205978f,-0.22248564660549164f,-0.200460284948349f,-0.23969988524913788f,0.05252751335501671f,-0.3132186532020569f,-0.022578639909625053f,0.11429893970489502f,0.05545711889863014f,0.039931029081344604f,-1.153002142906189f,0.49219048023223877f,-0.20246253907680511f,0.07333797216415405f,0.1316194087266922f,-0.8031238913536072f,-0.3085210919380188f,0.03326306864619255f},
{-0.3618369400501251f,-0.13272622227668762f,-0.056969571858644485f,-0.10553032159805298f,0.22810113430023193f,0.09930834174156189f,-0.12831249833106995f,-0.46933600306510925f,-0.41342899203300476f,-0.24387308955192566f,0.16040167212486267f,-0.09078783541917801f,-0.06665477901697159f,0.08582858741283417f,-0.027238426730036736f,-0.03582983836531639f,0.14675244688987732f,0.004139603115618229f,-0.04235750436782837f,0.23874704539775848f,0.0011236198479309678f,0.18676267564296722f,0.17470978200435638f,0.14847345650196075f,0.1635393649339676f,0.29318585991859436f,0.21518072485923767f,-0.13825814425945282f,0.09023876488208771f,-0.0820421651005745f,0.07643134891986847f,0.1669173240661621f,-0.06202029436826706f,0.006125479470938444f,0.1634557843208313f,-0.023764440789818764f,-0.1024230495095253f,0.09849287569522858f,-0.11173918098211288f,0.1512608826160431f,0.0763176679611206f,0.12151606380939484f,0.07387752085924149f,0.1021643579006195f,-0.014781378209590912f,-0.6424978375434875f,0.7139243483543396f,0.275883287191391f,0.9560037851333618f,-2.2150895595550537f,0.36608755588531494f,0.517439603805542f,0.20436176657676697f,-2.531641960144043f,-0.13821394741535187f,0.07481860369443893f,-0.17864936590194702f,0.0434761606156826f,0.06505587697029114f,0.1220269650220871f,-0.0739070400595665f,0.12182243168354034f,-0.0026228437200188637f,-0.25756344199180603f,0.1748332977294922f,0.07554734498262405f,0.13563908636569977f,0.1225905492901802f,-0.05962558090686798f,-0.09391732513904572f,0.17774564027786255f,0.030141469091176987f,-0.09705356508493423f,0.19221672415733337f,0.0588398352265358f,0.15920332074165344f,0.16783004999160767f,0.04945607855916023f,0.13007387518882751f,0.16239014267921448f,0.19085389375686646f,-0.13222984969615936f,0.023574553430080414f,-0.17947407066822052f,0.04751771688461304f,-0.0432230643928051f,-0.08524171262979507f,-0.09831777960062027f,0.0495448037981987f,-0.09297806024551392f,-0.5512617230415344f,0.0016123205423355103f,-0.03177270665764809f,-0.08662037551403046f,-0.8114315271377563f,0.1639576256275177f,0.27186766266822815f,0.24748356640338898f,-0.31544771790504456f,0.010680296458303928f,-0.014819318428635597f,0.11927170306444168f,0.18996495008468628f,0.2259550541639328f,0.12674903869628906f,0.0683913454413414f,0.08879124373197556f,0.012655997648835182f,0.012365500442683697f,-0.12963280081748962f,-0.0030992368701845407f,-0.13631221652030945f,0.036681339144706726f,-0.11994342505931854f,-0.07173924893140793f,-0.054672759026288986f,0.03739146143198013f,0.17719224095344543f,0.03466742858290672f,0.11560296267271042f,0.0492950901389122f,0.08288223296403885f,0.2186429351568222f,0.182814821600914f,0.08569887280464172f,0.16034141182899475f,-0.034216832369565964f,-0.1577850580215454f,-0.06663062423467636f,-0.0431840643286705f,0.054401323199272156f,-0.18138989806175232f,-0.10578666627407074f,-0.15310265123844147f,-0.024205777794122696f,2.236175060272217f,-0.8169272541999817f,-0.3376784920692444f,-0.8827109336853027f,-0.19290171563625336f,-0.32996585965156555f,-0.16442148387432098f,-0.003703191876411438f,-0.32319822907447815f,0.09634923934936523f,-0.06515146791934967f,0.011474847793579102f,0.060458019375801086f,0.08831606805324554f,0.08839689940214157f,0.0796530544757843f,-0.004610640928149223f,0.09050320088863373f,0.173540860414505f,-0.036977618932724f,-0.15033318102359772f,0.0017710195388644934f,0.2842051386833191f,0.028059331700205803f,-0.09006831794977188f,0.04368635267019272f,0.22616766393184662f,-0.08445850014686584f,-0.21717894077301025f,-0.24791228771209717f,-0.10167471319437027f,0.0003108098462689668f,-0.11328394711017609f,-0.04006161540746689f,-0.3349025249481201f,-0.1465185284614563f,0.279115229845047f,-0.06688607484102249f,-0.13970093429088593f,0.02331988513469696f,-0.1593332588672638f,0.2045668214559555f,0.049013882875442505f,0.08295426517724991f,0.16826382279396057f,-0.20740987360477448f,-0.15829777717590332f,-0.113812655210495f,-0.1829351931810379f,-0.27147382497787476f,-0.1278776377439499f,-0.12232977896928787f,-0.24348072707653046f,-0.4279513657093048f,-0.5368687510490417f},
